-0.00886665005237
-0.0116822198033
-0.0211194921285
0.0084725311026
-0.00674011791125
-0.00632069446146
0.00626895064488
0.00718595460057
-0.00918582174927
0.00553149729967
0.0110364034772
0.00251844758168
-0.00273383315653
-0.0284972768277
-0.0327551960945
0.00594479124993
0.0210837610066
-0.010576528497
-0.0106883067638
0.00228384369984
0.0108078718185
0.0130600705743
-0.00924473535269
0.00344640738331
-0.0119446469471
0.00610742438585
0.0223228540272
-0.0158982146531
-4.08045889344e-05
-0.00157243711874
-0.00564200757071
-0.0128886178136
0.00734092108905
-0.00787645764649
0.00502209644765
0.015420219861
-0.00653845816851
0.00992287322879
-0.00245870719664
0.00480949087068
0.0012738564983
-0.0108304396272
-0.013260952197
0.0126047376543
-0.00683795288205
-0.0170444082469
0.0031536531169
-0.0101932669058
-0.00442687468603
-0.0127163520083
-0.000703961530235
-0.0218541119248
-0.0124034713954
-0.0115054156631
-0.0182969868183
0.00882218778133
0.00942665245384
0.0164108406752
0.00416654720902
-0.0213095676154
0.0188208278269
0.00824379455298
-0.00220130803064
0.0159111395478
-0.0134587595239
0.00343939033337
0.00884536094964
0.00849663838744
-0.0123378513381
0.0050111762248
-0.00923261232674
0.0104872109368
-0.0104802865535
-0.00569383474067
-0.0109231062233
0.00630928156897
0.00438301684335
-0.00896494928747
0.00388998538256
-0.0197986010462
0.00662816409022
-0.0178809594363
0.0147591810673
0.0364780947566
-0.0143180498853
-0.0143157588318
-0.00733274687082
-0.00977565441281
-0.0076175131835
-0.0213219057769
-0.000461098534288
-0.0019180746749
-0.0328581295907
-0.00354374665767
-0.026285443455
-0.0269082561135
0.00462025776505
-0.00274817505851
-0.00219714618288
-0.00505619077012
-0.00721723306924
-0.00509397266433
0.0206935666502
-0.0498900748789
-0.017879480496
0.00273251836188
-0.00347300060093
-0.00965852849185
-0.0224858205765
0.0160137116909
0.0109269581735
-0.00543831987306
-0.0286091864109
0.0050175129436
-0.0040961811319
-0.0132678383961
0.0170997865498
-0.0213088784367
-0.001905651181
0.0141865806654
-0.0133013660088
-0.0072451303713
0.00976999290287
-0.0289251040667
-0.0049831350334
-0.0198997501284
0.00930685829371
0.0137565257028
-0.0018225236563
-0.0111696636304
-0.00772079033777
-0.00299987965263
-0.0142696667463
-0.02496490255
-0.00396808888763
-0.0147555600852
0.0104208551347
-0.0127135580406
0.00570957968011
-0.00167425558902
0.00916115567088
0.00319120986387
-0.0105480458587
-0.0010704905726
-0.009231925942
-0.00819009169936
-0.00841157510877
-0.0193655882031
-0.00664239423349
-0.0209845975041
-0.00260998238809
-2.25542044063e-05
-0.0196980480105
-0.0103741167113
-0.0212051607668
-0.0145883271471
-0.00598812289536
-0.0114373490214
0.00235669431277
-0.0083405636251
-0.0066068097949
-0.0146504100412
-0.00382012920454
-0.00406264234334
-0.00874044094235
0.00216909055598
0.000846457842272
-0.0117015354335
-0.0148401139304
-0.00612621754408
-0.00319196982309
-0.00210206001066
-0.0075439652428
-0.00127524358686
-0.00501382723451
-0.00030175872962
0.00122579291929
-0.0205661207438
-0.00355595350266
0.00235106190667
-0.000648361456115
-0.00704134022817
-0.0136720035225
-0.00815104972571
-0.00196104915813
0.00277052517049
0.000236403473536
-0.0163437351584
-0.0273522846401
-0.0143607454374
-0.0107655189931
-0.000612123054452
-0.0175856929272
-0.00815043598413
-0.0093584312126
-0.0157028064132
-0.0205507911742
-0.0155847435817
-0.00224810326472
-0.0117072137073
-0.015122002922
-0.0113442242146
0.00240139756352
-0.00842518638819
0.00171795091592
-0.0110400700942
-0.00357763306238
-0.00259277201258
0.00197313679382
-0.00305111682974
-0.00765752606094
-0.0242859553546
0.00484066549689
0.0015361829428
-0.0206188373268
-0.00311151659116
-0.00290255644359
-0.00133893731982
-0.00166931492276
-0.00218479637988
0.00708703557029
-0.00877563562244
-0.00526628410444
-0.00920420046896
-0.00904670823365
-0.0218778643757
-0.0119425775483
0.00390453683212
-0.00820175558329
-0.016239957884
-0.00610210560262
0.0121683776379
-0.00234904140234
-0.00366540811956
0.00408183364198
-0.00675216317177
0.0109992679209
-0.00639334926382
-0.00291368551552
-0.00474117789418
0.00220482703298
-0.0173295140266
-0.00719250319526
0.00597899500281
-0.00145488628186
0.00549814710394
-0.00674051931128
-0.00544171733782
-0.00766724394634
-0.000263452064246
-0.0063203824684
-0.0425114929676
-0.0138288624585
-0.00139401294291
-0.00129637669306
-0.0142967039719
0.0587510541081
-0.0222378075123
-0.0355921462178
-0.0312853343785
0.0316941104829
-0.0353307053447
-0.029399709776
-0.00878365617245
-0.0349555984139
0.0190519336611
-0.0121646691114
-0.00525637343526
-0.0287438873202
0.0423708446324
-0.0246823504567
-0.0228937212378
-0.0140130128711
0.0372805297375
-0.0211822036654
-0.0253405366093
-0.0307686273009
-0.037315890193
0.0560047738254
-0.0294394697994
-0.0243327207863
-0.0306533630937
-0.0064650112763
-0.0306512955576
-0.02191985026
-0.0105307819322
-0.0238465759903
-0.00446677347645
-0.0051105171442
-0.0260100383312
-0.00934294238687
-0.00385437882505
-0.024036442861
-0.011097333394
-0.0343313850462
-0.0297909732908
-0.0259253811091
-0.0236896257848
0.0519920103252
-0.0214607212692
-0.0148763963953
0.00563242239878
0.0198233015835
-0.0321670174599
-0.0277093518525
-0.0173377282917
0.00515867164358
0.0301761832088
0.0152237340808
-0.0211758762598
-0.0329035148025
-0.0213430635631
0.0227941181511
0.00690875109285
-0.00124327559024
-0.0260671358556
-0.0278634075075
-0.00910189561546
-0.0297700800002
-0.0148721868172
-0.0183773692697
-0.0134201981127
-0.0229006111622
-0.0222257189453
0.00212753447704
0.0150349307805
-0.0450845137239
-0.0373180061579
-0.0234945621341
-0.0347414985299
0.0286985374987
-0.0139459883794
0.00639346381649
0.0294755008072
0.00566196767613
-0.0186283681542
-0.00527987070382
0.00970825366676
-0.0105675943196
0.0229309927672
0.0430630519986
0.00243067438714
-0.0266341362149
-0.0426483601332
0.00367869832553
0.0189380161464
0.00554924458265
-0.0310107693076
-0.0144011415541
-0.0131697971374
-0.0296426732093
-0.0340416617692
-0.000465002493002
-0.0160318817943
0.029010379687
0.0041230795905
0.0190605670214
-0.0197028852999
-0.00651625776663
-0.00581579655409
-0.00297372788191
0.00773620884866
-0.0180979799479
0.000899872684386
0.0259920358658
-0.0256372652948
-0.00737314019352
-0.0463665574789
0.0303663127124
-0.0340299159288
-0.0447324775159
-0.0324949882925
0.000280555977952
0.0148174706846
-0.0392241030931
0.00728113157675
-0.00696281436831
-0.045949626714
-0.0342330336571
0.0293955020607
-0.0179974790663
-0.0272982064635
-0.0106733134016
-0.0111665856093
0.000658891978674
0.00387925002724
0.0169723499566
0.00139250326902
-0.00942739006132
-0.004459454678
0.0128513770178
-0.0316159427166
0.01270950865
0.0115261320025
-0.0121583230793
-0.00336135271937
0.00257085124031
0.00464803306386
-0.0105800703168
0.00273074558936
-0.00609233416617
0.00237790145911
-0.0197698753327
-0.00145038834307
0.00510396808386
0.00280617293902
-0.00857022497803
0.00284935883246
-0.0177257638425
0.00132188771386
-0.0479913465679
-0.00827137567103
-0.00707737775519
-0.00805169250816
0.000517471809871
-0.00212430139072
0.00549899693578
-0.0215630363673
-0.00595867913216
-0.037597630173
-0.00190734770149
0.00797386560589
0.0186560545117
0.0130333965644
-0.0229767803103
-0.00637251511216
-0.00926353223622
-0.00154869782273
-0.00729119265452
0.0165956560522
0.00866751652211
0.0060747875832
-0.0072611849755
-0.037504401058
0.00519900675863
0.00789382308722
0.00146612967364
-0.0149921718985
-0.0026489875745
-0.010253646411
-0.0106949303299
-0.00160771771334
-0.000719504721928
-0.020095275715
-0.00996618531644
-0.0376690216362
0.00525298016146
0.00591179402545
-0.0265708286315
-0.0264720618725
0.00269944197498
-0.00368211371824
-0.0265406891704
-0.0123586626723
0.00557962944731
0.0106189269572
-0.0225106775761
-0.00125391280744
0.00259770662524
-0.00539855193347
-0.00920089241117
-0.00719901965931
-0.0165953338146
-0.0283935703337
0.00393841601908
-0.013080839999
0.0112299900502
0.0218572057784
-0.0232649277896
0.00842039939016
-0.00747568905354
0.0209323428571
0.0104968752712
0.00598536850885
0.0090809026733
-0.00143417390063
0.030531456694
-0.0143080875278
-0.03804917261
-0.00399986235425
-0.0130278682336
-0.0487231723964
-0.000567694194615
0.00189972727094
0.00770417880267
-0.0355471558869
-0.0107933990657
0.0292093008757
-0.015025046654
-0.0167828965932
0.0128057757393
-0.01338788867
0.0122725302354
0.0188343264163
-0.00911124609411
0.0101587316021
0.00896422564983
0.00221533188596
0.0139433667064
-0.00122933799867
0.00556855648756
0.0218285936862
0.00814221426845
-0.0123009784147
-0.0097240852192
0.0116453049704
0.0112217469141
-0.0551093295217
-0.0391493476927
-0.00542934425175
0.00643305666745
-0.0400377810001
0.0166154224426
0.000300070736557
-0.00670425500721
-0.0116706965491
0.0285962857306
0.000797432265244
-0.00855572707951
-0.000152499924297
-0.02170073241
0.0163986254483
-0.0142264729366
0.0064118145965
-0.021279938519
0.0124771781266
0.00489426963031
-0.00362822809257
0.00337348249741
0.0203267205507
0.00896967109293
0.00471292249858
-0.00673397537321
0.00363313243724
0.022021394223
-0.0122961830348
0.0040016528219
0.00324846478179
0.00551323033869
0.00528327003121
0.0033809072338
0.00832760892808
-0.00188769761007
0.00377232092433
0.00892650242895
-0.00351370824501
-0.00022361210722
-0.00828430149704
-0.00418749265373
-0.00151248241309
-0.0116169964895
-0.00408896617591
-0.00220357277431
-0.00435576727614
0.0227525550872
-0.00634788535535
0.00687721790746
0.0027963120956
0.0149999894202
-0.0140578420833
-0.00652126269415
-0.000245510222157
0.00718010403216
0.0131954289973
0.00522091658786
0.00375969428569
0.00170696200803
-0.00639876816422
0.0139520959929
-0.00145133771002
-0.00512604881078
0.00419260468334
0.00771881500259
0.0065455310978
-0.00534118479118
-0.00177668733522
-0.000317265745252
0.0028816005215
-0.00444087572396
0.00552208162844
0.00353646790609
0.00739432638511
-0.00984480604529
-0.006890184246
0.00384989869781
0.00106421660166
0.00522196246311
0.0019269445911
-0.00222310214303
0.0171207971871
-0.00752328708768
0.00893721543252
-0.00861156359315
0.0105215813965
-0.00203924602829
0.0257846973836
0.00848815962672
0.000949962297454
-0.00116119650193
-0.0144291995093
0.0129915745929
0.0116986045614
0.00676533067599
-0.006196053233
-0.0153969451785
0.00184383720625
0.0158493611962
0.00384083203971
-0.00125833391212
0.0142714288086
0.0133762741461
-0.00551170436665
0.0167272537947
0.000228280216106
0.00279470463283
-0.0136781996116
0.00516412965953
-0.00227853585966
-0.0144716966897
0.00525255547836
-0.00151685089804
-0.00866262428463
-0.00168771401513
-0.00646500801668
0.00433976808563
-0.00127318385057
-0.00507267797366
-0.00907993782312
-0.00293843238614
-0.00111249415204
-0.0100726317614
0.00674115493894
0.000809487537481
-0.00660852948204
-0.00151018716861
0.00547925103456
0.00861080363393
0.000915926473681
-0.00810067355633
-0.00352655001916
0.0219882540405
-0.00622576195747
-0.00681491335854
-0.00307860621251
0.00583074660972
-0.0155269354582
-0.00428549945354
-0.0117464130744
0.000416627677623
0.00261125853285
0.00727346492931
0.000349488516804
-0.00115246057976
0.018421150744
-0.00919244252145
-0.00775881437585
-0.00859913602471
0.0135729396716
-0.00785975251347
-0.0139525141567
-0.0112383905798
-0.0154623920098
0.0149718355387
-0.00498557649553
-0.0205710474402
-0.00795258581638
-0.0114200487733
-0.00910013820976
-0.00818314123899
-0.0090829571709
-0.00813270080835
-0.00894261151552
-0.00257700565271
-0.0145384501666
-0.00184506212827
-0.0130190243945
-0.0110217789188
-0.0128250103444
-0.00636028964072
-0.00445376383141
-0.0167490262538
-0.00376745522954
0.0142117310315
-0.00658664107323
-0.00511713977903
-0.00269734929316
-0.00458236737177
-0.00442141434178
-0.00157825113274
-0.0104149244726
0.00267627765425
0.00499678449705
0.0135493362322
-0.00816675368696
-0.0118725821376
-0.00819010194391
0.00130610109773
-0.00482590682805
0.00449826288968
-0.0137175153941
-0.0206863563508
-0.0110201882198
-0.0143347904086
-0.0103417290375
-0.0168279148638
-0.00648886617273
-0.00705040898174
-0.00924943014979
-0.00740252481773
-0.00326126930304
-0.00272332690656
-0.00422726944089
-0.00987238716334
-0.014994006604
0.0146452784538
-0.011077276431
0.00517097068951
0.00640172930434
-0.0036462424323
-0.00193819322158
-0.00192285724916
-0.0073721697554
-0.00652850605547
0.00219244556502
0.00586222112179
-0.00358930579387
-0.0175488870591
-0.00373690202832
0.00167448318098
0.00365765672177
0.000529382785317
-0.0038369144313
0.00961151625961
-0.00907824747264
-0.00522554432973
-0.00890568364412
-0.0062966090627
-0.0154954819009
0.00655133090913
0.0094076404348
0.00148727616761
-0.00990259833634
-0.0027471492067
0.0198316723108
-0.00900129508227
-0.00416966620833
-0.00331345573068
-0.00899329129606
0.0198949351907
-0.00892597809434
-0.00779519509524
-0.00228517060168
0.0103909550235
-0.0114223621786
-0.00820123963058
-0.00061440828722
0.00156156730372
0.00844508688897
-0.00618730485439
-0.00881057884544
-0.00413086870685
0.000897776859347
-0.00225324626081
-0.0117928832769
-0.0112271085382
-0.00490334443748
-0.000749389757402
-0.0143648358062
0.00394440954551
0.00526681123301
-0.0201826579869
-0.00112821755465
0.010551251471
-0.00357560277916
-0.00411465205252
-0.00226435391232
-0.0112839415669
0.00231347954832
-0.000204903219128
0.00553130311891
-0.012718542479
0.000754767213948
0.00716043403372
-0.00639652088284
0.000228918768698
0.000132342902361
0.00900288764387
-0.0051388265565
-0.00968785583973
-0.00759073672816
0.000655832700431
-0.00943288765848
0.00563333788887
-0.00914312060922
-0.00467952527106
-0.000534506107215
-0.00542709231377
-0.00115830881987
-0.00810374505818
-0.000860994914547
0.000872209609952
0.00449185818434
-0.00176557875238
0.0039312816225
-0.0146022876725
-0.00957072060555
-0.0115618566051
-0.00740551669151
-0.00207561790012
0.000560997345019
0.00233750441112
-0.00733969500288
0.00629431474954
0.00760865258053
-0.00258913030848
-0.00711019150913
-0.00106334197335
0.00727791385725
0.00263113668188
-0.00836765952408
0.00254544755444
0.00821869634092
-0.00398276373744
-0.00673630461097
3.80976803172e-06
-0.00441345153376
-0.00836092606187
0.00667663337663
-0.00356745254248
0.00796250160784
-0.0176973193884
-0.00721092056483
0.00512873474509
0.00547603471205
-0.00152643478941
0.00536027736962
-0.0147577160969
-0.00812993943691
-0.0147558972239
-0.00118572008796
0.00758196366951
-0.0105955712497
-0.0054760905914
-0.0166728105396
-6.74015536788e-05
-0.00725663034245
-0.00730431405827
0.0156423263252
-0.0153038874269
0.00600233627483
0.00265094288625
0.00610088557005
0.000963306927588
-0.00253593572415
-0.00580531312153
-0.00639886315912
0.00732420664281
0.00818729028106
0.00217198533937
-0.00677525810897
-0.0104398597032
0.00346884690225
0.025557756424
0.00192850932945
-0.0102374488488
0.00847981963307
-0.00174356682692
-0.00599778071046
0.00371196493506
0.00809517968446
-0.00375673361123
-0.00955148879439
0.00557782826945
-0.0061457734555
-0.012833298184
-0.00260852230713
0.011471722275
-0.00813196785748
0.000459354341729
-0.0118100307882
0.00136141164694
-0.00820070784539
-0.0108595164493
-0.014278082177
-0.00806641019881
0.00679085962474
-0.0053502204828
-0.00197410210967
-0.00783000420779
-0.0115268463269
-0.00438573630527
-0.015566514805
0.00969202350825
-0.00100348668639
-0.00821767002344
-0.00147513393313
-0.00437485612929
0.00405072048306
-0.00909607578069
0.0107559971511
-0.0071571287699
0.00297776889056
0.0169790256768
-0.0119600677863
0.00493681663647
0.00864817108959
0.00482472917065
0.00413622707129
-0.000651574926451
-0.0120522985235
-0.00770102301612
0.00393080990762
0.0149074727669
-0.00657880632207
-0.00189089938067
0.00599191337824
0.0122672310099
0.00314148003235
-0.0106852035969
0.00886769033968
0.0009859893471
-0.00793114583939
-0.00218746624887
-0.00233133556321
-0.0101310964674
-0.00117275072262
-0.0093450313434
-0.014836079441
0.00673634698614
0.00153679202776
0.00240331282839
-0.00791027676314
-0.00866648368537
0.00156266975682
0.00560986064374
0.0135816540569
-0.00431457813829
-0.00188704510219
-0.00990281905979
0.000866439891979
-0.0063827005215
0.002625586465
-0.00289832148701
0.00419811718166
-0.00644643604755
-0.0163056273013
0.00312425312586
-0.0164923239499
-0.00742746610194
-0.00184552255087
0.000837533734739
0.00451079010963
-0.000423945981311
0.00200498197228
-0.00456302752718
-0.0030185370706
0.0180821344256
-0.00745342532173
0.000763487827498
0.00692981109023
-0.0125440908596
-0.00353999296203
0.0128047745675
0.00809071399271
-0.0187203288078
-0.00508264731616
-0.00720094656572
0.019074337557
-0.00567377032712
-0.00735450396314
-0.00943115912378
-0.00531319715083
-0.00349861150607
-0.0115212043747
-0.00770750548691
-0.0119801815599
-0.00477993488312
-0.0098897209391
0.0111834472045
0.031598534435
-0.0188534520566
-0.0087195020169
-0.0014289788669
0.0110377883539
-0.00634859455749
-0.00733193196356
0.00278419116512
0.00236262963153
0.00188739877194
0.000245675444603
-0.0145743284374
-0.00606803363189
-0.00802997685969
-0.00550872599706
-0.0028378830757
-0.00633927900344
-0.00385462981649
-0.00144031865057
0.00298289745115
-0.0127994036302
-0.0221967659891
-0.00355577701703
0.00180573959369
-0.0130479158834
-0.00673350086436
0.0158547237515
-0.00145276391413
0.00451534008607
-0.00647962605581
0.00356584182009
0.00180336995982
-0.010934272781
0.00759666832164
0.00419894605875
0.0106852315366
-0.000553342222702
-0.0110625326633
-0.0103461472318
0.00844148080796
-0.0302608478814
-0.0072777941823
-0.015336483717
0.00500749051571
-0.0117937717587
0.0129174916074
0.000742263277061
-0.0178001672029
-0.0105841401964
0.0160861033946
-0.020032281056
-0.00474862800911
-0.00458850245923
-0.00849847123027
0.00196481868625
-0.00601389771327
0.00273537985049
-0.0082941967994
0.013646713458
-0.0103684058413
-0.0155677404255
-0.00903863739222
0.00950247514993
-0.00815335754305
-0.0154545698315
-0.0189596563578
-0.0164731610566
0.0149604491889
-0.0143326576799
-0.0133545435965
-0.0142006017268
-0.0125952232629
-0.0139360586181
-0.0129274465144
-0.00405349535868
-0.0158178824931
-0.00447689415887
-0.00265005207621
-0.0149431647733
-0.00473487796262
-0.00577126024291
-0.00854798592627
-0.0085246860981
-0.017670545727
-0.0100649576634
-0.0115737486631
-0.00605433620512
0.0155263887718
-0.00997859891504
-0.0065386639908
0.00238234456629
0.00316443713382
-0.00753514654934
-0.0109715610743
-0.0135469567031
0.00452202139422
0.00915866158903
0.0094222985208
-0.00613363925368
-0.015997229144
-0.011209866032
0.00408970937133
-0.00289075449109
-0.00504927989095
-0.0150803299621
-0.009740550071
-0.0104750348255
-0.0151889910921
-0.0130193009973
-0.00853811670095
-0.00614905497059
-0.0126010309905
-0.00697558466345
-0.00343244429678
-0.00457607675344
-0.0164010711014
-0.0100578125566
-0.00976443476975
-0.0174400769174
0.0114744510502
-0.0138211511075
-0.00171197904274
0.00498022092506
-0.00142466241959
-0.0117162000388
-0.00939940474927
0.00101434183307
-0.00151450524572
7.56638473831e-05
0.0164828095585
-5.51432167413e-05
-0.0146650467068
-0.00901517830789
0.0117299845442
0.0109064038843
0.00473563093692
-0.0199505854398
-0.00189254980069
-0.00777704454958
-0.0130236316472
-0.0151902623475
-0.00339384563267
-0.014761319384
0.00631519686431
0.003022253979
0.00616752542555
-0.0148120522499
-0.00656932825223
0.00535366451368
-0.00545745249838
0.00068520050263
-0.00817594304681
-0.00692612119019
0.0181419104338
-0.0144499149173
-0.0024576773867
-0.021942300722
0.0127821583301
-0.0129570188001
-0.0209222137928
-0.0141951134428
-0.00720485998318
0.0122509561479
-0.0177432671189
-0.00435850350186
-0.00410061422735
-0.0174931641668
-0.0169531088322
-0.00375339505263
-0.0118845915422
-0.00745120970532
-0.00628039194271
-0.00768302707002
-0.0188776776195
0.00897427182645
0.00875415932387
-0.00604026997462
-0.0208468362689
0.0202829670161
-0.00751001667231
0.0244222413749
0.00602125609294
-0.00164711649995
0.00126651488245
-0.015817001462
0.00969957560301
-0.0267317313701
0.0197831261903
0.0232804138213
-0.00517500052229
-0.0244551450014
0.0225616339594
0.0213149562478
0.0231925547123
0.0102543300018
-0.0182615108788
0.0163974296302
0.0233326572925
0.0195064600557
0.0222832094878
0.0196760445833
0.021854897961
0.00392701663077
0.0179083216935
0.0163174998015
0.00732713891193
0.0232360623777
0.0135835446417
0.00995936524123
0.00777612859383
0.0287543907762
0.014630666934
-0.00525027094409
0.0269025098532
-0.00778110185638
-0.0203672647476
0.0173043850809
0.0113996807486
-0.0289998315275
0.00546174170449
0.00317954923958
0.00827835127711
0.045569896698
-0.0130782071501
0.0124526284635
-0.00783683452755
0.0140422163531
0.0113764479756
0.0235835816711
0.00914716627449
0.0201092772186
0.00477412808686
0.0216122642159
0.00812029186636
0.0332594513893
0.0178657248616
0.0290205199271
0.0391273871064
0.0150620387867
0.0119367288426
0.00804193876684
0.0489179305732
0.0104356482625
0.00717098126188
-0.00705054868013
0.0279879011214
0.0093686869368
-0.0126612987369
0.0373001992702
-0.00153109442908
0.000966296123806
0.0111908996478
0.0187120828778
0.0103483721614
-0.00565429311246
-0.00732053210959
-0.00082889321493
0.00499008223414
0.0262897536159
0.0198437087238
-0.00842293910682
0.00235981284641
-0.0240619555116
-0.0192742329091
0.0203837864101
-0.0112912021577
0.00947055593133
0.037447180599
0.0190497152507
0.0106880664825
0.0419908426702
-0.00604295637459
0.00548843713477
-0.0118495225906
0.0204679872841
0.0120770502836
-0.0222269389778
0.0129747828469
0.0229728575796
0.0182131566107
-0.00257558422163
-0.0309320762753
0.0160472746938
0.0201400816441
0.0134278163314
-0.0137024754658
0.0139455543831
0.00670581497252
0.00846293848008
0.0177975445986
-0.0334172621369
0.00993070844561
-0.00192911596969
0.0342362746596
0.0139726251364
0.00797364860773
0.0687835216522
0.0301094762981
-0.00680149672553
0.0150919873267
0.0193304866552
-0.00481021590531
-0.0323652848601
0.023167854175
-0.0218644402921
-0.0438104569912
-0.00327611737885
-0.0074950652197
0.00101776968222
0.0012878079433
-0.0211335364729
-0.0134402662516
-0.00368066108786
-0.00320250820369
-0.0156684089452
-0.00737241050228
0.00355650763959
-0.0075867366977
-0.0147434649989
-0.00779282534495
0.0325112305582
0.0107779558748
0.00907298270613
-0.00536943972111
-0.01025563851
0.00722582312301
0.0203413143754
0.0233410876244
0.0149041013792
0.0113923549652
-0.0206008087844
0.0303900893778
-0.0345281250775
-0.016072653234
0.0294234845787
-0.0110868811607
-0.0110883498564
-0.00256557879038
0.00240562320687
0.0214348938316
0.00365668092854
-0.00816723052412
0.0121417986229
0.000374085473595
-0.0052458755672
-0.0464862287045
-0.0172124672681
-0.00888535939157
0.00219472264871
0.0142796551809
-0.030079126358
-0.0268503092229
0.011738397181
-0.00970835797489
-0.0141218863428
0.00452635530382
-0.00954301934689
0.00329984165728
0.000638756668195
-0.00928784906864
0.014509215951
0.0171270947903
0.00647728564218
0.0258985254914
-0.000103484926512
-0.0407046601176
-0.0141932908446
-0.0154821649194
-0.00418100133538
0.0157114136964
0.00409691827372
0.0183039866388
-0.0158254858106
-0.0235708411783
0.00807593390346
-0.00315975071862
0.0300403051078
-0.00662285787985
-0.01225181669
-0.0038027218543
-0.0280674304813
-0.00369466282427
0.00434345053509
-0.0247780159116
-0.0262690391392
0.00343256490305
0.00328090973198
0.0115390866995
0.00326150492765
-0.0136385234073
-0.0107392175123
-0.0113560734317
0.0157546829432
-0.00983788911253
-0.00539561035112
-0.0175630934536
-0.00800256244838
-0.0122316572815
0.0295645166188
-0.00400230893865
-0.00462220096961
-0.0250713266432
0.0243273153901
0.000820726563688
-0.00457251397893
0.0106490757316
-0.00218777079135
0.0038030592259
-0.00559605332091
-0.0186129231006
-0.0288962703198
-0.00226313620806
0.0257869977504
0.00424269679934
-0.00919996667653
0.0338154695928
0.0315588079393
0.000937910575885
-0.00606811977923
0.00815029907972
-0.00975097157061
0.0113155571744
0.0221609733999
-0.0215990897268
-0.0062594814226
0.011037372984
0.0202104598284
-0.00721390964463
0.0123909283429
-0.00641916925088
0.009278094396
0.0118662742898
-0.00317001179792
0.0177522487938
0.00108401058242
0.00084568496095
-0.0169570203871
-0.00612400565296
-0.00726146111265
-0.0232842639089
0.0178049430251
-0.0106241041794
0.0120756812394
0.0184483937919
-0.00638544838876
-0.000692259694915
0.00432637287304
0.00446842378005
0.00851013604552
-0.00188609969337
0.00745888659731
-0.00541116157547
-0.0123982373625
-0.00329983606935
0.00050476467004
-0.00555905373767
0.00525795063004
0.000510765414219
0.00380270835012
0.00987472292036
-0.0123763522133
-0.00633602915332
-0.000802710768767
-0.0132795386016
-0.0114734079689
-0.00515852402896
-0.0319852568209
0.010486010462
0.00686157308519
-0.00994010735303
0.0217717159539
0.00151090219151
-0.025730445981
-0.0071013122797
0.037209559232
-0.00509002106264
0.00108417251613
0.00699610309675
-0.0145817156881
0.0050832205452
-0.00750702619553
-0.00333755114116
0.00386816100217
0.0101293586195
-0.0229235328734
-0.0151182617992
-0.0320092365146
-0.0286201294512
0.0117538608611
-0.0088453060016
-0.0104242302477
-0.00111997267231
-0.0264716409147
-0.0100208520889
-0.00582538824528
-0.0124539677054
0.0118255801499
-0.0274448506534
-0.0121654728428
0.0103846071288
-1.61474054039e-05
-0.0057972013019
0.00432709371671
-0.0175937060267
-0.0129664856941
-0.0229485780001
-0.00380579358898
-0.0176411699504
0.00228052865714
-0.0342656411231
0.0237499773502
0.00126353930682
-0.000874613819178
0.00861155521125
-0.0130810933188
-0.00672433013096
0.0154429059476
0.0122742177919
0.0324667729437
0.017951073125
0.00363232055679
0.0142319574952
-0.00228125741705
0.0135232275352
0.00952021311969
-0.0158573910594
0.0143579160795
-0.010277477093
-0.0254688356072
0.00836239568889
0.00255516241305
-0.0230668578297
0.0186267755926
0.0184410810471
-0.018572377041
-0.0129722030833
0.00818498339504
0.0261471197009
-0.0191822778434
-0.0190120898187
0.01069728937
0.0292831864208
-0.00501163955778
0.0261593777686
0.0085117854178
-0.031785659492
0.0408914797008
0.00459751440212
-0.0121080344543
-0.0157267600298
0.0148825487122
-0.00535090500489
-0.0296403840184
0.0007344611804
0.0326892063022
-0.0256664399058
-0.0143841644749
0.0136349033564
0.00667966809124
0.00143713748548
-0.0147885102779
0.0200877767056
0.0111184688285
-0.0139505788684
1.68027036125e-05
-0.0251374915242
0.0193324387074
-0.0246805530041
-0.00828488264233
-0.023737160489
0.00215096864849
0.000761742296163
0.00724233826622
-0.00115548691247
0.0156730655581
0.00100678531453
0.0104321660474
0.00184661289677
0.0116764400154
0.0186763219535
-0.0108376517892
0.00342906569131
0.0115363849327
-0.00457528699189
0.00608108239248
0.00997247826308
0.00672770524397
0.0167355481535
0.00875254068524
0.0103840008378
-0.00977033004165
-0.000328623893438
-0.0112620871514
0.00259897299111
0.00658120587468
-0.00180509441998
0.00106101413257
0.00315372971818
-0.00656543113291
0.0153784574941
-0.000960869889241
0.012793071568
-0.00884741079062
0.0192371923476
-0.0128822922707
-0.00203816499561
0.00819498021156
-6.15606550127e-05
0.0229135919362
0.00687945634127
-0.004656619858
-0.000291933567496
-0.00549079524353
0.0143410805613
9.66488005361e-05
-0.00586383650079
-0.00013503646187
-0.000259049265878
0.00546975294128
-0.00234242831357
0.00666473526508
0.00524174328893
0.00209853774868
0.00197881343774
0.00992423947901
0.00297407875769
0.0133584700525
-0.00112583569717
-0.00890034716576
0.00542791513726
0.00441134348512
-0.00453767506406
0.0122339166701
-0.00660771690309
0.0208964571357
-0.00673112366349
0.000961747369729
-0.00496115582064
0.000915784738027
-0.00297755119391
0.0330002382398
0.00667646992952
-0.00303998705931
0.00308988429606
-0.0113022541627
0.00975041743368
-0.000220230402192
0.0038962229155
0.00591945741326
-0.0170676186681
0.000880131439772
0.00352355279028
0.00837364047766
0.000961611920502
-0.00818568561226
0.0169672798365
-0.00928251165897
0.0172980073839
-0.00466205831617
0.00319662014954
-0.0279795974493
0.0138451289386
-0.00213347142562
-0.00231534824707
3.23617859976e-06
-0.00991745479405
-0.00416654348373
-0.000985975260846
0.00531445583329
-0.00254095392302
0.00805955473334
0.0115052917972
-0.000266531074885
-0.000949926848989
-0.0149936974049
0.00043246493442
0.00536569720134
-0.00550979282707
0.00367828831077
0.00731231085956
0.0219295024872
0.00638807797804
-3.52690699401e-06
-0.000171813328052
-0.00413086544722
0.0381341576576
-0.000352887291228
-0.00889328401536
-0.017703499645
0.0182744283229
0.000361270678695
-0.0232560038567
0.00440114364028
-0.02627970092
0.019722957164
-0.00620327936485
-0.0152972713113
-0.0231648124754
0.0195503737777
-0.00325471046381
0.00196045474149
-0.00638366630301
0.0158509202302
-0.000940866128076
0.00337288435549
-0.00708458572626
-0.00330565939657
0.0331482626498
-0.011517951265
-0.00241766497493
-0.00343889952637
-0.00144672952592
-0.00610518408939
0.00262293824926
-0.00370235927403
0.000160706564202
0.00997770577669
0.0067748175934
-0.0109003419057
-0.000824178277981
-0.00088494294323
-0.0065341074951
0.00816093571484
-0.0167950373143
-0.0164338145405
0.00239760545082
-0.017565080896
0.0318213924766
-0.0033675681334
0.00853353645653
-0.00908302888274
0.0202448759228
-0.0188504382968
-0.00909613724798
0.0119866887107
-0.00275974231772
0.0245351102203
0.0130844144151
-0.00281379558146
-0.0136271025985
0.00104831031058
0.0241353064775
0.0151344444603
0.00555255264044
-0.00505486316979
-0.0067021320574
0.00717209093273
-0.0121679529548
0.00835285708308
0.0175369903445
-0.000615200027823
-0.00362951098941
0.000354787014658
0.0184145476669
0.0191194545478
-0.0156157724559
-0.0217167232186
0.00734812533483
-0.0105882380158
0.0154961133376
0.00826409552246
0.00443198438734
0.025350086391
0.00777290388942
0.000936838390771
0.00234621344134
0.00105763098691
-0.00635757809505
0.0346778742969
0.0185156781226
0.00511812604964
-0.00235840352252
-0.0239268392324
-0.00388892390765
-0.00357859977521
-0.00617518043146
-0.00427712313831
-0.02112150006
-0.00293745077215
0.00408838735893
-0.00491775991395
0.00180197285954
0.00313914101571
0.0254270266742
0.00332314544357
0.00806920044124
-0.00394270149991
0.00759170856327
-0.0258590448648
0.00396483577788
0.0164683330804
-0.00150234287139
-0.00428578257561
-0.00106356106699
-0.0074122142978
0.00180050823838
-0.013084763661
0.0129215708002
-0.00447566621006
-0.0128343654796
-0.0106187555939
0.0150307090953
-0.00896055065095
-0.0153222857043
0.0015926490305
0.00562393292785
-0.0158013030887
-0.00323296175338
0.0362103916705
0.00147405848838
-0.0187677312642
0.00636006519198
-0.00715434085578
-0.0143651133403
-0.0103819556534
0.0100779021159
-0.00155100459233
-0.0224956423044
0.00559356156737
-0.00388285308145
0.00769774382934
0.00559580558911
-0.0142959654331
0.000598964106757
-0.00960103143007
0.00728936214
-0.0243673101068
-0.00682929111645
0.0126631325111
-0.00271417340264
-0.0174955129623
0.00113223330118
0.010946742259
0.0169570352882
0.00794120691717
-0.0163388587534
0.00816742610186
0.00310403760523
0.0129894362763
0.00978970620781
0.00338112190366
0.011078258045
-0.0083956355229
0.0170579347759
-0.00381258944981
-0.00726598966867
0.00774932699278
-0.000826497969683
0.00823645852506
0.00485764816403
0.0096055381
0.0150591284037
-0.000859722553287
0.00703007681295
-0.0024860505946
-0.0145360790193
0.00449559045956
0.00223816675134
-0.0186273753643
-0.00588260358199
0.00357997813262
0.00536668952554
0.0112004261464
-0.0153869297355
-0.000208589684917
-0.00982122123241
-0.00139905966353
-0.000649509194773
0.00745261181146
0.000754375534598
0.00581370387226
-0.00207789218985
0.00273755704984
-0.00417354144156
0.0135413128883
0.0114983711392
0.0100036934018
0.00164366501849
0.00193694059271
0.00331651838496
-0.000698446878232
0.0103590292856
0.00145542924292
0.00685796188191
-0.00637960666791
0.000841804896481
0.00612029805779
-0.0110914818943
0.0206008795649
-0.00280799367465
-0.00749906850979
0.00647684233263
0.008515692316
0.00183189462405
-0.00246414472349
-0.00874835718423
-0.0160513538867
0.00267468905076
0.00307295261882
0.0045101493597
-0.00100937485695
-0.00625110045075
-0.0144902570173
-0.00962691474706
0.012742523104
-0.00624839775264
7.15324640623e-05
0.0110156973824
-0.00282247341238
-0.00132099853363
0.0156972333789
-0.00975084677339
-0.00354885053821
-0.013300315477
0.0116433221847
0.00168894219678
-0.0182928610593
0.00546245602891
0.00651272572577
0.0107253603637
0.00016160873929
-0.0191590487957
0.00486041652039
0.00499263778329
0.00998441316187
-0.00668205926195
0.00297437445261
0.0104310326278
0.0103534664959
0.00128364749253
-0.0176543984562
0.00842911563814
-0.00452643912286
0.00953835621476
0.0128182573244
0.00224857171997
0.00613343622535
0.0115983635187
0.00320866447873
0.00225531705655
0.0112812882289
-0.000680581084453
0.000147734826896
0.0190224964172
-0.00803212076426
0.00183842878323
-0.00176027475391
-0.00811004452407
-0.020811887458
0.00639453250915
-0.0171418786049
-0.0212180912495
-0.00418339809403
-6.99631418684e-05
0.0142041184008
0.0138962380588
0.00215107458644
-0.0195499844849
-0.00554106757045
-0.00926507823169
0.0157806202769
0.00558436755091
-0.00492965755984
-0.0021677329205
-0.00844295788556
-0.00669614411891
0.00336502562277
-0.0192229188979
0.00207863352261
0.00640877475962
-0.0163010768592
0.0234819427133
-0.00733223930001
-0.014022551477
-0.00595974270254
-0.0123119717464
-0.0206301230937
-0.00533934682608
-0.0113348923624
0.0299811325967
-0.00338009442203
-0.00972066354007
0.016513844952
0.00140482373536
-0.016527377069
-0.0116034690291
0.0180318690836
-0.00234566256404
0.00904451869428
0.00946342386305
-0.0270079318434
-0.00754594616592
0.0206692144275
0.00182482635137
-0.00936837587506
0.00593898445368
-0.0202701929957
-0.00918761547655
-0.0106607256457
-0.0177885219455
0.00748286256567
-0.0220289397985
-0.020385414362
0.00610041059554
-0.0135144507512
-0.0172877311707
-0.0206482969224
-0.0150265805423
0.00237468047999
-0.0137035595253
-0.011453313753
0.0179565716535
-0.0189644936472
-0.0151452356949
-0.00016937192413
-0.00512556917965
0.00521067902446
-0.0197791177779
-0.00513881910592
-0.00899590644985
-0.0142083792016
-0.0148125654086
0.0122744431719
-0.00599768804386
-0.011194396764
0.0132703306153
0.0112175773829
0.00070064351894
0.00958490557969
0.00246932334267
0.0175010357052
0.00124320806935
0.00844699237496
0.028052797541
-0.0137322740629
-0.0053162346594
0.00697264168411
-0.0100742857903
-0.00289528933354
-0.00345804495737
-0.00947712827474
-0.00107030174695
-0.00114828452934
-0.0262850448489
0.0307065621018
0.0206759255379
-0.00132449448574
0.0107276104391
-0.00470005581155
0.0226951744407
-0.0184495858848
-0.0125601384789
0.0211199745536
0.0338450558484
-0.0117297489196
0.0311130378395
0.027034021914
-0.0213076528162
0.0322690159082
0.013310787268
-0.0263829473406
-8.59094725456e-05
0.0197538118809
-0.0167424604297
-0.0240752846003
-0.0117663163692
0.0250434987247
-0.0111804828048
-0.027752391994
0.0105246929452
0.000584935711231
-0.00640979083255
-0.00992228277028
0.00984515994787
-0.00112195569091
-0.0132066486403
0.00280043599196
-0.0162444114685
0.00961146410555
-0.00905314926058
-0.0017392571317
-0.0129270162433
0.00717373564839
0.0068107987754
-0.00302959186956
-0.00120778696146
0.00767163047567
0.00946574751288
-0.000498046108987
-0.00440360605717
0.00121390842833
0.0125690735877
-0.00858102273196
0.00417783390731
-0.00250586564653
0.0036578043364
0.000582833425142
0.00190994329751
0.00521911587566
-0.00255230884068
0.0017995191738
0.00405050162226
0.00123679591343
0.000558905594517
-0.00142783380579
-0.00489956093952
-0.00134780595545
-0.00951145682484
-0.00775957526639
0.000634890981019
-0.00594036094844
0.0114511521533
-0.00536567904055
0.00928197056055
-0.00325110484846
0.00928806420416
-0.00977594777942
-0.00495236739516
0.0113383671269
0.00122315296903
0.00905155204237
0.00202576490119
0.00754291098565
0.00128806533758
-0.00534414686263
0.00666086561978
0.000405269965995
-0.00263316649944
0.0106379203498
0.00136283773463
0.00741824414581
-0.00677770050243
0.000962530903053
0.00698525877669
0.0049147233367
-0.002434481401
0.000356688775355
0.00504627544433
0.0045653982088
-0.00717653660104
-0.00891882088035
0.00839140545577
-0.00452124513686
0.000806945725344
0.00259268470109
-0.00347653962672
0.0102360052988
-0.0010722419247
0.00562302488834
-0.00655460823327
0.00616876222193
-0.00303332903422
0.0140176098794
0.00774878822267
-0.000499877380207
-0.00175481184851
-0.0154713997617
0.00387352262624
0.00194241991267
-0.00017224829935
-0.00683235889301
-0.0145061770454
0.00205678981729
0.0154795432463
0.0025861908216
-0.000975658360403
0.0131504302844
0.00676723243669
-0.00533347623423
0.00704682990909
0.00683625554666
0.000386275263736
-0.0165229234844
0.005796933081
-0.000601345789619
-0.00640423223376
0.00157904298976
-0.00047305971384
-0.00836532562971
0.000297169783153
-0.00624619843438
0.00270626530983
-0.00367479259148
-0.00847481936216
-0.00845539104193
-0.00416594417766
-0.0044244104065
-0.0110900141299
0.0026142874267
0.00203982228413
-0.00509793823585
-0.00359940482304
0.0156156104058
0.00810689572245
-0.00553311221302
-0.00299654598348
0.00113654171582
-0.0231793764979
-0.0140668656677
0.0187447741628
-0.00694387825206
-0.0207267180085
0.0143270706758
-0.0117344278842
-0.0078697539866
0.000324060820276
-0.00896520353854
-0.0177392810583
0.0122746564448
-0.00334420823492
-0.00135445815977
0.0440371185541
-0.00571063766256
-0.0141039080918
-0.0043527726084
0.0358718000352
0.0141879934818
-0.00530893960968
0.0183575954288
-0.00130224053282
-0.00234406674281
0.0274041071534
0.00900161918253
0.0226692892611
0.0318039953709
0.0196426399052
0.0228118654341
0.0199994836003
-0.0122336810455
-0.0133374966681
0.0320749208331
-0.010070825927
-0.00550688244402
0.0142999878153
-0.0224183388054
0.00564408209175
-0.003118210705
-0.00213602138683
0.0226588770747
-0.00167763896752
-0.012090170756
-0.00629559671506
0.0133875338361
-0.0170062221587
0.00170580134727
0.0117350667715
-0.00724028097466
-0.0130272684619
-0.0194432418793
-0.0160721726716
0.0279174763709
0.0411331057549
-0.0133618405089
-0.0191759839654
-0.046724781394
-0.0134034538642
0.04957292974
0.000893329211976
0.00854751747102
0.00712873460725
-0.012367377989
-0.011011169292
0.00960425660014
-0.0179977286607
0.00110164307989
-0.0282209292054
-0.0165616758168
0.0275547280908
-0.00417982740328
0.00554816331714
0.0299730207771
-0.0162251740694
-0.00572439283133
-0.0127220833674
-0.0106044895947
-0.0299898609519
0.0225114673376
-0.0165297035128
0.0213765352964
-0.0314302444458
-0.0635803490877
-0.01048612874
-0.0343829467893
0.00683391559869
0.0135772693902
0.00833722949028
0.0159592889249
0.0001260706631
0.0123138800263
-0.00419897260144
0.012631488964
0.0638199746609
0.0398039408028
-0.0192670989782
0.0629493445158
-0.0192415490746
-0.0180865880102
-0.0122263981029
0.0330448783934
-0.0121881095693
0.0126358130947
0.0541890859604
-0.0416878163815
-0.0109728649259
0.0332691259682
-0.000947598367929
-0.0253778677434
-0.0163156054914
0.0230594109744
0.00401208037511
0.00247821002267
0.0265381168574
0.0171184167266
-0.0242412313819
0.00397863192484
-0.000205072181416
0.0002116804244
-0.0254398547113
0.0425417721272
-0.000109787921247
-0.0261147413403
0.0363567024469
0.0490447841585
-0.0200382675976
0.00559958070517
0.00555390538648
-0.0105299828574
0.000624404638074
-0.00874770525843
-0.0293113961816
-0.0108390767127
0.000806248630397
-0.00891719199717
0.0185300279409
-0.0147426892072
7.30363244656e-05
-0.0177605766803
0.0149934040383
0.0193820986897
-0.0319748222828
-0.0088337380439
-0.0201772525907
-0.00318016833626
-0.0341246947646
-0.0209869965911
-0.0111873596907
-0.0213370379061
-0.00649721221998
0.00795031897724
-0.0198766160756
-0.0113876741379
-0.0427763052285
-0.012718138285
-0.00782684236765
-0.0170792527497
-0.0048398738727
-0.00577575154603
-0.0100799733773
-0.023520777002
-0.00669654924423
-0.0159865692258
-0.00115482392721
0.00858958344907
-0.00517551181838
-0.00661472370848
-0.0142023488879
-0.00781529955566
-0.00663659581915
0.00982442963868
-0.00503460969776
0.00344698945992
-0.012593283318
0.00327904475853
-0.011716012843
-0.016219291836
-0.0146303856745
-0.00085457082605
0.00631555216387
-0.0247681681067
-0.012764387764
0.000548483047169
-0.0150900799781
0.00162122747861
0.00809708237648
-0.0327737256885
-0.0266601163894
-0.0284838136286
-0.0047274264507
0.00346429902129
-0.00544612715021
-0.0174661614001
-0.00496741896495
-0.0151855414733
-0.00787126459181
-0.0131540875882
-0.0060746059753
-0.00178833852988
-0.0125475712121
-0.00191809632815
0.00815004017204
-0.0129452925175
0.00313684903085
-0.0119337840006
-0.00704286713153
-0.0219338703901
0.00826269108802
-0.030579764396
-0.0099846702069
-0.0253755487502
-0.0223195888102
-0.00180861062836
-0.0122146680951
0.0106964949518
-0.0148058058694
-0.0152119919658
-0.017678571865
-0.00698520475999
0.0262068677694
-0.0128070702776
-0.0417275652289
-0.0125911198556
-0.00825899094343
-0.0655835792422
-0.0104005010799
0.0119249392301
-0.0179827194661
-0.0372182689607
0.002292991383
0.053630284965
-0.0136500997469
-0.00739295873791
0.0201778430492
-0.0163302794099
0.00342189637013
0.000654353701975
-0.0180703792721
-0.00460233865306
0.0020954546053
-0.00485941488296
0.000149940984556
0.0012669878779
0.00613350979984
0.00248403591104
-0.00622083805501
-0.0134641034529
0.00201511336491
0.00362191605382
-0.0105379000306
-0.024057617411
-0.0382673405111
-0.0115985861048
0.00532158417627
-0.0149103235453
0.0380552858114
-0.00926976650953
-0.0171940457076
0.00197638128884
0.00272408011369
-0.00127567257732
-0.0209259167314
0.0196017846465
-0.00329133588821
0.00192099157721
0.0152979791164
-0.0208186842501
-0.00387841346674
0.0104798329994
-0.00791851524264
0.0115751381963
-0.0143213160336
0.00454436568543
-0.00840136222541
-0.000878335966263
-0.00196887762286
-0.0179684963077
0.024888984859
0.00060054595815
-0.00803628005087
-0.000510879734065
-0.00923516321927
-0.0133495163172
0.000607750494964
-0.0164867192507
-0.00274198222905
0.0116933649406
0.00253867078573
-0.0177235044539
0.00625693099573
0.020785972476
-0.00552848819643
0.0180086996406
-0.00593855977058
-0.0171756576747
0.0122616719455
-0.0184709150344
0.0166006088257
0.00857772864401
0.00147307827137
-0.0203918926418
0.0121430819854
-0.00692937895656
-0.00218344200402
0.0278932265937
-0.00664636213332
0.0155860697851
0.0160210579634
-0.0164528843015
-0.0237755142152
0.017140250653
0.0230138171464
0.0292548425496
0.0165366139263
-0.0146933570504
-0.020491739735
0.00825503282249
-0.0078486232087
0.0177708696574
0.0250892192125
0.00022837263532
0.0038012007717
-0.00827176682651
0.0500183850527
0.0226340722293
-0.0172399301082
-0.0197709314525
0.0117602311075
-0.0175256896764
0.0204646587372
0.016785480082
0.0120020015165
0.0126070929691
0.0262958481908
-0.00374177983031
0.0156808216125
-0.011526604183
-0.0115438513458
0.019108729437
0.0163724441081
0.021267650649
-0.00354065699503
-0.0167169701308
-0.0211306363344
-0.0201112665236
-0.0158636365086
0.00311378831975
-0.0121316639706
-0.0111526548862
-0.00695498567075
-0.013816550374
0.0143951838836
-0.0123702697456
0.0232343133539
0.0187320224941
-0.0122190723196
-0.0152158793062
0.00606629159302
-0.0145736765116
0.00334089272656
0.0290640331805
0.00999478716403
-0.0145831536502
0.00266880914569
0.00618808576837
0.0154330395162
-0.0141463419423
0.0100362934172
-0.00774974701926
-0.0148870777339
-0.0146898804232
0.0303039811552
-0.0146398795769
-0.00319690839387
-0.00156658270862
0.0261448528618
-0.00842334982008
-0.00148531876039
0.0784782245755
-0.00391671899706
-0.0297110974789
0.0233846232295
0.00203016400337
0.0340152196586
0.000145251731738
-0.0149331288412
-0.0168148502707
0.0313667617738
-0.00471166009083
-0.0142899798229
-0.00373127730563
-0.0250849239528
0.0162655264139
-0.011534191668
0.0046968664974
-0.0227860882878
0.0235197674483
-0.00603537587449
-0.0102572981268
-0.00242731417529
0.0222181994468
-0.00411362620071
-0.00441667623818
-0.0186384096742
-0.00550727546215
0.0334626324475
-0.0177753940225
-0.00662203505635
-0.0111591145396
-0.00107690447476
-0.00568715576082
-0.0101504968479
0.000765587552451
-0.0126655763015
-0.00115182297304
0.00280718691647
-0.0121453730389
-0.00326333171688
-0.00693916901946
-0.0100401947275
-0.00170971266925
-0.0177836958319
-0.0122524416074
-0.00978047866374
-0.00991991255432
0.0332601517439
-0.0091451080516
-0.000291260483209
0.00612357398495
0.0204038675874
-0.0169094707817
-0.017114918679
-0.00499782944098
0.00568124419078
0.0256086681038
0.0135017400607
-0.00642909249291
-0.0105173392221
-0.0115195522085
0.0181922037154
0.00650021806359
-0.00128498848062
-0.00678231054917
0.000908318441361
0.00327937700786
-0.0103999236599
-0.00738754495978
-0.00293871737085
6.93070905982e-05
-0.013994757086
-0.00263951905072
0.00677168276161
0.0065219765529
-0.0160390771925
-0.0152633236721
-0.00205099373125
-0.00852035731077
0.0175789762288
-0.0042859246023
0.00185176869854
0.0223007984459
-0.00139878550544
0.00304632959887
-0.00581616908312
0.00961160194129
-0.00258970051073
0.0252723153681
0.0271462611854
0.00460920576006
-0.00692980969325
-0.0201263930649
0.0103706121445
0.015844527632
0.007316831965
-0.0168626792729
-0.0141160739586
-0.00351670174859
0.00336190848611
-0.00604088278487
-0.00128815497737
0.00608820887282
0.0179807227105
0.00165812997147
0.0148228518665
-0.0042930142954
0.00181875878479
-0.009401476942
-0.0033771507442
0.00793152488768
-0.00953375920653
0.00572490738705
0.0127796186134
-0.0155654540285
-0.00475323712453
-0.0185666307807
0.0187040548772
-0.00848122686148
-0.0168012864888
-0.0159568339586
0.000984925194643
0.00487244734541
-0.0181814432144
0.00517855864018
-0.00374870630912
-0.0177706796676
-0.0128546524793
0.0150192314759
-0.00043890348752
-0.00634940899909
-0.00744043523446
-0.00489376997575
2.57494175457e-05
0.00476980395615
0.00343518331647
-0.00657481886446
-0.0164080038667
-0.00999340694398
0.00327784242108
-0.00991241261363
0.0138036031276
0.00313940341584
-0.00461095944047
-0.00707866344601
0.00641818484291
0.0222919508815
-0.022312708199
-0.0149779496714
-0.01199084986
0.00113225681707
-0.0183570533991
-0.0211939197034
-0.0134022338316
-0.0109128160402
-0.00115018989891
-0.00656813709065
-0.00577196944505
-0.0153677277267
-0.045402366668
-0.00679000280797
-0.00497378921136
-0.00215282291174
-0.0133550018072
0.0085413409397
0.000971465779003
-0.0274784658104
-0.00461641699076
-0.0112703097984
-0.00157132872846
-0.000893878925126
-0.0135232228786
-0.00168128067162
-0.00248754350469
0.0061733792536
0.00778237963095
-0.000447123718914
-0.00692297890782
0.00668246671557
-0.00972473528236
0.00611316645518
-0.00161888333969
-0.0284753739834
-0.000290419266094
-0.0120042031631
0.0115251764655
-0.0112631451339
-0.0112332012504
-0.00179714453407
-0.0135870343074
-0.00363551359624
0.00275026937015
-0.0224005337805
-0.00652187224478
-0.035854652524
-0.00605799211189
-0.00575529411435
0.000758187496103
-0.0222556293011
0.000964946753811
-0.0113548776135
-0.0068885916844
-0.0110536990687
0.00215110718273
-0.00166863505729
-0.0173876527697
-0.0065152044408
0.0119281914085
-0.0110066439956
-0.00267292559147
-0.00778951914981
-0.0126197198406
-0.0301680788398
0.00275643309578
-0.0133947031572
-0.00364928902127
-0.0258695390075
-0.0235173460096
-0.0039422493428
-0.00737309129909
0.00657128449529
-0.00707721570507
0.00515954382718
-0.00467725750059
-0.0142161995173
0.0159483533353
-0.010664254427
-0.0431766472757
-0.0064763459377
-0.0127421841025
-0.0699735730886
-8.84850942384e-06
0.00376587547362
0.00231463438831
-0.04057784006
-0.000867808645125
0.0443399176002
-0.0092704910785
-0.00433116173372
-0.00574049400166
-0.0173305347562
0.0133612751961
-0.00754213612527
-0.00288021541201
-0.00609844923019
-0.000253096513916
-0.00396506302059
-0.00899184681475
0.00761532736942
-0.0058556618169
0.0151791553944
-0.011760125868
-0.0138196386397
0.00323548261076
-0.014805810526
-0.0122684920207
-0.0260332655162
-0.0412042886019
0.00234067603014
-0.00268184649758
-0.0108569711447
-0.030263537541
0.0144047122449
0.0166293606162
0.000415810936829
-0.00936523452401
0.0247818697244
0.0082194339484
0.00790160708129
0.00107124773785
-0.0029190252535
-0.00822378974408
0.0110276127234
0.000464704120532
-0.0213243439794
0.0359302312136
0.00890408549458
0.00912017375231
-0.0180994644761
0.0410281457007
0.0222843978554
0.0135104386136
0.025034872815
-0.0249007996172
0.00583912804723
0.0300712864846
0.0161341279745
0.0349516682327
0.0262135341763
0.0155118713155
0.0143212331459
0.0117884883657
0.00476681347936
0.000508116267156
0.0427064821124
-0.000183913303772
0.000640141486656
0.00857154838741
-0.00380980083719
0.0104578044266
0.00558183528483
0.0156853832304
0.00925335567445
-0.0188004337251
-0.00461642956361
0.0198291316628
-0.000960061675869
-0.00501867011189
0.000455506262369
0.0102345505729
0.0352172479033
-0.0050327014178
-0.00983215402812
-0.015893438831
0.0312197450548
0.0270437262952
0.000720047333743
-0.0076382085681
-0.013786916621
-0.0165584869683
0.0414245165884
0.0256972424686
0.0357008203864
0.0211140103638
-0.000816276762635
0.0221611429006
0.0217997003347
0.00378662673756
0.0177004113793
0.00134695507586
-0.00831267982721
0.0146289877594
0.00963384937495
0.0305677969009
0.0200446397066
-0.0253340862691
0.0081999162212
-0.0101072322577
-0.0082940440625
-0.00917837303132
0.0380876287818
-0.014548859559
0.0125951478258
-0.00140078982804
-0.00890824943781
-0.00777537282556
-0.0057742591016
0.0186876244843
0.00768165336922
0.00836894009262
7.44068747736e-05
-0.00176251726225
0.0137062473223
-0.00699556525797
0.0205445326865
0.0713784322143
0.0250624995679
-0.00180008716416
0.0689497292042
-0.0183592122048
-0.0181922595948
-0.00406924262643
0.0450468547642
-0.00210072705522
-0.015779947862
0.0128585929051
-0.0120287779719
-0.00324277230538
0.00919947773218
-0.0194617286325
0.000362502963981
0.00134962343145
0.0163471922278
-0.0091722169891
0.0198996812105
0.0175068620592
0.0105916978791
-0.0132790831849
-0.00800543185323
0.0106031727046
0.00185410107952
0.000773968640715
0.0224731620401
0.0130215398967
0.00439660483971
0.0430216826499
0.0134647190571
-0.0102129513398
0.0186900440603
-0.000202232928132
-0.00924396328628
-0.00287221535109
-0.00325637939386
-0.0186975710094
-0.0163013953716
0.00462769670412
-0.0179012306035
0.00856404472142
0.0105275753886
-0.00849431846291
-0.0040250425227
0.012365152128
0.00780204916373
-0.0235465634614
-0.0168866626918
0.000660809862893
0.00144880311564
-0.0187969934195
-0.021785363555
-0.00811595283449
-0.00895865168422
0.0135265914723
-0.003908067476
-0.0132986204699
-0.0125371152535
-0.0299489609897
-0.0185742154717
-0.00803953781724
-0.0037137363106
-0.00863986555487
-0.00426346296445
-0.000870025076438
-0.0284911133349
-0.00244942097925
-0.0177228935063
0.00200305273756
0.00815380737185
-0.011511599645
0.00366692570969
-0.0190946739167
-0.000768399389926
0.00628633331507
0.00589319737628
-0.00368167506531
-0.0072065196
-0.00262465910055
0.00548953888938
-0.00848409999162
-0.025469314307
-0.00193036242854
0.000782358867582
0.00190089037642
-0.0118329003453
-0.00554969487712
-0.00538693880662
-0.00658848090097
-0.00205945689231
0.0142982639372
-0.0203922502697
-0.00131883157883
-0.0258573200554
-0.0131689170375
0.00326626049355
-0.0120294969529
-0.0138931805268
-0.00466859526932
-0.0152551569045
-0.0115559427068
-0.0106516052037
0.00317120342515
0.000428731145803
-0.0204203352332
-0.00855032075197
0.0179758351296
-0.0126461042091
0.00191248313058
0.000662205507979
-0.00968371424824
-0.018913898617
0.0170032624155
-0.0162050072104
-0.00353834684938
-0.0242358446121
-0.0140703478828
-0.00669398251921
-0.0192492511123
-0.00070400419645
-0.0124545637518
-0.00548339961097
-0.00360020669177
-0.0139605319127
0.00273653701879
-0.00946024712175
-0.0291653648019
-0.0116090485826
-0.0151928272098
-0.040246963501
0.00156461354345
0.00871088262647
-0.00416666036472
-0.0320620462298
0.00759786134586
0.0220997724682
-0.00942581612617
-0.0131033780053
-0.00630377419293
-0.0119037451223
-0.00819333456457
-0.00274730869569
-0.0130901578814
0.000647330190986
-0.0131568908691
-0.00825573503971
-0.00587764708325
0.00246113259345
0.00647417223081
-0.00470347283408
-0.00830769445747
-0.00178795901593
-0.0196333359927
-0.0102816177532
-0.00293969432823
-0.0240681581199
-0.023874854669
0.00345229846425
0.00345291150734
-0.0181154143065
0.0151049783453
0.000253342557698
-0.0165006313473
-0.0191744193435
0.00912689045072
-0.0203235335648
-0.00313564948738
-0.0145500702783
-0.00355906691402
-0.00717129185796
-0.0138042848557
0.00423436053097
-0.00727526238188
0.0325448475778
-0.0135166533291
-0.0153410471976
-0.010482669808
0.00933282170445
-0.00209640292451
-0.0228678900748
-0.0243293233216
-0.0150186205283
0.014003586024
-0.0199359748513
-0.00619451189414
-0.0203263666481
-0.00996598228812
-0.0120403477922
-0.0168303921819
0.00218231929466
-0.0130814686418
-0.000130129526951
-0.00519651779905
-0.0107356086373
-0.00911238882691
-0.0199507828802
-0.0126956412569
-0.00965650193393
-0.0243245922029
-0.0104659283534
-0.0148955304176
0.000836091290694
0.0204646736383
-0.0101912263781
-0.0047192312777
0.0158847458661
-0.00473588565364
-0.00306076928973
-0.0128705929965
-0.0116395251825
0.00471832416952
0.00803816691041
0.0168690867722
-0.00251400447451
-0.0117640607059
-0.0213304366916
-0.00791273359209
-0.0106233842671
-0.00184865295887
-0.0163664594293
-0.0083883125335
-0.00512446137145
-0.01562246494
-0.0142945190892
-0.0152706531808
0.000376244250219
-0.0114764058962
-0.0069507425651
-0.0158178899437
-0.0120207900181
-0.00554007058963
-0.0117228869349
-0.0102073289454
-0.0154456309974
0.014005433768
-0.0148669686168
-0.00198136665858
0.000681576319039
-0.00937854778022
0.0037857235875
-0.00749322259799
0.00888811610639
-0.00194607046433
-0.00881068967283
0.0089051220566
-0.00440974067897
-0.0173531323671
-0.0040237409994
0.0141032300889
0.0188106317073
0.00244087842293
-0.0217292439193
0.0115421935916
-0.00183733459562
0.0076325382106
-0.0143584646285
-0.00930483732373
-0.0111421560869
0.001808785717
0.00289321853779
0.00928256101906
-0.00550742959604
-0.0106015764177
0.0457763709128
-0.0048524630256
-0.0119102457538
-0.00813167262822
-0.000538536463864
0.0356461405754
-0.0250888839364
-0.00471708271652
-0.0198582038283
0.0157509278506
-0.019884288311
-0.00852083414793
-0.00162148172967
-0.0138003835455
0.0223126895726
-0.0247842613608
-0.00553440814838
-0.0133178979158
-0.0175401158631
-0.0170609410852
-0.0238543692976
-0.00695288367569
0.00790748186409
-0.0117625007406
-0.0070071821101
0.00774612743407
0.0160762518644
0.0146489795297
0.00250020460226
0.0142168970779
0.0129274912179
0.0137536637485
-0.0256246868521
0.00552918529138
0.0139185646549
-0.0179946832359
-0.00415305560455
-0.00624359259382
0.0153381684795
0.00637435354292
0.010474123992
-0.00296809081919
0.00693185906857
-0.000788273639046
0.0143525442109
0.0135504994541
0.00984398834407
-0.00382247497328
0.00107371283229
-0.000920508871786
0.00543138058856
-0.0354315936565
0.00711933895946
-0.000693017092999
-0.00666566798463
0.0108617525548
-0.00176010769792
0.00852674432099
-0.00280104088597
-0.0021770640742
-0.0363869443536
-0.00263180094771
0.00405851751566
0.0210477467626
0.0150173036382
-0.00609176419675
-0.000684790546075
-0.00157513283193
-0.00408759759739
-0.0109679726884
0.0211398527026
0.00597697915509
0.010240203701
-0.00512222433463
-0.0342943333089
0.00858068279922
0.000391088280594
0.00921331346035
-0.00274558505043
0.00705641135573
-0.00675823213533
-0.0087456246838
-0.0102959685028
-0.00186040683184
0.0010380767053
0.00614816742018
-0.0324461124837
0.0113702602684
0.00315767992288
-0.0261137690395
-0.0195849258453
0.0156896803528
0.0138045409694
-0.0232871063054
-0.00981735531241
0.00794724281877
0.00931406300515
-0.0174895450473
0.00174321827944
0.00336171383969
0.00247322372161
-0.00987128075212
-0.00509232701734
-0.0181441437453
-0.0139799015597
-0.00446286099032
-0.00266339047812
0.0158634316176
0.0522348284721
-0.0196455661207
0.00330647383817
0.0090833697468
0.0195265635848
0.0132225072011
0.0121409296989
0.00339969061315
0.012703679502
0.0329502746463
-0.00762138655409
-0.00894016493112
0.00246494077146
-0.0143610658124
-0.0156501512975
0.0106047587469
-4.68948455818e-05
0.0186307765543
-0.0106824887916
-0.00916541554034
0.0338500328362
-0.011464772746
-0.014839774929
0.0148620381951
-0.0167736019939
0.0188634470105
0.0138575378805
-0.00779178878292
0.0167530942708
0.0179083012044
0.0125890783966
0.0247170757502
0.00518349697813
0.00210333429277
0.0291880723089
0.0166374500841
-0.0197117812932
-0.00880324468017
0.00283574708737
0.0112996585667
-0.0488126948476
-0.0201290883124
-0.0019632158801
0.00432063126937
-0.0336803980172
0.0299458894879
-0.00533402850851
-0.0168683752418
-0.0194934606552
0.0313457883894
-0.0142857423052
-0.0167675148696
-0.00674046995118
-0.0235048085451
0.00499840686098
-0.0132529269904
0.00223563890904
-0.0227848533541
0.027061663568
-0.0094389943406
-0.0122772222385
-0.00390093261376
0.0236525386572
-0.00683726742864
-0.00872080586851
-0.0155249414966
-0.0118996882811
0.0253200903535
-0.0187904853374
-0.0117700193077
-0.0136647643521
-7.96136300778e-05
-0.0163418203592
-0.0082636391744
-0.00267239613459
-0.0119826998562
-0.00226842053235
-0.0033528667409
-0.0135668572038
-0.00779265351593
-0.00456132274121
-0.0139415422454
-0.0116445058957
-0.0181535091251
-0.0133515121415
-0.00897468812764
-0.00833437778056
0.0290859099478
-0.0161516964436
-0.000181556955795
0.0204071886837
0.0113183613867
-0.0187237877399
-0.00721551850438
0.00173799693584
0.00824012141675
0.0133999250829
0.013145246543
-0.00825502444059
-0.0142819713801
-0.0178844742477
0.00816064607352
-0.00723504880443
-0.0111681735143
-0.0120751652867
-0.0135947670788
-0.00137371744495
-0.0165025349706
-0.0145175056532
-0.00386306247674
-0.00221574795432
-0.012038144283
-0.00517906434834
-0.000449160812423
0.000312212680001
-0.0201759189367
-0.0175993144512
-0.00463062478229
-0.0134559785947
0.00781287625432
-0.0082079982385
-0.00288877263665
0.0136516243219
-0.00402712775394
-0.00261576869525
-0.0164351407439
0.00980992615223
-0.00239233276807
0.0234951544553
0.0236655976623
-0.00280791474506
-0.0150112193078
-0.0175372269005
0.0114251719788
0.0216904189438
0.00649833166972
-0.0176296252757
-0.00329550681636
-0.0053354841657
-0.00874440278858
-0.0198841243982
-0.00033810955938
-0.00489979563281
0.0163667034358
-0.00635380111635
0.0174321923405
-0.00792378559709
-0.00983111001551
0.00262706214562
0.000642876490019
-0.00154568813741
-0.0106751937419
0.000225665935432
0.0239366162568
-0.0187373571098
-0.00308354431763
-0.0216402951628
0.0236920937896
-0.0150669012219
-0.0188397951424
-0.0178705882281
-0.0115322144702
0.0215933602303
-0.0202172249556
-0.000587796035688
-0.0022594272159
-0.0185303743929
-0.0200707018375
0.011520087719
-0.00638319691643
-0.00779494596645
-0.013742829673
-0.0057435403578
0.00927901361138
0.0076896767132
-0.0159007646143
0.00509837409481
0.0165581200272
-0.00389811629429
0.00135074323043
0.00209423294291
-0.00714108953252
0.00399067299441
0.00462357373908
0.00986656267196
-0.00556262116879
0.0162899233401
-0.00851319264621
-0.00843197014183
0.00258643249981
0.0100436164066
0.000292099197395
-0.00353907002136
-0.0102145271376
-0.00658056000248
0.0161701031029
-0.00636515580118
-0.00421588262543
-0.00816166680306
-0.0180898457766
-0.00500904535875
-0.000826649833471
-0.00446250429377
-0.00439039804041
0.00548055302352
0.00625673960894
-0.0163662545383
-0.00431402726099
0.00499856751412
-0.0143470223993
-0.00624059094116
-0.0155683318153
-0.00278640841134
0.000698726857081
-0.000714646535926
0.0120632015169
0.000287191738607
0.00614934274927
0.0092251393944
0.00244194897823
-0.00154439569451
0.00499337306246
-0.000154049295816
0.00744107179344
-0.00360762397759
0.00966127682477
-0.00220762332901
-0.0139219583943
-0.00633697817102
-0.00359344412573
-0.00138621195219
0.00443481607363
-0.0112077360973
-0.00162704836112
-0.00216453359462
-0.0144116701558
-0.00818501226604
0.00805085338652
0.000502559414599
-0.00199348921888
0.00233515887521
-0.0121126137674
-0.0101187666878
-0.00409029470757
0.00401477748528
-0.000334272132022
-0.0117364069447
0.0133000696078
-0.0207747723907
0.00903087016195
-0.00308390124701
-0.00688190246001
0.00653018103912
-0.00101419514976
0.0053876452148
-0.000509870937094
0.00769498711452
-0.000343009916833
-0.00342365866527
-0.00792183447629
-0.00462500518188
0.0036161984317
0.00760101526976
0.00300393905491
-0.00469879014418
-0.00575710833073
-0.00446174899116
0.00562590919435
-0.000641279388219
-0.00720578897744
-0.0137185538188
0.00817166920751
0.00648353155702
0.00339208287187
-0.0109382206574
0.00710786972195
0.0115024130791
0.00643964856863
-0.00910930149257
-0.0201124809682
-0.00454002758488
0.0135717894882
-0.00645215949044
-0.000775641819928
-0.0066630882211
0.00155540963169
-0.00525513337925
-0.00919825397432
-0.00378422555514
0.00192904833239
0.00734647456557
-0.00519720558077
-0.000528333126567
-0.00755257671699
-0.00611410290003
0.00364255905151
-0.0176360551268
-0.00241579092108
0.00779039179906
-0.00349964993075
-0.00597149506211
-0.00202755653299
-0.0107854707167
0.019041325897
-0.01143834088
-0.0338418222964
-0.00431819399819
0.00858422927558
-0.0103487307206
0.0275569204241
-0.0120737934485
-0.00283550168388
-0.0139422146603
0.0298714786768
0.0195421595126
-0.045293610543
-0.00218993891031
-0.00690599670634
-0.00251786946319
-0.0381671749055
-0.0161044243723
0.00272461283021
-0.00495341140777
-0.0121131539345
0.0078596426174
-0.0134981833398
0.00266891671345
-0.0523983798921
-0.0105786751956
-0.00571002019569
-0.0189398303628
-0.0112816998735
-0.00352218886837
-0.010560002178
-0.00570711540058
-0.00623823143542
-0.0193495620042
0.010257832706
0.027603328228
0.0106125893071
0.00213977997191
-0.00700312759727
-0.0136460280046
-0.00579596171156
0.0214200783521
-0.0168559905142
0.00421811407432
-0.00146707124077
0.00216563348658
-0.0144802331924
-0.0309466253966
-0.00852244906127
0.00366364629008
0.00642250431702
-0.0267170611769
-0.0191506557167
7.945222751e-05
-0.00890877936035
0.0124258901924
0.019406767562
-0.0418124645948
-0.0088792135939
-0.040514357388
0.0290437620133
0.015002662316
-0.0155809214339
-0.0218646302819
-0.00505113834515
-0.0196774713695
-0.0141038764268
-0.0156447757035
0.000174521788722
0.00736756250262
-0.0155886905268
0.00627460423857
0.0225286521018
0.00761404354125
8.32672594697e-06
-0.0122615322471
-0.00163289636839
-0.0414107143879
0.0293677244335
-0.050143070519
0.00829516258091
-0.00396868120879
-0.0376230143011
-0.0061256820336
-0.00119101139717
0.0114758573472
-0.0174488425255
-0.0153460782021
-0.0193219911307
-0.00820113439113
0.040359094739
-0.00964276585728
-0.0685434490442
-0.01912699081
-0.00615499913692
-0.105418734252
-0.00293896044604
0.0213508233428
-0.00860054511577
-0.0408470854163
0.00861257407814
0.0667539387941
-0.043360684067
-0.00637547858059
0.0270152036101
-0.0243563596159
-0.012113654986
0.0178222600371
-0.0059053520672
-0.00182453962043
-0.0033507742919
0.0058261314407
-0.00414692191407
0.00187147723045
0.0170652940869
0.00392585014924
-0.00709980912507
-0.0211491901428
0.000432372296927
-0.00264426181093
-0.00671993102878
-0.0557094477117
-0.0556149110198
-0.0225176531821
0.0171434506774
-0.00830736663193
-0.0141557473689
-0.0062147541903
0.00207448634319
0.00680251186714
-0.00407142937183
0.00368459057063
0.00432199332863
-0.000922798586544
-0.00774061121047
0.00147670460865
-0.00282827811316
0.013651560992
-0.00878205988556
-0.020603209734
-0.014070126228
0.00202679401264
0.0142456181347
-0.00807929225266
-0.0180308204144
0.0126446317881
0.00690979277715
0.0173229910433
-0.00828503724188
-0.00718436902389
-0.0068898005411
0.00691209733486
-0.00296704331413
-0.000333346280968
0.00869450438768
0.00264803413302
0.0123480074108
-0.0128617957234
-0.00102867092937
-0.0126843508333
-0.00468745781109
0.0127375973389
-0.000850935932249
-0.00733550591394
0.000862732820679
0.00749850366265
0.00168804929126
0.0137285664678
-0.00532509712502
-0.00916700065136
-0.0163644440472
-0.000633208896033
-0.00449867453426
-0.0037019897718
0.0141886491328
-0.0217280033976
-7.65271761338e-06
-0.0139589831233
-0.0137649504468
-0.0132686216384
-0.00241277576424
-0.0037108217366
0.00140798091888
-0.00733425095677
-0.0117749003693
-0.00574093591422
0.0195289012045
-0.00621880218387
0.00177736114711
-0.00296509917825
-0.0138189001009
-0.00792055204511
-0.00402861973271
0.00661338679492
-0.00356859876774
-0.00211461726576
0.00998055748641
0.00342204538174
-0.0109222559258
0.00639645662159
-0.0125163514167
0.00777340680361
-0.00716845970601
-0.0100969681516
-0.00482210563496
-0.0203155465424
-0.0116271134466
0.00948949344456
-0.00108895509038
-0.00933090690523
-0.00109168945346
-0.00780518818647
0.00429329974577
-0.000122249082779
-0.00252935336903
0.00589948007837
0.0138410450891
-0.000151245039888
-0.0251518469304
-0.0103798573837
-0.0303768515587
-0.00274847145192
-0.0103767802939
-0.0136113036424
-0.00889336969703
-0.0163831226528
-0.000650520261843
-0.0110204871744
-0.00167036114726
-0.0395707823336
0.00870317779481
-0.00405366439372
-0.0203660745174
0.00357138342224
-0.014720723033
-0.00805898476392
0.0111650666222
0.00655797077343
-0.0151167782024
0.00276003195904
0.0119807859883
0.0100918104872
-0.00679263891652
-0.000398748292355
0.00378632149659
0.00726052233949
-0.00348355364986
0.0035384753719
0.0067275678739
-0.00800025463104
-0.0123260710388
0.0142286745831
-0.00889558065683
0.000691415567417
0.0157329384238
-0.00249450816773
-0.0111341662705
-0.00311484397389
0.00359536195174
-0.00829896889627
-0.00510986568406
-0.000477853143821
-0.00786597654223
0.00885007344186
0.00480488082394
0.00259440112859
-0.00755570316687
0.023496735841
-0.00481601851061
-0.00629687868059
-0.0018348256126
0.0098347608
0.00154007517267
-0.0121537223458
-0.0130151351914
-0.0120238559321
0.0146694742143
-0.00714296475053
-0.00524602690712
-0.0170316565782
-0.00702713569626
-0.00810554716736
-0.0079765804112
-0.00301662948914
-0.00825074315071
0.00121173553634
0.00171332748141
-0.00624969694763
-0.00442326581106
0.00222427560948
-0.0117705687881
-0.00985995680094
-0.0135743906721
-0.00957538001239
-0.000866260670591
0.00283267977647
0.0203737094998
-0.00789249315858
0.00612536165863
0.00679489970207
-0.00432335864753
-0.0079294340685
-0.00104400562122
-0.00348061136901
0.00190794514492
-0.00146411859896
0.0108945649117
-0.0017552835634
-0.00983327813447
-0.00319623854011
0.00405895663425
-0.00261005898938
-0.000386279687518
-0.00988841801882
-0.00938715878874
-0.00210711010732
-0.0175145231187
-0.00888515636325
0.0107906302437
0.00057291041594
-0.00516507821158
-0.00441085034981
-0.0061143883504
0.00339762470685
-0.00551176536828
-0.00562055874616
0.00398485688493
-0.00977781414986
0.0101957144216
-0.0152325117961
0.00521977990866
0.00364157836884
-0.00442732824013
0.013032999821
-0.00980297662318
0.00446901237592
-0.00723892636597
-0.00993086956441
0.00437386101112
-0.00430231681094
-0.00990646984428
-0.00783830136061
-0.00336560234427
0.00659261550754
-0.000850820913911
-0.00993542652577
-0.00635900627822
0.000505515432451
0.0199799854308
-0.00939164683223
-0.0103199761361
0.00306743639521
0.00600096210837
-0.00164385838434
0.00705796061084
-0.00322070578113
-0.00118234264664
0.00663006072864
-0.00123137934133
-0.00180823996197
-0.0164213683456
-0.00305545516312
0.0151602588594
-0.0107935462147
-0.00274934037589
-0.00909862015396
0.00132093473803
-0.0137113491073
-0.0078670848161
-0.000130807165988
-0.00788992643356
0.00597837474197
-0.00810134690255
-0.00428292062134
-0.00151494599413
-0.0123049207032
-0.0087994094938
-0.00894443970174
0.00192097970285
0.00286279059947
-0.00855597108603
-0.000527414144017
0.0344938896596
0.00397637439892
0.00448058219627
-0.0103685101494
0.0273929480463
0.0117420861498
-0.0156072862446
0.00921242963523
-0.0239805672318
0.0164457596838
-0.0109424851835
-0.00483831064776
-0.0247939173132
0.0241361130029
-0.0020532370545
0.00600708462298
-0.00301558454521
0.0276718754321
-0.000926019973122
0.00995846372098
-0.00141785887536
0.0112939272076
0.0316755883396
-0.0144710689783
0.00432476308197
0.0104365954176
-0.00879853684455
0.00671222573146
0.0124849788845
0.00692209089175
0.0149378012866
0.0187082085758
0.00892902072519
-0.0144242839888
0.00341082410887
-0.00167669821531
0.00594425294548
0.00751804746687
-0.00826228782535
-0.00143947813194
0.0124334674329
-0.00760358106345
0.0316503979266
9.64228893281e-05
0.0140865007415
-0.00330656860024
0.0198214929551
-0.0132396165282
0.003677402623
0.0119214728475
0.00469973124564
0.0221328940243
0.0175577457994
-0.00487083988264
-0.00522090028971
0.00550963962451
0.0191112868488
0.00685316091403
0.00480536743999
-0.000274237710983
0.00366579997353
0.000803145754617
-0.00265068770386
0.0068656951189
0.0277021080256
0.00209138169885
0.00277011864819
0.00875631440431
0.0216380506754
0.0170605145395
0.00141115894075
-0.00407539634034
0.0149480802938
0.0030492877122
0.0161188729107
0.00925175379962
0.00261805602349
0.0259447377175
0.00202105357312
-0.00685184588656
0.000231727521168
-0.00339620118029
-0.00563982035965
0.0395829677582
0.00369187630713
0.00134755158797
0.00571183906868
-0.00865228008479
0.000868850445841
-0.000304098852212
-0.000546434195712
0.00927923806012
-0.0126643860713
-0.0015130151296
-0.00649334909394
0.00569849694148
0.00256488262676
-0.0138751426712
0.0288918819278
0.00505109736696
0.0129188746214
-0.0169944353402
0.00721591105685
-0.00796800199896
0.011702472344
0.00973172113299
-0.00431750016287
-0.000327036657836
0.000332356954459
-0.00336347147822
-0.000997333438136
0.00522528542206
0.00958271231502
0.0069995499216
0.00445804698393
-0.00547011382878
0.0103878900409
-0.00861645117402
-0.00258104479872
0.00156109954696
0.00990984495729
0.00953775364906
0.0110324481502
0.0298314969987
-0.0013196086511
-0.000416880764533
0.00683696521446
-0.00241865310818
0.00821673497558
0.00590581586584
-0.00204115523957
-0.000587273214478
0.0184192899615
0.00864729937166
0.00662936316803
-0.00609878450632
-0.00843676086515
0.00841095112264
0.00259119668044
0.00662139290944
-0.0108103714883
0.0116509124637
0.00711221527308
-0.00550265097991
-0.00252981064841
0.0104509331286
0.0101358760148
0.00321986526251
-0.00284222769551
-0.0033028353937
0.00079928903142
-0.00264805951156
0.00325922109187
-0.00740660447627
-0.00691312085837
0.00471805920824
-0.000357581040589
-0.00381410121918
-0.00929232593626
0.000441760843387
0.00357273360714
-0.00178948394023
-0.00428623193875
-0.00987143907696
-0.0111117931083
-0.00864415615797
-0.00816440954804
-0.000525639858097
7.29883395252e-05
-0.000823379145004
0.00649239635095
-0.00633003702387
0.00406879605725
0.0164426025003
-0.00103582907468
-0.0010851881234
-0.00193661823869
0.00161743932404
0.00582783436403
-0.00884495954961
0.00696478923783
0.0105393584818
-0.00197390280664
-0.000747359183151
-0.00590428523719
-0.00617200741544
-0.00157526531257
-0.00202400423586
-0.00056538078934
0.00360430800356
-0.00769684556872
-0.00872861500829
0.00111546728294
3.42023781741e-06
0.000707635248546
0.00158416852355
-0.0188481099904
-0.00705723883584
-0.00551769183949
0.00831885728985
-0.00172645051498
-0.00484441174194
0.00132745772135
-0.0194504000247
0.00384594174102
-0.00455764401704
-0.0107235256582
0.0123518705368
-0.0100196935236
0.00281870272011
-0.00334862060845
0.0142451031134
-0.0111384671181
-0.00389268575236
-0.000743238138966
0.00407897587866
0.0157913882285
0.0136608118191
0.00274477945641
-0.00429560197517
0.00560685060918
0.000315842451528
0.0222619306296
0.0023796595633
-0.00935484003276
0.0107851270586
0.00515612727031
0.00111628929153
0.013814558275
0.00177246995736
-0.00243866164237
0.0192974247038
-0.000334632088197
-0.0122003704309
-0.0164719428867
-0.00386291835457
0.0158317033201
0.0024771981407
-0.00146575272083
-0.00577844586223
0.00745329260826
0.000448866543593
-0.00676951091737
-0.00476573547348
-0.00470451405272
0.0167624540627
-0.00154542142991
0.000331175979227
-0.0111248781905
-0.00262276176363
0.00334933004342
-0.016245290637
0.00847078301013
-0.00334947812371
-0.0052909553051
-0.00876443926245
0.00980304088444
0.00631520478055
0.00178400392178
-0.00375940930098
0.0294270049781
0.00516208959743
-0.00307606928982
-0.0101391291246
-0.00779745355248
-0.00401401985437
-0.00912551861256
0.00186944694724
-0.0116688590497
0.0200475715101
0.00698100496083
0.00386989326216
-0.00356411049142
0.0143351843581
0.00408824998885
0.00813725125045
0.00513090612367
0.00457283994183
-0.00162382260896
-0.00492827733979
-0.0045865662396
0.00560192624107
0.000352005590685
0.00620422139764
0.00310425553471
-9.48854358285e-05
0.0102896858007
0.000607156194746
-0.00447833165526
-0.000340027880156
-0.00809424277395
-0.00578135577962
-0.00681244116277
-0.0123113021255
0.00522327702492
-0.00125761853997
-0.00161653396208
0.00161159166601
0.00901588797569
-0.0081744492054
0.00492166494951
0.0261209197342
0.00158372684382
-0.00334376725368
0.00404080701992
0.00548368692398
0.0056590992026
0.00227076304145
0.0106080640107
0.00205313367769
0.00272945105098
-0.0110564529896
-0.0101376771927
-0.0146272229031
-0.0102580208331
0.00208030943759
-0.0070835351944
0.00571661489084
0.00207613804378
-0.0115242954344
-0.00248258118518
-0.00140948570333
-0.000350695976522
0.00774402637035
-0.0196347050369
-0.0076874550432
0.00355383008718
0.00206946581602
0.00112602370791
0.000174322864041
-0.00500039290637
-0.00926690548658
-0.00691067287698
0.00294736563228
-0.0141065726057
0.00889549031854
-0.0166085138917
0.00950576551259
0.00124090944882
0.0278919059783
-5.55802544113e-05
-0.00880117062479
8.03496586741e-05
0.00386905856431
0.01896408014
0.021059224382
0.00133200048003
0.010396101512
0.0173991341144
-0.00182574498467
0.0152355041355
0.00561531726271
-0.00398190319538
0.0102454544976
0.00620409846306
-0.00757621182129
0.0154184317216
-0.000608058820944
-0.00970144383609
0.0268213376403
0.0083638401702
-0.0159100554883
-0.00327416742221
0.00106936425436
0.0231886412948
-0.00343902548775
-0.00778627255931
0.00775010837242
0.0217224396765
0.00314126932062
0.00872857775539
0.00176892976742
-0.0152598088607
0.0235330760479
0.00542562035844
-0.00800784956664
-0.00552148651332
0.00969131942838
0.00198611291125
-0.0216081794351
0.0059932465665
0.00690005766228
-0.0104091037065
-0.00757571868598
-0.00915400497615
-0.0157545190305
0.00654262769967
0.0127133186907
-0.0125449793413
-0.0185017101467
0.0187949165702
-0.011776172556
0.0121301440522
0.00674374215305
0.00116409233306
0.00419513881207
0.00945374555886
-0.016002567485
-0.0259297266603
-0.00343374442309
0.0124892862514
-0.0101511208341
-0.0255622919649
-0.0109454561025
0.000706400547642
0.00235435180366
-0.0101623889059
0.00501916743815
-0.0309881102294
-0.00503698457032
-0.0277858693153
-0.0268121026456
-0.00765210343525
-0.0176040157676
-0.00638734921813
-0.0117514496669
-0.000434118439443
-0.023114817217
-0.00476653221995
-0.00552234100178
0.00177893403452
-0.00410918984562
0.00329790147953
0.0072019812651
-0.0165502298623
-0.00328805251047
-0.0119608175009
-0.00490909582004
-0.0228194892406
0.00103822688106
-0.00280433893204
0.00385463028215
0.00139141420368
-0.0354312434793
0.00463628815487
-0.0112145217136
-0.0134207112715
-0.0175722315907
-0.0204113721848
-0.00988872814924
-0.00180565181654
0.00226131710224
-0.00618606200442
-0.027101200074
0.00205058953725
-0.0297700017691
0.0004359537852
-0.00498569291085
-0.0258742179722
-0.0203365851194
-0.00245821638964
-0.00244658370502
-0.00697314133868
-0.0162736382335
0.0031206777785
0.00906378496438
-0.0247661974281
-0.00850569922477
-0.00746937375516
-0.00345680792816
-0.00391638139263
-0.0182934943587
-0.00722436793149
-0.0239556133747
-0.00375153752975
-0.0151246059686
0.0138909546658
-0.00624211877584
-0.0102792046964
0.00954977888614
-0.0134189855307
0.00880301743746
-0.00788010284305
-0.00440795859322
0.0128616187721
-0.00937361735851
0.00148717965931
-0.0212292708457
-0.0366358868778
-0.0339234098792
-0.0117219984531
-0.0362595096231
-0.0139037407935
-0.0090271756053
-0.00224443199113
-0.0271209962666
-0.0066922926344
-0.0141496807337
-0.0235796831548
-0.00585878500715
-0.000102908379631
-0.0172289516777
9.73290661932e-06
0.0107258465141
0.00377839198336
-0.00355480867438
-0.0158546492457
-0.000447814469226
-0.00170807540417
0.000259723834461
-0.000909075431991
0.00751447351649
-0.000954007264227
-0.000148179824464
-0.00635702908039
-0.000921686121728
0.00343815051019
-0.0350479409099
-0.0333154834807
-0.00747953401878
-0.00170288805384
-0.0184665378183
0.00448686769232
-0.0153693957254
-0.0107374023646
0.0139207011089
-0.0144105805084
-0.025357156992
0.00985545571893
-0.00812916643918
0.0141632780433
-0.00184782710858
0.0190063621849
-0.00125286146067
0.0193895883858
-0.00477940542623
-0.0223495960236
-0.00553243374452
0.00021872294019
-0.00598897133023
-0.0175668597221
-0.0259073376656
-0.00215416844003
-0.0235996935517
-0.0022414426785
0.00866179168224
-0.0255136415362
-0.00900770351291
-0.0181623063982
-0.0210170242935
-0.0128977978602
-0.0186071302742
-0.00940014794469
-0.00633862940595
-0.00921135395765
-0.0156565085053
-0.00252360641025
0.00158671289682
-0.00833361875266
0.00142386322841
0.00105691398494
-0.00439602509141
-0.0167200174183
-0.00450137304142
-0.00551038794219
0.0056167258881
-0.00706912623718
-0.00713778147474
-0.0097434669733
0.00146488694008
0.00105440011248
-0.0145586309955
-0.00266497046687
-0.00735397217795
0.00104867655318
-0.0142469331622
-0.0244089346379
0.000365161220543
-0.00203485344537
0.00951493624598
0.0122833810747
-0.0254802759737
-0.0184933803976
-0.0155708007514
-0.00859914161265
-0.00224232184701
-0.00949039682746
-0.00723326113075
-0.00558973196894
-0.0155204078183
-0.0105690136552
-0.010729726404
-0.00385983544402
0.000903646578081
-0.0101001244038
-0.0197828933597
0.0110635170713
-0.0125098433346
0.00851623993367
-0.0149349840358
0.00184704188723
-0.00602659210563
0.00992589164525
-0.0182704422623
-0.000767611374613
-0.0238020028919
-0.00917929504067
0.00307604926638
-0.0225832331926
-0.00132664258126
-0.0115715116262
-0.0135696483776
-0.00451945606619
-0.00287779793143
0.00853437650949
-0.0141611509025
-0.00948706083
-0.0258548520505
-0.00700627174228
-0.0245857536793
-0.00722878566012
0.0142425652593
-0.0132822468877
-0.0180661622435
0.00740483403206
0.0115928314626
-0.0177896730602
-0.00210091308691
-2.44078983087e-05
-0.0175337661058
-0.00101751845796
0.00593664916232
-0.000852509227116
-0.00385452085175
-0.00699478108436
-0.0144878160208
-0.0121026076376
0.000634428288322
0.00896854884923
-0.00374408625066
-0.00220642355271
-0.00879411585629
-0.00335274962708
-0.00568866170943
-0.00565675552934
-0.0358011722565
-0.0178418159485
-0.0127264028415
0.00552600016817
-0.010956145823
-0.00073913752567
-0.00257116393186
0.00858297385275
0.00787869282067
-0.0128047885373
-0.00582143757492
0.0171346738935
-0.0290221050382
0.0186014026403
-0.01352811791
0.0144697530195
0.00659405533224
0.0149956429377
0.0045892172493
0.00299669452943
-0.00276019563898
-0.00769871100783
-0.00794240552932
-0.0129510527477
-3.49072361132e-05
0.000933618750423
-0.00834492780268
-0.0171656608582
0.00813102629036
-0.0205817036331
-0.0137371104211
-0.043248847127
0.00265587936155
-0.0103703960776
-0.0156700033695
-0.00768120214343
-0.0248005520552
-0.0122738471255
0.000477053457871
-0.010334501043
-0.0115786986426
-0.0177115686238
-0.0072579649277
0.0116909267381
-0.00786706339568
-0.0161690190434
9.54566130531e-05
-0.0145090026781
-0.00660333037376
-0.0229092705995
0.0280935447663
-0.0149302799255
0.00841373950243
0.00177704705857
-0.0265563372523
0.00127014156897
-0.00804892461747
-0.00190310133621
-0.00774193368852
-1.99355199584e-05
-0.0149631667882
-0.0121424915269
0.00366396387108
-0.004132211674
-0.000989400199614
-0.0105941910297
-0.0315028615296
0.00200213468634
-0.0121871698648
-0.038424026221
-0.0243540499359
-0.00758898397908
-0.00738722411916
-0.0333897694945
-0.0239604823291
0.00156279851217
0.00423538731411
-0.0237169731408
-0.00153026008047
-0.00554435327649
-0.0157107338309
0.00313336565159
-0.0246478971094
-0.00793990585953
-0.00494917249307
-0.010022544302
0.00832357816398
0.00900247134268
-0.00712006073445
-0.0174770634621
0.00870796758682
-0.00414385646582
0.0138927530497
0.00432942854241
0.0168122202158
-0.00165865349118
-0.00277392799035
0.0394243337214
-0.0158771052957
0.000984325073659
0.00152280880138
-0.022044364363
-0.0204709824175
-0.0196559187025
-0.000400223827455
-0.00289739505388
-0.0119214951992
-0.0142565993592
0.0420024879277
-0.00906143710017
-0.0156561303884
0.00699590845034
-0.00617571314797
0.0281057320535
0.00253213988617
-0.00725532323122
-0.00475872168317
0.0166437122971
-0.00596295902506
-7.52026753617e-05
0.003820681246
-0.0083559891209
0.0335838124156
0.00107243133243
-0.0165432803333
-0.015511748381
0.00769234122708
-0.00953109283
-0.0582095310092
-0.0257690474391
0.00448877178133
-0.00642781797796
-0.0257117990404
0.00451708165929
-0.00330708990805
-0.0215691234916
-0.00316049088724
-0.0089442031458
-0.0163975227624
-0.00482848938555
-0.00481491861865
-0.00103916146327
0.000203497955226
-0.00616245949641
-0.00234530190937
-0.00421660160646
0.00270545482635
-0.0260774772614
-0.00989751983434
-0.00916527211666
-0.000339578167768
-0.0238594803959
-0.0182521864772
-0.0231750290841
-0.0161214116961
0.0156699176878
-0.0143538182601
-0.0203938260674
-0.0148900039494
-0.0256244894117
-0.0219656191766
-0.00762732932344
-0.00821905955672
-0.0101197790354
-0.0002596002887
0.00219623418525
-0.0405514650047
-0.0021453530062
-0.00347772147506
-0.00697223469615
0.000735348381568
-0.0231282636523
-0.00478521827608
-0.0145454145968
-0.00222270772792
0.00738882599398
-0.00212077563629
0.000631271163002
-0.00187313824426
0.00245181145146
-0.00311415456235
-0.00971726328135
-0.0142824323848
-0.000622770981863
-0.00441601732746
0.00151727639604
-0.0214501339942
-0.0202511418611
-0.00507774623111
0.00233897683211
0.00290405331179
-0.00027120966115
-0.024696432054
-0.0165464654565
-0.0220134686679
-0.0260072909296
0.000909758615308
0.00136789144017
-0.0113784214482
-0.00381389586255
-0.007392172236
0.00185043760575
-0.00200437312014
-0.0138879902661
-0.00331378029659
-0.0119933998212
-0.018250098452
0.00786515139043
-0.00680932076648
0.00127684546169
-0.000197077330085
-0.00102817267179
-0.0219454467297
0.00304957921617
-0.00641682231799
-0.00679800612852
-0.0120009453967
0.00248239282519
0.0022879105527
-0.0197254028171
-0.00198647333309
-0.0155924437568
-0.00501492200419
0.00290339626372
-0.0185701716691
-0.0154897673056
-0.0162834916264
-0.0394258238375
-0.0172134563327
-0.00811624433845
-0.044848755002
0.00306404428557
0.00147650984582
-0.0119999926537
-0.0349985733628
0.000482284958707
-0.00832716841251
0.00277486094274
0.00275727524422
-0.012611429207
-0.00709328614175
0.00228169490583
-0.0117580043152
7.58971291361e-05
-0.0146439829841
-0.00525691499934
-0.0112197296694
-0.0101346271113
-0.0097403889522
0.00465327128768
-8.26736577437e-05
-0.0135181257501
0.00233149924316
-0.0110139427707
-0.0207000747323
-0.00987199041992
0.00644842209294
-0.0290324874222
-0.00442705349997
0.0036170638632
-0.0139554757625
0.00832749251276
-0.00460377149284
0.00845676101744
0.00447085592896
-0.00703885219991
-0.00109413848259
0.00445873802528
-0.0125314546749
0.00499195512384
0.00874633807689
0.000131309221615
-0.00580965261906
-0.00147658679634
0.0167357828468
-0.0122125344351
-0.00282104779035
-0.00675485190004
0.00887580402195
-0.0177522599697
-0.0106066809967
1.81895775313e-05
-0.00116861250717
0.00144896877464
-0.00307702017017
-0.0153342951089
-0.0107444413006
-0.0334052033722
-0.00487701036036
-0.00403592502698
-0.00826538447291
0.00045029897592
-0.00351012707688
-0.00218764971942
-0.0242488570511
-0.00766844907776
-0.00720121478662
-0.00442997459322
-0.00685002654791
-0.00291271740571
-0.00177275342867
-0.00641175033525
0.000773593899794
0.00252903392538
-0.00514963967726
-0.00310824112967
0.0187039319426
-0.00817195698619
-0.000686684099492
0.00416917400435
-0.00898910034448
0.00432703830302
-0.0128644118086
0.00867942720652
-0.0113290054724
-0.00633162306622
-0.00100009888411
-0.00605777604505
-0.00987345166504
0.00123758509289
-0.0184589084238
-0.0148975206539
-0.0210032034665
-0.0124830743298
-0.00222845212556
-0.00456940662116
-0.0127147641033
0.00230204011314
-0.00924584735185
-0.0197606682777
-0.00348975043744
0.00232688710093
0.00400822842494
-0.00896548572928
-0.00117107690312
0.00471297511831
-0.0106785641983
-0.000912366260309
-0.00589160621166
-0.00952561851591
-0.00919280014932
-0.00191590213217
-0.00797850266099
-9.15501077543e-05
-0.00568730384111
-0.0214930679649
-0.0134554905817
-0.00767823634669
0.00984298251569
-0.0013220255496
0.00943108648062
-7.22515906091e-05
-0.00212342664599
0.0191958341748
-0.00934124924242
-0.016880787909
0.000492908002343
-0.017650898546
-0.0358882211149
0.00279105920345
-0.000517694395967
0.00706560537219
-0.0292261019349
-0.00878170318902
0.0300952531397
-0.000659826560877
-0.0124330595136
-0.00311339576729
-0.0113818664104
0.0265576373786
0.00518259918317
-0.00340711837634
0.000103711099655
0.0074215545319
-0.00353727140464
-0.000598772836383
0.00336665683426
-0.000710357853677
0.019927252084
-0.00114144827239
-0.0101332096383
-0.0166888963431
0.00308861304075
0.00487820850685
-0.0259633045644
-0.0232245437801
-0.000659235287458
0.00166237750091
-0.014085046947
0.0103359203786
-0.0122348507866
-0.022165581584
-0.00289711961523
-0.00489249872044
-0.0263465605676
-0.00346229993738
0.000691573135555
-0.00164779869374
-0.00377254886553
0.0155047317967
-0.00125261640642
-0.000805938441772
-0.00488757994026
-0.0146712651476
-0.00802594982088
-0.0124746439978
-0.00167952664196
-0.0107179656625
-0.0239514820278
-0.014056279324
-0.0276844650507
-0.00033528971835
-0.00256480416283
-0.0173562224954
-0.0141184832901
-0.0133287105709
-0.0153519418091
-0.0104735093191
-0.0119640538469
-0.0198257546872
-0.0071936477907
-0.00382819608785
-0.016524400562
-0.000519462686498
0.00192583329044
-0.0180127061903
-0.00121264555492
-0.00889096222818
-0.00992752425373
-0.0118143968284
-0.0137334102765
-0.00290019530803
0.00105658313259
-0.00161612732336
-0.00436267163604
-0.00351269752719
-0.00997957680374
-0.0110319051892
-0.0180805381387
0.00138096383307
-0.00685610156506
0.0047662705183
-0.00923544447869
-0.0245581436902
0.00263593881391
0.0146700851619
0.00563628040254
0.00568166794255
-0.0215041842312
-0.0246331263334
-0.0137210302055
-0.0252007097006
0.00219915178604
-0.010763396509
-0.00340279494412
-0.00931454263628
-0.0171660203487
-0.00227594817989
0.00503903022036
-0.017211124301
-0.00307659991086
-0.00814820826054
-0.023602956906
0.00724024372175
-0.00949376728386
0.00617882423103
-0.00451870728284
0.0064044687897
-0.00457148719579
0.00181562337093
-0.0116511611268
-0.00251863128506
-0.002054679906
-0.00181671185419
0.00423466321081
-0.0230662487447
-0.00528641371056
1.85125918506e-05
-0.00430622883141
0.000740792718716
-0.0121115287766
-0.00133307732176
-0.00769087811932
-0.00656044716015
-0.0174577720463
0.00226388406008
-0.0275505445898
-0.00231621460989
0.0106183588505
-0.0053379824385
-0.017058102414
-0.00135499157477
-0.00242469622754
-0.0115653304383
0.00922993291169
0.000106856707134
-0.0101107480004
0.00842816289514
0.000375225004973
0.00541785312817
-0.0149932997301
0.00182483228855
-0.0208440739661
-0.020512200892
-0.0154971610755
0.0106493905187
0.00402162224054
-0.0130221694708
1.18877524073e-05
0.00133539712988
-0.0112986294553
-0.0087658315897
-0.0187845341861
-0.0131311742589
-0.0188755951822
0.00773498509079
-0.00569690484554
-0.0107894660905
-0.00187898776494
0.0134622668847
-0.00573869375512
-0.0349329337478
0.00509944418445
-0.00970463361591
0.0336006581783
0.0226120781153
-0.0225352142006
0.0194843243808
-0.0263194348663
0.0349307917058
-0.0167177058756
-0.00633329153061
0.015611181967
-0.0134004214779
-0.0242066737264
-0.00278945849277
0.00687918346375
0.023350270465
-0.00261494796723
-0.0188227910548
0.0190203227103
0.0118279643357
0.0120632899925
0.0182823743671
0.00656086392701
0.0108703523874
-0.00247385562398
0.00814541336149
0.0135446386412
-0.00420990446582
0.0137666212395
0.0109505616128
0.0222386661917
0.00576735520735
0.0371929965913
0.0149477086961
-0.0133400587365
0.0231518987566
-0.00971476174891
-0.0168622732162
0.0269440822303
0.00372523930855
-0.0395613014698
-0.00413225125521
0.00661458587274
-0.00123459391762
0.0396760962903
-0.0205043721944
0.0135981682688
0.00366935809143
-0.00395855121315
0.00215235329233
0.0316388718784
0.00446629943326
0.0431159324944
0.0280668064952
0.00317669403739
0.000612344068941
0.0251510534436
0.0260508228093
0.0329980626702
0.0380615033209
0.00605403259397
0.0102995214984
-0.0052014933899
0.069791123271
0.0159784853458
0.00769889028743
-0.0169329941273
0.0167809892446
0.00286411913112
0.00918687693775
0.0349652096629
0.00379335437901
-0.00449666474015
0.0290966350585
-0.00364504847676
0.0351213999093
-0.0182310007513
-0.00831528380513
-0.0158673916012
0.00578535534441
0.0323553271592
0.0104837501422
-0.0133386086673
-0.012848848477
-0.0343939214945
-0.0349052734673
0.0110319955274
0.00316843437031
0.00164803245571
-0.000872079166584
0.00029314859421
0.0265382789075
0.0139384428039
-4.28584426118e-05
0.0259717032313
-0.0213425252587
0.00355965038761
0.0237384140491
0.00649747857824
0.000143416749779
0.0438430868089
0.0240598060191
-0.0068319151178
-0.0244566500187
0.0189263615757
0.0194852128625
0.00191867991816
-0.0080597139895
0.00251932325773
-0.00462428107858
0.00785271637142
0.0314781591296
-0.0415468811989
-0.000411401240854
-0.0102269798517
0.0555048622191
0.00217856862582
-0.0124064572155
0.0920389741659
0.0163224302232
-0.0125427646562
0.02765786089
0.0275441166013
0.0268999673426
-0.00739928334951
0.00598875293508
0.00353677012026
0.00198642769828
-0.00978016480803
-0.000683599268086
0.00732878223062
0.012152608484
-0.00279344152659
0.00118209305219
-0.0133278630674
0.0130529217422
0.0206996053457
-0.0240555480123
0.0113493883982
-0.00523222889751
0.0163554195315
-0.00635290471837
-0.0190111678094
0.00363065814599
-0.00425761891529
0.00795932486653
0.00725781871006
-0.00416014622897
0.0190988797694
-0.0158686917275
-0.00846047792584
-0.00105299148709
-0.00335599854589
-0.00110027112532
0.0208813361824
0.00577895855531
-0.0139460833743
0.00608403421938
-0.0094605628401
0.00589018547907
0.0110733518377
0.00628664996475
0.00861327443272
-0.00518933171406
-0.0164386909455
0.00791194941849
0.0172889363021
0.00319125270471
-0.0132234934717
0.00505584105849
-0.00047899375204
-0.00431827967986
-0.00152916205116
-0.000225592491915
0.0108213918284
0.0149302016944
-0.00982306990772
-0.019405413419
0.0123692397028
-0.00423902878538
0.0186045505106
0.0271789729595
-0.0209849718958
-0.00952127575874
-0.00817773398012
0.0137106822804
0.00924505013973
0.0144129423425
-0.00136624206789
0.00159858562984
-0.00755554577336
0.0100563876331
0.00230370415375
0.0119110476226
0.00636853184551
0.00690382346511
-0.00399550935254
0.0299079865217
0.00343092670664
0.00674373563379
0.00540767377242
0.000437466165749
-0.0165504366159
0.0212144311517
-0.0406187362969
-0.00305998953991
0.0403757914901
-0.028296135366
0.000357408047421
-0.0156656578183
0.00816850643605
-0.00877896230668
-0.0209053941071
-0.0102052595466
0.0128487292677
0.0153820319101
-0.0030301627703
-0.0301982406527
-0.0114529971033
0.0145307574421
-0.0478000640869
0.0150628052652
0.0238712709397
-0.00352783268318
-0.0266189016402
0.0192151572555
0.0446179062128
-0.0277143418789
0.00751308863983
0.00957785174251
-0.0163230597973
-0.000751450425014
0.0152121754363
-0.00371652608737
0.0133640849963
-0.00488631613553
0.00460295239463
0.00410990277305
-0.00555765815079
0.023391218856
-0.0138443801552
0.00108437926974
-0.00727286702022
0.0177938695997
0.0178795997053
0.0222996883094
-0.0150163276121
-0.0117939496413
-0.0220342241228
0.0168077554554
0.00427255313843
0.0225650630891
-0.000666860374622
-0.0120990965515
-0.00423666462302
0.0211361981928
-0.0217641722411
-0.00486195739359
-0.0194884445518
-0.0127292051911
-0.00265930662863
-0.0163221247494
0.00561367440969
-0.0145585089922
0.0416871495545
-0.0158815272152
-0.0157101210207
-0.00719483895227
0.0242707654834
-0.0109080374241
-0.02331122756
-0.0177994761616
-0.016307413578
0.0257822833955
-0.0194457750767
-0.0186998099089
-0.0271517857909
-0.0172145199031
-0.0196809545159
-0.0207586791366
-0.00482349423692
-0.00209642527625
-0.00316336937249
-0.0100944656879
-0.0191834382713
-0.0162970982492
-0.0184913948178
-0.0132791819051
-0.0163376573473
-0.0167718101293
-0.00637421710417
-0.0242328979075
0.00381621625274
0.0269550457597
-0.0163646209985
-0.0114067979157
0.0309528000653
-0.00429066829383
-0.00275202328339
-0.0160026177764
-0.018582297489
0.00169050809927
-0.00785186793655
0.0139082958922
-0.0117975100875
-0.0142819574103
-0.0176524370909
-0.0214448161423
-0.024416692555
-0.0111416308209
-0.0134825333953
-0.0193870589137
-0.0129104051739
-0.0214282367378
-0.0217670779675
-0.014791470021
-0.00910635385662
-0.00552024599165
-0.00105002615601
-0.0330120958388
-0.0144255440682
-0.0144959287718
-0.00725427875295
-0.0148240495473
-0.015953509137
0.011077051051
-0.0242917463183
-0.00873993430287
-0.000352405244485
-0.011240250431
-0.00427732197568
-0.0168223492801
0.010107120499
-0.00367213226855
-0.000940374622587
0.0152477016672
-0.0246032904834
-0.022335678339
-0.0011037873337
0.00468011479825
0.0240290500224
0.00655512046069
-0.017317071557
0.00900392327458
-0.00789233110845
-0.0043659559451
-0.020613655448
-0.0162693690509
-0.0133398370817
0.00754502275959
-0.00725552206859
0.0110464198515
-0.0134672168642
-0.013163452968
0.0368260890245
0.00478787533939
-0.0230181664228
-0.0107973432168
0.000481249415316
0.036478407681
-0.0161589197814
-0.0173405706882
-0.0165620092303
0.0297048948705
-0.0209638085216
-0.00463595474139
-0.00461233267561
-0.0198649484664
0.0316719673574
-0.0130636636168
-0.00962183531374
-0.024652665481
-0.0213382728398
-0.0147864846513
-0.0238364972174
-0.00992002431303
0.00753220869228
-0.0183907076716
-0.0208503939211
0.00304273888469
-0.00123829185031
-0.0155846877024
0.004335292615
0.0133799538016
-0.0123357893899
5.48040916328e-05
0.00352041702718
-0.00282561918721
0.00357274431735
0.00878115650266
0.00489261280745
-0.00102476566099
-0.00766793359071
-0.00356076378375
0.000320059945807
0.00417655147612
0.000752702762838
0.00634564179927
-0.00708080874756
-0.000689351698384
-0.00841024890542
-0.00163067143876
0.00145266915206
-0.00239013857208
-0.00389561848715
0.00511451950297
-0.00887820962816
-0.00795693416148
-0.00271678646095
-0.00597983552143
0.00103523663711
0.0037720061373
-0.00415351940319
0.00392987625673
0.00901242438704
-0.00920465309173
-0.00256762234494
-0.00442663999274
-0.000914487754926
0.00100377714261
-0.00371545692906
-0.00142050976865
0.00159468012862
0.00768320914358
-0.0033640593756
-0.00305244815536
-0.00282007572241
-0.00199081818573
0.0148384450004
0.00545526575297
-0.00575656304136
0.0033744731918
0.00424586981535
-0.00861949566752
0.00421044463292
0.00285181356594
0.00124301179312
0.000916084623896
-0.00278235599399
-0.00401077885181
0.0120787713677
-0.00855032261461
0.00216791033745
0.00556667661294
0.00399632984772
0.00441750604659
0.00138588261325
0.0105928760022
0.000720523355994
-0.00825690478086
0.00501495506614
0.00919270236045
-0.0152441738173
-0.00330925360322
-0.00137707381509
0.00340380030684
-0.00296124489978
0.00144360854756
0.0110824070871
-0.00250841397792
-0.00315710739233
0.00588260171935
0.0163286756724
-0.00033452664502
0.00743329944089
-0.00817706342787
-0.00186170008965
0.00388691434637
-0.00263986410573
0.000601744686719
-0.00194625055883
-0.00764778442681
-0.000190864840988
0.0146293789148
-0.00907633453608
-0.00016808512737
0.00731621868908
0.00197804020718
0.0020856091287
0.000706452818122
0.00340727320872
0.00290766521357
-0.0172748994082
-0.0102954888716
0.00363474711776
-0.00624523311853
-0.00807364471257
0.00145913416054
0.00524316821247
0.00489718839526
-0.00841116718948
-0.00328556029126
-0.00394626846537
-0.0124085023999
-0.0151497740299
0.0037377984263
-0.00335940369405
-0.00292094773613
-0.00185069278814
0.0083051295951
-0.00751599343494
0.0024435245432
0.0118191977963
0.00714525766671
-0.0104233892635
0.00746916187927
-0.00161816074979
0.0294271875173
-0.00878863409162
-0.0134604163468
-0.00769287347794
0.0132508985698
-0.0152168329805
-0.00542835891247
-0.00533738685772
-0.00681712292135
0.00487778428942
-0.00223465706222
-0.00307279708795
-0.00767645612359
0.0209826435894
-0.0212649200112
-0.00382845825516
-0.00626586889848
0.0192587599158
-0.0207090917975
-0.0155299333856
-0.0107908900827
-0.0161649566144
0.0158438645303
-0.00597293348983
-0.0176922269166
-0.0130853215232
-0.0201977305114
-0.0143867004663
-0.0122694969177
-0.00799680035561
-0.00812189560384
-0.000555652484763
0.00258662016131
-0.0239198002964
-0.00360147445463
-0.0116547839716
-0.0123609993607
-0.00468760821968
-0.00580598879606
-0.00619245925918
-0.00824548304081
-0.00250642723404
0.0189302489161
-0.00295912846923
-0.00696193473414
0.00728598283604
0.00590933766216
-0.0113854659721
-0.00355585082434
-0.00935605727136
0.00563540682197
0.0133075313643
0.0139091657475
-0.0190785229206
-0.0217946749181
-0.00503764534369
0.0111686438322
0.00707408599555
-0.000190783626749
-0.0273122284561
-0.015185858123
-0.01325590536
-0.0207035001367
-0.000275254278677
-0.00802273955196
-0.015082382597
-0.0046017463319
-0.0138372965157
0.00688007846475
0.00967613514513
-0.00853399094194
-0.00669180462137
-0.0112306093797
-0.0146349407732
0.00829785410315
-0.00379370688461
0.004050841555
0.0140520147979
-0.00070761796087
-0.0147285815328
-0.0026473775506
-0.00366902537644
-0.00138287409209
0.0178407952189
0.0050468351692
0.00371402944438
-0.014750723727
-0.00422957912087
-0.00262050540186
0.00729780597612
0.00211459863931
-0.0131510226056
0.00460943393409
-0.0131719019264
-0.025984775275
-0.0211706701666
-0.00436322111636
-0.0331087112427
0.00979157816619
0.00265018618666
0.0105717033148
-0.0257271155715
-0.0058802543208
0.0128613952547
-0.0103191332892
0.00257302122191
-0.00150442239828
-0.00930610671639
0.0179310496897
-0.00485124951228
-0.00137897301465
-0.010666792281
0.00943536870182
-0.0123663926497
-0.00530881527811
-0.0130183836445
0.00244049192406
0.0109331486747
-0.00711481552571
-0.0061952304095
0.00395744713023
-0.00716116186231
-0.00353105855174
0.00821494776756
-0.0205337591469
-0.0123898917809
0.000551003729925
-0.010292833671
-0.0104221589863
-0.00888097658753
-0.00874284561723
0.00305452430621
-0.000824857561383
-0.0141613157466
0.00128464552108
-0.000486227858346
0.00505494326353
-0.00878374278545
0.00555238267407
0.00272408407182
0.00852281600237
-0.00378100643866
-0.0203346703202
-0.00240859598853
0.00110957270954
-0.00703737931326
-0.0191331263632
-0.0106796687469
-0.000468559388537
-0.0109593383968
-0.0085799600929
0.000260246510152
-0.0220445021987
-0.000651000184007
-0.0174949411303
-0.0184692982584
0.00352237350307
-0.0139916492626
0.0029576078523
-0.00126940838527
-0.00347757898271
-0.022550188005
-0.00505620520562
0.0110813276842
-0.00811706669629
-0.00046899181325
-0.00384413427673
-0.00841624569148
-0.00185079919174
0.00354883517139
-0.00261388393119
0.00391677208245
-0.00350990402512
0.00332944560796
-0.00733051821589
-0.000277694722172
0.0081381322816
-0.00828347727656
-0.000447722879471
-0.00824976991862
-0.00202361214906
-0.0143684195355
-0.0227658636868
-0.00526868598536
-0.000228123521083
0.00259596784599
0.000571890152059
-0.0226959269494
-0.0114733548835
-0.0138906193897
-0.00900223385543
-0.00573545880616
-0.00534528167918
-0.00950263440609
-0.0030058817938
-0.00329209677875
-0.0111944982782
-0.00824495777488
-0.00209877151065
-0.000970632885583
-0.00790330022573
-0.0140708470717
-0.00257312366739
