-0.199129462242
-0.076617307961
-0.0231175199151
-0.408135741949
-0.0409788154066
0.320885002613
0.00106224999763
-0.139937147498
0.20336560905
-0.695651710033
0.0970106422901
-0.085769481957
-0.00488459737971
-0.173927813768
-0.05556422472
-0.150408804417
0.0576770491898
0.593216538429
-0.0264991167933
-0.30037817359
0.0579817220569
-0.149591654539
0.0283698197454
-0.272985368967
0.0945020020008
-0.0837491303682
-0.507316172123
0.00240913243033
0.252957910299
0.0236596576869
-0.163251936436
-0.117858864367
-0.170174643397
-0.124197021127
-0.335360944271
0.0491068251431
0.138093039393
-0.123155027628
-0.184731572866
-0.00873459968716
-0.0843539535999
0.239125788212
0.0974373072386
-0.190122738481
0.00783450249583
-0.124888367951
-0.263546735048
-0.185864552855
-0.0550959445536
0.27807611227
0.0214406587183
-0.318903356791
-0.0382373072207
-0.517203748226
-0.348124861717
0.0846511572599
-0.0981130897999
-0.542209744453
-0.191494613886
-0.0707132443786
0.701141357422
-0.235562518239
0.0492282249033
-0.356632262468
0.27244412899
-0.120589971542
-0.0699067562819
-0.100344188511
0.232855319977
0.121607035398
0.10641156137
-0.00289667095058
-0.0326462686062
-0.103792622685
0.10340347141
0.130840688944
0.116032451391
0.00151265447494
-0.283356070518
-0.0728816390038
-0.073825776577
-0.213501319289
0.00182970380411
-0.263412237167
-0.107876650989
0.00535729853436
-0.0591972135007
-0.104151703417
0.0336312241852
-0.0967017114162
-0.0121757406741
-0.267016589642
0.366884708405
-0.0304827131331
-0.048441529274
-0.318932145834
0.0943385362625
-0.0921911820769
-0.138757169247
0.228961959481
0.00312313460745
-0.151277288795
0.0258703585714
-0.224239915609
-0.0521591641009
-0.108543433249
-0.205628484488
-0.131478190422
-0.0859270170331
-0.251841843128
-0.22430357337
-0.0164346657693
-0.0704974234104
-0.103948898613
0.0430057309568
-0.281755536795
-0.294975310564
0.0386727005243
0.00561451446265
0.247284442186
0.0336286053061
-0.211080178618
-0.18539750576
-0.133755743504
-0.209544569254
-0.101352915168
-0.044895414263
-0.0993516221642
-0.0234068389982
-0.250802397728
0.0849988907576
-0.30566188693
0.0151111306623
-0.187290251255
-0.134295135736
-0.066084548831
0.00936106499285
-0.2490709126
0.196614027023
-0.109972976148
-0.220307990909
-0.0573622509837
-0.0663297474384
-0.111079312861
0.0109433364123
-0.500254034996
-0.0103611219674
-0.373750627041
-0.00458538765088
-0.137696564198
0.167829826474
-0.316436588764
-0.138121202588
0.011656569317
0.0982685610652
-0.0852552726865
0.17382606864
-0.145848453045
0.104174211621
-0.118865542114
-0.178012594581
0.219212591648
0.0253978017718
-0.195925533772
-0.0938368141651
0.161022648215
0.236395329237
-0.122590266168
-0.374235212803
0.112672559917
-0.0248610675335
-0.11213953048
0.135156691074
-0.0643478706479
-0.0825369134545
-0.120309256017
-0.0851206108928
-0.10837919265
-0.130442127585
0.123236186802
-0.0736401975155
-0.101682022214
-0.0138813545927
-0.131001770496
0.665604233742
-0.0932216197252
0.156824305654
0.104119040072
-0.0668074861169
-0.116969510913
-0.125492438674
-0.0814569666982
-0.0706160068512
-0.0996891185641
0.0599096789956
-0.18294107914
-0.175071299076
0.019626006484
0.329606950283
0.179335147142
0.0473742857575
0.403873801231
0.073716878891
-0.086068443954
-0.0795363560319
-0.102060385048
0.00809104833752
-0.142711982131
0.154331505299
-0.082345969975
-0.0781593546271
-0.167627707124
0.0644814223051
-0.0922173783183
-0.400150001049
-0.091274254024
-0.0591517984867
-0.145893737674
0.0181052368134
-0.453949332237
-0.199673250318
-0.0913734436035
-0.222991034389
-0.189470440149
-0.0628043338656
-0.125077813864
-0.434192597866
0.0625717490911
0.0893562957644
-0.0848738625646
-0.0319798327982
-0.16454488039
0.00486342748627
-0.137200295925
0.083687916398
-0.184200957417
0.239862412214
0.01514687296
-0.0688613206148
-0.111125767231
0.0996152982116
-0.0890176594257
0.102505490184
-0.0852935686707
0.0924987122416
-0.0855899974704
-0.0978597849607
0.183659508824
-0.266966819763
-0.0120177622885
0.0834419578314
-0.085709348321
0.121016934514
-0.013506279327
-0.582912445068
-0.695566236973