0.000277169281617
0.000334450247465
0.00050129374722
0.000831001962069
0.000377387419576
-0.000212660379475
5.77637365495e-06
-0.000664760009386
0.000840734923258
0.000306207715767
-0.000920036633033
0.000287256058073
0.000417838105932
0.000397489464376
-0.000381161138648
0.000306878762785
8.22411820991e-05
-0.000587097601965
-0.000101130448456
0.00111476809252
-8.46472394187e-05
-0.000199015121325
6.4637446485e-05
-0.000377428572392
-0.000138876683195
0.000385854771594
0.000945514068007
-0.000217983862967
0.000224805102334
-0.000187592770089
-0.000246076553594
-0.000135276874062
0.000199684480322
0.000895892851986
-0.000423881370807
0.000483215640998
-0.00028270992334
0.000370198395103
0.000489255879074
-6.34273746982e-05
0.000169115533936
-0.000534259597771
0.000597905716859
0.000157948947162
0.000371831702068
0.0011095124064
0.000716263137292
0.000189225364011
-1.21015600598e-05
-0.000665280327667
-0.000797494605649
1.06753595901e-05
-0.000647264183499
-0.000292053911835
-0.00096821540501
0.000359981611837
0.000271812139545
-0.000339415651979
0.000293877441436
5.03572155139e-05
-0.000101259545772
0.000110655040771
0.000696359318681
-5.42417947145e-05
-0.000880105537362
-0.000656408723444
0.000248667754931
-0.000715900852811
-0.000190282808035
0.000177666908712
-8.89421862666e-05
7.14323105058e-05
0.000464492739411
-0.000241869260208
0.000361768936273
-0.000265474576736
0.000349297130015
-0.000442410848336
0.000408563704696
-9.87518724287e-05
-0.00104371912312
-0.000139707888593
9.91678534774e-05
6.23577507213e-05
-1.59445608006e-05
-0.000112812107545
-2.47387265517e-06
0.000144840960274
0.000246688752668
0.000253284961218
0.000130087893922
-0.00100205501076
-0.000203184434213
-0.00100632652175
2.11521874007e-05
6.87450592523e-05
-0.000258976244368
-1.60245162988e-05
-4.27204504376e-05
-0.000639444508124
-0.000203452422284
-0.000776645203587
-0.000509252247866
-0.000428062223364
0.000620400300249
4.6746154112e-05
-7.94271982159e-05
-6.78481665091e-05
0.00124673813116
-0.000604289234616
-0.000416016904637
-0.000399731186917
0.000338677695254
-0.000304273416987
-0.00101245252881
0.00108766753692
-0.00125104864128
0.000617108365986
0.000488400866743
6.01963474764e-05
0.00061058922438
0.000527662865352
-7.84019284765e-05
0.000287799019134
0.000124117184896
0.000166265992448
-0.000655949115753
0.000366146967281
0.000221348862397
-0.000147252212628
-0.000443599448772
-0.000264662958216
0.000369379005861
-0.000298843951896
0.000339586986229
-0.000678782002069
-0.000687141728122
0.000293028046144
0.000476190791233
-0.000235461819102
-6.91385939717e-05
0.000120887394587
-1.93682603822e-06
1.98992984224e-05
9.33099872782e-05
4.01671240979e-05
0.000120055527077
0.000975418486632
0.000159575240104
-0.000256448925938
0.000804029405117
0.000742540229112
0.000810896977782
0.000281791144516
0.000333228119416
0.000619088590611
-0.000216957763769
6.57303962726e-06
0.000366152555216
-0.000358135410352
-0.000372645969037
0.00086647446733
-0.00115285988431
2.57360170508e-05
-0.000183172771358
0.000303076463751
-0.000313824915793
-0.000674212991726
1.64109660545e-05
0.000180447561434
0.000477501162095
-0.000422256125603
0.000187558471225
0.000235651619732
0.000567322713323
-0.000863729394041
0.000307614682242
0.000752760970499
-0.000572274730075
0.000286810332909
-0.000599288323428
0.000593382690568
-0.00044848912512
-0.000680461234879
0.000396384915803
-0.000625082873739
0.000333236501319
-0.000142625809531
-0.000595677469391
4.16783441324e-05
0.000206046592211
0.000149973697262
-9.37997265282e-06
0.000747998943552
0.000567969400436
0.000335223448928
0.000119097472634
-6.10151837463e-05
0.00020688654331
-0.000854293408338
0.000462004594738
-0.000327676010784
0.000304472312564
-0.000379102275474
-0.000300173473079
0.000398816919187
-0.000528994656634
-0.000581537547987
0.000676140887663
-0.000139707437484
-0.000623151252512
-0.000113540096208
-0.000109522567072
-0.00096816488076
4.31889202446e-05
-0.000361101789167
0.000431785010733
0.000195903252461
0.000226249074331
0.000162495751283
-0.000235651619732
0.000158283612109
0.000511962745804
-0.000810298719443
0.000324744178215
-0.000453212764114
-0.000188292207895
0.00108727929182
0.000233350845519
0.0004234094813
-0.000140375865158
8.71508818818e-05
0.000462673546281
-0.000131169697852
-8.88089707587e-05
0.000222525777644
6.29509813734e-05
0.000115430106234
0.000141423079185
0.000466863304609
-0.000367123750038
0.000301985448459
-0.000646208645776
-0.000639777979814
0.000458894297481
0.00013217930973
-0.000210815574974
0.0002048296883
0.000238913460635
0.000505109434016
-4.74104745081e-05
0.000305863271933
0.000328343274305
9.64969585766e-05
-0.000981313176453
-0.000372562673874
0.000489212339744
0.000383928505471
0.000648523098789
0.000563716108445
-0.000624106556643
-0.00062591797905
0.000353040231857
0.00151524529792
-0.000245611852733
0.000355752330506
0.00011341663776
0.000348103174474
-2.49040422204e-05
-0.000827143434435
-0.000357183918823
-0.000371924834326
7.21393516869e-05
0.000958963704761
0.000377229880542
-0.000273404468317
-0.000505206815433
0.000426414422691
0.000751922198106
-0.00126543617807
0.00034690083703
3.88130865758e-05
-9.90294793155e-05
-3.39840553352e-05
-0.000272938807029
0.00023035563936
0.000392475252738
0.000202407391043
0.000538037391379
0.00103828799911
8.38655178086e-05
0.000834854319692
0.000473448744742
0.000105032806459
-0.000241801710217
-3.70159250451e-05
7.64454089222e-05
7.10952735972e-05
-0.000434571731603
0.000273893150734
-0.000765105767641
2.04842363019e-05
0.000287208706141
0.000653304916341
0.000384848215617
-0.000551569391973
0.000522257061675
-0.0002421267709
0.000237127387663
-0.000422535900725
0.000820226152427
-7.08986917743e-05
1.28960764414e-05
-0.000197926070541
-0.000455087836599
0.000463304138975
0.00011426704441
-1.70930779859e-05
-0.000294328405289
0.000608373258729
-0.000166585363331
0.000479355425341
-0.000285261543468
0.000491118000355
0.000414837355493
0.000158511917107
0.000351838360075
0.000224402741878
0.000333456555381
-0.000145072845044
8.03626826382e-05
-0.000590545590967
-0.000581698084716
-0.000165133926203
0.00047924433602
-0.000168415994267
0.000753966567572
-0.000396124087274
0.000535237370059
-0.00018711471057
0.000570967502426
0.000177370282472
0.000907256791834
-0.000278919411357
0.000379493838409
6.61847980155e-06
1.76178400579e-05
-0.000526919437107
0.000385161401937
0.000391615496483
1.24777552628e-05
0.000202634822926
-5.84483168495e-05
0.000262335088337
-0.000198340450879
0.000288625247777
9.45346910157e-05
0.000215359526919
0.000102745209006
-0.000552076206077
-0.000905659922864
0.000275846774457
-0.000517841021065
-0.000463972304715
-0.00010764253966
0.000161638818099
0.000441603828222
0.000184941789485
-0.000461146439193
-0.000219387744437
-0.000237446671235
3.57722565241e-05
-0.000115831957373
-0.000811560195871
0.000638529483695
0.000346904562321
0.000470421509817
-0.000543835689314
-0.000197988178115
0.000106767540274
-0.000108122512756
-0.000308558024699
0.00050083862152
0.000351524824509
-0.000451134634204
-0.000250076147495
0.000359977362677
0.000356849806849
0.000585492467508
0.00101140839979
-0.000147777653183
-0.000502172915731
-0.000555299629923
0.000243504939135
-0.000646758067887
0.000595285906456
-4.04951861128e-05
-9.10888193175e-05
-5.39053435205e-05
4.18791387347e-05
-0.00042241049232
0.000194759501028
0.000456677225884
0.000539382861461
-7.85322772572e-05
-4.59379625681e-05
8.58524435898e-05
0.000297144433716
0.00057834375184
-6.05839450145e-05
0.000817326421384
0.00149786600377
-0.000545920920558
0.000477789988508
0.000189915794181
2.16425505641e-05
0.000444737001089
-0.000378994067432
0.000349425623426
0.000115083596029
-0.00091053545475
-0.000194944965187
-0.000171715088072
-6.77964853821e-05
-0.00015812649508
0.000435453403043
0.000783021328971
0.000230448218645
-0.00023105769651
-0.000426244339906
0.000470086815767
0.000611110415775
0.000344407890225
-0.000956031843089
0.000160943018273
0.000452896230854
0.000753723958042
-0.00053691060748
0.000446936901426
-0.00114295235835
-0.001118478016
0.00024764292175
0.000785590033047
3.74107112293e-05
-0.000785160111263
0.000478621077491
9.54246715992e-05
0.000219286070205
-0.000788717879914
0.00122713798191
0.000211157996091
0.000311940908432
-7.62224372011e-05
0.00106416235212
0.000440677133156
0.000530516088475
-0.000468225072837
0.000142978678923
0.000229957237025
-0.000298133003525
0.000487970130052
5.13285267516e-05
-5.58225547138e-05
-0.000258976768237
-0.000139730633236
0.000597458158154
0.000373049464542
0.000109727465315
-4.2879171815e-05
0.000912864459679
-7.33393462724e-05
0.000922656909097
0.000736515736207
-8.83339453139e-05
-0.000191439001355
-0.000264144822722
-0.000475224602269
0.000119907526823
0.000742458214518
0.000460751063656
0.00014150775678
-0.000160906347446
0.000154703709995
-0.000126658211229
-0.000375966832507
-0.000324008608004
-0.000183719064808
-0.000546797295101
6.57674754621e-05
0.00103768124245
0.0001190085095
-0.000192952458747
-0.000701265700627
-0.000430765503552
-0.000353798241122
-0.000834918115288
0.000181663795956
-0.000521879643202
-0.000299980194541
-0.000473741209134
-0.000132991961436
0.000907551904675
-0.000241471570916
0.000491182669066
-0.000471588631626
-9.86097729765e-05
0.000664258317556
-0.000699856085703
-5.32585872861e-05
-0.000461700721644
-0.00030685661477
0.000168935017427
-0.00210213963874
-0.000681902049109
-1.99824698939e-05
0.000170311250258
0.000195400614757
0.000333030417096
0.000284758076305
0.000320476363413
0.000459522911115
0.00187186349649
0.000352333823685
-0.000183071475476
0.00112397619523
9.43077247939e-05
0.000196803346626
-0.00020376649627
0.000149598286953
8.4615094238e-05
0.000344625674188
-4.13636334997e-05
0.000317489204463
0.00108296447434
-8.73276003404e-05
-0.00274772779085
0.000734069908503
0.00138094031718
0.000558608560823
0.00055758288363
0.000218908477109
0.000986540690064
0.000335277378326
0.000736788730137
0.000273635145277
0.00308238435537
0.000482507835841
9.63623751886e-05
0.000940236146562
0.000394173170207
0.000641250459012
0.000370305759134
3.61901766155e-05
-0.00013149305596
-0.0014862283133
0.00021785806166
0.00131624215282
-0.000371503090719
0.000743748154491
0.000853859062772
0.000842632493004
0.00118913443293
0.00057816656772
0.00117673212662
0.00049102579942
0.000440046744188
0.000585682049859
0.00027456539101
-0.000348019239027
0.000327645597281
0.000817618507426
-0.000136584872962
0.00114197051153
3.19339342241e-05
-0.000777805806138
-0.000154738867423
-0.000346217100741
0.000415970687754
-0.00250156526454
0.00023093726486
0.000266899034614
0.00124180119019
0.00048493075883
-0.000206248456379
0.000842759385705
0.00072761886986
7.32713233447e-05
-0.000679982942529
0.000146286343806
4.74402731925e-05
0.000383781414712
0.000332031457219
-0.000436022935901
0.000979010947049
0.000634255062323
0.000649944529869
-5.41623012396e-05
0.000103607861092
-0.000139728945214
0.000504029565491
0.00106614537071
0.00101237033959
0.000412831490394
2.06580334634e-05
0.000334901356837
0.000202485200134
0.000380221055821
-6.29561618553e-05
0.000846311741043
0.000538050546311
0.000437451701146
0.00039927920443
0.000592133263126
0.000256575236563
-3.56539312634e-05
-0.000221128371777
-0.000466281198896
0.000476422224892
0.000214085637708
-0.000184414951946
0.000275466649327
0.000273805548204
0.00131326413248
0.000722245604265
0.000491807877552
-0.000353470211849
0.000413718429627
0.000486054224893
0.00062632584013
0.000470475904876
0.000790836755186
0.000986131490208
0.000524717615917
2.2394786356e-05
0.000243048169068
-2.70611593578e-07
-4.4451058784e-05
0.000341035745805
0.00126519042533
-0.000333151925588
-0.00156660517678
0.00030965032056
0.00165298650973
-0.000235448722378
-0.000223225579248
4.09488129662e-05
0.00104810623452
0.00195806589909
-0.000598407175858
-0.000126919767354
0.000460580922663
0.000135027628858
-0.000310174655169
0.00103536341339
-0.000447909435024
0.000610004062764
2.92492732115e-05
0.000286467984552
-0.000763722055126
0.000547760922927
-0.000626523455139
0.0012927192729
-0.000367842731066
0.000215412816033
0.000886824505869
-0.00309304287657
0.000707788800355
-0.00027348936419
-0.000613456475548
0.000649243651424
0.00067778857192
0.000565369788092
0.000663877290208
0.000637939141598
0.000214115832932
0.00061108689988
0.000348013127223
-0.00163025490474
-0.000486839155201
-0.000227411845117
0.000999622163363
0.000204158466659
0.000724825717043
0.000387082458474
0.00114361138549
-0.000150736756041
0.000528729811776
0.00136355543509
0.000425327045377
-0.00183148402721
0.000336027267622
0.000240932189627
0.000781820679549
0.000229520839639
0.000685194740072
0.000468622863991
-0.00148894975428
0.000825619674288
-0.00108072673902
8.34796155686e-05
-0.000199853806407
0.000239316432271
-0.000340792030329
0.000287735660095
0.000175898938323
0.000572341203224
0.00115561671555
0.000684803933837
-0.000381453108275
0.000800589099526
0.000266968010692
0.000246141804382
0.00048793235328
0.00125307985581
3.12259908242e-05
-5.65631817153e-05
-9.00417435332e-05
0.000896217359696
-0.000225118303206
0.00132868450601
-0.000210071433685
0.000342248735251
0.000433436245658
0.000651499954984
0.000877806625795
0.000386112660635
8.70729927556e-05
-7.05537822796e-05
0.000796069740318
0.0026556479279
-0.000480344606331
5.32499179826e-05
0.00183056446258
0.000504493073095
0.000789695826825
-0.000505818112288
0.000913485768251
4.87280922243e-05
4.57607020508e-05
0.000330089329509
0.00165910285432
0.000391252135159
0.00100510695484
0.000776116503403
-0.00236530019902
0.00131906685419
-0.000107917519927
0.000419231189881
-0.00248117628507
1.06389434222e-05
-0.000158496259246
0.000846370065119
0.000421868113335
-0.000328614754835
0.000425445556175
-0.000365047890227
0.000321620318573
0.00124008138664
0.000418048904976
0.000484968477394
7.39906026865e-05
-0.00182097917423
0.0012228647247
0.000236783875152
-0.000385830469895
0.000227496915613
0.000582084816415
0.000667517248075
-0.000686822459102
-0.000325426080963
0.000155748857651
0.00016144051915
-0.000175069071702
-4.00577009714e-05
0.000302172760712
0.000466951576527
5.5523149058e-05
0.00214810390025
0.00027786809369
-0.000155632078531
0.00115588819608
6.44530955469e-05
0.000152733045979
0.00127196405083
-0.000758680165745
-0.000247871328611
-0.00120188272558
-4.41690053776e-06
-3.42692374034e-06
-0.000179253969691
-0.000388208951335
-0.0023246766068
3.44758227584e-05
0.000306895730319
0.00128264038358
0.000178055255674
0.000185163095011
0.000168607817614
0.000152617358253
-6.55074909446e-05
-0.000108450069092
0.00181713164784
-0.000441100622993
0.000343259394867
0.000346211367287
0.000225787371164
0.000260482454905
3.95567585656e-05
0.000163194388733
0.00078392639989
-0.00323590543121
0.000151992280735
-7.55124056013e-05
0.000101622325019
0.000306052010274
-1.36927728818e-05
-0.000895015371498
0.000395792652853
0.000621357990894
0.000666976673529
-0.00048933835933
3.07324589812e-05
-4.44260258519e-05
-0.000383422273444
-0.00171848689206
0.0014077485539
0.000412474037148
0.00116301176604
-3.28989626723e-05
-0.000822865695227
0.000778061861638
0.00108942878433
-0.000128234518343
0.000161820833455
-0.00305598718114
0.00078231288353
0.000351250520907
0.00103078479879
-0.000815043749753
0.000515597581398
-0.000118242438475
-0.000187942991033
0.000286958296783
4.41335892276e-08
0.00126254186034
-0.000398723321268
-0.000305054709315
0.00121699890587
0.00145125307608
0.000646482338198
-0.00033381729736
0.000224783972953
0.000380926270736
0.000715221744031
-0.000240366134676
0.000386232015444
0.000368327542674
9.4690680271e-05
-0.000474319356726
8.83880638867e-05
-0.000836104445625
0.000981402699836
6.94377285981e-06
-0.000948957866058
-0.000269079231657
0.000369411485735
1.41955013078e-06
7.98827168182e-05
0.000135053487611
0.0005973012303
0.000265074311756
0.000150146501255
-3.33334683091e-05
0.000496148946695
0.000599047169089
0.000125187914819
-0.000589732138906
0.000678044219967
0.00097225618083
-0.000329289789079
-0.00058343395358
9.34439522098e-05
-0.00117484503426
-1.24360522022e-05
0.000452215579571
0.0006078123115
0.000196312859771
0.000115318871394
0.00189616053831
7.97220127424e-05
-0.000657724565826
-8.82974782144e-05
5.33687989446e-06
0.000552362005692
0.00120361719746
-0.000296718470054
-0.00177571095992
0.000357798417099
0.000180616771104
-0.000103423910332
-0.000260861997958
0.000292871176498
-1.40933825605e-05
-0.000560087908525
-0.000812856189441
0.00044330424862
-0.000205844378797
-0.000555594509933
0.00132429448422
-0.000160583411343
3.24215361616e-05
-0.000199120666366
0.000560711778235
-0.000503000221215
-0.000256567960605
0.000482299248688
9.06381392269e-05
7.54096981836e-05
-2.40294812102e-05
0.000874129415024
0.000755179382395
-0.000509003933985
-8.92679818207e-05
0.000117964984383
0.000307611189783
0.000262597866822
7.39202514524e-05
0.00010770506924
0.00154656835366
0.000309203314828
0.000321439729305
-0.00012098957086
0.000974832568318
-0.00114061543718
0.000710370542947
-2.18106583816e-06
-0.000106477789814
0.000457523245132
-0.000376303942176
0.000815723848063
-3.76961615984e-05
-0.000162159500178
0.000715806148946
0.0010020310292
-0.000100969249615
-0.00252933287993
0.000178910500836
0.000605875684414
0.000127554434584
0.000462994037662
1.825948857e-05
0.000198749825358
-0.00308294012211
-0.000332646479364
-0.00025183474645
0.000899228849448
-0.00065866735531
0.000695299706422
0.000158682203619
-0.000250592856901
-0.000321941479342
0.00125418766402
-0.000297633378068
-0.000478669360746
-0.00145842263009
7.66873563407e-05
-0.000417839095462
0.000796625972725
0.000467988138553
3.96944160457e-05
0.000771936087403
0.000884421169758
0.00136842671782
0.000562012428418
0.000269804295385
-0.000315055687679
4.34566463809e-05
-0.000193613785086
0.000212332219235
-2.19659123104e-05
-0.000102369500382
-0.000245756702498
-0.000584519526456
0.000452965468867
-0.00114727497566
0.00203715846874
0.000235793297179
0.000828992400784
0.00202457769774
0.000487173849251
0.000718919327483
-0.000350405141944
0.000581719446927
2.10597117984e-05
-0.000137793467729
0.000939672754612
0.000225543684792
0.000425911799539
-0.000189945392776
0.000633219955489
-0.00320565165021
0.000361212296411
0.00043842982268
-0.000631348462775
-0.00221939757466
0.000146442122059
-0.000255582446698
0.000211402919376
-0.000643335166387
0.00014346257376
-8.47016490297e-05
0.000221640526433
0.000138469971716
0.00135971908458
-0.000271941098617
0.000972248613834
0.00102634122595
-0.00139741064049
0.00242709880695
-0.000198495981749
0.000433608540334
0.000126919767354
-0.000606991525274
-0.000119709489809
-0.00138997950125
-0.000306760077365
-4.73250220239e-05
-0.000548152253032
-0.00112181424629
0.000363226659829
-0.00020627854974
0.000623247295152
-0.000399534095777
0.00154819677118
0.000368110166164
-0.000924077699892
-0.00125177646987
-0.000971248780843
-0.000525136245415
0.000402914360166
-0.00046176899923
0.000350424466887
-0.000341438135365
-0.000327623245539
0.000944831583183
-9.18362784432e-05
-0.00112270319369
-0.0010587364668
-0.00107888015918
0.000742611591704
0.000583591521718
-0.000425351725426
-0.000980128417723
0.000303965731291
-0.000919034297112
-0.00087601452833
-0.00117679568939
0.00105523783714
-0.000516982923727
-0.000898992177099
-0.00069082347909
0.00109056406654
0.0003728569136
-0.000290655560093
-0.000391816283809
-0.000833024154417
-0.00379874836653
-0.000358596211299
0.000526332703885
0.000715128378943
-0.00110965920612
-0.000407928455388
-0.00148171035107
-0.000782529823482
0.000843138608616
-0.000201515518711
0.000780118396506
-0.000857883016579
-0.000629918416962
0.000282296445221
-0.00254334951751
0.00111549929716
-2.73299374385e-05
-0.000222268165089
-0.00117952469736
-0.00111540534999
-0.00087076210184
0.000410803215345
-0.000363962812116
-0.000344797183061
-0.00431359093636
0.000256691448158
0.000473331281682
0.000859282445163
-0.000555305043235
0.000189652841073
-0.000374223658582
-0.000684604165144
-0.000159209332196
-0.000250981131103
-0.000468352343887
-0.000334448501235
-0.000319346348988
0.000496705702972
0.00182198698167
-0.00153678888455
0.000460295530502
-0.000494476349559
0.000748881488107
-0.000855511054397
-0.000286885013338
-0.000695020018611
-9.41921389312e-05
-0.000779543537647
-0.0012188750552
0.000348583300365
-0.00110201479401
-0.000782298273407
-0.000136266709887
-0.000205532094697
6.13017982687e-05
0.000772468163632
-0.000108691499918
0.00106903724372
-0.000592875760049
-0.000336663477356
-0.000771797436755
0.000369098648662
-0.000650446105283
-0.000403803744121
0.00124944059644
-0.00022177939536
4.78057845612e-05
-0.00111579336226
0.00132014800329
-0.000863575842232
-0.000344206870068
0.00100084207952
-0.00130335276481
-0.00049760134425
-0.0006313744816
-0.0001595444337
0.00129639031366
-0.00094799278304
0.00351711502299
0.00126890814863
-0.000100989767816
-0.000176515663043
0.00023290993704
0.000142028948176
-0.000223994167754
-0.000343372375937
-0.00244783307426
-0.000620544073172
-0.00086258520605
0.00052960542962
-0.00105792866088
4.4045253162e-05
-0.000835914222989
-0.00064615678275
-0.0011992722284
0.00146198377479
-0.000761895207688
-0.000424869474955
0.00117240147665
2.251890146e-05
-0.000841049128212
-0.000577838975005
-0.00111657707021
-0.000133264635224
-0.000192536928807
-0.000220776593778
0.000507744261995
-0.000535108323675
-0.000212687766179
0.000801277928986
-0.000105427126982
0.000254815327935
0.000246069481364
0.000100797144114
0.00126321602147
-9.49605891947e-05
-0.000831704877783
-0.00101487943903
-0.000499014684465
-0.0004533099127
0.000845220172778
-0.00119689374696
0.000857784994878
-0.00192774808966
-4.77440480608e-05
0.000680650351569
-0.000702795456164
0.000484079006128
5.16776053701e-05
2.63450674538e-05
-0.000338549201842
-0.000260085565969
0.000177963724127
-0.00013851406402
0.00077315029921
-0.00425415718928
-4.70514460176e-05
-0.000572911347263
-0.000609686248936
0.000858051935211
-0.00111708906479
0.000504570431076
-0.0028834848199
0.000615900673438
0.000114211208711
-1.09037555376e-05
-0.000279658241197
-0.000184518954484
0.0022069264669
-0.000982074532658
-0.00138529029209
-0.000946450280026
-0.000309230410494
-0.000307250360493
-0.000291008182103
-0.000965095765423
-3.44262443832e-05
0.000477484136354
0.000761085946579
-0.00185575254727
-6.96219140082e-05
0.000155462286784
0.000237228625338
0.000199601796339
-1.90583596122e-05
-0.000729423656594
0.000182450166903
1.99155292648e-05
-0.000803033297416
0.000505556410644
-0.000607321504503
-0.000820016080979
0.000448263075668
0.000191979241208
-0.000267370865913
0.00149059621617
0.00113354402129
0.000200204580324
0.00148943415843
-0.000909989350475
0.00120764784515
-0.00145267834887
-0.0010635551298
0.000152550477651
-0.00113276136108
0.000327711604768
-6.76762501826e-05
0.000867139606271
0.000148304621689
-0.00103238143492
-0.0025750354398
-0.000395037728595
-0.000881270039827
-0.000543364381883
-0.00340733490884
-0.000843625166453
-0.000822589208838
7.55007349653e-05
-0.00137324305251
0.000156227717525
-0.00153938739095
0.000394047499867
-0.000672363035847
0.000383079051971
-0.000981863238849
0.00115257315338
-0.0004151808389
-0.0014311625855
0.00391276180744
-0.00119514460675
-0.000448988022981
-0.00134576496202
-0.000990048283711
-0.00118021504022
0.000863619381562
-0.000236692270846
-0.00105279369745
-0.000103471160401
0.000211546808714
-0.000494718784466
-0.00144179759081
0.000246648531174
0.000388074258808
0.000501698115841
-8.1222215158e-06
-0.00130260561127
-0.000556445447728
-0.00119625974912
-0.000821886293124
0.000290000025416
-1.39099674925e-05
-0.00050222693244
-0.00147445022594
-0.000553009973373
0.00106690602843
-0.00130013993476
-0.00158848008141
0.00328477844596
-0.0011644475162
0.000470961211249
0.000114917296742
-0.000358726945706
-0.000696926668752
0.00056561344536
-0.00159504753537
-0.00120005453937
-0.000699006894138
-0.000527670024894
-0.0013074654853
-0.00114559894428
-0.00170263438486
-8.6104075308e-05
-0.000443078490207
1.07795140138e-05
-0.00130786444061
-0.00136547710281
-0.00149793678429
-0.000294138124445
-0.00107460818253
0.000626973458566
-0.00163093046285
-0.00125627894886
-0.00222989637405
-0.00172670918982
0.000111647641461
-0.00121461274102
-0.000981233199127
-0.000943412771448
-0.000142360164318
8.03539514891e-05
-0.00135128386319
0.00117359240539
-0.000240725465119
-0.000374483701307
-0.000683575111907
-0.0011793669546
-0.000725063146092
0.00134949351195
-0.000853240897413
-0.00197452795692
-0.00286289444193
-0.000440360308858
-5.33303173142e-05
-0.00087824248476
-0.000935629999731
0.000823861337267
-0.00150129781105
-0.00185971916653
-0.00108178972732
-0.000817280902993
0.00050249719061
-0.000129280990222
-0.00139637407847
-0.000141371056088
0.00233201216906
-0.00178359856363
0.000566403614357
-8.66263653734e-05
-0.00131556426641
-0.000972184818238
-0.00178784795571
-0.00170815479942
-0.00260995025747
-0.000457237794762
-0.000469056452857
0.000799893867224
-0.0019113732269
-0.000277972605545
-0.000575018289965
-6.21825529379e-05
-0.00200526835397
-0.00137458520476
-0.00050554232439
-0.000365924614016
-0.00118456350174
-0.000736074638553
-0.00152529205661
4.80361450172e-05
-0.000986222992651
-0.000504061405081
-0.000882932916284
-0.00104075099807
-0.000692900328431
-0.000945129548199
0.000537553918548
-0.000632503652014
-4.4604017603e-05
-0.000749237951823
-0.00195922120474
-0.000881936750375
-0.000822372094262
-0.00162485125475
-3.73977636627e-05
-0.00152610847726
0.00275994930416
0.000946799467783
-0.00107882113662
-0.000895928766113
0.000204751253477
-0.00049230660079
0.00061076314887
-0.000780792033765
-0.00304825697094
-7.69551916164e-05
-0.000622077845037
0.000101222009107
-0.000664383987896
-0.000721093965694
-0.00190353114158
-0.000953882234171
-0.00145348790102
0.000814517552499
-0.000821626337711
-0.00146914855577
-0.000630578259006
-0.000319858401781
-0.00141890882514
-0.000861286942381
-0.000916943885386
-0.000208941492019
-0.000726484169718
-0.000691563123837
-0.000501918315422
-0.000438826857135
0.000528794771526
0.000132729604957
-0.00106373231392
0.00523912673816
-0.000879453960806
-0.00114717008546
0.00068506738171
-0.0006458927528
-0.000105061713839
-0.000626566819847
0.000523861497641
-0.000390118511859
-0.000307134556351
-0.00154708034825
-0.000608057889622
-3.72770955437e-05
-0.000323600397678
-0.00078881403897
-0.000650950532872
-0.000559530570172
-0.000519743887708
0.000405517552281
-0.000309877737891
-8.45975009724e-05
0.000536545761861
0.000172729924088
-0.000171169653186
-0.00269505614415
-0.000800893467385
-0.00144186872058
-0.0016270163469
0.000799637637101
-0.00120534806047
0.00129044172354
-0.00278425728902
-0.000565926835407
-0.000222480346565
-0.000384824117646
-0.000550355820451
-0.000515061954502
0.00109930487815
-0.000898102647625
-0.00228037498891
-0.000729125400539
-0.00141054717824
-0.000282233639155
-0.000897942576557
-0.000868125353009
-0.00101367174648
-0.00114009692334
0.00013779742585
-0.00137559045106
-0.000312293035677
-0.000754396314733
0.00122628035024
0.000782704330049
-0.000328568945406
-0.00239628762938
0.000792506150901
-0.000769246602431
-0.00107498420402
-0.00146664690692
-0.000958649558015
-0.000543583068065
-0.000362481689081
-0.000291325297439
-0.000760584895033
-0.00111394538544
0.00165825267322
-0.000192426959984
-0.00057021115208
-0.00036605054629
0.000737016031053
-0.00120373861864
-0.00145718711428
-0.00127007008996
-0.00194862252101
0.000163122429512
-0.000739178271033
0.000161400035722
4.20373089582e-06
-0.00145611120388
0.00100472313352
-0.00133192713838
-9.85371007118e-05
-0.000613356416579
-0.00132464757189
-0.000566203030758
-0.00134255457669
-0.000181184223038
-0.00151923811063
-0.00015215887106
-0.00188060302753
0.000600144558121
-0.000573107914533
0.000891726231202
-0.00109009817243
0.000597292557359
-0.000211930062505
0.000296642247122
0.000419165444328
-4.29333558714e-05
-0.00145767256618
-0.00178543839138
-0.00112209212966
-0.00083205557894
0.00267842155881
0.000853936944623
-0.000584720575716
-0.000837380939629
-0.000946962682065
-0.000613791053183
-0.000616074132267
-0.000570739153773
0.00106445071287
-0.00122570758685
-0.000797799439169
-0.00136025482789
-0.00132276723161
-0.000401247962145
-0.00116283458192
0.000443572673248
-0.00166741141584
-0.000634299067315
3.16350706271e-05
-0.000219109875616
0.000527769210748
-0.000997819122858
-0.002274769824
0.00541213899851
-0.000985271064565
-0.000418665760662
-0.00137726706453
-0.00122812448535
-0.00106902059633
-0.000223501818255
0.000290194759145
-0.00194194063079
-0.00225518760271
-0.00186037376989
-0.00241716066375
-0.00191425415687
-0.00140175945126
-0.000620706647169
-0.000563296896871
-0.000418682699092
-0.00124381680507
-0.00236059934832
-0.000736068759579
-0.00138039258309
-0.000508374243509
-0.000644898682367
-0.00155113753863
-0.00215683877468
-0.00224423524924
-0.00169972178992
-0.00022812273528
-0.0020712018013
-0.000624082633294
-0.00115973548964
-0.000833218859043
-0.000118860705697
-0.00270200544037
-0.000325964851072
9.02735628188e-05
0.000318607693771
-0.001468638191
-0.00117293698713
-0.00151541631203
0.00111629453022
-0.00134085200261
-0.00209295190871
-0.00242267269641
0.000113695015898
0.00091019627871
-0.000219748762902
-0.00138885108754
-0.000177840382094
-0.000812771380879
-0.00171331898309
-0.00169980514329
-0.00202107755467
-0.000608632748481
-0.00121646362823
-0.000522855843883
-0.00166440720204
0.00221299380064
-0.00148727092892
-0.000344304542523
-0.00168645067606
-0.00105687929317
-0.00176031643059
-0.00228862138465
-0.00145596428774
-0.000577074475586
-0.000480291753775
0.000546748167835
0.000446135440143
-0.00152909918688
-0.00201013032347
-0.000652727379929
-9.51986075961e-05
-0.00175839988515
-0.00212206644937
-0.00200481060892
-0.00160101021174
-0.00134917942341
-0.00185864733066
-0.000894342665561
0.0006445668987
0.000138144663651
-0.000349334644852
-0.00119937234558
-0.00129827216733
-0.0015094676055
-0.000752259045839
-0.001360158436
-0.00107010651845
-0.00182265171316
-0.00120217830408
-0.00271623395383
-0.000617323501501
-0.000767555378843
-0.00143731245771
-0.0011407060083
-0.00183767045382
0.00192052358761
-0.000977325951681
-0.00121805723757
-0.00134544528555
-0.000487398996484
-0.00124264566693
-0.0012379338732
0.000633923278656
-0.00207238108851
-0.000727717997506
-0.00179672637023
-0.000698124233168
-0.00167404022068
-0.00171718408819
-0.00166993332095
-0.000652949500363
-0.00148053735029
0.00124985736329
-0.00195718812756
-0.000823135953397
-0.0015797483502
-0.00111838604789
-0.00233810767531
-0.000957610958721
-0.000642930797767
-0.000824929913506
-0.00167153438088
-0.00127319537569
-0.000324739899952
-0.000813365390059
-0.000932987837587
-0.00059059105115
-0.0030691458378
0.00850086379796
-0.00108670862392
-0.00100366200786
-0.000122619443573
-0.000925446394831
-0.000710689928383
-0.00115458399523
-0.000828506366815
-9.80013355729e-05
-0.00183045247104
-0.000756373803597
-0.000575852114707
0.00238216388971
-0.000979775446467
0.00122792914044
-0.000830580189358
-0.000623288215138
-0.000476636865642
0.000634137075394
-0.000604105356615
-0.000790882797446
-0.000713493209332
-0.000144605612149
-0.000229650569963
0.000153909713845
-0.00143850478344
-0.0016870010877
-0.00154746440239
0.00100609555375
-0.000820085930172
0.000618747901171
-0.00168058741838
-0.00229535973631
-0.000370901485439
-0.00148287171032
-0.00205707456917
0.000326066394337
0.000561221677344
-0.000673722475767
-0.00288353394717
-0.00104065425694
-0.000976202718448
-0.000899548525922
-0.000837234430946
-0.00109227513894
-0.00135840720031
-0.00276206969284
-0.000868763250764
-0.00168588839006
-0.000808881246485
-0.00183134677354
0.000683742575347
-0.00116703391541
-0.00170525093563
-0.00181879266165
-0.00202663312666
-0.0010308540659
-0.0015532867983
-0.00224041892216
-0.000736746704206
-0.00159507046919
-0.0014389900025
0.000311950279865
-0.000164414770552
-0.00363744911738
0.00167034566402
-0.00143600814044
-0.00238597090356
-0.00222522718832
-0.0015985610662
-0.000983194564469
-0.00165508768987
-0.00184073275886
-0.00208210805431
0.000438255199697
-0.000233488332015
-0.00167865760159
-0.00037228158908
-0.00108506251127
0.00484206341207
-0.00216477573849
-0.000544070149772
-0.00149862095714
-4.33629720646e-05
-0.000490828359034
-0.00173234159593
-0.0019360446604
-0.00098782859277
0.000973923306447
-0.00159221771173
-0.000915833341423
-0.00171567732468
0.000360109086614
-0.00160608824808
-0.000121425458929
-0.00134219508618
0.00274942978285
-0.00234307395294
-0.000350113259628
-0.00188368547242
-0.0013853268465
-0.00129150249995
-0.00115742569324
0.00405952194706
0.00149133615196
-0.0015991483815
1.67839880305e-05
-0.00164875772316
0.000473807565868
-0.00110230850987
0.000326982612023
0.00189671537373
-0.0011322129285
-0.000728110375348
-0.0010879408801
-0.00154471362475
2.68799540208e-05
-0.00276590371504
0.00110964430496
-0.00204746634699
-0.000512628292199
0.000591137097217
0.000109797008918
0.000113641908683
0.000366791646229
-0.000720426556654
0.00877282675356
-0.000622405612376
-0.00044532874017
-0.00197434611619
-0.00274644419551
-0.00127715594135
-0.000962395046372
-0.00102552550379
-0.0012240181677
-0.00303855608217
-0.00138129270636
-0.00291402405128
-0.00209034001455
-0.000878608087078
-0.00157677405514
-0.00102176028304
-0.000802901864517
-0.000486458215164
-0.00259077106602
-0.000460127252154
-0.00164658378344
-0.000162798329256
-0.00138179433998
-0.000990827335045
0.000267539930064
-0.00100855750497
-0.00112073984928
-0.00105865357909
-0.00350689212792
-0.00150888226926
0.00141918682493
-0.00245817913674
-0.0011214268161
-0.00274635455571
-0.000545895309187
0.000822319416329
-5.10763784405e-05
-2.86517733912e-05
-0.000587164075114
-0.000756090099458
0.00111479090992
-0.000124144891743
-0.000708269770257
-0.00142538151704
0.000441341340775
0.000776309752837
-0.00135719298851
0.000193387226318
-0.000893252261449
-0.00107655569445
-0.000619127589744
-0.000365169282304
-0.000374613475287
-0.000460402225144
-0.000491661019623
-0.000641164835542
-0.00225946749561
0.00135051028337
-0.00138796761166
0.00160582584795
-0.00120052555576
-0.00134312896989
-0.000629171612673
-0.000929523725063
-0.00100820907392
-0.00237694266252
0.000342773098964
0.00140382372774
0.000363988830941
-0.000716993701644
-0.000984554761089
-0.000262121902779
0.000995318288915
-0.000577274942771
-0.00259093474597
-0.000815085775685
-0.0022793256212
-0.000909961760044
-0.00228795595467
-0.00012674703612
-0.000562873028684
0.00113522948232
-0.000271114695352
-0.00282133114524
-0.000513820734341
-0.0020906124264
0.00030638568569
-0.00213613151573
-0.00244096503593
-0.00101909122895
-0.00291094952263
-0.00309031526558
0.000606128713116
0.000962361809798
-0.00354524911381
-0.00254507502541
-0.000727645063307
0.00102626148146
-0.00196476187557
-0.00110246962868
-0.000482055969769
-0.000922781880945
-0.000618260528427
-0.00161576550454
0.00087417307077
-0.00264705927111
4.79928348796e-05
-0.000627535395324
-0.0021982982289
-0.00086088932585
-0.00385438278317
-0.000231253070524
0.000203604082344
-0.000804037670605
0.00135818566196
-0.000606939080171
-0.00240598851815
-0.00152556458488
-0.000904849148355
-0.00259414152242
-0.00199453905225
-0.000672502734233
0.000450023420854
-0.00207030191086
-0.0010305964388
0.00142653030343
-0.00129213067703
-0.00158408365678
-0.00108233524952
-0.00343943154439
0.0120911672711
0.000581176427659
-0.000156760128448
-0.00111333595123
-0.00088952947408
-0.00040033395635
-0.00259047094733
0.000244087539613
-0.000850178010296
-0.00190139794722
-0.000772260886151
-0.00260404800065
0.00261515774764
-0.00314985285513
0.000768997240812
-0.00134024117142
-0.000180836112122
0.000325348315528
0.000823203125037
0.000231550206081
-0.00157542445231
-0.00113323971163
0.000619290396571
-0.000199643734959
0.00198649521917
7.50341423554e-05
-0.000541514542419
-0.00144972803537
0.000541578920092
0.000651394308079
-0.000974270922597
0.000131494278321
-0.00273830676451
2.65885464614e-05
-0.00177109637298
-0.00286458316259
0.00128763634712
0.000156117283041
0.000606328540016
-0.000915658718441
-0.000789187906776
0.000728644721676
-0.000423584133387
0.000238257038291
-0.000364288425772
-0.000291469448712
-0.00345033966005
-0.0017725629732
-0.000447057886049
-0.000829089025501
-0.00246357824653
0.00133888667915
-0.00244746659882
-0.00262991269119
-0.000970577937551
-0.00300142425112
0.000797631510068
0.000164541852428
-0.000989402527921
-0.000153597691678
0.000547870818991
-0.00166328600608
0.00170757318847
-0.000151925196406
-0.00444021634758
0.00183084455784
-0.00268173124641
-0.00333500164561
-0.00199772091582
-0.00276670232415
-0.000658940174617
-0.000480326940306
0.000151926156832
0.000169965409441
0.000761265517212
-0.000170056679053
-0.00149426504504
-0.00290704634972
-0.000560789834708
0.00627734605223
-0.00161684502382
-0.000104221246147
-0.0010183028644
0.00203340989538
0.0003636785259
-0.000501691712998
0.000319220271194
-0.00142918678466
0.00151269789785
0.000180259288754
-0.00268447585404
-0.000277884799289
-0.000847694755066
-0.000346206186805
-0.00108697731048
-0.00161011808086
0.00417480291799
-0.00332172214985
0.000374337862013
-0.00290187541395
-0.00131110777147
-0.000166540441569
-0.000699441763572
0.0073058353737
0.00248663011007
-0.00311627076007
-0.00178690906614
-0.00264919619076
-0.000209330275538
-0.00259981746785
-0.000333722971845
0.00354337529279
-0.00298742181621
-0.000626128166914
0.000233011989621
-0.00255461782217
0.000720916839782
-0.00356513471343
0.00225369865075
-0.00426794402301
-0.00213604839519
0.000789613171946
-0.000631981762126
-5.61334600206e-05
0.000689841457643
-0.00200889003463
0.0123517606407
-0.00223801657557
-0.000732136890292
-0.00292324600741
-0.00348890898749
-0.00303063262254
-0.00119986303616
-9.97301322059e-05
-0.00229348312132
-0.00408745231107
-0.00542987976223
-0.00423239264637
-0.00430116336793
-0.00212512956932
-0.00258502783254
-0.00264866976067
-0.00138121366035
-0.00100207247306
-0.00387020292692
0.000198692825506
-0.00300319748931
-0.00068593287142
-0.00294904690236
-0.00254907109775
-0.000212957645999
-0.00118307489902
-0.00166948558763
-0.0024537644349
-0.00350640434772
-0.00237690773793
7.51565166865e-05
-0.00329839345068
-0.00257349619642
-0.00346600916237
-0.00159669434652
0.000741273222957
6.69946675771e-05
0.000112396337499
-0.000393190799514
-0.000816517043859
0.00111590733286
5.27725096617e-05
-0.0020852079615
-0.00129621650558
0.00207039504312
0.000885372166522
-0.00206097168848
0.000855524325743
5.04186318722e-05
-0.000575482321437
-0.00128490943462
-0.000507683376782
-0.000430629617767
-0.00236927648075
0.0002132486552
-1.55526613526e-05
-0.00253589544445
0.00319373933598
-0.00121670251247
0.00278456206433
-0.00230447924696
-0.00335384183563
0.00010977115744
-0.0023657863494
-0.00173186336178
-0.00367094599642
-0.000726071943063
0.00165565509815
0.00109356967732
-0.00231745117344
-0.00310001801699
-9.63673592196e-05
0.00252424692735
-0.00168488966301
-0.00354408170097
-0.00210417853668
-0.00275685312226
-0.0022758715786
-0.00239195791073
-0.000210982791032
-0.000720096577425
0.00130894512404
0.000847920426168
-0.00306832161732
-0.0026220025029
-0.00271473545581
0.000469757273095
-0.00420758360997
-0.0030686610844
-0.00126789568458
-0.00328377028927
-0.00226373155601
0.000114190770546
-0.000673002097756
-0.0036398882512
-0.00309512298554
-0.0013317320263
0.00306864199229
-0.00240192655474
-0.00138199224602
0.000470788509119
-0.00169483304489
-0.00235283607617
-0.00458797626197
0.00265233498067
-0.0025650949683
-0.000759991700761
0.000568745716009
-0.00248001795262
-0.00264685880393
-0.00377572723664
-0.000738579896279
-0.000274135440122
0.00043763089343
0.00186405074783
-0.00140172080137
-0.00358707667328
-0.00284962705337
-0.00120658392552
-0.00438222195953
-0.00282632629387
-0.00187593360897
0.000404687394621
-0.00301801017486
-0.00271188514307
0.00129788881168
-0.00269920169376
-0.00264797289856
-0.00212656077929
-0.00806225743145
0.016257122159
-0.000357713201083
-0.000635903619695
-0.00171399023384
-0.000590303214267
-0.000595062563661
-0.0035786528606
-6.09171656833e-05
-0.000129313513753
-0.00149771838915
-0.00037472913391
-0.00236796331592
0.00543646980077
-0.00344287720509
0.0015990025131
-0.00237628165632
0.00067924434552
0.00165827421006
0.00113821262494
-9.47833177634e-05
-0.00229097856209
-0.00217061210424
-0.000211953505641
0.000956465082709
0.00193903059699
-0.00091101846192
-0.000671253714245
-0.00186762108933
0.0011483571725
0.000764449243434
-0.00191235926468
-0.000886102148797
-0.00422115763649
0.000972592970356
-0.00251947902143
-0.00348130473867
0.00237442599609
0.00016924632655
0.00124834862072
-0.00234906398691
-0.00305349449627
0.000464360258775
-6.52063463349e-05
0.000269061973086
-0.000997712952085
-0.000829879194498
-0.00344770820811
-0.00222714059055
-0.00165907712653
-0.00122241745703
-0.00357272056863
0.0018936493434
-0.00248421868309
-0.00236644572578
-0.000536032835953
-0.00329309864901
0.000551528355572
-0.000635871139821
-0.00320381997153
-0.000318765669363
0.000493195024319
-0.00276056025177
0.00323985260911
0.000315631332342
-0.00817381497473
0.00324581610039
-0.0040397788398
-0.0055220965296
-0.00422065192834
-0.00577753549442
-0.00248973281123
-0.00157185050193
-0.000169397244463
-0.00171668652911
0.000746018253267
-0.00148958270438
-0.00302051356994
-0.00348349451087
-8.19778142613e-05
0.0087677622214
-0.00195908895694
0.000320295570418
-0.00261936313473
0.00232773483731
0.00113854161464
-0.000773599371314
-0.000325972330756
-0.00149022100959
0.0025722971186
-0.00105328322388
-0.0035023947712
-0.00150252494495
-0.000930926646106
-0.0013990313746
-0.00266150152311
-0.00237056030892
0.00786205008626
-0.00737275322899
0.000872758042533
-0.00372819253244
-0.00230587483384
-0.0011127605103
-0.00221155118197
0.00869589205831
0.00459289830178
-0.00263947132044
-0.00128526729532
-0.00292204180732
0.00147000700235
-0.00269159371965
0.000944055325817
0.0042829294689
-0.00160883995704
-0.000409862899687
0.00112877879292
-0.00258535798639
0.000798122317065
-0.00248296838254
0.00215181731619
-0.00385603355244
-0.00155552104115
0.00209349882789
0.000252251134953
0.00088546727784
0.00127677957062
-0.00172003381886
0.0158576797694
-0.000513560837135
-0.000575046229642
-0.0025783139281
-0.00213094684295
-0.002377853496
-0.00157912052236
-0.00132775120437
-0.00174736580811
-0.00328877777793
-0.00483938260004
-0.00407596956939
-0.00386775634252
-0.00126275361981
-0.00213590799831
-0.00233995774761
0.000385315128369
-0.0018155121943
-0.00395796308294
-0.000949193141423
-0.00238191033714
-0.000364204024663
-0.00235416204669
-0.00451547000557
-0.000366999331163
-0.00258550420403
-0.00136624474544
-0.00249374168925
-0.00444100052118
-0.00167853280436
0.000498503271956
-0.00230193161406
-0.00283372122794
-0.00381593639031
-0.00157579127699
0.0026743717026
-7.55387882236e-05
-0.000264902017079
-0.00131202465855
-0.00125014816877
0.00118435686454
0.000422263750806
-0.0014635816915
-0.00204064045101
0.00436412775889
0.00193304277491
-0.00298264948651
0.000173502761754
0.000843333255034
-0.0020255187992
-0.000715649162885
-0.000279320578557
0.000112670611998
-0.00318751391023
0.00106536713429
-0.000402928155381
-0.00263876537792
0.00434904405847
-0.00220910436474
0.00371618685313
-0.00264606322162
-0.00343606225215
0.000643570907414
-0.00244310242124
-0.00139580469113
-0.00305924192071
-0.00134309765417
0.00383621943183
0.00216116197407
-0.00322821177542
-0.00266960985027
-0.000166652564076
0.00271325837821
-0.00147435837425
-0.00395901454613
-0.00236655771732
-0.00224498449825
-0.00226439489052
-0.00211974489503
-0.00118291808758
-0.000681089120917
0.00225683697499
0.00249957316555
-0.00367256416939
-0.00118543021381
-0.00367549038492
0.000184818476555
-0.00199197954498
-0.00338692730293
-0.000852868251968
-0.00425347033888
-0.00228984374553
-0.000157428905368
0.00141258258373
-0.00426905462518
-0.00184822198935
-0.00251475372352
0.00533298868686
-0.00234347791411
-0.00233211647719
0.000854368379805
-0.00151203235146
-0.00259017362259
-0.00267821969464
0.00315246474929
-0.00436840159819
-0.000886076595634
-9.05488559511e-05
-0.00278981868178
-0.00355297327042
-0.00395501405001
-0.0013639255194
-6.25242537353e-05
-0.000438670191215
0.00342123652808
-0.000987044535577
-0.00376777816564
-0.00189778825734
-0.00209751469083
-0.00433139735833
-0.00336382165551
-0.00181356002577
0.000549841264728
-0.00313319242559
-0.00235831458122
0.00270884111524
-0.00275220815092
-0.00279830489308
-0.00202298746444
-0.00791335292161
0.0207075383514
0.00115564616863
-0.00096900697099
-0.00134292372968
-0.000657982891425
3.59058903996e-05
-0.00387014891021
0.00014421036758
-0.00100306910463
-0.00305231567472
0.000538512889761
-0.0024484556634
0.00621533906087
-0.0028135178145
0.00188130128663
-0.00127095298376
0.0021240664646
0.00127475266345
0.00286665069871
0.000524927978404
-0.00350559316576
-0.00155823898967
-0.000966098275967
0.00119811214972
0.00069832673762
-8.88930662768e-05
0.000234004488448
-0.00239526387304
0.001915794448
0.000796403095592
-0.000410003412981
-0.00211945455521
-0.00339472922496
0.00197243690491
-0.00313289836049
-0.00369221810251
0.00243582529947
0.00146379019134
0.00309126870707
-0.00296068447642
-0.0023697016295
0.00124188442715
0.000893530959729
-0.000127074017655
-0.000820230459794
-0.000948892091401
-0.00467376178131
-0.0017180563882
-0.00138778868131
-0.00124409946147
-0.00303748226725
0.00312015251257
-0.00161510473117
-0.00240654498339
-0.00129969057161
-0.00372664141469
0.000829204742331
0.00101608852856
-0.00266836513765
0.00012131609401
0.000864894187544
-0.00282867997885
0.0033606858924
-0.00055439688731
-0.00812548119575
0.00482339831069
-0.00292139290832
-0.0033637334127
-0.00395053578541
-0.00512067833915
-0.00197781878524
-0.000943586812355
-0.000112791167339
-0.00152214954142
0.00233872304671
-0.000413313915487
-0.0027929272037
-0.00261802319437
0.000224439107114
0.0111918365583
-0.00197290861979
0.000270202668617
-0.00215385784395
0.000945397187024
0.00207717414014
-0.000550821598154
0.000870599411428
-0.00210580579005
0.00360436644405
-0.0014870146988
-0.00267220032401
-0.000368507171515
-0.00098596024327
-0.00241761957295
-0.00139682157896
-0.0030789677985
0.00832300726324
-0.0074824038893
0.00162489002105
-0.00375673710369
-0.00240142364055
0.000500837981235
-0.00160192453768
0.00784536451101
0.00521617708728
-0.00316148879938
-0.000262540474068
-0.00265206675977
0.00213998951949
-0.00224844994955
0.00192660535686
0.00605474459007
0.00129822245799
-5.14235362061e-05
0.000615990138613
-0.00361871509813
0.00145697884727
-0.000996971037239
0.00351069588214
-0.00371719244868
-0.00109916250221
0.0025137194898
0.000612109259237
0.00168050616048
0.00172043417115
-0.00248465081677
0.0145545629784
-0.000756321591325
0.000160486262757
-0.00154883880168
-0.00265096779913
-0.00174885243177
-0.00121328840032
0.000312597898301
-0.00101610005368
-0.00293076015078
0.000873564044014
-0.0044885315001
-0.0041630207561
-0.0013218219392
-0.000279260391835
-0.00118804909289
0.0012416401878
-0.000987855833955
-0.00336742703803
-0.00212643970735
-0.00224983878434
-0.0002405315754
-0.00185026309919
-0.00298690306954
0.000382167927455
-0.00125183793716
-0.00204767030664
-0.00186544272583
-0.00467810500413
-0.00261653633788
0.00155988195911
-0.00302736600861
-0.001798095298
-0.00442546233535
0.000332184950821
0.00319079263136
0.00154502945952
0.000233627506532
-0.00123889232054
-0.000401444820454
0.00376820703968
0.00107692484744
-0.00243255659007
-0.00301217939705
0.00466185901314
0.00283955014311
-0.00160823226906
0.00113748153672
0.0016881977208
-0.000951666093897
0.000132566201501
0.000242277237703
-0.000446612277301
-0.00171688757837
0.00193296303041
0.000296604179312
-0.0018298124196
0.00559649756178
-0.00162347196601
0.00544634833932
-0.00157639547251
-0.00250546028838
0.000616354402155
-0.00238754530437
-0.000870696268976
-0.00232322653756
0.000556443235837
0.00506269419566
0.00288470718078
-0.00201146467589
-0.00273574399762
0.000675170856994
0.00322912004776
-0.000412456633057
-0.00323168933392
-0.00268267211504
-0.00117983296514
-0.0012773986673
-0.00250800559297
0.000287638860755
0.000143562981975
0.00310142710805
0.00352751347236
-0.00320813315921
-0.00141742185224
-0.00254128756933
0.00139905232936
0.00125341373496
-0.0034667449072
0.00019172251632
-0.00369007186964
-0.00267805391923
0.00179681403097
0.002322307555
-0.00370253412984
-0.00212748232298
-0.00124271388631
0.0077081201598
-0.00144228199497
-0.00201063719578
-0.000132254412165
-0.00152403139509
-0.00279991957359
0.000589476141613
0.00350763881579
-0.00551000237465
0.000329289207002
0.00160661223345
-0.00241029448807
-0.00229576788843
-0.00396709796041
-0.00146061286796
0.000831836194266
0.000690957182087
0.0045996401459
-0.000861788517796
-0.00329992733896
-0.00179874023888
-0.000856130267493
-0.00333985313773
-0.00332237686962
-0.00126087351236
0.000933776726015
-0.00306010339409
-0.00197572936304
0.00468280399218
-0.00163782539312
-0.00257706339471
-0.000765559379943
-0.00188475067262
0.0212735105306
0.0013023953652
-0.000254509388469
0.000122716650367
9.2213107564e-05
0.000864254892804
-0.00251689460129
0.00176044739783
-0.000590217008721
-0.00387175264768
0.000372387439711
-0.00198373780586
0.00409269193187
-0.00233249343
0.0033197645098
-0.00132974679582
0.00311346631497
0.00246002268977
0.00453737284988
0.000876982579939
-0.00190701533575
0.000219085006393
0.000482808420202
0.00244921841659
-0.00149654143024
-0.000521419919096
0.000187214871403
-0.0012240158394
0.00344524905086
0.00183449906763
0.00224518799223
-0.00411109952256
-0.00285801663995
0.00139584590215
-0.00185557757504
-0.00223550177179
0.00428795302287
0.00343163358048
0.00270688324235
-0.00248162145726
-0.00217933999375
0.000926751352381
0.00260970438831
0.000686170824338
0.000199334055651
-0.000897800025996
-0.00386080285534
-0.00121884956025
-0.00221444899216
-0.000400693068514
-0.00251678191125
0.00495662819594
-0.00167986680754
-0.00123501301277
0.000398847652832
-0.00310369348153
0.00224002660252
0.00125599245075
-0.0029089525342
-0.000647855980787
0.00302114430815
-0.0020488188602
0.00452201534063
0.000216499858652
-0.000202536873985
0.00619961740449
-0.000968538108282
-9.25638596527e-05
-0.00389436190017
-0.00122208928224
-0.00239266618155
-0.00126917869784
0.000303272274323
-0.001103357994
0.00307016144507
0.00030694657471
-0.00144182413351
-0.00154271384235
0.000583963468671
0.00726263038814
-0.00276325503364
0.00173358514439
-0.00154054199811
-0.000728548387997
0.00308176805265
-0.00047307042405
0.000947185326368
-0.000676824129187
0.00509653473273
-0.000726090103853
-0.00142812519334
-0.000976524082944
0.00155203812756
-0.00111378496513
0.000365575659089
-0.00218659127131
0.00698099751025
0.000679333053995
0.0027270722203
-0.0031289269682
-0.00131706334651
0.00040329064359
-0.00154817814473
0.00529939495027
0.00515992520377
-0.00224866974168
0.000263615191216
-0.00195145478938
0.00190300005488
-0.00210141087882
0.00224404083565
0.00674823950976
0.00303193437867
0.000700933218468
0.000411412504036
-0.00250054872595
0.00102844275534
-0.00178219785448
0.00411302270368
-0.0025192273315
-0.000630674243439
0.00243512983434
0.00126221729442
0.00360533571802
0.00304734148085
-0.000832826655824
0.0130705535412
2.87449747702e-05
0.00078567606397
-0.000950906658545
-0.00285840919241
-0.00172430765815
-0.000598996935878
-0.000240514593315
-0.00135462975595
-0.00137585483026
0.00592887261882
-0.00294254510663
-0.00236776540987
-0.000581859669182
-0.000353623239789
-0.000532811158337
0.00204996787943
0.00101571599953
-0.0034970624838
-0.0035231821239
-0.00244070030749
0.000185431475984
0.000463545758976
-0.0021686127875
0.00137665693182
-0.00158880581148
-0.00110608665273
-0.00111658731475
-0.00267554819584
-0.00209213467315
0.00141450529918
-0.00234314193949
-0.00143722549547
-0.00402394775301
0.00259959930554
0.00362976407632
0.00192373339087
0.000716246489901
0.000358264078386
0.000788092904259
0.00439246138558
0.000708660460077
-0.00180688337423
-0.00382473273203
0.00584098976105
0.00340261403471
-0.00151183758862
0.000726507860236
0.0035239465069
0.000170002502273
-0.000183331154403
0.00162117159925
-0.00037577029434
-0.000345945096342
0.00246146204881
0.00147741299588
-0.00119315972552
0.00772666092962
-0.000947314139921
0.00570206111297
-0.000910801056307
-0.00252225715667
0.00156294892076
-0.00134188460652
0.000623835250735
-0.00137408368755
0.00141568051185
0.00524085294455
0.00339221884497
-0.00114603561815
-0.00263060699217
0.00114834390115
0.00403773551807
0.000142339544254
-0.00288048875518
-0.00199542962946
-0.00178910978138
-0.00177236332092
-0.00140268262476
0.00162365776487
0.00105923938099
0.00336652761325
0.00343402358703
-0.00204769219272
-0.000802025140729
-0.00273497239687
0.00235921586864
0.00414267741144
-0.00226465146989
0.00119482981972
-0.00391277903691
-0.00350114237517
0.00261401082389
0.00324530946091
-0.00353156751953
-0.0011256163707
-0.00087247393094
0.00907834433019
-0.000534659193363
-0.0016511840513
0.000416225433582
-0.0014192382805
-0.00160877418239
0.00322733772919
0.00295258592814
-0.00528194848448
4.17418887082e-05
0.00190445815679
-0.00136511586607
-0.00154039030895
-0.00334317283705
-0.000467705685878
0.00117869779933
0.000968532462139
0.00616169348359
-0.00055983022321
-0.00267401780002
-0.00049094640417
0.000170415209141
-0.00325006549247
-0.00189703621436
-0.00146635842975
0.00171181024052
-0.00236991303973
-0.00258296099491
0.00635644327849
-0.00129469949752
-0.00157358194701
-0.000852867378853
0.00239660590887
0.0195464491844
0.00231567001902
-7.56892222853e-06
0.0017054247437
0.000399430951802
0.000887750764377
-0.00266058952548
0.00206412677653
0.000441181327915
-0.00268220948055
0.00115847389679
-0.000960108241998
0.00148397067096
-0.00124819611665
0.00425856374204
-0.0022150548175
0.00425915513188
0.00387216545641
0.00517122587189
0.000551625795197
-0.00114210601896
0.000718184572179
0.00134290650021
0.00320862280205
-0.00232072174549
0.000517217849847
0.000301094929455
-0.00144948146772
0.00408290373161
0.00245909392834
0.00286574964412
-0.00385908107273
-0.00257785175927
0.00115745165385
-0.000983504462056
-0.00228294311091
0.00526888435706
0.00458163721487
0.00266286334954
-0.00151533202734
-0.00209250347689
0.00228106463328
0.00369210727513
0.000790138670709
0.00073891755892
0.000596430676524
-0.00379492039792
-0.000564277579542
-0.000175805791514
0.0011848466238
-0.00195727637038
0.00536399101838
-0.000602921820246
2.38368720602e-05
0.000484753458295
-0.0023582666181
0.00271828845143
0.00122872926295
-0.00233808089979
0.000759534770623
0.00351973040961
-0.00322299450636
0.00653606466949
0.00232553109527
0.00524048740044
0.00796728394926
-0.000112931753392
0.00395872956142
-0.00408737454563
0.00233296328224
-0.00263932649978
-0.00118798029143
0.00171948282514
-0.000684902828652
0.00418141437694
1.48581902977e-05
-0.00185954768676
-0.00230128085241
0.00213067606091
0.0053105703555
-0.0025761902798
0.00245774514042
-0.000607580528595
-0.00275693647563
0.00248837680556
-0.000371021451429
0.00132509344257
-9.2384951131e-05
0.00473675457761
0.000143133947859
-0.00113439455163
0.000114526024845
0.0040669105947
-0.00044398047612
0.00108158239163
-0.000859171617776
0.00356478686444
0.00747511908412
0.00187424535397
-0.00358614022844
-0.00209038425237
0.00135170458816
-0.000824376940727
0.00376509432681
0.00551873166114
-0.0010146163404
0.000190579390619
-0.000470285041956
0.00371067086235
-0.000545862480067
0.00386444339529
0.0063258591108
0.00527615472674
0.00154270103667
0.000574995588977
-0.0018511764938
0.000922085775528
-0.00103211589158
0.00524742249399
-0.00220639305189
-0.00137291382998
0.0022480674088
0.00186319637578
0.00372663023882
0.0029408428818
-0.00087921920931
0.0111632198095
0.000418747134972
0.00179960438982
-0.000328952359268
-0.00135647249408
-0.000651993846986
-0.00141179992352
0.00118394556921
-0.000919948273804
-0.00224441266619
0.0101681863889
-0.0033689760603
-0.0026564844884
0.000307452923153
0.00156439235434
0.00154571654275
0.00130226206966
0.000569466326851
-0.00344103132375
-0.00425021862611
-0.00211682543159
0.0010198635282
0.00177844776772
-0.00165393843781
0.00179571204353
-0.000686286133714
-0.000375158007955
-0.000638307770714
-0.0025788017083
-0.000234255523537
0.00170217116829
-0.00290235667489
-0.000848396215588
-0.00609442591667
0.00386453606188
0.00390433100984
0.00288317492232
0.00151196192019
0.000328855065163
0.000257673265878
0.00552237965167
0.00241095293313
-0.00171239790507
-0.00562416296452
0.00671552913263
0.00420898059383
-0.000280995707726
0.00266874232329
0.00367053947411
-7.05347702024e-05
0.000493697298225
0.00163324631285
-0.000628303328995
0.00132299307734
0.00291596003808
0.002168078674
-0.00141084298957
0.00947261787951
-9.25625772652e-06
0.00678827194497
0.000105283812445
-0.00168518524151
0.00164258945733
-0.00079278438352
0.000780647969805
-0.00235238252208
0.0016789160436
0.00505829695612
0.00452690385282
-0.000448447914096
-0.00199741846882
0.00125476170797
0.00351560045965
-0.000516436994076
-0.00276375282556
-0.00132259516977
0.000183282827493
-0.000502512033563
-0.000707468192559
0.00110775360372
0.00229226006195
0.00366499647498
0.00449010683224
-0.00168763345573
0.000603724969551
-0.00229856721126
0.00322935986333
0.00554041331634
-0.0025339089334
0.000642372469883
-0.00265025021508
-0.00501781469211
0.00379174062982
0.00392744131386
-0.00324949575588
-0.000403306854423
-0.000200993672479
0.0108550516888
0.00137749488931
-0.00142212130595
0.000360927631846
-0.000738429953344
-0.000619825848844
0.00512766093016
0.00344918784685
-0.00637733098119
0.00131483224686
0.00246876943856
-0.00132512953132
-0.00148277857807
-0.00229215552099
-0.000113514943223
0.00182231352665
0.000663695100229
0.00745471799746
-0.000101498568256
-0.00188849319238
-0.000696578179486
-0.000255907332757
-0.00278669851832
-0.00223695882596
-0.000403758080211
0.00205509155057
-0.00156859960407
-0.000329468835844
0.00575573183596
-0.00127779040486
-0.00102937500924
0.00107509444933
0.00629915110767
0.0171774812043
0.00267682829872
0.00165070733055
0.0020581453573
0.000862576242071
0.00159074936528
-0.0016388639342
0.00318462029099
0.00158167537302
-0.002070679795
0.00106386502739
-0.000242568319663
0.000261134409811
-0.000666123989504
0.00559865916148
-0.00131088448688
0.00514316279441
0.00411440897733
0.00672452058643
0.00191635498777
-0.00179016718175
0.00163123046514
0.00180178007577
0.00314107048325
-0.00473852967843
0.00121862045489
0.00105718302075
0.000360386358807
0.00506348488852
0.0035817027092
0.00575250666589
-0.00424721976742
-0.00191658793483
0.00221736892127
-0.00172991491854
-0.00220037228428
0.00589128956199
0.00602545356378
0.00293290265836
-0.000840083463117
-0.00150039547589
0.00299473758787
0.00359195726924
0.00105826207437
0.000534525781404
0.00145711097866
-0.00398459425196
-0.000101712736068
0.000172997286427
0.00209396076389
-0.00167784653604
0.0065037352033
-0.000144990117406
0.000125191509142
0.00145834533032
-0.00201042555273
0.00289846817032
0.00183291675057
-0.00213382160291
0.00206553889439
0.0044860728085
-0.00230137235485
0.00702100107446
0.00107925245538
0.00937029346824
0.00858607795089
-0.000307752168737
0.00841002631932
-0.00332369212992
0.00590578606352
-0.00460848212242
-0.000310939591145
0.00137876020744
0.000547268427908
0.0044935438782
-0.000451262574643
-0.000951570807956
-0.000444701698143
0.0020266729407
0.0024560126476
-0.00203850027174
0.002918852726
0.000402410398237
-0.00404039770365
0.00206261058338
-0.0010632838821
0.00150735129137
0.000635701988358
0.00570291280746
0.00036631320836
-0.000716856855433
-5.37937121408e-05
0.00545933563262
-0.000210803293157
0.00174380117096
-0.00132041133475
0.00173016753979
0.014112717472
0.0014907248551
-0.00309499516152
0.000204494732316
0.00248243496753
-0.000149381245137
0.00278185680509
0.00520518328995
-0.000412255671108
0.000644571438897
-0.00168457382824
0.0033410161268
0.000215397187276
0.00350939016789
0.00544505333528
0.00518149556592
0.0013430621475
3.58893739758e-05
-0.000801638525445
0.00189981760923
-0.00136592856143
0.00532085821033
-0.00280824652873
-0.000899040140212
0.00209076772444
0.0019413215341
0.00331719848327
0.00417206203565
-0.000131066888571
0.00973354186863
0.000511215475854
0.00190483732149
0.000809196440969
-0.00100593350362
-0.000938106735703
-0.000746122153942
0.00045688089449
-0.000871463213116
-0.00296956906095
0.010394773446
-0.00274757249281
-0.00211270689033
0.000340065773344
0.000908610236365
0.00179829902481
0.00213936739601
0.00150416069664
-0.00175558798946
-0.00499782618135
-0.00104227510747
0.00135211052839
0.00137820432428
-0.000981856370345
0.0019266695017
-0.000690668413881
0.000199560803594
0.000172086743987
-0.00261890259571
-0.00104756082874
0.00136791740078
-0.0022477901075
-0.00074775214307
-0.00548515049741
0.00349176791497
0.00471927784383
0.00237409258261
0.00181816343684
0.0010307750199
0.000580953899771
0.00475439382717
0.00269585498609
-0.00148987618741
-0.00579519290477
0.00714889215305
0.00370127800852
-0.000396220362745
0.00275501306169
0.00432902993634
0.0016678388929
0.00091406237334
0.00112065766007
-0.000216649772483
0.00173230422661
0.00303112831898
0.00215673912317
-7.1352449595e-05
0.00975043140352
0.000535541097634
0.00822007190436
-0.000502099690493
-0.000818990869448
0.00206362642348
7.97666289145e-05
0.00105797313154
-0.00201312801801
0.00163008167874
0.00497166393325
0.00493318447843
-0.000886349880602
-0.00251830299385
0.000971091736574
0.00306555256248
-0.000522276677657
-0.00251677446067
-0.000853988633025
0.000839308602735
-0.000305416819174
-0.000992640038021
0.00175168644637
0.00175166584086
0.00312615092844
0.00496646901593
-0.00251523335464
0.000247730466072
-0.00270927487873
0.00228755618446
0.00626177061349
-0.00137923611328
0.0014751345152
-0.0035961791873
-0.00533168949187
0.00282980129123
0.00372070563026
-0.00273218075745
-0.000586967507843
0.000246197887463
0.0106836818159
0.00155877217185
-0.000997392111458
0.000718917755876
0.000308731105179
-0.00080227595754
0.00562359811738
0.00304740830325
-0.00558396428823
0.00133144657593
0.00267640966922
-0.000366431253497
-0.00011140609422
-0.00319408462383
0.00124127662275
0.00233452720568
0.001247083419
0.00606311252341
8.59527935972e-05
-0.000893546035513
0.000873161363415
0.000160680501722
-0.00264932936989
-0.00162416277453
-0.000366875523468
0.00221170159057
-0.00168702437077
-0.000714276044164
0.00664644921198
-0.00233343453147
-0.000821120280307
0.000775607244577
0.00698913121596
0.0173254925758
0.00283464742824
0.00191411026753
0.00290878047235
0.00100064650178
0.00111637695227
-0.00208488409407
0.00253109051846
0.00128767394926
-0.0026070671156
0.00209357077256
-0.000307351059746
1.49169436554e-05
-0.00114393862896
0.00584561331198
-0.000698930176441
0.00499965436757
0.00393498828635
0.00580048887059
0.00210427935235
-0.00144047057256
0.00216503860429
0.00248384056613
0.00433302251622
-0.00465995725244
0.000761460512877
0.000830472039524
-0.000451481697382
0.00565904611722
0.00385154085234
0.00643743667752
-0.00432790769264
-0.00199552136473
0.00227103056386
-0.00149137910921
-0.00229493272491
0.00544367684051
0.00618696212769
0.00376125797629
-0.000882350490429
-0.000650548783597
0.00295276381075
0.00453174393624
0.000415062240791
0.00110592332203
0.000819643610157
-0.00318109011278
0.000502230133861
0.00148671946954
0.00145894510206
-0.00121615501121
0.00654330616817
-0.000473125459393
-3.62739010598e-05
0.000136471586302
-0.00175709358882
0.00332551682368
0.00193096371368
-0.00242285639979
0.00119886850007
0.00347843091004
-0.00168863299768
0.00645026704296
0.00212790560909
0.0109597090632
0.00838809181005
-1.06578836494e-05
0.0093196677044
-0.00220888736658
0.00644083786756
-0.0054986840114
0.000135658076033
0.00187013554387
0.000597724399995
0.00475111231208
0.000330235081492
-0.00123374385294
-0.000776988454163
0.00275927828625
0.00240864534862
-0.00189351593144
0.00297267572023
-0.000785037118476
-0.00387676688842
0.00308309937827
3.37308265443e-05
0.00169337668922
0.000142030330608
0.00565036246553
-0.000474574539112
-0.000998105620965
-0.000277253449894
0.00458107376471
-4.98016997881e-05
0.0025968789123
9.6110663435e-05
0.00192405632697
0.014695905149
0.00224031810649
-0.0024215169251
-0.000258261599811
0.00180198124144
-9.27871296881e-05
0.00389965390787
0.0047859614715
-0.00145212525968
0.000535156170372
-0.00135528028477
0.00289296125993
-0.00096898979973
0.00291546015069
0.00575342681259
0.00434659188613
0.00196417560801
0.00183073210064
-0.00159676990006
0.00104492867831
-0.00160756532568
0.00564981857315
-0.00290330243297
-0.00046560188639
0.00177387672011
0.00151982193347
0.00325338426046
0.00331043731421
-0.000694654532708
0.0099792862311
0.000386858300772
0.000971618748736
0.000282580353087
-0.00168959528673
-0.00184791150969
-0.0014653201215
0.00115578668192
-0.000517912791111
-0.00211625685915
0.00909472908825
-0.00285204406828
-0.00235162721947
-3.00121319015e-05
0.00123949279077
0.000945101724938
0.00140361278318
0.000134856745717
-0.00269313482568
-0.00468822196126
-0.00130240479484
0.000481457303977
0.00122431572527
-0.00173836899921
0.00152591860387
-0.000191941013327
0.0010141977109
-0.000802544935141
-0.00296066724695
-0.00112678960431
0.00225600204431
-0.00235904566944
-0.00160718429834
-0.00505416747183
0.00277985003777
0.00383826787584
0.00214800750837
0.000772945058998
0.000544891750906
8.42066656332e-05
0.004182130564
0.00173120060936
-0.00109453487676
-0.00592675618827
0.00723124947399
0.00406512571499
-0.00135555036832
0.00210576574318
0.00328196468763
0.000380923243938
0.000907422450837
0.00114023184869
0.000254334881902
0.00176696956623
0.00338810775429
0.00259857275523
-4.47415550298e-05
0.00924043823034
0.000269364390988
0.0065601663664
-7.41066105547e-05
-0.00226982380264
0.000818536966108
-0.00145872822031
0.000102116384369
-0.00158900115639
0.00217907852493
0.00573525903746
0.00448876339942
-0.00175075489096
-0.00103940279223
0.00136553612538
0.00309535674751
-0.000759411777835
-0.00242205220275
-0.00200446858071
-0.000450264837127
-0.00114655215293
-0.00166617706418
0.00111404783092
0.00143849442247
0.00358375976793
0.00479488354176
-0.0027479515411
-0.000185975339264
-0.00285287667066
0.00259580323473
0.00501684006304
-0.00189183698967
0.00094894412905
-0.00298451120034
-0.00438041193411
0.00226384820417
0.0026377113536
-0.00270387367345
-0.000378076481866
-0.000818603555672
0.0114814238623
0.0017317449674
-0.00145396788139
0.000421954813646
-0.000167763981153
-0.00201664748602
0.00600218400359
0.00256940280087
-0.00497348234057
0.000448708015028
0.000916536373552
-0.000344708474586
-0.00161136244424
-0.00266012595966
-2.75460024568e-05
0.00178963458166
0.000922484032344
0.0069258576259
0.000714415917173
-0.00262905168347
0.00159541994799
0.000225813681027
-0.00217388081364
-0.00185241934378
-0.00034848015639
0.00281821098179
-0.00228892522864
-0.00248632603325
0.00553629826754
-0.0018543722108
-0.000609765294939
0.000420326861786
0.0057407123968
0.0166054982692
0.0028283316642
0.00123182369862
0.00285070459358
0.000937972799875
0.0021876769606
-0.00228798855096
0.00148746813647
0.00130113912746
-0.00207030307502
0.00218178587966
-3.6785928387e-05
0.000810432480648
-0.00124199828133
0.00468485383317
-0.000616807839833
0.00457317056134
0.00366213126108
0.0056628882885
0.0016660655383
-0.000552723999135
0.00088506040629
0.00112424918916
0.00330756488256
-0.00420918129385
5.02335569763e-05
0.00131955044344
-0.00118721451145
0.00490658171475
0.00214674090967
0.00428832415491
-0.00425512669608
-0.00234401226044
0.00149799999781
-0.00187001936138
-0.00301209138706
0.00543446140364
0.00530691910535
0.00369332451373
-0.00158471998293
-0.00125511165243
0.00272309174761
0.0043601966463
0.000389565568184
0.00124294392299
-7.89968107711e-05
-0.00277074682526
-0.000258272542851
0.000175485576619
0.00038078048965
-0.00185753288679
0.00592505326495
-7.70861588535e-05
0.000899853941519
0.000893982709385
-0.00225500552915
0.00256920838729
0.00139271980152
-0.00121612008661
0.00103699497413
0.00284069147892
-0.000567298207898
0.00666735740378
0.0018975934945
0.00888027623296
0.00877304654568
0.00103465968277
0.00683460058644
-0.00308254454285
0.00444950954989
-0.00513058202341
-0.000397354422603
0.00259872875176
0.0005307829706
0.00419973582029
0.000725082121789
-0.000940647558309
-0.00113033293746
0.00190605781972
0.00192817603238
-0.00218620174564
0.00289022480138
-0.001175156096
-0.00334111158736
0.00354060367681
0.000373457529349
0.00199652975425
9.09825030249e-05
0.00520084984601
0.000741388008464
-0.000366843334632
0.000236816369579
0.00539179705083
0.00018457758415
0.00187287770677
-0.000343705964042
0.00353831751272
0.0123467668891
0.00208209245466
-0.00331156863831
-0.00011291665578
0.00129613350146
-0.0014095857041
0.0029683415778
0.00447603221983
-0.001447379007
-0.000130478467327
-0.00104236102197
0.00167409062851
-0.000968331063632
0.00256924144924
0.00500563206151
0.00437126401812
0.00130096171051
0.000529808108695
-0.00222891755402
0.000960031815339
-0.000874340476003
0.00414458289742
-0.00336389988661
-0.00026192466612
0.00134804286063
0.00199686642736
0.00214215670712
0.00266897422262
-0.00144520634785
0.00636308407411
-0.000266309216386
0.000864035333507
0.00011616312986
-0.00188361643814
-0.000654567964375
-0.000917924684472
-0.000131148946821
0.000104338891106
-0.00201551429927
0.00649749208242
-0.00286444369704
-0.00279798591509
5.77973014515e-06
0.00124658772256
0.000711520726327
0.00170255056582
5.17000335094e-05
-0.0027538004797
-0.00639136927202
-0.00199303450063
5.08435732627e-05
0.000423171091825
-0.000701645156369
0.00151027180254
-0.000489630037919
-0.000507143384311
0.000223176975851
-0.0025323627051
-0.000875853002071
0.00112519424874
-0.00185636093374
-0.0017907974543
-0.00557556096464
0.0031723799184
0.00229012453929
0.00258287508041
2.6226933187e-05
4.69275801152e-05
4.98442459502e-05
0.00451236544177
0.00108550698496
-0.00147666153498
-0.00788097642362
0.00447927694768
0.00355797051452
-0.0011158247944
0.00109156570397
0.00237025343813
-0.00100070144981
2.41330762947e-05
0.000671854417305
-0.000451776810223
0.00130425998941
0.00278080953285
0.00170808599796
-0.000496839056723
0.00762528320774
-0.000731493288185
0.00728665245697
-0.00118039001245
-0.0019327349728
0.000826809904538
-0.00158702104818
0.000118999603728
-0.00287826755084
0.0011021749815
0.00411104504019
0.00390616618097
-0.00159619667102
-0.00238522863947
0.00106378772762
0.00380154303275
-0.000308623479214
-0.0021858077962
-0.000528996868525
-0.000202702372917
-0.000573444180191
1.24865891848e-05
0.000979435513727
0.000735193723813
0.00306773674674
0.00348386052065
-0.0018971208483
-0.000946066051256
-0.00180580094457
0.00164431380108
0.0045946626924
-0.000943845254369
0.000426320388215
-0.00271515245549
-0.00457605300471
0.00130452343728
0.00281042838469
-0.0026025287807
-4.07119405281e-05
1.43351107909e-05
0.00957455206662
0.00265427911654
-0.00122812401969
0.00078944634879
0.000417910661781
-0.00155484105926
0.00541566917673
0.00256775645539
-0.00512145971879
0.00131121010054
0.00158242660109
-0.00122920749709
-0.00231686024927
-0.00199844874442
-0.00059147446882
0.000716497190297
0.000431605556514
0.00524898711592
6.51727314107e-05
-0.00212491676211
0.00141644175164
-0.000380944751669
-0.00230987998657
-0.00284515181556
-0.00162259966601
0.00139104854316
-0.00245468295179
-0.00231263739988
0.00423862179741
-0.00192758918274
-0.000668946886435
1.81700706889e-05
0.00463914778084
0.0124089261517
0.00189055968076
0.000915905868169
0.00127218640409
0.000807279255241
0.00128663238138
-0.00264117866755
0.00168074155226
0.000733039283659
-0.00182991102338
0.00166902109049
-7.45312036088e-06
0.000490405131131
-0.000514000887051
0.00419900007546
-0.00143926544115
0.00441572023556
0.0031441685278
0.00511518400162
0.00117895880248
-0.00166818150319
0.00066095177317
0.000930750684347
0.00305297505111
-0.0050579784438
-0.000523909751792
0.000929599860683
-0.000991905108094
0.0057994062081
0.00235371896997
0.00362258194946
-0.00428148498759
-0.00205866014585
0.000658483768348
-0.0014481341932
-0.00143131380901
0.00420980807394
0.00568938674405
0.00264202314429
-0.000640493351966
-0.0017303400673
0.00199717003852
0.00297962292098
6.78119322401e-05
0.000680580094922
0.000764477066696
-0.00299946800806
0.000234153660131
0.000300190265989
0.0011412568856
-0.00194538291544
0.00574396969751
0.000641938124318
0.000426618586062
-8.13840088085e-05
-0.00152781954966
0.00213608914055
0.000830563600175
-0.00169300870039
0.000674205773976
0.00281667034142
-0.00115156744141
0.00520252110437
0.00113858608529
0.007797322236
0.00681139295921
-0.000280964653939
0.00581050477922
-0.00339607079513
0.0045437826775
-0.00446190917864
-0.000423236226197
0.00114891398698
-0.000116833303764
0.00362105108798
-0.000492611841764
-0.000702665129211
-0.00029728381196
0.00146452011541
0.00123829126824
-0.00215228949673
0.00197194702923
-0.0010394701967
-0.004309900105
0.00137481791899
-0.000982232159004
0.00168086669873
-0.000539615401067
0.0051032830961
0.000390957458876
-0.000834776903503
-0.00111441186164
0.00426427973434
-0.000373795832274
0.00116296776105
-0.00105436029844
0.00324386754073
0.0117339631543
0.00155704002827
-0.00240822229534
-0.00114430265967
0.00177711364813
-0.000871195399668
0.0021180419717
0.00432684319094
-0.00247050193138
-0.000687396677677
-0.0029662931338
0.0015019903658
-0.00139322760515
0.00161349575501
0.00456803664565
0.00264134560712
0.000914810749236
0.0014454316115
-0.00177876185626
0.00096772267716
-0.00167507049628
0.00368140428327
-0.0021433327347
-0.000840605120175
0.000790095189586
0.00225047324784
0.000824176066089
0.00216089724563
0.000115191629448
0.00252333818935
-0.00106931803748
0.000407378945965
-0.00110196287278
-0.00133989797905
-0.00165054609533
-0.00199552322738
0.000611308787484
-4.81727911392e-05
-0.00190480984747
0.00453756889328
-0.00256072124466
-0.00177780317608
-7.30269457563e-05
-0.000793949875515
-0.000646935368422
0.00032726302743
0.000198849491426
-0.00384381995536
-0.00736327283084
-0.00251699611545
-1.5085918676e-05
0.000862937944476
-0.00130503252149
0.000486486620503
-0.00128323561512
-0.00100059376564
-7.17348084436e-05
-0.00202317698859
-0.00146655284334
0.00123241427355
-0.00226746592671
-0.00119965907652
-0.00491282623261
0.00140731281135
0.00223533436656
0.00124128349125
0.000486908073071
0.000137971903314
-0.000655008130707
0.00210180156864
0.000644551531877
-0.00139630946796
-0.0076629393734
0.00437775300816
0.00193308654707
-0.000509128789417
0.000546493800357
0.00247601931915
6.65409388603e-05
0.000350179645466
0.00125402433332
0.000277077342616
0.000321810308378
0.00191517092753
0.000481361872517
-0.00143983028829
0.00684061367065
-0.000351817638148
0.00503865256906
-0.00128842727281
-0.00296528730541
0.00127326999791
-0.00122625287622
-1.6965955183e-06
-0.00263615325093
0.000888371490873
0.00281196669675
0.00306196301244
-0.00145716813859
-0.00316052045673
0.000774906133302
0.00180092814844
-0.000300565181533
-0.00218293187208
-0.000974811729975
7.22708937246e-05
-0.00180905859452
-0.0012517349096
0.00141133193392
0.000127581777633
0.00272111734375
0.0020049738232
-0.0017480236711
-0.00132999557536
-0.00210095313378
0.00114102859516
0.00404664454982
-0.00175349076744
-0.000483461102704
-0.00329480157234
-0.00464811967686
0.00153731054161
0.00198401650414
-0.00248198816553
-0.000758229754865
-0.00077517767204
0.00983566883951
0.000965334125794
-0.0010633172933
0.000583392567933
0.00162622367498
-0.000504554598592
0.00269928248599
0.00206044130027
-0.00496221100911
0.00121933477931
0.00122230185661
-0.00251359026879
-0.00140377506614
-0.00328719918616
-0.000765231903642
0.000769023492467
0.000555582460947
0.00503697711974
0.000438949966338
-0.00136386312079
0.000618133402895
-0.000661325000692
-0.00374882528558
-0.00164343102369
-0.00194668106269
0.00136065692641
-0.00207820977084
-0.00224700081162
0.00390920601785
-0.00225251284428
-0.000480156915728
3.31022347382e-05
0.00306590599939
0.007872402668
0.00130609469488
0.000799591012765
0.0011417925125
0.000468004669528
0.00120883132331
-0.00220570736565
0.00171973754186
0.000318220234476
-0.000880989129655
0.00111439288594
-0.00108565285336
0.00160842994228
-0.000975677277893
0.00311162229627
-0.00172130705323
0.0037900460884
0.00211656605825
0.0036167872604
0.00133630470373
-0.00211886316538
0.000193093786947
-0.00018878262199
0.00202182959765
-0.00734256068245
0.000589850824326
0.000165992576513
-0.00189035315998
0.00344779482111
0.00148322759196
0.00270643713884
-0.00298092723824
-0.00132882979233
0.0012831822969
-0.00134181824978
-0.00232179299928
0.00413186242804
0.00425233365968
0.00237009092234
-0.000759416492656
-0.00168613647111
0.00148877629545
0.00207929033786
0.000855345046148
0.000663899583742
0.000887156114914
-0.00289688492194
-0.00082878122339
-0.00069649919169
0.000253622565651
-0.00117666996084
0.00455373432487
-0.000745001016185
-0.00133463763632
0.000728913699277
-0.00212423224002
0.00207918533124
0.000757077126764
-0.00225020339713
0.00116847734898
0.00190554419532
-0.000612610252574
0.00555572053418
0.00108829676174
0.00511772185564
0.00592417176813
0.000515640771482
0.00382611528039
-0.00314058526419
0.0034747205209
-0.00448593264446
-0.000280657259282
0.000898162834346
-7.01198296156e-05
0.00303029292263
-0.000940144527704
-0.00166483607609
2.22886719712e-05
0.000937375065405
-0.00291987950914
-0.00183062604629
0.00144594011363
-0.000766868353821
-0.00523965246975
0.000620475388132
-6.55780422676e-06
0.000962666235864
-0.000351746508386
0.00423408811912
-0.000317682803143
-0.000122855883092
-5.62894601899e-05
0.00306678866036
-0.000324015214574
0.00125454808585
-0.00209191790782
0.00286837015301
0.00953896343708
0.00120456761215
-0.00224409927614
-0.00063559418777
0.000345790467691
-0.000964074977674
0.00211329292506
0.00224127597176
-0.00217674532905
0.00065181782702
-0.00166882830672
-2.17941806113e-06
-0.00112347502727
0.00155313743744
0.00357233872637
0.000351888971636
-0.000515591003932
0.00157936068717
-0.00176815432496
0.000883639906533
0.000200872222194
0.0026713819243
-0.00276691559702
-0.00136177439708
0.00117441779003
6.30638678558e-05
2.70328091574e-05
0.000490867474582
-0.000357627839549
0.00274001643993
-0.000125041115098
-0.00105649873149
-0.000789568235632
-0.00184988568071
-0.00121907750145
-0.00158001831733
-0.000638516386971
-0.000732633518055
-0.0020841776859
0.000592113647144
-0.00238613900729
-0.00226650340483
-0.00024050391221
0.000334979122272
-0.00112603663001
-0.000673651637044
-0.000822542584501
-0.00181275734212
-0.00435957266018
-0.0020644988399
6.71699017403e-05
-0.000845123431645
-0.0015532055404
2.44755665335e-05
-0.000738767907023
8.39568529045e-05
-0.000337519828463
-0.00137387041468
-0.00180278799962
0.00119967223145
-0.00279694376513
-0.00157470768318
-0.00271862233058
-8.34829043015e-05
0.00164857599884
0.000338030484272
-0.000604326720349
-0.000284172943793
7.2843664384e-05
0.000599567021709
-0.000505633943249
-0.00179687095806
-0.00393644208089
0.00399925699458
0.000596105644945
-0.0022564609535
0.0016221672995
0.000158185197506
-0.000644061074127
-0.000373864488211
0.00054907304002
0.00019030731346
-0.00124288222287
0.00128405797295
0.000650520669296
-0.000983975478448
0.00427457178012
-0.000656221003737
0.00417370256037
-0.000890401599463
-0.00228663953021
0.000649903900921
-0.00124385778327
-0.000491379701998
-0.00186447042506
-0.000779271416832
0.00293182046153
0.00139187299646
-0.000636293378193
-0.00191099452786
0.000666717009153
0.00182517117355
-0.000329257803969
-0.00241765240207
-0.0012191333808
-0.000137046430609
-0.00135455501731
-0.000779165886343
-0.000871702097356
-0.000277419399936
0.00145901727956
0.00227567809634
-0.00303414626978
-0.00138356268872
-0.00165083480533
0.000906679721083
0.00090982549591
-0.00219612312503
-0.00100089807529
-0.00275286030956
-0.00251551484689
0.00129573408049
0.00167038163636
-0.00239874143153
-0.0013608369045
-0.000998390256427
0.00642450572923
0.00119778118096
-1.98074940272e-05
-9.37533513934e-06
0.0012364651775
-0.00140236539301
0.000550560245756
0.00141459261067
-0.00251748482697
-0.000778140674811
0.000587594753597
-0.000608140137047
-0.00159240828361
-0.00237461505458
-0.000831244746223
0.000445450161351
0.000911589595489
0.00248127011582
-0.000569414172787
-0.00140859093517
0.000468028476462
-0.000549310410861
-0.00309421285056
-0.00206788047217
-0.000957189884502
0.000779181602411
-0.00139201618731
-0.000856088183355
0.0026104694698
-0.00203378708102
-0.000313785858452
-0.000605628942139
0.00013292467338
0.00688531529158
0.000895308796316
-0.00113031989895
-0.00058193464065
-0.00078904494876
-0.00105646532029
-0.00247012171894
0.000650098547339
-0.00050357170403
-0.00118694338016
0.0010741109727
-0.000610659189988
0.00243439804763
0.000328486494254
0.00179838773329
-0.00109705398791
0.00329552241601
0.0020904338453
0.00189613120165
4.93642510264e-05
-0.00229314435273
-0.000439156079665
-0.0003087760997
0.00059947441332
-0.0041843210347
-0.000189783007954
0.00022591004381
-0.00128322455566
0.00236301147379
0.00223924452439
0.000734223460313
-0.00163832888938
-0.00206665717997
0.00111266272143
-0.00204166560434
-0.00192964810412
0.00306148570962
0.00290682422929
0.00166895042639
-0.000842931272928
-0.00192002591211
0.00202621286735
0.000586191948969
0.000810164958239
0.000170754690771
-0.000449245009804
-0.00385130220093
0.000375154835638
-0.000877224316355
-0.000736664573196
-0.00212522223592
0.00289862928912
0.000960869714618
0.000625970598776
-7.87287790445e-05
-0.00203771214001
0.000733650289476
9.04524204088e-05
-0.00302817812189
0.000190671475139
0.00195490079932
-0.0010174192721
0.00367438187823
-0.000187964353245
0.000186335397302
0.00405214447528
0.000964547798503
-0.000291579141049
-0.00193551217671
0.00112299621105
-0.00346994050778
-0.000918702571653
0.0011455824133
4.02740915888e-05
0.00125001429114
-0.000429594801972
-0.000618341146037
3.86607534892e-05
0.000884027744178
-0.0015951913083
-0.00127184344456
0.00134259520564
-0.00129257712979
-0.00535085890442
0.00196300866082
-0.000149231302203
0.00202637165785
-0.00110596453305
0.00296215619892
-0.000170929983142
-0.00123842840549
-0.00051748752594
0.000925178115722
-0.000387838110328
-0.000759231683332
-0.0010504029924
0.0037329653278
0.00517382007092
0.00211866642348
-0.00207752431743
-0.00158398284111
-0.000528883654624
-0.00130260759033
0.00298784859478
0.0020027293358
-0.0019934552256
0.000275408063317
-0.00178647355642
0.00126729137264
-0.000732702843379
0.00170467491262
0.00238505890593
-0.000619375379756
-0.000788809382357
0.00162941985764
-0.00157066248357
0.00195851642638
0.000568060902879
0.000563320587389
-0.00144308747258
-0.00145986385178
0.00105296261609
-0.000138082599733
-0.000727182254195
0.000487016252009
0.000691597757395
0.00054364441894
-7.71924096625e-05
-0.000949062989093
-0.000507207703777
-0.00170334463473
-0.00122794578783
-0.00111431826372
-0.00084543711273
-0.000510429614224
0.000376916927053
-0.000285214773612
-0.0013041747734
-0.00108899234328
0.000387209613109
0.00129956309684
-0.00200032931753
-0.000973990128841
-0.000891796371434
-0.00103802210651
-0.00149788754061
-0.0014096457744
-0.000559035281185
-0.000807566044386
0.000350277550751
0.000510108715389
0.000345833628671
0.00037787356996
-0.000503924849909
-0.000490261008963
-0.00207446329296
0.000773035048041
-0.00145930796862
-0.00195032067131
-0.000820749381091
-0.00145554170012
0.00160415330902
7.8768687672e-05
0.000304480694467
0.000272956443951
-1.55767138494e-05
-0.0014671914978
0.000194711930817
-0.00024544459302
-0.00204051868059
0.00185902987141
-2.77010021819e-05
-0.0014663481852
0.000462275173049
9.39092496992e-05
-0.00078105396824
0.000753486179747
0.0014207160566
0.00189818651415
-0.00126937928144
0.000971972476691
0.000578897364903
7.95676969574e-05
0.0010758577846
-0.00044750777306
0.00261385459453
-0.000733932072762
-0.000948059023358
0.00088462367421
0.000780030037276
7.88061806816e-05
-0.000841751694679
-9.50495013967e-05
0.00277940183878
0.00130937388167
0.000192860534298
-0.000950514746364
-0.000190142469364
0.00237818621099
0.000624375243206
-0.00107639376074
-0.000962070364039
0.000743514217902
-0.000317603960866
-0.000736344489269
0.000288444338366
-1.42777689689e-05
0.00259936158545
0.00143522245344
-0.000309163646307
-0.000347565102857
-0.00122732424643
1.13248925118e-05
-0.000423553399742
-0.00228565116413
0.000810033932794
-0.00129276164807
-0.0010414092103
0.00212296424434
0.00158466177527
-0.00118896621279
0.000321647676174
-0.000307330337819
0.00261888396926
0.00117655377835
3.06658075715e-05
0.00228548143059
0.00244933459908
-0.000806961732451
-0.000635823816992
0.00178466783836
-0.000858624931425
-0.000461911695311
0.000398298492655
0.000542224093806
-0.000912102113944
0.000311530486215
-0.000213888153667
0.000986408209428
0.000726447848137
0.000759609043598
-0.000400548509788
-0.0011093945941
-0.0006370084011
0.000240595560172
-0.00327549036592
-0.00169573025778
-0.000415234477259
0.000705836049747
-0.00080540496856
-0.00118849205319
0.00194635754451
-0.00133431283757
0.000974796130322
-0.00265461602248
4.62868192699e-05
0.00369269563816
0.00152937392704
-0.000718413386494
-0.00120767846238
0.000305278692394
-0.000305972469505
-0.00221598008648
-0.000773633772042
-0.000675916613545
0.0011549614137
-0.000260862841969
0.000584746594541
0.00210170471109
0.000343315216014
0.000444523640908
-0.000748706050217
0.00168428418692
0.00129811710212
0.00179484521504
0.000612716190517
-0.000962607446127
-0.000738636823371
-0.000227027980145
9.48024826357e-05
-0.00223205192015
0.000146231992403
0.000658668577671
-0.000565665541217
0.00120711349882
0.00088594830595
-0.00128779443912
-0.00145055586472
-0.000406003091484
0.00191564159468
-0.000655244919471
-0.00118402461521
0.00104913511313
0.000290373456664
0.00180777080823
-0.000334733806085
-0.00046703251428
0.00178416236304
2.60919714492e-05
0.00186142383609
1.62108699442e-05
-0.000857804494444
-0.0007301827427
0.000873885059264
-0.000798359455075
-0.000927434011828
-0.000970176828559
0.00204895413481
0.000304622924887
-0.000290444499115
0.000203247385798
-0.000742462114431
0.00157931586727
-0.00011691700638
-0.0013133327011
0.00159065448679
0.00172152428422
1.69301820279e-05
0.00313280452974
-0.000232563528698
0.000466866622446
0.00296690245159
-0.000516166037414
-0.000946199637838
-0.00104021048173
-6.38033816358e-05
-0.00122352142353
0.000635410717223
0.00137213501148
-0.000123805439216
0.00104406685568
-0.000655840849504
0.000289840478217
-0.00127009663265
4.85195268993e-05
-0.0027944536414
-0.000554248050321
0.00151132792234
7.05134225427e-05
-0.0025017275475
0.00148180685937
0.00117536273319
0.00150234973989
-0.00053532444872
0.00261431466788
0.000218956367462
-0.00124739762396
9.466442134e-05
-0.00127384928055
-3.78473414457e-05
-0.00229564448819
-0.00152343418449
0.00361306546256
0.00315251806751
0.00225680763833
-0.00130331516266
-0.000257008359767
0.000216977103264
-0.000106881059764
0.0038528861478
0.00221207621507
-0.00154323526658
0.000406846811529
-0.00103491160553
-0.000590202223975
-0.000758399255574
0.000419572344981
0.00240715057589
-0.00212711235508
-0.00132569146808
0.00177151930984
-0.00120843783952
0.0016900675837
0.000339802645613
0.000107148873212
-0.00158993015066
-0.000648054527119
0.0016497685574
5.44946269656e-05
-0.0002834906918
0.000632075185422
0.000518317101523
0.00194782821927
4.60267619928e-05
-0.0014114251826
-0.00112785946112
-0.00135580694769
-0.00110729900189
-0.000578831706662
-0.00059035414597
0.00038801287883
-0.000132870598463
-0.0027816935908
-0.000803481496405
-0.00111630419269
0.000204933458008
-0.000171588922967
-0.00215071556158
-0.000821390247438
-6.22279985691e-05
0.000344671541825
-0.00105827488005
-0.00149486446753
0.000314458855428
-0.00235051638447
-0.000723467557691
-0.00022581857047
-4.15271097154e-05
0.00106036616489
0.000142267308547
-7.28026061552e-05
-0.000727384758648
0.000115798240586
-0.00175053370185
-0.00206665392034
-0.000314992677886
-0.00207890709862
0.00145653588697
-0.00142903917003
8.03645743872e-05
0.000559812295251
-0.000294768775348
-0.00152591033839
-0.000146136051626
-0.00033788496512
0.000479533337057
0.00136783625931
-0.000240117980866
-0.00226339115761
0.000439239636762
-0.000982548343018
-0.000833810772747
0.000165087796631
0.00112209084909
0.00104487745557
-0.00238140043803
0.00101895607077
0.000420515716542
-0.000504621653818
-2.95343761536e-05
9.29898451432e-05
0.00196103076451
-0.00143460882828
-0.000949365552515
0.000732374202926
7.41615222069e-05
-0.000502324837726
-0.00159529445227
-0.000137327806442
0.00218411255628
0.000285165733658
-5.99644772592e-05
-0.00105816707946
0.000964958453551
0.00232342234813
0.000607564987149
-6.25832035439e-05
-0.00134251790587
0.000278865627479
6.3054045313e-05
-0.000488951103762
0.000714520574547
-0.00219550146721
0.00116676581092
0.00090924691176
-0.000597104371991
-0.000855527934618
-0.000210489495657
-8.40377397253e-05
-0.00246739108115
-0.00153708306607
-0.000906916742679
-0.000274443533272
-3.63734616258e-05
0.000705398619175
0.000288261682726
-0.00133104785345
-0.00154208100867
3.8132257032e-05
0.000259828957496
-0.000483567855554
0.000647751614451
0.00106125802267
0.000654060044326
-0.00117396120913
-0.0021752321627
0.00220698281191
0.000101793775684
-0.000906741130166
0.000530676625203
0.000623956904747
-0.001519870013
-2.77707367786e-05
-0.000916657969356
0.000254120590398
0.00119795324281
-0.000247858988587
0.001038369257
-0.00195595854893
-0.00137295969762
-0.000576355261728
-0.00175758847035
-0.000908198475372
-0.00038851928548
-0.000353847659426
-0.000641474325676
-0.000710133928806
0.00159115076531
-0.0013904463267
-0.000117640294775
-0.00147198780905
-0.00345274852589
0.00483086239547
0.00126780511346
-0.000731846434064
-0.00139136589132
8.82529493538e-05
-0.00148591410834
-0.0016359470319
-0.00118449691217
-0.000196784909349
0.00167295604479
0.000730860978365
0.00017720341566
0.00453632231802
-0.000847656512633
-0.000206046752282
-0.000489219441079
0.00118574209046
0.00106494862121
-0.000137996379635
-0.000199079469894
-0.00106710137334
-0.0019035928417
-0.00100556015968
-0.000277223443845
-0.000704252975993
0.000555546954274
-3.06021029246e-05
-2.09266327147e-05
0.00054105516756
0.000154689070769
-0.00198235129938
-0.000244481459958
-0.00119214702863
0.00165931077208
-0.00110137660522
-0.00050781131722
0.00135594850872
-0.00188781192992
0.00131493678782
0.000337660283549
-0.00138802896254
0.000989101710729
-7.12179826223e-05
0.00270431768149
-0.000136876420584
-0.000125219157781
1.78567643161e-05
-0.000313883763738
-0.00114509812556
-0.00156759144738
-0.000430650950875
0.000398285483243
-0.000258574931649
0.000464684009785
-0.000662567268591
-0.00122409348842
-0.00031283966382
-0.000514472776558
-0.00120755960234
0.000830502656754
0.00200678524561
3.97192816308e-05
0.00086774607189
0.000727038132027
-0.00332790450193
0.00056008528918
-0.0004823981144
-0.00394963799044
-0.00031282089185
-0.00266476883553
-0.000511436315719
0.000138090501423
0.000963756698184
7.36547235647e-06
0.000254070007941
-0.000565551046748
0.000532334554009
-0.000851347867865
-0.000606294197496
0.000261073029833
-0.000420883996412
0.000868403178174
-0.000875897414517
-0.000624776643235
0.00198743282817
0.00111117446795
0.00138879136648
-0.000339897727827
0.00224964623339
0.000989189022221
-0.00114802853204
0.000353736570105
-0.00312942196615
-5.11596117576e-05
-0.00271735037677
-0.000984757905826
0.004743357189
-0.00135923316702
0.00173913582694
-0.00104494963307
-0.000425933481893
0.000237337284489
0.000239874148974
0.00307866372168
0.00122490793001
0.00021299533546
0.000971517583821
-0.000412634777604
-0.000363082857803
-0.000841677305289
0.00111039110925
0.00144551403355
-0.00226611271501
-0.00131703389343
0.000734604254831
-0.000280033244053
0.00199505640194
0.000563639448956
-0.000419443211285
-0.000677342293784
-9.43532722886e-05
0.00196977891028
3.93660848204e-05
-0.00121221656445
8.87512142072e-05
0.000625824497547
0.00231078267097
0.00039341324009
-0.000696354953106
8.28222982818e-06
-0.000839250802528
-0.000128924802993
0.000476219371194
0.00062122248346
0.00104081688914
-0.000487034441903
-0.00213212217204
-0.000606183253694
0.00026548927417
0.000964820908848
-0.000363444269169
-0.00152740208432
-0.00080339377746
0.000363137194654
-0.000783820461947
-0.000273943413049
0.000594259123318
0.000468204874778
-0.00170276686549
-3.34201358783e-05
0.000256130704656
0.000733924272936
0.000813782971818
-6.43526291242e-05
0.000270842574537
-0.000533989397809
-3.78690106118e-06
0.000297060614685
-0.000676471623592
-0.000156680311193
-0.0023564142175
0.000560448679607
-0.000747008773033
0.000589489529375
0.000587289570831
0.000302029831801
-0.000899332808331
-0.00027339666849
0.000164208482602
-0.000200781374588
0.000826587434858
-0.000719301111531
-0.00147790159099
0.00139534613118
-0.0010412784759
3.62936953024e-05
0.00124051002786
0.00113005703315
0.00115220109001
-0.000875407946296
0.000845238741022
0.000729310268071
-5.72750323045e-05
-0.00284714763984
0.000397188443458
-0.000655558658764
-0.000184001110028
0.000218830115045
0.00185124599375
0.000810707686469
0.000642257975414
-0.000367121072486
0.000242786540184
0.00192218541633
-4.73956170026e-05
0.000887465314008
0.000659420213196
0.000317307916703
0.00212649046443
0.000212290033232
-0.000310428556986
2.64431273536e-05
-0.000151979460497
0.000808657205198
-0.000161088682944
0.000504690106027
-0.000186336954357
0.000818255241029
0.000739664072171
-7.7304844126e-07
0.000696722825523
0.000388346496038
0.000639944162685
-0.0025956586469
-0.000778655637987
0.000992291723378
-0.000354179210262
0.00024102156749
0.000874205608852
0.000156479523866
0.000573698780499
0.000283378787572
0.000631704111584
-0.00281292432919
-0.00120705214795
0.00196622381918
0.00105751550291
7.30125248083e-05
0.00055183051154
-0.00207682396285
0.00167859939393
-0.000186780045624
0.000412870431319
0.000348570523784
-0.00040529211401
8.77491766005e-06
0.000860373140313
-0.000361161539331
0.000946030952036
0.00180072290823
-0.00148717034608
0.00128870387562
-0.00119940727018
-0.00157995824702
0.000167048812727
-0.000741716183256
-0.000382909143809
0.000896110781468
0.000506971147843
0.000761532457545
0.000339840800734
0.000495829910506
-0.000652549031656
0.000289498886559
-0.00151440501213
-0.00184493267443
0.0057051400654
0.00088374625193
-0.000438127899542
-0.00183388136793
0.000996568938717
0.000379599485314
-0.000833066820633
-0.00046982918866
0.00069989199983
-8.46928232932e-05
0.000217171618715
9.93762951111e-05
0.00291535933502
-0.000541456567589
-0.000575820158701
0.00101735861972
0.000632478098851
0.000231576996157
-0.00042701739585
0.000266663031653
-5.02362963744e-05
-0.00171543308534
-0.000679532473441
-0.000247331015998
0.00099255843088
0.00129091239069
0.000952976348344
0.000993025256321
0.000483371666633
0.0010629236931
-0.00268784305081
-8.01267287898e-06
-0.000592693686485
0.00177848059684
-0.0010420253966
-0.000173710985109
0.000204027048312
-0.00247041019611
0.00136680412106
0.00105621293187
7.60448529036e-05
0.000784190662671
-0.000372798502212
0.00124083925039
-0.000108867803647
0.000636416312773
6.37081830064e-05
-0.000100003075204
5.69105213799e-05
5.72913486394e-05
5.25986506545e-05
-0.0013977458002
-0.00105404807255
-5.66149974475e-05
0.000653273542412
-0.000488208490424
0.00100811035372
0.00024766928982
0.000179147231393
0.00142120488454
0.00118717469741
0.000215212756302
-0.00103714724537
0.00128971436061
-0.00164152414072
-0.0004410938418
-9.53826965997e-05
-0.00154157390352
0.000649835623335
-0.00200810888782
9.35354764806e-05
0.00092503085034
0.00124704779591
0.000661797821522
-0.000508905155584
-0.000453983491752
0.000816239160486
-0.000529182958417
0.000486595614348
0.000672969035804
0.000337344710715
0.000635509495623
0.000549223506823
-0.000100829769508
0.0011357498588
0.000772939005401
0.000761322502512
0.00148215680383
0.00212935660966
0.000996611546725
-0.000993077643216
3.59311138709e-06
-0.00297700613737
0.000844372203574
-0.00158241775353
-0.000682099314872
0.00302245072089
-0.0013829737436
0.00128495402168
-2.97082533507e-05
0.00128903635778
0.00116559129674
0.001010135049
0.00246711890213
0.00123187189456
0.000897602643818
0.000450273248134
4.17374349126e-06
4.08970026911e-06
0.000295543053653
3.39719990734e-05
0.0014469755115
-0.0030890442431
-0.000439811381511
0.0012927086791
0.000481075578136
0.000775868014898
0.000339642196195
-0.00115537084639
5.221628453e-05
1.50839423441e-05
0.00191359431483
0.000628384877928
-0.00103744294029
6.23567102593e-05
0.000783841358498
0.00219370005652
0.000702588877175
-0.000562838686164
0.000360608217306
5.97314319748e-05
-0.000152291511768
-0.000910546863452
0.000504848023411
0.00030169589445
0.000482876988826
-0.000554236583412
-0.000354984309524
0.000465925782919
0.0012583071366
0.000789138372056
-0.0014598199632
-0.000358317629434
8.94235126907e-05
0.00056426768424
-0.00048903899733
-8.77781494637e-05
-0.00120324094314
-0.00202015810646
0.00042384347762
0.00118519749958
0.00095892616082
0.00129562371876
-0.0014509044122
1.76214471139e-05
-0.000256590545177
0.0012811262859
0.000415174261434
0.000282938301098
-0.000433652923675
-0.00284421863034
0.00035882127122
-0.000709019426722
0.000819609093014
0.000341885373928
0.000688593601808
-0.0017681249883
-0.000125236270833
0.000783919007517
-0.00024592698901
0.000191545521375
0.000236735766521
-0.00174353516195
0.000675832561683
-0.000760705268476
0.000837811501697
0.00110777211376
0.000652259332128
6.69560686219e-05
-0.000566988659557
0.00086789985653
0.00110549712554
-0.00134931842331
-0.00383679079823
0.000690770859364
-0.000530057761353
0.000464463140815
-0.000787775614299
0.000399940006901
0.000540721870493
0.0011835739715
0.000579287181608
0.000651011709124
0.00171763217077
-0.000413325120462
0.000850948737934
4.28261082561e-05
0.000724645506125
0.00120007572696
0.000253641192103
0.000796479173005
0.000568490591832
2.8932990972e-06
0.0015056313714
0.000358471792424
0.00067639653571
-0.000139328942169
0.000866187619977
0.00068323337473
0.000526517804246
-0.000846366863698
-0.000211064645555
8.56388433021e-05
-0.0025198822841
-0.000926548091229
0.000786813325249
0.000200968977879
0.000230962672504
0.0016451816773
0.000786792486906
-1.65333392488e-06
-0.000447685422841
0.00108102767263
-0.00403987709433
-0.0018424334703
0.00124488107394
0.00146619521547
-0.000335415184963
0.00107956840657
-0.0015354208881
0.00137180590536
-0.00049944082275
0.000807401142083
0.00100901396945
-0.000151612373884
0.000484362477437
0.000716784503311
0.000201796094188
0.000627487490419
0.000907760404516
-0.000759094837122
0.000184728909517
4.05510654673e-05
-0.00125540466979
0.000309198105242
0.000513732840773
0.000139487703564
0.00170040491503
0.00148179382086
0.00168664811645
-0.000365836807759
0.000246727722697
-0.00021640851628
0.000934945710469
-0.0016689383192
-0.00102149078157
0.00389715097845
0.000791774597019
-0.000290825410048
-0.00156674848404
0.000671473098919
0.000104384300357
0.000567222887184
-0.00102672551293
-2.93326520477e-05
-0.000677625415847
0.00104898575228
0.00135608401615
0.00236808951013
-0.000572368095163
-0.00128536566626
-7.41880421629e-06
0.000604774861131
0.00112411763985
-0.000528431963176
0.000635476608295
0.000458423455711
-0.00200601154938
-0.00106046826113
0.000287303380901
-7.62888303143e-05
0.00192475528456
0.000440138072008
0.00180801004171
-0.000740547548048
0.000809200340882
-0.00240781414323
-0.000363522529369
7.74806831032e-05
0.000912578077987
-0.000556510465685
0.000395865703467
0.000397707044613
-0.00164137757383
0.00158515363
0.000977715826593
-0.000170732688275
0.000560836866498
-0.00055246532429
0.00103098934051
0.0011012670584
