0.00805955566466
-0.00184111762792
-0.0055911517702
-0.00887355487794
-0.00533190416172
0.00726428953931
-0.00523385731503
-0.00804920308292
0.00928255543113
-0.0057001337409
0.00526264822111
-0.00234248605557
0.00570771703497
0.0100963404402
-0.0054358355701
0.00343308341689
-0.0052651069127
-0.00368587905541
-0.00647428957745
0.00859502609819
0.00645294971764
0.000881071493495
0.00701663130894
-0.00835678819567
-0.00191489770077
0.00390406185761
0.00713260937482
0.00217659096234
0.00480932043865
-0.000888764741831
-0.00251391041093
-0.00685322517529
0.00915622338653
0.00226599839516
0.000127130260807
0.000102489495475
-0.00383412046358
-0.00548446783796
-0.0045105102472
-0.000409206055338
0.000539222732186
-7.6851407357e-05
-0.0053768614307
0.00255601131357
0.00320128304884
-0.00162286509294
0.000465863879072
-0.00605078740045
0.000390263157897
-0.00200767209753
0.00485965237021
-0.00494627514854
0.000774634769186
0.00832272041589
0.00757118500769
0.00401626294479
-0.00267942924984
-0.000667113519739
-0.00103777297772
0.00435365503654
0.00260715745389
-0.00153112062253
-0.00468469457701
0.00867720227689
-0.00380080542527
-0.00126573198941
0.00420701596886
-0.00689454749227
-0.00570856593549
0.00241237552837
0.00834385864437
-0.00470750359818
0.00118608807679
-0.000899699167348
0.00198242184706
0.00134561397135
0.0118776047602
-0.00146126491018
-0.00915267132223
-2.39292021433e-05
-0.00338498689234
0.00165135413408
0.00141727633309
0.00510179018602
0.00673317397013
-0.00860252697021
0.00416010944173
-0.000856189115439
0.00290038855746
-0.00355492020026
-0.00696236686781
-0.00281160324812
0.00388761842623
-0.0050780409947
0.00526194274426
-0.00904230866581
0.00576130347326
0.00067234353628
0.00758121255785
0.00315778725781
0.000778909714427
0.000669095548801
0.00859421584755
-0.00160090706777
0.00441382685676
0.00140005035792
-0.00319163082168
0.00543520785868
-0.00417358381674
0.000729569175746
0.00388469267637
-0.00574137130752
-0.00314480089583
0.0019227800658
0.00435152463615
-0.00704031763598
-0.00673168059438
0.00651498651132
0.0101898647845
0.00404929602519
-0.00170449865982
-0.00111326924525
-0.00454709352925
0.00557627528906
0.00130287220236
0.0021887938492
-0.00178116175812
-0.00409373827279
0.00490573327988
-0.00809550937265
0.00811350531876
0.00306521938182
0.00569576211274
-0.00225569750182
0.00632397038862
0.00642139557749
0.00218198914081
0.0011632196838
-0.00244795740582
-0.00151447393
0.003552720882
-0.00782107654959
0.00965586304665
0.00189768907148
-0.00230024568737
-0.00279946881346
0.00580377457663
-0.000767865683883
-0.00214710249566
-0.00427649077028
0.0112865930423
0.00254956888966
0.00537997577339
-0.0131788598374
-0.00354990176857
-0.00133916805498
0.0111753093079
0.00846913456917
0.000574574514758
-0.00440945709124
0.00101402471773
0.00283248233609
-0.00923054479063
-0.000602499290835
0.00335017568432
-0.00196384335868
0.00544940680265
0.00198993040249
-0.00961550604552
-0.00161368073896
0.000344729429344
-0.0041242823936
0.00945437885821
-0.00860217120498
0.00186397298239
0.00245609134436
0.00331099936739
0.00203596963547
0.000621669925749
-0.00104538002051
-0.00236670742743
-0.00971204880625
0.00661058165133
0.000380994839361
-0.0115925231948
0.00535076064989
-0.0035946010612
-0.00127096660435
-0.00507696392015
0.00320232380182
0.00136445777025
-0.00404766434804
0.00344752031378
0.0116989444941
-0.00350288534537
0.00235317717306
0.00727517995983
-0.00113858305849
0.00108042743523
0.00445321016014
-0.00237087230198
-0.0023299572058
-0.0057403803803
0.00496103428304
-0.0019725067541
-0.00180831050966
8.21774738142e-05
0.000403978076065
0.00622933916748
0.000992547022179
-0.00214299932122
-0.00142455322202
-0.0020880238153
0.0019427256193
0.000433842011262
0.00379003793932
0.00442536966875
0.0054461536929
-0.00142385996878
0.00262411846779
-0.00294262962416
0.00262945564464
0.0067160143517
0.00781815219671
0.000721707066987
-0.00196273974143
0.00364951067604
0.00216759182513
0.00227486668155
0.000956744421273
0.00191744416952
-0.00625913823023
-0.00107997341547
-0.00105098634958
0.00109633500688
-0.00305322068743
-0.00610306859016
-0.0085262786597
0.00112107221503
-0.00437487848103
0.0011822024826
-0.00764170056209
0.00738224387169
-0.000625231768936
-5.52624624106e-05
0.00616660388187
-0.00551060028374
0.00682343589142
-0.00159385439474
-0.00147597061004
0.000506936048623
0.00667891930789
0.00668331608176
-0.00250087538734
-0.0042504449375
-0.00855712592602
0.00390569027513
-0.00355227757245
-0.00188410410192
-0.0100988540798
-0.009775551036
-0.00257542612962
-0.00627196347341
-0.00278500420973
-0.00960043631494
-0.00339161977172
0.0012217501644
-0.00131767673884
0.00312310410663
-4.64761833427e-05
-0.00260050757788
-0.00654064491391
0.00195527961478
-0.00754341296852
-0.00382007961161
-0.00461694225669
-0.00218651257455
-0.000361986458302
-0.00334192649461
0.00185326870997
8.85298431967e-05
-0.00130654359236
-0.00138856924605
-0.00174609082751
-0.00920235365629
0.00566625036299
-0.00356664927676
-0.00393704650924
-0.000575891055632
-0.00520608294755
0.00329896691255
-0.00744690280408
-0.00427864352241
-0.0104947304353
-0.000842163572088
1.81522900675e-05
0.00533150043339
0.00218024523929
-0.00527471723035
0.00138185382821
-0.00312901870348
-0.00240590795875
-0.00134734145831
-0.00256403302774
0.00372165325098
0.00263763056137
0.00208742078394
0.00903332140297
0.00739412195981
0.00481512630358
0.00308489054441
0.00447482336313
-0.00368446717039
0.00889643933624
0.00154005608056
0.0117667475715
-0.00954419095069
-0.00602925568819
0.00395834632218
0.00176170677878
0.00632736366242
-0.00137381476816
-0.0113905388862
0.000954338989686
-0.000916312681511
0.00514110876247
0.00720169907436
0.000532229081728
0.000634960306343
-0.00190985237714
0.00186828896403
0.00549849541858
-0.00774448923767
0.00565964123234
-0.00745603209361
0.00249908980913
-0.0109332418069
-0.00624809367582
-0.00346358725801
-0.00923740584403
0.00540676014498
-0.0033891662024
-0.00307630375028
0.00712825078517
-0.00126825761981
-0.00250650313683
-0.000636881683022
0.00385998073034
9.03004402062e-05
-0.0169827733189
0.00272183259949
-0.0105831176043
0.00167462346144
0.00355646153912
-0.00480381725356
0.000240378503804
0.00190018641297
0.004093864467
0.00443443842232
0.00103923096322
0.00475655123591
-0.000139243755257
-0.000978194759227
0.00311310915276
-0.00981497671455
-0.000966149789747
-0.0114134382457
-0.00895298365504
-0.00413876725361
0.00495352363214
-0.00715611642227
-0.00678600883111
-0.00178076140583
0.000934166600928
0.00310101499781
-0.0041089085862
0.00268830824643
0.00429686484858
-0.00181515479926
-0.00738779781386
-0.00797517970204
-0.00856057461351
-0.00137893494684
-0.00881878007203
-0.00100016151555
0.00100550835487
0.000218059911276
-0.00747670326382
0.00206762575544
0.00544565171003
0.00790004897863
0.00245674210601
-0.000611329334788
-0.00136674684472
-0.00070989964297
-0.00353740667924
-0.00271459505893
0.00112486991566
0.00216232310049
-0.00682351365685
0.011437873356
0.0105664227158
0.00645692413673
-0.00112518435344
-0.00815006624907
0.000276538252365
-0.00104094448034
0.0140917068347
0.00888626184314
-0.000648373563308
0.000794680556282
0.000603928870987
0.00225792778656
0.000154644760187
0.00727077201009
0.0017100200057
-0.00711958529428
-0.00365428184159
0.00552412075922
0.0029134391807
-0.000305168156046
0.00411734776571
-0.00458946730942
-0.00147831102367
0.00222715688869
-0.00414069183171
-0.000131302658701
0.0016687043244
0.00431552529335
0.000870473275427
-0.00184979417827
0.00267511815764
0.0102673051879
-0.00607510004193
-0.00029201086727
0.00659888749942
0.000218090019189
0.0033158545848
0.00432319194078
0.00277996296063
-7.82755232649e-05
0.00121142168064
-0.00116555870045
0.00636062584817
0.00132442300674
0.007399587892
-0.00080030458048
0.000270359800197
-0.00200206786394
0.00416553206742
0.00482005253434
0.00479841418564
-0.00568682234734
0.00844196788967
0.0030045309104
0.000816716230474
0.00821954477578
0.00324603659101
0.000366659776773
-0.00306036625989
-0.0142105137929
0.000614736869466
0.00253614131361
-0.00694320490584
0.00327740842476
0.00269486918114
-0.00414507044479
-0.00700235459954
-1.72625950654e-05
-0.00285467295907
0.00757213123143
0.00795519445091
0.000617731246166
-0.00590217765421
0.00116173678543
-0.00123089645058
0.00560364779085
0.00378427281976
-0.00504331663251
-0.00164485746063
-0.00336415506899
0.000682030746248
0.000518713204656
0.00689452281222
-0.00232204422355
-0.0068165617995
0.000809254241176
-0.00758729502559
0.00144429237116
0.00159430853091
0.00771753536537
0.0092932311818
0.00529212318361
0.00573916453868
0.0022032649722
0.00623331544921
0.000806596654002
0.00128540070727
-0.010479612276
-0.0043236897327
-0.0108519839123
-0.00148080545478
0.000423801713623
-0.00674006529152
0.00355082377791
-0.00486071500927
-0.0060688960366
-0.00730030471459
0.000864639412612
-0.00348021183163
1.12519564937e-05
-0.00533327786252
0.000585077854339
-0.00136932975147
0.0103087686002
0.00116271374281
0.00579934567213
0.00104723288678
0.00484320893884
0.00797908008099
-0.00472250534222
0.00351644516923
-0.00529522774741
-0.00112841988448
-0.00497841835022
-0.000705815677065
0.00962526723742
-0.00444376980886
0.00556267425418
0.0028466086369
-0.00226097344421
-0.000563806795981
0.00883212313056
-0.0026758259628
0.00350524135865
-0.00418083602563
0.00765717588365
0.00270729511976
0.00147911789827
-0.00153113505803
0.00207307492383
0.00870423484594
-0.00585949467495
0.00146230892278
0.00671847164631
0.00629273289815
-0.00379168544896
0.000636778248008
0.0050860051997
-0.00846175756305
-0.00235915114172
-0.00774329574779
-0.00467892130837
-0.00180556578562
0.0068217581138
-0.00519584584981
-0.00931647326797
0.000462291005533
-0.00425136275589
0.00658605666831
-0.000225708528887
0.00206214771606
-0.00383644527756
-0.00566983968019
0.00183445983566
0.00323164579459
0.0030661157798
-0.00682328501716
-0.00468089338392
-7.4908042734e-05
-0.00420760409907
-0.0036195255816
0.000935589370783
-0.0051560588181
-0.001040692674
-0.00744895590469
0.00410987669602
0.00310942018405
-0.000340762577252
0.00361567549407
0.00980624184012
-0.000447033758974
0.00590077461675
-0.00654202420264
0.00396388722584
0.00214027799666
-0.00128591002431
0.0129457889125
-0.00238305306993
0.00443380512297
0.00784597359598
0.00159445486497
0.00107030943036
0.00267286528833
-0.00764014106244
-0.0110103785992
-0.000247357587796
0.00632908567786
0.0050996937789
-0.00498030474409
-0.00258794077672
0.00382384285331
0.00578475510702
-0.000372311304091
0.00206229183823
0.00717452308163
-0.00110921240412
0.00549214798957
0.00523857073858
0.00545259844512
-0.00922432914376
-0.00291629810818
-0.00430046394467
0.00136491737794
-0.00177977490239
0.00021996020223
0.00058411405189
0.00473956111819
-0.00821001082659
0.00278702820651
-0.00756361987442
-0.00579066993669
0.00123793585226
0.00168978492729
0.00157235236838
0.00309648830444
-0.00806847959757
0.0033584497869
-0.00314237875864
-0.00361276348121
-0.00233182474039
-0.00343259284273
-0.000782526563853
-0.00531310029328
-0.00448925979435
0.010436241515
0.00243054842576
0.00424197083339
-0.000640862330329
0.0050335121341
0.00508719822392
0.00209681503475
0.000935637566727
-0.00744533445686
-0.00397931598127
0.00887468270957
-0.00785448029637
0.00445942999795
-0.00422463426366
0.00523620797321
-0.000213732841075
0.00844899006188
-0.00400200905278
-0.00695289857686
0.00457269186154
-0.00337395444512
0.00329480459914
-0.00672950409353
-0.00547212036327
-0.00298065785319
-0.00473440531641
-0.00432637147605
0.000925523461774
0.00691678142175
-0.00365220033564
0.00320897949859
0.00282486551441
-0.00788863003254
-0.00391105748713
-0.00566737772897
-0.00611138064414
0.00600491464138
0.00825028959662
-0.00321877212264
0.000569988857023
0.00336325378157
-0.00488164834678
-0.00412855902687
-0.000364024454029
-0.00736097013578
-0.00437853485346
-0.00702585559338
0.00748131144792
-0.00362547091208
-2.34136969084e-05
0.00885117892176
0.00692002475262
0.00366096687503
0.00307427113876
0.00290325959213
-0.00399372447282
0.0016556493938
-0.00841094367206
0.00235655205324
-0.00309583568014
-0.00484119309112
-0.00289937970228
-0.00144040002488
-0.00763428909704
-0.00354421674274
0.00552957784384
-0.00100008735899
-0.00112565711606
0.00152335478924
-0.00314218341373
0.00259518134408
0.00246508535929
-0.00510232662782
0.00228875409812
0.0039920010604
6.78807327859e-06
0.00414223363623
0.00829098187387
0.00641677016392
0.002338682767
0.00362033117563
-0.000775640946813
0.00155088072643
-0.00383412232623
0.010080114007
-0.00673574674875
0.00211755884811
0.00114082871005
0.0017166857142
0.00353909935802
-0.0018257277552
-0.0101761780679
-0.00439062714577
-0.000364776933566
-0.00106505921576
-0.000931696384214
0.0093354023993
-0.00423249229789
-0.00117406947538
0.00251666456461
-0.00137667730451
-0.000210748461541
-0.0134938592091
-0.00134229881223
0.00899757631123
0.00309207825921
0.00154855789151
-0.00510531710461
0.000513213337399
0.00700233224779
0.00165317277424
-0.00665502622724
-0.00116105028428
0.00334260286763
-0.00958428159356
-0.00139749795198
0.000675756309647
-0.0017722400371
-0.00607435591519
0.000139431838761
-0.00115350459237
0.00391922937706
0.000957379641477
-0.00382446777076
-0.0028033494018
0.0100302891806
-0.00550970016047
0.00560868764296
8.21448265924e-05
-0.00542419916019
-0.00206178752705
-8.22800866445e-05
0.00035190518247
0.000753767264541
0.00103708531242
-0.00519399018958
-0.00280132866465
0.000451591942692
-0.00196541380137
-0.000738060218282
-0.0014780376805
-0.00405937759206
0.0027039507404
0.00550596509129
-0.00773502886295
-0.00156993756536
-0.00406236900017
-0.00537999160588
0.00664431974292
-0.00789306312799
0.00502263149247
-0.0148477656767
0.00249017984606
-0.00243759620935
0.00720116728917
-0.00365308020264
0.00364775210619
0.00462853163481
-0.00713979499415
0.00769807212055
-0.00464405072853
0.00254796911031
-0.00185012328438
-0.0047087050043
-0.00840034894645
0.00515899481252
0.000554983736947
0.00841174181551
-0.00293726637028
-0.00110607931856
-0.00393472006544
0.0040606316179
-0.00433895876631
-0.00633362494409
0.00972847361118
-0.0024564738851
0.00835133437067
0.00643233489245
-0.00177717639599
-0.00450444035232
-0.00251317885704
-0.00159780250397
0.00375300412998
0.00373947806656
0.000760956027079
0.00210590288043
0.00746920285746
0.000830237928312
-0.00493090413511
-0.00605966150761
-0.00975156854838
-0.0061240750365
-0.00309333926998
-0.000560626445804
-0.00775773776695
0.00211847084574
-0.00352967577055
-0.00624387338758
-0.00459687132388
0.000690829183441
-0.00381890172139
-0.00907738227397
-0.00524457590654
0.00503401551396
0.00291364709847
-0.00292750750668
0.00559705635533
-0.00435706088319
0.00646211113781
-0.0102568892762
0.000165446967003
0.0106060057878
-0.00406244210899
0.000774526270106
-0.000560032145586
-0.00317997904494
-0.00122876826208
0.0067925225012
-0.00247178482823
-0.00167433160823
-0.00259517552331
-0.00190776248928
-0.00403607217595
0.00107620155904
-0.00207829545252
0.00860294979066
-0.000339290680131
-0.00383006525226
0.00580543605611
0.00747119495645
-0.00259855343029
-0.00511797564104
-0.00201140972786
0.00247344886884
0.00206996803172
0.0047416226007
-0.000940079044085
0.0026271387469
0.00190359319095
0.000365756946849
0.00229996745475
0.00965280551463
-0.00455985404551
0.0020410856232
-0.0129125993699
0.00324474833906
-0.0102002844214
0.00416494626552
-0.00179114891216
0.00140567065682
0.002395974705
0.0061981533654
0.00499214697629
-0.0039658145979
-0.0029736161232
0.010202659294
0.00307425484061
0.00182877795305
-0.00217824033462
0.00336841633543
0.00327180628665
-0.00480267079547
0.00552163086832
-0.00453240005299
0.0043260413222
-0.00618834421039
0.00852337200195
-0.00819038040936
0.00110967410728
0.00200417288579
0.00350616802461
-0.0043392428197
0.0045298198238
-2.79029081867e-05
0.00385375134647
0.00469448231161
-0.00468050455675
-0.00116199650802
-0.00132252986077
-0.00306476163678
-0.0087506165728
-0.00383704225533
0.00320604769513
-0.00146153208334
0.000860748812556
-0.00233126292005
0.00390484323725
-0.00188321084715
-0.00149915309157
0.000131261578645
-0.00691838888451
-0.000137581460876
-0.00411596475169
0.00278254644945
0.0173514895141
-0.00855974946171
-0.00061802926939
-0.000550579279661
-0.00494556082413
-0.0106463506818
0.00372218131088
0.00508167780936
0.00629837671295
0.00517140841112
-0.00465012760833
0.0082891639322
-0.000897612131666
0.00372672639787
-0.0102968225256
0.00163007364608
-0.00364619144239
-0.00373977795243
-0.00523277698085
-0.00222303066403
-0.00171739549842
0.00289298268035
0.00690628774464
-0.00938163790852
0.00244808127172
0.0039649871178
-0.00594046944752
-0.000878560473211
0.00969818327576
0.00599059415981
0.0052380063571
0.00323326932266
-0.00193297234364
0.00241609988734
0.00761639326811
-0.00506383785978
-0.00276323920116
-0.000319813902024
-0.00266971159726
-0.0053334934637
-0.00382968457416
8.8891829364e-05
-0.00613536592573
-0.000903344713151
0.0054343235679
-0.00201439345255
0.0018399466062
-0.000996101065539
-0.00612094160169
-0.0101169468835
0.00796297192574
0.00105476076715
0.00125318276696
0.011816361919
-0.000127962659462
-0.000165870500496
-0.0101769324392
2.97117912851e-05
0.00175804982428
-0.00402359385043
0.00243984442204
0.00583364441991
0.0108510069549
-0.00220495276153
-0.00316836335696
0.00382038974203
0.00484274234623
0.00478981109336
-0.00736630987376
0.00113467953634
0.00451696803793
-0.00258144992404
0.0079256426543
0.0045457854867
0.00330207776278
0.00326502043754
0.00282760011032
0.00639385031536
-0.000574404082727
0.000428777886555
-0.00313833355904
-0.00447551812977
0.00766045181081
0.00485503068194
0.000820217072032
0.000845684320666
0.000574234407395
-0.0120218871161
0.00408124784008
0.0042192786932
0.00263441517018
-0.0108391158283
0.000115702910989
-0.00141865178011
0.00371089414693
-0.00195287913084
-0.00516320392489
0.00255312211812
-0.00454293843359
0.00471811834723
0.00623942678794
0.00369597109966
-0.0030608358793
-0.00555007252842
0.0041873161681
0.00172227656003
0.00526342866942
-0.00350199150853
0.00011693930719
0.00799883436412
1.79423695954e-05
0.000937643460929
-0.0090863360092
-0.000484069780214
-0.00150712835602
0.00085425080033
-0.00172931258567
0.00410997495055
0.00385911297053
-0.00232421490364
-0.000824090966489
0.00775666953996
0.00229734089226
-0.000753710221034
0.00638631172478
0.00172837986611
0.00377243710682
0.00341603974812
0.00594459427521
0.00559030473232
0.0054919635877
-0.00326269445941
-0.0112329898402
0.000872296397574
0.0041238842532
-0.0081993881613
-0.0055250171572
0.00114432140253
0.00326090632007
0.00505652790889
0.0010559145594
-0.00350913195871
0.00652657356113
-0.00148128136061
0.00867683626711
0.00205276161432
-0.000502710288856
-0.00245415861718
0.000112410067231
-0.000682760146447
0.00994395557791
0.00649931933731
-0.00374886905774
-0.00291319517419
-0.00293829082511
0.00141666142736
0.000621464976575
-0.00182620040141
0.00228539481759
0.00302549288608
0.00553161278367
-3.844981984e-05
-0.00298741599545
6.54083269183e-05
0.000278301013168
0.00279820058495
-0.0030722792726
0.00855748541653
0.00514759495854
-0.00823304709047
0.000803885282949
0.00487662432715
-0.00509719317779
-0.000951154797804
0.00603233650327
0.00271307257935
-0.00411470141262
0.00225232192315
-0.00159069756046
0.00246166111901
0.00461635831743
-0.00338863837533
-0.000875823723618
0.00384991522878
0.00136954628397
0.0088081387803
0.0157336127013
0.00518186157569
0.00917416717857
0.00359416287392
-0.00136037555058
0.00201496505179
0.00824330188334
0.00634081382304
0.00715542118996
-0.00046402530279
-0.00189964228775
0.00235523609444
-0.000822977453936
-0.00368449417874
-0.0003039711155
-0.00263036880642
-0.00992976780981
0.00664113927633
0.00399471912533
0.000424594356446
0.000444897392299
0.00209150766023
0.00687102973461
0.00212558917701
-0.00470154033974
0.00254873093218
-0.00987586379051
-0.00388534413651
-0.00130544020794
0.00140477647074
-0.00140834832564
-0.00554901594296
-0.0106612900272
0.00122104317416
-0.00239005847834
0.00642255786806
0.0038720543962
-0.00260817352682
-0.00220169615932
-0.000211718317587
-0.00292270816863
-0.00242763687856
-0.00433049956337
0.00431097019464
-0.00965546164662
-0.000314248260111
0.0134241534397
0.00310350535437
-0.00641538295895
0.00522536830977
0.00763937830925
-0.00663757883012
-0.00508852582425
-0.00261689489707
0.00832054391503
-0.0012109586969
-0.00103791896254
0.00186296261381
-0.00367613136768
-0.00198722793721
0.0179107319564
0.0138400439173
-0.00669492129236
-0.00311112799682
0.0012179100886
-0.00212500547059
-0.00543813873082
-0.00201051100157
-0.00706865498796
0.00226461328566
0.00933866947889
-0.00442919461057
-0.00982956308872
-0.00184819102287
0.00324096274562
-0.00179164879955
0.000776582048275
-0.00932378042489
-0.00272225844674
0.000217393229832
-0.00613940507174
0.0041609168984
0.000434931804193
0.00464230496436
-0.00403259322047
0.00487031368539
-0.00168099498842
0.00381801323965
0.00118598493282
-0.00250788824633
-0.00689600501209
-0.00180867942981
0.00353431608528
0.00266936025582
0.00267992122099
-0.00122382736299
0.00151492643636
0.00348417717032
-0.00341608724557
-0.00575040932745
0.00515559175983
0.00161716190632
-0.00335889519192
0.00489587523043
0.00782491546124
0.00311910547316
0.00486512156203
0.00255662226118
0.00606721639633
0.000173485983396
-0.0031920762267
0.00661789951846
-0.00209360592999
0.00323695852421
-0.000480342656374
-0.00307056587189
0.00131291907746
-0.00252567790449
0.0028542613145
-0.00170133658685
0.00283009838313
7.65283839428e-05
0.0057572782971
0.00823515839875
-0.00423303479329
-0.00450877007097
-0.0038356250152
0.00819877255708
0.00401309737936
0.000772729632445
-0.00164980080444
-0.00180038204417
0.00351783726364
0.000130080166855
-0.00504992995411
0.00399571238086
0.000570453994442
0.00600760150701
0.0071566645056
-0.00296132732183
-0.00151594879571
0.00286964164115
0.0058435080573
-0.0103195533156
0.00599105283618
-0.0103125516325
-0.00118113995995
0.00106585514732
-0.00102026539389
0.00312176765874
0.00310476520099
-0.00948573928326
0.00454544834793
-0.00186181103345
0.00552183017135
-0.000755668617785
0.0106340060011
-0.00132387958001
0.00268794968724
8.95438934094e-05
-0.00222809519619
5.39144930372e-05
-0.0042179170996
-0.00488429982215
-0.00752165587619
-0.00556091405451
0.00478920480236
-0.00235643004999
-0.00909461546689
0.00159741204698
-0.0036780256778
-0.00279483152553
-0.00402236683294
-0.0029895089101
-0.00980727188289
0.00554106710479
0.00267757917754
0.00170016486663
0.00578071828932
0.00497925980017
0.000357710436219
-0.000885040441062
-0.00559632759541
-0.000155654590344
-0.00540049141273
-0.000353703071596
-0.000789237266872
-0.0055195693858
-0.00910471845418
0.00511237652972
-0.000187877536518
-0.0028442312032
-0.000473045161925
-0.00549465417862
-0.00210791872814
0.00070600095205
-0.00784446764737
-0.000541777408216
-0.00347159779631
-0.00654075713828
0.00954772811383
0.00107044563629
0.000152123029693
0.00105671829078
-0.00307105388492
0.00719078211114
0.00230465456843
0.00172720116097
-0.000839334388729
-0.00290198228322
0.00612128060311
-0.00282283988781
-0.000110063061584
-7.49444225221e-05
0.00622674869373
0.00600762665272
0.00693068653345
0.00341052771546
0.00463302293792
0.00228086044081
0.00255394284613
-0.00021832366474
-0.000899920647498
0.0044675450772
-0.0069559677504
-0.000118779171316
0.0054759150371
-0.00537674687803
-0.00151261198334
-0.00185753707774
0.00535052921623
0.000550653785467
-0.00383684784174
0.00300115277059
-0.00621898844838
-0.00695515237749
0.000465506571345
-0.000294770958135
0.00404541520402
0.00978976394981
0.000600486819167
0.00396618619561
0.00115778914187
-0.0018604270881
0.0043334546499
0.00305044627748
0.00248186872341
-0.00503576453775
-0.00671793613583
0.00390139664523
0.00458066817373
0.00933636818081
0.00683461176232
0.00104713381734
-0.002426863648
-0.00245501752943
0.0121214780957
-0.00143214862328
0.000434297864558
0.00694212457165
0.00780645478517
-0.00533229205757
0.00111028971151
0.00205440772697
-0.00120239669923
0.00462628155947
-0.00125052395742
-0.0018043583259
0.00702862394974
-0.00228305021301
0.000687269493937
0.00150135322474
0.0100854504853
-0.00896088872105
0.00745594035834
0.00465647270903
0.00581114692613
0.00369251868688
-0.000688813568559
0.00113154726569
-0.00311837648042
0.00654276600108
0.00674269115552
-0.00857733562589
-0.00112107815221
-0.0035246682819
0.00224970956333
-0.00664015067741
0.00657621677965
-0.00330877886154
0.00795745849609
-0.00046129320981
0.00302663701586
-0.0016450836556
0.00245335651562
0.00490860454738
-0.00160042673815
0.0076614706777
-0.00464093871415
-0.00546918390319
0.000127649167553
0.000498616835102
-0.00394699303433
-0.00190927938092
0.0059121591039
0.00766538502648
-0.00441161403432
0.00549530098215
-0.00238018110394
-0.00547916255891
-0.00124530040193
0.00174258660991
-0.00249854917638
0.00189769978169
0.0018521057209
0.0115084312856
-0.00272056204267
-0.00390581227839
-0.00634453399107
-0.00232387403958
0.0102249709889
-0.00201188982464
0.00124492170289
-0.000443610275397
-0.00424293102697
0.000687822466716
-0.00120641489048
-0.00715156784281
-0.0103118643165
-0.000252036610618
-0.00504404818639
-0.0023019448854
0.00611378625035
-0.000822948059067
0.00406418927014
0.0102709159255
0.000176708053914
-0.00596883380786
0.00381537224166
-0.00732563016936
-0.011096810922
0.00546693243086
-0.00586539227515
0.00686255469918
-0.00533412210643
0.00502050621435
-0.00143326504622
0.00518833426759
0.0067389048636
-0.000692409055773
-4.73769032396e-05
-0.00272669154219
0.000794199120719
0.00304130604491
0.00487226620317
0.0066307419911
0.00135179189965
0.0118362028152
0.00198022904806
-0.00149122683797
0.00068686978193
-0.00192732154392
0.0010795694543
-0.00553883844987
-0.00348318810575
-0.0049468241632
-0.000774782907683
-0.00668870657682
-0.00545507669449
-0.00282964319922
0.000167224367033
-0.00214308896102
-0.00110756838694
-0.00202290969901
0.00155712175183
-0.00276848487556
-0.0017015641788
0.00304813729599
-0.000564977992326
0.0011061525438
-0.00571486074477
0.00215333211236
-0.00484722899273
-0.00826037861407
0.000155061090481
-0.00109934713691
-0.00180019449908
0.000790105608758
-0.00908189825714
0.00226828083396
0.00686129229143
-0.00101861532312
-0.00154705252498
-0.0102437501773
-0.000259113090578
-0.000905390246771
-0.00848293863237
-0.000908473622985
0.00848543643951
-0.00121237430722
-0.000533431360964
0.00602221116424
-0.00831136852503
0.00127149152104
0.00136436661705
0.000994263449684
-0.000122817640658
-0.000665846047923
-0.00399489374831
-0.00061297317734
0.0104992697015
-0.00184056826402
0.0169500373304
0.00376054435037
0.00625123735517
0.00289719062857
0.00431615160778
0.00650166347623
-0.00409434642643
-0.00510987825692
-0.00590023491532
-0.00211391155608
0.00731512159109
0.00872368831187
-0.000396912510041
-0.00873767584562
0.00116448372137
-0.00089314696379
0.00698812492192
-0.00476404093206
-0.0028220016975
0.0015969441738
-0.00464466307312
-0.000498397566844
0.00114617636427
0.00705062923953
0.00482478924096
0.00240909634158
0.00128415739164
-0.00716060958803
0.00222039641812
0.00265697529539
0.00230303825811
-0.00221160426736
-0.00423909816891
-0.0032371066045
-0.00113088497892
0.000268897361821
-0.00709100952372
0.00174452166539
-0.00198138179258
-0.00521290395409
0.00237701321021
0.00305859255604
-0.0043722698465
-0.00129028153606
0.00105964555405
-0.00740533554927
-0.00422119582072
0.0080691985786
0.00154869921971
0.00382227171212
-0.00351503305137
0.00191568525042
-0.00524505134672
0.00471681309864
0.00131809851155
0.00458782631904
-0.0031348047778
-0.00301942671649
-0.00535970414057
-0.00247178273275
-0.00516687845811
-0.00329544814304
0.00359866325743
0.00313321384601
0.00240906258114
-0.00154829025269
0.00370752206072
0.00239261216484
-0.00160697801039
0.00768147082999
0.00383708905429
-0.00213807076216
-0.00166040798649
-0.000993657624349
-0.0038419358898
-0.00110499502625
0.00107891915832
-0.00214048288763
7.7111311839e-05
-0.00137648486998
0.00285164033994
0.00291619473137
0.00950032100081
-0.00203838781454
-0.00341747910716
-0.00156080618035
0.00242238584906
0.000949779117946
-0.000187280922546
-0.00454453751445
-0.00120535097085
0.00571772130206
0.00567423598841
-0.000572198827285
-0.00256303395145
0.00466551817954
0.00356081756763
0.00329706585035
0.00320097710937
0.00343231158331
0.00211676675826
-0.00565346563235
0.000750295526814
-0.000668249675073
0.000558186613489
0.000224692048505
-0.00394172919914
0.00553128682077
0.00434207171202
0.000261266948655
-0.00518986117095
0.0014636523556
0.00412337202579
-0.00115644570906
-0.00707769114524
0.0106523968279
-0.00393840810284
5.9878344473e-05
-0.000946996733546
0.0045556765981
0.00670500891283
0.00435880478472
0.00393961882219
0.00453358981758
0.00554717844352
-0.00233104964718
0.00550587195903
-0.00561511144042
-0.00467393174767
-0.00261589465663
-0.010269548744
-0.000638656551018
-0.00395022984594
-0.00798846967518
0.000370755908079
0.00632424233481
0.00738713797182
-0.0053911563009
0.0106292953715
-0.00213372264989
0.00811679940671
-0.00251205684617
0.00270190625452
-0.000665741332341
-0.00313981506042
-0.00598828308284
-0.00243925629184
0.0121080270037
-0.000135168127599
-0.00898460485041
0.00068899494363
-0.0013998108916
0.00281115272082
0.00256218807772
-0.00739692756906
-0.010260431096
-0.00305844377726
-0.00119548197836
-0.000825855589937
-0.00483491225168
0.00112092448398
0.0084280082956
0.00665372190997
-0.00259286467917
-0.000695541210007
-0.00219537550583
-0.00726540293545
0.00457845255733
-0.0012992246775
0.00144261529204
3.52426686732e-05
0.00105722027365
0.00074337318074
0.00293043022975
-0.00618624920025
0.000889922841452
-0.00414238777012
0.007186638657
-0.00874396041036
-0.00277629261836
-0.0044251861982
-0.0014949166216
-0.00421106349677
0.00147020095028
0.00383628881536
0.0100518641993
-0.00704317167401
-0.00182646256872
-0.00300143007189
0.0074589215219
-0.00426964648068
0.00410256022587
-0.00413440726697
-0.00800959020853
-0.00934889167547
0.00619439594448
-0.0107591282576
-0.00071619549999
-0.00154809840024
0.000642833067104
0.00182745116763
0.0029709613882
-0.000886931666173
-0.00157327333
0.00619024364278
-0.00323863863014
-0.0078708762303
0.000652115850244
0.00325255538337
-0.0081113288179
-0.00440980540588
0.00480648502707
0.00218458846211
-0.00100125570316
-0.0037663995754
-0.00406457576901
0.000166727462783
0.00145167356823
0.00121609540656
0.000780932488851
0.00584785779938
0.0011080756085
-0.00292789074592
-0.00455774180591
-0.00681315921247
-0.00415384909138
0.00486636068672
-0.000532454927452
0.00413878308609
0.00126085407101
0.000474499014672
-0.00127028126735
0.00754325650632
0.000563528272323
5.02397233504e-06
-0.00148416368756
-0.00119233853184
0.0027410693001
-0.00251400680281
4.6435121476e-05
0.00491483043879
0.00296066328883
-0.00753605086356
-0.00147461588494
0.00138111016713
0.0073775742203
-0.00297471601516
0.00223786616698
0.00438600825146
-1.55455763888e-05
0.00326564954594
0.004882061854
-0.00838452205062
0.00208446104079
0.00436648586765
0.00512612052262
0.00930599775165
0.00470793666318
0.00250818976201
0.00305048399605
-0.00971259176731
0.0047234906815
-0.000494108360726
-0.00357306119986
-0.00257874187082
-0.00200589746237
-0.0131393251941
0.0050032492727
-0.00197916268371
0.00545687647536
0.00661420915276
0.00033661883208
0.00412362115458
0.00169038260356
-0.000212765487959
-0.00224308879115
0.00352961872704
-0.00798994116485
0.000306289904984
-0.00411092443392
-0.00266258930787
0.000209467703826
0.000498924637213
-0.00276541220956
0.0100050671026
-0.00668789213523
-0.00395301869139
0.00164425326511
0.00532810343429
-0.0152526963502
-0.00302643328905
0.00248838798143
0.00359646952711
-0.00168480735738
0.0043061976321
-0.00506011489779
0.00373389571905
-0.00519549055025
0.00351695530117
-0.00203210371546
-0.00486293528229
0.0063268840313
-0.0038754362613
-0.00196575000882
0.00198576156981
-0.00154981343076
-0.00166353746317
0.00670588342473
-0.00687506934628
-0.00174055818934
0.00360947707668
-0.00399964628741
0.00129330123309
-1.25864989968e-05
0.00177231791895
-0.00628722039983
0.00262845004909
0.00537010049447
0.00210636667907
-0.00253521930426
0.000910908798687
0.00440222164616
-0.00257074530236
-0.00311689497903
0.000846413429826
0.00611259555444
-0.00176637154073
-0.00505315652117
0.000423313613283
0.00249183340929
-0.00272117042914
0.003702549031
0.00266401004046
-0.00140731374267
-0.011609883979
0.0020777839236
0.00907917693257
-0.0115126315504
0.00264169112779
-0.00527457287535
-4.39631112386e-05
0.000299301435007
0.00412872713059
0.000395831331844
-0.00259827286936
0.00462126592174
-0.00178362301085
0.00515367416665
0.000926081091166
-0.00547440582886
0.000376456300728
0.000661911733914
0.00156035285909
0.00322505319491
0.00235163606703
-0.00611910037696
0.00496240938082
0.00844698306173
-0.000919588608667
-0.000606002868153
-0.00806464720517
0.000836424063891
0.00813987664878
0.000441221054643
0.00146891153418
0.00104337371886
0.00461473222822
0.0028812920209
-0.000709537358489
0.0051350761205
-0.00175314070657
0.00812240783125
0.00576488953084
-0.00758395856246
-0.0018175272271
-0.000369190296624
0.000727856473532
0.00599656440318
-0.00312601798214
-0.00885001849383
0.0094113657251
-0.00808066036552
-0.0041480595246
-0.00212119403295
-0.00404745154083
-0.00691214390099
0.00163224583957
0.00389560940675
-0.00225083227269
0.00836547836661
0.00535961939022
0.0110189653933
0.00567199103534
-0.00667604384944
0.00123801187146
0.000398335920181
0.00263874512166
-0.00751157151535
-0.000274009391433
-0.000768664525822
-0.00572586245835
-0.00196196837351
0.00224484782666
-0.000538806780241
0.00219152588397
0.00437953416258
-0.00569443078712
0.00321332504973
0.000902301631868
-0.00707105034962
0.00383489346132
0.00326322182082
0.000649757625069
0.00197062711231
0.00217992370017
-0.0163663700223
-0.000875619996805
-0.00523792067543
-0.00158712198026
-0.00253958976828
-2.25970834435e-05
-0.00649891234934
-0.00191143294796
0.00139960413799
-0.000610823219176
-0.00212376611307
0.00325505016372
-0.000117823328765
-0.00172397179995
0.0006709798472
-0.00109742209315
-0.00700467219576
0.000481970811961
-0.00505029689521
0.000786215823609
0.00214550597593
-0.00983979552984
-0.00480165332556
-0.01171315182
-0.00722630228847
0.00150839227717
0.0054226112552
0.00336203095503
-0.00184238213114
-0.000614532502368
0.00861088652164
0.000114098656923
0.00541688129306
0.00200051884167
-0.00750169390813
-0.000265582260909
0.00289758178405
-0.00300215929747
0.00170027720742
0.00565726635978
-0.0111977141351
-0.00523262564093
-0.000741986616049
0.00159733719192
-0.00313754775561
-0.00202766270377
-0.00808679033071
-0.00171640503686
0.00197521666996
0.00511261262
-0.00713869556785
0.00410940730944
0.00173925620038
-0.000661548925564
-0.00352263008244
0.00033107411582
0.00290555809624
0.00195440580137
0.00190738390666
0.000272332632449
-0.00284261279739
0.00123447482474
0.00529904663563
-0.00441917777061
-0.000320864201058
-0.00345239858143
0.00585569115356
0.00352717097849
0.00313387508504
0.00303108687513
-0.00954050105065
0.00179252051748
0.00228817970492
-0.00310138473287
-0.0037461805623
0.00419458374381
-0.00547491572797
0.00219855410978
-0.00608313782141
0.000233429556829
-0.00612820452079
-0.00245435908437
0.00505777588114
0.00544772250578
0.00747178727761
0.00323156244121
0.0033774941694
-0.00410544639453
0.000342097860994
0.00156336219516
0.00954873953015
-8.46878392622e-05
0.00203588558361
0.00377016467974
0.000615182740148
-0.00116787641309
-0.00185093225446
0.000258068117546
0.00462294602767
-0.00197642482817
0.00393497617915
-0.0190197639167
-0.00173539819662
0.00404251227155
0.00137056154199
0.0026033797767
0.000898327096365
-0.00461231218651
0.00483960239217
0.00402091443539
0.00439579458907
-0.00327482819557
-0.00768874632195
0.00175767182373
-0.00197094934992
-0.00882032420486
0.00353524717502
0.00462189503014
0.00614487333223
-0.0100285103545
0.00651136226952
-0.0084273647517
-0.00544940214604
-0.00140945031308
0.00127265194897
-0.00255296262912
4.88864061481e-05
-0.00187122705393
-0.0021898415871
0.00267395470291
-0.00109914119821
0.00543619366363
-0.00519603351131
0.00122582109179
0.0106788240373
-0.00360394571908
-0.00113814440556
-0.00480511132628
0.000108741609438
-0.00397714786232
0.00380895240232
0.00109287397936
-0.0001026192258
-0.00544255785644
0.00685433112085
0.00621181027964
-0.000818265194539
-0.00286255311221
-0.00601701065898
-0.00546430889517
0.00363240507431
0.00150180433411
0.0066595422104
0.00800922513008
-0.00063609611243
0.00168034841772
0.00104991078842
-0.00349973305129
-0.0115872994065
0.000448957202025
-0.00676222192124
0.00545553583652
-0.000823339854833
0.00129622861277
0.00134134746622
0.00214218185283
0.00397631572559
0.00487944483757
0.00307162315585
0.00463978853077
0.000234894279856
-0.00388625334017
-0.00225984863937
-0.00017127431056
0.00572718679905
-0.0127475457266
-0.00449800956994
0.00344373402186
0.00313843763433
0.0012809666805
0.00205342750996
0.00167944212444
-0.00786851067096
-0.00337845482863
-0.00148234260269
0.0063571059145
0.00383455306292
-0.00172515504528
0.00272594508715
0.00030939275166
-0.00551188923419
0.00132415397093
-0.000894265598617
0.00354379112832
-0.000896676443517
0.00699374964461
0.00899684987962
-0.00522398157045
-0.00315856351517
0.00346276699565
0.00818227604032
0.000712642853614
-0.00756531814113
-0.00318595021963
0.0116869099438
0.00675598578528
0.00767916161567
-0.00272360979579
-0.00123730115592
-0.00321550527588
0.00387830869295
0.00114025652874
0.00124114449136
0.00190660217777
0.00252785743214
-0.00895471125841
0.00426524784416
-0.00131149974186
-0.00494397478178
-0.00313538499177
-0.00698007596657
-0.00723472330719
-0.00745967961848
0.000601922452915
7.37232585379e-06
-0.00278137787245
-0.0046035409905
-0.005256078206
0.0175555944443
0.00110169360414
-0.00604439713061
0.0056537957862
0.00245787901804
-0.00293536973186
0.00455690314993
0.000261598004727
-0.0164499692619
0.00504512200132
0.00142485380638
0.000451116298791
-0.00514587201178
0.00517090596259
0.00142430909909
0.00247187842615
-0.0037024714984
0.00402651913464
0.00112834887113
0.00421881023794
-0.00252768048085
-0.00149951665662
0.00260238163173
-0.000728036742657
-0.000106179126306
-0.013135375455
-0.00290194922127
-0.00220605148934
2.87591465167e-05
0.00273934123106
0.00495285401121
-0.00638791918755
-0.0100296773016
0.00600519496948
0.00318832020275
0.00436456082389
-0.00871606916189
-0.00705506838858
0.00319753098302
0.00269442703575
-0.00956654176116
-0.00788212288171
0.00517109967768
-0.0022942982614
-0.0048128333874
-0.0041553042829
-0.00787327811122
-0.00714461691678
0.00368485576473
-0.00512854708359
-0.00438233884051
-0.00501333596185
-0.000396954477765
0.0115334130824
0.00574036967009
0.0127841765061
-0.00115981325507
-0.01111925859
-0.00765137281269
0.00216049514711
0.00159962510224
-0.00630312087014
0.0027812931221
-0.0104883983731
-0.0041494006291
-0.00783926155418
0.0050904173404
-0.000128178435261
0.000344910076819
-0.00219391123392
-0.0101574314758
0.00304865301587
0.00208937283605
-0.00103516236413
-0.00271872081794
0.00106676341966
0.00537435524166
0.000912512361538
-0.00394725473598
0.00474693998694
-0.00982009246945
0.00414579221979
-0.00726958550513
0.000490991631523
-0.00528158806264
0.00125619361643
-0.00871602911502
-0.00542859826237
0.00629895692691
-0.00721588730812
-0.00278054294176
0.000388996530091
0.00235833297484
-0.00801747385412
-0.000642837258056
0.000346592831193
0.00232982588932
-0.003825153457
-0.00360703025945
-0.00175809813663
0.00292803859338
-0.00627082027495
0.0105560449883
-0.000231245314353
0.00243410095572
-0.00242327572778
0.00881411507726
-0.00956769566983
-0.00184454664122
-0.00342342955992
0.00816233735532
-0.00305841607042
-0.00114049040712
-0.00452567683533
-0.00147475441918
-0.00259993132204
-0.00574975833297
-0.000514955318067
-0.0115067847073
-0.000213168939808
0.00417681224644
-0.00914233829826
-0.00322207179852
-0.00285133975558
-0.00464265560731
0.00358230504207
0.00145636720117
0.000157966016559
0.00567384948954
-0.00399525323883
0.00220167730004
5.92037940805e-06
-0.00777076929808
-0.00296826125123
-0.00494830915704
-0.0130808046088
0.00116246158723
0.00620569754392
-0.0066967299208
0.00174724229146
0.00579043384641
0.00596894556656
-0.00126943551004
-0.00121150282212
0.000374472583644
0.000536776788067
-0.00173043820541
-0.00676456699148
0.00392233859748
0.00655963039026
-0.00190088828094
-0.00216536340304
-0.00421449681744
0.00205010105856
0.00251303380355
-0.000127290346427
-0.000550386030227
0.00343137560412
0.00361666386016
0.00334989302792
0.000421786535298
0.00578575348482
-0.0144249452278
-0.000436733884271
0.000420519761974
-0.000355341500835
-0.00320846424438
0.000313763244776
-0.000115813716548
-0.00508726527914
0.00767447939143
0.00306547991931
-0.0013050265843
0.00082932919031
-0.00025952438591
0.00361009989865
-0.00321626779623
-0.00234147533774
0.00225633196533
-0.00621533673257
-0.00102847500239
0.0061341393739
-0.00825257599354
0.0104512823746
0.00743728643283
-0.00310851051472
0.0016254009679
-0.00121275510173
0.00129557098262
0.00383298448287
0.000675460265484
-0.000846970884595
-0.00329389725812
-0.00269091362134
0.00657152198255
-0.0068657938391
-8.53231467772e-05
0.00132645270787
-0.00520291132852
0.00496173044667
0.00376599025913
-0.00192734692246
-0.00273367227055
-0.00142158381641
-0.00562538718805
0.00108162278775
-0.000456496956758
-0.00257340678945
-0.00272035878152
-0.00383105897345
0.00065101950895
-0.00368008692749
-0.00660200510174
0.00521030649543
-0.00485072145239
0.00399757083505
-0.00152873620391
-0.00730636203662
0.0130366478115
-0.00256292428821
0.0049574947916
-0.00212936964817
-0.000975719362032
-0.00200697011314
-0.00403104163706
0.00463855499402
-0.00843572523445
0.0020804242231
-0.0101347900927
-0.00890675745904
-0.00459788693115
0.00752005213872
0.00832436978817
0.00937609095126
0.00185112585314
0.00569640472531
-0.00183761969674
0.00222705933265
-0.00176215916872
-0.00278763403185
-0.00023190160573
-0.0113943573087
-0.00139882916119
0.000459858740214
-0.00230128434487
0.000462441937998
3.83520891774e-05
0.00949580594897
0.000123891848489
-0.00364069826901
0.00827469117939
-0.00389133463614
-0.0015703671379
-0.0065882820636
-0.0134712811559
-0.00183651875705
0.00948188826442
0.00132864457555
-0.00640233047307
-0.011038178578
0.00194957666099
-0.0105743315071
0.00117187283468
0.00199117348529
-0.00556110031903
-0.0087801720947
-0.00429021008313
-0.00144914037082
0.00351737602614
0.00492982985452
-0.000523255032022
-0.00205157604069
-0.00503108184785
-0.00174405192956
0.00437804870307
-0.00218992051668
0.00296230032109
-0.0113974828273
0.00469292281196
-0.00558786047623
-0.00091200316092
-0.00627243844792
0.00639322632924
0.00433165719733
0.00547057297081
0.00544194411486
0.00749816838652
-0.00432553747669
-0.00381401064806
0.00164305663202
-0.00192663702182
-0.00533029902726
-0.000882605731022
-0.00310071394779
0.00062413373962
0.0100798904896
-0.00868056062609
0.00812751147896
-0.00252094794996
-0.00883975904435
0.000411759479903
-0.0060257059522
-0.00249455566518
-0.00373322027735
0.0122203631327
-0.00945281609893
0.00883441325277
-0.017409875989
0.0073138740845
-3.13395648845e-05
0.00442723929882
-0.00134889979381
-0.00633043237031
0.000139202049468
-8.89035363798e-05
0.0012982240878
-0.00131386285648
-0.00673972629011
0.00590551877394
-0.00420616008341
-0.000596306927036
-0.00442371331155
0.00241465796717
-0.000323184416629
-0.00905280467123
-0.00093829643447
-0.00999647099525
-0.00699627446011
0.00762391416356
0.00330704823136
-0.00300745759159
-0.00451515382156
-0.000753801898099
-0.00179933861364
-0.00441680150107
-0.0077449940145
0.0101464865729
0.000216017549974
0.00291938148439
0.000192214967683
-0.000544703740161
-0.00313893938437
-0.00319631397724
-0.00510802399367
0.00107966689393
-0.000132662113174
-0.000803612987511
-0.00206022663042
-0.00156954489648
-0.0130982259288
-0.00530155794695
0.00557101052254
1.18967791423e-05
0.000282254972262
-0.00406072661281
-0.00428732531145
-0.000899519480299
0.000340054219123
0.000767075573094
0.00464110542089
0.00296501559205
0.00260945456102
-0.00418452033773
-0.000690839544404
-0.00325921503827
-0.000636638258584
-0.00500177545473
-0.00261390255764
-0.000597223290242
-0.0039937896654
-0.0106483818963
-0.000862679909915
0.000660606194288
0.000422535755206
-0.000221376219997
-0.000573992729187
0.00222959811799
-0.000835157174151
-1.55010711751e-05
-0.000162436292158
0.00378976366483
0.00732327532023
-0.00332179828547
0.000906678149477
0.00111019366886
0.00669533200562
-0.00251196278259
-0.00155104405712
0.00438604876399
-0.0075473729521
0.00811859872192
-0.00603214465082
-0.0019669982139
0.00440880237147
0.00953333452344
-0.00362961995415
-0.00183997745626
0.0010173402261
-0.00758843543008
-0.00313753657974
0.00401413766667
0.00405005412176
0.00287518021651
-0.00289815338328
-0.0101699316874
0.000130759144668
-0.0018825342413
-0.00609187595546
1.44002815432e-05
0.00524347089231
0.00431512948126
0.0036399285309
-0.00446884799749
0.00350589258596
0.00286597013474
-0.00187100947369
0.00104403623845
0.000959711498581
0.00277918274514
-0.00823084637523
0.00621594022959
0.00075918296352
-0.0103530436754
-0.00246112816967
-0.00893478095531
-0.00849559251219
0.0129138501361
-0.00927393138409
-0.00124380958732
-0.00303970975801
-0.000919160724152
0.000623377040029
-0.00239130132832
-0.00605019321665
0.000993347610347
0.00631942041218
0.00381533522159
-0.00383339147083
-0.00640772422776
-0.00215039099567
0.00119263096713
-0.0066790888086
0.00155840301886
-0.000776316679548
-0.00409152777866
0.00668852729723
0.00347272539511
-0.0013076281175
-0.00437019811943
-0.00630231853575
-0.000937339384109
-0.00113708339632
0.00952406320721
-0.00512558780611
0.00765665480867
0.00479555781931
0.00227892538533
-0.00362459849566
0.000244154012762
-0.00220988481306
0.000243876056629
0.00318152247928
0.0056832539849
0.00167347211391
-0.00606887368485
-0.00277381716296
-0.00162182201166
-0.00360743002966
0.00604399526492
-0.00760438945144
-0.00616090418771
0.0034280824475
-0.00834332220256
-0.00517055112869
-0.00549741368741
-0.00318502122536
-0.00557394884527
0.00523245334625
0.0128027107567
-0.00322883902118
-0.00684310961515
-0.000912672199775
-0.0012194121955
0.0109350588173
-0.00415310729295
0.00123894878197
-0.00487997289747
0.00124950555619
-0.0110061913729
0.00112782744691
-0.0112060103565
-0.000362712919014
-0.00967902783304
-0.00143620523158
-0.00943847373128
-0.00651846267283
-0.0029433646705
-0.00133891717996
0.00835399795324
-0.00559195084497
-0.00630210712552
0.00380603340454
0.00318175717257
-0.00446114689112
0.00639542005956
-0.00342377298512
0.00121090631001
-0.00391169125214
0.000863421475515
-0.0115159517154
-0.0159057248384
-0.0115664573386
-0.00323630659841
-0.0027229799889
-0.00575925549492
-0.000290739524644
0.00283776735887
0.0026196190156
-0.00293431151658
-0.00289876456372
-0.0128341559321
-0.00736127886921
-0.00732837338001
-0.00690951151773
0.00489738909528
0.00436674663797
-0.00416960660368
0.00196613720618
-0.00355762429535
-0.000296648941003
0.00763704907149
-0.00371432886459
-0.0033788389992
-0.0096804862842
0.00375960068777
-0.00866271927953
-0.00374554865994
-0.00885302014649
-0.00652931677178
0.00324604776688
0.00701896613464
0.000441161217168
-0.00729016726837
-0.00589353963733
0.00782645400614
0.00751844095066
-0.00208115857095
-0.00441795028746
0.00665569724515
-0.00415780162439
-0.00434458022937
0.0103263128549
0.00458027981222
0.00855763349682
-0.00477427663282
0.000297689228319
0.00506987562403
-0.00128114712425
0.00320909149013
0.00492584519088
0.00359973637387
-0.00490772491321
-0.000582801003475
-0.00110649864655
-0.00901810266078
0.00248788692988
0.000810868688859
-0.00149098155089
-0.00363544514403
-0.0105923693627
-0.00294054765254
0.00653499318287
0.00575591810048
-0.00090686843032
0.000307533016894
-0.00225994852372
-0.01712574251
0.00308863841929
-0.00514314929023
-0.00191705732141
-0.00716990372166
0.00230221054517
-0.00715805962682
0.0050320122391
-0.000554041238502
-0.0004019230837
-0.00555094564334
-0.00178514153231
-0.00262358994223
0.00206806766801
0.00149334105663
-0.00166833458934
-0.00984001345932
0.00629952130839
0.00550121814013
0.00110770575702
-0.00941040646285
-0.00164118222892
-0.00989296101034
-0.00388567661867
-0.00706235785037
-0.000547998060938
-0.00722026452422
-0.010718151927
0.000211778809899
-0.00946318451315
-0.000532433274202
-0.000174958346179
0.00140211626422
0.00188144948334
0.00106669368688
-0.00733800511807
-0.00638358108699
-0.0124469446018
0.00106786575634
-0.00183561933227
0.00313017005101
0.00626624468714
0.00362592283636
-0.000808034325019
0.00498062744737
-0.00325772119686
0.00880425609648
7.40351970308e-05
-0.000833907106426
0.00123275071383
-0.00270369788632
-0.00518493400887
-0.002553103026
-0.00653536850587
0.000227236931096
-0.00584373995662
-0.00147771742195
0.00167119957041
-0.00330249359831
0.00377651583403
-0.00424979114905
-0.00222512404434
-0.00388195877895
0.00251121167094
-0.00302025163546
-0.0101928953081
-0.00854883436114
0.0033183991909
-7.44282806409e-05
0.00280356244184
-0.00312751205638
-0.0179965924472
0.00244769151323
-0.00502654677257
0.00395346153527
0.00159224122763
0.0074620237574
0.000390483241063
-0.00131154991686
0.000303604989313
-0.00861121062189
-0.000711784639861
0.00195431290194
-0.00746751390398
-0.00748534314334
-0.00370646710508
-0.00149916019291
-0.00463968235999
-0.00105312117375
-0.00434936536476
0.00702896760777
0.00217811064795
0.0015353950439
0.00649026408792
0.00806712545455
-0.00200529512949
-0.00184839672875
0.00819467101246
-0.0162594672292
-0.0129779074341
-0.00131915300153
-8.27053954708e-05
-0.00578541914001
-0.00428603217006
-0.00114630395547
-0.00149657251313
-0.00164001458324
-0.00416229153052
0.00159807794262
1.015232192e-05
0.00503952009603
-0.00787495542318
-0.00387090537697
-0.00164309213869
0.00279863155447
-0.0076838019304
0.0121597358957
-0.0050883651711
0.000931383809075
0.00650192471221
-0.00719383126125
-0.0109237516299
-0.00857490953058
0.001333770575
-0.00730288121849
0.00096587947337
-0.0017454031622
-0.00730138365179
-0.00787209719419
0.000237553977058
-0.00354584935121
-0.00650234986097
0.00673106871545
-0.00139503169339
-0.00202327757142
0.00449243700132
-0.00486096227542
0.00620106887072
-0.00909381266683
-0.00880402233452
0.00116104818881
-0.00602781027555
0.00480351317674
0.00473861675709
-0.00251696282066
0.00177809479646
0.0029633094091
-0.008793476969
0.000502525595948
0.00199922034517
0.00286734942347
-0.00595273682848
0.00033299511415
0.00040791372885
-0.00312035880052
-0.00571055943146
0.00453603081405
0.00222368305549
-0.000873658340424
0.0015719642397
0.00836606509984
0.0165497176349
0.00225628749467
0.007307021413
0.0113561740145
0.00142254400998
-0.00825319625437
0.00626656925306
-0.00175542070065
0.00602972134948
0.00651818141341
-0.00292122387327
-0.00427538016811
0.00394138740376
-0.00944246072322
-0.0047766729258
-0.00494007859379
0.000300103158224
-0.00335551402532
-0.00104415230453
-0.00354829058051
-0.00941450707614
-0.00494512915611
0.00277597038075
0.00130112643819
0.00685634417459
-0.00745289027691
0.00460919598117
-0.0017308536917
-0.0118668368086
-0.0001607749291
0.00505586201325
0.00215840269811
-0.00124288862571
-0.0117485132068
-0.00220001908019
0.00432871840894
-0.00162872613873
0.000157593225595
-0.0141205498949
-0.0122542716563
-0.00246458570473
0.000746078032535
-0.00658624572679
0.00294655631296
0.0112900715321
-0.00109621719457
-0.00428671203554
-0.0100368028507
0.00724860047922
0.00307546160184
-0.00710388133302
0.00112566002645
-0.00660811550915
0.00151313573588
-0.00151623878628
-0.000687000807375
-0.00771799357608
0.00665068021044
0.00547273410484
-0.0030040894635
-0.00802604854107
-0.00222940021195
-0.00659858807921
-0.00511913606897
0.000832568388432
0.00822649244219
-0.00737918401137
-0.00650626979768
-0.00595681136474
-0.00260508805513
0.00212715985253
-0.00133332924452
0.00447172485292
-0.00739899137989
-0.010181684047
-0.000506733660586
-0.00458805914968
-0.00226693088189
0.00543699692935
0.00571697810665
-0.0074277962558
0.00216430332512
-0.00594404432923
-0.00195877696387
0.0026300882455
-0.000144241072121
0.00269934232347
0.00264182384126
-0.0108600994572
-0.00350774824619
0.000588175666053
-0.00178352498915
-0.00152278505266
0.000473217893159
-0.00303456536494
0.00588778313249
-0.00509792752564
0.00207531824708
-0.0052697067149
-0.00975946243852
0.000399643962737
-0.000715313071851
-0.0094580501318
0.00437119742855
0.00663241511211
-0.00377041427419
-0.00989134795964
-0.00395961431786
0.0115560200065
-0.00896556396037
0.00784170627594
-0.00506251119077
-0.00960991065949
0.00746520934626
0.00315753789619
-0.00285441149026
0.00543870683759
-0.0103637957945
0.00143634341657
-0.00456147873774
0.00139094737824
0.00104814080987
0.000159221774084
0.000342763436493
-0.0111693385988
-0.00141125638038
0.00224667205475
-0.00461414083838
0.000529883720446
-0.0020453252364
0.00340152881108
-0.0103675127029
2.56731946138e-05
0.0016515571624
0.00211792904884
0.0105917081237
-0.0052700266242
-0.00535284448415
-0.00334540335461
-0.00693957181647
-0.00648727221414
-0.00485406350344
-0.00181034952402
0.00572776515037
0.00409326609224
-0.00122425693553
-0.00330742797814
-0.00573921157047
-0.00436456734315
0.000661685364321
-0.00440038042143
-0.00549906818196
0.000578016741201
0.00200274260715
-0.0055660107173
-0.00255661667325
0.000965422892477
-0.00781692471355
-0.00126188981812
-0.00337710790336
-0.00755716534331
-0.0050355955027
-0.00493684690446
0.00286002806388
0.00157687452156
0.00327837024815
-0.0133190369233
0.000296867481666
0.00499927531928
0.00338855781592
-0.00417894497514
0.00249398709275
0.00318504567258
-0.00415008189157
-0.00044540676754
0.00252384203486
-0.00849693734199
0.00338965002447
-0.00111368764192
-0.00256411544979
0.000818893429823
0.00182337278966
-0.0108870500699
-0.00877173710614
0.00320358923636
0.00161060492974
-0.00210129795596
-0.00315903220326
-0.0153059950098
0.00383606390096
-0.00570742320269
0.00873283110559
0.0035129529424
-0.000994122121483
-0.01375151705
0.00253396038897
-0.00315437186509
-0.0118153104559
-0.00163142138626
-0.00542074115947
-0.013116562739
0.00695914169773
0.007642833516
0.00701479567215
-0.00115491484758
0.00534754665568
-0.00667711952701
0.00296234642155
-0.0018647761317
0.000275448925095
-0.00802050065249
-0.00130831729621
-0.00541195366532
-0.00053712434601
0.00101974443533
0.00174554006662
0.00151057436597
0.00399512192234
-0.00124029337894
0.00114348786883
-0.000240701556322
-0.00270056305453
-0.00150096963625
-0.00300699402578
0.0041570882313
0.010032334365
-0.00744822109118
-0.000698212941643
0.00349938636646
-0.00492508243769
-0.011901426129
-0.00891862157732
0.0011549203191
0.00452728848904
-0.00775496615097
-0.00120662106201
-0.00509104179218
-0.0101756779477
-0.00276390532963
-0.00629355525598
0.0058173770085
0.00655573233962
-0.0136148082092
-0.000729592109565
-0.00193110841792
-0.00239097396843
-0.00715516414493
-0.0104801086709
-0.00601011374965
-0.00685413554311
-0.000598790007643
0.0100515764207
-0.00898982398212
0.00482262019068
-0.00688610924408
-0.00670000119135
0.0173147227615
0.00460564019158
0.0252367928624
0.00162175879814
-0.000837013591081
-0.0112110190094
-0.00210146838799
-0.0111124208197
0.00826948881149
-0.00407676538453
-0.00560927251354
0.00367273320444
0.00337174371816
-0.00600478705019
-0.00526050012559
-0.00633381772786
-0.00108249962796
-0.00976354908198
-0.00772091886029
-0.00684805540368
0.00611866870895
-0.00740564009175
0.00589149724692
0.0051757004112
-0.013592726551
-0.00745860626921
-0.00190239644144
0.00246700970456
-0.00119599793106
0.000661050260533
0.00797060132027
0.00677082221955
-0.000970438588411
-0.00323908962309
-0.00885427091271
0.00135747261811
0.00403543515131
-0.00340414280072
0.00682256557047
-0.00897202733904
-0.00123875623103
-0.0155004132539
-0.0106673184782
0.00266776862554
0.00595749216154
-0.00305010564625
0.00553505681455
-0.00258952658623
0.00319760059938
-0.00637296680361
0.000154919325723
-0.00115937483497
-0.00256230169907
-0.00499473931268
-0.00435924716294
0.00125744950492
0.00213776342571
-0.0053138313815
-0.00253494014032
0.00210371171124
0.00660321628675
0.001784288208
-0.00911881122738
-0.00701834866777
-0.00680107111111
-0.0110676372424
-0.00260949716903
-0.00491062644869
0.00921992491931
-0.00130257953424
0.0121537130326
-0.00285195698962
0.00827827490866
-0.00923649780452
-0.00543763907626
0.00863265153021
0.00129502592608
-0.00911052618176
-0.00429786229506
-0.00193936377764
-0.00625596614555
0.000112225097837
-0.00595837971196
0.00578108383343
-0.0052606780082
-0.00142641039565
0.0145902009681
-0.00280310562812
-0.00889103952795
0.00587985292077
0.00364370993339
0.00425462052226
0.00318824569695
-0.00187121122144
-0.00783947855234
-0.00131926359609
0.000550502736587
0.0103820338845
0.00176556617953
-0.0127453990281
-2.79089381365e-05
-0.00271137058735
-0.00870207604021
-0.000189717989997
-0.0010759846773
-0.00531779043376
-0.00951296277344
0.00735600898042
0.000525836541783
0.000680969620589
0.00305595714599
-0.00873384810984
0.00498240813613
-0.00159552448895
-0.00513412384316
-0.00792995840311
0.00526635628194
0.00117144430988
-0.00647556455806
0.000263300811639
-0.00610352214426
-0.00210819579661
-0.00401496421546
-0.00556501979008
-0.00626809196547
0.0023490274325
-0.00438604457304
-0.000859461724758
-0.00331719405949
-0.00323395687155
-0.0102156242356
-0.00483815558255
-0.00426340475678
-0.00422457000241
-0.00947908498347
0.00184345257003
-0.0108897350729
-0.0157120618969
-0.00913430377841
-0.00401165615767
-0.00287461816333
-0.00617899885401
0.00109185976908
-4.02797013521e-05
-0.00824593752623
-0.0100238844752
0.00137774960604
0.00429869815707
0.00881521683186
-0.0085384408012
-0.00429779989645
-0.0129749961197
0.00266176392324
-0.00225586793385
-0.00552167277783
0.00765540637076
-0.00446080043912
0.00239315070212
0.000103612845123
0.00259621930309
-0.00282826600596
-0.0126434657723
0.000269627547823
-0.00706345587969
0.00328778359108
0.00140924216248
-0.00304453982972
-0.00657504424453
0.0032867831178
0.00821459013969
-6.40178768663e-05
0.00423784647137
-0.00520815327764
-0.00862366706133
-0.00418738927692
-0.0103737320751
-0.00313553633168
0.0086956564337
-0.00567874452099
-0.011329382658
0.00610249256715
-0.00283307675272
-0.00484270835295
-0.00676391925663
-0.018502805382
0.00142819038592
0.00630368152633
-0.0104537345469
-0.00360150216147
-0.00513521954417
-0.00760672939941
-0.000880001927726
-0.0198442190886
0.000500091933645
-0.00595786515623
0.00131600897294
0.00163184490521
-0.00861589983106
-0.0015238262713
-0.0106286695227
-0.0114938057959
0.00166204303969
-0.0103470291942
-0.000750841281842
0.00134723074734
0.00395066756755
-0.00573161710054
-0.00845125876367
-0.00768787367269
-0.00352544640191
-0.00619596010074
0.00886473059654
-0.00541673507541
-0.00989146437496
-0.000219434441533
0.00713481847197
0.00486852694303
-0.00364973861724
-0.00172236154322
-0.00910778995603
-0.00527689559385
-0.00486067449674
0.00857160519809
-0.00915729254484
0.00143975729588
0.00113161443733
0.00213378900662
0.000803445174824
-0.00157373643015
-0.00488565536216
-0.00900687649846
-0.00173479830846
-9.47106382228e-05
0.00484877638519
-0.0117030320689
-0.000120214906929
-0.00255635427311
-0.00385068310425
-0.00199521193281
-0.00782864354551
-0.00162591109984
-0.0074204527773
-0.010069555603
0.00189852167387
0.00219288724475
0.000256378058111
-0.00266339723021
-0.000503445800859
-0.00351200671867
0.00039501718129
0.00124996656086
-0.00156441191211
0.00588307669386
0.00546823721379
-0.00140457018279
-0.00705900089815
0.0162636898458
-0.00327230338007
0.0135304750875
0.00091813376639
-0.00639033131301
-0.00332770845853
0.00375538133085
0.000950941059273
0.00261904974468
-0.00414449768141
8.18734406494e-05
-0.00254993606359
0.00404252950102
-0.00472488766536
-0.00174531317316
-0.000101521458419
-0.00276269740425
0.00102750631049
-0.00529447570443
-0.00405552890152
0.000742388772778
-0.00801352132112
0.00221130740829
0.00598527956754
8.5253843281e-05
-0.000693538750056
-0.00257647898979
-0.0113821998239
-0.0051145371981
0.00354381417856
-0.00380265386775
0.00806790776551
-0.00443268939853
-0.0101764677092
0.00331640942022
-0.000339233578416
-0.00352411181666
0.00320228631608
-0.00499321287498
-0.00324558303691
-0.00411341199651
-0.01051867567
0.000373430579202
0.00694754300639
-0.0112361200154
-0.00135518878233
-0.0113407913595
-0.00810462422669
-0.00460381712765
0.00599622260779
-0.0034070846159
-0.00042606916395
-0.00413605896756
0.0102828713134
-0.00534253986552
-0.00902602169663
-0.01498927176
0.00454113725573
0.00905051920563
0.00336068193428
-0.000284142966848
0.00446237483993
-0.00758714368567
-0.00405283318833
0.000417852104874
-0.00157268438488
-0.00556581979617
-0.00868333783001
-0.00753406714648
0.00245457724668
0.00808385387063
-0.0124457506463
0.00609902804717
0.00293049635366
0.00289385463111
-0.00747024221346
-0.0129033857957
-0.01054026559
-0.00247210636735
0.00300694443285
0.00182297558058
-0.00357043067925
-0.00985784176737
-0.00165129266679
0.00275923195295
0.0125771956518
0.0067082955502
0.00152496201918
-0.0138662140816
-0.00160382816102
0.00028994466993
-0.00771385338157
-0.00558115169406
-0.000451555330073
-0.00375605770387
0.00812890008092
-0.00611904496327
0.00647957902402
0.0112965423614
-0.0032740556635
0.00543729262426
-0.00451558595523
-0.00700373807922
0.000383893813705
0.00182597024832
-0.00367937190458
-0.00149234803393
-0.00496402941644
0.00856322422624
-0.00770432734862
-0.000583944201935
-0.00759365502745
-0.000864232657477
-0.0106243286282
0.0047182966955
-0.00553026190028
-0.00993185956031
0.00449693994597
-0.00671487348154
-0.00719936564565
0.00787329673767
-0.00699321832508
-0.0100213093683
-0.00162578374147
-0.00693523185328
-0.000986814848147
-6.16016222921e-06
9.84098296613e-05
0.0034857892897
0.00137969618663
-0.00675205606967
-0.00787662994117
-0.000551950477529
-0.00838533509523
0.00653399107978
0.00353969214484
-0.00289462995715
0.00429961271584
-0.00119546754286
-0.00347376428545
3.0828628951e-05
-0.0105881076306
-0.00342444656417
-0.00685630971566
0.00391293782741
0.00451543927193
-1.15401689982e-07
-0.00302821048535
-0.00069464329863
0.00156718899962
-0.00520336255431
-0.0135661950335
-0.00870010908693
0.00364380632527
0.00278037041426
-0.00295133003965
0.00321847107261
-0.00665945094079
-0.00315185985528
0.00121077580843
-0.00487509416416
-0.00922807492316
-0.0108303287998
-0.0115422941744
0.00128656823654
0.00400414923206
-0.00618939008564
0.00842027273029
0.00178279331885
-0.0035922434181
-0.000760632974561
-0.00433699740097
-0.0087755639106
-0.00144988193642
0.00555889401585
0.0015671356814
-0.0015840268461
-0.00344753707759
-0.0014593352098
0.00311410147697
-0.00752040324733
0.00857264269143
-0.00739894341677
-0.0130760446191
0.00779290078208
0.00117604446132
-4.16291950387e-05
-0.000278784311377
-0.0114946393296
0.00241947011091
0.00255508557893
-0.00043492540135
-0.0107378559187
0.00862260535359
-0.00864474195987
-0.00149405014236
0.00147409795318
-0.00722476886585
0.00548637518659
-0.00984286423773
-0.00442295148969
0.00180564832408
-0.00660309288651
-0.00178410764784
0.000272356468486
0.0059833782725
0.000843737099785
-0.000301878899336
-0.00064954260597
-0.0110000977293
-0.00612919870764
0.00161102693528
-0.00719417771325
-0.00919461343437
0.000156940397574
-0.00733303511515
-0.00819082465023
0.00128498929553
0.0032523421105
-0.0114557957277
0.00398312462494
-0.00550685077906
-0.00353582738899
-0.00618850067258
0.0036440466065
-0.00156257406343
-0.0125931808725
-0.00512782577425
-0.00657082954422
0.00509149301797
0.00100883399136
-0.00193686655257
-0.0014681465691
0.00162020826247
-0.00849427562207
-0.00524556683376
0.00150095752906
0.0086428374052
0.000328865542542
-0.00419203937054
0.00483480421826
-0.00218073069118
0.00371929001994
0.0103974128142
-0.00615753885359
0.00256752059795
-0.00340751954354
-0.0159239228815
-0.00626244861633
0.00996347237378
-0.00887640658766
0.00380091485567
0.00253403792158
-0.00250046863221
-0.0124403266236
0.00467416644096
0.00361421192065
-0.00561805441976
0.0127305723727
0.0132655100897
-0.00353753846139
-0.00742358900607
0.00946390535682
-0.00201404397376
-0.00413495767862
0.00750189414248
-0.0102136991918
-0.0118004027754
-0.000257585517829
-0.0115117905661
-0.00910885538906
-0.00290333223529
0.00487100007012
0.00164561811835
-0.00427780905738
-0.00716141983867
-0.000591324933339
-0.00199990067631
-0.00202566571534
0.00509106600657
-0.00982569903135
-0.00712930038571
-0.00215601944365
0.00943193491548
-0.0126181319356
-0.0173618365079
0.00287332083099
0.00206998363137
-0.0122551135719
-0.00347796198912
0.00172366225161
0.00709818350151
9.24964842852e-05
0.00286871823482
-0.00311000994407
-0.00297386175953
0.00481817871332
-0.0030865916051
-0.00885221734643
-0.00698921550065
-0.00361470435746
0.00420295353979
-0.00396114075556
-0.00781652983278
-0.0116127170622
0.0132542010397
-0.000184497403097
0.00444671837613
-0.00884533114731
-0.000505593488924
-0.00442461110651
0.00291441357695
-0.00202573020943
0.00427318830043
0.00058140035253
-0.00524780573323
0.000214571118704
0.00319978524931
-0.00701013254002
-0.00795140955597
-0.000954300106969
0.00379259791225
-0.00808371696621
-0.00370066566393
-0.00469991425052
0.0037082831841
0.0123307164758
-0.00194858189207
0.0134000014514
0.00112753431313
-0.00611783890054
0.00190923153423
-0.00102381093893
-0.0172910261899
-0.00400983681902
0.00578067731112
-0.0111717544496
0.00428249221295
-0.0138964448124
0.00872042309493
0.000463240372483
0.0010373047553
0.0107856532559
-0.00442783487961
-0.00570532958955
-0.0121932784095
0.000480604881886
-0.0019425067585
0.00226620188914
-0.000944223662373
-0.00399249559268
-0.0042584198527
9.44653947954e-07
0.0133640374988
-0.0042447084561
-0.0140650663525
0.0017856399063
-0.00406740047038
-0.0141421938315
-0.00433670124039
0.00852869916707
0.00250130495988
-0.00521136866882
0.000841292145196
0.00629628775641
-0.00409881351516
0.000873632845469
-0.00745306443423
-0.00433418760076
-0.00510035548359
0.00399910146371
-0.00395786715671
-0.00196358375251
-0.0100350733846
-0.00103653769474
0.00571100367233
0.00155681127217
0.00247882911935
-0.0100502707064
-0.00464303325862
0.00556688057259
-0.00116517348215
0.00196341983974
-0.00777284009382
-0.00635775830597
0.00419342238456
-0.00797943584621
-0.00653313705698
-0.00593375181779
-0.0012605425436
0.0103266024962
0.0062137208879
-0.00288011040539
0.000102494035673
0.000795598083641
-0.00253137783147
-0.00787301547825
-0.00660649780184
-0.00686891051009
0.00474641984329
0.000850675278343
0.00321313692257
-0.00457056937739
-0.00573516078293
-0.00623669568449
-0.00109915062785
-0.00840284395963
-0.00707685854286
-0.00411025295034
-7.7770644566e-05
0.00336245447397
-0.0101045267656
0.0023773110006
0.000337464065524
0.00370945851319
-0.00875621754676
-0.0146415419877
-0.00408903276548
-0.00143917941023
-0.00450951466337
-0.00308882538229
0.00784368161112
0.00205548922531
0.00124492926989
-0.00132477807347
-0.00197765952908
0.00114245642908
-0.00696656899527
-0.00226106471382
0.000596550176851
-0.00864831358194
0.00147792033385
-0.00143870094325
-0.00169518275652
0.00499272486195
-0.00350678758696
-0.0154671985656
-0.00867217499763
-0.00324215972796
-0.00701535772532
-0.000908857444301
-0.00687359413132
0.00274843745865
-0.00708571402356
8.70139192557e-05
0.00536375259981
-0.00902604404837
0.00433917995542
-0.00362357287668
-0.00416249316186
-0.00288089923561
0.00130000768695
-0.00809771101922
-0.0130908153951
-0.00597583130002
-0.00223828852177
-0.0157341323793
0.00993381720036
0.00168404134456
-0.0010628568707
-0.000934577197768
6.99726297171e-05
-0.0206152964383
0.00852535106242
-0.00675413012505
-0.00347678735852
0.00519220344722
0.00339760258794
0.0110348956659
0.00229932484217
-0.00394680351019
-0.000186790668522
-0.00438114441931
-0.000379838777008
0.00883127003908
-0.00836835708469
0.00142711924855
-0.000358087068889
0.00201085628942
-0.00256341206841
0.00451744487509
0.00592811079696
-0.00217420444824
0.0049823471345
-0.0132283838466
-0.000256533996435
-0.00594558240846
-0.0052095442079
0.00154776324052
-0.00251956959255
-0.00838320981711
0.00548465829343
-0.00473005976528
0.000129971813294
0.00145829992834
-0.00773312943056
0.00209967629053
-0.00737072527409
0.0077255833894
-0.0037189067807
0.00124951987527
-0.0014270254178
-0.00244677253067
-0.00734455976635
0.0106277242303
0.00708791660145
0.000242766778683
-0.000151519110659
-0.00815345812589
-0.0104246037081
-0.00201807217672
0.00380971073173
0.000123424295452
0.00693500274792
-0.00561747746542
-0.00468016602099
-0.00926447752863
-0.00884625129402
-0.00145706697367
0.0023458879441
0.00117474747822
-0.00553667731583
0.00529534183443
0.000811491161585
0.00321724032983
0.00987252313644
0.00118338922039
0.0035984585993
-0.00512941787019
0.00911872833967
-0.000780385220423
-0.00118237163406
0.000224631905439
-0.000727867300157
0.00669268565252
-0.0108598684892
-0.00124063843396
0.00379110011272
-0.0032467097044
0.00656582554802
-0.00506413122639
0.0018742820248
-0.00126546050888
0.0099695622921
-0.00832659564912
-0.00128472375218
-0.00326067907736
-0.00408443761989
-0.00490950560197
-0.00351847987622
-0.0037403171882
-0.00546168303117
0.00339977559634
-0.0105706239119
0.00421564280987
0.00264669395983
0.00754939112812
-0.00477483076975
-0.0101465862244
-0.0035142370034
0.00746665149927
0.0139718949795
0.000360110891052
-0.0022819598671
-0.00743892090395
0.0010550551815
-0.00415908545256
-0.000661263824441
-0.00257460703142
0.00507816718891
-0.000705503218342
0.00430807471275
-0.000517622975167
-0.00371250044554
-0.00938648637384
-0.00401592394337
-0.0083824750036
0.00176736444701
-0.0119232079014
-0.00425315042958
0.00769142713398
-0.00264185341075
0.00309728248976
-0.00715070078149
-0.00324734370224
-0.00165139010642
-0.00159032165539
-0.0023105123546
1.97806693905e-05
-0.000629387272056
0.00844933092594
0.00625736825168
-0.00259692734107
-0.00527048623189
-0.0202144086361
-0.00153378874529
0.00480026612058
0.0089928554371
-0.000250758050242
-0.00572879379615
-0.00597872072831
-0.000838937470689
0.000593173957895
-0.00583623955026
-0.00348759279586
-0.000671345624141
-0.000311467971187
0.00192749931011
0.00345574808307
0.00596430664882
0.00787384808064
-0.0118104862049
-0.00112911476754
-0.00757276685908
-0.0134712634608
0.00363176711835
5.29994322278e-05
-0.00398205639794
-0.0129729621112
-0.000832609774079
0.00330360606313
-0.00336927431636
-0.00356389326043
0.000730306550395
0.00851674284786
0.00126419356093
0.00511377537623
-0.00215266924351
-0.00423034187406
0.00298879784532
0.00490958988667
-0.00937907211483
-0.00203314400278
0.00386827951297
0.0028178920038
-0.00345610175282
-0.0092544471845
0.00618839915842
0.0033784143161
0.0103696780279
0.00733122555539
-0.00217873626389
-0.000970152323134
-0.0108836907893
-0.0018206652021
0.00895699672401
0.00582486111671
0.00378151843324
0.00440739607438
-0.000596402853262
0.00156444532331
0.00279470230453
-0.00567844090983
-0.0102251432836
-0.00322384550236
-0.0014683828922
-0.000847739283927
0.00177879806142
-0.00394469127059
-0.00779110006988
0.00436679832637
-0.00915752537549
-0.00261568371207
-0.00260775233619
-0.000528705248144
-0.00332924653776
0.000335465039825
0.00754458410665
0.00320222158916
0.00142852566205
0.00460728583857
-0.00277559948154
-0.00916371867061
-0.00516462791711
0.00523876259103
-0.00383407226764
0.000352114555426
0.00411513028666
-0.000297654449241
0.000342579267453
-0.00369819719344
0.0120893446729
-0.00182628352195
-0.00397065840662
0.00230765179731
0.00266714137979
-0.00729805091396
0.00188780517783
-0.00332680158317
0.0056931595318
-0.00684087444097
-0.00839332584292
-0.00736635597423
-0.00974629726261
-0.00977238733321
-0.0052618230693
-0.00941502861679
0.00476668821648
-0.00479204580188
-0.00146978301927
0.00355340307578
-0.000888910959475
-0.00308425584808
-0.00609846459702
0.00507210334763
0.00236292392947
-0.004387664143
0.0107641397044
-0.00609566411003
-0.00270952889696
0.00202187034301
-0.00993641093373
0.00430783256888
0.00315272482112
-0.0020839148201
0.00353580247611
0.00859216228127
-0.0011456287466
-0.00913953781128
-0.00377401825972
-0.000796802924015
-0.00944421626627
0.00379902194254
-0.00641344301403
0.00990211870521
0.000584548513871
0.00771615188569
0.00521581852809
-0.00946871098131
-0.00216331961565
-0.00207969150506
0.00180047936738
-0.00695351883769
0.000464667013148
0.00153819343541
-0.00563733978197
-0.0059859752655
-0.00739323534071
-0.00117163104005
-0.00262645073235
-0.00294369482435
-0.000710470660124
0.00521448114887
-0.000321669620462
-0.00528442487121
0.00274435803294
-0.00316963694058
0.00450675748289
-0.00295008579269
-0.00302745494992
-0.000123928039102
-0.00423833122477
0.0065348399803
-0.00130890600849
0.00228397222236
-0.00239761779085
-0.00135728984606
-0.00343655399047
-0.000605688313954
-0.00569609226659
-0.00376335741021
0.00564321642742
0.00276027922519
-0.00639812694862
-0.00242631835863
0.00513450801373
-0.0013357962016
0.00486125843599
-0.000223872397328
-0.00279530137777
-0.0115169389173
-0.00610771263018
-0.00548893306404
0.00559167284518
0.00172639009543
-0.00113865896128
0.00131815613713
-0.00233158026822
-0.00325368577614
0.00482840230688
-0.000442634016508
-0.00205315905623
-0.00121161958668
-0.00767592666671
-0.0101067405194
-0.00280781043693
-0.00303189177066
-0.00972074829042
-0.00219697318971
-0.00217379396781
0.0035151259508
-0.00784779060632
-0.00799310114235
0.00185046065599
-0.00527972634882
0.000573510944378
-0.00352389761247
-0.00681037735194
-0.0047916136682
0.000227102296776
0.000427175080404
0.00371974892914
-0.00648711901158
-0.00227975496091
0.00217264448293
0.00190734921489
0.00100169400685
-0.0100728906691
0.00323626585305
-0.00271262414753
-0.000679711520206
-0.00243340502493
-0.000291646661935
0.00610366649926
-0.00384525815025
0.00104948633816
-0.00217844499275
0.00781223876402
-0.00114674377255
-0.00503666233271
0.000181776267709
0.00105800142046
0.000549836200662
-0.00170255010016
-0.0027950447984
-0.00309809460305
-0.0125636961311
-0.00411968585104
-0.00372890289873
0.00697832368314
-0.00991412717849
-0.00684108398855
0.00245935097337
-0.00355189433321
-0.000670510053169
-0.00252286577597
-0.00647993246093
-0.00494231516495
-0.00519461417571
0.00417209742591
0.000153369735926
0.00284972554073
-0.0027848475147
-0.000978442607448
-0.00330162164755
0.00190266384743
-0.00500641809776
0.00336683634669
0.00164607574698
-0.00315180118196
-0.00903008785099
0.00371252908371
-0.00105862773489
0.00209973170422
-0.00249310070649
-0.00527410861105
0.00154913379811
-0.00365920178592
-0.00102128484286
-0.00654823239893
0.00525854621083
0.007127486635
-0.00302714970894
0.00643096677959
-0.00136992754415
0.00079043477308
0.00550108961761
-0.00347164692357
0.00351702375337
0.00487793749198
0.00844797305763
0.00277592963539
0.0011250678217
-0.00466208066791
-0.0110212592408
-0.00128355622292
0.00084765983047
-0.00223132246174
0.00735349720344
0.0018369378522
0.00155194581021
-0.00510471081361
-0.00384885398671
-0.00518530327827
0.00634167296812
-0.00549451075494
-0.0113901793957
-0.00430319132283
0.00102981168311
-0.00527909351513
0.00306872325018
-0.00350369769149
-0.00434865197167
0.000910126953386
-0.00319288973697
-0.00918775051832
-0.0011402569944
-0.00510144094005
0.00453278142959
0.000538528256584
-0.00366786494851
-0.00562091078609
-0.00610171770677
-0.00148987595458
0.00239781942219
-0.0076130204834
0.00282090576366
-0.00154720887076
-0.00734869437292
0.00188368640374
0.00115735863801
0.00154884601943
0.00660820864141
0.00465117488056
-0.00129711604677
0.000372510316083
0.0121867451817
0.00227938755415
0.00257402285933
0.00218928931281
-0.003652861109
0.000877088343259
-0.00554513419047
0.00339142628945
0.000916835269891
-0.000437906157458
0.000124483762193
-0.00156295089982
-0.00486029684544
-0.00763401715085
-0.00392684713006
0.000185400480404
0.00217856303789
0.000752085004933
0.00113637256436
0.000296522455756
-0.00420391466469
-0.00221222545952
-0.000336143799359
0.00321004749276
-0.000715434958693
0.0016359265428
-8.56540937093e-05
0.00128709245473
-0.00372644467279
-0.000532409059815
-0.00874236319214
0.0079535022378
0.000945509877056
0.00466285226867
-0.000966933555901
0.00312486989424
0.00133046449628
-0.00754867075011
-0.00295466533862
0.00123003509361
0.0112883374095
-0.000575624930207
0.00187176570762
-0.00908465124667
-0.00622460851446
-0.00168112560641
-0.000220255897148
-0.00375896622427
-0.0019733782392
0.00167348375544
-0.00358442869037
-0.000193885643966
-0.00751069746912
0.00360769848339
0.00285760592669
-0.00235521933064
-0.0107488958165
-0.00540956528857
0.00271649286151
0.00613193958998
0.00916528981179
-0.00222560064867
-0.00957926176488
-0.00685460539535
0.00172317784745
-0.00626041088253
0.000964203150943
-0.000988654792309
0.00713282590732
0.00416542310268
-0.00605452852324
0.000313469179673
0.00063436984783
-0.00292719877325
0.000651864625979
-0.000834277481772
0.00322341639549
-0.000167716018041
0.00202699285001
-0.000968055508565
-0.00750643247738
0.00112744222861
-0.00297418935224
-0.00211845920421
-0.000695809605531
0.00885323341936
0.00469781318679
0.000258322863374
-0.00655328202993
-0.00455530080944
0.00474187964574
-0.00481024757028
-0.00269874744117
0.00459670787677
0.00182063423563
0.00380710489117
-0.00449449149892
-0.0041368487291
0.00221358495764
0.00355322146788
0.00184170692228
-0.000707353407051
-0.00399411283433
-0.0106810666621
0.00133650179487
-0.00413825083524
-0.00828791316599
-0.00438732746989
-0.0063987262547
-0.00247933785431
-0.00424598809332
-0.0106454892084
0.00477693835273
-0.00546592799947
0.00661374209449
0.00526442984119
-0.00122107286006
-0.00481585785747
-0.00253451056778
0.00150929542724
0.00107696617488
0.00385748641565
-0.00363188516349
-0.00308860652149
0.0012904596515
0.000812636571936
-0.00733185419813
0.00649530254304
0.0134481629357
0.00562354922295
-0.00451266905293
0.0047862501815
0.00508961640298
0.0069343210198
0.00126532756258
0.000166116224136
0.00298836338334
-0.0017280834727
-0.00567752029747
-0.00132977589965
0.0020738421008
-0.00805277470499
0.00776880420744
0.0034225534182
-0.00305701931939
-0.00282060052268
0.000452036911156
-0.00814627669752
0.00388590339571
-0.00868331920356
1.85756580322e-05
-0.00450518727303
-0.0020947791636
-0.00640201196074
-0.00333086657338
0.000552430166863
0.000681612349581
-0.00166665541474
-0.00293734879233
-0.00593204889446
-0.00522063672543
-0.0112884389237
-0.000771609018557
-0.00170356745366
-0.0104746231809
-0.00604663137347
0.000876849866472
0.00475645624101
-0.0050138477236
-0.00608191359788
-0.00516043510288
-0.00901365280151
0.005949575454
-0.00627994211391
0.00311516993679
0.00126878649462
0.00220610806718
0.000720911950339
-0.00709264772013
0.00356678082608
-0.00024729341385
-0.00149867683649
-0.00166530755814
-0.00647077709436
-0.00630777142942
-0.00501428823918
-0.00522893806919
0.00226875022054
0.00130765407812
0.000737377849873
-0.00135466794018
-0.001463711611
-0.00564133189619
-0.00446560559794
0.00168711773586
-0.00211429176852
0.00109421287198
0.00205809180625
0.00720887584612
-0.00486038066447
-0.00177105457988
-0.00719099678099
-0.00574804889038
-0.00314401322976
-0.00290382024832
0.00872075837106
-0.00884541776031
0.00114662805572
0.00217069685459
-0.00116635288578
-0.00687599740922
-0.0041722455062
-0.0084159579128
0.000124522688566
-0.00259517994709
-0.00016787610366
0.0022742592264
0.00298617221415
0.00895774737
0.00511128548533
-0.00109659053851
0.00233948254026
0.00276019773446
-0.00747258821502
-0.0048499670811
0.00382137508132
0.000396438204916
0.00329057569616
0.00516888545826
-4.59898546978e-05
0.00564892403781
-0.00113544834312
-0.00407280260697
-0.00815789960325
0.006621170789
0.00206440547481
0.000198270776309
-0.0101893218234
-0.00342842726968
0.00200669863261
-0.00089780415874
-0.000190039660083
-0.0019123716047
-0.00366777763702
-0.00381988007575
-0.00036344199907
0.000747069309
-3.36682978741e-06
-0.00661035021767
0.0122863389552
-0.00133085774723
-0.00445252237841
-0.00101928249933
0.0102046560496
0.00219056662172
-0.00428596930578
-0.00742212263867
0.00526640983298
-0.000311136303935
-0.00534265255556
0.000847871007863
-0.00307480921037
-0.00268184370361
-0.00679869111627
0.00697049219161
-0.0015747975558
0.0018333743792
-0.000345232721884
-0.00283220899291
-0.00536448461935
0.00181784003507
-0.00507472315803
0.00400097528473
-0.00158171588555
-0.00759299239144
-0.0117674646899
-0.00335968681611
-0.0035495441407
0.00530415400863
-0.00524237938225
0.000998749979772
0.00107026693877
0.00343272509053
0.00315465615131
-0.00100582267623
0.00497121922672
-0.0035321873147
-0.00609449204057
-0.00047428716789
-0.00140239472967
-0.00380011089146
0.00802608393133
-2.30009627558e-05
0.00399694172665
-0.00707303639501
-0.00127170141786
-0.00654530338943
-0.001732507837
0.000378977740183
-0.00379601726308
0.00371898082085
-0.00426296610385
-0.00382131477818
0.00418105814606
0.00729319127277
0.00215190532617
0.00119012303185
-0.00113642890938
-0.00188605475705
0.00154766812921
-0.00511967157945
0.00897061545402
-0.00171051360667
-0.00207850220613
-0.00346369063482
-0.00817546714097
-0.00295083015226
0.000143111348734
0.000770051381551
-0.00212385132909
0.00542979640886
-0.0127611225471
-0.00611421605572
-0.00668959273025
0.00691153435037
-0.00292268721387
-0.00302493013442
-0.00356867373921
-0.00160624668933
-0.00531827379018
0.00287734414451
0.000423506164225
-0.000107520281745
-0.00760303856805
0.000528627017047
-0.00120019842871
-0.00497468700632
-4.75765773444e-05
-0.00316399196163
-0.00306160678156
0.00578698702157
-0.0011956532253
-0.00305978045799
-0.00461424514651
0.00291369156912
-0.00388009427115
-0.000738122616895
-0.00218657637015
-0.00346631137654
0.0054963841103
-0.00684125162661
0.00312047917396
0.000228208155022
-0.00843075010926
0.00374390743673
0.00131973612588
-0.00670906528831
-0.00446584774181
-0.004604219459
-0.00168166763615
-0.00150845583994
-0.00877447798848
-0.00624348130077
0.000190829043277
-0.00238145911135
-0.00683726230636
0.00907965097576
-0.00654243538156
0.00526050990447
0.00211461191066
-0.00595477409661
-0.00831957533956
0.00104894768447
-0.00243059056811
0.0019537222106
-0.00179906759877
-0.000436194095528
0.00624525127932
-0.000266269256826
0.00628359382972
-0.000114400187158
-0.00340214162134
0.0056084394455
-0.00448928074911
-0.00674610072747
-0.00110681040678
0.0119689954445
0.0022644137498
0.00353397103027
0.00578395090997
-0.000760092225391
-0.0014654280385
-0.00649912981316
-0.00306364148855
-0.000673719565384
-0.00655586179346
-0.00547401187941
0.000973770860583
-0.00522687332705
-0.00536487298086
0.00213837111369
-0.00338006298989
-0.00121830636635
0.00232046074234
-0.00171643507201
0.00371536496095
0.00531663512811
0.00465531973168
0.000120210315799
-0.0136785637587
-0.000264637317741
0.011079242453
-0.00427179969847
0.000631455390248
0.000447140919277
-0.00101449724752
-0.0059006260708
-0.00897614844143
-0.00329396384768
0.00237649399787
0.0030534490943
-0.0070070954971
-0.00377527764067
-0.00408363249153
0.00670939078555
-0.00845488347113
-0.00516316434368
-0.00322442967445
-0.000565170543268
-0.00275179930031
-0.00195356714539
-0.00995536614209
-0.00198121415451
0.00427549891174
0.00592685397714
-0.00730900745839
0.000174123051693
-0.00211845571175
-0.00574146164581
-0.00414655357599
0.00173406430986
0.00850579421967
0.00415026443079
-0.00425102142617
-0.000305540947011
-0.00148243096191
-0.0119708077982
-0.00248284288682
0.000807563599665
-0.00247892318293
0.00312940403819
-0.00869424175471
0.00180993392132
-0.00251630810089
0.00122414506041
-0.00275038369
-0.0053069582209
-0.000942056882195
0.00180643668864
0.000329655973474
0.00348116015084
-0.00320845562965
0.00460883369669
0.0022034922149
0.00241809152067
-0.00529975257814
-0.00898451264948
0.00591115793213
-0.00227738264948
1.90976038539e-06
-0.0113373314962
-0.000754784152377
-0.0062299137935
0.00276796380058
-0.00392998661846
-0.00147373357322
0.00094862061087
-0.00355325452983
0.00059046637034
-0.000577748054639
0.00169813388493
-0.00606041401625
0.00482072029263
0.0055148913525
0.00632515642792
-0.00404092110693
0.0012641530484
-0.00324423541315
0.00192700314801
-0.00650019105524
-0.00726569490507
-0.000736938847695
-0.00207733153366
0.00155914307106
0.000180557981366
-0.000514983548783
-0.00697653787211
-0.00792640447617
-0.000394499540562
-0.00491361366585
-0.00797444209456
0.00413449434564
0.00560894189402
0.00707006594166
-0.00322029530071
0.00487820012495
0.00164622766897
0.00413777958602
-0.00704989908263
-0.00443060742691
-0.000774518528488
-0.0092256218195
-2.36511968978e-05
0.0126850865781
0.00235682493076
0.00463962135836
0.00219102739356
-0.000832262157928
0.00123243557755
-0.00202094367705
-0.00189598475117
-0.0113933421671
-0.00535325659439
-0.00596519932151
-0.000487673882162
-0.0060374038294
-0.0028010122478
0.00130473927129
-0.000866288493853
0.00398254487664
-0.00169423187617
0.00179995887447
0.00324858236127
-0.000303894194076
0.00500764651224
-0.00384581740946
0.00110478908755
-0.00123517971952
0.00908874627203
-0.00802374444902
0.00261996686459
1.14330086944e-05
-0.00506982393563
-0.00882563181221
0.0089131006971
-0.00497865164652
-0.00173548201565
-0.00119043583982
0.00154827127699
0.0101385675371
-0.00412553409114
-0.00679035391659
0.000835781334899
-0.00492739491165
0.000102837366285
-0.00163907161914
-0.0134234428406
0.00294641056098
-1.24554544527e-05
0.000616016099229
-0.00564098916948
0.000915425771382
-0.000576883787289
-0.00306375510991
0.00279232417233
0.00159063248429
0.000443909462774
-0.00759440148249
0.00505699310452
0.00892910733819
-0.00649613048881
0.0029568572063
0.00352050829679
-0.000571761920583
0.00013827130897
0.00302293919958
-0.0110541181639
-0.0136994430795
0.00267677870579
0.00262486678548
0.0049617132172
-0.00552634755149
0.00154983543325
-0.00524038262665
0.00189456052613
-0.000236540072365
0.00649688951671
-0.0006222454831
0.00202322052792
-0.00484478846192
-0.00616987328976
-0.000392906193156
0.00198873388581
-0.000825750408694
0.00286344951019
0.00737282633781
0.00347424461506
-0.00182232679799
0.00258087087423
0.00460318382829
-0.00152823433746
0.00140352791641
-0.000207852994208
-0.00226535578258
0.00131368357688
-2.18951499846e-05
0.00116994779091
-0.000775377091486
-0.00223282468505
0.00683026900515
-0.000252721947618
0.0039424803108
-0.00233144755475
-0.000350586837158
-0.00183582142927
0.000805045012385
0.00390152959153
0.00828182790428
-0.000306558184093
0.00385608919896
-0.00164386408869
-0.00087553251069
0.00154350826051
0.0012580974726
0.00124397163745
-0.00215846090578
0.00108666042797
-0.00360969547182
-0.00224851467647
-0.00227401312441
-0.0114293973893
-0.00786454416811
0.0013909189729
-0.00629661977291
0.00187171075959
-0.00468010501936
-0.00358245382085
-0.00528261763975
-0.00173021981027
-0.00204780977219
0.00188164820429
0.00335327489302
-0.00347305298783
-0.00328604527749
0.00212446553633
0.00966232549399
0.00146794586908
-0.000819962180685
0.0037702540867
0.00533349718899
-7.20618118066e-05
0.00753033254296
0.00140735134482
0.00727035105228
-0.0014845894184
0.000774741638452
0.00144433858804
-0.00240920786746
-0.0069717024453
-0.00155720114708
-0.0101561900228
-0.0103762792423
0.00377787835896
-0.00745913106948
0.000921438273508
-0.00688852742314
0.00240887957625
-0.000305995054077
-0.00635427329689
-0.000135400521685
0.000785754469689
4.63492579001e-05
-0.00428573880345
-0.00891888700426
0.00304375146516
0.00490822084248
-0.000466478988528
-0.00126587972045
0.00681749265641
0.00820866320282
0.00778450490907
0.000264233938651
0.00110005948227
0.0106101408601
-0.00317287654616
-0.00108335295226
0.00695494236425
0.0011470670579
0.0055222841911
0.000679749064147
0.00210753502324
0.00661152228713
0.000893518037628
-0.0019674715586
0.00439935084432
-0.00234376220033
0.00285642128438
-0.00526206428185
0.00381556199864
-0.00461368216202
-0.00211139395833
0.00412885239348
-0.00415154406801
-0.00313950772397
0.0048798546195
-0.00605436554179
0.00689322734252
-0.00855921953917
-0.0011092206696
-0.00495757721364
0.00795210525393
-0.000803244009148
0.0015498312423
-0.00192556448746
0.0038728362415
0.000468603771878
-0.00147295510396
-0.00564047368243
-0.000400394725148
0.00287389941514
-0.00793054699898
-0.00690911756828
-0.00549701415002
0.00843853410333
-0.003021374112
0.0072736190632
-0.000599340710323
-0.000116518167488
0.00132265151478
-0.00497264554724
0.00514607084915
0.00219002272934
0.00414325995371
0.00521128531545
-0.00509969750419
0.00425500795245
0.000427947961725
-0.00256322696805
-0.00310837430879
-0.00154609011952
-0.00373331061564
-0.000968785025179
-0.00445129070431
0.00179306906648
0.000160413997946
0.00148038030602
-0.0047262920998
0.00210445071571
-0.00585884833708
0.0074516357854
-0.00504706939682
-0.00617498392239
0.00406778091565
0.0042061698623
0.000979298609309
-0.00888891424984
-0.00360390474088
-0.000979615957476
-0.00091157015413
-0.00154188647866
-0.0021444526501
-0.000468968821224
0.00670754816383
0.00108101335354
0.00727754738182
-0.00615046313033
-0.005821863655
-0.00665875384584
0.00275906268507
-3.47108798451e-05
-0.00885906349868
-0.00650730030611
0.000469924212666
0.00796649325639
-0.00826668832451
-0.000429348467151
0.00177939876448
0.00593902636319
0.00111466238741
0.0105723673478
0.00990972016007
0.00502648809925
-0.0102510312572
0.00924428645521
0.00119810376782
-0.00161439646035
-0.000801451911684
0.00585587276146
-0.00382959004492
0.00351537181996
-0.00457808515057
0.00032920378726
-0.00640536798164
0.0027696499601
0.00405298080295
0.00365596916527
0.000835681159515
-0.00346246641129
-0.000745119119529
0.00134896230884
-0.00557611929253
-0.00502511672676
-0.00757277011871
-0.00343501986936
0.000177788941073
0.000688120839186
0.00314666656777
-0.0027735941112
-0.00378485303372
0.00376642122865
0.00933987181634
0.00744966324419
-0.000191170765902
0.00100359402131
-0.000979833770543
-0.00421303138137
0.00174828339368
-0.00338224205188
-0.00267821247689
-0.00701322080567
-0.00108644831926
-0.00921755842865
-0.00319499569014
0.00341536058113
-0.00225560902618
0.00312077021226
-0.00412397226319
-0.00953123625368
0.00150929938536
0.00789206568152
-0.00227766041644
0.0110024511814
0.00826388504356
0.00690065184608
0.00177615205757
-0.000499038840644
-0.00576091138646
0.00498707499355
-0.0108329644427
0.00618495326489
-0.00521785626188
-0.00204435433261
0.00316510768607
-0.0137194134295
-0.00841088593006
-0.00444736657664
-0.00723232934251
-0.00532755162567
0.00064612965798
0.00111810199451
-0.00631149439141
-0.0108923269436
-0.000407455459936
-0.00727431196719
0.0030940847937
9.22751205508e-05
-0.00743546150625
0.00775805069134
-0.00653201527894
-0.00609048781916
0.00818640459329
0.00247404701076
-0.005915901158
-0.000462664145743
-0.00114889303222
-0.00276842876337
-0.00252954848111
-0.00693683791906
-0.0010192617774
-0.00641925400123
0.00222761277109
0.00354006723501
-0.00449834717438
0.00576135469601
-0.00668255705386
-0.00510782282799
0.0014363975497
-0.00683141220361
0.00880011450499
0.00393197359517
0.00356254400685
0.00167858670466
-0.00387877295725
-0.00259446096607
6.40645157546e-05
0.000114762886369
-0.00668327510357
-0.00892662629485
0.00287251430564
0.00671030720696
0.00201295502484
-0.00390602089465
-5.26225157955e-05
-0.00186943321023
-0.0021670430433
0.000444660778157
-0.00859358534217
-0.000286709371721
-0.00320406327955
-0.00703114178032
0.00716341799125
0.00298876524903
-0.00162192992866
0.00227055209689
0.00546235591173
-0.00131480116397
0.00238256785087
0.00193059456069
-0.0021364770364
-0.000146206657519
0.00109070492908
-0.00294030387886
-0.00290598254651
-0.0151600474492
0.0046282527037
-0.00191649922635
0.000566333823372
-0.0138583350927
-0.00193280272651
0.00565249286592
-0.0037398468703
0.00667905667797
0.00247900909744
-0.0021064823959
-0.00122812844347
0.00357502792031
0.00634690700099
-0.0111122131348
0.00372382509522
0.011699073948
0.00776474550366
0.00348731921986
0.00683601386845
0.00644041970372
-0.004247660283
0.000671332352795
-0.00197382457554
0.0075473729521
-0.00399820832536
0.000413753703469
-0.00980584044009
0.000956291507464
0.0026990598999
-0.00328876310959
-0.000985685386695
0.00622340850532
-0.00641197850928
-0.015035206452
-0.00341580668464
-0.00510176457465
0.0022317240946
-0.00274466630071
0.00111376587301
-0.00655556330457
-0.00335716363043
0.00115246197674
0.00431334041059
0.00809530634433
-0.00867028255016
-0.000760894617997
-0.00316438265145
0.00313636241481
0.00445292843506
0.000966023420915
-0.00967391300946
-0.00724989920855
-0.00530469743535
-0.00241543771699
0.000803977251053
-0.00796459242702
-0.00011253116827
0.00415862677619
0.000507842574734
0.00322465132922
-0.00402758223936
-6.52336530038e-05
-0.00256687263027
-0.00721359020099
-0.00479661021382
0.00109778961632
-0.00178267690353
-0.00239312159829
0.00650610262528
0.000277669751085
0.00357270170934
-0.000287243281491
0.00747630745173
-0.00562040926889
-0.000834777951241
-0.00158703164198
-0.00218184711412
-0.00683551747352
-0.00125932286028
-0.00412992946804
-0.00313130253926
0.00422143237665
0.00120952620637
0.007062447723
-0.000786948890891
0.00583540368825
-0.00542921107262
-0.00189186597709
-0.00855543278158
-0.000838762847707
-0.00741808442399
-0.000431023450801
0.00571469450369
-0.00414888001978
0.0027670126874
-0.00412150844932
-0.00577739859
-0.00558385439217
-0.00208018487319
0.00550049450248
0.0030128301587
-0.00312920054421
0.00350861088373
-0.00162666663527
0.00245318631642
-0.000742796633858
-0.00510870991275
-0.00871215946972
-0.0129012456164
-0.00457871053368
-0.00299690081738
0.00140536844265
-0.00293781142682
-0.0125990211964
-0.0034053386189
-0.00607489608228
-0.0046465001069
-0.00166084081866
-0.00110497593414
-0.00139772985131
0.00134306203108
0.00415880605578
-0.000571674027015
-0.00346299516968
-0.0010113917524
0.011271786876
-0.00954588036984
-0.00410052901134
-0.004574181512
0.0097566768527
0.0127650452778
-0.00589891057462
0.00679771741852
-0.00421816809103
0.00915482919663
-0.00140732410364
0.0073538790457
0.00415972061455
-0.00461009889841
0.00611649686471
-0.00815453287214
-0.00143801118247
0.00290196132846
0.00134609430097
-0.00530671421438
-0.00178963714279
0.00250924518332
-0.000875792466104
-0.00365390465595
0.000517376232892
-0.00821458734572
-0.0018955534324
-0.0113539518788
-0.000308203161694
0.00280942162499
0.000524149509147
-0.00016300061543
0.000553107412998
0.000333418807713
-0.00344074307941
0.00366451055743
0.00329003972001
-0.00369851011783
0.0074948198162
0.00334526482038
0.00130437454209
-0.00143403816037
0.00666703283787
0.000172360450961
-0.000939949008171
-0.000251459656283
0.00057819718495
-0.00401552347466
-0.0100556146353
0.00185062503442
0.00331826787442
0.00537890242413
-0.00374658359215
-0.00661152647808
0.00940269604325
5.62626373721e-05
-0.00638150237501
0.000914585543796
-0.00791161693633
0.0013568715658
0.0113195870072
-0.00339830387384
-0.00429960666224
0.00263216672465
0.00784470513463
-0.000886269961484
0.000880543608218
0.00583253521472
-0.00567022291943
0.00456699589267
0.00633574323729
0.00365257146768
0.000503025890794
-0.00430042250082
0.0013884191867
0.00234981277026
0.000765467179008
-0.00176463404205
-0.000521693727933
0.00969027914107
0.00527192093432
-0.000984170241281
-0.00455993227661
0.00256055500358
0.000711316009983
-0.00577083509415
-0.00339028355666
0.0028592760209
0.000314590346534
-0.000571540556848
-0.00134412385523
0.00469695869833
0.00111594668124
0.00422450900078
-0.00873022247106
-0.00500518316403
-0.0050201555714
-0.00559079926461
0.00282623595558
-0.000559325737413
-0.00221948348917
-0.00133333343547
0.00361500121653
0.00029594390071
-0.000300855142996
-0.00208040024154
-0.00449232803658
0.0059400498867
-0.00693848449737
-0.0105451093987
0.00146653188858
-0.0006154574221
0.00746965641156
0.00194938643835
0.002888179617
-0.00281470571645
-0.00853221025318
-0.00465965969488
-0.00456287292764
-0.00285009620711
-0.00233659078367
-0.00637925090268
-0.00360640138388
0.0035449557472
0.00248941592872
-0.00488749425858
0.00956397596747
0.00648342492059
-0.00308269704692
-0.00385209568776
-0.00311107491143
0.00187688611913
0.00122412620112
0.00211730785668
-0.00260973419063
-0.000651081267279
-0.00371907302178
0.00297997659072
-0.00290361745283
0.000561109336559
-0.00393191818148
0.00741268601269
0.00872262008488
-4.01954912377e-06
-0.00237851613201
0.00453757680953
-0.00435246713459
-0.00661071203649
-0.00115332950372
-0.000695587310474
0.000666068051942
-0.0023088613525
-0.00338646769524
0.00260741985403
0.00582515401766
-0.0104346061125
-0.000762317795306
0.00167510448955
1.07947125798e-05
-0.00198187842034
-0.00960629619658
-0.00186265585944
-0.000556087703444
0.00127663114108
-0.0127370245755
-0.00307266786695
0.0116152269766
-0.00374666368589
-0.00482189329341
-0.00389048201032
0.00145947688725
-0.000652914226521
0.000624579377472
0.00174096913543
-0.00302406889386
-0.00818351749331
0.00417043361813
0.00110064214095
-0.00183298287448
0.000976546492893
-0.00640453631058
-0.000814563420136
-0.00603593932465
-0.00340890372172
-0.00439027370885
0.0040038540028
-0.00107207882684
-0.00232535111718
0.000605743029155
0.0036241854541
-0.0104162851349
0.00118468119763
-0.00173291924875
-0.00279452162795
-0.00420129997656
-0.00446498440579
-0.000758986221626
-2.10174111999e-05
-0.00379838841036
0.0049315020442
0.00370992487296
-0.004278160166
0.00089257286163
-0.00347016518936
0.00389152322896
0.00573883624747
0.00155530835036
-0.00175262149423
-0.00323739391752
0.00317896250635
-0.00365191185847
-0.00192645878997
0.00565928546712
-0.00301787839271
-0.00171067856718
0.00339105213061
0.0033816054929
0.00128749688156
0.00291381403804
0.00257602962665
0.0090505219996
-8.32736404845e-05
0.00195435411297
-0.0011573843658
0.00712774973363
0.00805913936347
-0.00337842386216
-0.00667461007833
0.00470857555047
-0.00269825570285
-0.00280386116356
-0.00505131063983
-0.00418474338949
-0.00569447595626
-0.00234864396043
0.00419621868059
0.00382174225524
-0.000393082358642
0.000853794976138
-0.00301910145208
0.00505762267858
0.00284463027492
0.0103305839002
0.00172920909245
-0.00244779931381
-0.00462285149843
-0.00323491473682
0.00287127355114
-0.0021123001352
0.0059835491702
-0.00187799124978
-0.00782621372491
-0.00176837132312
0.00465778494254
0.00154913414735
0.00508502777666
0.0018157963641
0.00105700537097
-0.000736783666071
-0.00347208976746
-0.00359762646258
0.00145869830158
0.00129902700428
0.00321575417183
0.00497678946704
-0.00717029348016
-0.00569147523493
0.00250860163942
0.00210501882248
0.0103452140465
0.00901736319065
-0.00154369592201
0.00506491679698
0.000676184543408
-0.00212177913636
-0.00372349075042
0.00531306955963
0.00383009016514
-0.00527118798345
0.0011997068068
0.00317674456164
-0.00119070766959
0.000928653054871
0.00135373976082
-0.00186026364099
-0.000144777470268
0.00367085589096
-0.00158404815011
0.00418213009834
0.00610624812543
0.00402405997738
-0.00663838488981
0.00524771912023
-0.00484072975814
0.00634836498648
-0.000877562444657
-0.00124662229791
-0.00530866207555
-0.00706074852496
0.00648205913603
-0.00658852886409
0.00273778731935
0.0053361998871
0.00928913243115
0.00716899847612
-0.000331973249558
-0.00955512840301
0.00020201219013
0.00183232990094
-0.00587833486497
0.00808253139257
0.0041732005775
-0.00447702361271
0.0109458277002
-0.00121443381067
-0.00589557690546
0.00173828494735
0.000423285033321
0.00456175720319
-0.000789435871411
-0.000736252230126
0.00618757121265
0.00252637593076
-0.00290846149437
-0.000557971710805
0.00310952635482
0.00315826991573
0.00307573215105
-0.00349135277793
-0.00241715321317
