0.0131034739316
0.0106750056148
-0.00411081081256
-0.0126306740567
0.00350940763019
-0.00697898352519
-0.00221720850095
-0.00349222566001
-0.00557928998023
0.0210978854448
-0.0210804753006
-0.00488629005849
-0.00876326393336
0.00941630359739
0.00404161540791
0.00490550464019
-0.00717570073903
0.00577130075544
0.00800912827253
0.00425121560693
-0.00534057477489
-0.00496868463233
0.0162347666919
-0.00119832379278
0.00856080744416
0.0133317532018
0.0120719624683
0.00609114114195
0.00501939002424
-0.00212256726809
0.00784824695438
0.0104609560221
0.000723728793673
-0.00180556124542
0.0157318636775
-0.00723340082914
-0.00585744855925
0.00578292598948
-0.00172910548281
-0.00233121076599
0.0024956248235
-0.0085322689265
0.00311742140912
-0.00606033951044
-0.00284836208448
-0.0134628629312
-0.00366518599913
-0.00174245098606
-0.0115902479738
0.0103705525398
-0.00509304832667
0.0191760193557
0.00215291720815
-0.00223462097347
0.00441219285131
-0.0085119958967
0.0101908138022
0.00241022603586
-0.00748863164335
0.000518861517776
0.00632556946948
0.00941720698029
0.000963642378338
0.00284098577686
0.00594092532992
0.00611198367551
-0.00469218054786
0.00199636002071
0.00696954131126
0.0049669588916
-0.00958415865898
-0.00692811701447
0.00646550720558
0.00440858956426
-0.00342317367904
0.0140729648992
0.000790550897364
0.0122246714309
-0.00480807852
0.00386651861481
-0.00504402490333
-0.00645774556324
0.00559432059526
0.00324950460345
0.0142156006768
0.00827903579921
0.00188639189582
-0.00261054513976
0.00107449025381
-0.00421642698348
0.00257696537301
-0.00102492095903
-0.00496356002986
0.000672998954542
0.00771227711812
-0.00394536368549
0.0118443742394
0.00905670691282
-0.00137105165049
-0.00541851297021
0.000380097189918
0.00880848430097
-0.00878326874226
-0.00685898028314
-0.00867466814816
9.70428445726e-05
0.0271226335317
0.000863370660227
-0.00231866259128
-0.00831120740622
-0.00869501940906
0.00147149013355
-0.013687601313
-0.00279440474696
0.000398523668991
0.00365340732969
-0.00499108899385
-0.0108122024685
-0.0044719427824
0.000171748877619
0.00381018035114
-0.00565098319203
-0.00725231459364
0.00509373890236
0.0169979445636
-0.00211579562165
-0.00720364693552
0.00766043923795
0.0503673776984
-3.87371401303e-05
-0.00260269758292
-0.0107956686988
-0.00799680966884
-0.00915317330509
-0.00429863808677
0.000995904323645
-0.0032047026325
0.040227137506
-0.0128952339292
-0.00284811900929
-0.0067898365669
0.0403941422701
-0.0101444823667
-0.00512053957209
-0.00626862142235
0.0359844826162
-0.0196486096829
-0.0208343453705
-0.00796640105546
-0.00459720380604
0.0709469392896
-0.00123887311202
-0.0134012568742
-0.00995619501919
-0.01558039058
-0.012054271996
-0.0171414744109
-0.0161008536816
0.00367017649114
-0.0149070359766
-0.00081997649977
-0.00503125647083
0.0102172940969
-0.0147503623739
-0.00545195350423
0.010513686575
-0.00487376004457
-0.00347903650254
-0.00947242323309
-0.00693735713139
0.0294684097171
0.00268649379723
-0.0445618182421
-0.00191370944958
-0.00874708965421
-0.000798027671408
-0.00960552692413
-0.011424315162
-0.00598036171868
0.00684865610674
0.0124808289111
-0.0371500849724
-0.00471963034943
-0.00504042720422
0.0140649816021
0.0113566871732
-0.0032661841251
-0.0092790890485
-0.00625802762806
-0.0102596506476
-0.000639887352008
0.00871445052326
-0.0213106516749
-0.018878897652
-0.00139316124842
-0.017385724932
0.0138474712148
0.0169476345181
-0.00819726567715
-0.00487026711926
-0.0154899787158
-0.0151293473318
0.00948951672763
0.0245618801564
0.0186401437968
0.0325417034328
-0.00576932681724
-0.0382903032005
0.00415932387114
0.000913956260774
0.00178750557825
-0.00339705334045
0.011237597093
0.00590653764084
-0.00671728979796
-0.00525867426768
-0.00723566208035
0.00697042932734
0.000423128250986
-0.00548048457131
-0.00700852181762
-0.0312087740749
-0.014373017475
-0.00881930161268
-0.0128833046183
-0.0311322845519
0.0149021008983
-0.00229201116599
-0.00872800219804
-0.0129782538861
-0.00263844779693
-0.00820772815496
-0.00533239264041
0.00624762009829
0.0291137062013
-0.00344602344558
0.0177824161947
-0.0106483194977
-0.014325867407
-0.00516453525051
-0.0186905097216
-0.00430952943861
-0.00104769819882
-0.0014500451507
-0.00398774212226
-0.0103170759976
-0.00494755944237
4.24298013968e-06
0.000926501117647
-0.00517850602046
-0.00812722370028
0.00850910320878
0.00800835154951
-0.0222627818584
-0.00458213547245
0.0054092714563
-0.000852217257489
0.0125153670087
0.00796403922141
-0.00934939552099
-0.00293794064783
0.00113984872587
0.00276544550434
-0.00413512904197
0.00664557237178
0.00994626339525
-0.0359168685973
0.00153928250074
-0.00165398709942
-0.00614272430539
0.017834039405
0.00844972860068
-0.00740767410025
-0.0067949607037
0.0233154762536
0.00878840219229
-0.00241051497869
0.00942916609347
-0.00723163085058
0.00245617190376
0.0171134024858
0.0249930471182
0.0265395324677
0.0228818543255
0.00987698696554
0.0130761675537
0.0210611950606
0.024123057723
0.00389761128463
0.0110611813143
0.0226059146225
-0.0108646601439
0.00194764602929
0.00687084114179
0.00627364963293
0.00856568943709
0.00519875995815
0.000931459187996
-0.009347114712
-0.00878410506994
0.0200114287436
-0.0131108378991
-0.000909305876121
0.00725443242118
-0.00389221403748
0.0236953627318
-0.000400022370741
0.0219908002764
0.000700228323694
0.00760080711916
0.0171490069479
-0.00807028077543
0.00593182491139
-0.0028895647265
-0.0121508836746
0.0120025258511
0.0167562551796
0.0159716848284
0.014337291941
0.00597646739334
0.0220488384366
0.013101503253
-0.00441570393741
0.00972116924822
0.0089167887345
-0.00182660901919
0.00671370793134
0.000306924484903
0.0210824199021
0.00770851410925
-0.0102776959538
0.0291931554675
-0.0102076297626
0.00891017355025
-0.016791716218
0.0267240442336
-0.0123521080241
-0.000985360355116
0.00604959018528
-0.00226225354709
0.0154982339591
0.00894039496779
0.0104137547314
0.0118063278496
0.00833463855088
-0.00922023598105
0.00759013695642
0.00520020164549
-0.000333555741236
0.0147022930905
0.0245841816068
0.00446954416111
0.0204534009099
0.0313626639545
-0.00927624944597
-0.0095772491768
0.00640905508772
0.0260692946613
-0.0196596477181
0.00830743648112
0.000172541855136
-0.00317983468994
0.0406632721424
0.00983999203891
-0.0100428424776
-0.00812360644341
-0.00937272142619
0.0120500465855
-0.0133565859869
0.00515373144299
0.0141849955544
0.0128368949518
-0.0130027905107
-0.0125912176445
0.0065266774036
-0.00278112036176
0.0158763881773
0.0050583742559
0.00511919800192
0.000222325572395
0.0351525917649
0.0132542178035
-0.0105587802827
0.0110345100984
-0.0100087169558
-0.00408940250054
0.0285466164351
0.0183696579188
-0.00869002845138
0.0187477562577
0.0115233287215
-0.000625719316304
0.0242062117904
-0.00816191360354
-0.0176416877657
0.0143083352596
0.0161447804421
-0.017740605399
0.0303430687636
0.0102203032002
0.0059646521695
-0.0162966959178
0.028272870928
0.0106732659042
0.0133853247389
0.0328804664314
-0.0161912739277
0.00942870415747
0.0227350089699
0.0141051551327
0.0108661083505
0.0336747318506
0.0167185589671
0.0326154083014
0.0252042338252
0.0101782623678
0.00678745610639
0.0309187341481
0.00749550946057
0.00501477718353
0.0173990745097
-0.00210833712481
0.0207708682865
0.0251046959311
0.0128859085962
0.0187137760222
-0.0117743117735
-0.0037327168975
0.0268023759127
0.00567637570202
0.003789690556
0.00881152413785
0.0200382713228
0.0188927389681
0.0120463166386
-0.0118051981553
0.00119701249059
0.024943748489
0.029322212562
0.00470239855349
0.00789006520063
-0.000272241450148
-0.00570826837793
0.0290614198893
0.0176819488406
0.0133156441152
0.0296304989606
0.0033608507365
0.0106711471453
0.0117595419288
-0.00440097786486
0.0147713683546
0.00451882556081
-0.00432599009946
0.0305833723396
0.0161878839135
0.0135323991999
0.00213261297904
-0.0095324004069
0.0230175498873
-0.0067427563481
-0.00176863907836
-0.00762781174853
0.0367839597166
-0.00737241888419
0.0106932297349
0.00354181532748
-0.0134415216744
-0.00291253207251
-0.00336435739882
0.0181324053556
0.0257993582636
0.00983568653464
-0.00344818388112
0.0096144117415
0.0134742986411
0.00949238799512
0.0237558726221
0.0400526113808
0.0261961184442
0.00618467899039
0.0514784269035
-0.0101432036608
-0.00546304322779
0.0122645972297
0.0244526416063
-0.00989264808595
0.0268935542554
0.021964661777
-0.00254746037535
0.018259473145
0.0225803907961
-0.00881009735167
0.00735754752532
0.00457426160574
0.0279595479369
-0.00123007665388
0.0202040970325
0.0276133771986
0.020740667358
-0.00612985668704
0.00365066714585
0.0174934025854
0.000956474279519
0.0189074277878
0.0287818592042
0.0253597348928
-0.000446981168352
0.029185468331
0.0293550752103
-0.0076898499392
0.00728686526418
0.0289222579449
-0.0178580060601
-0.00301306438632
0.0176974814385
0.00964160077274
0.00913118571043
-0.00328970467672
0.0106227071956
0.00629940861836
0.00991407688707
0.0404306314886
0.000583943561651
0.0100519908592
0.0249925907701
-0.011442524381
-0.00495747150853
0.00717829726636
0.0136868879199
-0.0188355501741
-0.00312421307899
0.0140877217054
-0.000620738894213
0.0387397743762
0.000969954417087
-0.0112716127187
-0.017402254045
-0.0196139626205
-0.0133802872151
-0.00913054868579
-0.0124324392527
-0.0161022096872
-0.0265896376222
-0.00056189467432
0.000528454955202
-0.0110002988949
0.00337813817896
0.0114000337198
0.00975031871349
0.00620857905596
-0.0039143729955
0.00464106397703
0.00261402339675
0.0289222709835
0.00869870558381
-0.0321131162345
0.0101409740746
0.000557100400329
0.000558998784982
0.0164117626846
-0.0146944988519
-0.00368925533257
-0.009336553514
0.01093142014
-0.0108088497072
-0.00886660255492
0.017149630934
0.00625996850431
0.0121732363477
0.0146067058668
0.00273559638299
-0.0170259252191
-0.00961102824658
-0.00598693685606
0.00714769214392
-0.0234612189233
-0.0147779798135
0.0115088513121
-0.0151476114988
0.0116392485797
0.0120945135131
0.00304174446501
-5.6496457546e-05
-0.0220508966595
-0.0148852104321
0.0194877143949
-0.0236193053424
0.0244331974536
0.0066251042299
0.0225537288934
-0.0362490899861
0.0122586190701
-0.0039967847988
-0.0174070540816
0.00419303774834
-0.00747436936945
-0.00248420727439
0.000905376684386
-0.00380481919274
-0.00237502902746
0.00869336444885
-0.0169192552567
0.000364081352018
0.00223306450062
-0.0244777929038
-0.0188719853759
0.0080257197842
-0.0220339857042
-0.0275835767388
0.0206581261009
0.0150198545307
-0.00626836018637
-0.0216844975948
0.0203042645007
-5.41798217455e-05
-0.000417142815422
0.00423225527629
-0.0192744471133
-0.016289524734
0.00853437744081
0.0158076025546
0.00557089969516
-0.00273576006293
0.0196683127433
0.00586974481121
-0.0157636646181
-0.00447199121118
0.0152740478516
0.0100488010794
0.00284577091224
0.00456610228866
-0.00698639452457
0.00526603823528
0.00556192919612
0.0119805587456
-0.0216625723988
-0.0140178930014
0.0123847350478
-0.00598432961851
0.0480381473899
-0.0318179279566
0.0120619395748
0.0316813401878
-0.013505580835
0.016489777714
0.0117523586378
0.000189065773156
0.0135863032192
0.0187316425145
0.0511642768979
0.0202177036554
0.0178834442049
0.0573764927685
-0.00741786230356
-0.0213968362659
0.0170293804258
0.0365788787603
-0.0256439186633
-0.0236442424357
0.0176300425082
0.0203837882727
0.0893326848745
0.00161250005476
-0.0251734275371
-0.0445836000144
-0.0575778596103
-0.0140265934169
-0.022730153054
-0.00773994531482
-0.00885410420597
-0.0698260515928
-0.0163813345134
0.00265613314696
-0.0372051559389
-0.00448630889878
0.0240768641233
0.00564160570502
0.00989364739507
0.0143949585035
-0.0149814849719
0.0214374139905
0.0506266467273
0.00319124851376
-0.0726012289524
0.0459857620299
-0.0118450410664
0.00521026505157
0.0225948598236
-0.0509647540748
-0.00297503359616
-0.0568841397762
0.0216892268509
-0.0220711212605
0.00588189391419
0.0171936582774
0.000283286412014
0.00634069414809
0.0215497761965
0.00436166767031
-0.0135834077373
-0.0466962009668
0.000100059609395
0.00210415991023
-0.0687786415219
-0.039780959487
0.0104151731357
-0.0328449234366
-0.00766900042072
0.0175479967147
0.0195290688425
0.0255182683468
-0.0529174692929
-0.0238181967288
0.0259256027639
-0.0123453121632
0.0251910276711
0.0126926228404
0.0163005422801
-0.0622274167836
0.0175180695951
0.00876246206462
-0.0268477220088
-0.00821358058602
-0.0174336917698
-0.0226639863104
-0.011827041395
0.0132920276374
-0.00679001398385
0.0435346215963
-0.0115078669041
0.0019028786337
0.0120123457164
-0.0539554357529
-0.0170061513782
0.0144213614985
-0.0577410049736
-0.0461431220174
0.0360482409596
0.0183289032429
-0.0109671894461
-0.0478830523789
0.0296270661056
0.00692173698917
0.0103596746922
-0.000157442002092
-0.023073296994
-0.00713571533561
0.0383219942451
0.0176720488816
-0.00272041931748
0.00777121027932
0.0407842136919
0.00846026744694
0.00158758135512
-0.0124630024657
0.0161775499582
0.0356955602765
0.00615742336959
-0.0140745844692
-0.0268882121891
0.0170053262264
0.0153360441327
-0.00188301526941
-0.0316670015454
-0.00806927029043
0.0124564729631
-0.0219608582556
0.00676907878369
0.00570236658677
-0.00523124122992
-0.00281882518902
0.0126837529242
-0.00182067602873
-0.000703661120497
-0.00247723306529
-0.0035146062728
0.0109997624531
0.00146624399349
0.00498567242175
-0.00495179463178
0.0171487983316
-0.00279126013629
0.000667222775519
0.0040802587755
0.0122735276818
-0.000586625596043
0.00100814248435
-0.00233801733702
-0.0040699695237
0.0152388010174
-0.00488716224208
0.0052394750528
0.00198684330098
0.00832698773593
-0.00199341005646
0.00195243151393
9.99905842036e-06
-0.00670953560621
0.00299076107331
0.00194689026102
-0.00206645065919
0.000371045636712
-0.00369294430129
-0.00707790954039
-0.00111324654426
-0.00284626125358
-0.00326188933104
0.000603565888014
-0.00224061287008
0.0092490715906
-0.0035716528073
0.000673555769026
0.0135385151953
0.00202252250165
-0.00438333721831
-0.00394551828504
-0.000194714608369
0.00642357999459
-0.000834562524687
-0.000192240680917
-0.001729319687
-0.00323086604476
-0.00371146202087
-0.00292873568833
-0.00346057396382
-0.00585446273908
-0.00304822088219
0.00350336288102
0.00123778637499
-0.00220342841931
-0.00375673198141
0.00320200016722
0.0028240182437
-0.00202710647136
0.00235769501887
-0.00123839196749
0.00222180015408
-0.00515852263197
0.00126234849449
0.000675618648529
-0.000101131736301
0.00315546058118
-0.00364157743752
0.00249041290954
0.00669062137604
-0.00382878957316
0.00317058083601
-0.00111267098691
0.00693809520453
0.00439151795581
0.00101974455174
0.000211886595935
-0.00161919964012
-0.00133920914959
-0.00367525080219
-0.000396030431148
0.0118888709694
0.00740723451599
-0.00304497662
-0.00379516812973
0.00346176302992
0.000748214370105
-0.00243163621053
0.00240164622664
0.00180192408152
0.0018714282196
-0.00270935683511
0.00676136370748
0.00159958901349
-0.00396986864507
-0.00042449409375
-0.00735356239602
-0.00332998181693
-0.00220353878103
0.00499810185283
0.00550014618784
-0.00413628853858
-0.00118000304792
-0.00404893700033
-0.00545388646424
-0.0022929708939
-0.000864308211021
-0.00224915519357
-0.00481894565746
0.0035881632939
-0.00381908752024
-0.000736316433176
-8.29611235531e-05
-0.00483640935272
-0.00278262398206
-0.00446090009063
-0.00454327650368
0.00180866604205
-0.00153420423158
-0.00305153988302
0.00535231409594
0.00750922597945
-0.00741966022179
-0.010793059133
0.00827522017062
-0.00491429492831
-0.00446119718254
-0.00234597199596
-0.0107889771461
0.0185014102608
-0.0119911879301
0.00476217549294
-0.0117527153343
0.0145073859021
-0.00362032977864
-0.00164865399711
0.00260196719319
0.00987291894853
-0.00194535101764
0.00023387807596
-0.00598275987431
-0.00402769306675
0.0170789379627
-0.00898049212992
0.00141378678381
0.00165014259983
0.00482482742518
-0.00387236243114
-0.0010989807779
-0.00289544370025
-0.0019067961257
0.00425063166767
-0.00142453063745
-0.00761364679784
0.0069595258683
-0.0074761020951
-0.0138549245894
-0.00458110589534
-0.00662737619132
-0.00787642225623
-0.00346870906651
-0.00330450478941
0.00350244576111
-0.00273908674717
0.00274433824234
0.00457714311779
6.81054152665e-05
-0.0101468944922
-0.00944939628243
0.0014916351065
0.00277168536559
0.00803252309561
-0.00462979497388
-0.00418232847005
-0.00657810317352
-0.00841386336833
-0.000735624227673
-0.00362032279372
-0.0113370828331
-0.00391063652933
0.00445174053311
0.00361090409569
-0.00511340610683
-0.00370600516908
0.00283715524711
0.00172432081308
-0.0096448995173
0.0039668274112
-0.00110908248462
0.00133229629137
-0.00582922389731
-0.00619749771431
0.00226514320821
-0.0018838623073
-0.00251475023106
0.00563647923991
0.00134355889168
0.00976324267685
-0.0063999495469
0.00299995951355
-0.0027059908025
0.00790879223496
0.00713905412704
-0.00496279913932
0.00865897536278
0.00104184565134
-0.00316792493686
-0.00761754857376
-2.06131289815e-06
0.00792685896158
0.00482452474535
-0.00600616401061
-0.0136300940067
0.00080915458966
-0.000506187789142
-0.0059359963052
0.00464505935088
0.00158016954083
-0.00483359908685
-0.00907019339502
0.00577300647274
0.00425036437809
-0.0114673785865
-0.0113203115761
-0.0094916569069
-0.00400108471513
0.00240777991712
0.00617279671133
0.00190041877795
-0.00766414357349
-0.00340877659619
-0.00650265952572
-0.0195316839963
-0.00638705678284
-0.00531780859455
-0.00518752727658
-0.00895123556256
-0.00405279872939
-0.00610747979954
-0.000301351654343
-0.000815422856249
-0.00894412118942
-0.00468067452312
-0.00168540480081
0.00135177304037
-0.00276686507277
-0.00845257006586
-0.000130592088681
-0.0113712158054
0.00663196109235
0.0125656425953
0.0164063610137
0.0174665693194
0.00900192465633
0.0118319792673
-0.006159061566
0.00409840978682
-0.0041120769456
-0.00252575683407
0.0283462740481
0.00699878623709
0.00415108259767
0.011955903843
-0.00220111617818
0.0179252810776
-0.00254501937889
0.0100178020075
0.0123575236648
0.0104264235124
0.0234926082194
-0.00815135706216
-0.00558491330594
0.0149091277272
-0.0047331629321
0.00526509294286
0.0130232218653
0.00395387783647
0.0158731602132
0.00440021511167
-0.00837837345898
0.000213342937059
0.00973280519247
-0.00899936817586
-0.00254723406397
0.00182506209239
-0.00984629057348
0.00972262211144
0.0144679695368
0.000262329500401
0.0210759583861
-0.00273686787114
-0.00906910002232
0.0125332605094
0.0355616360903
0.0028119974304
-0.000205592572456
0.0142806489021
-0.00509118894115
0.0122258737683
-0.0277632065117
-0.00527224503458
0.0177912786603
0.0164609979838
-0.00150622974616
-0.0110346637666
-0.0114430291578
-0.00834568124264
0.0147407297045
0.0215469319373
-0.00336274527945
0.00896560586989
-0.0110101783648
-0.0038851913996
0.0104320710525
-0.00645988667384
0.0132033573464
-0.017930412665
-0.005909553729
0.0182487312704
0.0220634005964
0.000558451749384
0.00258518219925
-0.00321389804594
-0.00456780893728
-0.0110434340313
-0.0103113176301
-0.0070334803313
0.0186294205487
-0.00760651892051
0.0178791638464
0.00419555045664
-0.00117044255603
-0.0137837659568
-0.0171821936965
0.00619232840836
0.0149494884536
0.00415302906185
0.0220724903047
0.00778880994767
0.00332245556638
0.000104104845377
0.0110160121694
0.0148883620277
0.0133803421631
-0.0031244775746
0.0219652205706
-0.00311139319092
-0.00667911302298
0.0121641727164
0.00440392596647
-0.00774911325425
0.0127924503759
0.00558836897835
-0.0105667915195
-0.0139026576653
0.0124286357313
-0.00563613837585
0.00482153473422
0.00513183232397
0.0122662447393
0.0194322187454
0.00588216260076
0.0105825318024
0.000559916545171
-0.00957522448152
0.0190903954208
0.00434731459245
-0.00703642750159
0.000568994844798
0.0117193721235
0.0115074915811
-0.0136294923723
-0.0031553292647
0.0183247476816
-0.00730580976233
-0.0134032452479
0.0291320495307
-0.00783800706267
-0.0146169289947
-0.00243348139338
0.0234973151237
-0.00497768633068
-0.0063113886863
-0.00109089247417
-0.014092925936
0.0301097501069
0.0175482537597
0.00641169212759
-0.00852840952575
0.0390613414347
-0.0155260963365
-0.0081986123696
0.00815320573747
0.0242919959128
-0.0215350054204
-0.00429376401007
-0.000874063989613
-0.0117584411055
0.0489152781665
-0.00749880447984
-0.0120135685429
-0.0161411613226
-0.0100708641112
-0.0174817219377
-0.0121431052685
-0.0127715338022
-0.0162678770721
-0.0108277201653
0.000371312635252
-0.0138736991212
-0.000123696445371
-0.00233906460926
-0.0165100283921
-0.00760897994041
-0.00966859795153
-0.0152519382536
-0.00394573388621
-0.00512818153948
0.0254907291383
0.00355508178473
-0.0199062805623
0.0212183631957
0.00179757049773
-0.0166524611413
-0.000865923357196
-0.0124532524496
0.00742463953793
-0.00287411618046
-0.000144089673995
-0.014958598651
-0.0175287742168
0.00230146129616
0.00333089870401
0.00232416717336
-0.0028428377118
-0.0108711272478
-0.00632330682129
-0.00420752866194
-0.0144969616085
-0.00685886153951
-0.010219655931
-0.00710842432454
-0.00369220599532
-0.0038486297708
-0.000357008073479
0.00922632496804
-0.00998234376311
-0.00685131317005
-0.0123239168897
-0.0117199467495
0.0117815323174
-0.016833294183
0.0197415519506
0.0140882618725
0.00947445910424
-0.0179951414466
0.00552589911968
0.013691527769
-0.00146315153688
0.00142279535066
-0.0038948552683
-0.000679838471115
-0.00235516042449
-0.0166240576655
-0.010540719144
0.02519896999
-0.00473391404375
-0.00860268063843
-0.0175669509917
-0.0109450146556
-0.0163258053362
-0.00671493401751
-0.00691308313981
-0.0200135186315
0.00990977883339
8.64337780513e-05
-0.000426664220868
-0.0128702688962
0.00393238663673
-0.0170852094889
-0.00958721153438
-0.00103648146614
-0.024829287082
-0.00707322685048
0.00787960272282
-0.00173745979555
-0.00239723804407
-0.0167707446963
-0.0122985532507
-0.00667753769085
-0.0162007901818
-0.00936103146523
-0.000523914175574
0.00747717358172
-0.00802951771766
0.00361669342965
-0.00550319766626
-0.0102031202987
-0.00407062284648
-0.00101273471955
-0.0251613035798
-0.0104491002858
0.000947199820075
-0.00556320371106
-0.0127892764285
0.00491531239823
0.00743750762194
0.0112535292283
0.0113617964089
0.00757977087051
0.0119731696323
-0.00786456186324
0.00201823655516
0.000925695116166
-0.00158354337327
0.0279271937907
0.00433270027861
0.00945332553238
0.00990699697286
-0.00673639029264
0.0170429684222
-3.04985769617e-05
0.00787017401308
0.0108539080247
0.00800983887166
0.0180530697107
-0.00376067357138
-0.00455685844645
0.00803497154266
-0.0123900314793
-0.00479435687885
0.00985920801759
0.000350546994014
0.0161425154656
0.00220468221232
-0.0228434447199
0.00345164025202
0.0043754982762
-0.0175625551492
-0.00574101042002
0.00165028485935
-0.0137361399829
0.00647883489728
0.0108101721853
-0.00500749982893
0.0179662555456
-0.00243760016747
-0.00964226573706
0.00486936978996
0.0367395058274
0.00157627637964
-0.00253358343616
0.0105413896963
-0.0145332664251
0.0109949801117
-0.0376163236797
-0.00998117402196
0.0182205326855
0.0173744987696
0.000829644850455
-0.0125207686797
-0.0120305633172
-0.0104307867587
0.0112362643704
0.0181408300996
-0.011789332144
0.00622080825269
-0.011903163977
-0.0167101696134
0.00509655382484
-0.00887206941843
0.0136252669618
-0.0216144863516
-0.00565680395812
0.0137351416051
0.0198556836694
-0.00909909885377
-0.00229984195903
-0.0055937631987
-0.00321573670954
-0.012872277759
-0.00988834165037
-0.00837718322873
0.0152405817062
-0.00448472611606
0.0218803677708
0.0076361480169
-0.00213629030623
-0.0183512158692
-0.0252929273993
0.0046240221709
0.00960496906191
-0.000932721013669
0.0269995257258
0.0073907058686
0.00480731576681
0.00095092394622
0.00775926327333
0.0122626945376
0.0101557951421
-0.0153899360448
0.0178392827511
-0.00576219987124
-0.00758139835671
0.0108643071726
-0.0015109203523
-0.00835994258523
0.00878986809403
0.00798215903342
-0.0129974735901
-0.0171985495836
0.0140610933304
-0.00128014979418
0.00525072170421
0.00124453532044
0.00946855451912
0.0111148906872
0.00464840838686
0.009735356085
0.00131440872792
-0.00775478128344
0.0213892776519
0.00302600418217
-0.00443725613877
-0.00370672438294
0.00944687891752
0.00814049504697
-0.0159840807319
-0.0120930494741
0.0202310308814
-0.00715196877718
-0.0192632135004
0.00861422624439
0.0143745280802
-0.00422016251832
-0.0194950606674
0.00116332247853
-0.00692405039445
-0.0033931969665
-0.00229703052901
-0.00569936074317
0.0223204493523
-0.0321505889297
-0.00619745161384
-0.0115441652015
0.00573634402826
0.00358528736979
0.00565789360553
-0.00795794278383
0.00709066400304
0.00759091647342
-0.000644391111564
-0.00849374011159
-0.00707511696965
0.0112723391503
-0.000108960230136
0.00894839316607
0.0158471930772
0.0167136527598
0.00853001978248
0.00191466149408
0.00172566738911
0.0144257862121
0.0154465632513
0.00435766112059
-0.00131608406082
0.0226945541799
-0.0100939162076
-0.00961388740689
0.00432257121429
-0.00388150173239
-0.00335531076416
0.00180750049185
-0.00871754344553
-0.00353562901728
-0.0035917754285
0.00396885676309
-0.0128857512027
1.00232955447e-05
0.000589851639234
-0.0167120583355
0.013469433412
-0.000671684043482
0.0199848953635
0.00122976931743
-0.00445716688409
0.00512001989409
-0.00886453688145
0.0085478592664
0.00079853925854
-0.0118674812838
-0.00245772511698
0.00863379985094
0.0122081097215
0.0052344519645
0.00531772337854
0.0127847688273
0.00640220195055
-0.00381202227436
0.00564449606463
0.00913599971682
0.00135132775176
-0.00847966875881
-0.00713604642078
0.0129720699042
0.00217732763849
-0.00476940535009
0.0269873924553
-0.0034734015353
0.0154678374529
-0.0138249183074
0.00939288921654
-0.00882281549275
-0.00325905997306
0.017410999164
0.00276658963412
0.0137903895229
0.0106108160689
0.00207869126461
-0.00418021529913
0.00369370426051
-0.00444916076958
0.00629227235913
5.86873975408e-05
-0.00584129849449
0.0036973063834
0.0110443755984
-0.00719852140173
0.015907663852
0.00967087782919
-0.00600687786937
-0.00893066450953
0.00517555931583
0.015009730123
-0.0154723450541
-0.00469552958384
-0.0101029835641
-0.000223268812988
0.0367056801915
0.00648838747293
-0.00244594179094
-0.00874185189605
-0.0101037202403
0.000167102130945
-0.0212561264634
-0.00340108200908
0.00458678370342
0.0064238794148
-0.00998023152351
-0.016123291105
-0.00165540829767
-0.000552529294509
0.0103121483698
-0.00845070555806
-0.00723128486425
0.000713573186658
0.0257535539567
-0.00104169931728
-0.0106144966558
0.0103605408221
0.00270552095026
-2.38749889832e-05
0.0120671577752
0.0125187532976
0.00281396461651
0.0044354214333
0.0135892033577
-0.00741641689092
0.0102578382939
-0.00170306081418
0.00271291541867
0.0211402419955
0.0084525346756
0.0196600053459
0.00613090628758
-0.00749657861888
0.00980454310775
0.0134510928765
0.00256497762166
0.00126382545568
0.00380390137434
0.0156622286886
0.0128630753607
-0.00208008382469
-0.00177428510506
-0.014615913853
-0.00700404774398
0.00351582490839
-0.00283065391704
0.00850745663047
0.00167723349296
-0.0220448747277
-0.00256963493302
0.00288857915439
-0.0158713739365
-0.00875723920763
0.00835766643286
-0.00461433222517
0.00739427935332
0.0191520527005
-0.00724109634757
0.0175511259586
0.00930202100426
-0.00573744764552
-0.00609449809417
0.0354567877948
-0.00113800016697
0.00800087675452
0.00730051007122
-0.0156380906701
0.00981192477047
-0.0297412313521
0.00137021148112
0.00548896193504
0.0144762629643
0.00128718581982
-0.00960918050259
-0.0102914981544
-0.00200233398937
0.00554099027067
0.00865460466594
-0.0144957732409
0.00793413352221
-0.00626217527315
-0.0199945289642
-0.00370591669343
0.00128640444018
0.00252067390829
-0.0176073554903
-0.000744571269024
0.0105350781232
0.0205698087811
-0.0112157622352
-0.00252854218706
0.00273122615181
-0.00250227353536
3.21207262459e-05
-0.001121818088
-0.00595009932294
0.00142312445678
-0.0023756083101
0.0122753800824
0.00182224647142
0.00150017696433
-0.0156134972349
-0.0167333763093
0.000191575760255
0.0149245932698
-0.00219600484706
0.0270074252039
0.00898669101298
0.00775184389204
0.0142455343157
-0.00339529919438
0.00271648610942
0.00719724409282
-0.0154273724183
0.00262209447101
0.00838859938085
2.75601742032e-05
0.0075668762438
-0.00482979184017
-0.00226443470456
0.0208973642439
0.00721774809062
-0.00586241809651
-0.00448041409254
0.0110589945689
0.0109253264964
0.00171132350806
-0.00536175677553
0.0102689163759
0.0219655316323
0.00403399951756
0.0118606640026
-0.000570671225432
-0.00166896136943
0.0261508561671
0.00456900522113
-0.00934161432087
-0.00568463699892
0.0114227579907
0.00824189465493
-0.0110969366506
-0.00887432228774
0.0121618667617
-0.000947859021835
-0.0134004037827
0.0268984120339
-0.000295680685667
0.00174698408227
-0.00418011145666
-0.00076476787217
-0.00367471110076
0.00495707197115
-0.00306641147472
-1.82974763447e-05
0.0252077504992
-0.010749289766
0.00561166973785
-0.00358670507558
0.0343442633748
-0.00310498313047
-0.00571464560926
0.000493790954351
0.0289522074163
-0.010715524666
-0.0142842419446
-0.00322612281889
0.00269445101731
0.0505539737642
-0.00302287749946
-0.0106481928378
-0.00681235268712
-0.0133208110929
-0.00288264919072
-0.0125051066279
-0.00636995816603
0.00514462031424
-0.0156901609153
-0.00263553252444
-0.00189196621068
0.00271220505238
-0.0142039852217
-0.00316241499968
0.00191208871547
-0.00110626709647
0.000267687195446
-0.0098127881065
0.00137113791425
0.0235280841589
-0.00139367463998
-0.0304481871426
0.00619608396664
-0.00939512904733
0.000931231363211
-0.00338336685672
-0.0134012307972
-0.00192858546507
-0.00181986636017
0.0046924543567
-0.0221549738199
0.00123290007468
-0.00610244832933
0.00211027776822
0.00115168932825
-0.00782510824502
-0.00222285604104
3.41634586221e-05
-0.0104619236663
0.000378714408726
0.00111546635162
-0.01798289828
-0.0136982025579
-0.0050403624773
-0.0123539250344
0.00169570487924
0.00687452172861
-0.00126145232935
0.00232151965611
-0.0156451165676
-0.010491666384
0.0073314816691
0.0127350799739
0.00738570885733
0.018872641027
-0.00919131189585
-0.027903445065
-0.00265658297576
0.00384339969605
-0.000274091144092
-0.00530531164259
0.00654740817845
0.00218462594785
-0.00568892620504
0.000395565555664
-0.00108196015935
0.0156829375774
0.00598795153201
-0.00230753840879
-0.00110710540321
-0.0216378979385
-0.00587161816657
-0.00323800626211
-0.0126281892881
-0.018066637218
0.00780248409137
-0.00483335833997
-0.00177807768341
-0.0111928740516
-0.00630170246586
-0.000643360777758
-0.00394910853356
-0.00282618333586
0.0196298621595
0.00628069322556
0.0136851053685
-0.00681520765647
-0.0125651946291
0.000413553003455
-0.00564059056342
-0.00218537147157
0.00263414811343
-0.00221697776578
-0.00620788056403
0.00035378622124
-0.00199895724654
-0.000935642863624
-0.00479684956372
0.000281349202851
-0.00285013695247
-0.000682841055095
0.00682288222015
-0.00882107205689
-0.00700923521072
-0.000927954446524
0.0480791404843
0.0020233404357
-0.000808933342341
-0.0162564963102
-0.0191825721413
-0.00819637347013
-0.00400430895388
0.00077936204616
0.000105740255094
0.0349252820015
-0.0274934601039
-0.0111228255555
-0.00573236029595
0.0232971571386
-0.00113974604756
0.00323632941581
-0.0131065230817
0.0244254283607
-0.00536286924034
-0.0195292737335
-0.0124739101157
-0.00403641629964
0.0557517260313
0.0013861625921
-0.00734886294231
0.0111164329574
-0.00310347019695
-0.000979322707281
-0.00732977874577
-0.00986661761999
0.0173145122826
0.000844239955768
0.00085331016453
-0.000806567550171
0.0217707790434
-0.0177214089781
-0.00248944014311
0.0190472807735
-0.00153039721772
-0.00024580815807
-0.00103727646638
-0.00701675144956
0.0150074940175
0.00191312923562
-0.0362996272743
-0.0228739827871
-0.00683534098789
0.00588053930551
-0.0135225737467
0.00722930347547
-0.0112552670762
0.0386474505067
0.016181871295
-0.0364847145975
0.000835740822367
-0.00595565652475
0.0235094763339
0.0144542697817
-0.00325909489766
-0.00720081897452
-0.00720820995048
0.000661727855913
0.00294813909568
0.0154998721555
-0.0108539108187
-0.0153848882765
-0.00107262004167
-0.0191134139895
0.0217597838491
0.0141267990693
-0.0077278027311
-0.00888196751475
-0.00216594082303
-0.0100948233157
0.00480299862102
0.0411875136197
0.01245442871
0.0364486090839
-0.00706801423803
-0.0327987521887
0.00301894801669
-0.00899069663137
0.00357482116669
-0.00301885325462
0.0234153866768
0.0240403618664
-0.00255527463742
-0.00180013349745
-0.00245840987191
-0.00546744186431
0.000458964030258
-0.00216505955905
0.00128439022228
-0.0254654511809
-0.00120022566989
-0.00959394685924
-0.00220815371722
-0.0200169142336
0.00802454911172
0.000276410544757
-0.00861572753638
-0.00199087546207
-0.00567129533738
-0.00133990414906
-0.00637201778591
0.0067774541676
0.0510661005974
-0.000709173211362
0.0110986465588
-0.010717542842
-0.0161297451705
-0.000812700367533
-0.0230652876198
-0.00221486482769
0.00336122559384
0.00575214624405
-0.000690153683536
-0.0202348027378
-0.00150292424951
0.00010410437244
0.00797021668404
-0.00417962158099
-0.00471869669855
0.0179697722197
0.0267218016088
-0.0217516832054
-0.00355978379957
0.0182997621596
-0.00515409465879
0.00692750746384
-0.00227596261539
0.00625149579719
0.0238310415298
0.00482227280736
0.00613491376862
-0.00783641263843
-0.00368206412531
0.00410808157176
0.00856107659638
0.0199705958366
0.000351930269971
0.0145952133462
0.000901549705304
-0.00720713520423
0.014325408265
0.00540036335588
-0.00464319065213
0.0041005210951
0.0047535309568
0.00470047304407
0.00649577984586
-0.00641712360084
-0.00120057608001
-0.0112943155691
-0.000108524873212
-0.0027170071844
-0.00568816997111
0.00291001214646
-0.00644323509187
-0.0117325196043
0.00138247653376
-0.00303131714463
-0.00417360477149
-0.00528966309503
-0.00704046478495
-0.0134035004303
-8.11517602415e-05
0.00253618205898
-0.00416486384347
0.00960859283805
0.00672008423135
-0.00414565112442
-0.000437547481852
0.0353086516261
0.000453019049019
-0.00409350404516
0.00538358045742
-0.0103636244312
0.0106624811888
-0.0221265554428
-0.00534641230479
0.00553287146613
0.00538006098941
0.00170849461574
-0.00890453904867
-0.00994096603245
-0.00441264314577
-0.00204400043003
0.00856621842831
-0.00718097388744
-0.000641434337012
-0.00829337909818
-0.0103342458606
0.00366908544675
-0.00708185695112
0.00950903259218
-0.0111062610522
-0.00172716216184
0.00471460912377
0.0118955876678
-0.00529272202402
-0.00248788809404
0.00251394067891
-0.00942130479962
-0.00193546316586
-0.0016645998694
-0.00405834522098
0.00686588557437
-0.00142371177208
0.0175449475646
0.00840953923762
0.00790592003614
-0.01190267317
-0.00846778322011
-0.00115157105029
0.000437032897025
-0.00234019570053
0.0264509189874
0.00663310615346
-0.00221592234448
-0.00444856286049
0.000789905898273
-0.00145258882549
0.000270934717264
-0.00658055068925
-0.000805583491456
0.00236100400798
-0.00332260131836
0.00837016385049
-0.000483846408315
-0.00346939708106
0.00489236740395
-0.00118022761308
-0.00669679231942
-0.011934613809
0.00489838700742
0.00507869618014
0.00484107574448
-0.000347606342984
-0.00116041488945
0.0124254422262
-0.00060414953623
-0.00234283995815
-0.00547559466213
-0.00683095771819
0.0171200595796
0.00223599979654
-0.00358934234828
-0.00345029425807
-0.00191809854005
0.00166186830029
-0.0115523207933
-0.0131817441434
0.00773447426036
-0.00468245800585
-0.00872709415853
-0.0103538958356
0.00517235975713
0.00918437633663
-0.00412460789084
0.000947623339016
-0.000677737931255
0.0138714071363
-0.0128434719518
-0.000653949566185
0.00673627806827
-0.0289220027626
0.0215173140168
-0.00134599767625
0.0143960658461
0.0114239295945
-0.00198782398365
0.0104097025469
0.011968373321
0.0122610088438
0.00538329407573
-0.00506985746324
0.0157441683114
0.00398499565199
-0.00646059960127
0.0067432411015
0.00357395946048
0.00835380516946
0.013926435262
0.00192313699517
0.0151649434119
0.0107623459771
-0.00866053253412
-0.00423500267789
0.00338769285008
-0.00353281991556
-0.0148146292195
-0.00645315600559
-0.0137012815103
0.00210813642479
0.0106195500121
-0.00794990360737
0.0104213189334
0.00119240081403
-0.017015254125
0.0014749285765
0.0258041545749
-0.00658399565145
-0.00151006109081
-0.00441487319767
-0.00538131874055
0.00780114904046
-0.0163735914975
-0.00927906297147
0.00608991133049
0.0147114396095
-0.0140755316243
-0.0162140447646
-0.021387455985
-0.0166230853647
0.00823687016964
0.0220562424511
-0.00516518903896
0.00415648333728
-0.0159358438104
-0.00610952312127
0.00417041825131
-0.0135666290298
0.00556461466476
-0.0198913142085
-0.00839642900974
0.00919575616717
0.0115886023268
-8.33192607388e-05
0.00684381416067
-0.00724434573203
0.0108263967559
-0.0172139629722
0.00353630469181
-0.0244434494525
0.0129198739305
-0.0157862622291
0.0176891796291
0.00291998917237
-0.00779831083491
-0.00110976677388
-0.014029529877
-0.000964054837823
0.00894774962217
0.00683374144137
0.0271530020982
0.0157787799835
0.00219329004176
0.00216589169577
0.0032172256615
0.0112607795745
0.00368433631957
-0.00249548908323
0.0160418786108
-0.0086687207222
-0.0154511258006
0.0140747809783
0.00903073884547
-0.0207064859569
0.00981985125691
-0.000529299199115
-0.0161201450974
0.00496293930337
0.0203051362187
-0.00294327759184
-0.00964784901589
-0.0104172294959
0.0115898912773
0.000633606861811
-0.00298064597882
0.0157967638224
0.00182055751793
-0.0205521713942
0.015400887467
-0.000807958713267
-0.0100745139644
-0.00683901272714
0.00416943104938
0.00179117510561
-0.0214253403246
0.00968726817518
0.0153890550137
-0.0163594987243
-0.00728152738884
0.00885986257344
-0.00163631269243
0.0008124463493
0.00389953097329
0.012443754822
-0.00304030673578
0.00502640288323
-0.0112866768613
-0.00234539154917
0.00930886156857
0.00465595349669
0.0112684601918
0.00215111137368
0.028725259006
-0.00389661779627
-0.00714907050133
0.00852909684181
0.022366899997
-0.00613501761109
0.00013417788432
-0.0031856589485
0.00273715611547
0.0267485808581
-0.00541320396587
-0.00508484989405
-0.00588731793687
-0.00232768408023
-0.00113780214451
-0.00586997065693
0.000248950411333
-0.00837059132755
-0.00667991116643
-0.00598365068436
-0.0049454504624
-0.00793942715973
-0.00983095634729
-0.0027424339205
-0.0108128413558
-0.00254782987759
0.00341639434919
-0.00919904373586
0.00571945030242
0.0193213522434
-0.00883593503386
-0.00293608289212
0.0321853160858
-0.00598508166149
-0.00325217633508
0.00119024922606
-0.00967660639435
0.00703571178019
-0.0138656245545
0.00256822817028
-0.00310000637546
0.00369053450413
-0.00338479969651
-0.0106026930735
-0.0113989748061
-0.0048617948778
-0.00131689594127
0.00513243861496
-0.0102343065664
-0.00277475803159
-0.0112060178071
-0.00761099904776
-0.00346847902983
-0.00465842988342
-0.000748464721255
-0.015815358609
-0.00304332724772
0.00212533003651
0.00899783521891
-0.00776289682835
-0.00266798608936
0.00789884477854
-0.0153209473938
-5.74505975237e-06
0.00515842018649
-0.00647065695375
0.000984758604318
-0.00385754695162
0.013754020445
0.000451744708698
-0.00425941403955
-0.00939901918173
-0.00945109315217
-0.00760773988441
0.00383915379643
-0.0015763110714
0.0290606748313
0.00631447555497
-0.00430522160605
0.00294499634765
-0.00249679759145
-0.0086112068966
-0.00340539496392
-0.00760515034199
-0.00631573796272
0.00999761000276
-0.00126333511434
0.00713668670505
-0.00413050735369
-0.00452359067276
0.00967890676111
-0.00150642567314
-0.0103585533798
-0.00853312108666
-0.000408068037359
0.0125379813835
-0.000243166519795
-0.00965969637036
-0.000691443157848
0.0145588852465
-0.00357074709609
-0.000934359210078
-0.00751516921446
-0.00517047289759
0.0218246616423
-0.00125006295275
-0.00731781544164
-0.0109938094392
-0.00143350264989
-0.00246105040424
-0.0140580916777
-0.010867735371
0.0067606694065
-0.00227745599113
-0.0114354295656
-0.0386994853616
0.0222113989294
0.0121328374371
0.00563335418701
0.0121702533215
0.0107912002131
0.0175860431045
-0.00864713545889
-0.000792311679106
-0.00149962527212
-0.0262043457478
0.0343745797873
-0.00249752774835
-0.00527766905725
0.0213386192918
0.00341681879945
0.0209036227316
-0.0109711848199
0.0265017300844
0.0220664031804
0.00720914220437
0.0252006649971
-0.03077666834
-0.00610771030188
0.0243019219488
0.0138747310266
0.0231852885336
0.023138012737
0.0163131356239
0.0227855145931
0.0114368377253
0.00175869034138
0.00071954226587
0.0106439068913
-0.00404707761481
-0.00777731323615
-0.00488920416683
-0.0175051912665
0.0115123176947
0.0157112423331
0.00250589498319
0.0234562307596
-0.0210778731853
-0.01994664222
0.0198525693268
0.0359621793032
-0.00327291549183
-0.00296795298345
0.00838536489755
0.00744602270424
0.0144930733368
-0.0216964911669
-0.0217227563262
0.0289402678609
0.0257663987577
-0.00698021380231
-0.0231343023479
-0.0262290332466
-0.0224699825048
0.0197567231953
0.032626952976
0.0080526843667
0.0118718445301
-0.0176895931363
0.00697172619402
0.0210207849741
-0.0138750839978
0.0233597960323
-0.0306591652334
-0.016745172441
0.0202046241611
0.0245196204633
0.0141586763784
0.0162405576557
-0.0198006145656
0.00602181395516
-0.0314122661948
-0.0152728511021
-0.0179820712656
0.0426171831787
-0.0214898325503
0.0255769509822
0.0105242952704
-0.00700933951885
-0.00527832750231
-0.0219775568694
0.00845586508512
0.0161776654422
0.0099628791213
0.0231618396938
0.0126599054784
0.00796099472791
-0.0048221340403
0.0261515937746
0.0283165089786
0.017489977181
0.00954800657928
0.0406640246511
-0.0214171800762
-0.0242459345609
0.0186697859317
0.0236250180751
-0.0215454548597
0.00398917123675
0.00343669508584
-0.0167146902531
-0.0173633545637
0.0213372353464
-0.0135669521987
-0.000259587046457
-0.00121103855781
0.0173072777689
-0.00177748652641
0.00695953983814
0.0196507889777
0.00339227262884
-0.0231408700347
0.0163804553449
0.00580850755796
-0.00932570267469
0.000515357998665
0.0125796720386
0.0134600521997
-0.0263499263674
0.00394067261368
0.0294796805829
-0.0193674582988
-0.0145607767627
0.0649758800864
-0.00229062978178
0.00284026120789
-0.00392824038863
-0.0131575120613
0.000147688260768
-0.00114341161679
0.00218418170698
0.00430255522951
0.0383988246322
-0.000605228007771
-0.0128943892196
0.00393553450704
0.0321144200861
-0.00433320552111
-0.00070337112993
-0.00967095606029
0.0288394186646
-0.0175836607814
-0.0270958002657
-0.00270299986005
-0.00119117484428
0.0774492919445
0.00442545441911
-0.0129546187818
0.000958551827352
-0.0190854277462
-0.00356206041761
-0.0132473036647
-0.0155924307182
0.010400434956
-0.010473780334
-0.00199901941232
0.00423569697887
0.0181542262435
-0.00785342790186
0.00492940982804
0.0224499069154
0.000784132396802
0.00289196311496
-0.00406469125301
-0.00323856831528
0.031459171325
0.00933662801981
-0.0527542680502
-0.021493582055
-0.0119062941521
0.00949607416987
-0.0031172928866
-0.00076299184002
-0.0109358727932
0.0292747355998
0.0277679990977
-0.0423902273178
-0.000869289506227
0.00354889221489
0.0286697968841
0.0247500296682
0.00789344962686
-0.00598711892962
-0.0128678781912
-0.00997160468251
0.00486378837377
0.0232633370906
-0.0225421413779
-0.0261440239847
0.00425154156983
-0.0256580356508
0.0261936038733
0.0215860847384
-0.00486639235169
-0.00346877076663
-0.0164965372533
-0.0191648229957
0.0167338270694
0.0241176951677
0.029492277652
0.0363789759576
0.00483908457682
-0.0541275925934
0.0154703184962
-0.0160766877234
-0.00107387709431
0.00239780708216
0.0195230264217
0.023030962795
-0.00176371994894
0.00277619902045
-0.00777729786932
-0.00929582305253
-0.00911352876574
-6.82658064761e-05
0.00362526066601
-0.0425432473421
-0.00814415793866
-0.00325906160288
-0.0107724666595
-0.0324440225959
0.0239298027009
0.0117839546874
-0.0156321097165
-0.0138699291274
0.0102047398686
-0.00125734531321
-0.0012467087945
0.0143844559789
0.0475716292858
-0.0129098519683
0.0190974771976
-0.000650889764074
-0.0118613895029
0.00107819144614
0.000990624772385
0.00164157769177
0.00260144425556
0.00357350776903
0.00832847040147
-0.0145342722535
0.000877735437825
-0.00093112239847
0.00384780252352
-0.00104963302147
-0.0035271088127
0.0213452726603
0.0180120952427
-0.0273517649621
0.00483142258599
0.0157203860581
0.00749336183071
0.00067833578214
-0.0068869329989
-0.00778611982241
0.0149971349165
-0.0100489202887
0.00146189541556
-0.015835089609
-0.0148773295805
0.0240329317749
-0.0085895806551
0.0141531536356
-0.0119155226275
0.0397182404995
-0.0053771357052
-0.00877000764012
0.00488974247128
0.0275757536292
-0.00542547740042
-0.0025262569543
-0.010737510398
-0.00390004157089
0.0374024435878
-0.0113540068269
-0.00897774007171
-0.00409628264606
-0.0039680772461
-0.00795456022024
-0.00560818891972
-0.00146636727732
-0.00465164054185
-0.00490292208269
-0.00712890969589
-0.0130679076537
-0.00256862305105
-0.0135617572814
-0.019746683538
-0.0194412171841
-0.013014992699
-0.00669460138306
-0.0167525187135
-0.00109711231198
0.0171985831112
-0.0110839540139
-0.00537106534466
0.0330400317907
-0.00611871900037
-0.0170579310507
-0.0122662447393
-0.0115136075765
0.00757183646783
-0.000919278245419
-0.00874463841319
-0.00393888307735
-0.00206020451151
-0.0125443879515
-0.0101948902011
-0.0148029401898
-0.0144496234134
-0.00877926312387
0.0110203968361
-0.00794770848006
-0.0123151335865
-0.0172768794
-0.0053280396387
-0.00419041188434
-0.0148061346263
-0.000244654598646
-0.0181366987526
-0.00233666249551
-0.00707571487874
0.000902010011487
-0.00552581017837
-0.00257324893028
0.00488679343835
-0.00647195894271
-0.00347567675635
0.0121656432748
-0.0112694809213
-0.00149283616338
-0.0074441828765
0.0207626968622
0.00370280095376
-0.0117196803913
0.00310208206065
-0.00596857862547
-0.0128547009081
-0.00539807789028
-0.0035119804088
0.0363389216363
0.0130596393719
-0.00966312829405
-0.0101154670119
-0.00311612221412
-0.00593356369063
-0.00945619214326
-0.00478673027828
-0.0041475747712
0.00307821459137
-0.0124886985868
0.00900203920901
-0.00174491701182
-0.013563814573
-0.00787361711264
-0.00811044219881
-0.0123580675572
-0.0110943997279
0.012648107484
0.0127929635346
-0.00999278016388
-0.00797038618475
-0.00831723771989
-0.0124773159623
-0.0102391950786
-0.00412785634398
-0.0132851563394
-0.0136043457314
0.0152680482715
-0.0111036980525
-0.0038710006047
-0.0134791145101
-0.0115024456754
-0.00883209798485
-0.0172194112092
-0.0132203660905
0.00212458474562
-0.0119586307555
-0.00975768174976
0.0122237671167
0.0157308075577
-0.0031505310908
-0.0160352364182
0.000291846634354
-0.00356705230661
-0.00558769283816
-0.00295270071365
-0.0036735101603
0.0187169238925
-0.0274352375418
-0.00749011756852
-0.0107829300687
0.0056757950224
0.00288386503235
0.00629035383463
-0.00873260572553
0.00350604392588
0.00774455070496
0.0077060693875
-0.00630816211924
-0.0053914655
0.0137950945646
-0.00111792818643
0.0126699190587
0.0190428327769
0.0226739384234
0.00908730924129
0.00712670013309
-4.06163326261e-06
0.0117138605565
0.0211583506316
0.00136760261375
-2.07670345844e-05
0.0203158520162
-0.00985264219344
-0.00832979846746
0.00597610604018
-0.00282453093678
-0.00567633938044
0.000598048907705
-0.00890351273119
0.000355808122549
-0.00850591715425
0.00676852092147
-0.0159013643861
-0.00507494574413
0.000178086789674
-0.0131577784196
0.0167770590633
-0.0063559114933
0.0244887210429
0.00327085005119
0.000299102684949
0.00340776867233
-0.0100423479453
0.00692079588771
-0.000307840207824
-0.0093434182927
0.000672730442602
0.00769480969757
0.0113173928112
0.0012014353415
0.00323127186857
0.0152631411329
0.0108689842746
-0.00774845574051
0.0051000402309
0.00668429257348
0.00232706335373
-0.00596978655085
-0.00991651974618
0.0175511073321
0.00797607935965
-0.00405059102923
0.0147615931928
-0.00244202325121
0.0143490042537
-0.0108004799113
0.0120091382414
-0.00935570523143
-0.00729192979634
0.0084370598197
-0.00134122977033
0.0158964265138
0.0122762667015
0.00254899845459
-0.00433544442058
0.00334413908422
-0.007530905772
0.00476254196838
0.00249809795059
-0.00486893253401
0.00734155718237
0.00970159564167
-0.00527497055009
0.0175440143794
0.0158371925354
-0.00201856950298
-0.00829548109323
0.00234421039931
0.0173223540187
-0.0145269436762
-0.00436596153304
-0.00981155969203
-0.00297010713257
0.03509715572
0.00176015961915
-0.00510535715148
-0.00917743705213
-0.00796703901142
-0.000710422871634
-0.0129568874836
-0.00178315269295
0.00248941127211
0.00530401105061
-0.00924376398325
-0.0144843319431
-0.00202455162071
-0.00291643571109
0.00834026187658
-0.00601600063965
-0.00616478826851
0.00267417938448
0.0268067866564
-0.00110270758159
-0.0101358788088
0.0078713465482
0.00116352830082
0.00416221655905
-0.000215378429857
-0.00243119080551
0.0107875196263
-0.00404744502157
0.00831883121282
-0.0150358248502
-0.00314970966429
0.0147314863279
-0.00735341012478
0.0187169797719
-0.00350215705112
0.0293115228415
-0.000286036956822
-0.00895834807307
0.00742952339351
0.021869789809
-0.000902275147382
-0.0020681892056
-0.00462040584534
0.00218279100955
0.0231691095978
-0.00843132287264
-0.00586016569287
-0.00440643448383
0.00027459699777
-0.00299735669978
-0.00306792231277
0.000587524671573
-0.00277832313441
-0.00697361165658
-0.00594799732789
-0.00793645810336
-0.00348116946407
-0.0127752926201
-0.00748518435284
-0.0157470535487
-0.00409522326663
0.00280979624949
-0.0119874672964
0.00565384421498
0.0135195748881
-0.0100761773065
-0.00495464308187
0.0328694283962
-0.00445785839111
-0.00478352652863
-0.00442559504882
-0.00816151127219
0.00938517786562
-0.0107393572107
-0.0049589490518
0.000397384632379
0.00613781064749
-0.00787136144936
-0.0127070555463
-0.0142696555704
-0.00838798005134
-0.00235035899095
0.00960413739085
-0.00775028392673
-0.00376006774604
-0.0132813611999
-0.00817595049739
-0.00069071125472
-0.00978279765695
0.000601555453613
-0.0177482105792
-0.00583036290482
0.00355962780304
0.0061026904732
-0.00430623721331
-0.000180752656888
0.00283671892248
-0.00881129875779
-0.0074069108814
0.00413675839081
-0.0139121729881
0.00557926064357
-0.00743849854916
0.0177229829133
0.005351645872
-0.00574582442641
-0.00595438014716
-0.011706193909
-0.00777344126254
0.00360673107207
-0.00166853785049
0.0323828905821
0.0104250144213
-0.00291727553122
7.49319588067e-05
-0.000450433552032
-0.00225775456056
-0.00234977388754
-0.00579487765208
0.000983443460427
0.00202579144388
-0.00791531894356
0.0109282853082
-0.000383835897082
-0.0111158899963
0.00558431865647
-0.0047516268678
-0.0114608956501
-0.00315869553015
0.00774701684713
0.0100413300097
-0.00280027580447
-0.0125243486837
0.00068810977973
0.00342251104303
-0.00682085938752
0.00212068622932
-0.00567545881495
-0.0109040690586
0.0202094111592
-0.00128277670592
-0.00810821913183
-0.00946498196572
-0.00223362795077
-0.00201882119291
-0.0174337830395
-0.0101175624877
0.00839373003691
-0.00858750008047
-0.0114610251039
-0.00224973307922
-0.00414346111938
0.0225283391774
0.0151241663843
-0.00146279041655
0.0189802888781
0.00387842929922
0.0126218916848
0.0296117439866
-0.00549467420205
-0.0138412276283
0.0028035028372
0.0171315763146
-0.024476904422
0.0335260480642
0.0150208817795
-0.000594579149038
-0.0195121262223
0.0308328028768
0.0109230717644
0.0144345276058
0.0258475597948
-0.0210749693215
0.01212438941
0.0323186181486
0.0161131322384
0.00741261709481
0.0322953909636
0.020136397332
0.0356479883194
0.0258354619145
0.0223880354315
0.0179568547755
0.0366440936923
0.0215068627149
0.0181422680616
0.0244095511734
0.00779951037839
0.0224536191672
0.0261234529316
0.0250205118209
0.0132661499083
-0.0121455714107
0.00823854841292
0.030551161617
-0.0154011519626
0.0145739205182
0.0169644057751
0.0223859772086
0.0357051230967
0.0130504090339
0.0010499447817
0.00600194139406
0.0282898861915
0.0271899923682
0.0102878808975
0.02177586779
0.0174977425486
0.00378356012516
0.0271704178303
0.00716181332245
0.0282460246235
0.0342113822699
0.0201363284141
0.0212475713342
0.0111091267318
0.00406381161883
0.0189752560109
0.0293029937893
0.00039565176121
0.0274718552828
0.00447122147307
0.0162868406624
-0.00344426487572
-0.0068430704996
0.0316428616643
0.00629576575011
0.00467317132279
0.00260175717995
0.0366623960435
0.000965621205978
0.00100068643223
0.0124687124044
-0.00377610675059
0.00262521626428
0.00830488745123
0.0307419225574
0.0270535498857
0.00659451447427
-0.0250329598784
0.00090728176292
0.0129368016496
0.00924686901271
0.0232362039387
0.0429829023778
0.028136562556
0.0123411286622
0.0559763126075
-0.0097971400246
0.00137823144905
0.0138811552897
0.0280140638351
-0.00160995125771
0.0303348768502
0.0213208589703
0.0087622422725
0.0386960208416
0.0210074260831
-0.0176087766886
0.00701078074053
0.014374117367
0.0279013738036
-0.0138885462657
0.0236838590354
0.0231883246452
0.027149412781
0.00637998618186
-0.011087263003
0.0226765256375
0.0110319722444
0.0389671735466
0.0265794545412
0.0296068955213
0.0153552861884
0.0384858809412
0.0241966526955
-0.000133491703309
0.0163971036673
0.00444752676412
-0.00176004611421
0.00404779799283
0.00354985310696
0.000518410350196
0.00239165988751
0.00849819928408
-0.00659925071523
0.0035391044803
0.00868135876954
-0.00162130885292
0.0164677035064
0.00255680526607
0.0248862039298
0.00311629823409
-0.00983675848693
0.0111892130226
0.0162564311177
-0.000802841444965
-0.00192831049208
0.000840817578137
0.00888585764915
0.0209032297134
-0.00447806436568
-0.000502937822603
-0.0110584991053
-0.00960017088801
0.00250699021854
-0.00615211436525
0.00593939889222
-0.000880708917975
-0.0262924097478
-0.00677230022848
0.00148773856927
-0.0181229300797
-0.0139524796978
0.00245949183591
-0.00431423587725
0.00269652507268
0.008615414612
-0.00947360601276
0.00995725858957
0.0128130521625
-0.00684896344319
-0.0170210711658
0.0286996345967
-0.00442397780716
0.00171057949774
0.00393039360642
-0.0200376659632
0.00499843712896
-0.0295383483171
-0.000982821453363
-0.00237621669658
0.00803281832486
-0.00187635107432
-0.0107668619603
-0.0115825757384
-0.00428818631917
0.00393275963143
0.00894741900265
-0.0157109741122
0.000313533848384
-0.00746285449713
-0.022985290736
-0.00647956319153
-0.00134771992452
-0.00298797851428
-0.0184350199997
-0.00166150508448
0.00839147064835
0.0122140813619
-0.014674548991
-0.00518043152988
0.00288716354407
9.56905569183e-06
-0.00229900772683
0.00231013307348
-0.00692572211847
-0.00619309023023
-0.00276404595934
0.0137302828953
-0.0048002419062
-0.00785180553794
-0.0117526203394
-0.020612873137
-0.00551699986681
0.00714198406786
0.00197979644872
0.0264852549881
0.00492649618536
0.00180252525024
0.00405907770619
-0.00973273999989
0.00198294455186
0.00297369714826
-0.0184846073389
-0.00413609109819
0.00565224513412
-0.00523587316275
0.0051322937943
-0.00768432160839
-0.00347530166619
0.00729166809469
-0.00105336145498
-0.0109145957977
-0.00818287953734
0.00900179985911
0.00911306031048
0.00201936182566
-0.00458433898166
0.00608069216833
0.00824206043035
0.00141497561708
0.00410839542747
-0.00387399666943
-0.00316639640369
0.0191182382405
-4.17777737312e-05
-0.00886996090412
-0.0101345740259
0.00339530641213
0.00348843121901
-0.0137834139168
-0.00596616696566
0.00766326766461
-0.0045306570828
-0.0164295304567
-0.0103721329942
0.00169363396708
0.00573062617332
0.0124854696915
0.0153682464734
0.00745397713035
0.0124336509034
-0.00854713656008
0.00312869157642
-0.00170248840004
-0.00105086539406
0.0330233462155
0.00643846066669
0.0177504029125
0.0055617056787
-0.0113792242482
0.0195537302643
0.00767858605832
-0.00101028569043
0.0030981451273
0.00753785669804
0.0155918989331
0.00444258190691
-0.00476546678692
-0.000999024719931
-0.0243556983769
-0.0167615693063
0.00346462219022
-0.00861343182623
0.0140272667632
-0.000185982775292
-0.036406788975
-0.00124848866835
0.000761026807595
-0.0214789640158
-0.00967570673674
-0.000660107412841
-0.0105288187042
0.0043279370293
0.0110651487485
-0.00852506328374
0.0194794218987
0.00344293168746
-0.00406908709556
-0.0103563414887
0.0477737039328
0.00077781022992
0.000688598200213
0.00867030769587
-0.0251377690583
0.0146187823266
-0.0579178035259
-0.00994732137769
0.00787436496466
0.0109674558043
0.00120035815053
-0.016264019534
-0.0136920697987
-0.00787360221148
0.00672894576564
0.0207960847765
-0.0197943840176
0.00255156354979
-0.00965018291026
-0.0328896418214
-0.00345547916368
-0.00256241159514
0.00789985619485
-0.024654738605
-0.00569031061605
0.0123551655561
0.0224905088544
-0.0197116155177
-0.007615161594
-0.0036368239671
0.000326367444359
-0.00934429187328
-0.00876779854298
-0.00993969477713
0.00126184604596
-0.00369438086636
0.0235182382166
0.00792535487562
0.00602342793718
-0.0215651504695
-0.0307085104287
-0.00318475882523
0.0118102608249
-0.00251125567593
0.0387122891843
0.00992200803012
0.00175517925527
0.00260933977552
-0.00413284637034
0.00544825103134
0.00720339966938
-0.0274733044207
0.00210110424086
-0.00245875446126
-0.00695958640426
0.0091243525967
-0.0112226074561
-0.0053766509518
0.0106748035178
0.00252597872168
-0.0122857121751
-0.0176639519632
0.0177847165614
-0.00126902922057
0.00423062359914
0.000617886660621
0.00594792328775
0.0181742161512
0.00495272455737
0.00589119782671
-0.00381769472733
-0.0081745525822
0.0254184212536
0.00282075279392
-0.0119624799117
-0.0076195797883
0.00675115082413
0.00777628831565
-0.01662020199
-0.0168426316231
0.0131842270494
-0.0030082189478
-0.0225613880903
0.0409963540733
-0.00906154047698
-0.00162131793331
0.00179892394226
-0.0027282978408
-0.0017356624594
-0.00614917185158
0.00826288200915
0.00392327783629
0.0178630314767
0.0219292156398
-0.00823277886957
0.00399688445032
0.0208707023412
-0.00887919403613
-0.000496327702422
-0.00235489546321
0.0192284695804
-0.0133853051811
-0.0148259066045
0.000378588447347
-0.00741222407669
0.0445117913187
0.00430951314047
-0.00940958876163
-0.00198887614533
-0.00687626143917
-0.0101222153753
-0.00580295082182
-0.0102046206594
-0.00356441806071
-0.00292734941468
0.00556292105466
-0.00101356045343
0.007107461337
0.00144015229307
0.00926607660949
0.0119047285989
0.000182628136827
-0.00420409813523
0.00134876475204
-0.00566597562283
0.0266009457409
0.00998376868665
-0.0230356492102
-0.00565620791167
-0.00262386607938
0.00526842428371
0.00568364234641
0.00330662447959
-0.00335634266958
0.0201421957463
0.0175283811986
-0.0219387747347
-0.00813356135041
0.00621112156659
0.0163862481713
0.0176061931998
0.0132694542408
-0.00347675895318
-0.0209424067289
-3.76110729121e-05
-0.00257963570766
0.0131074069068
-0.00747078191489
-0.0118452580646
0.00981682352722
-0.0133360978216
0.0175516754389
0.0137197319418
-0.00248291064054
-0.0065002264455
-0.00729987630621
-0.0111227380112
0.0167027339339
0.000656046089716
0.0252344124019
0.0213123001158
0.0148751903325
-0.026255980134
0.00930132623762
-0.00922680646181
-0.0055464846082
0.00616738945246
0.00567425601184
0.0142268911004
-5.95013043494e-05
-0.00249482318759
-0.00700278999284
-0.00299353245646
-0.00684526050463
-0.00165838573594
0.00473120762035
-0.0162671003491
-0.0129518061876
-0.000819862587377
-0.00480610178784
-0.0194723587483
0.0190403070301
0.0141317192465
-0.00633759330958
-0.00834475550801
0.0142409978434
0.00189354270697
-8.4266102931e-05
0.00802946090698
0.0119245834649
-0.0127086192369
0.0131019605324
0.00228657945991
-0.0044700470753
-0.00308949430473
0.00172644923441
0.0024203050416
-0.00896775256842
0.000508737633936
0.0133537175134
-0.000751294835936
4.59004659206e-05
0.0054398435168
0.00300723291002
0.000723951670807
-0.000191037048353
0.0156849790365
-0.00148872716818
-0.0156486090273
0.0088744526729
0.0080489506945
0.00802937615663
0.00264040357433
-0.00472484901547
-0.000563925248571
0.0123180607334
-0.0028125802055
-0.00201852782629
-0.00208679866046
-0.00358170177788
0.00978538487107
0.00287151825614
0.00368506181985
-0.002962091472
0.0104756737128
-0.00251477723941
-3.23150670738e-05
0.00118574989028
0.00875470135361
-0.00231480784714
0.00159020000137
-0.00179247267079
-0.00311480485834
0.0119140259922
-0.00260565243661
0.0025760831777
-0.000561247696169
0.0015513189137
-0.0027084609028
0.00290948105976
-0.00227715005167
-0.00257265521213
0.00110051373485
0.000182890798897
-0.00588497985154
0.00181503023487
-0.00320634245872
-0.00369665352628
-0.00012264950783
-0.00240126322024
-0.0013078750344
-0.00224633142352
-0.00266576930881
0.00507177831605
-0.0009349163156
-0.0044599827379
0.00749827828258
0.00166446215007
-0.00115798029583
-0.00405760714784
-0.000335535092745
0.00337630673312
0.00171724148095
0.00269743404351
-0.00262775318697
-0.00225060433149
-0.000941917242017
0.00187536713202
0.000110598368337
0.00153169303667
-0.00340553699061
-0.000416556373239
0.00390824954957
-0.00274143810384
-0.000747710466385
0.00237372261472
0.00156801345292
-0.000268077506917
0.00244826078415
-0.00204650033265
0.00297667761333
-0.00587756140158
0.000791215745267
-0.000414584937971
-0.000672808033414
0.00441597262397
-0.00421749567613
0.00388917233795
0.00300629250705
0.00134586624335
-0.00291888834909
0.000107129388198
0.000757162342779
0.0029137507081
0.00513300905004
-0.000706072081812
-0.000479429203551
-0.000384067418054
-0.00174751528539
3.73140246666e-05
0.00568523071706
0.00126370531507
-0.00248964875937
-0.00156917865388
-0.00273663247935
-0.00481792585924
-0.00311911688186
0.000534699065611
-0.00248279655352
0.00470890291035
0.00191897933837
0.00116953230463
-0.000797646993306
-0.00117038690951
-0.00156125857029
-0.00507418531924
0.00071280222619
0.000117423776828
-0.00252269790508
0.00302398693748
-0.00128761283122
-0.00134643376805
-0.00436503672972
0.00363725470379
-0.00303758727387
-0.00483141187578
-0.00185348303057
0.00146196666174
0.00366297131404
-0.00118330761325
-0.00108374585398
-0.000429559499025
-0.00452051032335
-0.00178913248237
0.000290518481052
-0.00419270247221
-0.00588303571567
0.00128893740475
0.00023054817575
0.0120316036046
0.00948337744921
-0.011410439387
-0.0168077815324
0.00810133945197
-0.00707484362647
-0.00798031967133
-0.00701160077006
-0.017815342173
0.0367859229445
-0.018206872046
0.00347960880026
-0.0195651743561
0.0249551367015
-0.00214014528319
-0.00420551095158
0.00144982372876
0.0172514226288
0.000922390143387
-0.000199567031814
-0.00989949703217
-0.0091464985162
0.0307050272822
-0.00923112779856
0.00178916321602
0.000420917989686
0.00368602829985
-0.00171875394881
6.87625797582e-05
-0.000667114916723
0.00118504744023
0.00305025675334
-3.59975388164e-06
-0.00899653602391
0.0079692825675
-0.00561100943014
-0.0222413875163
-0.0118517763913
-0.00967807974666
-0.0163269285113
-0.00275670248084
-0.00936321076006
0.00543975597247
-0.0109322378412
-0.00197869469412
0.00711564812809
-0.000906843168195
-0.0188787281513
-0.0141797317192
0.000773477193434
0.00454184785485
0.00685711298138
-0.0100615425035
0.000682929181494
-0.00728905573487
-0.015590752475
-0.00157103221864
-0.00411015888676
-0.0196277331561
-0.00485421810299
0.00640345783904
0.00136171898339
-0.00899290293455
-0.0112333577126
0.00383517798036
0.00225371355191
-0.0198090691119
0.00532922055572
-0.00689360871911
-0.000694296497386
-0.0104941725731
-0.0145630659536
0.0016784213949
-0.00166259589605
-0.00711098359898
0.00493474677205
-0.00291836308315
0.0140406470746
-0.00881296955049
0.00523011013865
-0.00867356266826
0.0137776322663
0.00929767172784
-0.0107809137553
0.0140717122704
-0.000437492883066
-0.00328688020818
-0.0154463676736
-0.0028141788207
0.0150318117812
0.00677953241393
-0.00875422917306
-0.025428455323
0.00208614044823
0.00329813291319
-0.0073255430907
0.00379725801758
0.00883945263922
-0.0105232559144
-0.0162985306233
0.00838128011674
0.00297570647672
-0.0188294053078
-0.0300957001746
-0.0119204707444
-0.00688833883032
-0.00373192271218
0.0104579525068
0.00689287297428
-0.0148950126022
-0.0050008026883
-0.00889191962779
-0.0363066121936
-0.0087303603068
-0.00621502567083
-0.0057518738322
-0.0195114891976
-0.00752144120634
-0.0105695668608
-0.000128339292132
-0.00283454428427
-0.0130055788904
-0.0103367948905
-0.00650848029181
-0.000856231839862
-0.000475953595014
-0.0172472540289
-0.00171430187766
-0.0129477782175
0.0172738227993
0.0026678708382
-0.0111153442413
0.0222888048738
-0.00867562368512
0.0114408880472
-0.0171766970307
-0.00914957653731
0.0209574103355
-0.0348198227584
0.0261304695159
-0.0103643415496
0.0263406671584
0.00653558550403
-0.00844706408679
0.0119771668687
0.021909289062
0.00545261381194
0.00189330510329
-0.00828686822206
0.00533481454477
0.0081404177472
-0.0125516122207
0.00252151396126
-0.000630661437754
0.00379612017423
0.0064432467334
-0.00447725690901
0.0113934529945
0.00437383400276
-0.0022707907483
-0.000299590989016
-0.00664015300572
0.000938487006351
-0.023188168183
-0.016691762954
-0.0204410981387
-0.00574938254431
0.00429304968566
-0.0159731134772
0.00829244032502
0.00257667177357
-0.0147309107706
0.00470315618441
0.0364863984287
-0.00342954182997
-0.00863751769066
-0.0125148361549
-0.00802358333021
0.0141798863187
-0.0105454931036
-0.0177453197539
0.000781358685344
0.0105586899444
-0.0166319403797
-0.0183594301343
-0.0249760542065
-0.0255207009614
0.000408607127611
0.0265374928713
-0.00429051276296
0.00157908245455
-0.0172960571945
-0.000758560781833
0.00331012811512
-0.0183968562633
0.0118505451828
-0.0228479579091
-0.0107349511236
9.66820953181e-05
0.00960082374513
-0.000821852823719
0.00100356619805
-0.00931931752712
0.00799867417663
-0.0178680866957
0.00745538948104
-0.0285336244851
0.013286174275
-0.0193427652121
0.0258696395904
0.0210579782724
-0.00136251340155
0.00127191829961
-0.0131492344663
-0.00718718860298
0.00518139777705
0.0025737665128
0.0354590788484
0.0245267059654
-0.00239620590582
-0.00919330772012
0.00560069503263
0.00562931038439
-0.00417330535129
0.000246748386417
0.00737368501723
-0.0106756836176
-0.0227760747075
0.0179054085165
0.00712717184797
-0.0273168794811
0.00385899911635
-0.00886362604797
-0.0168844647706
0.00695275655016
0.0228157453239
0.0012672127923
-0.0119087137282
-0.0156875737011
0.00375302042812
-0.0117966076359
-0.00892768241465
0.00806901138276
-0.00487076397985
-0.0263514108956
0.0153077933937
-0.00538303330541
-0.00950335431844
-0.00494784954935
-0.00651871971786
-0.00449245097116
-0.0249431841075
0.00254764873534
0.0146519104019
-0.0201217848808
-0.0107944523916
0.029382057488
-0.00669584888965
-0.0080892695114
-0.00992361176759
0.00134803308174
-0.0105864908546
-0.00593202700838
-0.00189807149582
-0.00464752549306
0.0243673510849
-0.000580328225624
-0.00362515938468
-0.00491806631908
0.0332188680768
-0.0118196075782
-0.00572311738506
-0.00212675379589
0.027764024213
-0.0119041129947
-0.00572180468589
-0.0085711563006
-0.0102884126827
0.0403375066817
-0.00374784786254
-0.00810959842056
-0.00444772280753
-0.00326227978803
-0.0115424264222
-0.00654012337327
-0.0087751634419
-0.00433351751417
-0.00345180882141
0.00210169795901
-0.01304254774
0.00276257703081
-0.00888068322092
-0.00767705542967
-0.00132657866925
-0.00797251891345
-0.0079328333959
-0.00723496358842
-0.00895814597607
0.0242666900158
-0.00166290998459
-0.00975217297673
0.00359654612839
-0.00340259866789
-0.00561547698453
-0.00846881233156
-0.00410764338449
-0.000622657418717
0.0120894527063
0.00807935837656
-0.0118183819577
-0.00926825590432
-0.00639127986506
0.00441838474944
0.000379489443731
-1.22092069432e-05
-0.0101946787909
-0.00959292333573
-0.00209477124736
-0.00881338026375
-0.0027416748926
-0.00396361388266
-0.00375694222748
-0.000953094509896
-0.00808048341423
0.00296480418183
0.00835458841175
-0.0096739474684
-0.00998653378338
-0.00603961525485
-0.00601677875966
0.00968180783093
0.00334741780534
0.01182089746
0.0201157592237
-0.000113554269774
-0.010316719301
0.00207254546694
-0.000660142046399
-0.00457501830533
-0.000557331135496
0.00737227546051
0.00810700561851
-0.00755386659876
-0.00829520821571
-0.00660568056628
0.012842268683
0.000869624607731
-0.00620031589642
-0.00126805272885
-0.00596608873457
-0.0131628643721
-0.0105214379728
-0.00421416666359
-0.0157322529703
0.0109425187111
0.00196383846924
-0.00079136347631
-0.00477324007079
-0.00178113661241
-0.00268347817473
-0.00695618195459
-0.00381161714904
0.0053717950359
0.000954528863076
0.0122512383386
-0.00765213835984
-0.00929277297109
-0.00836106948555
-0.0133795812726
-0.00874165818095
-0.00921257678419
-0.00418125931174
0.00136218057014
-0.000195276676095
-0.00786555279046
0.00117444957141
-0.00457702064887
-0.00594915170223
-0.00840250495821
0.0028870285023
-0.00823055859655
-0.00688100978732
-0.000243908434641
0.00294893607497
0.0355563312769
-0.0176959801465
0.0025828438811
0.00399767886847
-0.00636536628008
-0.00200671725906
0.00148301443551
0.00313407694921
0.00216624420136
0.0194178763777
0.0124086365104
0.00108738034032
0.00289627187885
0.0423920117319
-0.0097645483911
-0.00876697059721
-0.000348423112882
0.0337865352631
-0.0162206534296
-0.0157680884004
-0.00228429259732
0.000826814968605
0.064319819212
0.000180444869329
-0.0160901267081
-0.0153100015596
-0.0207561273128
-0.0103187607601
-0.0154355112463
-0.0126510662958
-0.00401882175356
-0.0265599153936
-0.00897329393774
-0.00361177627929
-0.00807888340205
-0.00597931351513
0.00827263481915
0.00447765830904
-0.00177370954771
3.64365496353e-06
-0.00947614666075
0.000917609315366
0.0376928672194
-0.00072151212953
-0.0382103845477
0.00837206281722
-0.0118876844645
0.000875705736689
0.00418199319392
-0.0175337772816
-0.00703243073076
-0.00753228366375
0.0124137243256
-0.0293759647757
-0.00211270921864
0.00145155237988
0.00353593798354
0.00357904913835
0.00623945146799
-0.00124898075592
-0.0136830229312
-0.0167823713273
-0.00492007378489
0.00213284092024
-0.024906758219
-0.0196299180388
0.00521886209026
-0.0233459006995
0.00422775233164
0.0096336947754
0.00451271794736
0.00204462208785
-0.023697828874
-0.0123215578496
0.0164110641927
-0.00712278718129
0.0180194862187
0.0197929143906
0.00305482326075
-0.0387488640845
0.00536504900083
-0.00139627291355
-0.0145036475733
-0.00907309725881
-0.0029598006513
-0.00286053610034
-0.0103461518884
0.00116110546514
-0.00554830860347
0.0161122921854
-0.00534596247599
-0.00398883037269
0.00322709069587
-0.0262661464512
-0.0152602568269
0.000685414357577
-0.0207381155342
-0.035802397877
0.0203984025866
0.00535543030128
-0.00649238051847
-0.0238223522902
0.00445625418797
0.00495989015326
-0.00073712709127
-0.000996921909973
0.00111714750528
-0.00626210309565
0.0165932141244
0.0028274722863
-0.00904326606542
-4.94129562867e-06
0.00772769376636
-0.00416037812829
-0.00483779935166
-0.00413320912048
0.00437519745901
0.00752477440983
-0.00140560604632
-0.00269886967726
-0.0121813453734
0.00302323629148
-0.000189449114259
0.00217730249278
-0.00728451041505
-0.0133933015168
0.000462410767796
-0.0032115005888
-0.00945178885013
0.00829472765326
0.00515574030578
0.00391635391861
0.0224970802665
-0.00242899777368
0.0126564493403
-0.0185915343463
-0.00592794967815
0.00986178312451
-0.00871752854437
0.0278468187898
-0.00530753703788
0.0295337606221
0.00278265215456
-0.00904762092978
0.0138547401875
0.0207165200263
0.00441582361236
0.001433146419
-0.00621342426166
0.0110465418547
0.0129884351045
-0.010192124173
-0.00116939004511
-0.00165480468422
0.00342254247516
0.000739924435038
-0.00357984006405
0.00910472963005
-0.00540408678353
-0.00532314181328
-0.00429450068623
-0.00731809809804
-0.00563520379364
-0.0121208783239
-0.00997364893556
-0.0210222005844
-0.00105933228042
0.00813528709114
-0.0133287189528
0.013533866033
0.0124406302348
-0.013796444051
0.00169830198865
0.0477680116892
-0.00389579264447
-0.00742045557126
-0.000510427227709
-0.00975963007659
0.0189878307283
-0.0112917590886
-0.0111006489024
0.00241672899574
0.0105394888669
-0.00992693006992
-0.0198377724737
-0.0250755995512
-0.0157640334219
0.000432336877566
0.0168541818857
-0.00681147305295
-0.00281285727397
-0.0197406150401
-0.0021447930485
0.00213158433326
-0.0132195018232
0.00600481126457
-0.0243406575173
-0.011060487479
0.008350959979
0.015544584021
-0.00325873377733
0.00113374029752
0.00118596060202
-0.014765381813
-0.0124399922788
0.00109905074351
-0.0192367639393
0.01181518659
-0.0125063089654
0.0261850468814
0.00900749210268
-0.00603392813355
-0.00755734927952
-0.0132136158645
-0.00824477244169
0.00875264964998
-0.000495328917168
0.0385865941644
0.0167381092906
-0.00543913850561
-0.000996245886199
0.00543171167374
-0.00300580798648
0.000795448373538
-0.000938401324674
0.00593276601285
-0.00202806456946
-0.0128341820091
0.0183475594968
0.000522377551533
-0.0161373782903
0.0117665771395
-0.000710382941179
-0.0160629544407
-0.0107947802171
0.0152027402073
0.00675106467679
-0.0039985938929
-0.0111457388848
0.00405794382095
0.00891000963748
-0.0071649895981
0.00292727700435
-0.00685844197869
-0.015624679625
0.0287514775991
-0.00105186575092
-0.00975359231234
-0.010340295732
0.000120239405078
0.00019355751283
-0.0263740774244
-0.0111218346283
0.015800639987
-0.0130782527849
-0.0147190056741
0.0621934644878
-0.0370433107018
0.00711640389636
0.030993713066
-0.0152957299724
0.016984552145
0.0047124135308
0.00690946727991
0.0146191082895
0.021508987993
0.0610804595053
0.006285936106
0.0161688327789
0.0577992163599
-0.0101746376604
-0.0185819640756
0.0121068749577
0.0381966009736
-0.0261145438999
-0.0210965257138
0.0177752953023
0.0145409656689
0.101980574429
0.00158789823763
-0.0262976624072
-0.0385228395462
-0.0539734847844
-0.0117366462946
-0.019828421995
-0.0161643084139
-0.0142051829025
-0.0626472383738
-0.0169746186584
0.00437865499407
-0.035397708416
-0.000516741129104
0.0282358936965
0.0132852727547
0.0117810042575
0.00746147148311
-0.00939703267068
0.0128938034177
0.0605638548732
0.00564168673009
-0.0808280706406
0.0268028639257
-0.015219066292
0.00750296516344
0.0234168153256
-0.0439702905715
-0.0149858035147
-0.0368495546281
0.0279449950904
-0.0256099514663
5.57373532502e-05
0.0196356046945
0.00803708005697
0.0155014740303
0.0224204286933
0.00163776951376
-0.0271039959043
-0.0388868525624
-0.0037649073638
0.00884014181793
-0.0637554973364
-0.0402169600129
0.0137932505459
-0.042711917311
0.00148390315007
0.0233577936888
0.0192420184612
0.0166603438556
-0.0490573830903
-0.0271715465933
0.0364691242576
-0.0202593654394
0.0342447161674
0.0215925332159
0.0241747610271
-0.0716747790575
0.0215690191835
-0.00193016498815
-0.0362856946886
-0.017221307382
-0.0171464141458
-0.0163926891983
-0.0113561963663
0.0096274651587
-0.0022418810986
0.0297648571432
-0.0226987693459
-5.21133188158e-05
0.0119990585372
-0.0576796419919
-0.0205602198839
0.0128052961081
-0.0512943267822
-0.0480756536126
0.0421830303967
0.0202844999731
-0.0196428801864
-0.0473867319524
0.0338602289557
0.00272398558445
0.0110310595483
0.00310516823083
-0.0219532512128
-0.0194603707641
0.0388061702251
0.0229364745319
-0.0011880423408
0.00854867137969
0.03751154989
0.00831401348114
-0.00606711674482
-0.00851461291313
0.0228613931686
0.0248966366053
0.00494830682874
-0.00572146568447
-0.0265657193959
0.0176259372383
0.0141933616251
0.00837280601263
-0.0273584742099
-0.0155279980972
0.0124798631296
-0.014007601887
0.0329541638494
-0.00607116846368
0.000645437976345
0.00809948146343
0.00455240020528
0.00364753324538
0.00685412576422
-0.00385541608557
-0.000752241001464
0.0219515059143
0.00990528333932
0.012418535538
0.000429806474131
0.0371997654438
-0.0061144917272
-0.0108826085925
0.00849884469062
0.0256391055882
-0.0140506448224
-0.013931482099
0.00423171743751
0.00423579104245
0.0600082464516
-0.00359200919047
-0.0119836712256
-0.0219546686858
-0.0250327475369
-0.00741116376594
-0.0169581659138
-0.00665445718914
-0.00435773748904
-0.0338722057641
-0.00777528434992
-0.00209808396176
-0.0118296872824
-0.00982832815498
-0.00347016565502
0.00388156692497
-0.00232565938495
0.00185729574878
-0.0117977056652
0.00571812922135
0.0323880277574
0.00194550957531
-0.0420053005219
0.0239408351481
-0.00824575964361
-0.00106647983193
0.00214685499668
-0.0248418245465
2.70149539574e-05
-0.0308166090399
0.00857407040894
-0.0186016131192
0.000426073849667
0.00316030299291
0.00368989049457
0.00382943521254
0.00131236563902
-0.00534234335646
-0.000457739457488
-0.0226481407881
-0.00552790192887
0.00301751401275
-0.033310379833
-0.0200499147177
0.000614800839685
-0.013969858177
-0.00516585726291
0.0109330751002
0.000427984021371
0.0112493280321
-0.0262935049832
-0.0137916048989
0.0159274321049
-0.00351149495691
0.0145598314703
0.0152316102758
-0.00081730959937
-0.0368431173265
0.00552689097822
0.00820476002991
-0.00213669543155
-0.00351329892874
-0.00766893522814
-0.0113424202427
-0.00728487316519
0.00314146559685
-0.0020015144255
0.0240879543126
-0.000142544478877
-0.00497042480856
-0.00194793834817
-0.0305216871202
-0.010965664871
-0.000513415841851
-0.0260036867112
-0.0253540463746
0.0170382130891
0.0025130615104
-0.00633361469954
-0.0216986369342
0.00612981291488
-0.00139681377914
-0.000960805278737
-0.000969353772234
0.00102414796129
-0.00214351643808
0.0169140901417
0.00444410089403
-0.00449311872944
-0.00100947637111
0.0136406663805
0.000959582685027
-0.00139929319266
-0.00778683228418
-0.00137655367143
0.0113209560513
-0.000999051844701
-0.00926086679101
-0.0113201625645
0.000369232700905
0.00137146445923
-0.00374207622372
-0.00945726782084
-0.0114592816681
-0.00173714442644
-0.00912811979651
-0.0104578677565
0.0162213630974
0.00141160469502
-0.0129420962185
0.0129775535315
-0.00532674184069
0.00646433094516
-0.0156670026481
-0.00911960471421
0.0187025349587
-0.0296444240957
0.0164231192321
-0.0104712313041
0.0243835859001
0.00365916197188
-0.00297139771283
0.00546695291996
0.017823247239
0.00860417168587
0.00267419568263
-0.00896193739027
0.00202296976931
0.00960410479456
-0.0127228340134
0.00428036693484
0.00460228417069
0.00754969008267
0.00921010226011
-0.00186843238771
0.00871753878891
0.00502200424671
-0.00231651589274
-0.00365761411376
-0.00529217487201
0.00365941063501
-0.0187200605869
-0.0158143732697
-0.018590355292
-0.00559969525784
-0.000117321680591
-0.0140269408002
0.0042992378585
0.00527135236189
-0.0166181195527
0.00373340025544
0.0212205387652
-0.00621270854026
-0.00871562585235
-0.0111254304647
-0.00254268478602
0.00974365416914
-0.00639733625576
-0.0137727791443
-0.000883731525391
0.00670646363869
-0.0161526519805
-0.0155053818598
-0.0236270315945
-0.0237385127693
0.00296493573114
0.0242386311293
-0.00279832584783
0.000415244197939
-0.0199423935264
-0.00119800225366
0.00494027975947
-0.0167883764952
0.00589717412367
-0.0210081804544
-0.00935343187302
0.00270406296477
0.00334388553165
0.00350520340726
0.0034850796219
-0.0060659898445
-0.00196277280338
-0.0168868098408
0.00660238228738
-0.027366058901
0.0111771561205
-0.0195336863399
0.0178267918527
0.013817855157
-0.0107633685693
0.00280124880373
-0.0108597707003
-0.00730748474598
0.00314936763607
0.00398944551125
0.0249180197716
0.0158904846758
-0.00309265032411
-0.00748759927228
0.00374985532835
0.00596636440605
-0.00238196039572
-0.00138306524605
0.0118640819564
-0.0107242260128
-0.0208962857723
0.015369515866
0.00603114673868
-0.0249988306314
0.0027314897161
-0.00978401117027
-0.0163184981793
0.00778691936284
0.0188820287585
-0.000424742203904
-0.0109521076083
-0.0153040615842
0.00146968464833
-0.0101734753698
-0.00435685692355
0.00520835956559
-0.00203876546584
-0.0238319151103
0.00700938608497
-0.00248526642099
-0.00757531961426
-0.00448588468134
-0.00560292135924
-0.00324487080798
-0.022769138217
0.0070642568171
0.0107251815498
-0.0197120085359
-0.00880158226937
0.0115689132363
-0.00115917262156
-0.00278634950519
-0.00318604824133
0.0133328810334
-0.00823771674186
0.00207003415562
-0.00838063750416
-0.0106755672023
0.0217671990395
-0.0031656450592
0.0117906266823
-0.00638655479997
0.0385431684554
-0.00614611105993
-0.00845889002085
0.00725357281044
0.0259048715234
-0.00474168313667
-0.00388193270192
-0.00755069218576
-0.00259649730287
0.0374858230352
-0.00953741278499
-0.006497153081
-0.00692226924002
-0.00428418954834
-0.00747965695336
-0.00737821869552
-0.00262568099424
-0.00608101254329
-0.00929790083319
-0.00883582886308
-0.0100857513025
-0.00450300239027
-0.0116347307339
-0.0124908881262
-0.0100468890741
-0.00934041570872
-0.00598651496693
-0.014298546128
0.000514035229571
0.0216181874275
-0.00394002627581
-0.0107154883444
0.0286179967225
-0.00563187105581
-0.0117672560737
-0.00618609134108
-0.00965075194836
0.00561071187258
-0.00612988416106
-0.000720259791706
-0.00400158856064
-0.00316164037213
-0.00889895763248
-0.00770323071629
-0.0101349819452
-0.00811092089862
-0.00657017156482
0.00882722716779
-0.00742225022987
-0.00975864008069
-0.0114928865805
-0.00779049796984
-0.00223488220945
-0.00730661023408
-0.00492831971496
-0.00978131778538
-0.00081557338126
-0.00272993720137
0.00301226228476
-0.00581028778106
-0.00186387565918
0.00539438100532
-0.00951851904392
0.00298278685659
0.010969420895
-0.00808699335903
-0.00433492101729
-0.00510105025023
0.0155333075672
0.000461790477857
-0.00896946154535
-0.00370494578965
-0.00569040840492
-0.00952952541411
-0.0041102510877
-0.000671165878884
0.0302037354559
0.00673202984035
-0.00912136211991
-0.00763195985928
-0.00514880521223
-0.00722140725702
-0.00682756258175
-0.00685107987374
-0.00793449673802
0.0064381393604
-0.00553905405104
0.00793957896531
-0.00673192786053
-0.00842339172959
-0.00149038340896
-0.0101853301749
-0.00635837996379
-0.00995402503759
0.00922623556107
0.0103647187352
-0.00438820244744
-0.00881294906139
-0.00461519882083
-0.00574209168553
-0.00697838375345
-0.00400340976194
-0.0103163374588
-0.00915978010744
0.0148866875097
-0.00693138968199
-0.00911923218518
-0.0135025382042
-0.00656569423154
-0.00749378604814
-0.0117064863443
-0.012040251866
0.00227054185234
-0.00905745755881
-0.00729335471988
-0.00713904341683
0.0142080094665
-0.00359552702866
-0.00722988275811
0.0120216207579
-0.00106482650153
-0.00162214413285
-0.000463243661216
-0.00309394602664
0.0108130248263
-0.0165188424289
0.00234201806597
-0.00593426357955
-0.00179682835005
0.00562404468656
0.00340519100428
-0.00177172804251
-0.00467409752309
0.00959415175021
0.0107497600839
0.00186233443674
0.00182928517461
-0.00965809635818
-0.00235617114231
0.0151065485552
0.0135099235922
0.0191870070994
0.00738581316546
0.00696417037398
0.00701302057132
0.00658040726557
0.0128856487572
0.00555471424013
0.00291243568063
0.0109655391425
-0.00447419378906
-0.00625025248155
-0.00290849106386
-0.000159535862622
-0.0022807023488
0.00394630944356
-0.00210793036968
-0.00662102457136
-0.0047836122103
0.0127532035112
-0.00155886844732
0.00317740812898
-0.004309986718
-0.00334948697127
0.0109160281718
0.00377412000671
0.00762945832685
-0.00597250042483
0.00927902944386
0.00281306961551
-0.00424756947905
0.00171719945502
-0.00314732827246
-0.0117094134912
0.00583856599405
0.0127851888537
0.0134707326069
0.00197901716456
-0.00257342495024
0.0159243289381
0.0126019064337
-0.00414478359744
0.0127482013777
-6.31586517557e-05
-9.93449648377e-05
-0.000818813568912
-0.0047421916388
0.0134974922985
0.00676015624776
-0.00904520042241
0.00442978646606
-0.00637607183307
0.00355597632006
-0.00642373831943
0.020802045241
-0.00898095406592
0.00265451450832
0.011503865011
0.00119723158423
0.00666886335239
-0.000578147824854
0.00674212025478
-0.000742171891034
0.0041894656606
-0.00209377915598
0.00201663700864
0.00238781468943
-0.00641469890252
0.0148274861276
0.0127619626001
0.00177843694109
0.0134818144143
0.0188485383987
-0.00775546487421
-0.00842826627195
0.00667382171378
0.0158750955015
-0.0122260591015
-0.00268970848992
-0.00582639547065
-0.00465937517583
0.00796367879957
0.00303116953
-0.0101143475622
-0.00403005257249
-0.000864662288222
0.00174043665174
-0.0129049755633
0.000561158347409
0.00268111610785
0.00645714625716
-0.00955490767956
-0.00602600071579
0.00158395280596
-0.000114343325549
0.00808035396039
-0.000718790281098
0.000968897016719
-0.00294756912626
0.0107274306938
0.00598808424547
-0.00856949575245
0.000718802388292
0.0367317944765
-0.00950933806598
-0.00147571938578
0.0167844183743
0.00745422486216
0.00829059630632
0.000356680975528
0.00402522971854
0.00295316195115
0.020223710686
0.0379865430295
0.00194634043146
0.0057592052035
0.0317359231412
-0.00817480497062
-0.00722548970953
0.00619762716815
0.0198832433671
-0.0167241171002
-0.0115804560483
0.0118329478428
0.0033977732528
0.0556680634618
8.11043137219e-05
-0.00847081653774
-0.0179060455412
-0.0243956036866
-0.00905583798885
-0.011014405638
-0.0081136059016
-0.0138680031523
-0.0272291526198
-0.00610032165423
0.00191064702813
-0.0100577129051
0.00466730678454
0.00884590949863
0.00709896860644
0.00298992986791
-3.06909460051e-05
-0.00227441312745
0.00564019521698
0.0329797416925
0.00793018005788
-0.0445427633822
0.0155461039394
-0.00290708011016
-9.67187515926e-05
0.0150714535266
-0.0171651504934
-0.00200789282098
-0.0140195973217
0.0150188207626
-0.0182403195649
-0.00403725588694
0.011777064763
0.00938319507986
0.0119778476655
0.0133326929063
-0.00181097362656
-0.0151723707095
-0.0170847028494
-0.0024234012235
0.00859711598605
-0.0315595157444
-0.0192881673574
0.00661983620375
-0.0175242461264
0.00709082139656
0.0151440044865
0.00594348832965
0.00635789195076
-0.0246735289693
-0.0183073692024
0.0205691717565
-0.0195283666253
0.0242091082036
0.0113991498947
0.0149419950321
-0.0403550006449
0.0122334482148
-0.000777820125222
-0.00921256933361
-0.00238113361411
-0.00465052993968
-0.00601785210893
-0.0024384171702
0.000628794950899
-0.00622629979625
0.0133785866201
-0.0109524540603
-0.00218318658881
0.00145237334073
-0.032392822206
-0.0135034751147
0.00657363934442
-0.0216130875051
-0.0290224589407
0.0253753829747
0.0150198442861
-0.00709262257442
-0.0225397907197
0.0201004222035
-0.00312852789648
0.000468741112854
0.00659346999601
-0.0110822487622
-0.0137026915327
0.0185744855553
0.0133789759129
0.0039255595766
-0.000946570420638
0.0205719936639
0.00486933905631
-0.00768416840583
-0.00730308098719
0.0140804201365
0.0110012330115
0.00285833422095
0.000102104328107
-0.00780697027221
0.00412811525166
0.00820027478039
0.00545835494995
-0.0177732147276
-0.0114829726517
0.00883484072983
-0.0071691935882
-0.0118819773197
0.00472623994574
0.00516864378005
0.0059102345258
0.0131007907912
0.00462406408042
0.00621574977413
-0.00492678582668
-0.00162031885702
-0.00204277178273
-0.00283883465454
0.0198804438114
0.000199024216272
0.00611627148464
0.00667913584039
0.000358579709427
0.0154030285776
-2.7965512345e-05
0.00585254142061
0.0106864767149
0.0030394687783
0.0107050957158
-0.00782396737486
-0.00540535943583
0.0108053172007
0.000873437034898
0.00872634071857
0.00791402440518
0.00531828403473
0.0122485319152
-0.000592697702814
-0.00290288194083
0.000921388855204
0.00269188708626
-0.0065383343026
-0.00507333921269
-0.00159446184989
-0.0103467684239
0.0050572832115
0.00618178443983
0.00080633017933
0.0117977410555
-0.00413706572726
-0.0100135607645
0.00871210359037
0.0264878943563
0.00556083209813
-0.00360024766997
0.00777354836464
0.00114451744594
0.0120547981933
-0.0124927116558
-0.0106274792925
0.0128682954237
0.00719705689698
-0.0034407756757
-0.0112259807065
-0.0136987520382
-0.0074118678458
0.00666017830372
0.0149892037734
0.00168731156737
0.00171550258528
-0.0114929769188
0.00236391066574
0.00913910754025
-0.00633576046675
0.0101728895679
-0.0184014383703
-0.00567579409108
0.00806845817715
0.0113206058741
0.00309833418578
0.00532400608063
-0.00488655082881
-0.00504087796435
-0.0105508482084
-0.00693089608103
-0.00543480273336
0.0175198875368
-0.00741957593709
0.0152348671108
0.00296937674284
7.43435448385e-05
-0.00603967346251
-0.0111633408815
0.00575151201338
0.00324052432552
0.00235048006289
0.0196282938123
0.00596127659082
0.000789136218373
-0.00107447896153
0.00889676623046
0.00695021590218
0.00674373004586
0.000917780213058
0.01585733518
-0.00504501629621
-0.00882568396628
0.0107798976824
0.00753947487101
-0.00657097809017
0.00630799913779
0.00182499899529
-0.0094442544505
-0.0185808967799
0.00752410059795
-0.00290707289241
0.000269002572168
0.00270057842135
0.00696981372312
0.0060379896313
0.00355997681618
0.00355534814298
-0.000773455656599
-0.00755769945681
0.0166472811252
0.000297108665109
-0.00314300344326
-0.000605634762906
0.00514370668679
0.00669430010021
-0.0143510093912
-0.00662246439606
0.0115743484348
-0.00697213318199
-0.00771592510864
0.00115640100557
0.0115778790787
0.00445673987269
0.00983081758022
0.0131224719808
0.00999343860894
0.000221661204705
0.00283162412234
0.00635803351179
-0.00162067706697
0.00822691433132
0.00219422066584
0.00241767847911
-0.00549749424681
0.00659782625735
0.00416790321469
0.00378136942163
-0.0051994798705
0.00949221476912
0.0107573131099
0.00866630766541
0.0076741152443
-0.00266814418137
0.00147259747609
0.0118977548555
0.0109038967639
0.0170160252601
0.00940112303942
0.00857457797974
0.00498495670035
-0.00153546757065
0.0174350943416
0.00347421481274
0.00911392550915
0.00707717984915
0.00815203040838
0.00952927581966
0.00237115868367
0.00866026710719
0.00364278652705
0.0106962369755
0.00517809577286
-6.27625195193e-05
-0.00195047282614
0.0176293905824
0.00366836367175
0.00127126066945
0.0055882986635
0.0110974078998
0.0142107447609
0.00379761611111
0.00336756743491
0.00316076981835
0.011905817315
0.00636807782575
0.00636023189873
0.00465349340811
0.00227160961367
0.00437294924632
0.00872668996453
0.000661877391394
0.0116527881473
0.00715608848259
0.00551470182836
0.0144051006064
0.0132662365213
0.00199801311828
0.00932920537889
0.00340079166926
0.00114266364835
0.00733210146427
0.00517755048349
0.0144033590332
0.00332501740195
0.0031018264126
-0.00866151787341
0.00240944419056
-0.00205155927688
0.00691252294928
0.0202982816845
0.000909430673346
-0.000641604710836
0.00336332153529
0.00396902859211
-0.000279261817923
-7.59984031902e-05
0.00854248460382
0.00362907559611
0.000628023059107
-0.00326666049659
-0.000499693967868
0.00373182492331
0.00219907960854
0.0139047047123
0.00635494990274
0.0105850445107
0.0147274192423
0.0188952963799
0.00161950895563
0.00394580466673
0.00333794392645
0.0130104757845
-0.000160572890309
0.00539519824088
0.00517850602046
0.00183664949145
0.00336217228323
-0.00448850030079
-0.00371982203797
0.00667583849281
0.00517064798623
0.00577712105587
0.0144275622442
0.00762677984312
0.00166144920513
0.00456250738353
0.00278142327443
0.00163367821369
0.00661785947159
0.000973226793576
0.0099720209837
0.00692455936223
0.00923218205571
0.00321638886817
0.0055954894051
0.00900083500892
0.00263654626906
0.000233348546317
0.0209475252777
-0.00117501220666
-0.00582126062363
0.00251742545515
0.00721397995949
0.000433128705481
-0.00256794085726
0.00384023995139
-0.000579225132242
0.0090628452599
0.0120309442282
-0.00226733088493
-0.000172860003659
0.0124175455421
-0.00744439568371
-0.00188610341866
-0.000251673627645
0.00688306987286
-0.00860203430057
-0.00252654403448
0.000760518771131
-0.00233462778851
0.0193015187979
-0.000646455562674
-0.00231297290884
-0.00168627174571
0.00178985705134
-0.00421459879726
-0.00479248957708
-0.00611781235784
-0.00435204943642
-0.00126056466252
0.00329718878493
-0.00243623391725
0.00481326319277
0.000826906878501
0.00234478060156
0.00735473632812
-0.000757317291573
0.000975664414
0.00296016735956
-0.00063250225503
0.0105231525376
0.00326478783973
-0.00754040433094
4.01855832024e-05
0.00241636205465
0.0051583587192
0.00224815541878
0.000459002854768
0.000589224684518
0.00698011275381
0.0109796915203
-0.00755386799574
-0.00365066132508
0.00306121842004
0.00666466075927
0.00489005772397
0.00724206771702
-0.00226128776558
-0.00600493792444
0.000243142145337
-0.00185094948392
0.00764926057309
-0.00330324610695
-0.00336723588407
0.00268075545318
-0.00387493800372
0.00883839093149
0.00637698778883
-0.0011705114739
0.000500059977639
-0.00418603001162
-0.00382883264683
0.00891854334623
-0.00356088252738
0.0120249856263
0.00711949169636
0.00776967220008
-0.0109810708091
0.0036606756039
-0.00257833348587
-0.000670351553708
0.00559876486659
0.00297814235091
0.00797888822854
0.000797576736659
-0.00401938753203
-0.00239268084988
0.00179449410643
-0.00367300095968
-0.000849388656206
0.000663047132548
-0.00588167971
-0.00843626167625
-0.00030186821823
0.000346244632965
-0.00843499973416
0.00915247108787
0.00759343197569
-0.00149181671441
-0.00227082776837
0.00497792148963
0.000679946911987
-0.00315062375739
0.00379130756482
0.00837224069983
-0.0074802255258
0.0059390803799
0.00225323392078
-0.000644201936666
-0.00325043825433
0.00556241162121
0.00115935539361
-0.00761089706793
-0.00130182912108
0.00545125128701
-0.00238262536004
0.000107963154733
0.00179529888555
0.00339763564989
-0.00347720319405
0.0014057578519
0.00721203675494
-0.00279004080221
-0.00869194511324
0.00425824616104
0.0054997690022
-0.00441000284627
-1.98333327717e-06
0.00805559102446
-0.00220362260006
0.0132526662201
-0.00257234182209
0.015609992668
-0.0153455464169
0.00171416648664
0.0109467161819
-0.0233426354825
0.0305372942239
0.00270835496485
0.0309369955212
0.00838435068727
-0.00931885838509
0.0134529424831
0.0257042832673
0.0028392765671
0.000548079027794
-0.00413164310157
0.0126965167001
0.0192709732801
-0.00825108122081
-0.00351683283225
-0.0164230447263
-0.0101739829406
0.00857854634523
-0.00957158207893
0.0112286703661
0.00592893594876
-0.0280318129808
-0.00180283247028
-0.00344017869793
-0.0182815846056
-0.0253703594208
-0.00485352193937
-0.0117524964735
0.00203439756297
0.0134490961209
-0.0163144282997
0.0146687496454
0.00877373013645
-0.0145272044465
-0.0142286997288
0.0464986301959
-0.00414594495669
0.00145797419827
-0.00248392531648
-0.0263936687261
0.0113689415157
-0.0345561131835
-0.00833559222519
-0.00205064727925
0.0152079081163
-0.00968997739255
-0.0180341154337
-0.0221399590373
-0.0182345882058
0.00659115379676
0.0256756115705
-0.0207578185946
0.00352252018638
-0.0170326158404
-0.0288998782635
-0.00592766795307
-0.00833030324429
0.00503510981798
-0.0293276049197
-0.00667784037068
0.00825966801494
0.0188044477254
-0.0166653376073
-0.00317703187466
-0.00329537712969
0.0108792250976
-0.015260878019
0.00487218610942
-0.0236172042787
0.00140659778845
-0.0122610917315
0.0233129393309
0.00522498646751
-1.32576824399e-05
-0.0117516685277
-0.0240060351789
-0.00795800052583
0.0128370709717
0.00286411331035
0.0428480021656
0.0184408370405
0.00174564879853
0.00617752596736
-0.00650377664715
0.00565722770989
0.000709171989001
-0.0195229910314
-0.000154060719069
-0.00209487346001
-0.0158175490797
0.0131039489061
-0.00746246892959
-0.0174331311136
0.0142038753256
-0.00196156091988
-0.0202492699027
-0.000886440102477
0.0213887561113
0.00468349223956
-0.00650377105922
-0.0151118636131
0.0104019613937
0.00834804400802
-0.00305244419724
0.0120589472353
-0.00251280656084
-0.017436940223
0.0286573637277
-0.000637566321529
-0.0133350072429
-0.0108788181096
0.00351118203253
0.00180304644164
-0.0224723424762
-0.00583384232596
0.0167036335915
-0.0116318864748
-0.0201176237315
-0.0078143030405
0.00151280302089
0.0202324669808
-0.000126974118757
-0.00182299036533
0.00605501001701
0.0115209370852
-0.00758844055235
0.0114790545776
0.000633400166407
-0.0349970906973
0.0154860578477
0.00455565145239
-0.00246744509786
0.0219592992216
0.00407279049978
0.00232843006961
0.00163417460863
0.0194142311811
0.0045078783296
-0.000469388818601
0.0223051104695
-0.00739662302658
0.000212175713386
0.0130154490471
0.0124656874686
0.0102971419692
0.0261358246207
0.00487612467259
0.0251476690173
0.0211884081364
0.00567965488881
0.00285238423385
0.0172725021839
0.0128603661433
-0.009630757384
0.00235174712725
-0.00188492995221
0.00945448130369
0.0193344410509
0.000725236372091
0.0134125435725
-0.00455715879798
-0.00867645442486
0.017719887197
0.00676040025428
-0.00129061262123
0.00803833734244
0.00343154743314
0.0114677483216
0.010486477986
-0.00790788792074
-0.00274385791272
0.0125488666818
0.0233176667243
-0.00764551945031
-0.00137597799767
-0.00765881547704
-0.0124373026192
0.0173666272312
0.0221323743463
0.00622828258201
0.0183693282306
-0.00377121684141
0.00828829500824
0.00811457354575
-0.0107956202701
0.0104668699205
-0.00337927532382
-0.00505261449143
0.0167904403061
0.0120589397848
0.00876286160201
0.00491328397766
-0.00804101768881
0.0239420961589
-0.0101459017023
0.00438540242612
-0.0213871654123
0.0251040458679
-0.011395146139
0.0113123133779
0.00819242373109
-0.0114271026105
0.00215421966277
-0.00405828468502
0.00890732929111
0.0192459002137
0.00981761515141
0.00288463383913
0.011998295784
0.00344259594567
0.00633739260957
0.0119502060115
0.0252822749317
0.0125825144351
0.00609842222184
0.0363105796278
-0.010517898947
-0.0106706451625
0.0116043277085
0.0171724725515
-0.0205850638449
0.0235559176654
0.0113704530522
-0.00774034950882
0.0294157005847
0.0227101240307
-0.00801907666028
-0.00552112376317
-0.00615001376718
0.0186102353036
-0.00358756631613
0.00683679664508
0.0224081799388
0.0124410204589
-0.0154988914728
0.00323483883403
0.00774702476338
-0.00255861924961
0.0126526784152
0.0147916059941
0.0115880984813
-0.00759718101472
0.0284686591476
0.020882319659
-0.0133432522416
0.00463473936543
0.025702605024
0.00563797820359
-0.00723775476217
-0.0240992456675
0.000139524825499
-0.014807487838
-0.00337670790032
-0.00529943360016
-0.0175475794822
0.0386963449419
-0.0371592231095
0.0027914091479
-0.0201377887279
0.0358967483044
-0.00593540770933
-0.00273524667136
-0.000431508175097
0.0303277224302
-0.00841221120209
-0.00922933407128
-0.0173878259957
-0.0038073186297
0.0448717325926
-0.0112774614245
-0.0064668529667
-0.000290378229693
0.00135193567257
-0.0087125832215
-0.00622993940488
-0.00201963982545
0.00548927905038
0.00179845048115
-0.00164687482174
-0.0108828013763
0.0139708900824
-0.0159642603248
-0.0222937893122
-0.00566040258855
-0.0130456667393
-0.0111674414948
-0.0109150800854
-0.00872666109353
0.0122879892588
-0.00471122842282
-0.00973791908473
0.00373856769875
-0.00253668660298
-0.0139204701409
-0.0199801903218
-0.00380486203358
0.00241218763404
0.0200189091265
-0.00620118482038
-0.0153231611475
-0.00841913651675
-0.0191906895489
0.00329340156168
-0.00166650186293
-0.0181931443512
-0.0118446685374
0.00429421663284
0.00261827907525
-0.00862528197467
-0.00772282341495
-0.000205209231353
-0.00399924302474
-0.0149090718478
-0.00382717652246
0.0036946174223
0.00130878132768
-0.0121126528829
-0.0116980392486
-0.00293736578897
-0.00280121248215
-0.00326124555431
0.0210020467639
0.00141013297252
0.0231324266642
-0.0170338600874
-0.00755208358169
-0.0078379092738
0.0125770308077
0.00932535342872
-0.00925838947296
0.017476523295
0.00950528867543
-0.00844958983362
-0.0129329040647
-0.00361797725782
0.0170199293643
0.0132444603369
-0.0102453175932
-0.022525947541
-0.00455746380612
-0.00542036257684
-0.0151368649676
0.00111908977851
-0.0102276671678
-0.00543374195695
-0.0143951121718
0.00760549865663
-0.0016808953369
-0.0207846723497
-0.0226069819182
-0.0134147331119
-0.00389193370938
0.0202723201364
0.0159505717456
0.00921814050525
-0.0195892080665
-0.00857605878264
-0.0100610638037
-0.0409047305584
-0.0123410085216
-0.00182632962242
-0.00375081948005
-0.0203026626259
-0.011847785674
-0.0142180621624
-0.000287606875645
0.00167426106054
-0.0141922682524
-0.0145183252171
-0.00111933262087
0.00774534698576
-0.00951882917434
-0.017751134932
0.00765289179981
0.00678085722029
-0.010029903613
0.00895872712135
0.0111092478037
0.00324131827801
0.00444048922509
0.0138998096809
-0.00960082840174
0.0051858429797
0.00461827265099
-0.00348089402542
0.0243733748794
0.0060975602828
0.0277544911951
0.00554111413658
-0.00974510423839
0.0125511232764
0.0208839140832
-0.000441864860477
-0.00403887126595
0.0024858948309
0.0151032628492
0.0261269398034
-0.00508884480223
-0.00472128298134
-0.0181356463581
-0.0174585208297
0.00271045905538
-0.00953292474151
0.0098542002961
5.50181939616e-05
-0.0314498133957
-0.00632300553843
-0.000261766806943
-0.0223225392401
-0.0162128582597
0.00673004146665
-0.00836826954037
0.00425484031439
0.0133004216477
-0.0121659133583
0.0156226763502
0.0178336407989
-0.00906184222549
-0.0194627437741
0.0359252691269
-0.0039793336764
0.00544743798673
0.00858199689537
-0.0249286778271
0.00923657324165
-0.0408089980483
0.00253433710895
-0.00252162246034
0.0134207699448
-0.00283018103801
-0.0151191325858
-0.0136692374945
-0.00288971490227
0.00703758839518
0.00883366912603
-0.0230982974172
0.00158020516392
-0.0100748110563
-0.0310668740422
-0.00994177721441
-0.00321451365016
-0.0059044486843
-0.0205133296549
-0.00233807531185
0.0112108057365
0.0196904800832
-0.0205142758787
-0.00731384567916
0.00485288258642
-0.00194514519535
-0.00419295253232
0.00211792788468
