-0.017575353384
0.104174219072
-0.182953447104
0.00756728323177
-0.0137788429856
0.0266880057752
0.0405477583408
0.0577309988439
0.0536530204117
0.064435377717
0.0492542684078
0.0125323263928
0.0202719066292
-0.0504678860307
0.0381542369723
0.0430539101362
0.00891304947436
-0.0135421203449
0.0561548732221
0.00381849170662
0.0427582897246
-0.0200728159398
0.0324489250779
0.041075270623
0.0535569451749
0.0159041471779
0.0175833180547
-0.0109310001135
0.146011888981
-0.0265386812389
-0.0606985799968
0.0445711947978
0.00109307875391
-0.00741368206218
0.0218036863953
0.00373776233755
-0.000797561137006
-0.0185188688338
0.0296922754496
0.00591219449416
-0.0225326567888
0.0223145689815
-0.0192223861814
-0.000763867108617
0.0514334365726
-0.00299027678557
0.0595760755241
0.0321406424046
0.0290086884052
-0.0883263424039
0.0232626087964
0.00797131750733
0.027673188597
0.0065979831852
-0.000301051855786
-0.0257290396839
0.00358377420343
-0.0159820672125
-0.0140018779784
0.0129514662549
0.0155192371458
0.0262772049755
-0.0725736618042
-0.00999105535448
0.0036355019547
0.122597455978
0.0336301550269
0.0149407284334
0.0581272430718
0.0314265936613
0.00785726681352
-0.00187829544302
0.0678111612797
0.0714716687799
0.0870924293995
-0.000774497864768
0.0264318734407
0.0270053874701
0.0153152570128
0.0140773244202
-0.0154994791374
-0.0477163605392
-0.00534488586709
0.010514752008
0.0221807155758
-0.00162761076353
0.0270414445549
0.0485743954778
-0.0224594492465
-0.0160552561283
-0.0140293845907
0.0290571581572
0.00332235428505
-0.0285029727966
0.015293886885
-0.0232947077602
-0.0104789109901
0.0172456670552
-0.0404033958912
0.0531235449016
0.143341034651
0.0323208943009
-0.0145053053275
0.0355613380671
0.0593325421214
0.0105750551447
0.0382106266916
-0.0133408661932
0.0145500004292
0.110318124294
0.010888883844
0.0441755726933
0.0150604816154
0.0463655479252
0.0212764944881
0.0168296769261
0.0320084691048
0.0657305940986
0.0128492563963
-0.00792097486556
0.0332750715315
0.0258317440748
0.0253367405385
-0.247363582253
0.0424991026521
0.0383366644382
-0.0184551607817
-0.0405900143087
-0.024053286761
-0.00724622560665
-0.101632706821
-0.00279401545413
-0.149976789951
-0.0373560599983
-0.00889253430068
-0.0344495251775
-0.0316225476563
-0.000860723899677
-0.016632206738
0.000287443195703
-0.032902687788
-0.0173191577196
-0.0533438622952
-0.0128143085167
-0.00169902865309
-0.011694601737
-0.0588774345815
-0.0206535793841
-0.0155130904168
-0.0653628781438
-0.00942034646869
0.0173078794032
-0.080937884748
0.00199615722522
0.000748992024455
-0.0471551269293
-0.00777218677104
-0.0347359217703
-0.0318793877959
-0.00229644612409
-0.00394019158557
-0.0101147890091
0.0226626489311
-0.000441783253336
-0.0276119820774
0.16619117558
0.0293409116566
-0.0205503534526
-0.0147586772218
0.0030489268247
0.0162919517606
-0.0228118691593
-0.0265589561313
-0.00394442584366
-0.00624795956537
-0.0268530342728
-0.0304153077304
0.0196697115898
-0.000437078735558
-0.0173460096121
-0.00379709317349
-0.0135385105386
-0.00532098626718
-0.0558311976492
-0.0259041357785
-0.0136694051325
0.00520693697035
0.0554148554802
-0.0033876535017
-0.00805076304823
0.050603505224
-0.0198180489242
-0.0437025092542
-0.0376801453531
-0.0108101451769
-0.000714613008313
-0.0144324423745
-0.0736610963941
-0.0210117511451
-0.0306943692267
-0.0075825760141
0.0104173747823
-0.0158257391304
0.00540051376447
-0.013310530223
-0.0367995351553
-0.0515398308635
-0.0191879738122
0.0114245470613
-0.00685546081513
0.0349718369544
-0.0461663678288
-0.0535285808146
-0.0305856410414
-0.0361926034093
-0.0129570765421
-0.021311217919
0.0152580663562
-0.0141495913267
-0.00928464625031
0.0161299165338
-0.0451481305063
-0.0113905444741
-0.0322306342423
-0.00515773287043
-0.0292807519436
-0.0354958735406
-0.0644990876317
-0.0409456267953
-0.0260592661798
-0.00980833638459
-0.0133088408038
-0.0142780775204
-0.00557425571606
-0.0263857059181
-0.0345690213144
-0.00370834046043
0.00344288256019
-0.0407137833536
-0.00136423658114
-0.00723144970834
-0.00101777911186
-0.0319501645863
0.000490119913593
-0.00492289522663
-0.0509120225906
0.0342822186649
-0.0180094502866
-0.035774640739
-0.0340489633381
-0.03333857283
0.100183650851
0.0205439869314
-0.0317236669362
-0.00764577323571
-0.146616965532
-0.0108724422753
-0.0342387408018
0.015954207629
-0.0399945229292
0.0169479101896
0.00633586803451
-0.0544978044927
-0.0170256644487
0.0159825384617
-0.0244255848229
-0.0327642820776
-0.0258354637772
0.00434172991663
0.00109524966683
-0.0829581841826
-0.0354045070708
-0.00936540123075
-0.00435894913971
0.00169965450186
-0.00997795723379
0.0239241439849
-0.000684013706632
-0.047709081322
-0.053450088948
0.047594498843
-0.0204277709126
0.00514317443594
-0.03242623806
-0.0601425170898
-0.00611796183512
0.0412954203784
-0.024953154847
-0.0174039229751
0.00433428213
-0.00277114589699
-0.0191903915256
-0.00145445554517
0.027703192085
-0.0540576018393
-0.0267658997327
-0.0456733442843
-0.0347430445254
0.0232426766306
-0.00627293717116
-0.0147437974811
-0.0451403781772
0.0190430413932
-0.0267245490104
0.00416425522417
0.0198261160403
-0.03188405931
-0.0407701618969
-0.0370329618454
-0.0334855429828
-0.0340253226459
-0.0195227190852
0.00816605985165
-0.0722861513495
-0.00549816992134
-0.0514895878732
0.00998640246689
-0.0350764766335
0.0205044709146
-0.00827410724014
-0.0332939699292
-0.0564786419272
-0.0918191820383
-0.0136272218078
-0.0142571451142
0.028638234362
-0.0230714548379
0.00774673046544
-0.0220940932631
-0.0503524057567
-0.0381650663912
-0.00200409861282
0.00483335647732
0.00784470979124
-0.0267112180591
0.0133982719854
0.00949503667653
-0.0163974892348
-0.00123488123063
0.0180205833167
0.0204228963703
0.00252794497646
0.0011712560663
-0.0286493804306
0.00866807997227
0.0322406031191
-0.00285662477836
-0.0521340146661
-0.00354151055217
-0.0374871268868
-0.0074173216708
-0.0078817140311
0.00148307182826
-0.00196644291282
0.0173183549196
-0.0130762206391
0.00786379165947
-0.0091943256557
-0.00111270858906
-0.0503198690712
-0.0023952992633
-0.0204308498651
-0.0090139079839
-0.0161069445312
-0.0314368158579
-0.0292777828872
-0.00175970268901
-0.0569224320352
-0.0139962080866
0.0421502813697
0.00557907857001
-0.0303762760013
-0.0466151498258
-0.0846575051546
-0.0656458884478
0.00704467762262
0.00557556049898
0.0106231737882
0.00999658089131
0.00441904272884
6.22019870207e-05
-0.00617121998221
-0.0137022035196
0.0230231974274
0.0166301485151
-0.0329501181841
0.0039320429787
-0.0574653334916
0.00397466961294
0.0108658568934
-0.0645267963409
-0.0600610338151
0.0379927307367
-0.027118626982
-0.0623013563454
-0.0332629308105
0.00888749025762
-0.029805092141
-0.105921685696
0.000167017875356
-0.0505843907595
0.0330123305321
0.00174722773954
-0.0185185745358
0.00435631396249
0.0084175420925
-0.0636646673083
-0.0240751709789
0.0369084514678
-0.0515948608518
0.0235062409192
-0.0264111384749
-0.00656746793538
0.0263383481652
-0.034015443176
0.00422301376238
-0.0316615141928
0.0248999428004
-0.0254486557096
-0.0144305806607
0.0218312479556
-0.0219229906797
-0.0365778654814
-0.0537569969893
-0.00359323457815
-0.0446533635259
0.00924101937562
0.0195366609842
-0.00234147836454
-0.0308702904731
0.00581774907187
0.00186225376092
0.00880262628198
-0.0725506022573
-0.0498228035867
-0.0438601337373
-0.0437646657228
-0.0322345644236
-0.0502278916538
-0.0196656920016
0.031530443579
-0.0439490526915
0.00655148504302
-0.0391639657319
-0.040733769536
-0.0372830219567
-0.036090940237
0.0239382926375
-0.100062325597
-0.127196028829
-0.0305265095085
-0.0166659038514
0.00476092798635
0.0203996412456
-0.0607305020094
0.0338459573686
-0.0445651374757
-0.0385050550103
0.000346602580976
-0.0424454808235
-0.00132021598984
0.0119151640683
-0.0294473376125
-0.0306349806488
-0.0203601494431
0.00786304939538
-0.0509734526277
0.0218519233167
0.00139535788912
0.0302771423012
0.000151439002366
-0.0653064027429
0.0288788825274
-0.0198531839997
0.0229740273207
-0.0604556165636
-0.0161009505391
-0.00841181818396
0.00885836686939
0.0277257245034
0.00301101244986
-0.0456701517105
-0.0134831601754
-0.00613562529907
-0.00195286772214
0.00439566420391
0.0222445018589
-0.0537070333958
-0.0312876850367
-0.0457661338151
-0.000927705259528
0.01138195768
-0.0528869889677
-0.0342676490545
-0.029529908672
-0.0547387674451
-0.00767950154841
-0.0269917435944
0.0143714183941
-0.0466312803328
-0.0583727844059
-0.120732277632
0.0139004755765
0.0277865342796
0.0126539217308
0.0154570480809
0.0167353115976
0.0959591642022
-0.0345475822687
0.0117790484801
0.0057022399269
-0.0300159752369
0.00806029792875
0.0775214135647
-0.0861356034875
-0.00456069037318
-0.103338167071
-0.0317511893809
-0.000709523097612
-0.065348431468
-0.0549326501787
-0.0181015767157
0.0193607155234
0.00219469796866
-0.0112720392644
-0.119957983494
0.111986301839
0.00363349402323
-0.00218284898438
0.00896433740854
-0.0601219907403
-0.0119259031489
-0.00090939947404
-0.0756396651268
0.0022177125793
0.0479324199259
-0.0560939535499
0.0124339694157
0.00795548874885
-0.0620296522975
0.0210589896888
0.0101254256442
-0.114079959691
0.0988139808178
0.0337969101965
0.0116524882615
0.0752525702119
0.00166390661616
0.0185544770211
0.0390226729214
0.0411561392248
0.00818266067654
0.0693650394678
0.0548314712942
0.033373400569
0.0295718293637
-0.0171654801816
0.0797648280859
-0.0399905778468
0.0255860555917
-0.00206085434183
-0.0755701586604
0.000691524881404
-0.0375134050846
0.00349881174043
0.0183434784412
0.0127682927996
-0.042250264436
0.00237781787291
0.0721857771277
-0.0498491711915
0.101163387299
0.0188215393573
-0.0212879460305
0.0102609703317
0.0373534485698
0.0184840392321
-0.0687398165464
0.0847646892071
0.0211785081774
0.0281665474176
-0.107678540051
-0.0101503226906
0.00512642599642
0.0172158423811
0.036676004529
0.00462740333751
0.00179540668614
0.00189338193741
-0.0326020233333
-0.116023913026
-0.072875328362
0.0168689172715
0.0446802712977
-0.0468233302236
0.00719814514741
-0.0239043813199
0.00759476935491
-0.0309566780925
0.0411486439407
0.0379824899137
-0.0452492833138
0.0423516780138
-0.00710077537224
-0.00996058620512
0.0584960617125
0.0142915491015
0.0157287344337
0.0386741273105
-0.0624175444245
-0.00334471091628
-0.0735758468509
-0.0707221478224
-0.0214967224747
0.0395442023873
-0.00523264473304
-0.00125923880842
0.00176160805859
-0.00906438473612
-0.0161295663565
-0.00143854983617
0.0820996463299
-0.000191238214029
-0.00641963770613
0.0163416527212
-0.031766641885
-0.00230891443789
0.00611028121784
0.00915549043566
-0.0912631601095
0.0723676532507
0.0121417576447
-0.0261778365821
-0.0278745926917
-0.0236748550087
0.0984591990709
-0.0121488841251
-0.0185286123306
0.00672473106533
-0.222060292959
-0.00504226516932
-0.0467159338295
0.00956744514406
-0.0244306474924
0.00174947001506
0.000542377994861
-0.0333583839238
-0.0561016388237
-0.0133258383721
-0.0309862755239
-0.0145998364314
-0.0416690446436
0.00805275142193
-0.0330671258271
-0.0292120687664
-0.0517535433173
-0.0171578172594
-0.00586116267368
0.00298555172049
-0.0290435887873
-0.00184954691213
-0.0406023971736
-0.0256710425019
-0.0627655908465
-0.000260716275079
-0.0343796797097
-0.00968690682203
-0.0415616668761
-0.0635033249855
0.00512607907876
0.00421126140282
-0.0235098898411
-0.0017996764509
0.0123277613893
0.000856691680383
-0.00472091138363
0.0110532799736
0.0168531108648
-0.0103682689369
-0.0532474555075
0.00861852988601
-0.0358568653464
-0.0251440312713
0.00263021956198
-0.0345498993993
-0.0376410670578
-0.0386602655053
-0.0105035537854
0.00507557345554
0.0254263710231
-0.0238371100277
-0.0433765910566
-0.0194964893162
-0.0186812300235
-0.00541151640937
0.0216882545501
0.00562768289819
-0.0418260544538
0.00968987680972
0.0181656684726
-0.0392944738269
-0.0309733543545
-0.0291564650834
0.0100362058729
-0.0532660037279
-0.0386662110686
-0.0305105634034
-0.0233754180372
0.00825855508447
0.00700225774199
-0.0284310728312
0.00917494762689
-0.0397203043103
-0.059339441359
-0.0381936095655
-0.0370426103473
-0.00414738338441
0.00205115508288
0.00335498084314
-0.0212230514735
0.0283655766398
-0.0183320902288
-0.0298728272319
0.00868991017342
-0.0175784416497
0.0133311524987
0.0142013151199
-0.0342340841889
0.0136273596436
-0.0357779189944
0.0177570059896
-0.027830036357
0.014316663146
-0.00134499778505
-0.00896561983973
0.0110697047785
0.00210199435242
-0.0467419102788
-0.038969848305
0.0251091308892
-0.0323301814497
-0.0169232934713
0.0150806019083
-0.0334404855967
-0.0166006218642
-0.0356146171689
-0.00869659613818
0.0186058152467
-0.0219357460737
-0.0301993880421
-0.00521195679903
-0.0305469185114
-0.0127574969083
-0.0257147271186
0.0126694217324
-0.0260584875941
-0.0247015170753
-0.0359349064529
0.00414818478748
0.0104750152677
-0.00501800701022
-0.000767833320424
-0.00330830179155
0.0698473006487
-0.0241421796381
-0.00726167298853
0.00901836156845
-0.00866872724146
0.00417963787913
-0.00839646253735
-0.0263452604413
-0.0277098771185
-0.0844660922885
-0.0116960611194
-0.0565267056227
-0.0286384001374
-0.0247557498515
-0.00522338040173
-0.041192561388
-0.0311585050076
-0.00693448260427
-0.0711497813463
-0.0899662896991
-0.061215672642
-0.0117313154042
0.0292148925364
-0.0211328081787
-0.0203962475061
0.000480452377815
-0.0358326211572
-0.0474687628448
-0.0251438766718
-0.0192666891962
-0.0327583737671
0.00155497144442
-0.00776700396091
-0.0514145642519
-0.00389255327173
-0.114859521389
0.0198093429208
0.00549603300169
-0.00284702889621
-0.0843448638916
-0.0516121648252
0.0038135109935
-0.0264029018581
-0.0584855154157
-0.0591390170157
-0.00639203609899
-0.00350661855191
-0.0243187751621
0.011824416928
-0.00952335912734
-0.0247103087604
-0.0713591650128
-0.0299797393382
-0.00455006537959
-0.0732750743628
-0.0338652059436
-0.0325966402888
-0.0433119349182
-0.0348576791584
-0.0445750020444
-0.0688449516892
0.00882075540721
-0.0187108293176
0.0385339222848
-0.0410982593894
0.00461734458804
0.00310369837098
0.0500100143254
-0.00756017118692
0.0168112348765
-0.0559923425317
0.00647997157648
-0.0416269563138
-0.0184226911515
-0.0299883633852
-0.0184494499117
0.00908938981593
-0.0111712096259
-0.0380878150463
-0.0405477322638
-0.0602929368615
-0.0442455299199
-0.00989615172148
-0.0244686026126
-0.0168899465352
-0.0212521944195
-0.00253285910003
-0.0565759837627
0.0363224595785
0.0409173071384
-0.00487902760506
-0.024604300037
0.0139473946765
-0.0073611647822
-0.00362253887579
-0.0104041034356
-0.0518226064742
-0.0548605471849
-0.0507551021874
0.0217839553952
-0.00402195379138
0.0208275020123
-0.0339422300458
0.00445618573576
-0.0527829900384
-0.0602342002094
-0.00910794828087
-0.00625844206661
-0.0557510107756
0.0028436947614
-0.00522813852876
-0.00804352387786
-0.0311365202069
-0.030035186559
-0.0127670923248
-0.0422909110785
-0.00270618661307
0.0171546097845
-0.0326388888061
-0.00401658099145
-0.0284588448703
-0.0523672327399
0.0297578889877
-0.0407853350043
-0.00159365672152
-0.0129334451631
-0.0108975749463
-0.00900470651686
0.0619085840881
0.0636519342661
-0.0131012881175
-0.0980062112212
-0.10757342726
0.00221665319987
0.0132389822975
0.0217323247343
-5.05859024997e-05
0.0097374888137
0.00771814770997
0.0199296958745
0.00501463748515
-0.0196741428226
-0.00954003073275
0.030833074823
-0.0351715311408
0.0342924185097
0.0923005416989
0.0687786489725
-0.00666949851438
-0.044940572232
-0.00160384282935
0.0179095081985
0.00523825129494
-0.00231069116853
-0.00124774791766
0.00797617342323
-0.0611602477729
-0.0775842517614
-0.018494868651
0.0100211529061
-0.0085392203182
-0.0723883286119
0.0164179969579
0.016630705446
-0.0183562599123
-0.0412188917398
-0.00237101735547
0.00392257189378
-0.00268364930525
-0.0123399635777
0.0431238263845
0.0769486576319
-0.0498491600156
0.0147575875744
0.00918886065483
-0.0290038138628
-0.00167801091447
-0.00334664061666
0.021168584004
0.00308916484937
0.0121424617246
0.0318139232695
0.0528439432383
-0.0044442336075
0.0277883764356
0.0138182109222
0.00487102614716
-0.0194591600448
0.0210237521678
-0.00303774140775
0.0327262245119
-0.0243954397738
0.0225929338485
-0.0630023255944
-0.0690145343542
-0.048337161541
-0.00313941831701
0.0108519941568
0.0312744826078
0.0267445165664
-0.0244656074792
0.00635180948302
0.0296275280416
-0.0101699521765
-0.00403287820518
-0.00447019515559
-0.0828692018986
-0.0511291697621
-0.0199760459363
0.0603288337588
0.00952562782913
0.0145337115973
0.061489906162
-0.0861175656319
-0.00411925185472
0.0616825483739
-0.0284643135965
-0.0584699697793
-0.0121555179358
0.0337469168007
0.0461376495659
0.0297776032239
0.0163237825036
0.023164127022
0.00618301564828
-0.0476712323725
-0.0167934056371
-0.0029887878336
0.00251096021384
-0.0143442749977
-0.0159605666995
-0.0038020669017
0.00550879538059
-0.0635313764215
0.0169934742153
0.0257405638695
0.0138879651204
-0.0152736697346
0.00694272480905
-0.00830711424351
0.0144568551332
-0.0308033414185
0.00307090883143
0.0241439063102
-0.0766294822097
-0.000650474161375
-0.0776097401977
0.02045333758
-0.0110621061176
0.0137015106156
0.0389761477709
-0.0080252699554
-0.0110738221556
0.00639230106026
0.011190995574
0.00930603407323
0.0184713397175
-0.0418330542743
0.00344867026433
0.0272569451481
0.132478937507
-0.000917565077543
-0.0354262180626
-0.0185644533485
-0.0474634170532
-0.0146131562069
0.0172229222953
-0.0711420178413
0.00957386381924
-0.0409907102585
-0.00546222412959
-0.0452281534672
-0.0468257516623
0.0170911755413
-0.0658641085029
-0.00719591928646
-0.0535070225596
-0.0308472532779
-0.0161447059363
0.0230344161391
-0.0355808362365
-0.0149852680042
-0.00586070632562
-0.05777842924
-0.0652725175023
-0.00501068076119
-0.0540779605508
-0.0232879873365
-0.062046982348
-0.0208583660424
0.00776642467827
-0.0424361564219
-0.0193315967917
-0.0153808780015
0.00357268890366
-0.078659042716
-0.0262968093157
-0.00175110797863
0.0228624027222
-0.0337844789028
-0.0124659817666
-0.0417983569205
-0.0256417393684
-0.0129781579599
-0.0147108016536
-0.0118479095399
-0.0574408471584
-0.075190871954
-0.0402134694159
0.0157151333988
-0.0225422605872
-0.0409232117236
-0.0215880554169
-0.0430612713099
-0.0348462611437
-0.0484898872674
-0.0578299686313
-0.00387194962241
-0.0276142638177
0.00536936661229
-0.058894097805
-0.0470040738583
-0.033146109432
-0.0256632138044
-0.00101763685234
-0.0259135458618
-0.104146197438
-0.0136151527986
-0.0122616365552
-0.0171529203653
0.0338553376496
-0.0311138927937
-0.00427583046257
-0.106279447675
-0.0737088024616
-0.0796060264111
-0.0111748864874
-0.0592741891742
0.0178766921163
-0.000158526861924
-0.0123248463497
0.00557824969292
-0.0156671330333
-0.027574563399
-0.00815486628562
0.00687264278531
0.000521584122907
0.0139267984778
-0.0761524140835
0.0124165844172
-0.0284311976284
0.00632390659302
-0.0539526604116
-0.0323600433767
0.013574976474
-0.0149232493713
0.00174698070623
0.00468913512304
0.00269242585637
-0.036168448627
-0.00140118016861
0.0153030725196
0.00320098316297
0.00711273169145
-0.0669928342104
-0.0404276289046
0.00852739997208
-0.00408879248425
-0.0127213280648
-0.0386177301407
-0.00266250339337
-0.0576477125287
-0.0396577641368
-0.0145318647847
-0.0108530921862
0.0197903607041
-0.0318965800107
-0.0575840733945
-0.0111190835014
-0.0193204320967
-0.00191357336007
0.0154382567853
0.0189522039145
0.0168383419514
0.00826216768473
-0.00242647342384
0.00801372062415
-0.00964725296944
-0.06076721102
-0.00706156855449
0.0459844097495
-0.00718984613195
0.0408861786127
-0.0431086570024
-0.0129516096786
0.0734765231609
0.0223741512746
0.0158949643373
0.0501892864704
0.0673155263066
0.0813925117254
-0.0149704217911
0.0174087435007
0.140831828117
0.0318752340972
0.0467373281717
0.0453199446201
-0.00752089591697
0.01587177068
0.00139621575363
-0.0454999618232
0.0416481047869
0.0639844015241
0.029136877507
0.0776270255446
0.0794690623879
0.0607888810337
0.0937611460686
-0.020008681342
0.0126500567421
0.0462346747518
0.0289981663227
-0.00432588066906
0.0425252057612
0.0546162389219
-0.00293805543333
0.03785071522
0.0291453264654
-0.024819880724
-0.0126864733174
0.00397067656741
0.0420399978757
6.15094177192e-05
0.00401263637468
-0.0111640170217
0.0517303943634
-0.00753683969378
-0.0128893982619
0.0385428182781
0.0606031827629
-0.00826262589544
0.0642195492983
0.0392326004803
0.0467177927494
-0.0417053550482
-0.00470974482596
-0.0402544401586
0.103104926646
0.0475845597684
0.00911273714155
0.0766367837787
-0.00351719674654
0.00274800881743
0.0215771794319
0.113442137837
0.0816584303975
0.0335992649198
0.0512639395893
-0.0301231835037
0.0293761026114
-0.00980419013649
0.045758113265
0.0799475759268
0.0503385178745
0.00318603846245
-0.00133718224242
-0.0133704859763
0.0638148337603
-0.0201023034751
0.0762386023998
0.000597128120717
-0.000438875635155
0.0085391253233
0.021409323439
-0.0055237384513
-0.015574217774
0.0688899159431
-0.00899410061538
0.0310480929911
-0.00264818873256
0.057283166796
-0.0458738952875
0.11089745909
-0.00195636297576
-0.0141294421628
-0.0108521878719
-0.00306737073697
0.0555080510676
0.0174223575741
0.00073530926602
-0.00209453422576
-0.00449866056442
0.0502606481314
0.0419554561377
-0.0120887998492
0.00477146543562
-0.00885942019522
0.0418583638966
0.0562834851444
0.00960592087358
0.0627307593822
-0.00255374587141
0.0279465913773
-0.0131461303681
0.0723396241665
0.0599353387952
0.103246882558
0.0445996411145
-0.00241401721723
-0.00841509737074
-0.0138715123758
-0.011119922623
-0.0474508330226
0.0280448123813
-0.00370119442232
0.0190620329231
-0.00986171420664
0.039044894278
0.00371484854259
-0.120665445924
-0.0313929803669
-0.0119647905231
0.0111107630655
-0.008669690229
-0.00228111026809
0.0936889350414
-0.0358693003654
-0.0174560826272
-0.0277728922665
0.00595602439716
0.0938804447651
0.0323674567044
0.0522412136197
-0.0264686178416
-0.0193552207202
0.037030402571
-0.0352141112089
0.0583120696247
-0.0341986529529
-0.00949299801141
-0.0451259315014
0.0810415744781
-0.0499607734382
0.0247369930148
-0.0584855265915
0.00504198437557
0.0534744933248
-0.035125721246
0.0177525710315
0.0178088583052
0.043085642159
-0.0860250741243
-0.00563098816201
0.0361844785511
-0.0988272279501
-0.00884441938251
-0.0137961227447
0.0537273399532
-0.0248521789908
-0.0834002420306
0.0468273125589
-0.0352198518813
-0.0157531537116
-0.0423676073551
0.0501490645111
0.00430611940101
0.00511996308342
-0.03423820436
-0.00687205931172
-0.0115369260311
-0.0720287263393
-0.0277259610593
-0.0530378781259
0.0531717427075
-0.0155116943642
0.0533774644136
0.00837252475321
-0.0122491680086
-0.0272190906107
-0.136491924524
0.033680267632
0.00741224782541
-0.0282758623362
-0.00575815141201
-0.0346597656608
-0.00515819760039
0.0278628282249
-0.0393028073013
0.0530125312507
-0.0483231022954
-0.0196210443974
0.025007231161
-0.0376469269395
0.0612582154572
0.0134349921718
0.00834773015231
-0.072187460959
-0.138116240501
-0.0154354861006
-0.00593421701342
0.0167972818017
-0.0387926585972
0.0380315817893
0.0206237509847
-0.0440549775958
0.0596558786929
-0.0298356916755
0.0520659089088
-0.00072405237006
0.0292998179793
-0.0132841346785
0.0362513549626
0.0458327271044
0.0322824902833
-0.0403379537165
-0.0843745172024
0.103559955955
0.0488982647657
0.0139634972438
0.0509981401265
0.00308318040334
0.0218690261245
-0.0132961142808
-0.032576687634
0.0177385397255
-0.0378716550767
0.0386219322681
0.0735663175583
-0.0239507853985
0.0395406261086
-0.0933192819357
0.0075213140808
-0.040779966861
-0.00365273514763
0.016765313223
0.101634949446
0.0429208874702
0.0114883333445
0.00739601673558
0.00949642155319
0.115187354386
-0.053652189672
0.0168689228594
-0.00533862132579
0.0203415974975
0.00909936707467
-0.0188696496189
0.0221905391663
-0.0126851210371
-0.0033232907299
-0.0324671640992
-0.00708325020969
-0.0316005125642
-0.0171881839633
0.0221280474216
-0.0381684824824
-0.0240267328918
-0.0290990658104
-0.0092384563759
-0.0914002805948
-0.0577224157751
-0.0127409864217
0.071264013648
-0.0558505021036
0.0266823302954
-0.00332321901806
-0.00992663484067
-0.0331324785948
-0.0116305053234
0.0422889702022
-0.0136788180098
0.0145527347922
0.0246338304132
-0.0520605295897
0.00369230401702
-0.0767386481166
0.0133776674047
0.0206822603941
0.0183290597051
-0.0929410234094
-0.0324127487838
0.0213550888002
-0.0778212323785
-0.0381914786994
0.0373988077044
0.0321716666222
-0.020588632673
0.0185848921537
0.0168440304697
-0.0389459133148
0.0451970659196
-0.107560582459
0.0155124431476
-0.0302078668028
-0.0178724359721
-0.0151905864477
-0.0205084420741
-0.00375485210679
0.0834288671613
-0.0125563396141
0.0356631837785
0.0159940496087
0.00132127664983
0.0153618296608
-0.0163673516363
0.0264986231923
-0.0220830757171
0.101427219808
0.0165062174201
-0.0325783267617
-0.050840485841
0.0354528650641
-0.0190404877067
-0.0103231426328
-0.0601016171277
0.0442775413394
0.0155770722777
-0.0253373738378
-0.0363811068237
-0.0369928926229
-0.016956795007
-0.0385428220034
-0.0327145494521
-0.0669570937753
-0.0487400218844
0.0349215976894
0.00537161668763
0.0908652469516
0.0587681345642
0.0268870517612
0.0207912661135
-0.0499433353543
0.00427187653258
0.0036148505751
0.00246911519207
0.00934382155538
-0.0188146326691
-0.0403360724449
-0.0644499734044
-0.00328868371435
0.0151297440752
0.00500545790419
-0.0188939552754
0.0375452116132
-0.0361175127327
-0.13546307385
-0.026561062783
0.00751202041283
-0.0217122659087
-0.0249867532402
0.0141056068242
-0.0241968221962
-0.014801453799
-0.0194897260517
0.00498664425686
0.0185050871223
0.0292708855122
0.0258012916893
-0.0773636326194
-0.0234836414456
-0.0233135316521
-0.00936145056039
0.0156201217324
-0.0330688506365
0.0219839587808
-0.0338163040578
-0.0320722199976
-0.0276190470904
0.118428424001
-0.0185747873038
-0.0289876330644
-0.0783607438207
-0.0224828757346
-0.003505052533
-0.0278782751411
-0.0759056806564
-0.0501208938658
-0.063080817461
0.00414701504633
-0.0611438825727
0.0142363086343
-0.038231484592
-0.00436565792188
-0.0385741181672
-0.030214432627
-0.00103798112832
0.0376621671021
-0.0219500828534
-0.0673842728138
-0.0361915640533
0.0312731564045
0.0101858638227
-0.0540175959468
-0.022678591311
-0.00826673582196
-0.0600130669773
-0.0744577869773
0.0148194087669
-0.0255906023085
0.0286924093962
-0.0496632680297
-0.021623602137
0.00516547914594
-0.018201244995
0.00213947240263
0.00128972867969
0.0124860703945
-0.0921184122562
-0.0206638015807
0.00380576914176
-0.0131375566125
-0.0170413348824
-0.0358280837536
-0.0135723324493
-0.0304139368236
-0.00150732940529
-0.00191192852799
-0.00611505890265
-0.0164534822106
0.00572760542855
-0.0215484686196
-0.0104230595753
-0.0751032158732
-0.0327477902174
0.00418344093487
-0.0345584452152
-0.0320846810937
-0.0279599968344
-0.0554765276611
0.00635492708534
-0.00270163733512
0.00613823300228
-0.0707003623247
-0.0226968862116
-0.0385567396879
-0.0202900227159
0.010125702247
-0.00159328861628
-0.069393210113
-0.038111910224
0.0158652011305
-0.0379694476724
0.0209937784821
-0.0453772991896
0.00467406818643
-0.0875485315919
-0.0630647093058
-0.0734202712774
-0.0366719663143
-0.0434063561261
0.00719720777124
-0.00213878019713
-0.0517705865204
-0.0292072445154
0.0351466573775
-0.0459833145142
0.00903065130115
-0.00853347312659
0.0113129364327
0.0078914295882
-0.0785833224654
0.0177403241396
-0.0552218742669
0.0157099869102
-0.0533094853163
-0.0266867820174
-0.00533169880509
0.00592982489616
0.00390510098077
-0.00117795309052
-0.00405465485528
-0.0350706987083
0.0312259197235
0.0295383110642
-0.0180453546345
0.0150088472292
-0.0563951097429
-0.0505361258984
0.00908118113875
-0.0353415235877
-0.0165655165911
-0.0423303283751
-0.00862286519259
-0.0732940211892
-0.0543090850115
0.00546913314611
-0.0557336993515
-0.00545782642439
-0.0310408808291
-0.056841082871
-0.0386541970074
0.0122566418722
0.0112875429913
0.00408613402396
0.00621088407934
0.00364344101399
0.0391102582216
-0.000881558167748
-0.00703002186492
-0.0289569441229
0.00592422438785
-0.00414056889713
0.0632331743836
-0.118997097015
0.0658959299326
-0.0315823741257
-0.00482666073367
0.0834631174803
0.0029753188137
0.0436635352671
0.0233945325017
-0.0184276513755
0.0056785941124
-0.012668387033
-0.0540197566152
0.0594258122146
0.036274343729
0.0488675832748
0.0182625949383
0.00683527765796
-0.00240609026514
0.00146122323349
-0.0484682582319
0.0531715787947
0.0991709902883
0.0909757614136
0.0706644356251
0.0498854108155
-0.0063101821579
0.0885830894113
-0.0198316778988
-0.0626435577869
0.0823626443744
0.0942360162735
-0.00211619096808
-0.0773032084107
-0.00102053966839
0.0184729918838
-0.143353819847
-0.00189104594756
0.0470012389123
0.0332683362067
0.0153212901205
0.0486584641039
0.0052799792029
0.00336291687563
0.0174691397697
-0.0363045707345
0.0241021122783
-0.00910762883723
0.0131640052423
0.0134790660813
-0.0411126129329
0.0582362413406
0.0200734063983
0.0847020223737
-0.0262329280376
0.00401888694614
0.0377369821072
0.0139597253874
-0.0111403753981
0.0181566402316
0.0151918185875
-0.0260863211006
0.00762076396495
-0.00622571166605
0.00731157884002
0.077401868999
0.019687300548
0.0323799736798
-0.0179190579802
0.0461537241936
0.00530930794775
-0.0888300463557
0.0844465643167
0.059317111969
-0.00245090899989
-0.000894850527402
-0.00360756763257
0.0172328893095
-0.0506612844765
0.0254655852914
0.0256456322968
-0.0280757509172
0.0656756460667
0.110738508403
0.0222782790661
-0.00646883482113
0.0678306370974
-0.00576297845691
-0.0113266119733
0.00201777601615
0.0647234097123
-0.0128115592524
-0.0115104382858
0.0159086510539
-0.0114090843126
0.00267695402727
-0.0160591863096
0.0767523348331
-0.0380661077797
0.00723402481526
-0.00403499510139
-0.00454440386966
0.0673828423023
0.0397367812693
0.0794015601277
-0.0014379483182
-0.0112672448158
0.0195667874068
0.0840247645974
0.0171290654689
0.0889316871762
0.0114604718983
0.0470641069114
-0.0102448454127
-0.0173770170659
0.067571029067
0.0679097622633
-0.0263732429594
0.00424481742084
0.000447340251412
-0.00551559496671
-0.00522181252018
-0.0842803865671
-0.0243076533079
0.00749102048576
0.0416530482471
0.00522250449285
-0.00476404000074
-0.0238472241908
0.0483747012913
-0.0225920118392
0.0736923739314
-0.00818899832666
-0.0218250341713
-0.0115199927241
-0.0359028019011
-0.0459337458014
-0.0194754116237
-0.0191830415279
0.0022366209887
0.0220749340951
0.00414045341313
-0.0415236465633
-0.0472842603922
-0.0459658764303
-0.017304578796
0.0181571561843
-0.0311616342515
0.0054740216583
-0.0258533935994
-0.0255156457424
0.00564591912553
-0.0191359277815
0.00370267243125
0.00542229553685
-0.0630154311657
-0.00520968390629
0.120370365679
-0.057533916086
-0.0178253948689
-0.00732953567058
0.0153046259657
-0.0328563600779
-0.00133230327629
0.0856899023056
-0.0428097248077
-0.0154026392847
-0.0539872720838
-0.0609202943742
-0.00449617998675
-0.00572510249913
-0.0246787313372
-0.0650008618832
0.00296913227066
-0.00623173220083
-0.00652425037697
0.0657032579184
-0.0132999299094
-0.0207073017955
-0.0109594231471
-0.0283630155027
-0.0116035668179
0.0158633254468
-0.0171646289527
-0.0580043643713
-0.0280807241797
-0.0262982081622
-0.0226404350251
-0.0566410459578
0.0205658376217
0.00188248325139
-0.0825124084949
-0.0464337393641
-0.063012637198
0.00909776333719
-0.01350423228
0.0163350235671
-0.0322488062084
-0.0104766078293
-0.0175617430359
-0.0190569497645
-0.0254052020609
0.00154050358105
-0.00778200477362
-0.0064387624152
-0.0540820285678
-0.0134168388322
0.0704231113195
-0.0529698766768
-0.0212840307504
0.0159848090261
-0.0238145887852
-0.00389302801341
0.00783808156848
-0.0399247147143
-0.00253001484089
-0.0157036054879
-0.00728886341676
-0.0265855137259
0.0137579292059
-0.0222239773721
-0.0270192306489
-0.00108478136826
-0.0169756449759
-0.0295894388109
0.00544245308265
-0.0374898463488
-0.0105742691085
-0.0283026825637
-0.0141872940585
-0.0273335445672
-0.00610354403034
-0.0278167240322
-0.0259009581059
-0.0200960356742
-0.0203316733241
-0.0261709485203
-0.0243370197713
-0.0645718574524
-0.0154520561919
0.0585585311055
-0.0051419227384
-0.013377385214
-0.0186975747347
-0.109731413424
-0.0285503380001
-0.00864663720131
-0.0129396775737
-0.00488813128322
-0.0044478867203
0.021625475958
0.0490025654435
-0.0163054671139
-0.0127510791644
0.0586750358343
-0.0153382699937
-0.00283340085298
0.0243815425783
-0.0154423741624
0.0213630720973
0.00263607734814
-0.031527031213
-0.0460518226027
-0.0509844124317
-0.0267099626362
-0.0125112254173
-0.0451137833297
0.00931773427874
-0.0310865733773
0.0355114415288
-0.0408991388977
-0.0231284759939
-0.00319625460543
-0.00160893902648
-0.0293930415064
-0.0115229906514
0.0019851217512
-0.0258073676378
-0.0216055288911
-0.0571365766227
-0.0203887447715
-0.0373199172318
-0.00846018083394
-0.0378125794232
-0.00767210498452
-0.0202911291271
-0.0104243718088
-0.0111172636971
-0.00872193649411
-0.0216908790171
-0.0117720812559
-0.0104622747749
0.0667885243893
0.01060789451
-0.053503934294
-0.0186855867505
-0.0170041434467
-0.0019633162301
-0.0124393831939
-0.0242766160518
-0.0347430929542
0.0123369609937
-0.0229461938143
0.00888706743717
-0.019231883809
-0.0164144225419
-0.0110598998144
-0.0267394892871
-0.0240852478892
-0.00829003192484
-0.0266723707318
-0.0150061920285
-0.0333755947649
-0.0161432456225
-0.00852224696428
-0.042992580682
-0.0160340368748
-0.0447978004813
-0.0118750091642
-0.0262834597379
-0.0328305922449
-0.0196372941136
-0.0165559183806
-0.0117712253705
0.0127408187836
-0.0171146895736
-0.018127547577
-0.0266904383898
-0.0359031073749
-0.0398013442755
-0.00455740001053
-0.0451413020492
0.0050554620102
-0.00549878971651
-0.0306035578251
-0.00105578638613
-0.0286282151937
-0.0118592269719
-0.0373296178877
-0.0417068265378
-0.0149780446663
0.00382060743868
-0.0387777835131
-0.0173463970423
-0.0367587953806
-0.0117188543081
-0.0309935212135
0.00171855802182
0.0305766090751
-0.00984847173095
-0.0132073350251
0.00614204304293
-0.0156822092831
-0.0166097190231
-0.00585399381816
-0.0172750353813
-0.00471833255142
-0.0117876706645
-0.0313997231424
-0.0215552933514
-0.00918261148036
-0.0208995230496
-0.00223712227307
-0.0208429954946
-0.0157583449036
-0.0585829503834
-0.0230936184525
-0.00988190341741
-0.0285819917917
0.012613017112
-0.0143700232729
-0.0229031927884
0.0126780867577
0.0175976082683
-0.0101576726884
0.0021445218008
0.0021532305982
0.000693423149642
0.00804913509637
-0.0288496166468
0.00191398698371
0.0199596490711
0.00414630398154
0.00979159492999
-0.01860633865
0.0466686822474
-0.0195709168911
-0.0205975007266
-0.0212477911264
-0.0104315457866
-0.0349039025605
-0.0107041876763
-0.014930119738
-0.0216866377741
-0.0127551956102
-0.0213804598898
0.0176259223372
-0.0698002874851
-0.0506622120738
0.0237757191062
0.0612705685198
-0.0337983518839
0.0172549057752
0.0312472637743
-0.0179390646517
-0.0228241272271
0.0231872592121
0.0216883625835
-0.0119115561247
0.0330038145185
0.0231132470071
-0.0415562614799
0.00165494554676
-0.160719871521
8.91179224709e-05
0.0245240181684
0.0185461323708
-0.0677582621574
-0.00907249841839
0.0200741365552
-0.0631734728813
-0.0271470602602
0.0272458270192
0.0035836873576
0.014664224349
0.0391479432583
0.016425402835
-0.0177706684917
-0.00664065871388
-0.101920545101
0.0123765626922
-0.018807567656
0.00528650870547
-0.00210347771645
0.0076880697161
-0.00567115889862
0.0368322208524
-0.00747850723565
0.0116542270407
0.0211293697357
-0.0245472230017
0.0364904589951
0.0288702305406
0.0274653751403
0.0443793386221
0.0397083312273
0.00875643920153
0.00825594644994
-0.0519402399659
0.00388815486804
0.0126932756975
0.00469847675413
-0.0529268495739
0.0522097162902
0.0205954778939
0.0103204278275
-0.0286765173078
-0.0409845821559
-0.00344547955319
0.0599562041461
-0.020150097087
-0.0397878997028
-0.0455743074417
0.00699350703508
0.00627060933039
-0.028782973066
0.0230274535716
-0.00517858657986
0.0098381806165
-0.0352889038622
0.000963593367487
0.00989561248571
-0.0143197672442
0.0078350296244
-0.0142539860681
-0.0232593920082
-0.0181806087494
0.0235867332667
0.00873028952628
0.0265186820179
-0.0255058985204
0.0303417053074
0.00158663361799
-0.0613621398807
-0.0104218330234
0.0161342732608
-0.0166567731649
0.0116256168112
0.0290695969015
-0.0136191658676
0.0160366799682
0.00145748688374
0.000132949164254
0.0109190782532
0.0299243647605
0.0288665201515
-0.0733211785555
-0.0183727312833
0.0108025083318
-0.0079248631373
0.0227280799299
0.0152874523774
0.0209329407662
-0.0204098038375
-0.0190016347915
-0.0161264035851
0.117401562631
0.0229478124529
-0.0179154723883
-0.0465569123626
-0.0384051725268
-0.00287146843038
0.0787435844541
-0.0521053001285
0.0516439974308
0.0141625069082
0.0049510654062
0.0612578652799
0.0114705394953
-0.031790599227
0.00606919918209
0.00754857389256
0.0132896006107
-0.00284292548895
-0.0522252954543
0.0598425380886
-0.0756870806217
0.000347887747921
0.00725601473823
0.0212407391518
-0.0130730587989
-0.0193847697228
-0.00358545035124
0.0448913685977
0.0805728211999
0.0814522877336
-0.0511971078813
0.0135162156075
0.0174572002143
0.0689732581377
-0.0179158691317
-0.0146219991148
0.0526221580803
0.0594259314239
-0.00728012248874
-0.0671390742064
0.00391313014552
0.00675257714465
-0.114022426307
-0.0274059083313
0.0621061064303
0.0350840501487
0.0289043411613
0.0771731361747
0.0120891332626
0.00636267848313
0.0278331674635
-0.0637497827411
0.0224648136646
-0.00243601412512
-0.0203219037503
-0.0172023959458
0.0152862798423
0.0392237044871
0.0474522598088
-0.0493682995439
-0.0464016571641
0.00664886133745
0.0186298266053
0.0197955165058
-0.0279117971659
0.0654056668282
0.076841570437
-0.0479106716812
-0.00119503051974
-0.030826818198
-0.0624206885695
0.0648049712181
0.00736397365108
0.00662914244458
-0.00293638487346
-0.0124117527157
-0.00297132390551
0.095904700458
0.0675365626812
0.0362550802529
-0.0752539113164
-0.00346816075034
0.00649811467156
-0.00249418546446
0.000313236028887
0.0277794711292
0.0365277938545
-0.0275361407548
0.0575280748308
0.0945204645395
0.00897187832743
-0.00297326827422
0.0559097528458
-0.0209719147533
-0.0229238010943
-0.0105982255191
0.0464521758258
-0.0397532582283
-0.029197530821
0.029877288267
-0.0139055205509
0.0215955004096
0.00759611139074
0.0618520453572
-0.0343897901475
0.0209713708609
0.000226255695452
-0.0171247944236
0.0514636188745
-0.0338981151581
-0.0309789385647
0.00878525618464
-0.0209819637239
0.050880599767
0.101944096386
0.0767082720995
0.0541131719947
0.0276854839176
0.00289463670924
-0.00046205779654
0.00349282100797
0.0537865906954
0.0592736676335
-0.0430957712233
-0.00342038902454
0.0093823345378
0.00436630891636
0.00472172256559
-0.0868243575096
-0.0305206924677
0.0108791580424
0.00521284667775
-0.0223339889199
-0.00341460038908
-0.0773060470819
0.0575846880674
-0.0132042551413
0.0220248922706
-0.00519017362967
-0.0105961030349
-0.0459736697376
-0.0616605095565
-0.0464625507593
-0.0179006289691
-0.0409391224384
0.00993835087866
-0.0552536025643
-0.0139052001759
-0.0550305247307
-0.0119430497289
0.0104579683393
-0.0269011631608
-0.00703468732536
-0.0222111344337
-0.00667111109942
-0.013223098591
-0.0451480038464
-0.0437672249973
-0.0322869941592
-0.0566918440163
-0.000612844945863
-0.042547814548
-0.00852057337761
-0.0317271351814
-0.0254019331187
-0.02270446904
-0.00728735234588
0.000614711141679
-0.0266657974571
-0.00984913762659
0.069650568068
0.0146555500105
0.0132693229243
-0.0305125433952
-0.065229088068
-0.0246142279357
-0.00915458612144
-0.025663824752
-0.034154586494
-0.0577505342662
-0.0313834808767
0.00623429147527
0.0671931281686
-0.0127733200788
-0.061002265662
-0.00790808722377
0.0164953563362
-0.000665586267132
0.0188669320196
-0.0157698504627
-0.0560682751238
0.00206353003159
0.00222927122377
-0.0307806488127
-0.0223430898041
0.00689453491941
0.000278248218819
-0.0339867137372
-0.0625111460686
-0.0153056578711
-0.0416355468333
-0.015502082184
-0.00377389392816
0.0198147445917
-0.0166157688946
-0.0291078519076
-0.023663893342
-0.0413889437914
-0.0210403762758
-0.0117968991399
-0.00149526109453
-0.0302357673645
-0.0137897124514
0.0497375875711
-0.0231844112277
-0.0412176437676
-0.00873889029026
-0.0110507458448
-0.0109707675874
-0.00428444426507
-0.0307898148894
-0.0133085940033
0.00375917903148
-0.00612102681771
-0.0157292373478
-0.0155831389129
0.0385087132454
-0.0208286326379
-0.0035109447781
-0.00317057268694
-0.0321708582342
0.0155395828187
-0.0326384119689
-0.0549784302711
-0.022101957351
-0.00859348010272
-0.0189587697387
-0.0149685656652
-0.0321353785694
-0.0103929564357
-0.000795490515884
-0.0117140552029
-0.0838067904115
0.004305543378
-0.0394232533872
-0.0214240327477
0.0262699108571
0.0083100926131
-0.00481215678155
-0.013188097626
-0.0962363630533
-0.0354991815984
-0.00405628420413
-0.0116018988192
-0.000144427031046
-0.00386371696368
0.0115205133334
0.00776125630364
-0.0075279744342
0.0268625691533
-0.00472208205611
0.000220323432586
-0.0120612327009
0.0171134304255
-0.00717287417501
0.0329337492585
-0.0125029087067
-0.00855788215995
-0.0541394017637
-0.0486046820879
-0.0449297130108
0.013285478577
-0.0329957604408
0.00170650018845
0.000888408336323
-0.0451617091894
-0.00519443303347
-0.0150608783588
0.0169951841235
-0.0244942493737
-0.0147106191143
-0.0122317671776
-0.00154794519767
-0.00291167828254
-0.0534902438521
0.000496434862725
-0.00786474253982
-0.0364057011902
-0.0367285683751
-0.0468533635139
0.016463091597
-0.0472375564277
-0.0325297042727
-0.0368850789964
-0.00742884911597
0.0224967803806
0.00128055072855
-0.0171969309449
-0.0184990596026
0.0498713515699
-0.0199717395008
-0.0136894658208
-0.0652724131942
-0.0125150578097
-0.0146279940382
-0.050201702863
-0.0297251585871
-0.032844197005
-0.0306221824139
-0.00381414149888
-0.00819066818804
0.00994849670678
-0.01159351971
-0.00947803817689
-0.0261390842497
-0.0155044766143
-0.0182710383087
-0.0195269286633
-0.0223358012736
-0.0315539613366
0.104626119137
-0.0185713730752
-0.028006894514
-0.0277979504317
0.0113075980917
0.00916542485356
-0.028419977054
-0.0278748329729
-0.00158197886776
-0.00592373730615
-0.0298627596349
-0.0232678521425
-0.021622158587
-0.0058096088469
-0.0136885670945
-0.0325272977352
0.0531531982124
-0.025694930926
-0.012960110791
0.00821432843804
-0.0134498784319
0.0327409021556
-0.011970706284
0.00484020169824
-0.0211188625544
-0.000480669550598
-0.0142115801573
-0.00124354229774
-0.0262662358582
0.0298970937729
-0.006586285308
0.0216660331935
-0.0109686199576
0.0138692473993
-0.00665950635448
-0.0138076450676
0.00423448020592
-0.00217927177437
-0.0169338714331
-0.0192899312824
-0.00719126639888
-0.0500801987946
-0.0206136405468
0.0166622344404
-0.0108764534816
-0.00486809108406
-0.0331508144736
-0.0176750961691
0.048805911094
-0.00571405654773
-0.0291870757937
-0.0247778780758
-0.0295318886638
-0.00782054010779
-0.0502544231713
-0.00727556692436
0.00815268512815
-0.00592438178137
-0.0481280572712
0.0793537423015
-0.00884053483605
-0.0167660508305
-0.0134967723861
-0.0166860707104
0.0328063853085
-0.00445278547704
-0.019972730428
0.0466385632753
0.000127234976389
0.0113458111882
-0.0505850277841
-0.0304049383849
-0.0201531909406
-0.052722569555
-0.00611136853695
-0.035872977227
-0.0457719862461
-0.0734509602189
-0.00655449042097
-0.0243394542485
-0.0381369702518
0.00851024594158
0.0334080122411
-0.0377259403467
-0.0468201301992
-0.0160604044795
0.00698029296473
0.000881646177731
-0.0348929204047
0.0046684993431
-0.0423386208713
-0.0304734986275
-0.0718449056149
-0.0425493717194
-0.0358055233955
0.0193352159113
-0.0482941567898
-0.0411281660199
0.018467977643
-0.0725696310401
0.00184623769019
0.00481413397938
0.00810029264539
-0.0233318265527
-0.00182545930147
-0.00238291360438
-0.0175784304738
0.0227988231927
-0.038023903966
-0.014948588796
0.0126444874331
-0.00260721798986
-0.0115210488439
-0.0399228036404
-0.00409825425595
-0.0648957490921
-0.0393078327179
0.003162329318
-0.0674074664712
-0.0131666129455
-0.0372499600053
-0.0233602151275
-0.00438748858869
-0.00201097643003
-0.0764807537198
0.00143857160583
0.00694719981402
0.0346166603267
-0.0129694817588
-0.0168148521334
-0.0184851996601
-0.0734442844987
0.00398736679927
0.0101296473294
-0.113780736923
0.0153694963083
0.00494600692764
-0.0404976569116
-0.00154500920326
-0.020175402984
-0.000395240931539
-0.0381871089339
-0.0383385531604
-0.0445320233703
-0.0151848495007
-0.0565950796008
-0.00354490848258
-0.00699872244149
-0.00294814328663
-0.0027440879494
0.000601069070399
-0.0465052090585
0.00702274404466
-0.0288935527205
0.0102264359593
0.00555677060038
-0.0718897804618
0.0249039046466
-0.0412131547928
0.0156351216137
-0.0320532023907
-0.00993560440838
-0.000256837898633
-0.0137421935797
0.0114694405347
-0.00023360781779
-0.0391176789999
-0.063340164721
-0.0055826716125
-0.0186254773289
-0.0030464597512
0.013559971936
-0.0342350117862
-0.0193460341543
-0.0105439191684
-0.0296106077731
0.00319158076309
-0.013497184962
-0.0238568224013
-0.0431367382407
-0.0200230572373
-0.0157646592706
-0.0726959183812
0.00524433888495
-0.0132394842803
-0.0283743999898
-0.0482964925468
0.0634750798345
0.00833386555314
-0.00722087314352
-0.00514793209732
-0.0033441898413
0.0893408283591
0.00354651198722
-0.00995059125125
-0.00875828508288
0.00924066267908
0.0062902122736
-0.0429986342788
0.00993834156543
-0.0279774609953
0.00443010032177
-0.00262154825032
-0.044229760766
-0.0404276400805
-0.0627965703607
-0.03421472013
-0.0329671166837
-0.0537803173065
-0.00472720060498
0.0575057528913
-0.118900217116
-0.0431819483638
-0.0110132647678
0.0126476874575
-0.0006383198197
-0.0400994196534
-0.0042274533771
-0.0183249861002
-0.0463251955807
-0.0301222093403
0.0543916225433
-0.0271355062723
0.00318539189175
-0.0108077526093
-0.079636760056
0.00146102334838
-0.0168900862336
-0.0314020626247
-0.0169163774699
0.00835859682411
-0.0397929698229
-0.0266159269959
0.0116868298501
-0.0140042584389
-0.043462280184
0.0113676311448
-0.0289985295385
-0.0471180453897
0.0132231833413
0.00889278016984
-0.0376699343324
-0.0300326813012
-0.013908110559
0.000418686046032
-0.0126345669851
0.0607546940446
-0.0220128968358
-0.0425801575184
-0.0239899381995
0.0268865451217
-0.0252594891936
0.0152113419026
0.0103556830436
-0.0338854677975
0.0168250259012
-0.0559284612536
-0.0160125251859
0.00714808143675
0.0151624986902
0.00588436052203
-0.0584789849818
-0.0576413571835
-0.0748636126518
0.00697453971952
0.00951479468495
0.026447461918
0.0392851792276
0.0117139508948
-0.0322940573096
-0.0611042827368
-0.0501156672835
-0.0394609570503
-0.0302488710731
0.000454201683169
-0.0836915671825
-0.0206791181117
0.0600882582366
-0.0139705529436
-0.00180322222877
0.042624887079
-0.00370818609372
0.0154681224376
-0.000896785757504
-0.0287411473691
0.0113535588607
-0.00469173956662
0.00842433981597
-0.0400620810688
-0.0136602204293
-0.0557290911674
-0.0039633307606
0.00763599807397
-0.000438120972831
-0.0330820344388
0.0284625533968
0.001950838021
-0.0765914320946
-0.0255802739412
0.0069452538155
-0.0450604856014
-0.0153654254973
-0.0240427609533
-0.0244960039854
-0.00726113421842
-0.0320378914475
-0.0415984801948
-0.00657186284661
-0.0291890799999
0.0276148784906
-0.0152386343107
-0.00432157795876
-0.0229397695512
-0.0329139642417
-0.0671316683292
-0.054606243968
0.00933391973376
-0.00842469464988
0.0016382940812
-0.000745638622902
0.0572383292019
0.0210985317826
-0.0120407873765
-0.0198115743697
-0.0428805425763
-0.0046195378527
0.0966926142573
-0.283731043339
0.0326724424958
0.0554253011942
0.00196310016327
0.0836327448487
0.0362060219049
0.0800134912133
0.0207217223942
0.050759177655
0.0496418736875
-0.00442562252283
-0.0265991333872
0.100532568991
0.111523233354
0.0400061570108
0.00860369857401
0.0328974239528
-0.0240101311356
0.0287730284035
-0.0199275221676
0.0427788645029
0.119147159159
0.0992238149047
-0.0178824961185
0.00132156885229
-0.0224279239774
0.129575505853
-0.0221549086273
0.00151392340194
0.0977096259594
0.0080171842128
-0.00405981531367
-0.0666786208749
0.00963221304119
0.0240885950625
-0.163752377033
0.00951951276511
0.00762721290812
0.0208418611437
-0.00573270674795
0.0300193354487
0.0132701648399
0.0286796595901
0.010172970593
0.0272010620683
0.0486311353743
0.00198098504916
-0.12228461355
0.0408364273608
0.0509183704853
0.0688718557358
0.0397151187062
0.022653831169
-0.0347390286624
0.0134326228872
-0.00306590250693
0.0836131200194
-0.00506026437506
0.00876719783992
0.0558391697705
-0.0542050041258
0.00394166307524
-0.0308805145323
0.113441258669
0.0550225041807
-0.00415265420452
-0.00853259954602
0.00200906977989
0.0394752435386
0.0125467497855
0.0769472569227
0.0957662090659
0.119678325951
0.00455308333039
0.0146581772715
0.0032382523641
0.0330994576216
0.00928151141852
-0.0179899353534
-0.0226075798273
-0.035530872643
0.065083488822
0.074552424252
0.0242950767279
0.00103479344398
0.0969852209091
-0.0147752324119
-0.0225017275661
-0.00325783295557
0.071489572525
-0.0269219260663
-0.0265313219279
0.0108839273453
-0.010705081746
-0.0155788790435
-0.00489145284519
0.0266509503126
0.0917871668935
0.0547974333167
0.0168796833605
-0.00879370328039
0.0751310139894
0.110978282988
-0.0175821520388
0.0247449595481
0.00866341777146
0.0246586855501
0.127459228039
0.0639403387904
0.0647466927767
0.0196386855096
0.0203172955662
-0.00256633479148
0.0401017032564
0.0666652843356
0.0554073564708
-0.00289916968904
0.00121910811868
0.0106631144881
-0.0024334625341
0.00139173527714
-0.187897235155
-0.0173760317266
0.0185615140945
-0.00504685146734
0.0323921740055
-0.00154375063721
-0.037675820291
-0.0436134003103
-0.0273875147104
-0.00760207138956
1.66684349097e-05
-0.0399213656783
0.0282483920455
-0.0157118942589
-0.00172290066257
-0.0184000357985
-0.013640942052
0.0126337343827
-0.0261294022202
0.00104664685205
-0.0201206728816
-0.0316509790719
-0.00395387830213
-0.00162037101109
-0.0448309481144
-0.0249975398183
-0.0201089680195
-0.0305209904909
-0.0540273375809
-0.0384564548731
-0.0461532510817
0.0212968792766
-0.0779966711998
0.00590274948627
0.00341004878283
0.00315538002178
-0.00936098024249
0.000706940889359
-0.00787686463445
-0.0202040504664
-0.0161897297949
-0.016377735883
0.00466476101428
0.00480489945039
-0.0521123856306
-0.0416763089597
-0.0134536242113
0.012395282276
-0.0145383216441
-0.00850372202694
-0.0264685172588
-0.0166682507843
-0.0387780070305
0.00784837733954
-0.0552198290825
-0.0145830214024
-0.0322887599468
-0.0214203484356
-0.0370685234666
-0.024762686342
-0.0533272959292
-0.00715708080679
-0.0222895517945
-0.0262726973742
-0.0374421551824
0.000994672998786
-0.026598341763
-0.0528630167246
0.000993877649307
0.0129610504955
-0.044022474438
-0.0246075857431
-0.00659413170069
0.00470783235505
0.00874931458384
-0.0367083661258
-0.0164512079209
-0.0463207364082
-0.0526378005743
-0.0499666333199
-0.0420644246042
-0.0354681760073
0.0012662691297
0.0148568348959
-0.0247646141797
-0.000224590636208
-0.00927678123116
-0.029137108475
-0.0175329688936
-0.017083959654
-0.0118091925979
0.0122937131673
-0.0492318943143
-0.00161706842482
-0.0427120514214
-0.0030527189374
-0.0395457185805
-0.0090005826205
0.0244813468307
-0.0127441547811
0.00125066493638
-0.0105522312224
-0.015543022193
-0.0646388009191
0.0238615386188
0.00946000684053
-0.0222859624773
-0.00434018904343
-0.0379281826317
-0.0336739085615
-0.0248772799969
-0.00217074016109
-0.0174563657492
-0.017093218863
-0.0202989578247
-0.0497640036047
-0.0416136495769
-0.00854358077049
-0.0456228330731
0.00717940507457
-0.0137138608843
-0.034104436636
0.0129366377369
0.0184730347246
-0.011385941878
-0.00158109690528
0.000771969382185
-0.00492429314181
-0.00168715207838
-0.00250647659414
-0.00346513511613
0.00513680465519
0.00769903510809
-0.00882420130074
-0.0417142622173
0.0345463640988
-0.0186289735138
0.0209280997515
-0.00985436979681
-0.0267986003309
-0.0461673140526
-0.0946926400065
-0.0424091294408
-0.0169661045074
-0.0370167009532
-0.00364282540977
0.00281343446113
-0.00664604315534
-0.0351870432496
-0.0271242689341
-0.00758038368076
-0.0305663514882
-0.00941711291671
-0.0162533223629
-0.00651360629126
-0.0306164491922
0.00997879821807
-0.088523991406
-0.0335443690419
-0.0192420948297
-0.00484854914248
-0.0799709260464
-0.000914612610359
-0.0281002689153
-0.00854803062975
-0.0134562198073
-0.00217909854837
-0.0024532394018
-0.0219110678881
-0.0130829382688
0.0705631747842
0.0173914786428
-0.036268491298
0.00267775193788
-0.0401558429003
0.00029248741339
-0.010098404251
-0.0145617201924
-0.0231259744614
-0.0396781973541
-0.0342819131911
-0.00932643469423
0.0397154428065
-0.0035446966067
-0.0542237907648
-0.0146066993475
-0.0168705023825
-0.0163288768381
0.0161554832011
-0.0212286468595
-0.0300638321787
0.00606974354014
0.0230747256428
-0.0415320657194
-0.0190229639411
-0.0136166624725
0.000234712351812
-0.0603517666459
-0.0454262383282
-0.00602157507092
-0.049603972584
-0.00454160105437
-0.00937501620501
-0.0266714524478
-0.0183481369168
-0.0294950436801
-0.0540115572512
-0.0583424344659
-0.0275215059519
0.00537471100688
-0.0106044495478
0.0128778461367
-0.0236829165369
0.03213070333
-0.00715398881584
0.00657691061497
-0.0357023924589
-0.029595842585
-0.0157690849155
-0.0109481010586
-0.00608602538705
0.00976130273193
-0.0229726899415
0.00920704379678
-0.0272129978985
-0.0461181588471
0.0302924793214
-0.0384268425405
-0.00609719147906
-0.00958125013858
-0.0162995886058
-0.00278258929029
-0.0243307240307
-0.111582696438
-0.0185917485505
0.0067333066836
-0.0276381913573
-0.0498160757124
-0.0676250010729
0.00353506091051
0.0130213480443
-0.00574740162119
-0.0526489801705
-0.0421918705106
-0.0186953060329
-0.0384017266333
-0.0194711405784
-0.0017330578994
-0.00536720873788
-0.01565310359
-0.0221869908273
0.0741115435958
-0.00385647919029
-0.0174468215555
-0.00916119664907
-0.00898380018771
0.0447660498321
-0.0736524239182
-0.0125859146938
-0.00808707345277
0.0636172145605
-0.0139900622889
-0.0629694163799
0.0162213742733
-0.0242637507617
-0.0032609058544
0.00181944505312
-0.0422784760594
-0.0237977039069
-0.0727663859725
-0.062080129981
-0.0237020850182
-0.058382704854
0.00427156826481
0.00392569042742
-0.0388448871672
-0.0417042039335
-0.0242207199335
-0.0168719682842
-0.0124303195626
-0.00641185697168
-0.0466960668564
0.017376087606
-0.029937081039
-0.0357640683651
-0.09292781353
-0.0178414080292
-0.027201294899
-0.0211058277637
-0.0399880073965
-0.0211251247674
0.0125906793401
-0.0197488609701
-0.0289639476687
-0.0136016346514
-0.0162005480379
-0.0146042387933
-0.0154634043574
0.129199638963
-0.020358864218
-0.00238148705103
-0.0119707398117
-0.0556372106075
-0.0238214358687
-0.0236445721239
0.0142136132345
-0.0457912795246
-0.0143483420834
-0.0429204367101
0.00609559798613
-0.0231974888593
-0.0238887146115
-0.0493201836944
-0.0260940156877
0.00921139679849
-0.00815684348345
0.023663200438
-0.0276208873838
-0.051058460027
-0.0216336548328
0.0109059130773
-0.0469705052674
-0.0147650772706
-0.00544621935114
-0.00873364880681
-0.0385035946965
-0.0224795155227
-0.0107313580811
-0.00372089562006
-0.0291277784854
-0.00342755112797
0.0125273512676
-0.0299484357238
-0.0213235002011
-0.00903821457177
-0.0288041457534
-0.00114339520223
-0.0464545600116
0.00198344653472
-0.00525795016438
-0.0208393484354
0.0477175489068
-0.0105604939163
-0.0311482977122
-0.0196343306452
-0.0120970113203
-0.0197401624173
-0.00552481785417
-0.0307630375028
-0.0273398738354
-0.0246126968414
-0.0202096607536
-0.0390697978437
0.00195513130166
0.0561792738736
-0.0205715484917
-0.0152415232733
-0.00147745560389
-0.00493001425639
0.0212502274662
-0.019085297361
0.00113553658593
0.00679479539394
-0.020059350878
-0.0375277176499
-0.0126517117023
-0.0430150516331
0.00857661478221
-0.00142574752681
-0.0218060743064
-0.0720576643944
0.000207638673601
-0.0265276990831
-0.0235099121928
0.0416187494993
0.00838164053857
-0.0159916747361
-0.0394378565252
-0.0179175008088
-0.0414507240057
-0.0156737472862
0.000862007902469
0.00425468245521
0.00281203561462
-0.0675848275423
-0.0115060368553
4.95497370139e-05
-0.00594403455034
0.00501663796604
-0.0249266512692
-0.0389330983162
0.00393330771476
-0.0152259999886
0.00111758359708
-0.00875009037554
-0.0284423157573
-0.00575935281813
-0.0283129401505
-0.00992688536644
-0.0111933210865
-0.00810246262699
-0.00345182488672
-0.0142127471045
-0.0180639754981
0.00209346064366
-0.00671337964013
0.0106177590787
-0.0261997450143
-0.00558728305623
-0.0196684002876
0.0358231067657
-0.0240251533687
-0.0532412528992
-0.0687983557582
0.0014108477626
0.00827324204147
0.000922848819755
-0.0936332121491
-0.0279713515192
-0.0385977514088
-0.0648942291737
-0.0839414969087
-0.0242865234613
0.0492311269045
-0.0245060995221
-0.0267361607403
0.070615619421
0.0339706391096
-0.0199974942952
-0.0172391012311
-0.0385034866631
-0.0125994440168
-0.0255640298128
0.00264405691996
-0.00691228127107
-0.0354425124824
-0.0275267399848
-0.000870884687174
0.0410584248602
-0.00838164240122
-0.0208999793977
-0.0202387329191
-0.00206776801497
-0.0132012162358
0.0359832644463
-0.0317029207945
-0.0237607769668
-0.00446744216606
0.05258115381
-0.0100477626547
-0.0151666821912
0.0114550841972
-0.0209740754217
0.0424022600055
-0.023120617494
-0.0458275675774
-0.00453820684925
-0.028775613755
-0.0385127961636
-0.00548299076036
-0.0333653390408
0.00341383856721
-0.0420036539435
-0.0394849851727
-0.00738385459408
0.00141676526982
-0.00887907110155
-0.018881496042
0.0113650234416
-0.0153505746275
0.0142855010927
0.0115452539176
-0.0464721135795
-0.0281287021935
-0.0347163118422
-0.0125987036154
-0.0603116974235
-0.0368331260979
0.0144516965374
-0.0294901747257
-0.0227541234344
-0.0218700338155
0.0243993345648
-0.0210895258933
-0.0250519979745
-0.0169350728393
-0.00135319307446
-0.00673406850547
-0.0564531721175
-0.0429642423987
-0.00166488368995
-0.0243585519493
-0.0220776256174
-0.0360842831433
-0.00147412274964
-0.00618974957615
0.00212149042636
-0.00926657393575
-0.0722111836076
0.00176710623782
-0.0284468606114
-0.0105236573145
0.00515653705224
-0.004314170219
-0.00381424534135
-0.0218476057053
-0.0299786608666
0.0422947704792
-0.0261995326728
-0.0121318809688
-0.00991834234446
-0.00601303810254
0.0038396124728
-0.0414183326066
-0.00649001915008
0.0303716044873
0.0222929157317
-0.00318323168904
-0.044033549726
0.0148250535131
-0.0201410464942
0.0364301018417
-0.00621558539569
-0.016328714788
-0.011821931228
-0.0180910974741
-0.0363491624594
-0.0189447645098
-0.0347106270492
-0.00439508631825
-0.0933762863278
0.0287440996617
-0.016495199874
-0.0248453747481
-0.00547462375835
-0.0242416020483
0.019429281354
-0.0444924980402
0.0325969569385
-0.0224901437759
-0.0502507351339
-0.024311022833
-0.0284201726317
-0.00633426848799
-0.00984783191234
-0.0687101185322
-0.00903249066323
-0.0104980487376
-0.0484710708261
-0.0463635399938
-0.0115085532889
0.00929222069681
-0.0278464332223
-0.00286823045462
0.0882617533207
0.0293782036752
0.0465703234076
-0.022322576493
-0.0726854652166
0.0145926140249
-0.0118150459602
-0.00136088894214
-0.00733489310369
-0.0121495602652
-0.0306425280869
-0.0128844538704
0.0122655807063
-0.0107235051692
-0.0344391949475
-0.00909795612097
-0.0102126570418
-0.0155612826347
0.0155190378428
-0.0192660838366
0.00142463529482
0.00911185890436
-0.017163073644
-0.0246496088803
-0.0325728468597
0.0157892685384
-0.00625171419233
-0.0279445964843
-0.042960356921
-0.0345618166029
0.000427663733717
-0.0265965200961
0.000371484784409
0.00524316355586
-0.0155330328271
0.00569324428216
-0.0450956374407
-0.0582542344928
0.0163738522679
-0.0397082529962
-0.0065225022845
-0.0414478890598
0.0131913935766
0.0560638308525
0.00547557882965
-0.00680008903146
-0.00739069515839
-0.0251983534545
-0.0044379979372
-0.01449048426
-0.0680002868176
-0.0178812891245
-0.00523588014767
-0.0244686901569
-0.0238991007209
-0.00180974008981
0.0330320298672
-0.0325284674764
-0.00298505276442
-0.00709931459278
-0.00531226722524
0.0235902238637
-0.0305067822337
-0.0341601334512
-0.0019561459776
-0.0301264543086
-0.0229512862861
-0.0313787162304
-0.0365311019123
-0.000485374504933
-0.0233545098454
-0.0210720747709
-0.0496542304754
0.0150853665546
-0.0419863164425
-0.0143676549196
0.0414786040783
-0.00693019665778
-0.00236013764516
-0.0124352136627
-0.0870018675923
-0.00601772451773
-0.00689139869064
-0.0116484742612
-0.00320474919863
-0.0038491373416
0.02808502689
0.0285905729979
-0.0114320628345
-0.0050007100217
0.0531934984028
0.00242684665136
-0.0432490818202
0.0649115666747
-0.00417878013104
0.0573620907962
-0.00126472604461
-0.0176393892616
-0.0273806005716
-0.0598628371954
-0.0652721598744
0.0194621738046
-0.066951803863
-0.00458051264286
0.105353213847
-0.00676158862188
-0.0338649041951
-0.0164747331291
-0.00688674440607
-0.0212458018214
-0.0108306044713
-0.0376929566264
0.0258137900382
-0.0111105460674
-0.0173833612353
-0.0591033175588
-0.0314174965024
-0.0255456510931
-0.047037679702
-0.056443605572
0.0111206574365
0.00897795613855
-0.0104081146419
-0.0228613149375
-0.011100073345
-0.105849951506
-0.0387489646673
-0.0141984326765
0.0480637513101
0.0110951839015
0.0244451202452
-0.0169723853469
-0.0861947014928
-0.0219604615122
-0.0150306494907
-0.0123971654102
-0.0323896892369
-0.0663793906569
-0.025815134868
-0.00219189911149
-0.00367573532276
0.00118049362209
0.00118184147868
-0.0126981595531
0.00642365822569
0.00517660565674
-0.0116982851177
-0.0186072252691
-0.0309176724404
0.0310913864523
0.012054041028
-0.0401954911649
-0.0181399844587
-0.0226622503251
0.0015363197308
-0.0208590775728
0.0437421537936
0.00391618907452
-0.0293403081596
-0.0376043692231
-0.02559658885
0.00759413186461
-0.0163699910045
-0.0235582944006
-0.0210954602808
-0.0350721478462
0.00558434380218
-0.00491308653727
-0.00348996836692
0.0106460480019
-0.00282735005021
-0.0152712520212
-0.00662181060761
0.0267612561584
-0.0248939115554
-0.0446760840714
-0.0128977065906
-0.0101940538734
-0.0287354812026
0.0210695471615
-0.0398334674537
0.00748091889545
-0.0121684493497
0.00704449461773
0.0206956621259
-0.0239792373031
0.0073608183302
-0.0105367936194
0.00616054143757
-0.0397982336581
-0.0389512218535
-0.0474601909518
2.15772961383e-05
0.00403845170513
-0.0181444510818
-0.0252768080682
-0.0283684860915
0.0128775211051
0.0409835614264
-0.00775924231857
-0.0466684997082
0.0214299149811
-0.0287642944604
-0.0063313478604
-0.0215722005814
-0.00221105874516
0.0109703345224
-0.00904909241945
-0.0141685632989
0.0435690805316
-0.0106680896133
-0.000231397905736
0.00244581047446
0.00505023216829
0.0288902428001
-0.0641295015812
-0.00386747717857
-0.0130691286176
0.214411392808
-0.00219300226308
-0.0409308820963
0.118819445372
-0.0242224000394
0.0360389016569
-0.0043429476209
-0.0191807635128
-0.0174564998597
-0.111157014966
-0.00880781468004
-0.00698843179271
-0.0332550443709
0.00068955210736
0.0431580394506
-0.0531768165529
-0.0578423514962
0.00406103301793
0.0351247563958
-0.0161270350218
0.020603146404
0.00319738057442
-0.00027115130797
-0.021813346073
0.00668961228803
-0.00420101406053
-0.0262105725706
0.00023359246552
0.0587558709085
-0.0758349373937
-0.00221428507939
0.024510640651
-0.00351619068533
-0.0462635792792
0.0185282472521
0.0508277378976
-0.0309418030083
0.00753262918442
0.0879666879773
-0.00972951482981
0.0246049258858
0.0100642852485
-0.0441408008337
0.009601296857
0.0128120826557
-0.0245351511985
0.0199057962745
-0.00902680680156
0.00655059795827
-0.00526282517239
0.11350029707
-0.0119667192921
-0.0199596416205
-0.013531204313
0.105304382741
0.0129794515669
0.057739906013
0.0148399034515
0.00640320265666
-0.0081597995013
-0.0403613969684
-0.0311802383512
0.0318984687328
0.0895575359464
0.00348609988578
-0.0603139325976
0.00762905925512
0.0378837361932
-0.0202846154571
-0.0165432896465
0.0232774000615
0.053923856467
0.0115215238184
-0.0293086655438
-0.0400195121765
-0.0495181754231
-0.0137723004445
0.0241488907486
-0.00187015125994
-0.0275951325893
0.00220223120414
0.0399616546929
0.00179380353075
0.0668547078967
0.0135723687708
0.0430601611733
0.000658289762214
-0.00610619736835
-0.0118567282334
0.00841149128973
-0.0131332594901
0.0111233890057
-0.0202469155192
-0.025158751756
-0.022287460044
0.0073501477018
-0.000481264549308
0.0165479891002
-0.01483576186
0.0112366797403
0.000933337083552
-0.0643253698945
-0.0185502115637
0.0154635040089
-0.0239280033857
-0.0370491668582
-0.0202756319195
-0.010611101985
-0.013191963546
0.00605825707316
-0.0258587244898
-0.0129603333771
-0.0113971224055
0.0124186333269
-0.0135907717049
-0.00162586849183
0.00486178649589
-0.0110479742289
0.0508429445326
-0.0616987459362
0.0143282907084
-0.00838578119874
-0.00143094488885
-0.00247777509503
0.0449916645885
0.0218670796603
-0.0132970036939
0.000548355048522
0.0126480422914
-0.0267756599933
-0.0592888332903
0.0479565411806
-0.0178875476122
0.0704832002521
-0.00106682290789
-0.0323889479041
-0.0173412766308
-0.0552522055805
-0.0641081109643
-0.00122476834804
-0.0467186905444
-0.00584497489035
0.0134162260219
-0.0561625510454
-0.0408504754305
-0.031291116029
-0.00623097876087
-0.0200583934784
-0.0305963978171
-0.0133480839431
0.0297234039754
-0.0280353892595
-0.0466423146427
-0.0994368046522
-0.0350322276354
-0.0625932812691
-0.0434210151434
-0.049076937139
-0.0410612747073
0.0143804308027
-0.0153404716402
-0.0267507359385
-0.0172587949783
-0.0547076463699
-0.026018101722
-0.00621344568208
0.0798082053661
-0.0177914630622
0.000183060008567
-0.0135258166119
-0.105453066528
-0.0520621314645
-0.0198595784605
0.0137349776924
-0.0339815989137
0.0158955864608
-0.0348506905138
-0.00598765304312
0.00348051846959
-0.0125933783129
-0.0459371320903
-0.0192736238241
0.0344986654818
0.00258910609409
0.0513888671994
-0.0251670666039
-0.0173205081373
0.0195934195071
-0.0864905416965
-0.059254437685
-0.0296302381903
0.0268800463527
-0.0167795177549
-0.0244740247726
-0.00388872576877
-0.0369669646025
-0.0366993024945
-0.00495934253559
0.0232743602246
0.035590428859
-0.0195760671049
0.0142885576934
-0.00512022571638
-0.00850673019886
0.0140909189358
-0.0382589846849
-0.000951335416175
-0.0167549196631
-0.0158597771078
0.0318338386714
-0.00733351102099
-0.00767479743809
-0.0185080524534
-0.0360446684062
-0.0109481718391
-0.0102109219879
-0.0418105125427
-0.0423799268901
-0.0656919926405
-0.0297680348158
-0.0345377475023
0.00847163703293
0.0252425558865
-0.0266525819898
-0.0256585981697
-0.0233564935625
-0.0101278172806
0.00332480412908
-0.05086902529
0.018096011132
-0.000792939972598
-0.0326978340745
-0.0349812097847
0.00886970479041
-0.0657581537962
0.00876958668232
-0.0140692517161
-0.0108025223017
-0.0594898834825
0.0131529131904
-0.0506621263921
-0.0365475006402
0.0402757823467
0.00192619406153
0.00207521207631
-0.0242626927793
-0.0656225532293
-0.0743395313621
-0.0153384543955
-0.0042225709185
-9.57016964094e-05
0.00271675805561
-0.0557950213552
-0.0184756405652
0.00377717195079
-0.0118169318885
0.0484157912433
-0.0343267917633
-0.0379449129105
0.196844086051
0.00409015407786
0.013581414707
0.00733925728127
-0.00085982249584
0.0199563652277
-0.0223068781197
-0.0101007418707
0.0114928875118
-0.00231346604414
0.00326420459896
-0.0342687629163
0.109785377979
0.00215030275285
0.0141681088135
-0.0106357568875
-0.000132608198328
0.00640628533438
-0.0327206775546
0.0189291890711
0.00314476480708
0.029738407582
-0.0521746203303
-0.00508525269106
-0.011233610101
0.0021815225482
-0.0281527526677
-0.0413019657135
0.0612657032907
-0.0110097406432
-0.0420974642038
-0.0161407273263
0.0948240235448
-0.016210719943
-0.0258071050048
0.231942698359
0.0246619191021
0.00232249172404
-0.0123384147882
0.0026045886334
-0.00307096843608
-0.0241183321923
0.0153253953904
0.00508941104636
0.103976681828
-0.0315751172602
0.00718567287549
0.0731155350804
0.0012964544585
-0.0148900710046
0.00096168363234
0.00585770653561
0.00876345019788
0.00265767355449
-0.0211766734719
0.00692574447021
-0.0237208157778
0.0500996559858
-0.0139652006328
0.0145300636068
0.0129424016923
-0.0269151534885
0.0104451747611
0.0508524253964
0.0108872549608
-0.000622866442427
-0.0202484317124
-0.00718905031681
-0.00573657127097
-0.0251708161086
0.00182259595022
-0.0297045782208
-0.0267039388418
-0.00835165474564
-0.00881920848042
0.00582255702466
-0.00974067486823
0.0350816734135
0.0438503473997
-0.00268700788729
0.0417124219239
-0.0304672215134
-0.0115954494104
-0.0274289362133
-0.000832538236864
0.00631142081693
-0.032066795975
-0.00639241561294
-0.0243649370968
0.00224335165694
-0.0240300744772
0.112751327455
-0.0233885776252
-0.0328182131052
-0.0180456172675
0.0170678514987
0.00108903599903
-0.00679149571806
-0.00171047833283
0.0109298145398
-0.0222590062767
0.00158601009753
-0.0362499132752
-0.00589265534654
0.00588347855955
-0.0223035253584
-0.00167341530323
-0.0366995297372
-0.00998644158244
0.0140585480258
-0.0238708909601
0.0254113096744
0.00731221120805
0.0116386758164
0.00911929551512
0.0189140532166
0.0407420955598
-0.0173631403595
0.0118678752333
0.011443130672
0.0127261066809
0.054347563535
0.0186430960894
0.00702570751309
0.0208991300315
-0.057612195611
-0.00826861802489
0.0714227855206
0.0781970247626
0.000416790979216
-0.0167406760156
-0.0016729820054
-0.00857461802661
-0.0345857590437
-0.0329450853169
-0.0318836010993
0.0235353000462
-0.0191630572081
-0.00365702202544
-0.0479509681463
0.134339094162
-0.0162542201579
0.00739296758547
0.0198884196579
0.00226984801702
-0.00358848506585
-0.0126121193171
-0.0282457768917
0.00570627488196
0.0450269021094
-0.0393702723086
-0.00381640321575
-0.0262901764363
-0.0196054596454
-0.0440674461424
-0.00423414353281
0.01833152771
-0.0104247555137
-0.0373745150864
0.00316167157143
0.0591833032668
-0.0319120548666
-0.0044685844332
0.0428259409964
0.022814810276
0.0126266293228
-0.00270244595595
-0.000248971919063
0.00427972199395
-0.000320216611726
-0.0151344100013
-0.00170178187545
0.0589108280838
-0.016824638471
-0.00778267206624
0.053243521601
0.0104536786675
0.0180401131511
0.00801729038358
0.0293099489063
-0.00689799152315
-0.000981129007414
-0.00449064420536
-0.00131434912328
-0.0188862457871
0.0321813039482
-0.00401801010594
-0.0114739546552
0.0108381519094
0.00184955762234
-0.0268613863736
0.0272182077169
0.0136719970033
-0.017659958452
-0.00554657401517
0.011589740403
0.0218016449362
-0.0042554102838
-0.00794714596123
-0.0358430929482
-0.0250001586974
-0.0377004481852
-0.011102007702
0.00129595620092
0.0141289699823
-0.00103424163535
0.048599857837
-0.0095690311864
0.0563792958856
-0.0135301258415
-0.0180504638702
-0.00182336498983
-0.00768608041108
-0.00657904427499
0.00942499935627
-0.00610681204125
0.00888510420918
-0.00518841994926
-0.038037199527
0.0522133670747
-0.00318981031887
-0.00703994836658
0.00561603484675
-0.0204131361097
-0.000600503291935
0.0157419703901
-0.0478593297303
-0.005293705035
0.00914387684315
-0.00476812245324
-0.0667542517185
-0.0073250932619
0.0042508863844
0.00310345785692
0.00118194136303
0.0863990336657
0.000465789576992
-0.00108562875539
-0.00261743972078
-0.0212916675955
-0.00101048953366
0.00845659151673
0.011219965294
0.0700788870454
0.0793694630265
0.00344962370582
0.000734286848456
0.0061407899484
-0.00107815337833
0.0409830845892
0.00417136214674
-0.00536219403148
0.0173695180565
-0.0499278828502
0.00186194654088
-0.0485978014767
0.033704649657
-0.0264788772911
0.00490191439167
0.00638977019116
-0.0255944207311
-0.0410317964852
-0.034538961947
-0.0355091020465
-0.0367484427989
-0.0412764288485
0.0133850825951
-0.0267427228391
-0.0353806354105
-0.0392372906208
-0.0341377146542
0.0240266751498
-0.000715049158316
-0.0034762355499
0.00373965711333
-0.0120334746316
-0.0313323773444
-0.0518538206816
0.00934764370322
-0.0464661754668
-0.0232142955065
-0.00295142596588
-0.0676354169846
0.0121484780684
0.010699047707
-0.0569925233722
-0.011953163892
-0.00566458515823
0.0307789053768
-0.0154537623748
-0.00901634804904
0.0501791201532
0.000450181745691
-0.0259777456522
-0.0333130061626
-0.0369136482477
0.017402715981
-0.0119460653514
-0.0195263084024
-0.0348650924861
0.018921751529
-0.0189446192235
0.00340381916612
0.0338021703064
-0.0232361201197
-0.0352365747094
-0.0134801380336
-0.00861622486264
-0.0321596823633
-0.00489106960595
-0.0132578285411
-0.0507711730897
0.0251062512398
-0.0376369990408
-0.0268362089992
-0.0296495966613
-0.032720644027
-0.00454749586061
-0.0413366444409
-0.0646995529532
-0.0417523980141
-0.00583441276103
-0.0221324674785
0.0397972241044
-0.0134257348254
-0.00956709124148
-0.0619386509061
-0.0742309838533
-0.0497493073344
0.00464249495417
-0.020410457626
0.00967376958579
-0.028764905408
0.0139540815726
0.02202892676
-0.0337352417409
0.0422949492931
-0.0111972196028
-0.00251065939665
-0.00455298926681
0.0115359956399
-0.0543867610395
0.0122827216983
0.0060938349925
-0.000645989086479
-0.02858883515
-0.000585741072427
0.0141991060227
-0.0189977046102
0.00644746422768
-0.0166084244847
0.00175082474016
-0.0182483252138
0.0127085549757
-0.00664368830621
-0.0080957878381
-0.00102714588866
-0.0310788340867
-0.0379484556615
-0.023049890995
0.00467408029363
0.00547673599795
-0.0293733291328
-0.0429137162864
-0.0402739942074
-0.0472368784249
-0.0223225038499
-0.0210765022784
0.00868178904057
-0.0272545646876
-0.0219645984471
-0.0777593702078
-0.00190524186473
-0.00528168864548
0.00306236743927
0.0125240953639
0.00744954217225
0.0400877483189
-0.00690978672355
-0.00145994359627
0.0210688728839
-0.00139978085645
-0.0254906080663
0.00433412194252
0.105685114861
0.0104022705927
0.0179521609098
-0.00330895953812
0.0102129951119
0.0255751535296
-0.0285955742002
-0.0196690540761
0.0284711886197
-0.00461634993553
-0.0126766962931
-0.0492117032409
0.0638812705874
2.16393236769e-05
-0.00640597520396
0.0506229288876
-0.0150097105652
-0.028067426756
-0.0190232079476
0.0366643853486
0.0249043796211
-0.0327144451439
-0.0896867141128
-0.00228932965547
-1.91967883438e-05
-0.0541079901159
0.0121011994779
-0.031300585717
-0.00375523348339
-0.00595085322857
-0.0479793138802
-0.0168591588736
0.131115332246
-0.00589957972988
-0.0252163950354
0.144376546144
0.0390484184027
-0.0282954741269
-0.0170825086534
0.00966647453606
-0.0191428717226
-0.021953817457
0.0336138568819
-0.00392926111817
0.10758908093
-0.0327950268984
-0.00888629630208
0.030235754326
0.00923123210669
-0.0086465543136
0.00185336556751
-0.0263456553221
0.00833230186254
-0.014240950346
-0.0278463121504
0.0052128196694
-0.0079472977668
0.0180099289864
0.00507949758321
-0.0147865628824
-0.0275162067264
-0.0236367378384
0.0017105297884
0.026231393218
0.0386414863169
-0.0032252301462
0.0138500975445
-0.0163545422256
-0.0171006768942
-0.033146366477
-0.0169010553509
-0.0228658877313
-0.0167062897235
-0.0478031076491
-0.0218144245446
-0.000933729694225
-0.0715393275023
0.0460531003773
0.0542628727853
0.00901860184968
0.00248238886707
-0.044388551265
-0.0387700796127
-0.0310102459043
-0.0184591561556
0.005284558516
-0.0357678644359
0.000359141355148
-0.0243842247874
0.00242469343357
-0.0494874492288
0.074605949223
-0.0226407423615
-0.0328287631273
-0.0111026559025
0.0174419227988
-0.0344591960311
-0.0274389535189
-0.000295352510875
0.00480024842545
-0.0222336985171
0.0071669742465
-0.0570261999965
-0.00963330361992
0.0135758975521
-0.0284645128995
0.0093350270763
-0.00895475689322
-0.0205594114959
-0.0123845757917
-0.019599262625
0.00104816292878
-0.00323077826761
0.0137229273096
0.023264721036
0.0135544436052
0.027892023325
-0.0185253825039
0.00283363135532
0.00482132704929
0.00220398441888
-0.0627872496843
0.0177378728986
0.000968970241956
0.0212515890598
-0.0527595058084
0.0269806012511
-0.0239823330194
0.0727478265762
-0.0258624050766
0.0456167086959
0.0132081108168
-0.0234896000475
-0.0189487934113
0.00853628851473
-0.0588727369905
-0.016087833792
0.0103863542899
0.00863165315241
0.346129894257
-0.034535497427
0.0437362752855
-0.0438048094511
0.00201177829877
0.00724633643404
-0.0200993046165
-0.0154883489013
0.00776039995253
-0.0272725559771
-0.0717031732202
0.00568647729233
-0.00400344608352
-0.0262146759778
-0.0367728620768
-0.0147696109489
0.0477835536003
-0.0273527987301
-0.014906979166
0.00226680375636
0.00613335333765
0.0627647638321
-0.00855854898691
-0.0149043360725
0.0435788147151
0.027638271451
-0.0355560481548
-0.0138042485341
-0.0834348723292
-0.0659538060427
-0.00475240824744
0.00664261542261
-0.0109141012654
0.0247486941516
-0.0123129384592
0.00212301057763
-0.0115637918934
-0.00838244054466
-0.032016646117
-0.020005537197
-0.00780381495133
-0.0152251217514
0.00322985486127
-0.000596409081481
0.00216049212031
-0.0552812367678
0.066677287221
-0.0298071242869
-0.0416910946369
-0.0377627946436
0.0157232172787
-0.0310467481613
-0.0177001077682
-0.0110179726034
-0.0355557724833
-0.0302196051925
0.0207965765148
0.00192809419241
-0.0040618670173
0.0149884223938
-0.0113255912438
-0.00198670243844
0.0530890189111
0.108236208558
0.0157802049071
-0.10837919265
0.0263991151005
-0.15349394083
0.0029633124359
0.0343406200409
-0.0128755848855
-0.104258738458
-0.0112413847819
-0.0149283315986
-0.0610506124794
0.0693688765168
-0.033181514591
0.0422678366303
-0.0235137175769
0.00200048228726
-0.0569293089211
-0.00962937809527
0.0283036660403
-0.0156577881426
0.0276767406613
-0.0911291390657
-0.0267150457948
0.0355976261199
0.000104417056718
0.0412587784231
-0.0259788371623
-0.0160475019366
-0.0596554204822
0.0120875025168
0.117393091321
-0.0304052568972
-0.0407052747905
0.0673613399267
-0.0741408392787
-1.48519429786e-05
-0.140578716993
0.0085379043594
-0.00948977191001
-0.0237684901804
-0.0862316265702
-0.0820899680257
-0.00313327275217
0.0095839696005
0.0154215022922
0.0126917632297
0.0491323173046
-0.0335259325802
0.00430972129107
0.0536525845528
0.271315425634
0.00266010430641
-0.0106092058122
0.00917548965663
-0.0466985069215
0.0477474331856
0.030292307958
-0.054835408926
0.00647176383063
0.00888096541166
-0.0570311769843
-0.0243304427713
-0.0602051280439
0.0195560213178
0.00160326517653
-0.00338938785717
-0.0054127224721
-0.0412521474063
-0.0111166294664
0.0475656762719
-0.0048338281922
0.04048775509
0.0314618833363
-0.0431723594666
-0.0765897706151
0.0413868539035
-0.0541191771626
-0.019667269662
0.0249657575041
-0.0255926568061
0.0216409359127
-0.00686063524336
-0.0407743006945
-0.0479874946177
0.000497573462781
-0.0403344854712
-0.0411387309432
-0.00715874973685
0.0297948159277
-0.0352436453104
0.00828311964869
-0.0273994840682
-0.0540750212967
-0.0372183099389
-0.00585768511519
0.0175121892244
-0.0423029251397
-0.0368961766362
0.00912306830287
0.017476465553
-0.00233495002612
-0.0369828380644
-0.0565029755235
-0.0367846488953
-0.02817828767
-0.0320947133005
0.0416067354381
0.000721075746696
-0.033962007612
0.0090885926038
0.0332892648876
-0.0234341602772
-0.0431705266237
-0.00302426284179
-0.00589399086311
-0.0295721944422
-0.0352055393159
-0.0587115138769
-0.0263991132379
0.0115125719458
0.0724180564284
-0.00746528897434
-0.00114810594823
-0.0476697422564
-0.0466307662427
-0.0227700863034
-0.0585241951048
0.0358757972717
0.0321068242192
-0.00720762461424
0.0368041060865
-0.00442922394723
-0.0435488112271
-0.0217648018152
0.0034599872306
0.00456878170371
-0.000346176122548
0.0203004069626
-0.0442923270166
0.0234248526394
-0.00169982749503
0.0140535095707
-0.0462784208357
-0.00329344091006
-0.006656027399
0.00440803682432
0.00556975556538
0.00268588145263
0.0360787659883
-0.00187310273759
0.0551369711757
0.0578232333064
0.0247974656522
0.0123097104952
-0.043228186667
-0.0174293685704
-0.0511265434325
0.0261688269675
0.0511997230351
-0.0354670621455
0.00450366036966
0.0342149659991
-0.0667464137077
-0.0054487735033
0.0298140123487
0.0229603387415
-0.0286686085165
-0.0467031411827
-0.0413655228913
-0.0229325406253
-0.00406823074445
0.0313546024263
0.0346966683865
0.0317501872778
-0.00801919959486
-0.00338287698105
0.027137093246
0.0118138808757
0.0921447500587
-0.0118648940697
0.00710342777893
-0.0777447000146
-0.0107324281707
0.0174049772322
0.0187681484967
-0.025711607188
0.0221752896905
-0.0642401129007
-0.0144875198603
-0.00405490258709
-0.0144824748859
0.0180204287171
-0.021660104394
-0.0574010200799
-0.0137126753107
-0.0190331824124
-0.0548216030002
0.0205481220037
-0.0279936641455
-0.0305133182555
0.00133971951436
-0.021889731288
-0.0352711677551
-0.0847674682736
-0.0140612553805
-0.0336488224566
-0.0377234630287
-0.0233979634941
-0.00590824987739
0.0442953668535
-0.00300873932429
-0.0495838485658
-0.01817057468
-0.0723642110825
-0.0424708724022
-0.0176231712103
0.0507113076746
0.0499157495797
-0.0434274412692
0.00598797388375
0.012816590257
-0.0195150952786
-0.0217339042574
0.0101343961433
-0.00420143827796
0.0184522308409
-0.0182189736515
0.0225969105959
-0.0737632289529
-0.0021311531309
0.023740939796
-0.0155533831567
-0.00903841014951
-0.00524434028193
-0.0691716298461
-0.0193502921611
-0.00256659439765
0.04048833251
-0.00702448515221
-0.0186879392713
-0.0239993780851
-0.061130028218
-0.0170429591089
0.0367865078151
-0.00850017368793
-0.0139887798578
-0.016655344516
0.00273063429631
0.0144029529765
-0.029022751376
-0.0217656660825
-0.0148202329874
-0.0168357081711
-0.0022690044716
-0.025981714949
-0.0288021471351
0.0159803926945
0.0179759878665
0.013104159385
-0.0420380420983
-0.0163687728345
-0.0267372950912
-0.0478783249855
-0.0581802390516
-0.0151598611847
0.00971563905478
-0.0143341198564
-0.0327152721584
-0.0495201423764
-0.027200140059
-0.0302049871534
-0.0175637565553
0.045475974679
-0.0202056802809
-0.0119710117579
-0.0207545794547
-0.0151399625465
-0.0493616275489
0.0408830828965
0.00983301177621
0.0220720805228
-0.0303695909679
-0.0250735301524
-0.0202991887927
0.0277201719582
0.0208800975233
-0.029439734295
-0.00754317874089
0.0127365197986
-0.0499494299293
-0.0370710194111
-0.0120605770499
-0.0801985636353
0.0215702429414
-0.00831879768521
-0.0185847207904
0.0296646207571
0.00740486755967
-0.0226231310517
0.0178983192891
0.015250406228
0.0204490683973
-0.0773645713925
-0.119690664113
0.0195032916963
0.0330866463482
-0.0274884998798
0.00464301044121
-0.0707022249699
0.0107162063941
-0.0316714905202
-0.0114442072809
0.00327503844164
-0.0451473146677
-0.0183678753674
-0.0682452097535
-0.0198199916631
-0.0348922759295
-0.0403144918382
0.00822980888188
-0.0637699961662
-0.0208358131349
-0.0493391193449
-0.0273806732148
-0.00585783272982
-0.00857567321509
-0.0103725148365
-0.0256277471781
0.00823087524623
-0.0381754599512
-0.0508085489273
-0.00885121431202
-0.010171238333
-0.00694794207811
-0.0382178127766
-0.0076125911437
0.00227164034732
-0.0206807292998
-0.0239336639643
-0.0230542887002
0.00516434619203
-0.0288050603122
-0.0467594228685
0.0096966875717
0.0207269415259
-0.0132833179086
-0.0164501722902
-0.0463815890253
-0.0400476530194
-0.0114989271387
0.00145383435301
-0.0218873340636
-0.0219217091799
0.00716691510752
-0.0322935916483
0.00121754151769
-0.0284553579986
-0.02300542593
-0.0128460358828
-0.018237484619
-0.00393595919013
-0.03290418908
-0.0010790778324
0.0077415634878
-0.0171109121293
-0.0220652706921
-0.0165350735188
-0.0181524101645
-0.0495028048754
-0.0111961448565
0.00750973401591
-0.0327802635729
-0.0619848370552
-0.049209870398
0.00950299017131
-0.0104084406048
0.0202251076698
0.000796466541942
0.00622961530462
-0.0254213325679
-0.0752740651369
-0.0609437525272
-0.00354051729664
-0.00681829685345
0.00443715415895
-0.042560916394
-0.0143313324079
0.0334349013865
-0.0213089622557
0.0183739252388
0.0149548593909
-0.000241035144427
0.0117819216102
0.013511756435
-0.0393791124225
-0.0120986327529
-0.0497822724283
-0.00410682661459
-0.0346311852336
-0.00502387201414
0.00679829344153
-0.00489209685475
0.0113461110741
0.00636740215123
-0.00571171101183
-0.0212879199535
-0.0137231554836
-0.0142667638138
-0.0256568845361
-0.00836726650596
-0.0388730727136
-0.0442996583879
-0.0101403445005
-0.0102246925235
-0.0331225134432
-0.02975191921
0.00789518188685
-0.018537921831
-0.0475609302521
-0.0135772116482
0.00700009148568
0.00772860320285
-0.0280195884407
-0.0332562811673
-0.0765690803528
-6.53958704788e-05
0.008594147861
0.00290811643936
0.0101661821827
0.00687002483755
0.0456808321178
0.0179260317236
-0.00859810225666
-0.0245997346938
-0.0822494626045
0.00807326007634
-0.00084590120241
0.00488044833764
-0.0713452324271
-0.0698545798659
0.000646220520139
-0.0732138454914
-0.00775803253055
-0.0980754718184
-0.0372429229319
-0.0465833842754
-0.0526025258005
0.00760619249195
-0.10569126159
-0.125509187579
-0.0554378069937
-0.0746514946222
0.00867614801973
0.00945486407727
-0.0485328286886
0.0216996315867
-0.0223417151719
-0.0729864239693
-0.0235109049827
-0.0285736322403
-0.0575137250125
-0.0196036603302
-0.0106851523742
-0.0423753745854
0.000551782257389
-0.108872257173
-0.022049896419
-0.0369766764343
-0.0103799086064
-0.120716296136
-0.0650748759508
-0.00244262907654
0.0310074221343
-0.0700197741389
0.021791132167
-0.0228964742273
-0.0160166174173
0.013000253588
0.00743024563417
-0.00819410849363
-0.0225823055953
-0.021928044036
0.0029943138361
0.00544235343114
-0.00824317149818
-0.0463091060519
-0.00736556202173
-0.0368431173265
-0.0376814231277
-0.0359380692244
0.010058154352
0.00544489966705
-0.0386085361242
0.02531802468
-0.0583895891905
0.0121559584513
-0.0711019262671
0.0452931672335
-0.00838725175709
0.00806032586843
-0.0681761056185
-0.0420603454113
-0.0346965156496
0.000376922485884
0.0212147105485
-0.0602146089077
0.00221148971468
-0.0167768411338
-0.0739167556167
-0.0343351401389
-0.0240104924887
-0.0226326864213
0.00208791415207
-0.0261399261653
-0.00742991035804
0.0555071309209
-0.0441079474986
-0.0972187817097
0.0438068211079
0.0387950465083
-0.00901756808162
-0.00056839780882
0.014628960751
-0.0109093021601
-0.0766151845455
-0.0114990882576
-0.0580586604774
-0.0293021369725
-0.036426782608
0.0106296138838
-0.00158315245062
0.00977356452495
0.000145075609908
0.0345270447433
-0.0270543787628
-0.0453952811658
-0.00164609542117
-0.00947485025972
-0.0683556348085
-0.0142381060869
-0.00367231154814
0.00289957877249
-0.00128403829876
-0.0625507161021
0.00246272212826
-0.0186889320612
-0.0474923886359
0.0205253828317
0.0352308042347
0.00592798599973
-0.0275903195143
-0.0642256066203
-0.0118500869721
-0.0524985566735
-0.0103731304407
-0.00172789685894
0.00521598942578
0.00200611795299
0.02963822335
-0.0345096886158
-0.00946236774325
-0.099773094058
-0.0560409724712
-0.00762074487284
-0.0103465421125
0.0681760460138
-0.0111083425581
0.0147046307102
0.00839316472411
-0.0209052022547
-0.0400819852948
0.0158574860543
-0.0341604314744
-0.0187898818403
-0.0134103484452
0.00753961224109
0.067082054913
0.0513465516269
-0.00121854187455
-0.0243749376386
-0.0205801166594
0.00602186284959
-0.0134165110067
-0.0194731820375
0.0279116742313
-0.0231070909649
-0.0474592484534
-0.0327231474221
-0.0395160876215
-0.0416689738631
-0.0345068387687
-0.0740196034312
-0.000215600637603
-0.0546911284328
-0.0321924164891
-0.0244315061718
-0.00919615942985
0.0273693390191
-0.0193938612938
-0.0235990118235
0.0223197322339
0.0435899272561
-0.00360691314563
0.00254024378955
-0.0220018178225
-0.030971294269
-0.0182726364583
-0.0142915444449
-0.0140847833827
-0.020466061309
-0.00372913014144
0.00747814634815
0.0240797493607
-0.0091991070658
-0.00522829266265
-0.0143961552531
-0.0157968383282
-0.0240670200437
-0.0090812779963
-0.0130711169913
-0.0162311568856
-0.00467944145203
0.0636952519417
-0.0278729461133
-0.0192371252924
-0.0763150528073
-0.00899537838995
-0.0108909392729
-0.0512399077415
-0.0181389898062
-0.0229746680707
-0.0165577251464
-0.00262161227874
-0.0087878331542
-0.0192392989993
-0.0205357875675
-0.0490106195211
-0.0492353886366
-0.00896459072828
0.0165627188981
0.00936128757894
-0.00573189556599
0.0462360084057
-0.0287274755538
0.0103003643453
-0.0149107379839
-0.0466164983809
-0.0844944268465
-0.0204693768173
-0.000881079235114
-0.0183232054114
0.0312403328717
-0.0378345735371
0.00950482673943
-0.0226622913033
0.0137319397181
0.00262195104733
-0.00552273960784
-0.00873713660985
-0.00111223524436
-0.00604210188612
-0.0500893220305
0.0125709669665
-0.0384104549885
0.0049020787701
0.011027992703
-0.0200385916978
-0.022900192067
-0.0247798357159
0.00921569112688
0.0363029651344
-0.008285488002
-0.027166094631
0.0471287369728
-0.0401917472482
0.00179165764712
-0.0814012289047
0.00948094762862
-0.00674252584577
-0.0150525942445
0.0152069926262
0.0403910167515
-0.0148275205866
0.00801630970091
0.0117164850235
0.0125868422911
0.0365482568741
0.00477418769151
0.00378701253794
0.0312380883843
0.0605002827942
0.0045276847668
-0.0258438028395
0.0216850768775
-0.0344209112227
-0.00630345195532
-0.0112826172262
-0.0268809106201
-0.00630018766969
-0.0270483661443
-0.0307503938675
-0.031041752547
-0.0550714544952
-0.0161368958652
0.00369730056264
-0.102675020695
-0.0676096752286
-0.036921735853
0.0580331683159
-0.0166560076177
-0.0189402196556
-0.00704262591898
-0.00278686871752
-0.0309247300029
-0.00241441326216
0.0228394754231
-0.0333437770605
-0.0285298153758
0.00254242192023
-0.0400175489485
0.000939766352531
0.00763625698164
0.00119557871949
-0.0118482755497
0.0036972744856
-0.0759276002645
-0.0311383921653
0.00988458190113
-0.0395938567817
-0.0365538038313
0.0345414280891
-0.0171873513609
-0.0147497896105
-0.00798914860934
0.00391293270513
-0.0222675092518
-0.0122639304027
-0.0133089460433
0.00466386741027
-0.0218752622604
-0.00835201889277
-0.0344718694687
-0.0332198813558
-0.0232183169574
0.0103767439723
-0.0378811880946
0.00467161368579
0.00925019010901
-0.00545357074589
0.0430096313357
-0.0236737169325
-0.00967716705054
-0.0052233603783
0.0547492168844
0.00311993248761
-0.020309202373
-0.0473010316491
-0.0155596453696
-0.011830624193
0.00467038108036
-0.00380233768374
0.0409133508801
0.00842685624957
-0.0452239327133
-0.0455450601876
-0.0695312470198
-0.00602053990588
0.0264726653695
-0.0126474648714
-0.0393416583538
-0.0175113491714
0.0321874395013
0.0106314830482
-0.0710232928395
0.0371284075081
0.024672633037
0.0133120706305
-0.0124154901132
-0.0129413446411
0.0295065976679
-0.022876271978
0.0124263167381
-0.0307133216411
-0.0234052296728
-0.0588053613901
0.00195055734366
0.0106152007356
0.00185833137948
-0.0158794503659
0.0142599763349
-0.0351406782866
-0.0364433079958
-0.0113404067233
0.0126459719613
-0.0269829779863
0.000494893989526
-0.00306350784376
-0.00960602145642
-0.000279662490357
-0.0369893759489
-0.0119209559634
0.0213865544647
-0.0272387508303
0.00486955232918
-0.00475988769904
-0.0143872695044
-0.0336561128497
-0.0216161366552
-0.0478083156049
-0.0184880364686
0.00966600142419
-0.0121579347178
-0.00868807546794
-0.00888752751052
0.0753928422928
0.0201040878892
-0.018881842494
-0.0725122466683
0.0502155646682
0.00946056377143
0.0792670622468
-0.17881667614
-0.0100197289139
0.00821611937135
-0.000750438543037
0.0359061285853
0.000642511004116
0.0475323423743
0.00270469929092
-0.0221859142184
0.00978919025511
0.00159688747954
-0.0549813397229
0.0498130992055
0.0451443456113
0.056616153568
-0.0183351133019
0.0260140802711
-0.0213390197605
-0.0125288143754
0.0072893993929
0.0192921925336
0.0505453087389
0.0908494591713
0.0360936112702
0.00338638643734
-0.00874463282526
0.0366472378373
-0.000298836152069
-0.0128767751157
0.0421098470688
0.040492516011
0.010362979956
-0.0320798791945
-0.0166872777045
0.0306064113975
-0.0908639207482
0.0427406616509
0.0635108947754
-0.00064662436489
0.00660300115123
0.0383711345494
0.0218452401459
-0.00549904024228
0.0106867728755
-0.0316568799317
0.0374476462603
0.00469983834773
-0.0864071920514
-0.0304709374905
0.0526733882725
0.029447292909
0.0612057559192
0.0408984087408
-0.00729333795607
0.0192301999778
0.0157959312201
0.0411883741617
-0.0127910086885
0.00790636893362
-0.00976812001318
-0.0664292275906
0.0160868372768
0.0263927616179
0.0334557369351
0.0255801025778
-0.0110675701872
0.021815052256
0.00944814272225
0.0295908749104
0.0244976114482
0.0176642183214
0.0585883632302
0.0612270198762
-0.0251990053803
-0.000507444608957
0.00166303897277
0.0444555878639
-0.00494177639484
0.00042082744767
-0.0160355251282
-0.0220476556569
0.0487512759864
0.057350717485
0.0338379964232
0.0145328007638
0.0571565553546
0.00262670172378
-0.00937764719129
0.00764397066087
0.0301348324865
-0.0523244254291
-0.00152767403051
0.0179582070559
0.010930178687
0.00983155984432
0.000551166711375
0.0264673903584
0.0363111756742
0.0259948708117
0.0153578883037
0.000411494344007
0.0293251965195
0.029552301392
0.0275775138289
0.0136428009719
-0.023810159415
0.00747983623296
0.113694451749
0.0105397300795
0.0216593444347
0.0113834049553
0.029052099213
-0.00483401399106
-0.0237195249647
0.0251302886754
0.0515439547598
0.0426528677344
0.0182269066572
0.00389945274219
-0.00335871521384
-0.00238953623921
-0.130163088441
0.0129171265289
0.00556403677911
0.0083153648302
-0.0385402590036
-0.00184092635754
0.00588834332302
-0.0171967931092
-0.0158974193037
-0.0468709543347
0.00793265923858
-0.0300851296633
-0.0209316667169
-0.0438354723155
-0.00922694150358
-0.0184556469321
-0.00295366393402
-0.00227480800822
0.0141612384468
0.00312031432986
-0.0257569868118
-0.0322006233037
-0.018566057086
0.0237564910203
-0.0198907926679
0.00617670593783
-0.027209347114
-0.0274130925536
-0.0554895438254
-0.0296054817736
-0.0403006337583
-0.0170651506633
-0.0370489470661
0.00812502857298
0.00363725330681
-0.103140503168
0.00277320900932
-0.0209989286959
-0.00648404099047
-0.00939558167011
-0.00427354080603
-0.0150003703311
0.0470423437655
-0.00526286149397
-0.0377125218511
0.0403050780296
0.019449673593
-0.0445840060711
-0.00594614027068
-0.0187836345285
-0.0123124243692
-0.0772280395031
0.0107706570998
-0.0057187108323
-0.0140275452286
-0.022067418322
-0.00697873486206
-0.0171984247863
-0.0270016118884
-0.0348783880472
-0.019683862105
-0.00614906009287
0.00899539049715
0.0281776301563
-0.0646048635244
0.00220121513121
-0.0271930806339
-0.0823623389006
-0.00828147865832
-0.013857120648
-0.0536920055747
-0.0392244234681
-0.0230438504368
0.00119013641961
0.00780201144516
-0.0292457826436
-0.0112982392311
-0.0527815669775
-0.00524938525632
-0.0117672765628
-0.0459787249565
0.00637386366725
0.00841562915593
0.0835394710302
-0.0526071861386
-0.0526295155287
0.014807742089
0.0160650294274
-0.0343201607466
-0.0565880015492
-0.0170294772834
-0.00407683476806
-0.0129325399175
-0.00971763208508
-0.0449567660689
-0.00430324487388
-0.0298313889652
0.00439507607371
0.037529066205
-0.0114003457129
-0.001946993405
-0.0112887304276
-0.0159755945206
-0.0784332901239
0.0356919467449
-0.0148073099554
-0.00973127037287
-0.00500559993088
-0.0266612078995
0.00300875562243
-0.0302672404796
-0.0237904600799
-0.00481591047719
-0.0283514801413
0.00425387453288
-0.0517188385129
-0.0471355989575
0.0230473894626
-0.0865924730897
0.000860279600602
-0.0283914487809
-0.0264993458986
0.00800690613687
0.0325081311166
-0.0103287277743
0.00503048906103
0.00743338745087
0.00510870339349
0.0246427375823
-0.0698021277785
0.00243100617081
-0.0537589564919
0.000972548790742
-0.0233382452279
-0.0294405557215
0.227423340082
-0.00335319433361
-0.035876210779
-0.0222962871194
-0.0108480313793
-0.0313752107322
-0.0246398560703
-0.00845814216882
-0.00142497138586
-0.0067227431573
-0.0160328932106
-0.0130809182301
0.0467215403914
-0.000357587297913
-0.00602050311863
0.0172064937651
-0.0389662049711
-0.0135461390018
-0.0246330499649
-0.019686833024
-0.00259134476073
-0.00569654814899
-0.0236954018474
-0.00161983375438
-0.00418888311833
-0.0187438707799
-0.0168354753405
-0.0222767665982
-0.000768480007537
-0.0138779953122
-0.00853715464473
-0.0177933592349
0.12049472332
-0.00567720923573
-0.0261054094881
0.198676049709
0.0121330069378
-0.0207467246801
-0.0242852158844
-0.00972382724285
0.00134268857073
-0.022478941828
-0.0311071481556
-0.0161270871758
7.10351305315e-05
-0.0323607064784
-0.0175229050219
0.0868697166443
-0.00220206030644
-0.00655896449462
-0.00353548047133
-0.0132110835984
-0.00128686917014
-0.00791557691991
-0.0241037998348
-0.025352999568
-0.00605355668813
0.0497394613922
-0.006603684742
-0.00894066132605
0.0271109268069
-0.0199945885688
-0.0455325767398
0.0109148165211
0.000978146796115
-0.00593787198886
-0.0113992262632
-0.0531844124198
-0.0133023243397
-0.0221902355552
0.0107417870313
-0.0140743693337
-0.0144413821399
-0.00926847662777
-0.0124620739371
-0.0214092526585
-0.0261814389378
-0.00862351898104
0.0396598577499
-0.0269114617258
0.0398654006422
-0.0307215694338
-0.0287649910897
-0.021496931091
-0.0226403772831
-0.0154311861843
-0.0269695520401
0.00407789461315
-0.0223510060459
-0.0079737463966
-0.00913205649704
0.0830108970404
-0.0279394611716
-0.0195040758699
-0.0194325633347
-0.0148313306272
-0.0227875057608
-0.0470403693616
-0.0146357305348
-0.0214025061578
-0.0203179009259
-0.00788198318332
-0.0127496896312
-0.00650548189878
-0.0286085568368
-0.0263294409961
-0.00428989436477
-0.0331309586763
-0.028082465753
-0.00473968917504
-0.0296868551522
0.0127497799695
-0.0161862820387
0.00362175214104
-0.00643625482917
-0.0223352648318
0.0666225254536
-0.018772797659
-0.025856828317
-0.0218086037785
-0.0213113315403
0.149417757988
0.0218951106071
-0.0243186354637
0.00257737305947
-0.0381263978779
0.0169596094638
0.0075128194876
-0.0562985390425
-0.0138204684481
-0.00750670488924
-0.0302979648113
0.014991552569
-0.0566681586206
0.020339101553
0.045142672956
-0.0368975624442
0.0115754110739
-0.0322352536023
0.0649174824357
-0.146268367767
-0.0566555820405
0.0324781164527
0.0623625256121
-0.0407931320369
0.00300680287182
0.010939755477
-0.0515356138349
-0.0179794933647
0.04379786551
0.096005409956
-0.029372477904
-0.00705177523196
0.0304207615554
0.0182599648833
0.00794729590416
-0.0302600655705
0.0680995732546
0.123968668282
0.0273778475821
-0.100405871868
0.00496061006561
0.0385988466442
-0.18629874289
-0.0892296507955
-0.0145678780973
0.0357025898993
0.00511292088777
0.0228176582605
0.0305552184582
-0.0417188443244
-0.000391154142562
-0.0243476163596
0.0404175780714
-0.0338831320405
0.0227989517152
-0.0162538643926
-0.0222325623035
0.0146331666037
0.107120990753
-0.00614955555648
0.0477777831256
0.0293022152036
-0.0132023682818
0.00827772263438
0.0451460592449
0.078031912446
0.00414137775078
0.105569541454
0.0328786745667
-0.00331599428318
-0.0764349848032
0.0284444876015
-0.00473087374121
0.0281868148595
-0.0583915449679
0.0541865080595
0.0309085696936
-0.0215973127633
0.0113970283419
-0.0149682257324
0.023954955861
0.0245906207711
-0.0288126375526
-0.00836468394846
-0.0535383075476
-0.0185985043645
0.00543176848441
0.0223487131298
0.0851105153561
0.0451636090875
0.0373580269516
-0.047872427851
0.00657664379105
0.0187266282737
0.0118125434965
0.0251241866499
0.00158554653171
0.0254429727793
-0.138341039419
0.0185097046196
0.0166250374168
0.0206370446831
-0.0279718711972
0.0480094365776
-0.0358111187816
-0.0822511091828
-0.0287972316146
0.0210332646966
0.00147069233935
0.015251156874
0.0227098371834
-0.0239838026464
0.0298804026097
-0.00829728413373
0.00172924983781
0.0443604849279
0.0421014800668
0.0237103383988
-0.0269112233073
-0.0281423460692
-0.0107471579686
0.00747022498399
-0.0279975645244
-0.10073941201
0.0344096571207
-0.030403630808
-0.0327217057347
-0.0288235582411
0.129637613893
-0.048971157521
-0.0260570105165
-0.0764757841825
-0.0445315800607
0.00427669053897
0.0303033553064
0.0884045362473
-0.00909657869488
0.0105598736554
0.0059668184258
-0.0159140899777
-0.0163521803916
-0.0397652462125
-0.0023715456482
0.0481681339443
0.0137516604736
-0.00111368275248
-0.0485600605607
0.0434824638069
0.015917878598
-0.010824566707
0.00096245954046
0.00636248057708
0.0190006550401
-0.0215306319296
0.00229845149443
-0.0123755894601
-0.00184202950913
-0.038261435926
0.0135014532134
-0.0262674987316
0.0262302141637
-0.00185006659012
0.0060890163295
-0.000306256784825
0.0171158313751
-0.0141416275874
0.00784717686474
0.0175954923034
-0.00327319744974
0.00379428011365
0.0687999501824
0.0464424043894
0.0108175259084
0.0109909437597
-0.0252097956836
-0.013310902752
0.00707691442221
-0.00417041266337
0.0129563380033
0.0793828293681
-0.0169920511544
-0.000601872743573
0.0830139890313
0.0278226360679
0.0356938019395
0.00459256535396
0.00114759174176
0.012539383024
0.0475400350988
0.0028734144289
0.0228409133852
-0.0144141931087
0.0237807203084
-0.00997267477214
-0.000372591719497
0.0135490950197
