-0.0088122189045
-0.0112403221428
-0.0385464653373
-0.0284427013248
-0.026159638539
-0.0370632261038
-0.00966329034418
-0.0226196479052
-0.0376320630312
-0.0273701287806
-0.0262952521443
-0.0241904705763
-0.0371058806777
-0.0311166197062
-0.0246044043452
-0.00739050190896
0.0574229732156
-0.0324293300509
-0.0191300921142
-0.0209912396967
-0.0206736493856
-0.00697794975713
-0.0171336196363
-0.043365649879
-0.0164202135056
-0.0265963040292
-0.0145268058404
-0.0112083125859
-0.0184027329087
-0.00927867554128
-0.0232300814241
-0.0221068188548
0.0729135870934
-0.0342394411564
-0.0127037763596
-0.0240356847644
-0.0203423704952
-0.018997291103
0.0151374489069
-0.0387152582407
-0.0111927259713
-0.00448420085013
-0.0199653729796
-0.0234535578638
-0.0417983569205
-0.0417375192046
-0.00572307547554
-0.00109866505954
-0.0329720377922
-0.0338544100523
-0.0201357509941
-0.0366558469832
-0.0188618693501
-0.0188007820398
-0.0228730235249
-0.020852426067
-0.022348375991
-0.0399260930717
-0.00234124530107
-0.0295683592558
-0.0301844738424
-0.0288162082434
-0.030196076259
-0.0307781882584
-0.0297518372536
0.00616043526679
0.00806046649814
-0.0237083118409
-0.0346837304533
-0.019054511562
-0.0213693585247
-0.0358718894422
-0.00318010291085
-0.0215286482126
-0.00546345999464
-0.00597332604229
-0.0298106987029
-0.0264468751848
-0.0160200111568
0.00771028036252
-0.0363964475691
-0.00483334157616
-0.0186687856913
-0.00831009726971
-0.0378901325166
-0.0156764909625
-0.0260394476354
-0.0411742180586
-0.0237944684923
-0.0378053449094
-0.0152892898768
-0.0345442816615
0.00362754170783
-0.0406401194632
-0.0104178749025
-0.0350924283266
-0.0272466409951
-0.0209918692708
-0.0151937315241
0.0172282718122
-0.0354956835508
-0.0207913983613
-0.014018827118
-0.0182605907321
-0.0206435415894
-0.0051706568338
-0.0247261878103
-0.0211312454194
-0.00823959987611
-0.0163155924529
-0.0245599374175
-0.0218695532531
-0.0221926998347
-0.0232370123267
-0.0365604758263
-0.0187183320522
-0.0291476100683
-0.0204654484987
-0.0276345070451
-0.00763885397464
-0.00500210002065
-0.0238326191902
-0.0326615385711
-0.0214044302702
-0.0346102491021
-0.0229282993823
-0.0299008972943
-0.0350466892123
0.00340514071286
0.00968577060848
-0.0175562612712
-0.0187980104238
-0.0172266364098
-0.00425458559766
0.0255406275392
-0.0166551116854
-0.0291297417134
-0.0139520177618
-0.0163318831474
-0.0173224341124
-0.0109504740685
-0.00352837936953
-0.00512237334624
0.0118340477347
0.104484513402
-0.00991527643055
-0.0163221526891
-0.0168562456965
-0.0282095614821
-0.00691963220015
-0.0172726102173
-0.0216039102525
-0.0205076988786
-0.0195797905326
-0.0180669371039
0.00916546862572
-0.0160955004394
-0.00089137093164
-0.017823247239
-0.0181475672871
0.0986679047346
-0.0094881914556
-0.0216497220099
0.0165568757802
-0.0226086545736
-0.0156400166452
0.0146609349176
-0.0164284128696
0.0034730695188
0.0171126164496
-0.0156746115535
-0.0195609796792
-0.0219877008349
-0.00843355990946
-0.00843934621662
-0.00526202097535
-0.00733295781538
0.00044932772289
-0.0249769184738
-0.018490517512
-0.0165168661624
-0.0163409821689
-0.0222785994411
-0.0132228974253
-0.0186391305178
-0.0096447756514
-0.00413487153128
0.00336408545263
0.00532714975998
-0.0189176052809
0.00352974655107
-0.0176576916128
-0.00576886162162
0.00062311248621
-0.00148129521403
-0.0227682106197
-0.0143994353712
-0.0165688265115
-0.018463531509
-0.000448116479674
0.0114479409531
-0.0191500931978
-0.00189639034215
0.0232770200819
0.00223815673962
-0.0168183650821
-0.0178346447647
-0.00108112406451
0.00237313238904
0.0268358308822
-0.0176325086504
0.0081576006487
-0.00524268066511
-0.0131003269926
-0.0136459683999
-0.0195705872029
-0.018225191161
-0.0219837427139
-0.0109115093946
-0.0114046428353
-0.00167862314265
-0.0118053238839
-0.00806209165603
0.00186940270942
-0.0126681551337
-0.0156295318156
-0.0170179326087
-0.00648343935609
-0.00806566793472
-0.0223786067218
-0.0140463495627
-0.0171552691609
-0.0216148551553
-0.00651988154277
-0.0238173995167
-0.0189580284059
-0.00832938123494
-0.0219607762992
-0.0187317617238
-0.0216898117214
0.00945846457034
-0.0182193052024
-0.0200651492923
-0.0160363391042
-0.00840998627245
-0.0149087477475
0.00408944394439
0.000559787324164
-0.0020018692594
-0.0165297612548
-0.0109467618167
0.00836044829339
-0.0146260531619
-0.0157261509448
-0.0173155292869
-0.00354242091998
0.0109087321907
0.00696440599859
0.00795142445713
0.00185842229985
0.00197742437012
0.00287912972271
0.00511695211753
-0.000411090935813
0.00876651797444
0.0094695026055
0.00474689202383
0.00142740120646
0.00246521085501
0.00573983276263
-0.00801809970289
-0.00249817362055
-0.0488895103335
0.000303034292301
0.00587275484577
-0.00298623158596
0.00669852597639
0.014971700497
0.00719136977568
0.00602888315916
0.0089900046587
-0.00136614288203
0.00783986784518
0.00785664934665
0.00634412560612
0.00632296456024
-0.0024322969839
0.00488213449717
-0.052962180227
-0.000790219753981
0.0104105975479
-0.00551001215354
-0.000260572938714
0.00588537426665
0.112443365157
0.00763649819419
0.000928507186472
0.0107747428119
0.00622517196462
0.00483833951876
0.00606188224629
0.00674763461575
0.0120247649029
0.0179492197931
-0.00158711778931
0.00504961563274
0.00443600025028
0.000285527901724
0.00722558097914
0.00703847734258
0.000704880862031
0.00864712242037
1.17082254292e-05
0.00321419350803
0.0152411237359
-0.000266229530098
-0.000818413333036
8.76579579199e-05
-0.00242728390731
0.00174284679815
-0.00833899341524
0.0208023786545
0.0213116072118
0.00429844576865
0.0072048814036
-0.00644230982289
-0.00163428264204
0.00420411117375
-0.00753250066191
0.00596984475851
0.011356016621
0.00973976124078
-0.00152493233327
0.00169388600625
0.00871045701206
0.0219679754227
0.0143438838422
0.00812050141394
-0.00605512084439
0.00960445962846
0.00440772576258
0.00942074041814
-0.00425740517676
0.0014314831933
0.00145436264575
0.00316667300649
0.01013738662
-0.000374106341042
0.019514715299
0.0107251210138
-0.00157757441048
0.00939290318638
-0.00381114566699
0.00537742255256
-0.0103956088424
0.0268024615943
0.000436343019828
0.00447530858219
0.0101913632825
0.00521736359224
0.00416935933754
0.0148104988039
-0.00283995619975
0.00436312286183
0.0136941913515
0.00838762149215
-0.00136994023342
-0.000620320090093
0.00540766539052
-0.00185292307287
0.0045938543044
-0.00542060378939
-0.00751421926543
0.005510780029
0.0106286937371
0.00414616102353
0.00945161562413
0.00177825707942
-0.00102557300124
0.00717202899978
0.0033052302897
0.00634811772034
0.00269984430633
0.00160345225595
0.00478634051979
0.00115044729318
0.00384277221747
0.00123346841428
0.000796960608568
0.00626936508343
0.00129924970679
-0.000380105455406
0.0137343537062
0.00348141603172
0.00209588534199
0.000349731039023
0.00506033655256
0.00389678683132
-0.00298404297791
-0.00267943879589
-0.0491878166795
0.0023323034402
0.0018012287328
-0.000801613961812
0.00235967943445
0.0120413135737
0.00268822978251
0.0113365016878
0.00353421247564
0.00253754062578
0.00317642139271
0.00182512833271
0.00384801835753
0.00341372797266
0.000225737603614
0.00185571203474
-0.0559223927557
0.0012466100743
0.00378498015925
-0.00199483847246
0.00126985833049
0.00262265722267
0.0956532657146
0.0112856235355
-0.000591675867327
0.00461000436917
0.00230734725483
0.00159265613183
0.00344754825346
0.012365270406
0.00983082409948
0.018018906936
-0.000321292347508
0.00614027259871
0.00106942688581
0.00758500723168
0.0042842393741
0.00225165230222
0.000665297091473
0.0046304021962
-0.000840511987917
0.0114064477384
0.0142263956368
0.000689457403496
0.00167692254763
0.000958415737841
0.00161319703329
0.00262960675173
-0.0039994046092
0.0215772930533
0.0216611474752
0.00242166547105
0.00403137225658
-0.00128073489759
0.000218493209104
0.00642345426604
-0.00898949149996
0.000924228865188
0.0115412417799
0.00467674667016
0.000301739491988
0.00197888445109
0.00308781093918
0.021267823875
0.0136351073161
0.00207583792508
-0.00317313941196
0.00418714853004
0.0114881750196
0.00612192414701
-0.00168602634221
0.00294137047604
0.000343341729604
0.00743845943362
0.00743466988206
-0.000542198598851
0.0196682401001
0.0186315178871
-0.00875574629754
0.00650799460709
0.000467174773803
0.00181237189099
-0.00436858879402
0.024004759267
0.00283368071541
0.00130145414732
0.00516694504768
0.00233375537209
0.00205004028976
0.0137280635536
0.00535101443529
0.00228113727644
0.0111994529143
0.00258146552369
-0.000789514859207
0.000572046614252
0.000137758936035
-0.000511858612299
0.00201056711376
-0.00123817822896
-0.00386755657382
0.00263699004427
0.00410008290783
0.00316395726986
0.00735775753856
0.000790710095316
0.00153002690058
0.00229419930838
0.00116963661276
0.00194774928968
0.00080237473594
0.00571449426934
0.00591357471421
0.000693336362019
0.00487809907645
0.00248476420529
0.00240069581196
0.00282657286152
-0.00370816187933
0.00274993130006
0.0157663468271
0.00626674154773
0.00329303368926
0.00172367948107
0.00308130122721
0.00280035543256
-0.00479290587828
-0.00317478762008
-0.0714937373996
0.000685562787112
0.0064252265729
0.000956628879067
0.0100479144603
0.0178831964731
0.0103761451319
0.0104288058355
0.0102506615222
0.0028895935975
0.0101767545566
0.000874225923326
0.0087736081332
0.00515120755881
0.00275556091219
0.00723301107064
-0.0784439072013
-0.000285199988866
0.0116232484579
-0.00544933229685
0.00549910636619
0.00732992123812
0.102848418057
0.0113478256389
0.00216023134999
0.000804497103672
0.0076210941188
0.00535211386159
0.00456677330658
0.00933584664017
0.0168204698712
0.024287847802
-0.00209648604505
0.00129634467885
0.00780019117519
0.00470620626584
0.00892592407763
0.00662321969867
0.00536188203841
0.00929450709373
0.00291405664757
0.00785375293344
0.0190870519727
-0.000708769948687
-0.00149872503243
0.000371844827896
-0.00133328652009
0.00341335288249
-0.00581731833518
0.0264339856803
0.0282237529755
0.00683089997619
0.00389509345405
-0.00305730151013
0.00309830834158
0.00249350932427
-0.0130457915366
0.00767646264285
0.0142481504008
0.000603177060839
-0.00188522832468
0.00231611775234
0.0103839421645
0.0294596403837
0.0102477585897
-0.00387131469324
-0.00217186263762
0.00286449934356
0.00626445235685
0.0116192493588
-0.00171521364246
0.00284898211248
0.00413575023413
0.00617268262431
0.011460877955
-9.34491690714e-05
0.0255338437855
0.0157748255879
-0.00736532639712
0.00418436108157
-0.000506821670569
0.00609399145469
-0.00405352143571
0.0356437601149
0.00138516398147
0.00755445100367
0.011076473631
0.00805764459074
0.00731606082991
0.0184906702489
0.00505252182484
0.00721134804189
0.0166456364095
0.0108395852149
0.00165003549773
0.00379186519422
-0.00187374884263
0.000986923929304
0.00371898943558
-0.00166115909815
-0.00476828683168
0.00610662810504
0.00191702740267
0.00495901191607
0.0107361795381
0.00332802883349
0.00031287362799
-0.000878999358974
0.00280365603976
0.00484164245427
0.000862332584802
0.00325920875184
0.00278503145091
0.00194431096315
0.000879968167283
-0.000671878282446
0.000275085883914
0.0107918083668
0.00695246458054
-0.00140475877561
0.0124853020534
-0.00195096782409
-0.00275385682471
-0.00136623356957
0.00571488728747
0.00411861110479
0.00342311686836
-0.00502217607573
-0.0085204411298
0.00631718104705
-0.00377409067005
-0.00110410677735
-0.0046376506798
-0.00230425246991
-0.00584027357399
0.0107949944213
-0.00647186208516
0.00358054530807
-0.00468933442608
0.00116180453915
-0.0040872679092
-0.00368400220759
-0.000977010116912
-0.00370162772015
-0.0153683787212
0.00201748195104
-0.00556131266057
0.00429984834045
-0.00138238049112
-0.00531797483563
0.0808439105749
0.0114746214822
-0.00591697683558
0.00634213211015
-0.00365382968448
-0.00324948783964
0.00181810685899
0.0167860742658
-0.007897535339
0.000168805243447
0.00145170779433
0.0102833723649
-0.00238821166568
0.00993921793997
-0.00462147779763
-0.00403026398271
-0.00133837584872
-0.00609430577606
-0.00295487954281
0.0156178027391
0.000301371503156
0.00517686549574
0.00525396689773
0.00086197478231
0.00585030764341
-0.000144692909089
-0.00157809490338
0.00556737417355
0.00325475912541
-0.00338265695609
0.00017782933719
-0.00125016574748
-0.00177569384687
0.0117605887353
-0.00675994250923
-0.00378250516951
-1.56033329404e-05
0.00995231233537
0.00318249198608
-6.68919165037e-06
-0.00762106571347
0.00322706787847
0.0211782865226
0.00828377716243
-0.00154613470659
0.00382214179263
0.0145732769743
-0.00559371430427
0.000735069508664
0.00190293462947
-0.00251412438229
0.00690720789135
-0.00504405191168
-9.76319861365e-05
0.00310566858388
0.0216208100319
-0.0140371918678
0.0125194163993
0.00344953057356
-0.00369555922225
-0.00313198193908
0.000575400074013
0.00783116556704
-0.00385968573391
-0.00656403275207
-0.00439538573846
-0.00447946693748
-0.000888352806214
0.00525499368086
-0.0034750411287
-0.00282111228444
-0.00708865793422
-0.000640383979771
-0.00227393722162
0.00439339410514
-0.000250988057815
0.000275185797364
-0.00113840785343
-0.000313562486554
-0.00483489315957
0.00998689513654
-0.00472669955343
-0.00261238287203
-0.00146858871449
0.00369491404854
0.00618126103655
-0.00114997639321
-0.00318590295501
-0.00228505511768
0.00998397450894
0.0135829560459
0.00917187426239
0.0111084189266
0.00280158082023
0.000441586103989
0.00397768802941
0.0102295167744
-0.00109361845534
0.00890443939716
0.0122380359098
0.00409622117877
0.00125148706138
0.00216207117774
0.00928034354001
-0.0067610675469
-0.0032208703924
-0.0481896363199
-7.44861827116e-05
0.00386106688529
-0.00486350385472
0.003045467427
0.0124971400946
0.00631249323487
0.00807412620634
0.00627283379436
-0.0030611443799
0.00601315498352
0.0111546544358
0.00542554957792
0.00411731284112
-0.00310536846519
0.00327415647916
-0.0543175525963
0.0009860470891
0.00806404743344
-0.0023440096993
-0.00327704567462
0.0038698730059
0.12138851732
0.00785561092198
0.000319644168485
0.0149969561026
0.00452919816598
0.00284993671812
0.00730870245025
0.00640681711957
0.0115549638867
0.0165935270488
-0.000326826004311
0.00896660145372
0.000935279764235
-0.000327065354213
0.00580189656466
0.00484168017283
-0.000772177707404
0.00858276709914
-0.00225069839507
0.0024022476282
0.0129069844261
0.00155309622642
0.00127850100398
-0.000685110979248
0.000984199694358
0.00345722353086
-0.00685985945165
0.0194698665291
0.0181054901332
0.00120403734036
0.00969114433974
-0.00793177355081
-0.00371336052194
0.00577303208411
-0.00828533340245
0.0031306524761
0.00973575282842
0.0160939525813
0.0014304947108
0.00117385317571
0.00790042616427
0.0187766607851
0.0167020745575
0.0130812628195
-0.00708390353248
0.0139759983867
0.00161117606331
0.00955168996006
-0.00361091317609
0.00397358788177
0.00098524603527
0.0049187829718
0.0102783469483
0.00153843918815
0.0171645786613
0.0085737882182
-0.00261362805031
0.0141121828929
-0.00256676622666
0.00419355649501
-0.0115390950814
0.0246692784131
0.00253084278665
0.00182369863614
0.00855459552258
0.00401727017015
0.00285569834523
0.0134103409946
-0.0043162368238
0.00397944450378
0.0106785353273
0.00676162401214
-0.0025194324553
-0.00187849975191
0.00840555131435
-0.0041066929698
0.00589778181165
-0.00653587281704
-0.00552092585713
0.00559550756589
0.0160802099854
0.00376459071413
0.00717269256711
0.000299088889733
0.00115371390712
0.0121830394492
0.00562427984551
0.00414185132831
0.00406023534015
0.00163904635701
0.00629843911156
0.00568140018731
-0.00175108155236
-0.00337446830235
-0.00357034197077
0.00655475724488
0.0101912021637
-0.00545391347259
0.00489613460377
-0.00116786686704
-0.00519498297945
-0.00381389330141
0.00158969825134
0.00338024273515
-0.000863487075549
0.00147767097224
0.0117866080254
0.0012307401048
-0.0052879890427
-0.00524123106152
-0.00815340969712
0.00128432700876
-0.00649816542864
0.00355604244396
-0.00782568566501
-0.002363628475
-0.00712052313611
0.00592800509185
-0.00541779771447
0.00117693666834
-0.00438394164667
-0.00472260406241
0.00668115308508
-0.000356465374352
-0.00741189857945
0.00566264009103
-0.00483682006598
-0.00477217510343
0.0698513686657
0.00530004454777
0.000362442660844
0.0105900513008
-0.00484989676625
-0.00483815884218
-0.000327304296661
0.0127786938101
-0.00405639223754
0.00379874953069
-0.00250218505971
0.00788446515799
-0.00729128578678
0.00365314818919
-0.00401265593246
-0.00549119897187
-0.00535803753883
-0.00490627763793
-0.00725420191884
0.0102434800938
0.00484804389998
0.00365593098104
0.00525245349854
-0.00362536497414
0.00449427915737
-0.0028770507779
-0.00332119804807
0.0103765083477
0.00855036545545
-0.00751809729263
0.000300349609461
-0.00500182854012
-0.00622069183737
0.00856703612953
-0.000663431361318
-0.00660019461066
0.00515807559714
0.0130487568676
0.00186031113844
-0.00292492541485
-0.00867696478963
0.00902629829943
0.0155995720997
0.0136988377199
-0.00530778570101
0.00894873496145
0.0114896539599
-0.0059184669517
-0.00343719683588
-0.00211039348505
-0.00488655501977
0.000661165686324
-0.00374683388509
-0.00341743440367
0.00787270441651
0.0133129954338
-0.0103193884715
0.0101822623983
-0.00195651547983
-0.00499795936048
-0.00634947698563
0.00343922991306
0.00441890163347
-0.00745648890734
-0.00534939579666
-0.006494382862
-0.00681350240484
0.00288994121365
-0.001917842892
-0.00604657875374
-0.000828660908155
-0.00778057705611
-0.00484083825722
-0.00711452122778
0.00653720041737
-0.00356829585508
-0.0027274612803
-0.00472238659859
-0.00314780534245
-0.00432791747153
0.00810886360705
0.0035920299124
0.00440762052312
-0.00493915937841
0.000644620449748
0.00694595323876
-0.00304653146304
-0.00552540877834
-0.00439151655883
0.0066703306511
-0.0034109975677
0.00118233589455
-0.0234819930047
-0.0199144296348
-0.0184253472835
-0.0107983071357
0.0154083361849
-0.017727850005
-0.0271219201386
-0.0227705352008
-0.0222449637949
-0.0167145822197
-0.0177737511694
-0.0107216769829
-0.0126003017649
-0.00164781254716
0.0947971343994
-0.0160159338266
-0.0180774368346
-0.0164275038987
-0.0225459616631
-0.01609095186
-0.019664498046
-0.026482783258
-0.0208234805614
-0.0167851280421
-0.0187500137836
0.000154390378157
-0.0181046426296
-0.0106226261705
-0.0167722869664
-0.0191152300686
0.101829685271
-0.0180872026831
-0.0197160840034
0.00403947988525
-0.0170087944716
-0.0189585611224
0.0184804461896
-0.0213528424501
-0.0068922303617
0.00893717259169
-0.0184716694057
-0.0190066508949
-0.0250635519624
-0.0104344896972
-0.0173374805599
-0.0150934578851
-0.0165378637612
-0.00446401024237
-0.0191220548004
-0.0195202138275
-0.0195495672524
-0.0188443958759
-0.0187168084085
-0.0224570855498
-0.0177758783102
-0.0126276435331
-0.0122408065945
-0.00515359546989
-0.00285647739656
-0.0201300755143
-0.0053207827732
-0.0205178353935
-0.0163923557848
-0.00868160743266
-0.0103443013504
-0.0206006970257
-0.021861769259
-0.0146684115753
-0.0165851395577
-0.00639826897532
0.00719434581697
-0.0197083782405
-0.0096720084548
0.0138667086139
-0.0094502940774
-0.0192622430623
-0.0214635543525
-0.00867661181837
-0.00167773326393
0.0170848034322
-0.0135178556666
0.00349373882636
-0.0101033253595
-0.0225503593683
-0.0182748381048
-0.0244492031634
-0.0184728763998
-0.0235131718218
-0.0221935492009
-0.0207176655531
-0.00936629809439
-0.0138838216662
-0.00946148019284
-0.00266929599456
-0.0170424040407
-0.0193033739924
-0.0115195326507
-0.0135864494368
-0.0127577492967
-0.0195976886898
-0.0206064544618
-0.0184085611254
-0.0201572496444
-0.0164196640253
-0.0163931641728
-0.0188984982669
-0.0177082400769
-0.0208548177034
-0.0177165344357
-0.0184245351702
0.00298343948089
-0.0153560042381
-0.0245166495442
-0.0133795021102
-0.0165124237537
-0.0183823052794
-0.00085328053683
-0.0081729888916
-0.0108975348994
-0.0179810803384
-0.0178714841604
-0.00142357707955
-0.0217364672571
-0.0178164709359
-0.0236625466496
-0.0115857888013
-0.0131923798472
-0.0116914212704
-0.00179098220542
0.00745041901246
0.0140246357769
0.0348014570773
0.00710660545155
0.0170278791338
0.0760269463062
-0.0128939542919
-0.00436695571989
0.0152675928548
0.0271995924413
0.00575451785699
0.0315226651728
-0.0305876247585
-0.0320200622082
0.026822924614
0.00346165313385
0.0297161135823
0.0219532791525
-0.0292985849082
0.00457761669531
0.0682704299688
0.0102006997913
0.0489420220256
0.0120116146281
-0.0107292085886
0.00294829788618
-0.0284935515374
0.0218062791973
0.00820877216756
-0.0456031635404
0.0167248733342
0.0108505599201
0.017372129485
0.0266946833581
0.00247399997897
0.0951038897038
0.0632256865501
-0.0296399947256
0.00222599785775
0.00129734631628
0.0116927614436
0.00615263404325
0.0588920526206
-0.0253810938448
-0.0334700495005
0.0143783306703
0.0204190742224
0.0235626250505
0.0573710501194
0.000366795342416
0.00403695134446
0.0244494210929
-0.012409218587
0.019630420953
0.0584784448147
-0.0351857021451
0.0154060665518
0.017797825858
0.0198161061853
0.017329197377
0.00478718150407
0.017825204879
-0.0350069254637
-0.0379666388035
0.0188795775175
-0.000212941537029
0.0371723473072
0.0237190630287
0.0280183572322
-0.0205458775163
0.012827550061
-0.0324851945043
0.0122231058776
0.0115083828568
0.0125256180763
0.00173072249163
-0.0359240025282
0.0548074729741
0.0138911390677
0.0336945913732
-0.0103493975475
0.0570325627923
-0.0119990091771
0.0168005488813
0.00929477997124
0.0141857462004
0.0451224260032
-0.0185387358069
0.00437525706366
-0.0358144119382
0.0820229053497
-0.0248058997095
0.0276404991746
0.0330328978598
0.00366434222087
0.0374016277492
-0.0358741022646
0.0227672252804
0.0159042328596
-0.00882647000253
0.0105207562447
0.0159401036799
-0.0279938355088
0.0651486739516
0.0111842323095
-0.0269327256829
0.0110694570467
0.0201632026583
0.0236822478473
0.00308668776415
0.0308653768152
0.00220655347221
0.0353749357164
0.0196836683899
-0.0033143335022
0.0167186912149
-0.0312758199871
-0.0339227132499
0.0158489979804
0.0258944425732
0.00508998241276
0.00065918720793
0.00520657096058
0.00310582807288
0.0391378924251
-0.00474075833336
-0.00358111551031
0.00100323255174
0.00505602639169
0.00700189778581
0.0233240332454
0.000450930936495
0.0080843148753
0.0261698048562
-0.00320158875547
0.00102422607597
0.00506831239909
0.0209670234472
0.00599107006565
0.0208253636956
0.00271106720902
-0.0416077002883
0.0187695492059
0.00199596094899
0.0121802026406
0.00567211257294
0.00596712948754
0.00248609739356
0.0309034772217
0.00265061832033
0.0165956448764
0.0037151845172
-0.00493246922269
0.00285321078263
-0.000357725017238
0.00949655752629
0.00322196655907
-0.0588341988623
0.0136799616739
0.00349210272543
0.0140553070232
0.00907762907445
0.00195371452719
0.0580835044384
0.0289804823697
0.000677552365232
-0.00457569397986
0.000949293083977
0.00225675222464
0.00624937843531
0.0335221886635
0.00656182831153
0.00947347469628
0.0116661256179
0.00973500218242
0.00686585949734
0.0291924476624
0.00145001197234
0.00138810568023
0.00631244247779
0.00245845178142
0.00731522031128
0.032658290118
0.00787572562695
0.0127736749128
0.0149267287925
0.0104499114677
0.0152102168649
0.00463583180681
0.0118468496948
0.0120128635317
0.0134795187041
0.00510376831517
0.000673842325341
0.01315058209
0.00786037184298
0.0196482501924
-0.0146769415587
0.00305602303706
0.00568097317591
-0.000959589728154
0.0109102260321
0.00677553843707
0.000850743206684
0.0139359161258
0.023384526372
-0.00150206114631
0.00548209156841
-0.00348163908347
0.0340466983616
0.00251873303205
0.0140637783334
0.00887157395482
0.00483855092898
0.0190335214138
0.00322821782902
0.00771463429555
0.0117251090705
0.0398645885289
-0.0165262781084
0.00686345808208
0.0199606008828
0.00327162514441
0.00773917511106
0.0172527395189
0.0186672788113
0.00594637962058
0.000886196503416
0.00319913960993
0.00303861941211
0.00743065169081
0.0245740059763
0.00432411255315
0.00667843781412
0.00331387086771
0.00873253401369
0.00483681773767
-0.000824683404062
0.0111309038475
0.00506849540398
0.0112462379038
0.0132681336254
0.00117036118172
0.000495217798743
0.000488292309456
0.00145286577754
0.00469288602471
0.0164076369256
-0.000387520092772
0.00399792520329
0.00233244639821
0.00253406981938
0.0258516408503
0.0143172349781
0.0120382262394
-0.00806600041687
-0.00648792367429
-0.00788098480552
-0.0236520729959
0.00965861510485
-0.00545747252181
-0.0332309938967
0.00254982034676
-0.00108350499067
-0.00434242095798
-0.021123426035
-0.00595112424344
-0.0149921225384
0.0149689055979
0.0541464723647
-0.0159342698753
0.000913163064979
-0.0107646174729
-0.0069236997515
0.0104973604903
0.00236407853663
-0.0270652249455
-0.000782452058047
-0.0191817414016
0.000960494624451
0.012872563675
0.00149265839718
0.015807300806
-0.00925151444972
-0.00210141437128
0.0632606744766
-0.0137697998434
-0.000118074436614
-0.00712015014142
-0.0095583172515
0.000296867598081
0.0314928032458
-0.0253821145743
0.01461075712
0.0200030356646
0.000703549070749
-0.00350106833503
-0.0153063368052
-0.0348289087415
0.00860353466123
0.0105465371162
-0.0115101700649
-0.0121525656432
-0.00782577134669
-0.0257543064654
0.00151724100579
0.0028503544163
-0.00902326963842
0.00438160914928
-0.00884054880589
-0.0322647616267
0.0133915580809
-0.0103177921847
-0.012155151926
-0.0121266273782
-0.0122711323202
-0.00821177847683
-0.0108366953209
0.0101799098775
0.00948818586767
-0.0053140935488
-0.0061257854104
-0.0162508264184
-0.0086019448936
-0.0201934203506
0.0235286299139
-0.00195003917906
0.0143867107108
0.0189680978656
-0.00801389478147
-0.00667132856324
0.00299077271484
0.0126281799749
-0.0229173153639
0.02012110129
-0.0112780025229
0.0155032994226
-0.0295237340033
0.00616985326633
-0.0115008959547
-0.0162327382714
-0.00385027355514
-0.0205143168569
0.00471748225391
-0.00970183219761
0.0140143213794
-0.0393303111196
0.0193819366395
-0.0125349899754
-0.0140534425154
0.00015543148038
-0.015127860941
0.0109623223543
-0.018620967865
-0.00440012756735
0.00550422631204
0.00130160478875
-0.00293620140292
0.00988399796188
-0.0273352321237
-0.000501920992974
0.00650196615607
0.000194251595531
-0.00973506085575
-0.00726133305579
0.00429654819891
-0.0124484272674
-0.00894102919847
-0.013771190308
-0.0125069394708
0.00141687423456
-0.00134513678495
0.0156567618251
0.0159137733281
-0.00442956294864
-0.0148552954197
0.00468050828204
-0.00717002572492
-0.00157390965614
-0.00467147724703
-0.023587167263
0.0161527898163
0.00999895483255
0.00713057769462
0.00138928089291
-0.0017927470617
-0.00182997412048
0.00726976152509
-0.00201270077378
-0.000380140496418
0.00963332410902
0.00373826920986
-0.000433422246715
-0.00376465404406
0.00416125264019
-0.0123829459772
0.0033380035311
-0.0266056060791
-0.00392985902727
0.00415832968429
-0.00720276264474
0.00436645792797
0.0162918716669
0.00655282149091
-0.00138911872637
0.00621605990455
-0.00672629382461
0.00791557691991
0.0116525990888
0.00691083678976
0.0108825340867
-0.00499851629138
0.00385430431925
-0.0264786742628
-0.00323315407149
0.00874238368124
-0.00616313889623
-0.00496545713395
0.00495934765786
0.0998862609267
-0.000245323462877
0.00618115160614
0.0160428807139
0.00677636126056
0.00256207585335
0.00178108480759
-0.0013062247308
0.0125281848013
0.0179263483733
-0.00372099690139
0.00297035626136
0.000418338779127
-0.00760008906946
0.00519804982468
0.00499271787703
-0.00258711376227
0.00789911113679
-0.00298275216483
-0.00496779894456
0.0181489977986
-0.00267043965869
-0.00338687025942
-0.00355859240517
-0.00387396919541
-4.57387104689e-05
-0.0106018390507
0.0188024193048
0.0190157461911
0.00234402250499
0.00638398807496
-0.0112076271325
-0.00465210760012
-0.00152982689906
-0.000641939521302
0.00431584008038
0.014898551628
0.015699647367
-0.00259059271775
-0.000572026241571
0.00868101976812
0.0218892134726
0.00692846579477
0.0142469154671
-0.00811803527176
0.0138098280877
-0.00333823077381
0.0094447163865
-0.00611278740689
-0.00113521469757
1.82539351954e-05
-0.00154205353465
0.00910297874361
-0.00224062264897
0.0200019460171
0.000848029274493
0.00298505509272
0.00677447207272
-0.00756017398089
0.00383535330184
-0.0136745953932
0.0238157585263
-0.00388245517388
0.00220482773148
0.0088661108166
0.00323555665091
0.00197084713727
0.0157143436372
-0.00999821629375
0.0024636189919
0.0147521533072
0.00781069276854
-0.00343842478469
-0.00294552207924
0.00830401107669
-0.00677880924195
0.00268712453544
-0.00868622772396
-0.0103037217632
0.00498060556129
0.0110923927277
0.0107741327956
0.0151600269601
0.000517487002071
-0.00516965333372
0.0092869354412
0.00217378675006
0.00329417968169
0.000421885080868
-0.00442115636542
0.0133309746161
0.0099437404424
-0.0111243929714
-0.00903410464525
-0.0112739456818
-0.0242610108107
0.00733967730775
-0.00828539021313
-0.0330653041601
-0.00106701743789
-0.00439698202536
-0.00779120437801
-0.0223618000746
-0.00754840485752
-0.0172924045473
0.0143195055425
0.0478678233922
-0.0186257306486
-0.00225107301958
-0.0138690732419
-0.0105901174247
0.00955662690103
-0.0004216490197
-0.0265665203333
-0.0044193090871
-0.0195151213557
-0.00331019749865
0.00906396750361
-0.00177462212741
0.0139418244362
-0.0135197956115
-0.00502332812175
0.0552650690079
-0.0152239445597
-0.00488040735945
-0.00678176479414
-0.013358624652
-0.00341120781377
0.0297183264047
-0.0260294619948
0.0113792205229
0.0177568104118
-0.000825552444439
-0.00675637787208
-0.0184518974274
-0.0317063108087
0.00834110192955
0.00997409038246
-0.0127754639834
-0.0135425487533
-0.0119186639786
-0.0261405613273
-0.00260768318549
-0.00142927910201
-0.012764101848
0.00100053544156
-0.00985945109278
-0.0304553546011
0.0131723415107
-0.0111253978685
-0.0125464843586
-0.0140259452164
-0.0119290510193
-0.0112983779982
-0.0118921725079
0.0115476446226
0.0108733875677
-0.00914329942316
-0.00876181479543
-0.0166882183403
-0.0120350727811
-0.0206654965878
0.0195295345038
-0.00651524355635
0.0144607014954
0.0170781686902
-0.00985459890217
-0.00886552408338
-0.00108384527266
0.0142807057127
-0.0229691807181
0.0189096238464
-0.0136225428432
0.0126759577543
-0.028529714793
0.00358457374386
-0.013949079439
-0.0175671167672
-0.00627529248595
-0.0210764929652
0.00413475371897
-0.0124413939193
0.0128946937621
-0.0347131416202
0.0134898237884
-0.0152121977881
-0.0162957068533
-0.00230462080799
-0.0157028101385
0.0135443005711
-0.0196541324258
-0.00821375753731
0.00313830701634
-0.00330841867253
-0.00862220395356
0.0092231426388
-0.0268043167889
-0.0050093960017
0.00771213602275
-0.00290933204815
-0.0124701848254
-0.0116875078529
0.00188229873311
-0.0154411224648
-0.0123982019722
-0.0144954826683
-0.0130258044228
-0.000972018984612
-0.00385489570908
0.0144844399765
0.0145224193111
-0.00705981859937
-0.0161085817963
0.00342962774448
-0.0102808009833
-0.00386092136614
-0.00737686874345
-0.0236796401441
0.0159903299063
0.0104529289529
0.0103911450133
0.0051077590324
0.00452070822939
-0.000949528242927
0.00390509166755
0.00455626798794
0.0119497990236
0.0130302701145
0.00624669576064
0.00424591964111
-0.00269630597904
0.00523460702971
-0.0164087079465
0.00220182957128
-0.0658883526921
-0.00545954005793
0.0124427815899
2.94666042464e-05
0.0194834694266
0.021779563278
0.0187145769596
0.00190210796427
0.0224729981273
-0.000788794248365
0.0201914682984
0.0116323949769
0.014889026992
0.013869613409
0.00188677478582
0.0128963524476
-0.0665175765753
-0.0043439688161
0.0242783930153
-0.0104303946719
0.0092508289963
0.0117986258119
0.138176128268
0.000767686811741
0.00897451676428
0.0139149650931
0.013764555566
0.0126423174515
0.00718963798136
0.000967735424638
0.0243436098099
0.0270390063524
-0.00553287751973
0.00481086364016
0.0166938193142
-0.00558789772913
0.0159994550049
0.0143609754741
0.0121218645945
0.0162508562207
0.00795685034245
-0.00438156025484
0.0249400734901
-0.00583158014342
-0.00552891660482
0.000834271661006
-0.00548317935318
0.00422039581463
-0.0130711877719
0.0297308024019
0.0299260225147
0.0151165546849
0.0098038809374
-0.00793733634055
0.0050887959078
0.000463304459117
-0.00689892563969
0.0148545978591
0.0201503690332
0.0111968312413
-0.00505780801177
0.00409730011597
0.0221077110618
0.0319948270917
0.0103616537526
0.00918704178184
0.000479276524857
0.0147476671264
-0.00317686726339
0.0192426312715
-0.00451750541106
0.00175199832302
0.00898493081331
0.00282264640555
0.0181958507746
-0.0015384418657
0.0283039566129
0.00438463129103
0.00180785602424
0.00987569056451
-0.0105164488778
0.0112915420905
-0.0040754233487
0.0408542528749
-0.0050553213805
0.0173588190228
0.0186076369137
0.0149060050026
0.0169846396893
0.0216201860458
0.0017322372878
0.0135525874794
0.021233394742
0.022259613499
0.00347144785337
0.0100916456431
0.00671670725569
0.000185294265975
0.0060663134791
-0.00180675543379
-0.0127890752628
0.0108025167137
0.0117962276563
0.0123482663184
0.0179635249078
0.00573958130553
-0.00616666628048
0.00968923885375
0.00488179735839
0.0106428591534
0.00350267603062
-0.00492153316736
-0.000702307210304
0.00723204528913
0.000768410915043
-0.00163540523499
0.00114586856216
0.0267550814897
0.0256783459336
-0.00136894593015
-0.00244753365405
-0.00645450269803
-0.00412550847977
-0.000770712445956
0.0193672161549
0.0120737040415
0.0222766753286
0.0160232111812
0.058997195214
0.0181202664971
-0.00439600273967
0.00267117843032
-0.0114634605125
-0.00674429070204
-0.00722739985213
0.0126623269171
-0.00988705269992
0.00548823364079
-0.00719991652295
0.00739784352481
-0.00583003880456
-0.00370573624969
0.00311124045402
-0.00435923691839
0.0344691686332
0.0138030434027
-0.00970604084432
0.0339707806706
-0.00499182520434
-0.0057612285018
0.00212825182825
0.0158422663808
0.00573355192319
0.00919656269252
-0.00651723984629
-0.00536791514605
0.00391178904101
0.0312268640846
-0.00757133960724
-0.00503386929631
0.0159229263663
0.0229681488127
-0.00796794705093
0.0142436977476
-0.00619238428771
-0.00776145001873
-0.00634974148124
-0.00833324436098
-0.00228551658802
0.0257128328085
-0.00674119591713
0.0252399332821
0.0278290230781
0.00484255095944
0.0252699740231
0.00205725501291
0.0175779312849
-0.00377974193543
-0.00432887393981
-0.00675720255822
0.00158929848112
0.00608172360808
-0.000398400559789
0.0276849605143
-0.00149116909597
-0.00543595524505
-0.00548304058611
0.0163774434477
0.0213866513222
-0.000470565108117
-0.00906231068075
-0.00546951266006
0.0320747308433
0.0192773714662
-0.00197687488981
0.00564656127244
0.0291956793517
-0.00830530561507
0.0111946584657
0.00740621984005
-0.00311159691773
0.0065147690475
-0.00600230088457
0.00874488428235
-0.00454436754808
0.0228764321655
-0.0178453084081
0.0228468179703
0.0158459264785
-0.00431749178097
-0.000249525532126
-0.00504459161311
0.0206757187843
-0.00771656772122
-0.00954618118703
-0.00527736404911
-0.00663235830143
-0.0066619082354
0.00134287471883
-0.004471400287
-0.00636574486271
-0.00969546101987
0.00149261613842
-0.00624908786267
0.0170120354742
0.00246178405359
0.00210779672489
0.00330426124856
0.0167987439781
-0.00496218027547
0.0144266718999
-0.000791061902419
-0.00801054108888
-0.00140671397094
0.0144178560004
0.0126256924123
0.00388462375849
-0.00479976134375
0.000198068970349
0.0269576273859
0.00919250119478
0.00456148711964
0.00393827119842
0.00204199273139
0.0023435712792
0.000931314367335
-0.00145884347148
0.00246946164407
0.00957411900163
0.00753904134035
0.00374191394076
0.00191325764172
-0.0019342135638
0.00192340114154
-0.0119111798704
-0.000115843715321
-0.0523566156626
-0.0044407248497
0.00806431099772
-3.92130205e-05
0.0124008180574
0.0182231962681
0.0131423175335
0.00237288931385
0.0143436342478
-0.00181258853991
0.0144514646381
0.00506559060887
0.0100147482008
0.00806776992977
6.64230101393e-05
0.00754434196278
-0.0524250343442
-0.0034527212847
0.0166640356183
-0.00964348204434
0.00528112286702
0.00718490872532
0.117511428893
0.00135340786073
0.00363086722791
0.00757235009223
0.00943562574685
0.00734709762037
0.00329591543414
0.00364918005653
0.0176691636443
0.0223613381386
-0.00554523756728
0.00104301876854
0.011578255333
-0.00389200029895
0.00873433984816
0.00951104890555
0.00652426341549
0.00986319966614
0.0032265081536
-0.000189806974959
0.0204794760793
-0.00561805209145
-0.00435614725575
-0.00126228178851
-0.00547967012972
0.000137987575727
-0.0119650643319
0.0271581243724
0.0276719313115
0.00994369667023
0.0045209992677
-0.0070930076763
0.00228739739396
-0.000146163743921
-0.00515269255266
0.00909990724176
0.0147171327844
0.00294708530419
-0.00497256033123
0.000536607578397
0.0144727826118
0.0298278257251
0.00670105265453
0.0014161033323
-0.0032251579687
0.00702322367579
0.00010145696433
0.0138885928318
-0.00474086869508
-0.000342912273481
0.00520633906126
0.000725881604012
0.0130549659953
-0.00265930057503
0.0267318543047
0.0079379985109
-0.00108866486698
0.00489171175286
-0.00724922027439
0.00719706667587
-0.00530301267281
0.0365066342056
-0.00355692440644
0.0108943032101
0.013361451216
0.00958484876901
0.00959614478052
0.0193079765886
0.000369757297449
0.00876751542091
0.0159163586795
0.0153911821544
0.000406170584029
0.00611828593537
0.000161680436577
-0.00049155385932
0.00277003133669
-0.00296560209244
-0.0101065300405
0.00620248634368
0.00553587684408
0.00798289291561
0.0123762227595
0.00163731118664
-0.0049830628559
0.00268237153068
0.000776084896643
0.0061245248653
0.000156041322043
-0.00225030840375
0.00642678048462
0.00383444572799
0.00385495554656
0.00121716968715
-9.04760017875e-05
0.00209050509147
-0.000244012160692
0.000837991945446
0.00881513673812
0.00495579093695
0.0014933362836
0.000854106037878
0.00027052508085
0.00135188666172
-0.00804718025029
-0.00226316857152
-0.0449056252837
-0.000700347241946
0.0034333798103
-0.00151728233323
0.00536029273644
0.0143320234492
0.00577864516526
0.00665679993108
0.00631501013413
-0.00170141027775
0.00675484212115
0.00350788189098
0.00600426038727
0.00609652046114
-0.000615362776443
0.00344072724693
-0.0479988269508
-0.00181162159424
0.00768697634339
-0.00677449582145
0.00168618932366
0.00392375001684
0.101931214333
0.00561255635694
0.000667981279548
0.00488748168573
0.0047110314481
0.0024378830567
0.00365470349789
0.00670355511829
0.0125054093078
0.0180286113173
-0.00258328625932
0.00329674291424
0.00364602054469
0.001256360556
0.00670128874481
0.0043208906427
0.00323420087807
0.00683375867084
0.000228412012802
0.00530019402504
0.016427623108
-0.00243859924376
-0.0021385862492
-0.00197822437622
-0.0014840264339
0.00056920881616
-0.00741037772968
0.0226679444313
0.0227724667639
0.00448509771377
0.00284827477299
-0.0055408324115
-0.000224489136599
0.0021760056261
-0.00717247044668
0.00430540274829
0.0119235850871
0.00438438821584
-0.00383895356208
-0.000464316486614
0.00644825771451
0.0234738253057
0.00932865682989
0.00172013882548
-0.00454470934346
0.00528036383912
0.00501976488158
0.00921575631946
-0.00358809717
0.00108728173655
0.00175177084748
0.00254618236795
0.00843624770641
-0.00144447188359
0.0208486262709
0.0116526186466
-0.00391190033406
0.00540482113138
-0.00317441485822
0.00360966310836
-0.00722830137238
0.0277956835926
-0.000592066149693
0.00432520220056
0.00731407152489
0.00508441170678
0.00426707416773
0.0144275408238
0.000998866627924
0.00325881480239
0.0120541630313
0.00747960899025
-0.000577968603466
0.000882873544469
0.000385848310543
-0.00127016252372
0.00115377316251
-0.00418725144118
-0.00641729868948
0.0024354388006
0.00574391521513
0.00511671928689
0.0103312116116
0.00110938458238
-0.00168187264353
0.00166975997854
0.000928919471335
0.00454291189089
-0.000431260792539
0.00068837904837
0.00581931555644
0.0055450219661
-0.0170311108232
-0.0145093817264
-0.0136277992278
-0.0212431661785
0.0058085215278
-0.013524373062
-0.0317542105913
-0.00926558114588
-0.0116325793788
-0.0136765018106
-0.0208148751408
-0.0111498497427
-0.0178153440356
0.00753856124356
0.0485399141908
-0.0194127578288
-0.00769692705944
-0.0171333141625
-0.0151396989822
0.00425616651773
-0.00752934906632
-0.0298246461898
-0.0105897467583
-0.0223962347955
-0.00794911757112
0.00536629091948
-0.0067787328735
0.00675250869244
-0.014685141854
-0.01123993285
0.0532473027706
-0.0181860253215
-0.00930762663484
-0.00624347431585
-0.016295818612
-0.00859987549484
0.0311104748398
-0.0264710690826
0.00471725454554
0.0107363965362
-0.00853519700468
-0.0128627121449
-0.0215992834419
-0.0263913199306
0.00361553486437
0.00656869448721
-0.0159319322556
-0.0132066681981
-0.016344755888
-0.0270039774477
-0.00835150387138
-0.00716989580542
-0.0170055404305
-0.00703511945903
-0.0149323511869
-0.0256868693978
0.00778243644163
-0.0116273434833
-0.0119226509705
-0.0181688033044
-0.0116764008999
-0.0144005641341
-0.0168138109148
0.0102395191789
0.00946246925741
-0.0149694867432
-0.0146321840584
-0.0196603946388
-0.0156181855127
-0.0183804053813
0.0122945811599
-0.0115420985967
0.00709028262645
0.0119566926733
-0.0107276355848
-0.0139922173694
-0.00730901537463
0.0120307132602
-0.0170825626701
0.013520328328
-0.0161330047995
0.00862347986549
-0.0232639107853
-0.0032915296033
-0.0178340096027
-0.0224043857306
-0.0129846874624
-0.0253852158785
-0.00340740405954
-0.0169986560941
0.0106189930812
-0.0278120245785
0.00371392513625
-0.0134987477213
-0.0182115379721
-0.00932612363249
-0.0170317254961
0.0127673512325
-0.0184651017189
-0.0136865265667
-0.00352467247285
-0.00903329625726
-0.0128744887188
0.00346635887399
-0.0270193815231
-0.011902699247
0.000674115959555
-0.00991887971759
-0.016313387081
-0.014413703233
-0.000308779097395
-0.0178089179099
-0.0176330655813
-0.0175227224827
-0.0173715129495
-0.00654838513583
-0.00692032277584
0.0072760572657
0.00832651276141
-0.0115654272959
-0.0184665676206
-0.00117796938866
-0.0162179879844
-0.0100360037759
-0.0144451735541
-0.019664183259
0.00715271104127
0.00455455528572
0.00244748941623
-0.00156859320123
-0.00254848366603
0.00684564607218
0.00905759446323
-0.00367312808521
0.0109740914777
0.000216240237933
-0.00285349809565
-0.00301669002511
0.00337742106058
0.00376480747946
-0.00218179961666
-0.00430110702291
-0.00808919221163
0.0028505474329
-0.00230904109776
-0.00334238749929
-0.00355560099706
0.00223655579612
-0.00365020870231
0.00735875498503
-0.00435255514458
-0.000240558409132
-0.00335552333854
0.00457930145785
-0.00148206448648
0.000503466406371
-0.00224461243488
-0.00206636893563
-0.013548720628
-0.000615345838014
-0.00489371363074
0.00134816637728
-0.00298784649931
-0.00326908007264
0.0946761965752
0.00789588317275
-0.00335705489852
0.00997905246913
-0.00297536957078
-0.00214940262958
0.000985843245871
0.0126231340691
-0.00233742152341
0.00524273933843
-0.000242799898842
0.00716574443504
-0.00267840293236
0.00472638290375
-0.00250793085434
-0.00216213497333
-0.00277447677217
-0.00188381306361
-0.00378019060008
0.0106174359098
0.00539415981621
0.00255501898937
0.0043962886557
-0.00122228299733
0.00300408550538
-0.000868985662237
-0.00577716343105
0.0100308982655
0.00852298550308
-0.00407842965797
0.00163520674687
-0.00388977769762
-0.00302417227067
0.00784431770444
-0.00440949480981
-0.00391148589551
0.00476464023814
0.0132238417864
-6.03992411925e-05
-0.000741958152503
-0.00454538827762
0.0106325484812
0.0172977410257
0.0119421528652
-0.00398039957508
0.00704805878922
0.00980068556964
-0.00262864166871
-0.00271721021272
1.04122875655e-07
-0.00328071112745
0.00430947216228
-0.00100473256316
-0.00177050835919
0.0102590536699
0.0162369720638
-0.00961813982576
0.0111811747774
-0.000312718591886
-0.00275467545725
-0.00722194556147
0.00811979267746
0.00394163886085
-0.00347140943632
-0.00318908016197
-0.00338219082914
-0.00310837919824
0.00362596218474
0.00137164071202
-0.00265007233247
0.00158484315034
-0.00413444498554
-0.00325243850239
-0.00306381471455
0.00539610162377
-0.00247581209987
-0.000499138783198
-0.00319426017813
-0.00438679289073
-0.0019249364268
0.0110512683168
-0.000396055198507
0.00298723508604
-0.00253468030132
0.00222288887016
0.00574183696881
-0.000107923020551
-0.00144093099516
-0.0021230080165
0.00428777141497
-0.0117850322276
-0.00914512947202
-0.0038437328767
0.00250215013511
0.00720434309915
0.0306820068508
-0.00152218679432
0.00651142792776
0.034671023488
-0.0085421493277
-0.0019838581793
0.00388128962368
0.0261666215956
0.00325432396494
0.0270573217422
-0.00176675128751
-0.0397698991001
0.0244261976331
-0.00174716825131
0.01245604828
0.000672139925882
-0.00328664691187
-0.00336429220624
0.0379341617227
-0.00371606973931
0.0209065619856
-0.00262979324907
-0.0105187129229
-0.00356838596053
-0.00716912560165
0.00956869032234
-0.00235711783171
-0.0662148296833
0.0172969587147
-0.00359543622471
0.0211410298944
0.0087559428066
-0.00252147275023
0.0381044596434
0.0384331122041
-0.00482427654788
-0.0102993510664
-0.0036973496899
-0.00160886300728
0.00504628987983
0.0452171452343
-0.00387485604733
0.00142489478458
0.0143144130707
0.0131879905239
0.00287498021498
0.0390049740672
-0.00284202001058
-0.00356144364923
0.00469916267321
-0.00426754821092
0.0043584285304
0.0440191999078
-0.00172463152558
0.0181926842779
0.0196237172931
0.0115680573508
0.0191562771797
0.00492766220123
0.017293555662
0.00293042976409
0.00360718509182
0.000200878217584
-0.00279645528644
0.0183477625251
0.00682660378516
0.0259074606001
-0.0185882672668
-0.00168980611488
-0.00310838548467
-0.00363489054143
0.0149860447273
0.00591860804707
-0.00685710180551
0.00247945683077
0.030983466655
-0.00365215213969
0.00669109309092
-0.0109424283728
0.0440559908748
-0.00519085163251
0.0157951004803
0.0105581870303
0.00115439447109
0.0213017240167
-0.00426726136357
0.00782824493945
0.00111025059596
0.0525838285685
-0.0282090585679
0.0097164446488
0.0245296694338
-0.00214946945198
0.0119963595644
0.00390638038516
0.0233872160316
-0.000173785912921
-0.00569098209962
-0.00235197436996
-7.75586086093e-05
-0.0014494023053
0.032824318856
-0.00019640850951
-0.00188179791439
-0.00550168799236
0.00905408430845
0.00481062196195
-0.00329969869927
0.0115403747186
0.00136716896668
0.0130017846823
0.0172895956784
-0.00390346092172
-0.00206219335087
-0.00728317536414
-0.0088742794469
0.00312977493741
0.0199563801289
-0.00435294304043
0.00297429109924
-0.00187680404633
0.00187916378491
0.0340938232839
0.00477598048747
0.00467787962407
0.000551755598281
-0.00187478144653
-0.00304323481396
0.0085071772337
0.0106686381623
-0.00318522634916
0.00568874971941
-0.00120002881158
-0.00351219181903
-0.00322039355524
0.00365414354019
0.00463628256693
0.00318747316487
0.00162283307873
0.00524378800765
0.00296833133325
-0.00519229331985
-0.00405690772459
-0.00683885673061
0.000316463061608
-0.00597036257386
0.00486981263384
-0.00821375008672
-0.000386464525945
-0.00703995861113
0.00490272277966
-0.00383612001315
0.000472266110592
-0.00394112383947
-0.00350894918665
-0.00313482410274
0.000877953891177
-0.00793187785894
0.00642899656668
-0.00469829281792
-0.00337846460752
0.0651187673211
0.00669893156737
-0.000518211978488
0.0102449283004
-0.00450722454116
-0.00539330160245
0.000867836002726
0.0135395284742
-0.00602037040517
0.00157945638057
0.000489698897582
0.0094008333981
-0.00594282150269
0.00414085248485
-0.00482403533533
-0.0046348311007
-0.0053887986578
-0.00351085490547
-0.00606282288209
0.0116883302107
0.0029182897415
0.00507616437972
0.00787977594882
-0.0016378366854
0.00595785491168
-0.00158703699708
-0.00107456045225
0.00787449814379
0.00636352691799
-0.00568155804649
-0.00099248229526
-0.00333242071792
-0.0048881242983
0.00946413166821
-0.00315057300031
-0.00638385117054
0.00310366321355
0.0124146221206
0.0032917407807
-0.00198028259911
-0.00802084710449
0.00583025906235
0.0175862275064
0.0127986064181
-0.00493891816586
0.00665797758847
0.0114143239334
-0.00574573548511
-0.00158191018272
-0.000361395126674
-0.00507479626685
0.00285556889139
-0.00354782026261
-0.00219531962648
0.00529657397419
0.0146329011768
-0.0130314780399
0.0125693222508
0.000479494425235
-0.00432231184095
-0.00521374447271
0.000975861097686
0.00466136587784
-0.00604297686368
-0.00634457776323
-0.00542123941705
-0.00623662909493
0.000508489669301
0.000183711919817
-0.00593766663224
-0.00184772151988
-0.00944707263261
-0.0034645574633
-0.00555762415752
0.00743071036413
-0.00242061307654
-0.000888478243724
-0.00211711390875
-0.00204358017072
-0.00370645150542
0.0110334223136
0.000285073067062
0.000836609629914
-0.00380559987389
0.00165831565391
0.00553863914683
-0.00137062789872
-0.00382071896456
-0.00256707542576
0.00786467269063
0.022699886933
0.0199238900095
0.0124604059383
0.00330840214156
-0.000885849294718
-0.00138074427377
0.0200293585658
-0.00325913517736
-0.013145070523
0.0143665568903
0.0060926694423
0.000399943062803
-0.00472027342767
0.0116947004572
-0.0120801134035
0.00756862061098
0.00216828472912
-0.00550605729222
0.00511319516227
-0.00965730194002
0.00097249657847
0.012794168666
0.0067434492521
-0.00695858104154
0.00442759133875
-0.0125329224393
0.00668404018506
0.0196438990533
0.00475998222828
0.0116201378405
-0.00518899876624
0.0038699186407
0.000469185644761
-0.00285556749441
0.00710593350232
-0.00185345544014
-0.00806076545268
0.00596904940903
0.091620862484
-0.00578955328092
0.00982948206365
0.0277957692742
0.00569214904681
0.0038966271095
0.00461859535426
-0.00692048948258
0.0085491547361
0.0132621349767
-0.00188425707165
0.00834244582802
-0.00382323609665
-0.0139885777608
0.00629558134824
0.00533282710239
-0.00627212692052
0.00882097799331
-0.00518315006047
-0.0119838342071
0.0131625887007
0.00160940480419
0.000840259715915
-0.00355622591451
-7.2520174399e-07
0.00218034698628
-0.0084780883044
0.0137330181897
0.0122130997479
0.000311068433803
0.0119275711477
-0.0157738365233
-0.00664213765413
0.000727191509213
0.0061628841795
0.00361228152178
0.0134542677552
0.0273094382137
0.00146270019468
0.000973767077085
0.00769294751808
0.0145795838907
0.00977352447808
0.0274078398943
-0.0135047482327
0.0225307159126
-0.0110710402951
0.00729809748009
-0.00664410553873
0.000983147299848
0.000958751363214
-0.00426713656634
0.00898200646043
4.71818202641e-06
0.0140284793451
-0.0101303663105
0.00773533433676
0.0145205073059
-0.00940766558051
0.00501833111048
-0.0202708877623
0.0156082566828
-0.00346540892497
0.000822992064059
0.00728024635464
0.00445469468832
0.00106118712574
0.0127938976511
-0.0240488331765
0.00328566064127
0.00946011021733
0.00697621749714
-0.0050979075022
-0.00609379587695
0.0169587042183
-0.00943369232118
0.00573892425746
-0.013649109751
-0.00899710971862
0.00681683281437
0.0192807074636
0.0107944598421
0.0124436253682
0.00188835035078
-0.00358406058513
0.0186864063144
0.00606314791366
0.00448641879484
0.00464699976146
-0.00660913717002
-0.0624937005341
-0.0541087985039
-0.046488519758
-0.0326414145529
-0.0254883021116
-0.0152336200699
-0.0386398136616
-0.019648315385
-0.0204333551228
-0.0581274554133
-0.0405920930207
-0.0233654696494
-0.0223270617425
-0.0377517752349
-0.0149239245802
-0.08901296556
-0.00465387571603
-0.0212778542191
-0.0315924175084
-0.0132855661213
-0.0159005019814
-0.0744869038463
-0.0282843392342
-0.0221324004233
-0.0196300428361
-0.0170843210071
-0.0215805955231
-0.0539947673678
-0.0340962409973
-0.0832043066621
-0.0150063764304
-0.0250521413982
0.0143358325586
-0.0313663743436
-0.0215798038989
-0.0238504949957
-0.0105037521571
-0.0322401113808
0.0175715237856
-0.017050717026
-0.0811314508319
-0.0529273487628
-0.0349969491363
-0.0229429136962
-0.0402222536504
-0.00503604393452
-0.0559165850282
-0.0761288180947
-0.0307326279581
-0.0251177698374
-0.0131170451641
-0.0157496016473
-0.0360232889652
-0.0334508270025
-0.014002497308
-0.0516890101135
-0.014955567196
-0.0117821861058
-0.0881960168481
-0.0287247523665
-0.0254754163325
-0.0246201641858
-0.025394288823
-0.0351466089487
-0.0245204977691
-0.0621579252183
-0.0657889395952
-0.0182235855609
-0.0475447736681
-0.0101835243404
-0.0129877114668
-0.0153162004426
-0.0661343485117
-0.0220460202545
-0.0888462290168
-0.0470582954586
-0.0313515104353
-0.0297853760421
-0.031327996403
-0.0796914100647
-0.000767733843531
-0.0422206707299
-0.0103710712865
-0.0577765963972
-0.0102288238704
-0.0514762364328
-0.0220850557089
-0.0373546518385
-0.0233480520546
-0.0275885183364
-0.0573705807328
-0.0378809571266
-0.0809524431825
-0.00623285258189
-0.0674254149199
-0.0219680592418
-0.0180884376168
-0.0302501246333
-0.00964138004929
-0.0616428479552
-0.0254529025406
-0.0176462680101
-0.0466982387006
-0.0227843318135
-0.0180177539587
-0.0689401254058
-0.0139850517735
-0.0241887066513
-0.0600159280002
-0.0227396730334
-0.0156357791275
-0.013195306994
-0.0451695472002
-0.0121150109917
-0.0437044538558
-0.0100801074877
-0.0245657917112
-0.0382886119187
-0.0401942245662
-0.0845411047339
-0.0860508158803
-0.0230072680861
-0.0260899793357
-0.0458463132381
-0.0415378846228
-0.0285604149103
-0.0373126752675
-0.012718657963
0.0159480124712
0.0133710233495
0.00813444890082
-0.000551633012947
-0.00266292062588
0.00100961979479
0.0153915248811
-0.00353238522075
-0.00320109166205
0.0081730671227
0.00218736124225
-0.00265245931223
-0.00168912601657
0.00709219742566
-0.0100493794307
0.00351088121533
-0.0046361470595
-0.00415670359507
0.00101859425195
-0.0093861380592
-0.00161798635963
0.0108690196648
0.00283240689896
-0.00146282534115
0.00242669763975
-0.00948047451675
0.00378183135763
0.0140911685303
0.00232998724096
0.00751448143274
-0.0077459719032
0.00211533764377
-0.0066863456741
-0.00229913927615
0.00371858966537
0.000196517983568
-0.00901881232858
0.0017519723624
0.0927694141865
-0.00171434937511
0.00583431031555
0.0214846208692
0.00269346055575
-0.000185859797057
0.00292822788469
0.000943547871429
0.00723025249317
0.0118279494345
-0.000823450100143
0.00805620010942
-0.00509638944641
-0.00787943974137
0.00323161389679
0.00242678099312
-0.00519586075097
0.00503725279123
-0.00585482316092
-0.00315849389881
0.0127772223204
0.00184711068869
0.00340173509903
-0.00562931923196
-0.000309926515911
-0.00126935017761
-0.00871197506785
0.0143887763843
0.0136466119438
-0.00267213163897
0.0076116072014
-0.0138913057745
-0.00772014120594
0.0038687759079
0.00152476655785
-0.000134359506774
0.00995330326259
0.0217502303421
0.000394505041186
-0.00122236821335
0.00455936929211
0.0156674887985
0.0130902165547
0.0221777167171
-0.0119871506467
0.0160288866609
-0.00275263562799
0.00569619657472
-0.00658926647156
-0.000907728797756
-0.00156600598712
-0.00355454813689
0.00643992749974
-0.0017680095043
0.014125874266
0.00217143911868
0.00129736552481
0.013721046038
-0.00762890046462
0.000241505607846
-0.0162875335664
0.0168964993209
-0.000774620275479
-0.00114073674195
0.00483700074255
0.00108799990267
-0.00132199749351
0.0098463986069
-0.0152967823669
-2.67281247943e-05
0.00923210848123
0.00324156344868
-0.00678015640005
-0.00657653436065
0.0131228035316
-0.00829564128071
0.00112303148489
-0.0117616057396
-0.00934118684381
0.00292633264326
0.0155068011954
0.00616836594418
0.00946588069201
-0.00284613273107
-0.00332447350956
0.0126514574513
0.000938941608183
-1.47294449562e-05
-0.000199212910957
-0.00140346190892
-0.00654109194875
-0.00647606374696
-6.54777759337e-05
0.00367530621588
0.00720730843022
0.0229476988316
-0.000792182050645
0.00608542887494
0.0376611724496
-0.00392709532753
-0.000465569260996
0.00605435296893
0.0189094860107
0.00404640892521
0.019536299631
-0.00584085425362
-0.0464936420321
0.0175578407943
-0.0007111292216
0.0130676897243
0.00495919631794
0.00229169800878
-0.000605325156357
0.035325769335
0.00260244705714
0.0198234859854
0.00135120213963
-0.00689436728135
-0.000397516210796
-0.00528277922422
0.0103754261509
0.00142521248199
-0.0635277852416
0.0112332412973
0.0012648627162
0.0111345937476
0.0112538235262
0.000455797882751
0.0822328031063
0.0344032011926
-0.00606318050995
-0.00399321876466
-0.000810665893368
0.00236422615126
0.00620845193043
0.0342860296369
-0.000108158761577
0.00401310715824
0.00986038893461
0.0101727517322
0.00749468710274
0.0323423929513
0.000178535614396
-0.000326955370838
0.00785290822387
-0.000489711994305
0.00752132292837
0.0340902172029
0.00327853765339
0.0108357137069
0.0114045552909
0.00908744242042
0.0123603595421
0.00418221019208
0.00953515432775
0.00720248976722
0.00688101956621
0.00397490523756
0.000649681489449
0.0154461730272
0.00832522008568
0.0195090174675
-0.0158475860953
0.0019307207549
0.00065882364288
0.000860121275764
0.00926494784653
0.00636737747118
-0.00117471558042
0.00730473781005
0.0259378757328
-0.00104270910379
0.00914953369647
-0.00565793691203
0.0337905660272
-0.00267062918283
0.0107088983059
0.00783870369196
0.00429716147482
0.0232435259968
-0.000115154361993
0.00514037255198
0.00648548081517
0.0449569188058
-0.0183691028506
0.00858707167208
0.0190195906907
-9.17708075576e-06
0.0132926600054
0.00976340938359
0.0166112631559
0.00414539733902
-0.00107672181912
0.00121186731849
0.00380250904709
0.00341856456362
0.0316748581827
0.00141624792013
0.000849375268444
0.00146178121213
0.00991777330637
0.00768788764253
-0.00265474407934
0.0129107357934
0.00259874481708
0.0134604452178
0.0112105160952
-0.00102376320865
0.00118997739628
-0.00350130884908
-0.00391357159242
0.00475120777264
0.0153528032824
-0.00183972297236
0.00254434999079
0.0012184655061
0.000652045477182
0.026083253324
0.00451016193256
0.00019522914954
0.00755085470155
0.00722603313625
0.00870238244534
0.0089307660237
-0.00427673337981
0.00892274733633
0.0212194770575
0.00744825555012
0.00629048328847
0.00904517900199
0.00663366448134
0.00428190967068
-0.00316915195435
-0.00611861981452
-0.08707934618
0.00390951475129
0.0120908105746
0.00677613774315
0.0201211310923
0.0182078685611
0.0184528995305
0.017554173246
0.0197429694235
0.00850868783891
0.0203053429723
0.0017419422511
0.0153015246615
0.0045771333389
0.0082636475563
0.013573685661
-0.0949083119631
0.00265265582129
0.0236310474575
-0.00468064472079
0.0120139280334
0.0122621916234
0.106920182705
0.0155119756237
-0.000758228765335
-0.000944378727581
0.0125754484907
0.0133727379143
0.00911123584956
0.0148942731321
0.0205563157797
0.0239041671157
0.000838443927933
0.00465079164132
0.0172912459821
0.00958906300366
0.0139895873144
0.0141593981534
0.0137426415458
0.0140324840322
0.00993389543146
0.0117897661403
0.0196488071233
-0.000498543959111
-0.000216601751163
0.00646375631914
0.000661808415316
0.00642706174403
-0.00616502575576
0.0274552069604
0.0287384688854
0.0155436666682
0.00662327418104
0.000108358348371
0.00936375092715
0.00646552676335
-0.0178312286735
0.0150083582848
0.0135990986601
-0.00199284078553
-0.000665761588607
0.00578208500519
0.0212555956095
0.029191698879
0.0157726984471
-0.00629490381107
0.00220184540376
0.00161433441099
0.0111661143601
0.0170718152076
0.0010794561822
0.00674563786015
0.0111632114276
0.0134933991358
0.014548192732
0.000898081343621
0.0268465895206
0.0216113738716
-0.0093322834
0.00842830725014
0.00297739380039
0.0110287619755
0.000917161407415
0.039960898459
0.00494111422449
0.015592715703
0.017491415143
0.0151075962931
0.0159241519868
0.0194711238146
0.0128645021468
0.0150747653097
0.017997873947
0.0220231935382
0.00708964420483
0.0115488162264
-0.000231951766182
0.00695937778801
0.00782012753189
0.00357481255196
-0.00302965031005
0.0108516681939
0.00454117776826
0.00177418603562
0.0087156528607
0.00940421130508
0.00213868543506
0.00133478897624
0.00529253855348
0.0104108611122
0.00335399038158
0.00731626385823
0.00655965087935
0.00125888129696
0.00535030011088
0.0024801522959
0.00156775675714
0.00368018564768
-0.00243566767313
0.00253922306001
0.0172821171582
0.00699495524168
0.00399211933836
0.00243969354779
0.00270730885677
0.00186285283417
-0.00624686246738
-0.00558355776593
-0.0711738392711
1.56792066264e-05
0.00635249260813
0.00100033544004
0.010356258601
0.0160508528352
0.00979144126177
0.011730694212
0.0104732932523
0.00371032510884
0.0121521577239
0.00223576999269
0.00999306701124
0.00377450627275
0.00151072454173
0.00659384578466
-0.0761787891388
-0.000363781437045
0.0131029840559
-0.00711924349889
0.00629679299891
0.00648505752906
0.116143375635
0.0104626249522
-5.90000418015e-05
0.00273914402351
0.0070344498381
0.00653691217303
0.00664068711922
0.00961413607001
0.0152733903378
0.0220377985388
-0.00178318377584
0.00328288692981
0.0093738399446
0.0052836430259
0.00851256027818
0.00845524482429
0.00590643379837
0.00870800483972
0.00264730257913
0.00744250323623
0.0177268441767
-0.00228409981355
-0.00143065385055
0.00239250273444
-0.00150970055256
0.00309128989466
-0.00653339037672
0.0259111505002
0.02670202218
0.00783230643719
0.00476853223518
-0.00208503403701
0.00299154338427
0.00402732519433
-0.0132028097287
0.00763331679627
0.0121730538085
0.00267465529032
-0.00179245439358
0.00261620432138
0.0121214520186
0.0274076703936
0.0112731773406
-0.00295663508587
-0.000219068053411
0.00427112868056
0.00693426607177
0.0124822333455
-0.00267584831454
0.00335430284031
0.00481632631272
0.00869671348482
0.011175098829
-0.000971051340457
0.0239665340632
0.0171575378627
-0.00751655269414
0.00486147915944
-0.00223709736019
0.00588840339333
-0.00329666025937
0.03444821015
-0.000181890602107
0.00885219685733
0.0103815551847
0.00910141691566
0.00821103621274
0.0173220355064
0.00722194975242
0.0079728923738
0.015091765672
0.0114903114736
0.00259666191414
0.00469042407349
0.000139814073918
0.00200375611894
0.0037868025247
0.000635022704955
-0.00628731260076
0.00552923325449
0.0050665163435
0.00248458352871
0.0106040537357
0.0033053655643
-0.00149451429024
0.00175966951065
0.00129902444314
0.00600838288665
0.00100331055
0.00320639950223
0.0102956667542
0.00519746309146
0.00673534953967
0.000946107204072
-0.000222455622861
0.00147184473462
0.00239522452466
-0.00056227465393
0.00869578961283
0.00829268898815
0.00349231576547
0.000483901822008
-0.00033958745189
0.00332643766887
-0.00852062925696
-0.0027920701541
-0.051303755492
-0.0015669032
0.00512501597404
-0.00360844284296
0.00540581578389
0.0154472915456
0.00691777095199
0.00600032694638
0.00637577427551
-0.00160143256653
0.00709146074951
0.0061261896044
0.00541007425636
0.00673408620059
-0.00268697924912
0.00352536584251
-0.0539244227111
-0.00275716697797
0.00865617394447
-0.00719818659127
-0.000344570027664
0.00517179584131
0.108937084675
0.00458840187639
0.00154282920994
0.00833518523723
0.00571471825242
0.00298530864529
0.00307109695859
0.00513439718634
0.0128932138905
0.018215065822
-0.00287907174788
0.00259240111336
0.00237518991344
-6.11635987298e-05
0.00560920499265
0.00476549658924
0.00061918766005
0.00845816545188
-0.00101076858118
0.00346088013612
0.0161087997258
-0.00239819823764
-0.00297336210497
-0.00180069450289
-0.00243764044717
0.000417806208134
-0.00881023705006
0.0213374700397
0.0226823166013
0.00318491784856
0.00455335620791
-0.00663089519367
-0.0026830767747
0.00162073038518
-0.00651409896091
0.00396656431258
0.01306136325
0.00717521784827
-0.00290194456466
0.000707015104126
0.007881491445
0.0235192924738
0.0112716825679
0.0058680693619
-0.00625545298681
0.00675748987123
0.00244153826497
0.00959823653102
-0.0032854648307
0.00172589858994
0.00142421596684
0.00273339427076
0.00943381153047
-0.000457240559626
0.0209205728024
0.00931098125875
-0.00199891929515
0.00600713910535
-0.00402982207015
0.00471361586824
-0.00902581680566
0.0283815991133
-0.00147160433698
0.00364364869893
0.0092361913994
0.00434760516509
0.00416977889836
0.015159172006
-0.00253975018859
0.00345054012723
0.0139014003798
0.00919875316322
-0.00251914025284
-0.000310590519803
0.00325876357965
-0.00357954530045
0.00294269155711
-0.00468333251774
-0.00761187728494
0.00476927822456
0.00800472404808
0.00559185445309
0.011061697267
0.000992994988337
-0.00182201282587
0.00445567118004
0.00307539384812
0.0047649606131
0.00145985174458
-0.000674668350257
0.0102206226438
0.00565589126199
0.00556795671582
0.000399441982154
-0.00102319626603
-0.000429852429079
0.00165435031522
-0.0012409046758
0.00463538896292
0.00770034641027
0.00245761778206
-0.00149907113519
-0.00409673666582
0.00150232203305
-0.0120760314167
-0.00427652383223
-0.0461499132216
-0.00420411350206
0.00399348093197
-0.004668247886
0.00535809760913
0.014178016223
0.00651435460895
0.00188787048683
0.00636279629543
-0.00298078707419
0.00606537004933
0.00601241458207
0.00533259753138
0.0055214818567
-0.00293663027696
0.00347866816446
-0.0480365157127
-0.0039780526422
0.00822806172073
-0.00899168755859
-0.00152361451183
0.00471196323633
0.105363786221
0.000973407819401
0.00180481793359
0.00900431815535
0.00571686355397
0.00229958980344
0.00324810692109
0.000598220329266
0.0125497020781
0.017359836027
-0.00606098445132
0.00129724864382
0.00256061786786
-0.00420607859269
0.00492859305814
0.00505206547678
0.000136179907713
0.0078870235011
-0.000521324924193
0.000883628439624
0.0164280701429
-0.00508705340326
-0.0051130685024
-0.00230688648298
-0.00426953379065
0.000466528639663
-0.0110298311338
0.0202616062015
0.0207046978176
0.00324600120075
0.00532023515552
-0.00831915531307
-0.00108959095087
-0.00173990870826
-0.00661788601428
0.00402430910617
0.0123542658985
0.0083923060447
-0.00520544080064
-0.000311272597173
0.00803175009787
0.0218935571611
0.00711813662201
0.00655932305381
-0.00519306678325
0.00750846834853
0.000350480870111
0.00889844633639
-0.00537688704208
0.000169380480656
0.000170716302819
0.00226097088307
0.00879390351474
-0.00399346835911
0.0201562419534
0.00468682218343
-0.000523188733496
0.00546164577827
-0.00727682886645
0.00329891475849
-0.010336060077
0.0266472101212
-0.00219161738642
0.00289686326869
0.00841640029103
0.00404576770961
0.00173294811975
0.014908018522
-0.00615856517106
0.00325608323328
0.0117475418374
0.00772990658879
-0.0026067851577
0.000101374731457
0.00233989604749
-0.00360111659393
0.00158701138571
-0.00620198249817
-0.00919729657471
0.00469075329602
0.0071683973074
0.00501383841038
0.009577001445
-0.000852835015394
-0.00520972395316
0.00415730290115
0.000716889277101
0.00291345594451
-0.00090496026678
-0.00464640185237
0.00501584587619
0.0012318250956
0.00309536396526
0.000808511918876
0.000306297384668
0.00616843020543
0.000714122666977
0.000178329602932
0.0144302193075
0.00308547937311
0.00182150199544
0.000593105854932
0.0046391794458
0.00299167376943
-0.00232586194761
-0.0021177905146
-0.042259119451
0.00245470460504
0.00242804992013
0.0012552671833
0.00210882932879
0.0108897257596
0.00261650816537
0.010771443136
0.00222456548363
0.0010982361855
0.00247594853863
0.00259683351032
0.00332667934708
0.00336106331088
0.0002570769866
0.00129908707459
-0.0498463101685
0.0010610872414
0.00329171493649
-0.00243961601518
0.000481411843793
0.00242190505378
0.0937393158674
0.0115831941366
-0.000530319171958
0.00505629740655
0.0023120616097
0.000693900918122
0.00274580297992
0.013100492768
0.00882945489138
0.0151343503967
-0.00032666628249
0.00483597861603
0.00150889414363
0.00721588311717
0.00369676179253
0.00344483763911
0.0011537495302
0.00463695963845
-0.000704315432813
0.011481535621
0.0139138372615
0.00146702246275
0.00107941310853
-0.000431749067502
0.00120793865062
5.34284263267e-05
-0.00417210208252
0.0191018749028
0.0189802069217
0.00103328400292
0.00234890403226
-0.00219732197002
-8.02240974735e-05
0.00663200486451
-0.00866311509162
0.00125880225096
0.0119350478053
0.00459787389264
-0.00100293348078
0.00077249557944
0.00325413770042
0.0202593654394
0.0146167548373
0.0019554561004
-0.00333543214947
0.00351562420838
0.0111928302795
0.00536524225026
-0.00163528462872
0.00252490211278
-0.000577121681999
0.00539423013106
0.00672984076664
-0.0014261129545
0.0194126591086
0.0181127674878
-0.00867941230536
0.00669104093686
-0.000312434451189
0.00132477201987
-0.00442579947412
0.022550823167
0.00402692891657
0.00175503245555
0.00404808251187
0.00148217880633
0.00120366469491
0.0132118146867
0.00475208507851
0.00164158723783
0.00990454573184
0.00242733908817
-0.000385561899748
0.00112398643978
0.00200767652132
-0.000763264542911
0.00118164450396
-0.00107632146683
-0.00318960659206
0.00227234885097
0.00561498198658
0.00325831305236
0.00758866779506
-0.000276241014944
0.00186642911285
0.00233639869839
0.000827308627777
0.00117064954247
-0.000475756591186
0.00585626205429
0.0186717901379
0.0170409772545
0.00805535539985
0.00226121908054
-4.81983952341e-05
-0.00305733899586
0.0171572044492
-0.00124848866835
-0.0105788828805
0.0107480604202
0.00516034569591
0.00172349368222
-0.00490747857839
0.00797476712614
-0.00942075066268
0.0109672024846
0.0188602376729
-0.00448002852499
0.00621837982908
-0.00555416429415
0.00380675238557
0.0129522979259
0.00789635349065
-0.00648881215602
0.00844574905932
-0.008898970671
0.0083682667464
0.016470130533
0.0077467947267
0.0130568398163
-0.00369734037668
0.00534113077447
0.021033860743
-0.00318104284815
0.0096731511876
-0.00163043045904
-0.00502851558849
0.0062154289335
0.0871649160981
-0.00651033176109
0.0113139376044
0.0251365751028
0.00652305409312
0.00525325303897
0.00284353224561
-0.00845792703331
0.0109987743199
0.013196718879
-0.00189715414308
0.00576353119686
0.00142746604979
-0.0116012878716
0.00680271163583
0.00654948689044
-0.00243758433498
0.00903155934066
-0.0027502567973
-0.0128848478198
0.0160532146692
0.000953800510615
0.00034916299046
-0.00458331638947
-0.000661556841806
0.00107262795791
-0.00683766417205
0.0136478329077
0.0131046343595
0.00457797991112
0.00761063070968
-0.0132575370371
-0.00523811625317
-0.000484914460685
0.0100058838725
0.00519883073866
0.0142693575472
0.0248736925423
-7.66224038671e-05
0.00054578052368
0.0104236053303
0.0170672405511
0.0058963787742
0.0244324691594
-0.00932858511806
0.0195953603834
-0.0101622212678
0.00929848477244
-0.00543432123959
-0.00208511971869
0.00210815691389
-0.005645820871
0.00983489770442
0.000423206947744
0.0153819220141
-0.0116042038426
0.00933276396245
0.010214488022
-0.00771011039615
0.00542662572116
-0.014059397392
0.0174209102988
-0.00384855270386
0.00351571571082
0.00900799874216
0.00666034361348
0.00423744320869
0.0112738003954
-0.0180771518499
0.00539378402755
0.0112200817093
0.0092647569254
-0.00361022306606
-0.00285699078813
0.013963569887
-0.00655790511519
0.0029099828098
-0.00918787717819
-0.0070173884742
0.00672166096047
0.0160125251859
0.0117217246443
0.0146502358839
0.000965630635619
-0.00449385587126
0.0159575119615
0.00338998879306
0.00536042079329
0.00234131515026
-0.00647864025086
0.0211671534926
0.0119864819571
0.0136151229963
0.0120530445129
0.00960971601307
-0.00544709851965
-0.00129914691206
0.0108521049842
0.0068755755201
0.0188950672746
0.01493104361
0.012004699558
-0.00572037091479
0.00558316707611
-0.0143093522638
0.00860383082181
-0.0467064492404
-0.00457785325125
0.0213579945266
0.00221543456428
0.0268400125206
0.0291464906186
0.0281577073038
0.00350517057814
0.0296788122505
0.00136701425072
0.02958974801
0.0128231570125
0.022817146033
0.0236021224409
0.00661636795849
0.0213378071785
-0.0394402518868
-0.00374515424483
0.0335588380694
-0.0142790051177
0.012338289991
0.0200580004603
0.116882845759
0.00253030261956
0.014636836946
0.0187666360289
0.0227303057909
0.0198817644268
0.00843699276447
-0.0100611792877
0.028581276536
0.0302870795131
-0.0040750359185
-0.000536720326636
0.0219759643078
-0.00711235264316
0.0232956018299
0.023563073948
0.0154938343912
0.0240405518562
0.011916113086
-0.0140070756897
0.031837657094
-0.00781477801502
-0.00853481516242
0.00476665515453
-0.00697885639966
0.0100697455928
-0.00997735839337
0.0266048684716
0.0273458678275
0.023744314909
0.0134504241869
-0.00808608066291
0.00803945213556
-0.00537516595796
0.00707945134491
0.0229373630136
0.0266798399389
0.0154649624601
-0.00492856837809
0.0103930979967
0.0305073689669
0.031844586134
0.00113268499263
0.0110747953877
0.00288560567424
0.0169515945017
-0.0143796568736
0.0284199155867
-0.00348157202825
0.00292798224837
0.0158939082175
0.00548015907407
0.0239539239556
0.00166774739046
0.0295131467283
-0.0102765606716
0.0197482965887
0.00308116548695
-0.00548310484737
0.0199740603566
-0.00226363027468
0.0361329130828
-0.00416667340323
0.0223815459758
0.027312790975
0.0244921389967
0.0221637785435
0.0274888947606
-0.00152921292465
0.0209655594081
0.0268148593605
0.0319849997759
0.0075384140946
0.0122073786333
0.00518719479442
0.00313307275064
0.0100955553353
-2.34007002291e-05
-0.00848570466042
0.0199603680521
0.00940691772848
0.0203393157572
0.0277075283229
0.01400237903
-0.0033079253044
0.00950408820063
0.0074432506226
0.0194670502096
0.00923451036215
-0.00797515455633
0.0098167238757
0.0149194188416
0.0204154718667
-0.00233344803564
0.00235342863016
0.0407005175948
0.0470709428191
0.00168672495056
0.0525269508362
-0.00213971850462
-0.0111892651767
0.00209798384458
0.0203642770648
0.0239062961191
0.00368043570779
-0.0420354455709
-0.0387211963534
0.0142963109538
-0.00564014539123
0.00815617572516
0.0117273442447
-0.0441928692162
-0.00282317283563
0.0449806004763
0.00374358636327
0.0191670488566
0.00305636413395
0.0152448480949
-0.0077134273015
-0.0370107144117
0.00416121585295
-0.000308810034767
-0.0435497350991
0.00754846585914
0.00599444797263
0.0220267307013
0.00760749727488
-0.00660346075892
0.226971253753
0.0447840951383
-0.0390606075525
0.0410929359496
-0.00580813270062
0.00299238692969
0.013548605144
0.0682034045458
-0.0397852137685
-0.0502259619534
0.00584431178868
0.0461705960333
0.0104375388473
0.0306586716324
-0.00779476389289
-0.00465765129775
0.00947764050215
-0.0193012338132
0.00420764042065
0.0530238188803
-0.0501668266952
0.0196257438511
0.0244725178927
0.00135566713288
0.0204924866557
-0.00237174541689
-0.00174430012703
-0.0456611961126
-0.0569389313459
0.00710914004594
0.0162153299898
0.00930428598076
0.00665361294523
0.0427977368236
-0.0271633714437
0.00305094243959
-0.0460192188621
0.0578299351037
0.011999970302
-0.00184524687938
-0.00234100664966
-0.0581117197871
0.0941916331649
0.0598950199783
0.0110778650269
0.0178782977164
0.0519025623798
-0.0213785301894
-0.00290651340038
0.00784072093666
0.00217198161408
0.023867988959
-0.029273301363
-0.00157032755669
-0.0554048158228
0.0808652788401
-0.030460793525
0.0723048299551
0.00583456456661
-0.00653207022697
0.0106370057911
-0.0636586621404
0.0195380263031
0.00507948035374
-0.0180630348623
0.000213936174987
0.00608400814235
-0.0411892458797
0.0262641049922
0.000395081238821
-0.0391743518412
0.00401136511937
0.0044287359342
0.00795735325664
0.0379871763289
0.0103258062154
0.00281821447425
0.0123736038804
-0.00308078224771
-0.0116980904713
0.0630337744951
-0.042081207037
-0.0426107794046
0.00078444974497
0.0109666250646
0.0416402257979
0.000919738959055
-0.00149804621469
-0.00421899044886
0.0341121964157
0.0111392326653
0.00377180124633
0.00666545890272
0.00288497935981
0.00433515524492
-0.000692608067766
-0.00132688321173
0.00387962604873
0.0132218971848
0.00914486125112
0.00478458590806
0.00441060168669
-0.00227146712132
0.0022428384982
-0.0135889807716
-0.00231049722061
-0.0673287287354
-0.00424592988566
0.0104283345863
0.0011768557597
0.017961781472
0.0210494082421
0.0170651618391
0.00511533860117
0.0180923752487
1.05717263068e-05
0.0190693102777
0.00473566912115
0.0129343811423
0.00917226448655
0.00112099084072
0.0114797707647
-0.0698132440448
-0.00379975209944
0.0215388927609
-0.0113175455481
0.00693027442321
0.0101677272469
0.130064487457
0.00449333200231
0.00396609678864
0.00808500312269
0.0111890053377
0.0105192735791
0.00626842258498
0.00316776637919
0.0212821885943
0.0255694761872
-0.00507454760373
0.00205265730619
0.012958788313
-0.0025091834832
0.0139100011438
0.0123294563964
0.0100474525243
0.0135226752609
0.00634584343061
-0.000548471987713
0.0228585433215
-0.00567329116166
-0.00563189620152
0.000121614968521
-0.005395764485
0.00235739443451
-0.0115663278848
0.0291811991483
0.0294220894575
0.0126440953463
0.00538683729246
-0.00657174410298
0.00333896232769
-8.99701117305e-05
-0.00720926607028
0.0142781091854
0.016884336248
0.00400755833834
-0.00614807382226
0.0023755079601
0.0188558511436
0.0312062464654
0.00956207606941
0.00211167312227
-0.0019785745535
0.00821556895971
-0.00109591486398
0.0163368694484
-0.00533157540485
0.00117739383131
0.00776677438989
0.00335558038205
0.016208158806
-0.00263298046775
0.0277291871607
0.00842114444822
0.000902547850274
0.00586499739438
-0.00766139104962
0.00990499556065
-0.00449512852356
0.0388258807361
-0.00249439757317
0.0148081760854
0.0163627527654
0.0136876972392
0.0141121214256
0.0219496265054
0.00244465679862
0.0114307012409
0.0187806971371
0.0205525308847
0.00250498438254
0.00835358723998
0.00232474692166
0.000787071767263
0.0041688811034
-0.00163192721084
-0.0103965904564
0.00899757444859
0.00818405579776
0.00773224467412
0.0150058316067
0.00415681302547
-0.00496480241418
0.00414692657068
0.0015849233605
0.0092930952087
0.000958933262154
-0.00339588779025
0.0213129632175
0.0156239876524
0.0144827673212
0.00609260005876
0.0046018268913
-0.00423942040652
0.011092488654
0.00289945001714
-0.00455933669582
0.0165779404342
0.0103813642636
0.00488589517772
-0.00426357518882
0.00805407762527
-0.0131096262485
0.00883244816214
-0.0195022877306
-0.00501384865493
0.012134956196
-0.00438593886793
0.0120029244572
0.0193981900811
0.0153936771676
-0.00203683646396
0.0166160147637
-0.00724450917915
0.0163945965469
0.018575027585
0.0135075524449
0.0176663417369
-0.00157661363482
0.0123795429245
-0.0159000214189
-0.00315208174288
0.0197531655431
-0.00721827847883
-0.000313870434184
0.0115558095276
0.103310890496
-0.00263577420264
0.012304360047
0.0251877699047
0.0136454701424
0.0109618287534
0.00580755854025
-0.00940721482038
0.017230745405
0.0194203611463
-0.00188119895756
0.00522890500724
0.00735216960311
-0.0113120498136
0.013666245155
0.0132222352549
0.00309758167714
0.0156910084188
0.00176486826967
-0.012114088051
0.0217861961573
-0.00281454040669
-0.00405072839931
-0.00167357944883
-0.0033416999504
0.00545569183305
-0.00908709596843
0.0195433609188
0.0185346901417
0.0105323251337
0.012482107617
-0.0134310657158
-0.00127033062745
-0.00201914017089
0.00738786067814
0.0128529993817
0.0179283712059
0.0237669702619
-0.000668495951686
0.00424575293437
0.0183703470975
0.0217287689447
0.00638190284371
0.0213763192296
-0.00845648068935
0.0207057520747
-0.0115830898285
0.0175550021231
-0.0051258476451
0.000935799966101
0.00729452911764
-0.000626053835731
0.0159040242434
0.00116859003901
0.0208738390356
-0.0102977231145
0.0161995403469
0.0103053990752
-0.00714959576726
0.0112212589011
-0.0136284772307
0.0246144458652
-0.00464709335938
0.00962514802814
0.0165911000222
0.0133998980746
0.00955015420914
0.0186824686825
-0.0129052400589
0.0111312214285
0.0174293126911
0.017946973443
-0.00039866368752
0.00180763239041
0.012809199281
-0.00427079387009
0.00834886264056
-0.00937379710376
-0.00932267028838
0.0124468058348
0.0166498944163
0.0154552590102
0.0196829885244
0.00605276599526
-0.00389197445475
0.0149884456769
0.00750622246414
0.0113949319348
0.00683155655861
-0.00876892358065
0.0179898422211
0.0136186275631
0.0107338661328
0.00156265927944
-0.00116044550668
0.00101753231138
0.015955619514
-0.00358452345245
-0.00401494186372
0.0107202064246
0.00279755028896
-0.000535806117114
-0.00188498583157
0.00874609686434
-0.0100194094703
0.00275458511896
-0.0122469207272
-0.00310310488567
0.00337224616669
-0.00978757161647
0.0012149636168
0.0104153696448
0.0056640971452
-0.00269633019343
0.00431874766946
-0.00946119613945
0.0058203372173
0.0148070240393
0.0038301856257
0.00871422328055
-0.00633491342887
0.00234344624914
-0.013263322413
-0.00216656085104
0.00615962268785
-0.00160494830925
-0.00752892764285
0.0032793614082
0.0970565527678
-0.000482489384012
0.00648245727643
0.0212530195713
0.00490565458313
0.00208310317248
0.00342788849957
0.000410434498917
0.00828304421157
0.0136604402214
-0.00258339825086
0.00816852599382
-0.00310921366327
-0.00865224283189
0.00437104143202
0.0034569692798
-0.00396482320502
0.00638752477244
-0.00565890548751
-0.00443826755509
0.013498460874
0.00111504248343
0.000729001185391
-0.00423107342795
0.000749731669202
-2.41781763179e-05
-0.00814065989107
0.0145454332232
0.0142588643357
-0.000363354425645
0.00978083256632
-0.0132426936179
-0.00684529310092
0.00326358992606
0.001076825778
0.00256404886022
0.011612098664
0.0220831595361
0.00148004014045
-0.00187944329809
0.00681958254427
0.0158426053822
0.0137121928856
0.0206462927163
-0.0107238618657
0.0178532041609
-0.0027465946041
0.00783503707498
-0.00620736693963
0.000245033035753
0.000356748496415
-0.00205581635237
0.00701449951157
-0.000565928348806
0.0149534111843
0.000763055344578
0.00240146671422
0.0145443286747
-0.00777962710708
0.00264034466818
-0.0169143080711
0.017633471638
-0.00139379699249
0.000164746656083
0.00684436783195
0.00290135480464
0.00163903494831
0.0112409628928
-0.0160692613572
0.0025144610554
0.00964883342385
0.00593703705817
-0.00565681420267
-0.00479757459834
0.0125567466021
-0.0080131450668
0.00324237113819
-0.0114939687774
-0.00888814684004
0.00472963321954
0.0166746973991
0.00691035855561
0.0105721615255
-0.000744825985748
-0.00288616097532
0.0150237195194
0.00450255768374
0.00415041577071
0.00204306771047
-0.00291860802099
0.0132415387779
0.00975779909641
0.0132576189935
0.00627508293837
0.00683283666149
0.00820621103048
0.0066049983725
0.00690923864022
0.0206462815404
0.0128446156159
0.00806117802858
0.00745939090848
0.0034529895056
0.00785392709076
-0.00852931197733
-0.00211102887988
-0.0832673758268
0.00138683512341
0.0129483239725
0.00513788918033
0.021358627826
0.0224540010095
0.0202932022512
0.0106742633507
0.023444743827
0.00498227169737
0.0221350416541
0.0100402459502
0.0157892052084
0.00949628185481
0.00560878450051
0.0142577020451
-0.0888605639338
0.000548982818145
0.0251920931041
-0.00446871202439
0.0127312773839
0.0133635243401
0.151445567608
0.0104122739285
0.0037485815119
0.00929686706513
0.0145267937332
0.0138081246987
0.0111268945038
0.0135234715417
0.0258755497634
0.0286695640534
-0.000736724876333
0.0099065117538
0.018552871421
0.00375472102314
0.0160481669009
0.0157794523984
0.0143335303292
0.0161174852401
0.00980252493173
0.00849869474769
0.0234738215804
0.000284291541902
0.00189238437451
0.00450754771009
-8.43099696795e-05
0.00745171215385
-0.0101596321911
0.0339778997004
0.0359312109649
0.0169992279261
0.0119227124378
-0.00115480518434
0.00819526053965
0.00829567667097
-0.0137275001034
0.0170649383217
0.0178786814213
0.00864855013788
-0.000317769241519
0.0041228691116
0.0232318080962
0.0371369831264
0.0200401376933
0.00438986439258
0.0017795182066
0.0101391421631
0.00841618515551
0.0199492014945
-0.00241659604944
0.00673136813566
0.00957079790533
0.0100806560367
0.0172909665853
0.0018568636151
0.03176009655
0.0176149550825
-0.005142592825
0.015661355108
-0.00330990902148
0.0117917032912
0.000414527021348
0.0461361072958
0.00338861322962
0.0176553223282
0.0191031731665
0.0172847416252
0.0177199672908
0.0245371740311
0.0103534469381
0.0154789304361
0.0225837603211
0.0251166559756
0.0063053034246
0.0114665441215
0.00891202129424
0.00400037551299
0.00850016251206
0.00279690721072
-0.00780742894858
0.00990203488618
0.0144882965833
0.00763610238209
0.015163176693
0.00752362376079
-0.000604774686508
0.0107873687521
0.00611886009574
0.0119681581855
0.00423235492781
0.00443818466738
-0.00253444979899
-0.000967647996731
0.00599667197093
0.00646875193343
0.00913225952536
0.0290163960308
0.00744875939563
0.00943591445684
0.0354159958661
-0.000461515563074
0.00196746713482
0.00785520672798
0.0235173739493
0.00891762506217
0.0189436022192
-0.0061624487862
-0.0579086877406
0.0215350855142
0.0026940095704
0.0140295503661
0.00976087991148
-0.00249112746678
0.00416343286633
0.0363387651742
0.00587593251839
0.0188146661967
0.00671025225893
-0.00212450441904
0.00225109583698
-0.00675267167389
0.0115360142663
0.0042567984201
-0.0775964856148
0.0158862154931
0.00615583220497
0.0164996236563
0.0131001323462
0.00216427119449
0.0830233544111
0.035088237375
-0.00624400703236
-0.000331255636411
0.00173856026959
0.00557866599411
0.01222440321
0.0396548509598
-0.00252236891538
0.0027741510421
0.0128669356927
0.0171958096325
0.011386516504
0.0332082472742
0.00296693178825
0.0026726834476
0.0112921549007
-0.000851528136991
0.00915992818773
0.0375921167433
-0.00095261138631
0.0174274891615
0.0172903239727
0.0115364622325
0.0169931724668
0.00907379668206
0.0112557057291
0.0047352402471
0.00402792962268
0.00936079211533
0.00592133402824
0.0153875900432
0.0103265000507
0.0252187754959
-0.0208826810122
0.00682363566011
-0.001819577883
0.0045930868946
0.0138376075774
0.00770728569478
0.00305726146325
0.00383569230326
0.0354386344552
0.00330509035848
0.00798158813268
-0.00113420153502
0.0365878865123
-0.00077835546108
0.0129100773484
0.013460344635
0.0070484271273
0.023860855028
-0.000788812001701
0.00996918231249
0.00285164616071
0.0466839186847
-0.0241768062115
0.0175900328904
0.0212963297963
0.00233552698046
0.00965898204595
0.00686410069466
0.0210445355624
0.00798211432993
0.000742130738217
0.00531672965735
0.0075790504925
0.000807457487099
0.0267588812858
0.00533637823537
-0.00133303122129
0.00665390212089
0.0107968775555
0.00992389488965
0.00496431766078
0.0130903115496
0.00829235557467
0.0121155194938
0.013086582534
0.000388238346204
0.00853675603867
-0.0070749213919
-0.00772926351056
0.00730648776516
0.0177718233317
0.00435489416122
0.00718129239976
0.00437894742936
0.00382388848811
0.0291454158723
-0.00670624710619
-0.00717542180791
-0.000927202519961
0.00219842768274
0.00574216479436
0.0213766805828
-0.000542836438399
0.00474918168038
0.0392171032727
-0.00523626664653
-0.00272770691663
0.00429414818063
0.0184921994805
0.00296892481856
0.0164264254272
-0.0110197011381
-0.0385533310473
0.0151297468692
-0.00153637374751
0.0127402553335
0.00606101378798
-0.00177814683411
-0.00295360386372
0.0362882725894
-9.82408091659e-05
0.0210241302848
-0.000693480600603
-0.00748487329111
-0.0012852960499
-0.00759229622781
0.00918959174305
-0.00076757511124
-0.0538509301841
0.00999446958303
-0.000200813432457
0.00960361864418
0.00997826550156
-0.00156041956507
0.0931066349149
0.034482832998
-0.0104459840804
-0.00209977687337
-0.0024949698709
0.00136368430685
0.00514652300626
0.0345438793302
-0.00598301365972
-0.000578398990911
0.00871792249382
0.00996223837137
0.00617718789726
0.0318916961551
-0.00236380798742
-0.00143556843977
0.00780978985131
-0.00429672049358
0.00621068570763
0.033020529896
-0.00260070012882
0.00884870905429
0.0108911609277
0.00865980610251
0.0111377807334
0.0040770592168
0.00817626621574
0.00235966895707
0.00193781475537
0.00453751161695
-0.000500661903061
0.0150030944496
0.00749745592475
0.0177911557257
-0.0154203996062
0.00179174158257
-0.00345378671773
0.00310707557946
0.00702068116516
0.00481950677931
-0.00292331119999
0.00173616886605
0.0290183201432
0.00187982257921
0.00919547118247
-0.00471360888332
0.0334661304951
-0.00429762993008
0.0105738444254
0.00721840281039
0.00282806460746
0.0230653192848
-0.00443436484784
0.00438504107296
0.00111811305396
0.0455553755164
-0.0184102747589
0.0120851509273
0.0170256290585
-0.00132923410274
0.0118658393621
0.00191403389908
0.0163750145584
0.00360625772737
-0.00430744281039
-0.000682592217345
0.00238674529828
-0.00133035285398
0.0314648337662
0.000479677895783
-0.00444947229698
-0.00143466109876
0.00701683806255
0.00657283421606
-0.00133873277809
0.0128148132935
0.00201380299404
0.0138395875692
0.00926337949932
-0.00202051410452
0.00359958014451
-0.00898179411888
-0.00773009378463
0.00372741324827
0.0134979393333
0.00222346698865
0.00153457175475
-0.000153423927259
-0.000504905066919
0.0239675212651
0.00266209384426
0.000719784176908
0.00265488773584
0.00224825250916
0.00293442048132
0.0117473686114
-0.00111502571963
0.00258515914902
0.017424127087
0.00378419435583
0.00413085287437
0.00279565923847
0.00879009999335
0.00391339231282
0.00273227808066
0.000762283510994
-0.0531319230795
0.00805095676333
0.00276429229416
0.00290556647815
0.00484676705673
0.0128114940599
0.00480281794444
0.0167136173695
0.00384960137308
0.00438514910638
0.0049604405649
0.00108981924132
0.004224778153
0.00482236500829
0.00351676717401
0.00362640270032
-0.0642636194825
0.00530801480636
0.00532031664625
0.00269599142484
0.00366607354954
0.00423813704401
0.0833525285125
0.0156442206353
0.00180879828986
0.000257367704762
0.00470058340579
0.00329478713684
0.0056231287308
0.0191666055471
0.0110073843971
0.0185373164713
0.00382950506173
0.00669932598248
0.00495613971725
0.0135956909508
0.00480894325301
0.00280556501821
0.00361103448085
0.0055200047791
0.00310400384478
0.0180011484772
0.0156072638929
0.00425033969805
0.00472413329408
0.00345709407702
0.00538496486843
0.003914040979
-0.000795856583863
0.022301370278
0.0236018039286
0.0038350825198
0.00374197307974
0.00150621496141
0.00220614788122
0.00999832805246
-0.0115170767531
0.00309217674658
0.0121639361605
0.000388414802728
0.00329610495828
0.00292740738951
0.0037332335487
0.0237128920853
0.0156171964481
-0.00321970810182
-0.00110316521022
0.00272445334122
0.0176456570625
0.00655849091709
0.00429379753768
0.00557528436184
0.00249104877003
0.0108611108735
0.00844899006188
0.00295930844732
0.0211133286357
0.025124097243
-0.00989350676537
0.00684429053217
0.00511863920838
0.00332526490092
-0.00223066331819
0.0290982853621
0.00853796768934
0.00358719564974
0.00670786900446
0.00411257985979
0.00371645670384
0.0147698260844
0.00846935156733
0.00373134529218
0.0119870295748
0.00434307521209
0.00336724938825
0.00278722750954
-0.000435338937677
0.0031462367624
0.0037799263373
0.000591097748838
0.00104235869367
0.00447988184169
0.00279752537608
0.00357561721466
0.00851192791015
0.00258593843319
0.00533770862967
-0.000591502175666
0.00356650468893
0.00374986487441
0.00212510605343
0.0116201546043
0.014526204206
0.00836365297437
0.00711835874245
0.00366289471276
0.0025290553458
-0.00874576251954
-0.0027911469806
0.00431867130101
0.00295462086797
0.0110433073714
0.00762232905254
0.00521698640659
-0.00656565325335
0.0016266227467
-0.0197639148682
0.00277329143137
-0.0603004172444
-0.00905600376427
0.012151719071
-0.00281980191357
0.0189041178674
0.0241440255195
0.0196077730507
-0.00378833338618
0.0208587758243
-0.00550643634051
0.021778812632
0.00858642347157
0.0147763779387
0.0150742046535
-0.00061229331186
0.0139887472615
-0.056102309376
-0.00733309239149
0.0231252256781
-0.0160914789885
0.00759731885046
0.0121532743797
0.107859835029
-0.00353893777356
0.00768088083714
0.0118177710101
0.01413747482
0.0130694685504
0.00339903100394
-0.0088937394321
0.0225103329867
0.0269677583128
-0.00815028697252
-0.001711985562
0.015196736902
-0.0114752193913
0.015147248283
0.0149320410565
0.00961692351848
0.016850726679
0.00546991545707
-0.0108382729813
0.0267259832472
-0.00966953393072
-0.0103466315195
-0.0001754538971
-0.010200869292
0.00369221461006
-0.0146308522671
0.026922237128
0.0277343597263
0.0142945740372
0.00633483985439
-0.0112347668037
0.00331118190661
-0.00814799033105
-0.00126898719463
0.0146612143144
0.0216424819082
0.00745618436486
-0.00914740376174
0.00279541499913
0.022237373516
0.0317293703556
-0.000237677653786
0.00523429783061
-0.00413292599842
0.0111092058942
-0.0117837274447
0.0202719010413
-0.00827156379819
-0.00242752139457
0.00896304100752
-0.000774173997343
0.0170948915184
-0.00455003138632
0.0300353169441
-0.0046379249543
0.00791741814464
0.00035526236752
-0.0127253420651
0.0112617211416
-0.00761822145432
0.03620570153
-0.00859141349792
0.0156397018582
0.0202106628567
0.0160939600319
0.0152964163572
0.0234562363476
-0.0062363226898
0.013767844066
0.0213137175888
0.0227133203298
0.0014183948515
0.00711533380672
0.00199229177088
-0.00345431361347
0.00339560955763
-0.00505688786507
-0.0149404639378
0.0112077379599
0.00550180766732
0.0138235604391
0.0212730616331
0.00619026785716
-0.00840481650084
0.00432594958693
0.00171309837606
0.0123332012445
0.00157206365839
-0.0108191436157
-0.0619368255138
-0.0653949305415
-0.0593748167157
-0.0234245955944
-0.0209955181926
-0.0495254397392
-0.0881882607937
-0.0158782526851
-0.0303372759372
-0.0435032323003
-0.0246386732906
-0.018419040367
-0.0313385054469
-0.0576085075736
-0.0148044228554
-0.0585515238345
-0.0714245438576
-0.0276586562395
-0.0199329610914
-0.0108167603612
-0.0126410471275
-0.0111405933276
-0.0150524508208
-0.043620057404
-0.0134676527232
-0.0164621174335
-0.0132231358439
-0.0646874755621
-0.0173301305622
-0.0477906018496
-0.0122964503244
-0.0168701317161
-0.0594976991415
-0.0341122895479
-0.0124256480485
-0.0517211407423
-0.010411305353
-0.0185542106628
0.019211910665
-0.0406875945628
-0.0478560253978
-0.0908344835043
-0.0203313492239
-0.0197568312287
-0.0432736948133
-0.0639139264822
0.00251649343409
0.00795049406588
-0.0331838279963
-0.0700396299362
-0.0114566478878
-0.0305075272918
-0.0181498322636
-0.0210319440812
-0.012105201371
-0.0252442602068
-0.0124297812581
-0.0526445098221
-0.0149656282738
-0.0463069826365
-0.0485213138163
-0.017542950809
-0.0464213937521
-0.0253134854138
-0.0256470572203
0.0293584614992
0.0378304198384
-0.0154613582417
-0.0549816191196
-0.0110186040401
-0.0109483161941
-0.0549643449485
-0.0642504394054
-0.0172088611871
-0.0258889254183
-0.10273462534
-0.0411840453744
-0.0221021119505
-0.0162392817438
0.0229580048472
-0.0938444957137
-0.105151891708
-0.0121814347804
-0.0708012804389
-0.0539828836918
-0.0202054157853
-0.0128888236359
-0.0339783616364
-0.0185848977417
-0.0256650261581
-0.0160738490522
-0.0317560434341
0.0145488381386
-0.0685491859913
-0.0590259507298
-0.0910611003637
-0.0125764384866
-0.0201141107827
-0.00899656582624
0.0648372098804
-0.0383852161467
-0.0147981233895
-0.0164029039443
-0.0156958773732
-0.014183556661
-0.00263711484149
-0.0139835486189
-0.0171145610511
-0.00200881902128
-0.013614853844
-0.0131305605173
-0.0120550645515
-0.0827471762896
-0.0106118964031
-0.0358574576676
-0.0115856304765
-0.0199001915753
-0.0227998904884
-0.0990542322397
-0.0452310368419
-0.0330313742161
-0.0199572946876
-0.0273602362722
-0.0857381373644
-0.0360763072968
-0.022345462814
-0.0253655128181
-0.0414226539433
0.00844392273575
0.00445382203907
0.00406157039106
0.000347927620169
0.000203527990379
-0.000939151796047
-0.000482332776301
-0.000137843919219
0.00944391079247
0.00745862582698
0.00293879886158
7.50285325921e-05
-0.00152317527682
0.00241486635059
-0.0119039779529
-0.00348949176259
-0.0574718639255
-0.00298604834825
0.00474120303988
-0.00236703292467
0.00819178391248
0.0170433931053
0.00853359233588
0.0039198640734
0.00895485654473
-0.00259717041627
0.00923301372677
0.00412561511621
0.0070482539013
0.00531773315743
-0.00146090134513
0.00406116386876
-0.0616749785841
-0.00357052846812
0.0104768266901
-0.00860587041825
0.00256076524965
0.0056230193004
0.112416036427
0.00445668073371
0.000965139712207
0.00597407063469
0.0066865189001
0.00431509688497
0.00382343912497
0.00306536629796
0.0151929212734
0.0207157786936
-0.00530396681279
0.00221354118548
0.00598925724626
-0.00202685780823
0.00672703189775
0.00644730823115
0.0038934762124
0.0085763623938
0.000604927772656
0.00158359913621
0.0174454841763
-0.00374184758402
-0.00397649593651
-0.00199059210718
-0.00389670860022
0.000123227117001
-0.0100334845483
0.0233532823622
0.0247820243239
0.00517273461446
0.00497560296208
-0.00633439235389
0.000844795547891
-0.0004065950925
-0.00930690858513
0.00623088423163
0.0119984475896
0.00407933071256
-0.00430504791439
-0.00115953607019
0.0100863846019
0.0244433414191
0.00958710536361
0.0015591661213
-0.00420835940167
0.00611247122288
0.000579486950301
0.0110762557015
-0.00558603834361
0.00160760665312
0.00155255477875
0.000775059685111
0.0107370056212
-0.00196264311671
0.023724803701
0.00822279695421
-0.00367615860887
0.00459071435034
-0.00571594294161
0.00390685256571
-0.00715744774789
0.0325010865927
-0.00234318105504
0.00546253519133
0.00977547653019
0.00637914193794
0.00466392794624
0.0166618917137
-3.36948251061e-05
0.00565662793815
0.0152883762494
0.0108742220327
-7.68639729358e-05
0.00283337780274
0.000699217722286
-0.00203124945983
0.00204457971267
-0.00474550016224
-0.0103022679687
0.00529531249776
0.00515610678121
0.00336269568652
0.0105937961489
0.000205073694815
-0.00247567589395
0.00278382515535
0.00102366460487
0.00463147414848
-0.000751235871576
-0.00125407928135
-0.000382931757485
-0.00127252144739
6.2697166868e-05
0.00240217335522
0.00319403642789
0.0138155175373
-0.00291210249998
0.00459739426151
0.0197080895305
0.000551349134184
0.0021955287084
0.00363635760732
0.0126704778522
0.00292164320126
0.00758726336062
0.00160298123956
-0.0417916439474
0.00970793049783
0.00378549075685
0.00592562928796
0.00625987816602
0.0136476960033
0.00580542441458
0.0195301976055
0.00606011087075
0.00917045492679
0.00639360724017
-0.00262657692656
0.0036480454728
0.00525420112535
0.00660338997841
0.00349996495061
-0.0531485527754
0.0062701376155
0.00513039249927
0.00415629660711
0.00757328886539
0.00266494066454
0.0754594355822
0.0189247783273
0.00211014482193
-0.00265597505495
0.00290848012082
0.00254179700278
0.00501959351823
0.0229469854385
0.0115564148873
0.0183556247503
0.00597000634298
0.00616161478683
0.00573342340067
0.0176927726716
0.00406078575179
0.00368714588694
0.0052089728415
0.00517644826323
0.00463736010715
0.0220533311367
0.0157384909689
0.00500902859494
0.007286101114
0.00572508620098
0.0077193537727
0.00350486300886
0.00200847792439
0.023337226361
0.0231779515743
0.0033674731385
0.000719964387827
0.00494641251862
0.00508941011503
0.0126122441143
-0.00984206609428
0.00456280913204
0.0131017714739
-0.00140185607597
0.003849608358
0.00465015089139
0.00492063630372
0.0240357276052
0.0171196050942
-0.00454697431996
0.00145552225877
-0.000508616038132
0.0218575075269
0.00583126954734
0.00669507635757
0.00534470006824
0.00288202753291
0.0121061913669
0.00796704366803
0.00263283215463
0.0214761346579
0.0281266868114
-0.0109577691182
0.00511844223365
0.0106035871431
0.00373838329688
0.00272101396695
0.0271374005824
0.00914751552045
0.00532030267641
0.00616787839681
0.00494018103927
0.00470617506653
0.0143782170489
0.0128739774227
0.00330651947297
0.012121649459
0.00564062828198
0.00413770833984
0.00330953602679
-0.00284490291961
0.00606608204544
0.0025193579495
0.00471155019477
0.00337190716527
0.00266845966689
-0.000871636730153
0.00443400628865
0.00841905921698
0.0023532230407
0.0077782641165
-0.00148412818089
0.00237173214555
0.00277213193476
0.000950988789555
0.0150591190904
-0.00475419685245
-0.00501468032598
0.00384068419226
0.00816547591239
0.0124388393015
0.0320112966001
0.00145243422594
0.0137979062274
0.0511666052043
-0.00205392250791
0.00182848155964
0.0133435772732
0.0271699950099
0.00821460876614
0.0272222217172
-0.00374278216623
-0.0583143122494
0.0264930780977
0.00689147692174
0.0218917243183
0.0152723481879
-0.00142378383316
0.00729019381106
0.0488139130175
0.00977010745555
0.0304066669196
0.0103599559516
-0.00479854736477
0.00499954912812
-0.005201369524
0.0180714316666
0.00726859737188
-0.0764657109976
0.019009096548
0.0112169953063
0.0185529608279
0.0203782934695
0.00520013505593
0.0561044216156
0.0464763939381
-0.00375751196407
-0.00296374643221
0.00547852087766
0.00890415161848
0.0105954408646
0.046278513968
7.84225048847e-05
0.00143110996578
0.0161996539682
0.0151279168203
0.0178037378937
0.0451421663165
0.00540905399248
0.00653720321134
0.0174787063152
0.00209270138294
0.0160537697375
0.047327388078
-0.00208104331978
0.0171094108373
0.018177356571
0.016654053703
0.0185149870813
0.00944671966136
0.0169815029949
-0.00176385475788
0.00117518508341
0.0128303524107
0.00403231801465
0.0256703421474
0.0174472797662
0.0249782949686
-0.0188218057156
0.0103015406057
-0.00365415331908
0.00172126409598
0.0152300363407
0.0119231073186
0.00454855943099
0.000830335309729
0.0335523672402
0.00110692554154
0.0184229724109
-0.0057571483776
0.0457536429167
0.00114637496881
0.0178036373109
0.0154114812613
0.011062190868
0.0313528068364
-4.66245146526e-05
0.0117215299979
-0.00112797529437
0.0583207532763
-0.0225268267095
0.0127431415021
0.0287108942866
0.00623757997528
0.0237699989229
0.00602134829387
0.0246076118201
0.0124398535118
0.00295437243767
0.00878607481718
0.0122724063694
-0.00075081945397
0.0442917831242
0.00823118072003
6.34532843833e-05
0.0106721865013
0.0157680250704
0.0164378527552
0.000886404362973
0.022317327559
0.00786243099719
0.0224759858102
0.0196430701762
0.0034326070454
0.00459098815918
-0.00521144410595
-0.00731582380831
0.0114167323336
0.0234775040299
0.000425533071393
0.0082735568285
0.00733815692365
0.00676163844764
0.0345255061984
0.0220769476146
0.0164900589734
0.0109899137169
