0.00033518471173
0.000404462887673
0.000606195768341
0.00100493209902
0.000456350273453
-0.000257167092059
6.98555231793e-06
-0.000803895876743
0.00101668736897
0.000370305584511
-0.00111257995013
0.000347378838342
0.00050529075088
0.000480682327179
-0.00046094978461
0.000371109868865
9.94575020741e-05
-0.00070999993477
-0.000122292360174
0.00134807440918
-0.000102363963379
-0.000240672539803
7.81681810622e-05
-0.000456399313407
-0.000167939215316
0.000466598110506
0.00114340055734
-0.000263603840722
0.000271844270173
-0.000226861520787
-0.00029757746961
-0.000163597040228
0.000241481960984
0.00108336634003
-0.000512590981089
0.00058433203958
-0.000341883482179
0.000447689351859
0.000591648102272
-7.67048259149e-05
0.000204510506592
-0.000646077212878
0.000723060686141
0.000191009050468
0.000449651590316
0.00134173070546
0.000866189307999
0.000228818360483
-1.46340162246e-05
-0.000804524635896
-0.000964432547335
1.29098871184e-05
-0.000782750954386
-0.000353177834768
-0.00117080251221
0.000435325549915
0.000328707101289
-0.000410456937971
0.00035540087265
6.08960472164e-05
-0.000122449229821
0.000133814581204
0.000842103734612
-6.55954063404e-05
-0.00106425280683
-0.000793810002506
0.000300716084894
-0.000865750655066
-0.000230113248108
0.000214852145291
-0.000107557934825
8.63825262059e-05
0.000561700551771
-0.000292478100164
0.000437482900452
-0.000321045401506
0.000422398647061
-0.0005350051797
0.000494076346513
-0.000119415053632
-0.00126215070486
-0.000168947823113
0.000119919743156
7.54085558583e-05
-1.92813204194e-05
-0.000136425020173
-2.99171347251e-06
0.000175156324985
0.000298314087559
0.00030631289701
0.000157312431838
-0.0012117534643
-0.000245705625275
-0.00121691543609
2.55793038377e-05
8.31337820273e-05
-0.000313194555929
-1.93779160327e-05
-5.16624204465e-05
-0.000773279112764
-0.000246032199357
-0.00093918479979
-0.000615841301624
-0.000517662905622
0.000750260660425
5.65303416806e-05
-9.60516626947e-05
-8.20507702883e-05
0.00150771939661
-0.000730761210434
-0.000503093237057
-0.000483399489895
0.000409563654102
-0.000367951346561
-0.00122442282736
0.00131533201784
-0.00151288998313
0.000746252888348
0.000590611423831
7.2795082815e-05
0.000738404865842
0.000638101308141
-9.48092274484e-05
0.000348045665305
0.00015009866911
0.000201065820875
-0.000793253188021
0.000442777964054
0.000267676019575
-0.000178076064913
-0.000536443025339
-0.000320062245009
0.000446699588792
-0.00036139797885
0.000410663662478
-0.000820854445919
-0.000830956967548
0.000354365067324
0.000575834594201
-0.000284741428914
-8.3613114839e-05
0.00014618266141
-2.34229810303e-06
2.40641675191e-05
0.000112839974463
4.85739183205e-05
0.000145184094436
0.00117956020404
0.000192974388483
-0.000310116185574
0.000972311070655
0.00089794275118
0.000980589771643
0.000340774189681
0.000402973761084
0.000748654245399
-0.000262370362179
7.94859988673e-06
0.000442784599727
-0.000433099310612
-0.000450641324278
0.00104783568531
-0.00139421212953
3.11217881972e-05
-0.00022150798759
0.000366509135347
-0.000379500328563
-0.000815326289739
1.98456764338e-05
0.0002182150929
0.000577431579586
-0.000510611047503
0.000226819844102
0.000284970999928
0.000686070532538
-0.00104446266778
0.000371998350602
0.00091030204203
-0.000692041765433
0.000346833141521
-0.000724729383364
0.000717572518624
-0.000542331894394
-0.000822887814138
0.000479327136418
-0.000755917979404
0.00040298391832
-0.000172475120053
-0.000720353040379
5.04019117216e-05
0.000249163917033
0.000181364419404
-1.13432452054e-05
0.000904558808543
0.000686848594341
0.000405388214858
0.000144019373693
-7.37844602554e-05
0.000250175013207
-0.00103310216218
0.000558703730348
-0.000396261835704
0.000368190929294
-0.000458433554741
-0.00036300116335
0.000482300034491
-0.000639714766294
-0.000703236088157
0.000817652384285
-0.000168947299244
-0.000753598462325
-0.000137302035
-0.000132445202325
-0.00117074127775
5.22289774381e-05
-0.000436680042185
0.000522133312188
0.000236907959334
0.00027360272361
0.000196506531211
-0.000284970999928
0.000191415616428
0.000619092432316
-0.000979863805696
0.000392715010094
-0.000548066338524
-0.000227696364163
0.00131486530881
0.000282176595647
0.000512015947606
-0.000169756895048
0.000105390085082
0.000559516483918
-0.00015862256987
-0.000107396394014
0.000269100215519
7.61256451369e-05
0.000139589697937
0.000171024206793
0.000564549991395
-0.000443956058007
0.000365187966963
-0.000781482784078
-0.000773682200816
0.000554920290597
0.000159844697919
-0.000254930142546
0.000247703224886
0.000288914394332
0.000610848597717
-5.73320758122e-05
0.000369893183233
0.000397073483327
0.000116689385322
-0.00118669657968
-0.000450540479505
0.000592673604842
0.000462172029074
0.000783996016253
0.000680398603436
-0.000749586208258
-0.000760283495765
0.000427501829108
0.00182874733582
-0.000301543565001
0.000426575541496
0.000138399598654
0.000416990660597
-3.82317921321e-05
-0.00100398180075
-0.000431944819866
-0.000449148705229
8.61247244757e-05
0.00115889194421
0.000453567947261
-0.000334178475896
-0.00060894980561
0.000512427825015
0.000904775806703
-0.00152781500947
0.000415828486439
4.64756922156e-05
-0.000119749893202
-4.23321507697e-05
-0.000330701121129
0.000278566702036
0.000472963409266
0.00024018183467
0.000650628993753
0.00123983866069
0.00010164383275
0.00101070862729
0.000568964052945
0.000127015227918
-0.000291562202619
-4.64238073619e-05
9.24009800656e-05
8.59753345139e-05
-0.000506593612954
0.000329985021381
-0.000924631895032
2.47718471655e-05
0.000341425155057
0.000785925250966
0.000460915674921
-0.000671401794534
0.000631556729786
-0.000292788434308
0.000286045513349
-0.000514890474733
0.000991104985587
-8.55867547216e-05
1.55944962899e-05
-0.00024135048443
-0.000553445832338
0.000559270847589
0.000134011468617
-2.42610476562e-05
-0.000357674522093
0.000737923313864
-0.000203728093766
0.000575482379645
-0.00032710339292
0.000591151008848
0.00049980240874
0.000191693412489
0.00042120096623
0.000272909004707
0.000401706172852
-0.00017928086163
9.34745767154e-05
-0.000718607974704
-0.00070342887193
-0.000203274961677
0.00057648262009
-0.000203666262678
0.000918108504266
-0.000482333445689
0.000644406012725
-0.000221273687202
0.000691033899784
0.000210927304579
0.00109236082062
-0.00034115058952
0.000456287612906
5.09879055244e-06
1.6599538867e-05
-0.000640121405013
0.000461106537841
0.000473583815619
1.15093935165e-05
0.000240766588831
-7.48600941733e-05
0.000318548467476
-0.000240634995862
0.000349672773154
0.000110160865006
0.000260417931713
0.000120655946375
-0.000667546526529
-0.00109775422607
0.000330139097059
-0.00062580947997
-0.000564196379855
-0.000130164655275
0.000191797400475
0.000526552961674
0.000224220639211
-0.000559157808311
-0.000264841830358
-0.000287135131657
3.9446480514e-05
-0.000144591191201
-0.000981394317932
0.000772962579504
0.000415038637584
0.000574784411583
-0.000657668337226
-0.000244376598857
0.00012508740474
-0.000130749991513
-0.00037276110379
0.000595015706494
0.00042260432383
-0.000545561430044
-0.000304002693156
0.00043213434401
0.000431542866863
0.00070141867036
0.00122450583149
-0.000182354880963
-0.000611066643614
-0.000675313232932
0.000296188751236
-0.000786153948866
0.000716691836715
-4.89715021104e-05
-0.000113876143587
-6.50247893645e-05
5.36244915565e-05
-0.000511540216394
0.00023153082293
0.000552925514057
0.000652281160001
-9.78147509159e-05
-5.7373308664e-05
0.000103821002995
0.000359333178494
0.000680403434671
-7.22608383512e-05
0.000985152088106
0.00181177735794
-0.000660832971334
0.000574374455027
0.000227133263252
2.924900582e-05
0.000538042630069
-0.000459953385871
0.000422554963734
0.000135594615131
-0.00110109627713
-0.000238438864471
-0.000207654360565
-8.10855635791e-05
-0.000194668944459
0.000523728260305
0.000943022605497
0.000275120779406
-0.000282456167042
-0.000515972147696
0.000569653871935
0.000739233393688
0.000414305453887
-0.00114722910803
0.000191049461137
0.000543470843695
0.000904742570128
-0.000649092951789
0.000536089355592
-0.00138321495615
-0.00134342780802
0.000299934181385
0.000946855347138
4.63947217213e-05
-0.000952081114519
0.000576088146772
0.0001140276363
0.000262199522695
-0.000958651537076
0.00148173922207
0.000251976249274
0.00037703482667
-9.62605336099e-05
0.00128495076206
0.000532929261681
0.000641568563879
-0.000566217291635
0.000170803512447
0.000277964165434
-0.000360331090633
0.000590935349464
6.20722348685e-05
-6.68737047818e-05
-0.000316734163789
-0.000168975282577
0.000718542607501
0.000447028607596
0.000133918307256
-5.57360617677e-05
0.00110078125726
-8.86916895979e-05
0.00111507356633
0.000887414149474
-0.000125990452943
-0.000232596372371
-0.0003181976208
-0.000590298965108
0.000143752768054
0.00089784321608
0.000557181774639
0.00016689793847
-0.000198299007025
0.00018388000899
-0.00015497620916
-0.000455971545307
-0.000391828682041
-0.000222170099732
-0.000664865307044
8.28604534036e-05
0.00124762521591
0.000140462638228
-0.000236519030295
-0.000837861793116
-0.000523996073753
-0.000432209664723
-0.00101316021755
0.000216268512304
-0.000633393938188
-0.000366797263268
-0.000572888180614
-0.000166970567079
0.00109549425542
-0.000295715639368
0.000595080433413
-0.000565858441405
-0.000121532357298
0.000803284696303
-0.000849101052154
-6.3619321736e-05
-0.000561647524592
-0.000374645693228
0.000201285103685
-0.00251767947339
-0.000871449592523
-9.14077099878e-05
0.000115070768516
0.000167749574757
0.00033002634882
0.000275786733255
0.000290030089673
0.000542725087143
0.00229206052609
0.000371477362933
-0.000298867351376
0.00126332044601
3.59540026693e-05
0.000224479445023
-0.00028774808743
8.40438806335e-05
3.49483634636e-05
0.000354068353772
-0.00014872358588
0.000381666381145
0.00122736894991
-0.000232217396842
-0.00285331113264
0.000768917263485
0.00163914170116
0.000671335787047
0.000602069543675
0.000183699317859
0.00116360920947
0.000311176292598
0.000764061463997
0.000324364547851
0.0036424214486
0.000480362796225
8.35535029182e-05
0.00101725291461
0.000475328939501
0.000764136377256
0.000408635649364
-2.71113785857e-05
-0.000249942822848
-0.00163071381394
0.000183517840924
0.00150672974996
-0.00044630112825
0.000814990315121
0.000910599192139
0.000888067123014
0.00131227262318
0.000699188967701
0.00140271149576
0.00053629768081
0.000418669573264
0.000634929456282
0.000261030945694
-0.000420859636506
0.000412943860283
0.000914996315259
-0.0002121534053
0.00126367702615
-8.20328859845e-05
-0.00102929375134
-0.000187226338312
-0.000498923996929
0.000422144512413
-0.00294250785373
0.000217412452912
0.000269191310508
0.00148611352779
0.000474980450235
-0.000261235283688
0.000943384016864
0.000759962247685
-4.14267306041e-05
-0.000895803619642
0.000177574169356
-5.10677600687e-05
0.000363053462934
0.000395800860133
-0.000448473379947
0.0011017707875
0.000712547276635
0.000736100366339
-0.000117675466754
2.08993587876e-05
-0.000295307603665
0.000486124976305
0.00121133390348
0.00114072428551
0.000495117448736
-4.55873450846e-05
0.000281992222881
0.000218665183638
0.000346083019394
-0.000109440865344
0.000906068366021
0.00060639437288
0.000443902623374
0.00044322872418
0.000625233922619
0.000298572558677
-0.000160343435709
-0.000315160606988
-0.000626161228865
0.00047964398982
0.000214868283365
-0.000319499289617
0.000293769116979
0.000243170565227
0.00159629236441
0.000820593093522
0.000504493771587
-0.000513815670274
0.000500283087604
0.000474175263662
0.000654338975437
0.00055467907805
0.000926275388338
0.00105958199129
0.000759448506869
2.98470458802e-05
0.000166135432664
-9.64066784945e-05
-5.37546657142e-05
0.000355548952939
0.0015198958572
-0.000446352059953
-0.00189450883772
0.000296424521366
0.00188386149239
-0.000328034482663
-0.000334220647346
-3.83189944841e-06
0.00118214206304
0.00225615478121
-0.000830549630336
-0.000142027172842
0.00043458622531
7.69994294387e-05
-0.000372036505723
0.00113840575796
-0.00063089793548
0.000654351606499
-4.15235081164e-05
0.000233244762057
-0.00097966438625
0.000577220343985
-0.000821623776574
0.00147871638183
-0.000449930754257
0.000259762222413
0.000948554137722
-0.00332467467524
0.000752349267714
-0.000401172263082
-0.000738080590963
0.000674550887197
0.00074925768422
0.00059901952045
0.000771951919887
0.000697655661497
0.000257196021266
0.000626325549092
0.000386195373721
-0.00194618897513
-0.000620066130068
-0.000293150224024
0.00111634214409
0.0001670569618
0.000777551729698
0.000428209808888
0.00128800759558
-0.000245307688601
0.000641216174699
0.00161050353199
0.000454904802609
-0.00211516581476
0.000274120771792
0.000172654574271
0.000831012555864
0.000247063697316
0.00072042417014
0.000611891155131
-0.00179145217407
0.000921173719689
-0.00138532172423
2.66573515546e-05
-0.000333033269271
0.000226047384785
-0.000378267694032
0.000267845665803
7.81374474172e-05
0.00060493912315
0.00129500962794
0.000791654689237
-0.000536418985575
0.000880754610989
0.000235244981013
0.000251552090049
0.000585047120694
0.00144646211993
-3.09629685944e-05
-0.000130848231493
-0.000125366030261
0.00108612992335
-0.000292193668429
0.00146584038157
-0.000278939027339
0.000308386428514
0.000396763905883
0.000714285124559
0.000960849807598
0.000370439258404
0.000105296618131
-0.000110058150312
0.000858168699779
0.00308741629124
-0.000573757453822
3.42619714502e-05
0.00213386584073
0.000553530582692
0.000937023723964
-0.000611713272519
0.000979389878921
-5.02900547872e-05
-6.17379846517e-05
0.00034886598587
0.0019217702793
0.000443573837401
0.00121710903477
0.000831521931104
-0.00259008072317
0.00150135799777
-0.000238927095779
0.000416800146922
-0.0028744796291
-3.54556941602e-05
-0.000281210348476
0.000920468883123
0.000390696892282
-0.000454122695373
0.000393481837818
-0.000446082325652
0.000313673022902
0.00153726455756
0.000370622350601
0.000604138767812
2.81744542008e-05
-0.00216112076305
0.00132596935146
0.000210891244933
-0.000511734222528
0.000192886174773
0.000580063206144
0.000729898747522
-0.000775651424192
-0.000386068102671
0.000160118608619
0.000325303990394
-0.000137269467814
5.53871723241e-05
0.000501629663631
0.000693674257491
9.56647127168e-05
0.00257888645865
0.000416764378315
-0.000170395782334
0.00143352441955
0.000103899561509
0.000144064993947
0.00150277209468
-0.000881795189343
-0.000519846682437
-0.00140597100835
0.000187019075383
4.30201762356e-05
-9.39128512982e-05
-0.00032092348556
-0.00272257486358
0.000217318563955
0.000465266406536
0.00152591441292
0.000225515497732
0.000239136585151
0.000107525549538
0.000299729697872
2.59540465777e-05
-0.000145431040437
0.00224493769929
-0.00050503143575
0.000333168485668
0.000602415238973
0.000258560903603
0.0002710246481
0.000136655784445
0.000308664661134
0.000925448781345
-0.00375848240219
0.000120719050756
2.29739544011e-05
0.000119889737107
0.000308379530907
0.000166876372532
-0.000988956075162
0.000644426560029
0.000746196426917
0.000796943611931
-0.000619098020252
0.000143786106491
-0.00010016302258
-0.000547013245523
-0.0020781212952
0.00167381262872
0.00054630311206
0.00147921650205
3.85782041121e-05
-0.000847427116241
0.00104458117858
0.00132873118855
-8.3690014435e-05
0.000286388240056
-0.00361301307566
0.000974654685706
0.000529765500687
0.00118916900828
-0.000849140924402
0.000675753166433
1.66864756466e-05
-9.63320489973e-05
0.000452402455267
1.17753197628e-05
0.00152199342847
-0.000384415965527
-0.000249893870205
0.00143588276114
0.00150423822924
0.000869738636538
-0.000400276767323
0.000446805614047
0.000413551490055
0.000928599038161
-0.000133483597892
0.00061037944397
0.000517765060067
0.000211878228583
-0.00046776610543
0.000155711357365
-0.000952762260567
0.00112191261724
0.000120245043945
-0.001044826
-0.000179043912794
0.000351365481038
-5.53286736249e-05
-2.44611474045e-05
0.000276539387414
0.000682982732542
0.000449781859061
0.000278374325717
-1.93669416149e-06
0.000672676425893
0.000590409908909
0.000219640365685
-0.000802435330115
0.000898086873349
0.0011906781001
-0.000417682720581
-0.000562649278436
-8.63251916599e-05
-0.00142079300713
8.21887369966e-05
0.000662750797346
0.000689376203809
0.000107012798253
0.000238157314016
0.00193333171774
5.39003485756e-05
-0.000774147338234
-6.33363306406e-05
6.45398313281e-06
0.000722894270439
0.0015108337393
-0.000291846867185
-0.0021473611705
0.000527327531017
0.000337164063239
-0.00029732749681
-0.000358828518074
0.000195340515347
7.80803457019e-05
-0.000589801755268
-0.000906302477233
0.000491919461638
-0.000127461709781
-0.000644598272629
0.00160569301806
-0.000121556913655
5.32896001459e-06
-0.000155576810357
0.000810201221611
-0.000517881533597
-0.00039382770774
0.000531065859832
0.000141815908137
0.000196546447114
-5.34518694622e-05
0.00102043524384
0.000787146564107
-0.000355853349902
-2.13668590732e-05
0.000244106078753
0.000382125406759
0.000489179044962
0.000186254343134
0.000212815764826
0.00194185238797
0.000497345812619
0.000386983912904
-4.06746257795e-05
0.00111309275962
-0.00139078882057
0.000786725839134
3.84933846362e-05
-8.24573580758e-05
0.000604610948358
-0.000361620652257
0.00111563084647
5.34332029929e-05
-0.000317295984132
0.000865363224875
0.0013102790108
-1.41336531669e-05
-0.00271632289514
0.000300226005493
0.000833561876789
0.000275813712506
0.000571599346586
0.000148235252709
0.000317880185321
-0.00371903902851
-0.000379054108635
-0.000251665944234
0.00112104869913
-0.000698986463249
0.000879757979419
0.000178201124072
-0.000256739556789
-0.000345391861629
0.00158476829529
-0.000272379809758
-0.000496511056554
-0.00174259662163
0.000197898116312
-0.000378936179914
0.000798410736024
0.000545851478819
0.000189702899661
0.00104414648376
0.00098311691545
0.00159263901878
0.000684037338942
0.000271849043202
-0.000184241260285
-4.25031903433e-05
-0.000113663161756
0.00037148987758
-0.000122059915157
-6.42880841042e-05
-0.000217395470827
-0.000706857710611
0.000500374357216
-0.00120420113672
0.00248122424819
0.000198565030587
0.000907506211661
0.00252270814963
0.000402846635552
0.000718800467439
-0.000423745950684
0.000806282623671
0.000113501708256
4.28803332397e-06
0.00117860687897
0.000365218875231
0.000403005775297
-0.000233950777329
0.00094113178784
-0.00379301281646
0.000456828158349
0.000630474067293
-0.000692281348165
-0.00230511906557
0.000245801289566
-0.000280790642137
0.000336862431141
-0.000577806786168
0.000179638111149
3.44957043126e-05
0.000249714968959
0.000306229048874
0.00162128219381
-0.000235464322031
0.00112437095959
0.00130570877809
-0.00169799069408
0.00235741329379
-0.000164698038134
0.000362851453247
0.000318744976539
-0.000613212003373
-1.58373004524e-05
-0.00155652116518
-0.000339480029652
-1.98407797143e-05
-0.000177786321728
-0.000936117605306
0.000754961685743
0.000233259095694
0.00111016642768
-0.000495609012432
0.00183574133553
0.000717679096851
-0.000968963257037
-0.0012438443955
-0.00100114883389
-0.000678369193338
0.000429270789027
-0.000176017303602
0.000131940003484
-0.000216141124838
9.01181556401e-05
0.00125553121325
0.000208064622711
-0.000890843512025
-0.00162804638967
-0.000809184741229
0.00120102777146
0.000673536444083
-0.000288981857011
-0.000948667817283
0.000262900604866
-0.000663272803649
-0.000661989208311
-0.001440049964
0.00164757866878
-0.000384614802897
-0.00117961957585
-0.0003165435337
0.00130018545315
0.000563437875826
-5.53432328161e-05
-3.85966632166e-05
-0.000953563663643
-0.0044391178526
-0.000449335755548
0.0010297796689
0.000857236154843
-0.00131712749135
2.63345718849e-05
-0.00137117749546
-0.000473712891107
0.00101434451062
-0.000257918407442
0.000964056293014
-0.000608861446381
-0.000803801056463
0.000258969026618
-0.00307566742413
0.00133023946546
0.000143582132296
-1.76193971129e-05
-0.00101110863034
-0.000893376069143
-0.000619582366198
0.000520548550412
-9.697736823e-05
-5.51795092179e-05
-0.00513380253688
0.000353396055289
0.000815439387225
0.000966190826148
-0.00027088567731
0.00035585850128
8.32865844131e-05
-0.000405860890169
0.00027610862162
-0.000209753896343
-0.000570063770283
-8.14702871139e-05
3.47949280695e-05
0.000558365485631
0.00142933393363
-0.00146663596388
0.00049742939882
-5.31118785148e-05
0.000816792540718
-0.000770995800849
0.000125064281747
-0.000395064766053
0.000291320320684
-0.000555373029783
-0.00134989246726
0.000572326767724
-0.00100532651413
-0.00101858947892
0.000280259497231
-6.33495874354e-05
0.00050603505224
0.000805062241852
-9.36692013056e-05
0.00115288700908
-0.000258476298768
-0.00044865871314
-0.000525428447872
0.000762717565522
-0.000654274364933
-0.000249413016718
0.00132805225439
0.000113346810394
-4.82351060782e-05
-0.00100752571598
0.00165957922582
-0.00102927954867
0.000102772130049
0.000891219300684
-0.00157612760086
-0.000259241991444
-0.000434415676864
-0.00024503734312
0.00140561570879
-0.0007015450974
0.00305929966271
0.00148306589108
0.000122141456814
-1.84033633559e-05
0.000281647458905
0.000481552764541
4.10696748077e-06
-0.000222095564823
-0.00296025513671
-0.000361493148375
-0.000653400842566
0.000406591512728
-0.001191342948
-0.000142818375025
-0.000598513754085
-0.00046852597734
-0.00115975784138
0.00159753707703
-0.00050772621762
-0.000186093253433
0.00144823233131
0.000416920986027
-0.000996815855615
-0.000254018901614
-0.000814073428046
0.000242465466727
-0.000309956318233
-0.000271698401775
0.000655504583847
-0.0001934911852
-0.00028440769529
0.000922805746086
3.91539870179e-05
-3.34813412337e-05
0.000578457955271
0.000468367303256
0.00162924965844
0.000396588118747
-0.000647593406029
-0.000766015262343
-0.000385287305107
-0.000113608170068
0.001020342228
-0.00109937519301
0.000962599588092
-0.00244756578468
-0.000139946045238
0.000894223805517
-0.000505779054947
0.000739138806239
0.000346609012922
0.000245965813519
-3.11423937092e-05
-0.00044758230797
0.000316800113069
0.000141396390973
0.00119523750618
-0.00469416286796
0.00040139950579
-0.000341202074196
-0.000237170388573
0.00106263696216
-0.000989920226857
0.000652949616779
-0.00347787560895
0.000994246685877
0.000333893258357
0.000354817078914
0.000139158946695
-0.000145914920722
0.00259781605564
-0.00100406794809
-0.00135190715082
-0.000755766872317
-9.622102516e-05
-0.000183847427252
-0.000206732773222
-0.000746689795051
0.000406437378842
0.000363238243153
0.000894739991054
-0.00176376057789
0.00030226886156
-1.85688190868e-06
8.18042681203e-05
0.000240681765717
-8.80619845702e-05
-0.000292544194963
0.000113034853712
0.000383810227504
-0.000502592884004
0.00054104445735
-0.000488495687023
-0.000743590062484
0.00054206175264
4.29532883572e-05
0.000164438650245
0.00216443650424
0.00105961773079
0.000132566492539
0.00226472178474
-0.00132802757435
0.00123468029778
-0.00175675307401
-0.000850552634802
0.000494752661325
-0.000866570335347
0.000506173353642
0.000331505230861
0.000903756124899
0.000166408004588
-0.000777112145443
-0.00327567569911
-0.000284633948468
-0.000731575419195
-0.000291134172585
-0.00363360042684
-0.000830801029224
-0.000821799389087
0.000374311843188
-0.00111588230357
0.000215199033846
-0.00142784113996
0.000452564330772
-0.000349212321453
0.000442756805569
-0.000743026554119
0.00133051164448
-0.000119248055853
-0.00186767790001
0.00392557866871
-0.00118521263357
-0.000747683923692
-0.0010663747089
-0.000788990175352
-0.000976080074906
0.00128393992782
-0.000220770059968
-0.00129035091959
0.000618448946625
0.000677976640873
-0.000141329903272
-0.00115207012277
0.000814502011053
0.000454581517261
0.000538282678463
0.000383123784559
-0.00130550342146
-0.000434784044046
-0.00114001042675
-0.0010371938115
0.000259318971075
0.000372731214156
-0.000968493346591
-0.00145016773604
2.3675538614e-05
0.00142363354098
-0.00111931655556
-0.00122698070481
0.00358109548688
-0.000688812695444
0.000986992497928
0.000106770414277
-0.000223426832235
-0.000648862798698
0.000567380455323
-0.00122699921485
-0.000849970267154
-0.000862236600369
-0.000149270883412
-0.00139504589606
-0.00147835782263
-0.00130510586314
-0.000122763449326
-0.000344913452864
0.000433342764154
-0.000949313805904
-0.00165133725386
-0.00165689236019
-0.000442887656391
-0.000670359993819
0.000753082742449
-0.00195688963868
-0.000758711248636
-0.00205015507527
-0.00139372586273
0.00012979186431
-0.00148081418592
-0.00122142839245
-0.000491677667014
-0.00031929340912
-7.58953974582e-05
-0.0016341006849
0.00138211634476
-7.311178706e-06
-9.05019405764e-05
-0.000158614217071
-0.000751893909182
-0.000191746876226
0.00163269625045
-0.000512767292093
-0.00182445265818
-0.00337957683951
-0.000484666612465
0.000264391157543
-0.00113066995982
-0.000540753360838
0.00115069700405
-0.00101223227102
-0.00162186648231
-0.000591953168623
-0.000804398965556
0.000585480302107
0.000326957466314
-0.0010573923355
-0.000213409453863
0.0016249952605
-0.00161188398488
0.00057788961567
0.000672307971399
-0.00170534825884
-0.000759124348406
-0.00147139083128
-0.00140511500649
-0.00273455143906
2.41987527261e-05
-0.000393011432607
0.00118829216808
-0.00176274008118
-0.000408764724853
-1.92323950614e-05
0.000201127215405
-0.00178779754788
-0.0017877422506
-0.000669792469125
-0.000582404783927
-0.000736727495678
-0.000931665010285
-0.00124129571486
0.000510742946062
-0.000969833869021
-0.00025352605735
-0.00125095946714
-0.000680270022713
-0.000944028084632
-0.000623295723926
0.00070074305404
-0.000820607645437
0.000715570291504
-0.00128220545594
-0.0023692601826
-0.00054697948508
-0.000511210528202
-0.00201698718593
-0.000201101356652
-0.00116470898502
0.00150517921429
0.00106006569695
-0.000868111732416
-0.000765175558627
0.000247607997153
-0.000131793975015
0.00107154774014
-0.000630738504697
-0.00368634378538
0.000524823728483
-0.000171519321157
-0.000144811507198
-0.000759317248594
-0.00106138223782
-0.0017648577923
-0.000678070355207
-0.00130415952299
0.000697209034115
-0.000371824397007
-0.00147185835522
-0.000759214279242
0.000213371167774
-0.00174618139863
-0.000565155060031
-0.000359016325092
0.000360091769835
-0.000845938513521
-0.000939709891099
-0.000559355947189
-2.83723711618e-05
0.000612256757449
9.6548734291e-05
-0.0011204482289
0.00564998202026
-0.000643750943709
-0.000884024600964
0.000922519073356
-3.05714602291e-05
0.000394443632104
-0.000272584700724
0.000934334995691
0.000181106297532
-0.00037315528607
-0.00135145604145
-0.00081002083607
-0.000144487101352
-0.000473572290502
-0.000880467530806
-0.000276372360531
-0.000454928551335
-0.000208793571801
0.000763031188399
0.000195113912923
-0.000315700570354
0.000776081171352
0.000645669235382
0.00014987141185
-0.00279165338725
-0.000228047545534
-0.0012141794432
-0.00121239351574
0.000985047197901
-0.000925742322579
0.00154523109086
-0.00335788051598
-0.000468437850941
5.41535446246e-05
-7.89092082414e-05
-0.00012398508261
-0.000523264869116
0.00118806865066
-0.000791028200183
-0.00222599133849
-0.000450408406323
-0.0012912809616
-9.54986535362e-05
-0.000823556852993
-0.000410406617448
-0.000562242348678
-0.00160976988263
0.000141015989357
-0.000961517449468
0.000178106565727
-0.00114117050543
0.00115907751024
0.000929848058149
-0.000462393683847
-0.00203138962388
0.000848111754749
-0.000398127536755
-0.00059382483596
-0.00182939099614
-0.000769070524257
-0.000292149867164
-0.000438345276052
-0.000652560032904
-0.000217786655412
-0.000825825205538
0.00151455029845
-0.00033426671871
-0.000109144384624
-0.000663497776259
0.000625790446065
-0.00145569187589
-0.00110091257375
-0.00106273358688
-0.00162082409952
0.000346061948221
-0.000270911783446
5.02014117956e-05
-9.59386852628e-06
-0.0010810099775
0.00105405435897
-0.00124037126079
0.000381893711165
-0.000258301035501
-0.00108520325739
-0.000383901380701
-0.0013192006154
0.000213078135857
-0.00105078227352
-0.000125909151393
-0.00162560713943
0.000701780198142
-2.87476104859e-05
0.000975713599473
-0.000628938723821
0.000625116168521
0.000164824596141
0.000222504153498
-0.000468015583465
0.00036402978003
-0.00199361052364
-0.00133752357215
-0.000738653121516
-0.000287895993097
0.00358726177365
0.00103646225762
-0.000901742838323
-0.000706580467522
-0.000951786409132
-0.000566626549698
-0.000572332704905
-0.000485208409373
0.00131807150319
-0.00158537388779
-0.000846948940307
-0.00149873364717
-0.00155309960246
-0.000318745005643
-0.00139502878301
0.000353493000148
-0.0018969202647
-0.00130161142442
0.000239543209318
6.14892924204e-05
0.000650859146845
-0.00102964555845
-0.00246639526449
0.00720977084711
-0.000879120081663
-0.00036302531953
-0.00163648929447
-0.00147828855552
-0.0013066814281
-0.000386234838516
0.000644542276859
-0.00210510683246
-0.00269612297416
-0.00229657604359
-0.00300162890926
-0.00236735958606
-0.00136189698242
-0.000702905701473
-0.000793148647062
-0.000350742833689
-0.00127778900787
-0.0030715467874
-0.000735497334972
-0.00195293605793
-0.000368183274986
-0.000781495124102
-0.00205940706655
-0.00226318906061
-0.00246255216189
-0.00176111084875
-0.000201156071853
-0.00246908795089
-0.000968421634752
-0.00113486906048
-0.00129727297463
-0.000456166628283
-0.0032675229013
-0.000450794497738
0.000221331138164
0.000511563732289
-0.00155691930559
-0.0011423662072
-0.00160774611868
0.0012632162543
-0.00142899306957
-0.00234609399922
-0.00284697092138
5.51688244741e-05
0.00121715373825
-0.000278557708953
-0.00143553258386
-0.000201748349355
-0.000640251557343
-0.00182616524398
-0.00176308187656
-0.00234268396161
-0.000737605965696
-0.00130845874082
-0.000374336435925
-0.00199788506143
0.00182840914931
-0.00172274117358
-0.000590089824982
-0.00168239569757
-0.00145376520231
-0.00197636312805
-0.00246606161818
-0.001499650185
-0.000495138461702
-0.000344610685715
0.00086599716451
0.000578972918447
-0.00169100484345
-0.00248143495992
-0.000512556638569
0.000102067089756
-0.00185335078277
-0.0026384468656
-0.00271084252745
-0.00201581395231
-0.00136609887704
-0.00223396532238
-0.000851231859997
0.00094073213404
0.000275914237136
-0.000333696923917
-0.0016354592517
-0.00150962593034
-0.00188392982818
-0.000724097946659
-0.00173995632213
-0.00144642300438
-0.00187719799578
-0.00192695192527
-0.0032847514376
-0.000559494423214
-0.000743653159589
-0.00174324470572
-0.00146698218305
-0.00196112855338
0.00112786120735
-0.00127901777159
-0.00137428066228
-0.00151066458784
-0.000509151723236
-0.00143035536166
-0.0014427874703
0.000985492253676
-0.00250624539331
-0.000675113406032
-0.00195772573352
-0.00112334499136
-0.00215560034849
-0.00226724776439
-0.00190371833742
-0.000626836554147
-0.00161192403175
0.00125195342116
-0.00212400360033
-0.000905839260668
-0.00191493262537
-0.00122968503274
-0.00298162107356
-0.000954641087446
-0.0004773424007
-0.000764462165534
-0.00223058345728
-0.00185055111069
-0.000465353426989
-0.000745747995097
-0.00108761887532
-0.000811859441455
-0.00402295682579
0.0106485942379
-0.00118324789219
-0.00101959961466
-0.000172965446836
-0.000777077453677
-0.000657124677673
-0.00114897615276
-0.000902393541764
0.000151016647578
-0.00216378131881
-0.000731589796487
-0.000692340719979
0.00311376876198
-0.00121256231796
0.00145679421257
-0.000916064833291
-0.000741399708204
-0.00044186777086
0.000890566268936
-0.000506709853653
-0.0012974004494
-0.000901895575225
-2.03298604902e-05
-0.000146301739733
0.000758260022849
-0.00148274365347
-0.00185642158613
-0.00156265019905
0.00113426230382
-0.000779434049036
0.000739380833693
-0.00202318793163
-0.00278937653638
-0.000283977627987
-0.00164509750903
-0.00221643713303
0.000347464374499
0.000566265895031
-0.000705615559127
-0.00334164174274
-0.00108157971408
-0.00105074874591
-0.001014528214
-0.000863446155563
-0.00107526534703
-0.00139078160282
-0.00357959233224
-0.00102172209881
-0.00178781710565
-0.000768780475482
-0.00247477460653
0.000521423993632
-0.00139077485073
-0.00206851051189
-0.00179863255471
-0.00253151124343
-0.0010338651482
-0.00157758186106
-0.00300652859733
-0.000744676741306
-0.00183374539483
-0.00166459265165
9.51911497395e-05
0.000125906532048
-0.0046118251048
0.00163304479793
-0.00177846243605
-0.00286101247184
-0.00289573823102
-0.00231860089116
-0.00118897389621
-0.00174022233114
-0.00205470016226
-0.00220037717372
0.00053191871848
-0.000111508757982
-0.00213529798202
-0.000394120579585
-0.00100642058533
0.00652979919687
-0.00261094956659
-0.000480774760945
-0.0016043309588
0.000606683664955
-0.000401444529416
-0.00195700954646
-0.0021878760308
-0.000838199164718
0.00116474262904
-0.00165499735158
-0.00107821135316
-0.00182520248927
0.00035185192246
-0.00167888402939
-0.000316815508995
-0.00142670038622
0.00354364374653
-0.00442124949768
-0.00019791838713
-0.00251155695878
-0.00130464369431
-0.00132303696591
-0.00113801646512
0.00534850545228
0.00166673352942
-0.0022579501383
-0.000643861363642
-0.00211661076173
0.000152925262228
-0.00203663669527
-7.42751872167e-05
0.00241458904929
-0.00139433168806
-0.00133552844636
-0.0015216274187
-0.00216968706809
-0.000188809674
-0.00337734515779
0.00103122927248
-0.00274445977993
-0.0013212863123
0.000550947210286
-0.00034276288352
-4.68083526357e-05
3.36455887009e-05
-0.00151000125334
0.0128553695977
-0.00134980818257
-0.000956199015491
-0.00234407442622
-0.0035835087765
-0.00182887876872
-0.00137487461325
-0.00189114594832
-0.00205459212884
-0.00362650398165
-0.0026485924609
-0.00396588817239
-0.00259522022679
-0.0016710255295
-0.0019004662754
-0.00194253178779
-0.0013457700843
-0.00125166028738
-0.00369307259098
-0.000401785597205
-0.00246642483398
-0.00081655359827
-0.00167266803328
-0.00171823927667
-0.000260169035755
-0.0018631509738
-0.00196188827977
-0.0012133467244
-0.0041795228608
-0.00225170282647
0.00113593891729
-0.00340241193771
-0.00181021844037
-0.00332115264609
-0.000642466417048
0.000704866077285
-0.00041629516636
-0.000747735553887
-0.0013250579359
-0.00162766512949
0.00115056533832
-0.000661894155201
-0.00141644617543
-0.00164104497526
0.000233715734794
0.00062632933259
-0.00165408360772
-0.000292158860248
-0.00131194549613
-0.001987606287
-0.00135603314266
-0.0010954188183
-0.000595075718593
-0.000532154983375
-0.00113155809231
-0.00133733649272
-0.00274254148826
0.0017798312474
-0.00221428950317
0.00170812953729
-0.00204364792444
-0.00209027691744
-0.00122089439537
-0.0017063486157
-0.00185032538138
-0.0029778718017
-8.85270346771e-05
0.0019307511393
0.000103672311525
-0.00156818772666
-0.00128906837199
-0.000926926499233
0.00125525530893
-0.00124908005819
-0.00318390876055
-0.00152569741476
-0.00283527397551
-0.00179039710201
-0.00275989784859
-0.00075130071491
-0.00113067391794
0.00119454110973
-0.00080659618834
-0.00360142393038
-0.00119676836766
-0.00260241399519
-0.000161277406733
-0.00282104709186
-0.00322438031435
-0.00188685650937
-0.00416160281748
-0.00373695301823
0.000179068476427
0.000693501264323
-0.00431506289169
-0.00311584118754
-0.00156437407713
0.00174268928822
-0.00248408410698
-0.00197090953588
-0.000951707595959
-0.000993944820948
-0.00152511964552
-0.00236339052208
0.00100394501351
-0.00320101878606
-0.000627021712717
-0.00134904554579
-0.00303682056256
-0.00158035277855
-0.00494533078745
-0.000707245373633
-0.000292225304293
-0.00143609580118
0.0015490395017
-0.00134556577541
-0.00313205854036
-0.00185850600246
-0.00174108927604
-0.00352146639489
-0.00254273414612
-0.00152584223542
-5.96039280936e-05
-0.00344351143576
-0.00175006652717
0.00144831556827
-0.00165385194123
-0.00190515699796
-0.00149973738007
-0.00524621503428
0.0172845888883
0.00020337261958
-0.000655512616504
-0.00152972142678
-0.00164276757278
-0.000955446390435
-0.00323660229333
-1.91367098523e-06
-0.00159563834313
-0.0022336745169
-0.00149501359556
-0.00317600625567
0.00393732264638
-0.00382903311402
0.000738312897738
-0.00221499893814
-0.00062591326423
-8.5718340415e-05
0.00083915394498
-0.000252765108598
-0.00236972328275
-0.00167833012529
0.00031926354859
-0.000573155353777
0.0030082645826
-0.000726093712728
-0.00124586559832
-0.00244632316753
0.000413796078647
0.000294804747682
-0.00103691022377
0.000168138169101
-0.0036243784707
-0.000207036238862
-0.00230998755433
-0.00353929190896
0.00124512368347
0.000266834365902
0.000410883396398
-0.00178920547478
-0.00109885074198
0.000389136723243
-0.000773819512688
0.000107372114144
-0.00106894888449
-0.00100121786818
-0.00452402792871
-0.00209133140743
-0.00131632795092
-0.00152917637024
-0.00331967766397
0.0014607416233
-0.00289573380724
-0.00317132426426
-0.00181964493822
-0.00371539359912
0.000468937883852
-0.000428737141192
-0.00221330416389
-0.000613307231106
0.000183498399565
-0.00191063480452
0.00192393700127
-0.000691459048539
-0.0067370692268
0.00218052929267
-0.00322885019705
-0.00477866502479
-0.00271867355332
-0.00398909393698
-0.000796873937361
-0.00122272002045
-0.000328943773638
-0.000408630119637
0.000638049852569
-0.000831941957586
-0.00190612114966
-0.00339932437055
-0.00119614438154
0.00937545858324
-0.00279558030888
-0.000658959557768
-0.00163233152125
0.00314719974995
0.00034132367
-0.000899563659914
-9.09799346118e-05
-0.00233276444487
0.00165989727248
-0.000368344364688
-0.00320147024468
-0.0010876749875
-0.000905542343389
-0.0011028178269
-0.00154607195873
-0.0020440754015
0.00587208149955
-0.00681452779099
0.00019951275317
-0.00382344610989
-0.00223360722885
-0.000812960206531
-0.00162836827803
0.00937374867499
0.00278576603159
-0.00417818967253
-0.00333096529357
-0.00349572394043
-0.000982823316008
-0.00431564636528
-0.00122765183914
0.00446592643857
-0.00352782174014
-0.00152543152217
-9.83330901363e-05
-0.00356164714321
0.000462788506411
-0.00435815053061
0.00230306060985
-0.0056353812106
-0.00339036807418
0.000615114462562
-0.00165648164693
-0.000365209096344
0.000115012786409
-0.00356557872146
0.0177081953734
-0.00378856319003
-0.00159743498079
-0.00348452432081
-0.00464338203892
-0.00408631656319
-0.00169619941153
-0.00125679350458
-0.00378073146567
-0.00488922093064
-0.00802966952324
-0.00576753634959
-0.00525909336284
-0.00368077261373
-0.00313390651718
-0.00423838198185
-0.00231966725551
-0.00235915486701
-0.00542801897973
0.000394834816689
-0.00421430869028
-0.00191027845722
-0.00356268975884
-0.00377240916714
-0.00132314988878
-0.00254266918637
-0.00310752238147
-0.00289810309187
-0.00416836794466
-0.00339410244487
-0.000922709121369
-0.0045194751583
-0.0036471884232
-0.00419147871435
-0.00184864981566
0.000400084536523
-0.000526177638676
-0.00100709625985
-0.00156592181884
-0.00214611971751
0.00107714405749
-0.000814745202661
-0.00337106641382
-0.00148486823309
0.00204604468308
0.000529302982613
-0.00250544189475
0.000107273495814
-0.000309922121232
-0.00192006852012
-0.00261990725994
-0.00173444661777
-0.000792144797742
-0.00283607770689
-0.000658119097352
-0.00100726669189
-0.00305809034035
0.0043883244507
-0.00218827021308
0.00303971325047
-0.00387247628532
-0.00473922165111
-0.000656984280795
-0.00391889316961
-0.0032061804086
-0.00471547292545
-0.00176415720489
0.00227999547496
0.000780662405305
-0.00392148829997
-0.0038527706638
-0.00118676049169
0.00303268642165
-0.00303088757209
-0.0043306350708
-0.00320784864016
-0.00341233168729
-0.00393315963447
-0.00286737270653
-0.00130129186437
-0.00164625956677
0.00125248369295
0.000230640856898
-0.00390789890662
-0.00394078483805
-0.00336035853252
-0.000335361924954
-0.00539439218119
-0.00403506634757
-0.00270442897454
-0.00474737072363
-0.0027375551872
-0.000806277617812
-0.00162719294894
-0.00442801229656
-0.00375253870152
-0.00278751202859
0.00489312130958
-0.00300589459948
-0.00265952735208
-7.21639880794e-05
-0.0019021629123
-0.00408355752006
-0.00618962710723
0.00303107243963
-0.00310196005739
-0.00204567867331
-0.00033364596311
-0.00343407993205
-0.00398814817891
-0.0049306708388
-0.00152723712381
-0.00125544797629
-0.000283137807855
0.00221015978605
-0.00276795728132
-0.00473009422421
-0.00346463616006
-0.00240611494519
-0.00583719136193
-0.00374473747797
-0.00351825682446
-0.000534815248102
-0.00504476949573
-0.00387629820034
0.00113783369306
-0.00353116379119
-0.00318246777169
-0.00287627475336
-0.0110733387992
0.0236451998353
-0.00128410803154
-0.00158970057964
-0.00234468001872
-0.00175203592516
-0.00154122139793
-0.00462684780359
-0.000583225744776
-0.00116087892093
-0.00173014472239
-0.00142266287003
-0.0029027974233
0.00765505479649
-0.00419032201171
0.00164338108152
-0.00368583016098
0.000164933226188
0.00119455263484
0.00107540178578
-0.00104110292159
-0.00331040169112
-0.00308566610329
-0.000997448340058
0.000579419545829
0.00290518859401
-0.0024446786847
-0.00182880100328
-0.00348193733953
0.00104391609784
6.38189594611e-05
-0.00208845315501
-0.00106241740286
-0.00558275962248
0.00072453985922
-0.0033910847269
-0.00447645224631
0.00238412269391
0.000385931227356
0.000956216012128
-0.00392120936885
-0.00401479005814
-0.000279167870758
-0.000523014226928
-1.85676144611e-05
-0.00227864319459
-0.00213555293158
-0.0046175266616
-0.00261390348896
-0.00329988310114
-0.00240050326101
-0.0047153653577
0.00213710847311
-0.00291799451225
-0.00283912569284
-0.00182241993025
-0.00406512711197
-0.000197932560695
-0.0018463509623
-0.0052026649937
-0.00112674687989
-0.000209424033528
-0.00321253063157
0.00378095009364
-0.000559048785362
-0.0118261538446
0.00402465462685
-0.00484739663079
-0.00779534457251
-0.005467901472
-0.00773432850838
-0.00301093165763
-0.00301193795167
-0.00109330122359
-0.00318755791523
0.0004610538017
-0.00278845755383
-0.00374273885973
-0.00405947351828
-0.00104563916102
0.0126127991825
-0.00360277085565
-0.000526970950887
-0.00376506452449
0.00348149030469
0.001143574249
-0.00145285460167
-0.00122023618314
-0.00291849928908
0.00283747864887
-0.00231713429093
-0.00417354004458
-0.00307173747569
-0.000894873926882
-0.0028248752933
-0.00349677889608
-0.0031205562409
0.010678566061
-0.0121653517708
0.000564288231544
-0.00487969629467
-0.00397172942758
-0.00240772590041
-0.00399297848344
0.0110144615173
0.00537571404129
-0.003535581287
-0.00256789173
-0.00373199325986
0.00115251739044
-0.00426881806925
0.000441896467237
0.00535539956763
-0.00189028924797
-0.00116406916641
0.00104335090145
-0.0035193671938
0.000624379666988
-0.00303242029622
0.00223672506399
-0.00500897830352
-0.00262464326806
0.00225219409913
-0.000450313498732
0.000810619851109
0.000933302857447
-0.00305430288427
0.021687829867
-0.00154639955144
-0.00131687347312
-0.00306050293148
-0.00289748609066
-0.00321816536598
-0.00212681293488
-0.00258758314885
-0.00297564011998
-0.00391755625606
-0.00715175177902
-0.0054163406603
-0.00472515868023
-0.00247772294097
-0.00256260042079
-0.00376448407769
-9.83413629001e-05
-0.00319283851422
-0.00541112711653
-0.000993127468973
-0.0033948358614
-0.00137641199399
-0.00283183157444
-0.00605859514326
-0.00135107710958
-0.00408538756892
-0.00258279708214
-0.00292274472304
-0.00530240545049
-0.00244247447699
-0.000265780894551
-0.00323555967771
-0.00389298959635
-0.00461449101567
-0.00184553326108
0.00281642354093
-0.000617127458099
-0.00129144731909
-0.00252173468471
-0.00250350753777
0.00119020126294
-0.000252043042565
-0.0024748146534
-0.00238513853401
0.00489520747215
0.00187807157636
-0.00361194577999
-0.000579076237045
0.000696333823726
-0.00350666441955
-0.001779346494
-0.00129634456243
-8.2150902017e-05
-0.00383429881185
0.000505561940372
-0.00133800623007
-0.00316360103898
0.00570817710832
-0.00324115762487
0.00422878284007
-0.00413222657517
-0.00470122555271
0.000104828337498
-0.00385714112781
-0.00264143384993
-0.00388809526339
-0.00238981377333
0.00491276942194
0.00215403595939
-0.00487343221903
-0.00331542035565
-0.00112192879897
0.00329380831681
-0.00263188011013
-0.00483360001817
-0.00344248209149
-0.00278515112586
-0.00376091781072
-0.00252623739652
-0.00232658116147
-0.00149745121598
0.00245890277438
0.00234423018992
-0.00463149230927
-0.00205523218028
-0.00451436033472
-0.000557217921596
-0.0026935513597
-0.0043546971865
-0.0020412884187
-0.0058279465884
-0.00276906322688
-0.000998848117888
0.00102005188819
-0.00517421355471
-0.0022513451986
-0.00405727466568
0.00748112658039
-0.00294281053357
-0.00366216362454
0.000491374230478
-0.00167317083105
-0.00421584676951
-0.00380941363983
0.00367827503942
-0.00528252124786
-0.00204831105657
-0.000983776990324
-0.00374537101015
-0.00493888230994
-0.00507400091738
-0.0021509246435
-0.000865106179845
-0.00122205086518
0.00409735320136
-0.00211392319761
-0.00486862985417
-0.00232284609228
-0.00333177135326
-0.00566144892946
-0.00424975622445
-0.00327999633737
-0.00021421124984
-0.00502660078928
-0.00337592675351
0.00291925738566
-0.00347678666003
-0.00333673297428
-0.00268492661417
-0.0106802629307
0.0285866335034
0.000672313442919
-0.0018807973247
-0.00187049398664
-0.00168342178222
-0.000667753221933
-0.00487501407042
-0.000267396477284
-0.0020814074669
-0.00359505717643
-0.000177476380486
-0.00298176775686
0.00851322151721
-0.0034284426365
0.00202811672352
-0.00220032245852
0.0020096693188
0.000850635231473
0.00322671467438
-0.000163756427355
-0.00471930811182
-0.00230005453341
-0.0018128445372
0.000957529235166
0.00140469952021
-0.00126591301523
-0.000587277754676
-0.0039545330219
0.00202103122137
0.000234660546994
-0.00029848315171
-0.00255397032015
-0.00447796378285
0.00201031588949
-0.00398649647832
-0.00457476638258
0.00253518554382
0.00192302698269
0.00327033177018
-0.00450605712831
-0.00307627068833
0.000786546908785
0.000701326644048
-0.000442407646915
-0.00192311720457
-0.00212957593612
-0.00601923745126
-0.00199028220959
-0.0028034101706
-0.00230217212811
-0.00400639837608
0.00364641076885
-0.00186875276268
-0.00287364353426
-0.00257057812996
-0.0045847245492
0.000266653602012
0.000311408395646
-0.00439037242904
-0.000483426265419
0.000359797355486
-0.00327052548528
0.00395687576383
-0.00146940699778
-0.0115223573521
0.00591926556081
-0.00349994702265
-0.00502653373405
-0.00508705386892
-0.00681759556755
-0.00239184615202
-0.00209823600017
-0.000893573509529
-0.00279279495589
0.00245310622267
-0.00132221123204
-0.00345440255478
-0.00302147422917
-0.000532927748282
0.0153246698901
-0.00347143039107
-0.000454811175587
-0.00305749406107
0.0018098806031
0.00232789572328
-0.00110666407272
0.00035019844654
-0.00349995982833
0.00413920311257
-0.00269241235219
-0.00316951796412
-0.00153342541307
-0.000998609350063
-0.00389554840513
-0.00195640209131
-0.00384487584233
0.0111249070615
-0.0118701821193
0.00155485246796
-0.00485135847703
-0.00392242381349
-0.000304171262542
-0.00308461836539
0.00987942423671
0.00614190800115
-0.00411106925458
-0.00126592942979
-0.00334376515821
0.00202269130386
-0.0036761641968
0.00169872702099
0.00748390937224
0.00168342899997
-0.000671141140629
0.000437432900071
-0.00470253732055
0.00143210263923
-0.00119358638767
0.0039414097555
-0.00476424070075
-0.00201345724054
0.00275449291803
5.17774205946e-05
0.00180827488657
0.00153207674157
-0.00390784395859
0.0197831410915
-0.00177173339762
-0.000369605928427
-0.00179951405153
-0.00345839490183
-0.0023954026401
-0.00165098230354
-0.000537296175025
-0.0020244831685
-0.00346915097907
-9.55830473686e-05
-0.00583644397557
-0.00505552068353
-0.00248202565126
-0.000265173468506
-0.00230743689463
0.000995114445686
-0.00212595262565
-0.00462057860568
-0.00241710431874
-0.00317657995038
-0.00115926750004
-0.0021872415673
-0.00414022384211
-0.000373329268768
-0.0024061081931
-0.00333723891526
-0.00209870166145
-0.00556625565514
-0.0035100474488
0.00108857126907
-0.00405960017815
-0.00258517102338
-0.00535194994882
0.000495356449392
0.00346934073605
0.00139412679709
-0.000608565285802
-0.00236410996877
-0.00140782585368
0.0043498869054
0.000598378363065
-0.00358373112977
-0.00356003828347
0.00531077058986
0.00302282511257
-0.00191394391004
0.000654017669149
0.00175839487929
-0.00214093970135
-0.000683656428009
-0.000587899412494
-0.000732414249796
-0.00202663172968
0.0016194973141
-0.000425498205004
-0.00215179566294
0.00727253220975
-0.00246596592478
0.00638458970934
-0.00277988146991
-0.00351596996188
0.000122632452985
-0.00372161366977
-0.00193413929082
-0.00294045940973
-3.31402552547e-05
0.00636605639011
0.00308407493867
-0.00333521701396
-0.00336733204313
-3.25131550198e-05
0.00391161814332
-0.00128083268646
-0.00393591448665
-0.00375720392913
-0.0014828100102
-0.00250217295252
-0.00297679682262
-0.000478896603454
-0.00044378513121
0.00349592999555
0.00364827876911
-0.00405376311392
-0.00226218206808
-0.0031257472001
0.0009771049954
0.00130212912336
-0.00439135544002
-0.000711435568519
-0.00508759310469
-0.00323866424151
0.00142850785051
0.00218679895625
-0.00446707941592
-0.00256480742246
-0.0024505041074
0.0104165542871
-0.00183676579036
-0.0032061689999
-0.00065317878034
-0.00165698502678
-0.00441361078992
0.000225242140004
0.00409084698185
-0.00666313618422
-0.000506615964696
0.00113579886965
-0.00323249516077
-0.00335637456737
-0.00502635724843
-0.00219457689673
0.000279439118458
0.000197923072847
0.00555999483913
-0.00189374340698
-0.00424260506406
-0.00218715402298
-0.00175694178324
-0.00438891211525
-0.00413262238726
-0.00255131348968
0.00032364227809
-0.00487645436078
-0.00285501289181
0.00536625599489
-0.00206332933158
-0.00300874491222
-0.00111197296064
-0.00321348384023
0.028942771256
0.000913606549148
-0.000957375159487
-5.45446964679e-05
-0.000706709688529
0.000393415743019
-0.00316969142295
0.00173358200118
-0.00151832203846
-0.00452220160514
-0.000311535171932
-0.0023680489976
0.00588185014203
-0.00283654173836
0.00380784831941
-0.00220293784514
0.00326315267012
0.00234670937061
0.0052897753194
0.000326593552018
-0.00273350882344
-0.000102534912003
-5.17543548995e-06
0.00252441409975
-0.00126056163572
-0.00170304672793
-0.000577096827328
-0.00247082789429
0.00391617650166
0.00155848660506
0.00294385966845
-0.00496237305924
-0.00375525141135
0.00133926211856
-0.00237579387613
-0.00274491333403
0.00482754176483
0.00433808751404
0.00283845723607
-0.00385742844082
-0.0027811084874
0.000468398997327
0.0028218398802
0.000555092352442
-0.000623933738098
-0.00200181081891
-0.00497771799564
-0.00137393770274
-0.00373750948347
-0.00121733627748
-0.00332660856657
0.00592429703102
-0.00193444860633
-0.00144319946412
-0.000441860844148
-0.00381812267005
0.00203621946275
0.000676618714351
-0.00461421441287
-0.00136412552092
0.00302996812388
-0.00225985702127
0.0054177204147
-0.000468002894195
-0.00172338297125
0.00761889619753
-0.0011145848548
-0.000929943053052
-0.00496810302138
-0.00199138233438
-0.00289350538515
-0.00242540566251
-0.000330400653183
-0.00221952470019
0.00338725117035
-0.000381440942874
-0.00179729028605
-0.00170163658913
-2.82334822259e-05
0.0104804635048
-0.00435895938426
0.00137768592685
-0.00224460940808
-0.000214509665966
0.00353869749233
-0.000978404423222
0.000499866029713
-0.0017036863137
0.00597072578967
-0.00170631729998
-0.00165032048244
-0.00220274669118
0.00210312847048
-0.00225106719881
0.000213466701098
-0.00270372908562
0.00941782817245
-0.00166307319887
0.00289886351675
-0.00404213974252
-0.00254836236127
-0.000351639202563
-0.00295364530757
0.00675772642717
0.00606996985152
-0.00295030279085
-0.000567976327147
-0.002429027576
0.00178079458419
-0.00344228721224
0.00212753168307
0.00830631703138
0.00381348514929
0.000288351322524
0.00018950694357
-0.00329535338096
0.000916666875128
-0.00213124253787
0.00468810787424
-0.00324305146933
-0.00138257583603
0.00266102841124
0.000889184244443
0.00417107576504
0.00317816948518
-0.00186507974286
0.0178416185081
-0.000772962113842
0.000438451388618
-0.00105436763261
-0.00363743049093
-0.00230414955877
-0.000889145652764
-0.00114562548697
-0.00239577610046
-0.00159270188306
0.00611776486039
-0.00388855487108
-0.00286839273758
-0.00153713452164
-0.000343569787219
-0.00145864114165
0.00202327407897
0.000358753779437
-0.00470837205648
-0.00410596514121
-0.00333891296759
-0.000584684254136
0.000628106005024
-0.00311264558695
0.000884375185706
-0.00276859709993
-0.00215325388126
-0.00114202918485
-0.00315205776133
-0.00280859228224
0.000965860032011
-0.00317291961983
-0.00208781124093
-0.00486598769203
0.00326661020517
0.00401657121256
0.00189612386748
3.72766735381e-05
-0.000384698447306
9.50348767219e-05
0.00513462722301
0.000203312549274
-0.0027833993081
-0.00454251514748
0.00674403924495
0.00373867992312
-0.00178721512202
0.000202570154215
0.00401446502656
-0.00072154746158
-0.00102092244197
0.00113877223339
-0.00065622839611
-0.000365169224096
0.00229656859301
0.0010559951188
-0.00137163803447
0.00980336684734
-0.0015877452679
0.00668897992
-0.00191605405416
-0.00347637059167
0.00129279331304
-0.00241563189775
-8.0078789324e-05
-0.00172976648901
0.00105726637412
0.00656341947615
0.00372454477474
-0.0022481859196
-0.00322873215191
0.000595650810283
0.00488613778725
-0.000568608113099
-0.00351788266562
-0.00286198873073
-0.00222373823635
-0.00305020669475
-0.00163161207456
0.00117988162674
0.000715221918654
0.00382010429166
0.00356536195613
-0.00264957989566
-0.00145494611934
-0.00336139719002
0.00218832329847
0.00484260590747
-0.00287589640357
0.000562386936508
-0.00529291620478
-0.00423391722143
0.00245846295729
0.00334286456928
-0.0042547932826
-0.00134684774093
-0.0019535953179
0.0119731305167
-0.000757750647608
-0.0027400390245
2.22045309783e-05
-0.00150887772907
-0.00291701871902
0.0034759757109
0.00341677875258
-0.00638751778752
-0.000792991486378
0.00154059368651
-0.0019125295803
-0.00238719396293
-0.00422755070031
-0.000932204537094
0.000730671163183
0.000559152918868
0.00745817925781
-0.00148631306365
-0.00342373060994
-0.000630716152955
-0.000458407448605
-0.00420765671879
-0.00233813514933
-0.00274325045757
0.00131824146956
-0.00399287464097
-0.00352718494833
0.00739485677332
-0.0015821486013
-0.00175648368895
-0.00116989098024
0.00207767402753
0.0266995485872
0.00216912571341
-0.000607727677561
0.00189812923782
-0.00027752891765
0.000473228516057
-0.00327120511793
0.00214295880869
-0.000212913684663
-0.00301719200797
0.000675857940223
-0.00111692561768
0.00265003414825
-0.00152663397603
0.00497039873153
-0.00321330619045
0.0046693701297
0.00408941973001
0.00608177902177
-1.61919670063e-05
-0.00175183976535
0.000544216542039
0.00108653900679
0.00348106422462
-0.00225709239021
-0.000381011835998
-0.000404723774409
-0.00268897973001
0.00470943190157
0.00235633016564
0.00372216734104
-0.00465759914368
-0.0033406491857
0.00106021226384
-0.00125228811521
-0.00273087993264
0.00602453760803
0.00575297698379
0.00280148698948
-0.00265117292292
-0.00261332397349
0.00213503534906
0.00416581844911
0.000678490148857
8.69176656124e-05
-0.000135690454044
-0.00484595540911
-0.000589104718529
-0.00121103331912
0.000756302208174
-0.00258839689195
0.00641169352457
-0.000650554080494
0.000102368940134
-0.000277469516732
-0.00291719753295
0.00265629892237
0.000700137868989
-0.00387766771019
0.000358362856787
0.00366046396084
-0.00360183347948
0.00784349814057
0.00213540811092
0.00498989596963
0.00974322203547
-8.18037588033e-05
0.00406691106036
-0.00512356869876
0.0023851795122
-0.00319178006612
-0.00228023179807
0.00141214893665
-0.0016634655185
0.00475713191554
-0.000670593115501
-0.002292442834
-0.00262153381482
0.00189439475071
0.00811985228211
-0.0040934747085
0.00229251920246
-0.00105945707764
-0.00266734231263
0.00282329577021
-0.000850565498695
0.000983308884315
-0.000945168372709
0.00553215947002
-0.000611808092799
-0.00130016496405
-0.000826447911095
0.00517056137323
-0.00138851755764
0.00111587299034
-0.00103575340472
0.00520650669932
0.00673761544749
0.00188080803491
-0.00454824278131
-0.0034279327374
0.000842589652166
-0.00201935274526
0.00483367638662
0.0064627896063
-0.00140094361268
-0.000604531029239
-0.000569071620703
0.00397778907791
-0.00151189405005
0.00410018768162
0.00772672099993
0.00651885382831
0.00134373421315
0.000392870540963
-0.00245823361911
0.000788454315625
-0.00111130077858
0.00605423655361
-0.00278471293859
-0.00221723457798
0.00241929036565
0.00163914344739
0.00432123895735
0.00305864657275
-0.0018775156932
0.0152825918049
-0.000262291840045
0.00169378239661
-0.00022001551406
-0.00174830609467
-0.000951698282734
-0.00181110738777
0.000626805063803
-0.00182639306877
-0.00255692075007
0.0112433666363
-0.00431583495811
-0.00315608899109
-0.000418493291363
0.00210196431726
0.00109174184036
0.00113861402497
-0.000125151113025
-0.00455510010943
-0.00510033871979
-0.00287903402932
0.000480550515931
0.00225560879335
-0.00243518361822
0.00142067600973
-0.00163273722865
-0.00123030249961
-0.000405399943702
-0.00295675033703
-0.00049067218788
0.00134201277979
-0.00378667702898
-0.00132194010075
-0.00735707907006
0.00478872982785
0.00433016847819
0.00307074165903
0.0010430169059
-0.00038241193397
-0.000488334801048
0.00649322196841
0.00228975969367
-0.0026210336946
-0.00689215259627
0.00776752689853
0.00470965402201
-0.000234029401327
0.00256880023517
0.00419615674764
-0.000960797537118
-0.000166885467479
0.00119380804244
-0.000948808970861
0.0017010839656
0.00285734515637
0.00192224280909
-0.00153993535787
0.0118490373716
-0.000402170378948
0.00795776769519
-0.000634164083749
-0.00240107183345
0.00140372570604
-0.00170612463262
0.000146841717651
-0.00285138562322
0.00140268809628
0.00627089897171
0.00508955772966
-0.00135540752672
-0.00239038374275
0.000757814035751
0.00420809863135
-0.00132397725247
-0.00330803357065
-0.00198675785214
0.000239547574893
-0.00146625062916
-0.000693588051945
0.000587849295698
0.00223756185733
0.00415858253837
0.00484121171758
-0.00215065293014
0.000301055813907
-0.00277511286549
0.00325965532102
0.00652502290905
-0.00314194359817
-5.71236050746e-05
-0.00368990027346
-0.00604798551649
0.00389685970731
0.00417034607381
-0.00382701028138
-0.000413719157223
-0.00109610334039
0.014013485983
0.00163502467331
-0.00241427007131
-2.89883955702e-05
-0.000522905960679
-0.00166922574863
0.00576935708523
0.00398692954332
-0.00771174766123
0.000796656066086
0.00224437774159
-0.00178468984086
-0.00226273923181
-0.00287640886381
-0.00045214171405
0.00152962200809
0.000213330771658
0.00898421835154
-0.000895277771633
-0.00241125514731
-0.0008206772618
-0.000923601794057
-0.00356965325773
-0.00267712725326
-0.00140935287345
0.00176086986903
-0.00296755624004
-0.000742786156479
0.00663914717734
-0.00149588112254
-0.000962207443081
0.00119741703384
0.00683222152293
0.0235426612198
0.00261675822549
0.00143599847797
0.00233099074103
0.000319675920764
0.00134657637682
-0.00196244940162
0.0035115161445
0.00120646168943
-0.00211324286647
0.000583800079767
-0.000113178917672
0.00113188754767
-0.000744225049857
0.00657945778221
-0.00206466112286
0.00572617864236
0.00438288785517
0.00793122593313
0.00166324269958
-0.00247861118987
0.00167037150823
0.00167188956402
0.0034049062524
-0.0052600838244
0.000522429181729
0.000535212922841
-0.000451791886007
0.00587907806039
0.00372254522517
0.00718960678205
-0.00514579704031
-0.00246182316914
0.00234231771901
-0.00208723102696
-0.00255768420175
0.00674999691546
0.00747138215229
0.00311830337159
-0.00178585655522
-0.00183659524191
0.00300782895647
0.00404614908621
0.00100696482696
-0.00011588545749
0.000955523690209
-0.00499460985884
6.03623302595e-05
-0.000738304865081
0.00189499557018
-0.00218718149699
0.00775797432289
-2.33911505347e-05
0.00029723267653
0.000944664585404
-0.0024207290262
0.00288481870666
0.00146489264444
-0.00357483862899
0.00195545400493
0.00483166752383
-0.00231845979579
0.00838796328753
0.000657303840853
0.0100132813677
0.0104223033413
-0.000252229190664
0.00945043005049
-0.00410870276392
0.00672168470919
-0.00557076744735
-0.0011757024331
0.0010186159052
-0.00013355637202
0.00512493494898
-0.00117559323553
-0.00111714540981
-0.00029817520408
0.0017931581242
0.00448920112103
-0.00338929868303
0.00286368303932
0.000214402316487
-0.00428769085556
0.00228076893836
-0.0016646690201
0.00121913501061
-2.30949572142e-05
0.00666264304891
-0.000303210894344
-0.000722096068785
-0.000980849377811
0.00683228252456
-0.00106046581641
0.0019249204779
-0.00153729936574
0.00292295170948
0.0148619553074
0.00140888104215
-0.00388660863973
-0.000602631829679
0.00224030483514
-0.00114859128371
0.00363457528874
0.00609222427011
-0.000644443323836
-2.78714469459e-05
-0.00200719642453
0.00354809849523
-0.000565712223761
0.00369371590205
0.00666030403227
0.00639530783519
0.0011209450895
-0.000245135714067
-0.00115940615069
0.00198523025028
-0.00150387757458
0.00615568784997
-0.0034763624426
-0.00161314720754
0.00224051158875
0.00175681163091
0.00383211579174
0.0045672240667
-0.000944153871387
0.013449838385
-0.000122838551761
0.00183623773046
0.00116017449182
-0.00129243161064
-0.00126923120115
-0.000978698953986
-0.000225079857046
-0.00174135761335
-0.00342754996382
0.011537658982
-0.00352662801743
-0.00247098854743
-0.000351219699951
0.0013101506047
0.00141354638617
0.00216412078589
0.00103223114274
-0.00248068408109
-0.00606848159805
-0.00154708256014
0.000909280206542
0.00177104549948
-0.00159561436158
0.00160728872288
-0.00161080318503
-0.000506810436491
0.000574599078391
-0.0029841742944
-0.00144502881449
0.000963427999523
-0.00296594249085
-0.00117294793017
-0.00662011699751
0.00433068023995
0.00533111346886
0.00246850936674
0.00144368282054
0.000494372914545
-6.78101205267e-05
0.00556984497234
0.00265355105512
-0.00232599978335
-0.00715802237391
0.00830490142107
0.00410980824381
-0.000352012284566
0.00269858678803
0.00500057032332
0.00117015861906
0.000368842796888
0.000603511056397
-0.000438795570517
0.00219536176883
0.00302128307521
0.00193229538854
8.30915087136e-05
0.0121724037454
0.000286662718281
0.00970001425594
-0.00134251709096
-0.00132741290145
0.00193535338622
-0.000623070984147
0.000510532117914
-0.00241206376813
0.00136334937997
0.00616225600243
0.00559737673029
-0.00185809226241
-0.00299635552801
0.000440923933638
0.00366784958169
-0.00130490027368
-0.00298271607608
-0.00138645945117
0.00106121005956
-0.00120003055781
-0.00102970504668
0.0013934666058
0.00160129508004
0.00351884402335
0.0054390206933
-0.00312329200096
-9.72908528638e-05
-0.00324514252134
0.00214131362736
0.00739477900788
-0.00171784299891
0.000977666582912
-0.00480152666569
-0.00642756000161
0.002759660827
0.00394359463826
-0.0031880796887
-0.000614212767687
-0.000526735326275
0.0137798758224
0.00185425602831
-0.00187519134488
0.00042337164632
0.000743354554288
-0.00186473387294
0.00637310510501
0.00350813637488
-0.00675207935274
0.000843685644213
0.00252232188359
-0.000596141733695
-0.000575844198465
-0.00394004397094
0.00121812918223
0.00217379932292
0.000941723759752
0.00730285840109
-0.000640915823169
-0.00117909919936
0.00107777677476
-0.000387953507015
-0.0033686151728
-0.0019031802658
-0.00133821356576
0.00197589909658
-0.00308464141563
-0.00117610173766
0.00772950798273
-0.00274162995629
-0.000707619648892
0.000844132213388
0.00769823556766
0.0236168280244
0.00283079850487
0.00177443493158
0.00336159882136
0.000512930797413
0.000790589489043
-0.00246867863461
0.00273235561326
0.00087407353567
-0.0027598219458
0.00185455894098
-0.000156048685312
0.000817325082608
-0.00129062635824
0.00688591087237
-0.00129387155175
0.00557058816776
0.00418820092455
0.00682283565402
0.00191282387823
-0.00202776421793
0.00232279393822
0.00251325848512
0.00486160535365
-0.00519447680563
3.22320079249e-06
0.000287522940198
-0.00140509358607
0.00660925125703
0.00407330598682
0.00800900999457
-0.00524342153221
-0.00252250838093
0.00242243357934
-0.00176739052404
-0.00263870623894
0.00622234214097
0.00765907811001
0.00413687946275
-0.00180960039143
-0.000778777059168
0.00297994096763
0.00519392965361
0.000242345253355
0.000599610735662
0.000210766418604
-0.00399375753477
0.000795605941676
0.00087897782214
0.00114845205098
-0.0016004286008
0.00781125482172
-0.000420208263677
0.000121921162645
-0.000622558698524
-0.00208310806192
0.00342521746643
0.00161220307928
-0.00389585201629
0.00092865654733
0.00363486818969
-0.001577572315
0.00770344724879
0.00195022032131
0.0119728976861
0.0101815145463
0.000128994797706
0.0105695491657
-0.00272125727497
0.00737984152511
-0.0066469698213
-0.000608339905739
0.00163690070622
-4.48782375315e-05
0.00544941052794
-0.000201738032047
-0.00142846279778
-0.000699440133758
0.00270425598137
0.00436343392357
-0.00318657443859
0.00295352144167
-0.00119042047299
-0.00411682901904
0.00352335954085
-0.000321041967254
0.00146665784996
-0.000592107884586
0.00660976441577
-0.00129287294112
-0.00105706998147
-0.00122209917754
0.00575901381671
-0.000836651190184
0.00295628071763
0.000204082622076
0.00313714705408
0.0156350005418
0.00233061774634
-0.00304622715339
-0.00113428337499
0.00144594744779
-0.00105052697472
0.00500247068703
0.00565330497921
-0.0019093605224
-0.000161893287441
-0.00163311080541
0.00305298576131
-0.00200145202689
0.00302591128275
0.00712751597166
0.00545853748918
0.00186985800974
0.00193801196292
-0.00211761542596
0.000969548709691
-0.00193014321849
0.0066011310555
-0.00361067429185
-0.00109776167665
0.001885575708
0.00128512480296
0.00377409113571
0.00357478577644
-0.0016107512638
0.0138418059796
-0.000253657752182
0.000719964038581
0.000420447293436
-0.00214035739191
-0.00237497058697
-0.00189652678091
0.000622589664999
-0.00130424590316
-0.00251655979082
0.0101530561224
-0.003679018002
-0.00279798568226
-0.000785447540693
0.00154175842181
0.000390712957596
0.00130291213281
-0.000635147385765
-0.00364072318189
-0.00563097978011
-0.00187468284275
-0.00015711953165
0.00155760894995
-0.00251452811062
0.00115979486145
-0.000996557879262
0.000499716785271
-0.000828780699521
-0.00350655987859
-0.00156967446674
0.00207231217064
-0.00311531708576
-0.00221736193635
-0.00611204886809
0.0035086334683
0.00432395655662
0.00222321832553
0.000205457617994
-7.1627109719e-05
-0.000672023394145
0.00490986695513
0.00150936166756
-0.00184663536493
-0.00715331407264
0.00849648378789
0.00460330350325
-0.0015901257284
0.00196110527031
0.00375695666298
-0.000383457401767
0.000385161285521
0.00065363093745
0.000136821938213
0.00218989118002
0.0035051186569
0.0024940634612
-4.79908486284e-08
0.0116281788796
-2.90103889711e-05
0.00779678486288
-0.000835334125441
-0.00310373702087
0.000461991905468
-0.00247268029489
-0.000621439015958
-0.0019136692863
0.00205328152515
0.00717590749264
0.0051212143153
-0.00289994315244
-0.00128311896697
0.000947344815359
0.00377675681375
-0.00157941109501
-0.00289418874308
-0.00277897645719
-0.000534723687451
-0.00221140217036
-0.00196197093464
0.00065039092442
0.00123031041585
0.00412007980049
0.00529441703111
-0.00342273921706
-0.000616095901933
-0.00343732931651
0.00255717500113
0.00598637992516
-0.00235528801568
0.000346383953001
-0.00408698245883
-0.00529707781971
0.00212421431206
0.0026997665409
-0.00325425085612
-0.000391627341742
-0.00180126796477
0.0148511808366
0.00195369962603
-0.00242583197542
8.80983570823e-05
-7.56906738388e-05
-0.00334255280904
0.00694829598069
0.0029715183191
-0.0060145817697
-0.000218509623664
0.000435909634689
-0.000601762556471
-0.00239307805896
-0.00333257368766
-0.000305865949485
0.00154988991562
0.000571860000491
0.00841153040528
0.000139599360409
-0.00329228304327
0.00186853692867
-0.000298728555208
-0.00281227706
-0.00219768611714
-0.00131546834018
0.00274763861671
-0.00381736829877
-0.0033212355338
0.00647197617218
-0.00217690761201
-0.000623840198386
0.000384845247027
0.00634767813608
0.022902181372
0.0028694071807
0.000949230452534
0.00332133541815
0.000461021700175
0.0021163453348
-0.0027337835636
0.00149105803575
0.000901451916434
-0.00232189311646
0.00199757632799
3.79564130526e-06
0.00175013428088
-0.00148475065362
0.00552685372531
-0.00119189522229
0.00512442411855
0.00392236514017
0.00674353446811
0.0014102346031
-0.00096332229441
0.000783725467045
0.000877287006006
0.00366571708582
-0.00472621433437
-0.000841587956529
0.000912695017178
-0.00228814641014
0.00575465336442
0.00207136990502
0.00546980416402
-0.00513667659834
-0.00296555715613
0.00151450640988
-0.00224172114395
-0.00352460495196
0.00629266677424
0.00666004652157
0.0041033802554
-0.00265294895507
-0.00151908176485
0.00274986121804
0.00502298679203
0.000224684001296
0.000773551466409
-0.000880423001945
-0.00353393377736
-0.000240729539655
-0.000703888072167
-0.000149923813296
-0.00239318353124
0.00713109457865
-4.59941911686e-05
0.00118441018276
0.000313726661261
-0.00273198052309
0.00256263115443
0.000994896166958
-0.00243899249472
0.000758473819587
0.00291970209219
-0.000459921633592
0.00805067550391
0.0017035708297
0.00967164803296
0.010757396929
0.00136247603223
0.00774322589859
-0.00380418612622
0.00508355069906
-0.00620439322665
-0.00124059023801
0.00255192629993
-0.00010890680278
0.00483999121934
0.000269206590019
-0.00111841212492
-0.00123404129408
0.00171188591048
0.00381229352206
-0.0035432477016
0.00290139717981
-0.00165613589343
-0.00356073747389
0.00412445142865
9.3213377113e-05
0.00186820479576
-0.000638554745819
0.00613721180707
0.000194440464838
-0.000389389140764
-0.000594943587203
0.00680108275265
-0.000542300054803
0.00209956499748
-0.000335840246407
0.0050826757215
0.0130187748
0.00217263191007
-0.00414960179478
-0.000955973053351
0.000867207476404
-0.00264237169176
0.00380077492446
0.00533335376531
-0.00175377319101
-0.000817208958324
-0.00110268173739
0.00170877971686
-0.0018640360795
0.00275741331279
0.00625551631674
0.00555115006864
0.00116214319132
0.000433815352153
-0.00271996483207
0.000939159654081
-0.00102409115061
0.00485160946846
-0.00397421093658
-0.000695983879268
0.00142772553954
0.00201459461823
0.00246934825554
0.0029325610958
-0.00235909852199
0.00900252815336
-0.000886015361175
0.00068896682933
0.000216080137761
-0.00221436819993
-0.00077659660019
-0.00118507945444
-0.000781185459346
-0.000405275262892
-0.00239631487057
0.00732139591128
-0.00349351624027
-0.00330422213301
-0.000586690963246
0.00157265819144
0.000188533915207
0.00176942010876
-0.000598080456257
-0.00352172693238
-0.00771027710289
-0.00253420579247
-0.000544106180314
0.000584031397011
-0.00111704703886
0.00131484121084
-0.00120365770999
-0.00117882108316
0.000411443092162
-0.00299547961913
-0.00112509843893
0.000868492352311
-0.00235344120301
-0.00228993734345
-0.00674245040864
0.00400419672951
0.00254968437366
0.00284395529889
-0.00051049538888
-0.000514980929438
-0.000549176591448
0.00534195033833
0.000854377984069
-0.00216675922275
-0.00951272528619
0.00526537839323
0.0040911687538
-0.00130418199115
0.000896044250112
0.00270444503985
-0.00189575436525
-0.000526133808307
0.000267028313829
-0.000656480609905
0.00162299745716
0.00292213424109
0.00156738527585
-0.000522086804267
0.00958245806396
-0.00106879440136
0.00876167509705
-0.00204141833819
-0.00257186661474
0.000597823702265
-0.00247355247848
-0.000439781870227
-0.0033182434272
0.00088319653878
0.00523655861616
0.00452946871519
-0.00256544048898
-0.00288243941031
0.000747250276618
0.00468708341941
-0.000887615140527
-0.00256557622924
-0.000808456505183
-0.000211513441172
-0.00136431399733
8.85431218194e-05
0.000642186088953
0.000480029935716
0.00356494472362
0.00384581531398
-0.00231639435515
-0.00135286629666
-0.00215985905379
0.00155276316218
0.00559275317937
-0.00107285799459
-0.000132561617647
-0.00359113933519
-0.00553375156596
0.00112189538777
0.00306595442817
-0.00310783786699
8.94258118933e-05
-0.000633578456473
0.0123800709844
0.00301977712661
-0.00201454176567
0.000638013530988
0.000602865533438
-0.00265233428217
0.00640836823732
0.0030125931371
-0.00619336729869
0.000980304786935
0.00140030123293
-0.00156201026402
-0.0031081144698
-0.00241780630313
-0.000806326163001
0.000393232563511
0.000103847400169
0.00640172651038
-0.000491248094477
-0.00252733961679
0.00160939781927
-0.000853076693602
-0.00278891436756
-0.00322335003875
-0.00271211378276
0.00118886015844
-0.00388779863715
-0.00293342978694
0.00499742757529
-0.0021021864377
-0.000682038196828
-9.78501047939e-05
0.0053612315096
0.0173908602446
0.00187167758122
0.000673176720738
0.00146138481796
0.000465685065137
0.00115116580855
-0.00298589561135
0.00179893476889
0.000351542286808
-0.00204698764719
0.00152477715164
6.34532625554e-05
0.00125196494628
-0.0005972586805
0.00499537633732
-0.00201300252229
0.00504916952923
0.00344223505817
0.00618312694132
0.000964539765846
-0.00216975528747
0.000561699969694
0.00073944387259
0.00346531323157
-0.00600015511736
-0.00133801810443
0.000591044139583
-0.00189461838454
0.00689962133765
0.00248392834328
0.00468752486631
-0.0051684291102
-0.00244305585511
0.000583000597544
-0.00156716641504
-0.00143552012742
0.00490734074265
0.00715209823102
0.00293085630983
-0.0013615784701
-0.00193203322124
0.00200748769566
0.00343044684269
-9.84452053672e-05
0.000239056666032
0.000273847748758
-0.0037098811008
0.000349434529198
-0.000397348630941
0.000888209731784
-0.002350037219
0.0069448244758
0.000778892135713
0.000614781107288
-0.000683953054249
-0.0018477847334
0.00219110283069
0.000493301660754
-0.002865081653
0.000437367765699
0.00302168144844
-0.00118700566236
0.00632393546402
0.000941696285736
0.00878529716283
0.00840567611158
-0.000208289638977
0.00680185807869
-0.00409961398691
0.00536910351366
-0.00539575377479
-0.00111753749661
0.00093457091134
-0.000737178663258
0.00423232279718
-0.00104560726322
-0.000791710917838
-0.000239257948124
0.00133836187888
0.00262939976528
-0.00335660693236
0.00194094656035
-0.00131993507966
-0.00495927408338
0.00156308419537
-0.00146099575795
0.00161445245612
-0.00124430260621
0.00608632620424
-7.68529280322e-05
-0.000961677113082
-0.00206876941957
0.00546015473083
-0.00105483166408
0.00126376119442
-0.00104426138569
0.00460270326585
0.0128198415041
0.00162133993581
-0.00294897076674
-0.00204922654666
0.001615443849
-0.00182653823867
0.00267161871307
0.00516358809546
-0.00296222907491
-0.0014704389032
-0.003421330126
0.00152884691488
-0.00237245461904
0.00164188968483
0.00572436442599
0.00348187074997
0.000725986727048
0.00154154875781
-0.00214567035437
0.000948333472479
-0.00197488558479
0.00434738211334
-0.00247870036401
-0.00121247093193
0.000740501447581
0.00234617269598
0.000899108708836
0.0023558489047
-0.000440207571955
0.00409232731909
-0.00182618864346
0.000157065820531
-0.00125561247114
-0.00153732497711
-0.00196797028184
-0.0024261106737
0.000139804105856
-0.000560693850275
-0.00226805149578
0.00504494924098
-0.00311016198248
-0.00204899068922
-0.000654372386634
-0.000877037935425
-0.00136526441202
0.000124213242088
-0.000395685259718
-0.00480248732492
-0.00890429504216
-0.00312492717057
-0.000596960599069
0.00108314945828
-0.00179684418254
0.000107822488644
-0.00213571940549
-0.00174241093919
4.73333238915e-05
-0.00239641056396
-0.00181238597725
0.00102739688009
-0.00282822432928
-0.00151609641034
-0.00594109669328
0.00188721390441
0.0025043990463
0.00124441157095
7.68408863223e-05
-0.000371837086277
-0.00138036976568
0.00246354821138
0.000341883802321
-0.00204732804559
-0.00926665961742
0.00518324272707
0.00215857313015
-0.000557130901143
0.000275789730949
0.00286140455864
-0.000585783098359
-9.7883901617e-05
0.00100423186086
0.000222871181904
0.00040228429134
0.00191479967907
0.00010891934653
-0.00163982633967
0.00869853142649
-0.000585879839491
0.00608665123582
-0.00215994846076
-0.00381437689066
0.00116569874808
-0.00200547650456
-0.000551117584109
-0.00301896198653
0.0006427259068
0.00363529077731
0.00355250039138
-0.00237030442804
-0.00377363641746
0.000425325299148
0.00225452776067
-0.000848929455969
-0.00257836468518
-0.00131678208709
0.00011974026711
-0.00283277849667
-0.00142748083454
0.0011990343919
-0.000230697565712
0.00315010687336
0.00209890818223
-0.00208197464235
-0.00179064052645
-0.00251620379277
0.000971678760834
0.00495734484866
-0.00202514929697
-0.00121174729429
-0.00414464250207
-0.00562087120488
0.00144600321073
0.00211013201624
-0.00293768174015
-0.00075420824578
-0.0015567910159
0.0127583481371
0.000956367177423
-0.00178779265843
0.000409043481341
0.00202636048198
-0.00138605269603
0.0031534822192
0.00237707840279
-0.006000878755
0.000894787663128
0.00100279634353
-0.00303300120868
-0.00193767237943
-0.00393753498793
-0.000985887134448
0.000491503858939
0.000278373801848
0.00619474053383
-7.41593976272e-06
-0.00159684219398
0.00062655255897
-0.0011605496984
-0.00449666101485
-0.00176137592643
-0.00309361936525
0.00118504452985
-0.00338016124442
-0.00283200852573
0.00463584484532
-0.00247777160257
-0.00045223129564
-2.65468479483e-05
0.0035749420058
0.0116380788386
0.00120029808022
0.000556508079171
0.00132336711977
8.03070797701e-05
0.00107784650754
-0.00245078583248
0.0018689999124
-0.000129028485389
-0.000916351389606
0.000889529415872
-0.00124302390032
0.00249562039971
-0.00114924227819
0.003717553569
-0.00232914090157
0.00433269515634
0.0022411714308
0.0043990239501
0.00118141528219
-0.00260265124962
2.0592007786e-05
-0.000590503856074
0.00225298875012
-0.00889279600233
4.31572116213e-05
-0.000295768491924
-0.00295402063057
0.00410040421411
0.00147375452798
0.00358930532821
-0.00360483955592
-0.00154505670071
0.00134231662378
-0.00142602063715
-0.00249799550511
0.00484970863909
0.00543332705274
0.00262234406546
-0.00147386605386
-0.00186184269842
0.00142742483877
0.00237366976216
0.000851678662002
0.000239548709942
0.000444680073997
-0.00352943851613
-0.000940685509704
-0.00158401369117
-0.000158543567522
-0.0013826971408
0.0055516185239
-0.000927385233808
-0.00151690409984
0.000324099935824
-0.00252965069376
0.00216019107029
0.000437064911239
-0.00346871186048
0.00105972774327
0.00195702700876
-0.000566858565435
0.00679456628859
0.000907873676624
0.00570137938485
0.0073871971108
0.000778334564529
0.00448605138808
-0.00372594199143
0.00411538546905
-0.00542479241267
-0.000915926124435
0.000662172213197
-0.000654081988614
0.00356069370173
-0.00156436336692
-0.00193397898693
0.000111071414722
0.000732077751309
-0.00265496596694
-0.00292174099013
0.00134308461566
-0.000963109720033
-0.00633655581623
0.000641722464934
-0.000272816541838
0.000774668180384
-0.000991259585135
0.00505185173824
-0.000904158630874
-0.000132609173306
-0.000764982425608
0.00402098568156
-0.000965943851043
0.00141976086888
-0.00228818878531
0.00403580442071
0.0104269487783
0.001193262171
-0.00268968893215
-0.00141632312443
-7.71868944867e-05
-0.00191856175661
0.00252867978998
0.00266772508621
-0.00254504522309
5.13997256348e-05
-0.00196373718791
-0.000325498520397
-0.00215105782263
0.00154645566363
0.00454621389508
0.000789490004536
-0.0010388486553
0.00167363788933
-0.00221107830293
0.000809141376521
0.000285495450953
0.00320850941353
-0.00333619001321
-0.0016965684481
0.00115145847667
-0.000360890058801
-6.9096146035e-05
0.000318973790854
-0.00107046531048
0.0041984487325
-0.000744880642742
-0.00166334805544
-0.000905234366655
-0.00217535160482
-0.00151741993614
-0.00186069612391
-0.00146194593981
-0.00143341859803
-0.00251429830678
0.00028463525814
-0.00294540240429
-0.00265893130563
-0.000927559041884
0.000465773919132
-0.00191464088857
-0.00113563076593
-0.00171690585557
-0.00232212408446
-0.00527200242504
-0.00253717927262
-0.000572543009184
-0.00102450372651
-0.0020469930023
-0.0005183032481
-0.00153898750432
-0.000482903851662
-0.000303488777718
-0.00164522067644
-0.00215304363519
0.000926883716602
-0.00339562539011
-0.00189229380339
-0.00328763527796
0.000127360064653
0.00178780895658
0.000116843802971
-0.00132551952265
-0.000936542404816
-0.000604867644142
0.000673950708006
-0.00111059600022
-0.00259508145973
-0.00476029887795
0.00479586143047
0.000533570128027
-0.00268580578268
0.00154112884775
5.76774727961e-05
-0.00154766172636
-0.00101809354965
8.17320906208e-05
0.000109469292511
-0.00155368028209
0.00113758328371
0.00024775028578
-0.00111386366189
0.00587755069137
-0.00105151592288
0.00515010766685
-0.00177409802563
-0.00294985226355
0.000393022521166
-0.00207972317003
-0.00119166076183
-0.00221484294161
-0.00144309527241
0.00374972657301
0.00155690824613
-0.00143386272248
-0.00226176297292
0.00022453739075
0.00224979920313
-0.00093153573107
-0.00290414318442
-0.00156357616652
-0.000149250714458
-0.00236040283926
-0.000890892057214
-0.00160087493714
-0.000771704537328
0.00161679892335
0.00243736663833
-0.00365476333536
-0.00194916978944
-0.00198475271463
0.000638739787973
0.00117380998563
-0.00254603801295
-0.00193134008441
-0.00331212254241
-0.00304199103266
0.00112978590187
0.0017197872512
-0.00285983877257
-0.00152382219676
-0.0018924191827
0.0090483147651
0.00121799274348
-0.00056205742294
-0.000313932017889
0.00153183820657
-0.00253093848005
0.000532072910573
0.00153800251428
-0.00304438895546
-0.00160266517196
0.000200247814064
-0.000633580493741
-0.00214247079566
-0.00276700383984
-0.00115020526573
8.16442552605e-05
0.000682568468619
0.00320246932097
-0.00127391354181
-0.00173580471892
0.000426182203228
-0.00110570155084
-0.00366985471919
-0.00239627063274
-0.0019942370709
0.000427431659773
-0.00243104039691
-0.00107398652472
0.00313775800169
-0.00232924101874
-0.000264367175987
-0.000713765737601
6.99658485246e-05
0.0103077441454
0.000699893571436
-0.0018310227897
-0.000760743452702
-0.00151807477232
-0.00172022473998
-0.00289377570152
0.000547431409359
-0.00120202125981
-0.00132599100471
0.000817098713014
-0.000690668297466
0.00343654211611
0.000391865614802
0.00215604552068
-0.00166806334164
0.0037694638595
0.00220824312419
0.002327992348
-0.000431460852269
-0.00272488663904
-0.000741146679502
-0.000784471165389
0.000522859743796
-0.00506724091247
-0.000986513099633
-0.000248852622462
-0.00230508018285
0.0028355892282
0.00236782152206
0.00121932360344
-0.00198125164025
-0.00250529684126
0.00111206097063
-0.00235227611847
-0.00214465544559
0.00361260096543
0.00384215312079
0.00176913943142
-0.00161966867745
-0.00224911188707
0.00207443791442
0.000565568625461
0.000767664110754
-0.000440806848928
-0.00125332258176
-0.0045957127586
0.000482000847114
-0.00190912326798
-0.00141551787965
-0.00242928694934
0.00367825292051
0.00108383805491
0.000818349886686
-0.000738711736631
-0.00244641699828
0.000506059557665
-0.000435916183051
-0.00432239659131
-0.000140170683153
0.00202476815321
-0.0010933179874
0.00465051690117
-0.00069934577914
-0.000208700526855
0.00528106465936
0.00126364396419
-0.000495593296364
-0.00219191634096
0.00146510265768
-0.00419626804069
-0.0017492986517
0.000939390447456
-0.000590868410654
0.00143699138425
-0.00104888482019
-0.000694513437338
6.03630724072e-05
0.000612099538557
-0.00129075907171
-0.00222621322609
0.00119744439144
-0.00167877785861
-0.00647651683539
0.00222240644507
-0.000468848535093
0.00204488728195
-0.00197940086946
0.00355258560739
-0.000778650515713
-0.00150245963596
-0.001414218219
0.00144378049299
-0.00111682224087
-0.000936464755796
-0.0011284610955
0.00502530438825
0.00587908690795
0.00224555865861
-0.00240849680267
-0.00266208709218
-0.00117577239871
-0.00242855446413
0.00343658961356
0.00241265166551
-0.00221143290401
-0.000530479766894
-0.00222631799988
0.00115091574844
-0.00181328796316
0.00170351471752
0.00314150727354
-0.000391144567402
-0.00142540992238
0.0017387859989
-0.00194873777218
0.00210259458981
0.000729496649001
0.000749641621951
-0.00179784407374
-0.0016312188236
0.000964202859905
-0.000691077439114
-0.00101959554013
0.000288567127427
0.000129413980176
0.0011967793107
-0.000763209362049
-0.00163552165031
-0.000578875071369
-0.00203078822233
-0.00148112722673
-0.00127503310796
-0.00182459328789
-0.00121131888591
0.000457684684079
-0.000883832108229
-0.00158823421225
-0.00125966395717
-0.000259113963693
0.00163223478012
-0.00300548318774
-0.00159462320153
-0.00192256434821
-0.00127368303947
-0.00181141356006
-0.0015853313962
-0.00142488535494
-0.000970438821241
0.000310072384309
-1.28555093397e-05
-0.00030078747659
-0.00018641637871
-0.00050467508845
-0.000583098269999
-0.00237276148982
0.000334717653459
-0.00162522273604
-0.00220622029155
-0.000992548768409
-0.00155601138249
0.00174083153252
-0.000262268091319
-0.000329628528561
-0.000326084555127
-0.000848005351145
-0.00182358978782
-0.000355100666638
-0.0008083958528
-0.00246755010448
0.00226982450113
-0.000245160073973
-0.0017295491416
0.00010247418686
-4.96848733746e-05
-0.00187015079428
0.000294005702017
0.00105681316927
0.00219759740867
-0.00157367205247
0.000746492005419
7.17015645932e-05
0.00015534053091
0.002278275555
-0.000918378995266
0.00336480909027
-0.00174186308868
-0.00128271128051
0.000674186798278
0.000310446455842
-0.000559514039196
-0.00108798360452
-0.000718695693649
0.00352037628181
0.00149264466017
-0.000497536675539
-0.00110044528265
-0.000900745159015
0.00287903123535
0.000167630452779
-0.0012983281631
-0.00110047881026
0.000907532637939
-0.00121236336417
-0.000857574807014
-0.000245559785981
-0.000540281878784
0.00299815624021
0.0014330066042
-0.000364725186955
-0.000798701134045
-0.00147579645272
-0.000520038942341
-0.00051665934734
-0.00253788754344
0.000130439962959
-0.00145656161476
-0.00125935475808
0.00211606081575
0.00160877627786
-0.00141553964932
0.00048603900359
-0.00113513262477
0.00484934682027
0.00119210989214
-0.000532467558514
0.00247530383058
0.00299870269373
-0.00184011540841
-0.00103995925747
0.00192830269225
-0.00103832525201
-0.00133618514519
-6.69764631311e-05
0.000805806950666
-0.00123216607608
0.000525986775756
-0.000522338785231
0.000720968935639
0.000444463919848
0.00121029501315
-0.00112112879287
-0.00143457925878
-0.000976196432021
-0.00023488808074
-0.00386042520404
-0.00206877640449
-0.00149463349953
0.000269351294264
-0.00163735065144
-0.00131748279091
0.00239846319892
-0.00162858015392
0.00127460889053
-0.00315291527659
1.52014818013e-05
0.00612170668319
0.0014611131046
-0.00141142425127
-0.00155915378127
-0.000295338046271
-0.000910084927455
-0.00272874603979
-0.00123413850088
-0.00152672152035
0.00150613824371
-0.00082388042938
0.000754886888899
0.00300814746879
0.000409789936384
0.000532464357093
-0.00133097940125
0.00185092771426
0.001250250265
0.00219159084372
0.000173526961589
-0.00100077595562
-0.00113597756717
-0.000777938344982
-0.000111215333163
-0.0026992126368
-0.000675725808833
0.000249170407187
-0.00156283541583
0.00148395437282
0.000713996065315
-0.00127980031539
-0.00175415189005
-0.000488113728352
0.0020751033444
-0.000771250459366
-0.0014047002187
0.00122644612566
0.000668737164233
0.00194381573237
-0.00105018273462
-0.00060705805663
0.00177643471397
-0.000131638502353
0.00204241694883
-0.000737076858059
-0.0018667888362
-0.000755113258492
0.00106422789395
-0.00195714714937
-0.00173876411282
-0.000974351307377
0.0027727431152
0.000279772182694
-0.000308603950543
-0.000501592236105
-0.000895165314432
0.00150298455264
-0.000763733580243
-0.00211296859197
0.00155086198356
0.00174513482489
0.000157457732712
0.00412082159892
-0.000837051717099
9.39073142945e-05
0.00412718905136
-0.000560416898225
-0.00141150341369
-0.00106660835445
0.000164262455655
-0.0014796545729
5.65082809771e-05
0.00119532481767
-0.000881859101355
0.00122144329362
-0.00144021410961
0.000384329527151
-0.0015366084408
-0.000470297934953
-0.00310989958234
-0.00138573360164
0.00138203275856
-0.000108887790702
-0.00302533851936
0.00160136946943
0.00113802275155
0.00139839504845
-0.00139106449205
0.0031800493598
-0.000362979422789
-0.00151335936971
-0.00080698239617
-0.00124776025768
-0.000776962202508
-0.00277082785033
-0.00180727569386
0.00484461337328
0.00402507092804
0.00236710440367
-0.00143172685057
-0.0012055846164
-0.000311274256092
-0.00111365423072
0.00440767081454
0.00270956428722
-0.00169963191729
-0.000370802939869
-0.00115282309707
-0.00109040655661
-0.00180522690061
0.000185035765753
0.00315309176221
-0.00230696750805
-0.00205747946166
0.0019605201669
-0.00135369878262
0.00182236812543
0.000436090456787
0.000268585397862
-0.00179423671216
-0.000658874458168
0.0017096955562
-0.000438396557001
-0.000496399297845
0.000490752921905
-7.17150214768e-06
0.0024075540714
-0.000554269296117
-0.00219725235365
-0.00133464904502
-0.00151525624096
-0.00122389709577
-0.000662231526803
-0.0015176065499
-5.20911125932e-05
-0.000167450751178
-0.0039721946232
-0.000806147872936
-0.00131418486126
-0.000419942807639
-0.000169010192621
-0.00314386212267
-0.00143691105768
-0.000889377319254
0.000534699356649
-0.00127978331875
-0.0016816360876
-0.000351422873791
-0.00285539613105
-0.000832409947179
-0.000863620487507
-0.000706077320501
0.000710349646397
0.000258498359472
-8.49281204864e-05
-0.000689722248353
-0.000430652406067
-0.00198908662423
-0.00236625270918
-0.000380920653697
-0.002370408969
0.00159995106515
-0.00209022173658
-0.000576180696953
8.51319855428e-05
-0.00114297913387
-0.0018935513217
-0.000758166017476
-0.000875195255503
0.000579897081479
0.00175080425106
-0.00048943416914
-0.00273903575726
0.00011843759421
-0.00135554024018
-0.0019122690428
-0.000349079840817
0.000735588604584
0.00122807326261
-0.00293121160939
0.000868066039402
-9.75317525445e-05
-0.000584080640692
0.00106568727642
-0.000180313145393
0.00266652321443
-0.0025539973285
-0.00133062235545
0.000559552689083
-0.000468048354378
-0.00119107891805
-0.00184721837286
-0.000765249074902
0.00274568307213
0.000293836870696
-0.000734338711482
-0.00125782424584
0.000524100789335
0.00278530805372
0.000213479812373
-8.12291837065e-05
-0.00149808917195
0.000334852142259
-0.000716356909834
-0.000584383204114
0.000339015939971
-0.00317980581895
0.0013033564901
0.000865069159772
-0.000721073942259
-0.00133073737379
-0.000253736943705
-0.000624464184511
-0.00307557731867
-0.00168015470263
-0.00193859951105
-0.000218262968701
-4.39851100964e-05
0.000460978946649
8.29388809507e-05
-0.00160220765974
-0.00179658841807
-0.000655079667922
0.00216937065125
-0.000803448085207
0.000297504360788
0.00107173202559
0.000819840992335
-0.00226109148934
-0.00298100803047
0.00243776105344
0.000123097721371
-0.001850330038
0.000156132024131
0.000867458002176
-0.00181253568735
9.24200139707e-05
-0.0012785801664
-8.69124560268e-05
0.00108621944673
2.03595409403e-05
0.000692130881362
-0.00228979252279
-0.00186448404565
-0.00116958923172
-0.00197212793864
-0.000954255461693
-0.001413950813
-0.000982276163995
-0.00137396692298
-0.000735020323191
0.00204780534841
-0.00158142135479
-6.71989691909e-05
-0.00177412875928
-0.00406888080761
0.00699511962011
0.00121915014461
-0.00140732398722
-0.0018014657544
-0.000531229132321
-0.00234155752696
-0.00186400674284
-0.00173764466308
-0.000952413189225
0.00212272908539
0.000449494458735
0.000241758447373
0.00591123569757
-0.0010312278755
-0.000247272022534
-0.000913550844416
0.00131992984097
0.00102358474396
-0.000160073541338
-0.000786719843745
-0.00115904188715
-0.0025279680267
-0.00172278925311
-0.000545974005945
-0.000851679011248
-0.000149081184645
-0.000501451315358
-0.000855037185829
0.000709312094841
-0.000128232990392
-0.00221095583402
-0.000295646052109
-0.00131544179749
0.00180962646846
-0.00117143790703
-0.000446715566795
0.00166723784059
-0.00202812673524
0.00139893405139
-0.000155596688273
-0.001585694612
0.000889308692422
-0.000242255628109
0.00310998922214
-0.000920867838431
-0.000953091192059
0.00014365169045
-0.000387643784052
-0.00229347706772
-0.00250058108941
-0.000394477858208
0.000862756161951
-0.000412145600421
0.000591900607105
-0.00150026602205
-0.00148299627472
-0.000741018971894
-0.00120613444597
-0.00183941947762
0.000702973338775
0.00216463231482
0.000164785873494
0.00146875798237
0.000350037880708
-0.00451902998611
0.00127338175662
-0.000549001502804
-0.00511805480346
-0.000254766171565
-0.00302809663117
-0.000618452206254
-0.00048370170407
0.000776135537308
-0.000665655650664
0.000294518918963
-0.00128250592388
0.000665089348331
-0.0010344022885
-0.00123159552459
0.000230419042055
-0.00114592548925
0.000665799307171
-0.00113396835513
-0.000755553541239
0.00221511325799
0.00112919113599
0.00133416778408
-0.00109916669317
0.00279736076482
0.00063574075466
-0.00139346159995
-0.000424672674853
-0.00356904766522
-0.000735328183509
-0.00330294389278
-0.0010512341978
0.00615371856838
-0.00112942093983
0.00176785711665
-0.00115519121755
-0.00138801161665
-0.000221997877816
-0.000610429095104
0.00351042184047
0.0014899634989
0.000343206396792
0.000238079985138
-0.000412708584918
-0.000883752829395
-0.00188659038395
0.00093654030934
0.00199603964575
-0.00251952582039
-0.00210765772499
0.000664123625029
-0.000235883402638
0.00214790483005
0.000693880720064
-0.000416015391238
-0.000706347869709
-5.45972543478e-05
0.00206390628591
-0.000542230496649
-0.00165386113804
-0.000238610271481
3.4485339711e-05
0.00291660521179
-0.000221707479795
-0.00137693295255
3.63350372936e-05
-0.000926177948713
-8.34632955957e-05
0.000594645622186
-0.000119038231787
0.000653954164591
-0.00059284560848
-0.00327235646546
-0.000584530935157
0.000345083797583
0.000415007118136
-0.000428023602581
-0.00242159073241
-0.00147246639244
-0.000422763871029
-0.000852029887028
-0.000331272487529
0.000772179220803
-0.000217001594137
-0.00210824958049
-1.01563010446e-07
-0.000379421078833
0.000146854712511
0.000323338608723
-2.69961637969e-05
0.000332156545483
-0.000545331684407
-0.000669224420562
0.000432735454524
-0.000758144073188
-0.000189468686585
-0.00274128117599
0.000466254714411
-0.00132207677234
-3.0642382626e-05
2.88768951577e-05
-0.000474371190649
-0.00116063514724
-0.000984377227724
-0.000320258433931
-0.000242804337176
0.00105418637395
-0.00112028699368
-0.00181304791477
0.00118640053552
-0.00146469229367
-0.000925481668673
0.000863486493472
0.000638697238173
0.00131655833684
-0.00113180442713
0.000578106555622
0.000189289828995
-5.97220241616e-05
-0.00230902084149
0.000182757576113
-0.000535532948561
-0.00110887608025
5.31073565071e-05
0.00184037827421
0.000337260833476
0.000102842852357
-0.000367802218534
-0.000379915145459
0.00243726326153
-0.000168115715496
0.000364188716048
0.000808769371361
-0.000354474876076
0.00252814032137
-0.000348168279743
-0.000379394361516
0.000100055796793
-0.000184470423847
0.000141134645673
-0.000186635836144
-1.04243451915e-06
-0.000806197582278
0.000842424866278
0.000590509036556
-3.83185266628e-07
0.00052081537433
0.00046823930461
0.000171843203134
-0.00326482299715
-0.000840058142785
0.000297114369459
-0.000358041550498
0.000291464762995
0.0005795446923
-0.00015856671962
0.000699219759554
0.000386160216294
-2.25474159379e-05
-0.00147598073818
-0.00167091120966
0.00184548727702
0.00100398773793
0.000109627821075
-0.000179128895979
-0.00289133074693
0.00177968433127
-0.000225873794989
-0.00030140846502
-0.000151360174641
-0.000431973428931
2.80915137409e-05
0.00109961291309
-0.000620282313321
0.000672176538501
0.00174153060652
-0.00148850225378
0.000907512905542
-0.00137782271486
-0.00210892269388
-0.000316608609864
-0.000801275949925
-0.000329156231601
0.000103559577838
-3.6348876165e-05
0.000265891983872
0.000471901497804
0.000677220814396
-0.000682273996063
0.000389241758967
-0.00188473251183
-0.0022253987845
0.00837813224643
0.000679327931721
-0.00112624187022
-0.0023618361447
0.000472869200166
-0.000151845990331
-0.000914463540539
-0.000922367558815
6.02025611443e-05
-3.5782228224e-05
-0.000253184291068
0.000133473105961
0.00398239120841
-0.000655773328617
-0.000729795894586
0.000877298531123
0.000594522338361
-5.75593003305e-05
-0.00055080873426
-0.000306005444145
1.0375490092e-05
-0.0023224549368
-0.00138460053131
-0.000567253329791
0.00120033521671
0.000652228074614
0.000607144844253
0.000306362519041
0.000600433209911
0.000882434542291
-0.00306189013645
-9.68946733337e-06
-0.000627206871286
0.00190083822235
-0.00112898845691
-5.79091247346e-05
0.000231450292631
-0.00275294226594
0.00140855670907
0.000655542942695
0.00019291730132
0.000567557872273
-0.000652891467325
0.00129910511896
-0.000949109497014
-8.71946103871e-05
0.000142168384627
-0.000124701429741
-0.00089559389744
-0.000610846793279
0.000132735745865
-0.00133282574825
-0.00136818597093
-3.67991269741e-05
-1.62121432368e-05
-0.000590958574321
0.000773196457885
-0.000386981788324
-0.0001609884348
0.00134995649569
0.00110452284571
0.000337884703185
-0.000858197745401
0.000939831021242
-0.00255306740291
6.90394808771e-05
-9.28416484385e-05
-0.00228754733689
0.0008599407156
-0.00236085569486
0.000113112910185
0.000386692176107
0.00104245776311
3.83323531423e-05
-0.00067719083745
-0.00119608698878
0.00100127188489
-0.000645017600618
-5.53000063519e-07
0.000922201608773
-0.000264032947598
0.000303630687995
0.000580661988351
-0.000121930454043
0.0011596698314
0.000667215732392
0.000503752322402
0.00101484905463
0.00261519104242
0.000558336731046
-0.00120604550466
-0.000874851190019
-0.00339647429064
0.000265517795924
-0.00196678144857
-0.000700782809872
0.00412017619237
-0.00136203493457
0.00117078772746
1.7956694137e-05
0.000630464113783
0.000805517251138
0.00024782444234
0.00288878660649
0.00146183324978
0.00109145476017
-0.000400357268518
1.19654641821e-05
-0.000472376239486
-0.000485762924654
-0.000428673898568
0.00200245017186
-0.00358400656842
-0.00107440515421
0.00128631759435
0.000594945624471
0.000627906818409
0.000410730339354
-0.0013880484039
8.4012041043e-05
1.30494418045e-05
0.00198321952485
0.00012899847934
-0.00144516851287
-0.000323200481944
0.000149707178934
0.00290969153866
8.75039258972e-05
-0.00121670181397
0.000440327392425
8.15387029434e-05
-0.000187763944268
-0.00110111036338
-0.000268564763246
-0.000316617020871
0.000583928078413
-0.00139187613968
-0.000371521862689
0.00056043319637
0.000709541840479
0.000954275776166
-0.00234475103207
-0.000939902791288
-0.000741230323911
0.000707922910806
-0.000591384421568
-0.000116773990158
-0.00227044476196
-0.00251374463551
0.000486801960506
0.000684303813614
0.000350838963641
0.000829909113236
-0.00175457936712
2.15083873627e-05
-0.000294881232549
0.000831178971566
0.000505479285493
0.000329895468894
-0.000524426111951
-0.00339554669335
0.000175299341208
-0.00129389541689
0.000254312617471
-0.000338297657436
3.18560305459e-05
-0.00222238223068
-0.000832510821056
0.000455060013337
-0.000297397724353
0.000212555663893
3.3488236113e-06
-0.00215467810631
0.000249090429861
-0.00113593798596
3.25137225445e-05
0.00062788563082
-7.27062206352e-06
-6.12077783444e-05
-0.00076494703535
0.000528868113179
0.000602116459049
-0.00163172907196
-0.00359935616143
0.000617315119598
-0.000471768667921
-0.00034185720142
-0.00123840651941
9.33980209084e-06
-6.76955241943e-05
0.000681274395902
0.00070148636587
9.01661260286e-05
0.00223876186647
-0.000677908363286
0.000290973024676
5.1789545978e-05
8.77130878507e-05
0.00142463005614
-0.000370137975551
0.0009586213273
0.000687999709044
3.49891229234e-06
0.000947722117417
0.000433506269474
0.000132522443892
-0.000759767193813
0.00086473999545
0.000445587560534
0.000636716664303
-0.00124454207253
-0.000255229941104
-0.000534622464329
-0.00313958548941
-0.00111272174399
1.57112735906e-05
0.000239150307607
0.000279303872958
0.00143346900586
0.000532036647201
-1.99931946554e-06
-0.000531515455805
0.000451692409115
-0.00308733806014
-0.00242245849222
0.000929146190174
0.00141675863415
-0.000405616301578
0.000472581072245
-0.00225629936904
0.00142017321195
-0.000603968044743
0.000175132357981
0.000574093719479
-0.000183344396646
0.000508686236572
0.000863658206072
0.000105785176856
0.000204924639547
0.000584446126595
-0.000647622160614
-0.000505121133756
4.35546680819e-05
-0.00170030305162
-6.34119278402e-05
0.000633387535345
0.00021401187405
0.00105937081389
0.00108621502295
0.00136939797085
-0.000442122080131
0.00029776446172
-0.000227589975111
0.00113059359137
-0.00213613221422
-0.00136557628866
0.00673466501758
0.000489761994686
-0.000981668825261
-0.00206353189424
3.20723920595e-05
-0.000503455870785
0.00069369020639
-0.00160729163326
-0.000832822057419
-0.000819455541205
0.000674149545375
0.00163992366288
0.00335657666437
-0.000692153931595
-0.00161420996301
-0.000317163678119
0.00048774809693
0.000948938715737
-0.000691725115757
9.70994733507e-05
0.000555641716346
-0.00270672747865
-0.00185377360322
4.05989667343e-05
-9.22577601159e-05
0.00139505218249
-9.81106204563e-05
0.00123440171592
-0.000926900480408
0.000504350522533
-0.00267231510952
-0.000439620722318
0.000100056895462
0.000805412651971
-0.000621927611064
0.000547078205273
0.000398081290768
-0.00174713414162
0.00161663710605
0.000495506217703
-0.000184667980648
0.000219948342419
-0.000896234880202
0.00099433795549
0.000504873576574
-0.000701073964592
-1.16528663057e-05
0.000270687538432
-0.000612055475358
-0.000624396954663
0.00046152737923
-0.0017914933851
-0.00128869351465
0.00182446104009
