-0.013029800728
-0.0157558359206
-0.0366668067873
-0.0277289897203
-0.0274892095476
-0.0381016097963
-0.0154118901119
-0.0232947692275
-0.0399718135595
-0.0278849396855
-0.0256926957518
-0.0250098630786
-0.0368966050446
-0.0351223982871
-0.0232237689197
-0.0096748098731
0.0771974772215
-0.0330496877432
-0.021912029013
-0.0224904045463
-0.0219161100686
-0.0116722127423
-0.02158992365
-0.0446432344615
-0.0199864376336
-0.0277043450624
-0.0196047462523
-0.0157299600542
-0.0218413267285
-0.0110314833
-0.024264190346
-0.0253210887313
0.0973283722997
-0.0321655087173
-0.0170352198184
-0.0292231738567
-0.0221446398646
-0.0214417297393
0.0178462304175
-0.040719166398
-0.0134021891281
-0.00974349305034
-0.0226271208376
-0.0252259112895
-0.0407745093107
-0.0416085235775
-0.0122789302841
-0.00621009571478
-0.0323513075709
-0.0380547903478
-0.0214055962861
-0.0365081131458
-0.0216198209673
-0.0222581978887
-0.02429645136
-0.0233196243644
-0.023576721549
-0.0396405756474
-0.00644748983905
-0.033583458513
-0.0341882929206
-0.0291434135288
-0.0337219201028
-0.030821595341
-0.0265403091908
0.00236128107645
0.00503205088899
-0.024672916159
-0.0342067368329
-0.018770005554
-0.0230589937419
-0.0393143184483
-0.00259581115097
-0.023618394509
-0.00852100178599
-0.0122317774221
-0.0334287434816
-0.0256936233491
-0.0201607812196
0.00440348871052
-0.0419071540236
-0.0109549667686
-0.019788140431
-0.0131138507277
-0.0384549498558
-0.0193245336413
-0.0262448173016
-0.0400339178741
-0.0247721709311
-0.0397449694574
-0.0190758202225
-0.0318352654576
-0.000107526109787
-0.0425823926926
-0.00820613652468
-0.0398730225861
-0.0293354075402
-0.0230782758445
-0.0161276943982
0.01411392726
-0.0349498614669
-0.0223083775491
-0.0182592552155
-0.0221948288381
-0.0219333041459
-0.0104215415195
-0.0267257746309
-0.024054730311
-0.0143311293796
-0.0200304090977
-0.0252838656306
-0.0235694702715
-0.0273432768881
-0.0248200055212
-0.0352691374719
-0.0195279549807
-0.0268489681184
-0.0220350865275
-0.0330993570387
-0.00941141135991
-0.00747528625652
-0.0245585832745
-0.0334171578288
-0.0267043672502
-0.0324466638267
-0.0251109022647
-0.0277994982898
-0.0355637148023
0.00324239581823
0.00762607948855
-0.0133028943092
-0.0150570720434
-0.0168851800263
-0.00569413043559
0.0175435803831
-0.0157509744167
-0.0307296868414
-0.00975117832422
-0.0119879571721
-0.0170161724091
-0.00903714261949
-0.00562895368785
-0.00306701962836
0.0153757128865
0.109541095793
-0.00860797986388
-0.0177645515651
-0.0171545185149
-0.0293649118394
-0.00648603634909
-0.0211286433041
-0.0210360120982
-0.0245845895261
-0.0198680330068
-0.0233504623175
0.0071917520836
-0.0175736602396
0.00558309070766
-0.0173605494201
-0.0202566999942
0.109393157065
-0.00551388598979
-0.0273280926049
0.0105571476743
-0.0230816397816
-0.0169279817492
0.012654052116
-0.0181185156107
0.00791924167424
0.0135354353115
-0.0168102830648
-0.0203222110868
-0.0183103512973
-0.00918073300272
-0.0132199181244
-0.00553941493854
-0.00471233017743
-0.00459127733484
-0.02588952519
-0.013605418615
-0.0174597129226
-0.0180942881852
-0.0225807651877
-0.0130033958703
-0.019385419786
-0.0073507251218
-0.0017810506979
2.13299226743e-05
0.00156152399722
-0.0162345971912
0.000656724500004
-0.0148021643981
-0.00171598012093
0.00214157090522
8.94345284905e-05
-0.0239427182823
-0.0112027442083
-0.0125894583762
-0.0192191209644
-0.00479886680841
0.0164383202791
-0.0214342363179
0.003589799162
0.0165413767099
0.000136833346914
-0.0132676996291
-0.0215255692601
0.00120077678002
-0.00802862737328
0.0195704624057
-0.0179476365447
0.0061845574528
-0.00479633128271
-0.0142243076116
-0.0110903372988
-0.0152045767754
-0.0180131364614
-0.0213724058121
-0.0116613488644
-0.0063768029213
0.000581045402214
-0.0139520904049
-0.00270420825109
-0.00608225399628
-0.0126154022291
-0.0165710411966
-0.0176155138761
-0.00864148046821
-0.00633181026205
-0.0238128621131
-0.0160930212587
-0.0208005979657
-0.0227158516645
-0.00721768150106
-0.0261037517339
-0.0209631621838
-0.0112752262503
-0.0266154520214
-0.0176361296326
-0.0222870819271
0.00455701258034
-0.0186623837799
-0.0154725806788
-0.0159029755741
-0.00473528448492
-0.0139032639563
-0.00267176819034
0.00679089548066
0.00361704453826
-0.0161023456603
-0.00945113971829
0.00335091585293
-0.00900488812476
-0.0164517108351
-0.0118492133915
-0.00367829483002
0.0121142370626
0.0084144603461
0.00999673269689
0.00250009307638
0.00169337133411
0.00430043786764
0.00770107237622
-0.000648252957035
0.0093213012442
0.0104359025136
0.0053263339214
0.00118244800251
0.0027491657529
0.0070562181063
-0.0080192675814
-0.00222257082351
-0.0480785518885
0.000145028534462
0.00495508825406
-0.00345200975426
0.0056723752059
0.0139090437442
0.00497492216527
0.00587330712005
0.00673078699037
-0.00180820992682
0.00480040255934
0.00933467131108
0.0050994195044
0.00636252108961
-0.00324922078289
0.00372474687174
-0.0518081858754
0.000318639475154
0.00743327708915
-0.00421417597681
-0.000412341178162
0.00516376364976
0.114907421172
0.00655694212765
0.00106744340155
0.0128648579121
0.00543813314289
0.00402833335102
0.00745954178274
0.00843901745975
0.00981054548174
0.0162816643715
-0.000558544008527
0.00739743281156
0.00377132557333
0.000359805504559
0.00636865384877
0.00594232836738
0.000309992814437
0.00821208953857
-0.000564051326364
0.00454324670136
0.0140579501167
0.000998783390969
0.0007388543454
-0.000167335776496
-0.00117479509208
0.00208447827026
-0.00710855098441
0.0192613303661
0.0194491315633
0.00341400294565
0.00885319616646
-0.00680093979463
-0.0020063156262
0.00595116382465
-0.00716661149636
0.00445445626974
0.0107087548822
0.012179854326
-0.000721520569641
0.00219179294072
0.00658004544675
0.0201720371842
0.0171704106033
0.0106795700267
-0.00671033142135
0.0111372098327
0.00519689498469
0.00826694443822
-0.00504798674956
0.00227589230053
0.000963424681686
0.00268183788285
0.00935217179358
0.000985057442449
0.0179402939975
0.0127482647076
-0.000728204846382
0.0126867974177
-0.00579924928024
0.00469473004341
-0.0111458618194
0.0235538836569
0.0018101419555
0.00323022948578
0.00897638406605
0.00307867326774
0.00297094020061
0.0134303914383
-0.0036154370755
0.00303484522738
0.0120634902269
0.00573855219409
-0.00163256574888
-0.000985732069239
0.00743378140032
-0.0023698033765
0.00568141229451
-0.00587588408962
-0.00718590058386
0.00533011648804
0.0132653713226
0.00408299686387
0.00904488936067
0.00145611935295
-0.00144237128552
0.00912115164101
0.00457536475733
0.00596629176289
0.0036305966787
0.00254546198994
0.00483716884628
0.00166570022702
0.00584009662271
0.00168968422804
0.000909759372007
0.00862811040133
0.00386568857357
-0.000361352780601
0.0154141318053
0.00385644496419
0.00217360514216
0.000526214600541
0.00625135377049
0.00558112049475
-0.00157525925897
-0.00402610050514
-0.0439506135881
0.00328602734953
0.00103204441257
-0.00119942042511
0.00207245233469
0.00927402731031
0.00126353651285
0.0128014069051
0.00264482223429
0.0026990538463
0.00160606903955
0.00236972607672
0.00264180335216
0.00159599108156
7.27742517483e-05
0.00132457760628
-0.0502449758351
0.00280595710501
0.00248098932207
-0.000150527848746
0.000918379460927
0.00205337652005
0.101083829999
0.0128764733672
-0.00207594106905
0.0061632511206
0.00157085631508
0.00138888170477
0.00455104140565
0.0148600554094
0.00695120589808
0.0146815134212
0.00117230322212
0.00917689315975
0.000703873287421
0.00812132190913
0.00346829695627
0.00125602819026
0.000391080393456
0.00356134073809
-0.00112441240344
0.0129509083927
0.0109292892739
0.00239910488017
0.00361587502994
0.00101223320235
0.00343261146918
0.00305882794783
-0.00219328282401
0.0179228316993
0.0177527461201
0.0024795497302
0.0057352585718
-0.00180651154369
-0.000230949721299
0.00908706802875
-0.00940268393606
0.000445789948571
0.00877210590988
0.00726678408682
0.00166290509515
0.00246748374775
0.00162001966964
0.0171373039484
0.0184262320399
0.00487459963188
-0.00367176509462
0.00473127281293
0.0131696099415
0.00455716950819
-0.001850697794
0.00378764350899
0.000407478801208
0.00820532534271
0.00582522246987
0.000973681046162
0.0158569440246
0.021096309647
-0.00858321785927
0.0105904834345
0.000565028924029
0.00130428001285
-0.00479450169951
0.0192746017128
0.00471831206232
0.000923232117202
0.00349542615004
0.0013166370336
0.00181085488293
0.0108454152942
0.00575268780813
0.00174558174331
0.00852989032865
0.00142775964923
-0.000977679737844
0.000218013447011
0.00197071465664
-0.000799543224275
0.00301185832359
-0.00162183796056
-0.00293083791621
0.0020612438675
0.00717305019498
0.00128863798454
0.00485852360725
0.000944862375036
0.00228340202011
0.00435291463509
0.00241393269971
0.00170792581048
0.00152973504737
0.00769459549338
0.00705932965502
0.00262723490596
0.00744968606159
0.00267855590209
0.00220494903624
0.00599594786763
0.00109682895709
0.00243863789365
0.01719366014
0.00704727089033
0.00321903941222
0.001334809931
0.00456229038537
0.00546404253691
-0.00301467697136
-0.00349165173247
-0.0654241740704
0.0017935911892
0.00507762515917
0.000404780352255
0.00882484018803
0.014824975282
0.00827969703823
0.0115339690819
0.00828584562987
0.00282756052911
0.00763484276831
0.00274749193341
0.00693223020062
0.00366874900647
0.00235965591855
0.00605880329385
-0.0729407668114
0.00169603782706
0.00926366075873
-0.00181729265023
0.00477838283405
0.00624525826424
0.110226407647
0.0125277107581
0.00155353953596
0.00380349904299
0.0063655031845
0.00437484728172
0.00603361846879
0.0125910406932
0.0135719021782
0.0204916056246
-8.60946820467e-05
0.00565590243787
0.00673880986869
0.00507390638813
0.00751889357343
0.0049274303019
0.00453886250034
0.00788008328527
0.00228987610899
0.00995202269405
0.0153501229361
0.00233493023552
0.00178857822903
0.000115797454782
0.00168606371153
0.00370283378288
-0.00340143591166
0.0225127898157
0.0239660348743
0.00601338455454
0.00609127199277
-0.00368996849284
0.00236476049758
0.00633888598531
-0.0134343178943
0.00646147783846
0.0112960729748
0.00514118280262
0.000531236641109
0.00246438966133
0.00811322405934
0.0249640494585
0.0168393366039
0.000864246801939
-0.00281709665433
0.004717733711
0.00821729470044
0.00951463729143
-0.00178614165634
0.00398621661589
0.00363331148401
0.00629829708487
0.00954290386289
0.00193334685173
0.0213248189539
0.0188881475478
-0.00767728313804
0.0102740423754
-0.000674993672874
0.00504668196663
-0.00460552889854
0.0303175542504
0.00395516306162
0.00634542806074
0.00888586975634
0.00627659633756
0.00617695786059
0.0152101889253
0.00507500767708
0.00594286900014
0.0136107867584
0.00868613552302
0.00121375836898
0.00291864899918
0.00161001191009
0.000449304963695
0.00492710061371
-0.00222256593406
-0.0033265480306
0.0052093276754
0.00672856904566
0.00354145024903
0.00815687421709
0.00296481908299
0.00115357618779
0.00266992300749
0.00441595492885
0.00397873809561
0.00157826661598
0.00579610373825
0.00129137316253
0.000698847696185
0.00108848104719
-0.0010330604855
-0.000174100496224
0.011559471488
0.00715210288763
-0.00189176073764
0.0141437454149
-0.00309728272259
-0.00356075447053
-0.00179241457954
0.00627669645473
0.00378280133009
0.00377948069945
-0.00799763202667
-0.00492813251913
0.00684139691293
-0.0047081517987
-0.00139837234747
-0.00502059934661
-0.00536359287798
-0.00707214418799
0.0118374424055
-0.00733093405142
0.00390299945138
-0.00582313351333
-0.000141462864121
-0.00532448617741
-0.00670628622174
-0.00147167744581
-0.00448187394068
-0.011582987383
0.00232676859014
-0.00644198385999
0.00393473450094
-0.00159059697762
-0.00628780620173
0.0869091004133
0.0124889137223
-0.00896491296589
0.00594307575375
-0.00456935586408
-0.00382345449179
0.00204102159478
0.018469652161
-0.0109902266413
-0.0031780898571
0.00133162096608
0.0108850030228
-0.00268624490127
0.0107626840472
-0.00576606672257
-0.00505093997344
-0.00151909573469
-0.00780446222052
-0.00342741259374
0.0167537145317
-0.00306151947007
0.0049468590878
0.00503936456516
0.00059630983742
0.00569031341001
-0.000535856175702
-0.00131422979757
0.00188947527204
-0.000499050656799
-0.00380524597131
-3.69334120478e-05
-0.00136077532079
-0.00210829894058
0.0123908240348
-0.00832556094974
-0.00443505961448
-0.00327132805251
0.010400169529
0.00269730179571
-0.000323041953379
-0.00895213149488
-0.000666834181175
0.023333221674
0.00881971139461
-0.00171871308703
0.00264206482098
0.0157320853323
-0.00738835986704
0.000603137188591
0.00209765136242
-0.00295061641373
0.00750488787889
-0.00717190094292
-3.21088991768e-05
-0.000569686933886
0.0234459098428
-0.014850705862
0.0138225471601
0.00365181569941
-0.0045289453119
-0.00341583928093
-0.00346238492057
0.00835976097733
-0.00439713336527
-0.0084275547415
-0.00539173558354
-0.00505042681471
-0.00393628282472
0.00574704539031
-0.00424572359771
-0.00560662196949
-0.00796104408801
-0.00106471544132
-0.00256649195217
0.00412377854809
-0.000365959538613
0.000167824371601
-0.00127346464433
-1.26004342746e-05
-0.00606922758743
0.010832156986
-0.00790092628449
-0.0057084960863
-0.0019504086813
0.00411574495956
0.00620550429448
-0.00140180625021
-0.00392495188862
-0.00272496324033
0.0107485745102
0.014812739566
0.0100334873423
0.0131911411881
0.00398461008444
0.000125857477542
0.00430878577754
0.0108267338946
-0.00107147614472
0.00982744339854
0.0138348629698
0.00520853558555
0.00115564966109
0.00162654137239
0.00998326763511
-0.00762985693291
-0.00280106812716
-0.0523972176015
-0.00101679994259
0.00307428464293
-0.00530216330662
0.00232948083431
0.0123207261786
0.00416793022305
0.0076742740348
0.00378573033959
-0.00368687184528
0.00266241305508
0.0121806655079
0.00456882594153
0.0051403362304
-0.00380885065533
0.00217665010132
-0.0572948083282
0.00179162574932
0.00460436427966
-0.00257526827045
-0.00296261068434
0.00327249499969
0.121573843062
0.00577263021842
0.00100414303597
0.0161019470543
0.00396931637079
0.00213398691267
0.00878900010139
0.00707470206544
0.00975937023759
0.0159971378744
0.000272951176157
0.0100834378973
0.000600717030466
-0.000141374170198
0.00527607183903
0.00394532689825
-0.000616362842266
0.00872211903334
-0.00273423525505
0.00318664778024
0.0129839172587
0.00174241268542
0.00171746814158
-0.000807213771623
0.00135726877488
0.00415752409026
-0.00613204203546
0.0192869566381
0.0173957645893
0.000434478715761
0.0113082882017
-0.00808742828667
-0.00384288071655
0.00614780699834
-0.00770641444251
0.00141966517549
0.0105941845104
0.0169187374413
0.00143109227065
0.00202049151994
0.00593081768602
0.0183268077672
0.0170945636928
0.013686764054
-0.00758008286357
0.0151591151953
0.00140048423782
0.00904856994748
-0.0046829758212
0.00501554133371
0.000734970904887
0.00447035906836
0.0101229464635
0.0028232394252
0.0169561319053
0.00961293466389
-0.00120931188576
0.0155682405457
-0.00547206960618
0.00368179706857
-0.0120044080541
0.0222214758396
0.00336309964769
0.000688706117216
0.00782043393701
0.00176352902781
0.00187278515659
0.0129171516746
-0.00508427526802
0.00278439349495
0.00942526571453
0.00385297392495
-0.00245542102493
-0.00172614946496
0.00914317276329
-0.00468553090468
0.00723765557632
-0.00694640027359
-0.00573439802974
0.00592039944604
0.0171339325607
0.00474720355123
0.008130970411
2.57725150732e-05
0.00019546529802
0.0129365297034
0.00714384019375
0.00384285463952
0.00542112672701
0.00160380336456
0.00469248648733
0.00446966988966
-0.00101252947934
-0.00357753201388
-0.00419071968645
0.00755792530254
0.0104587171227
-0.006021192763
0.00615422427654
-0.00196930533275
-0.00590043468401
-0.00429845554754
0.00253281323239
0.00297894468531
0.000129020700115
-0.000800884736236
0.021060064435
0.0020411235746
-0.00669201323763
-0.00581108406186
-0.00884252786636
-0.00190552638378
-0.00839665811509
0.00426572700962
-0.00910777319223
-0.00239560729824
-0.00911146122962
0.00472420221195
-0.00733739510179
-0.001533936942
-0.0050060604699
-0.0057497988455
0.0163517240435
0.000768232508563
-0.00901027489454
0.0054998784326
-0.00532625894994
-0.00598962139338
0.0764780938625
0.00596288079396
-0.00212426413782
0.0100933723152
-0.00619250023738
-0.0055957660079
0.000278459163383
0.0145589569584
-0.00783814210445
0.000255845283391
-0.00219276105054
0.00826125126332
-0.00798395182937
0.00430437363684
-0.00553540978581
-0.00708793848753
-0.00585528509691
-0.00684537831694
-0.00800580810755
0.0113839711994
0.00141378678381
0.00345555134118
0.00515807932243
-0.00399796897545
0.00441992282867
-0.00318614253774
-0.00209534703754
0.00673882756382
0.00498347682878
-0.00817849487066
0.000588565482758
-0.00524044968188
-0.00691803358495
0.00919208489358
-0.00155510473996
-0.00758890062571
0.00199003377929
0.0133572788909
0.00151336228009
-0.00311767449602
-0.0106896059588
0.00522791221738
0.0171288885176
0.014349360019
-0.00572416745126
0.00779310800135
0.0127266850322
-0.00840140134096
-0.00326984678395
-0.00160240172409
-0.0053982255049
0.000993037014268
-0.00622106203809
-0.00264456309378
0.00420724414289
0.0148230521008
-0.0106870541349
0.0111250942573
-0.00175165350083
-0.00616719061509
-0.00684393849224
-0.000695201160852
0.00542568229139
-0.00833591911942
-0.00788292195648
-0.00811495352536
-0.007598974742
-0.000352628150722
-0.00194517057389
-0.0072226235643
-0.00423432374373
-0.00915884040296
-0.00545669114217
-0.00779003323987
0.00618636142462
-0.00386946229264
-0.00241523142904
-0.00505387689918
-0.00202762405388
-0.00572557840496
0.00848778057843
0.00102719839197
0.00156997947488
-0.00559739861637
0.00147424312308
0.00678565446287
-0.00264401128516
-0.00656157312915
-0.00433565396816
0.00777584081516
-0.00584230013192
-0.00115995539818
-0.0207478739321
-0.0186433494091
-0.0194016303867
-0.00988392625004
0.0120523413643
-0.0183202903718
-0.0279504675418
-0.022002749145
-0.0208957474679
-0.0175688564777
-0.0151598118246
-0.0127807129174
-0.0100688226521
-0.00102203805
0.115735583007
-0.0141340466216
-0.0206719636917
-0.0176287982613
-0.0241782628
-0.0189485251904
-0.0237117949873
-0.0267995465547
-0.0239917375147
-0.0175172518939
-0.0234508626163
-0.00229286216199
-0.0210968982428
-0.0100304121152
-0.0174527224153
-0.0218603424728
0.125768706203
-0.0144981509075
-0.0236385241151
0.00147335696965
-0.0185330174863
-0.0212967004627
0.0261999275535
-0.0222579538822
-0.00649088481441
0.0055365995504
-0.0208391863853
-0.0206763353199
-0.022946882993
-0.00870375614613
-0.0228757318109
-0.01827698946
-0.0145855257288
-0.00712943123654
-0.0205909181386
-0.0174409151077
-0.0221030581743
-0.0219409391284
-0.020156474784
-0.0244624279439
-0.0189172886312
-0.0104137212038
-0.014293092303
-0.00699742278084
-0.00480241794139
-0.0194420292974
-0.00686237122864
-0.0197207406163
-0.0124623207375
-0.0103179225698
-0.011209981516
-0.021602448076
-0.0204471796751
-0.0135513870046
-0.0180495101959
-0.00782486982644
0.00918818544596
-0.0218419302255
-0.0101169357076
0.00975595787168
-0.0108362352476
-0.0181977134198
-0.0253093168139
-0.00981931854039
-0.00595221202821
0.0131661519408
-0.0144664943218
0.000881169573404
-0.00869738869369
-0.0258380547166
-0.015934176743
-0.0216689780354
-0.0194257143885
-0.0240307804197
-0.02512550354
-0.0168479476124
-0.010705855675
-0.014275431633
-0.00743787596002
-0.0064486390911
-0.016407545656
-0.0213705264032
-0.0122598838061
-0.0154837789014
-0.0107303708792
-0.0211118031293
-0.0244168490171
-0.0221549347043
-0.0215861406177
-0.0199468955398
-0.017489284277
-0.0216008797288
-0.0224115904421
-0.0241747051477
-0.0181509982795
-0.0199682172388
-2.28941826208e-05
-0.0162991490215
-0.022129766643
-0.0140242679045
-0.0123674143106
-0.0195256620646
-0.00482844049111
-0.00741056818515
-0.0112153142691
-0.0190402008593
-0.015977602452
-0.00485098501667
-0.0182686857879
-0.0196932777762
-0.020864950493
-0.0100755831227
-0.0149741237983
-0.0133757311851
-0.00223042163998
0.00754659296945
0.0146990995854
0.0369536839426
0.00706809526309
0.017926922068
0.0823674350977
-0.0145150572062
-0.00526024587452
0.0161134153605
0.0287368036807
0.00570240663365
0.0330265760422
-0.0346820354462
-0.0355104319751
0.0282606463879
0.00343755586073
0.0315975546837
0.0237244982272
-0.0325094424188
0.00478461710736
0.0736748054624
0.0110568478703
0.0525553971529
0.0129331341013
-0.0123066762462
0.00286424602382
-0.0320154316723
0.0230784770101
0.00864095240831
-0.0487527400255
0.0173660833389
0.0118286982179
0.0177819859236
0.0285105928779
0.00234211445786
0.101826779544
0.0681465417147
-0.0334447994828
0.00179551006295
0.00109563732985
0.0124448286369
0.00636372249573
0.0631686598063
-0.0279929097742
-0.0370335951447
0.0146667743102
0.0216504335403
0.025328733027
0.0615112297237
8.0465368228e-05
0.00410235486925
0.0262185763568
-0.0138972019777
0.0208719428629
0.0626617074013
-0.0390108525753
0.0158389862627
0.0184418298304
0.0208988469094
0.0179142318666
0.00464046001434
0.0184064041823
-0.0391915999353
-0.042204014957
0.020271293819
-0.000613717362285
0.0396168604493
0.0252343285829
0.0296703726053
-0.022615659982
0.0137374689803
-0.0362313352525
0.0126601783559
0.0115616442636
0.0130008561537
0.00181314023212
-0.040025357157
0.0591152124107
0.0144576365128
0.0359937883914
-0.01191120781
0.0610090121627
-0.0133539550006
0.0175103265792
0.00964574702084
0.0150386840105
0.0486089736223
-0.0206240601838
0.00401551555842
-0.0398537777364
0.0884861201048
-0.0267106182873
0.0297315437347
0.0350040234625
0.0036145914346
0.0399832651019
-0.039722379297
0.0238496977836
0.0170550253242
-0.00989868491888
0.0111858155578
0.0170878898352
-0.0310453269631
0.0701199546456
0.011885070242
-0.0297572929412
0.0120544331148
0.0213169790804
0.0252875350416
0.0028793499805
0.0329074151814
0.00193625548854
0.0377863794565
0.0205025766045
-0.00404677819461
0.017921032384
-0.0350861661136
-0.0375243201852
0.0167301483452
0.0273544397205
0.00508343568072
0.000144149002153
0.00533491652459
0.00275052641518
0.0415319427848
-0.00485539576039
-0.00338992686011
0.00197961158119
0.00506955012679
0.00647330563515
0.025846555829
0.00133987131994
0.00758684566244
0.0300382003188
-0.00286220409907
0.00116697361227
0.00420337636024
0.0226367060095
0.00695336516947
0.0224442053586
0.0031740332488
-0.0438926927745
0.0201310366392
0.00055836973479
0.0117542715743
0.00423151161522
0.00470080925152
0.00028761322028
0.0322451777756
0.000344449363183
0.0168298222125
0.00103835610207
-0.00482625933364
0.00113319605589
-0.00033277500188
0.00879433751106
0.00192138308194
-0.0612988956273
0.0151695450768
0.000719821429811
0.0159762967378
0.00879341457039
0.000673362053931
0.0603922605515
0.0300566628575
0.00087406282546
-0.00450145546347
-0.00040836588596
0.00085585139459
0.00684182858095
0.0367992520332
0.00472294632345
0.00790675636381
0.0129957245663
0.0112770786509
0.00575288338587
0.0309648569673
-3.69341287296e-05
-0.000195018510567
0.00562939001247
0.00145735638216
0.00641988124698
0.0353932194412
0.0064935949631
0.0143810901791
0.0167690385133
0.0104063674808
0.0170041508973
0.00457258801907
0.0135329179466
0.010770062916
0.0120897907764
0.003846029751
0.00145729607902
0.0133513165638
0.00713805574924
0.0219706743956
-0.0155541682616
0.00122983579058
0.00517885759473
-0.000208584373468
0.0123045807704
0.00674509536475
-0.00145537301432
0.0122355064377
0.0263932663947
-0.000642260129098
0.00534389866516
-0.00342076388188
0.0368868857622
0.00117609580047
0.0145856346935
0.00967354420573
0.00393446721137
0.0193150583655
0.00231355102733
0.00906065665185
0.010338826105
0.0431664772332
-0.0173413474113
0.00841233599931
0.0203324463218
0.00209511979483
0.0084843672812
0.0144169516861
0.0204895101488
0.00446022441611
-0.000718195806257
0.00120559183415
0.00137810758315
0.0060958918184
0.0263047013432
0.00282898917794
0.00513007584959
0.000792119535618
0.0081241177395
0.00416486477479
-0.000309979834128
0.0106797069311
0.00572710484266
0.011007337831
0.0144452061504
0.000340761151165
0.0010490056593
0.000571045093238
0.00103850162122
0.00369942397811
0.0174774378538
0.00021957331046
0.00491028884426
0.00124129897449
0.00299509591423
0.0283317305148
0.014757476747
0.0126587655395
-0.00517581123859
-0.00471081444994
-0.00849421974272
-0.0235446989536
0.010107758455
-0.00530422758311
-0.0367600880563
0.00432314537466
0.000790449092165
-0.00463603064418
-0.0204199291766
-0.00625414494425
-0.0128653068095
0.0176249872893
0.0703973919153
-0.0155834611505
-0.00102324679028
-0.0109795928001
-0.00908149778843
0.00821713544428
-0.00186096911784
-0.0284682251513
-0.00532505754381
-0.0201071221381
-0.00475955894217
0.0134670091793
-0.000795643485617
0.0178834628314
-0.00963488873094
-0.00485346280038
0.0814410671592
-0.0107629168779
-0.00597945740446
-0.00728276744485
-0.0101941395551
-0.0014308426762
0.0334585718811
-0.0288279131055
0.016924360767
0.0205267686397
-0.00116517418064
-0.00527501897886
-0.0131974918768
-0.0344072878361
0.00373397837393
0.00731499493122
-0.00913729704916
-0.0126270567998
-0.00940260104835
-0.0243188217282
-0.000296118989354
0.000478913687402
-0.00993182510138
0.00349967484362
-0.00973452161998
-0.0310192853212
0.0117607582361
-0.0104242898524
-0.012208419852
-0.0115207470953
-0.0121668567881
-0.00714915338904
-0.00658463686705
0.00802781712264
0.00726075889543
-0.00715919584036
-0.00405641365796
-0.014254340902
-0.00905876141042
-0.0210891943425
0.0272792801261
-0.00484095932916
0.0147314658388
0.0190574806184
-0.00783449411392
-0.00505625316873
-0.00123568496201
0.0105119328946
-0.0259933173656
0.0203976649791
-0.0117655731738
0.016045095399
-0.0293605159968
0.00393908657134
-0.010518479161
-0.0139503246173
-0.00448954058811
-0.0217725243419
0.00280058966018
-0.00594636006281
0.0121844327077
-0.0403915271163
0.0226886626333
-0.013356115669
-0.0154285784811
-0.00130612892099
-0.0160651132464
0.00633757282048
-0.0168346874416
-0.00660065282136
0.00275986758061
-0.00265988893807
-0.00485497806221
0.00693673174828
-0.0303254462779
-0.0031124339439
0.00252678431571
-0.0047781332396
-0.00937432143837
-0.00795404892415
0.00441777752712
-0.0129879135638
-0.00660780863836
-0.01369917579
-0.00918861757964
0.00118762906641
-0.00201538717374
0.0178207810968
0.0166524332017
-0.00482076359913
-0.0145351290703
0.00442032888532
-0.00382494018413
-0.00302276737057
-0.00165452749934
-0.023244349286
0.0177032724023
0.0117016835138
0.00932288449258
0.00202528806403
-0.00252216821536
-0.000787506694905
0.0101977391168
-0.00247948965989
-0.000856389582623
0.0106745939702
0.00426748255268
-0.000995739828795
-0.00392341380939
0.00534224370494
-0.012454171665
0.00414722040296
-0.0223803836852
-0.00437042955309
0.00277995597571
-0.00794866494834
0.00295438664034
0.0148423034698
0.00380436284468
-0.00227226410061
0.00323948147707
-0.00761720212176
0.00427906727418
0.0134225515649
0.00536877010018
0.0112040843815
-0.00603885622695
0.00225796666928
-0.021963397041
-0.00204569054767
0.00502487691119
-0.00483865989372
-0.00549142807722
0.00386148691177
0.102937288582
-0.00227071880363
0.0067478325218
0.0185788869858
0.00570946978405
0.00130639818963
0.00300752022304
-0.000163453252753
0.0096835680306
0.0156572703272
-0.00262333825231
0.00515742506832
-0.000689786160365
-0.00794473104179
0.00386713305488
0.00336547964253
-0.00329340971075
0.00713011668995
-0.00388143002056
-0.00412483979017
0.0166931450367
-0.00155489647295
-0.0020073405467
-0.00406259531155
-0.00269058253616
0.0001223738509
-0.00916127394885
0.0166549421847
0.0164865367115
0.00103043578565
0.00810055248439
-0.0116494921967
-0.00524532608688
-0.00025461812038
0.000257561070612
0.00231512705795
0.0142580186948
0.0187120568007
-0.00179558014497
-0.000257370207692
0.00605114037171
0.0195581167936
0.00899168662727
0.0174208898097
-0.00893527921289
0.0156603343785
-0.0031246826984
0.00789877679199
-0.00694063026458
-0.000297109916573
-0.000748686143197
-0.00247635925189
0.00786265451461
-0.000700117030647
0.0179605577141
0.00201198318973
0.00396122643724
0.00988040305674
-0.00990143232048
0.00274705700576
-0.0148605499417
0.0196321066469
-0.00269450084306
0.000509942299686
0.00713832303882
0.00049496081192
0.000328211317537
0.0138633549213
-0.0115382112563
0.000635237374809
0.012598996982
0.00455428380519
-0.00383012741804
-0.00353699899279
0.0105694066733
-0.00765374023467
0.00378925097175
-0.00929979421198
-0.00992532074451
0.00455623492599
0.0138123203069
0.0111673166975
0.0149231487885
-7.54629145376e-05
-0.00585682271048
0.0114371068776
0.00360247981735
0.00239928951487
0.00135540124029
-0.00397446192801
0.0131642594934
0.00996657647192
-0.00830427836627
-0.00765038887039
-0.0121674584225
-0.0238791704178
0.00760394055396
-0.00840150658041
-0.0360196828842
0.000185827782843
-0.00312634534203
-0.00827503204346
-0.0218107141554
-0.00791207328439
-0.0155931524932
0.0155855305493
0.0650948509574
-0.0185818709433
-0.00437324214727
-0.0145256081596
-0.0126177119091
0.0064620426856
-0.00450885528699
-0.0273400172591
-0.00853952020407
-0.0203708168119
-0.00877617299557
0.00894647929817
-0.00435474747792
0.0146615570411
-0.0142743596807
-0.00775928003713
0.0745756402612
-0.0124782733619
-0.0102884471416
-0.00707539077848
-0.0145224416628
-0.00536906160414
0.0336405038834
-0.0287045650184
0.0122349681333
0.0178384836763
-0.00275053130463
-0.00847291573882
-0.0165550708771
-0.0305320955813
0.0030864905566
0.00589812221006
-0.0106602748856
-0.0137375565246
-0.0135818114504
-0.0248730164021
-0.00474030198529
-0.00407250970602
-0.013936846517
-0.000376547424821
-0.010664078407
-0.0291272625327
0.0105173578486
-0.0113874236122
-0.0127104958519
-0.0137823810801
-0.011889308691
-0.0106878448278
-0.00799250882119
0.00844406336546
0.0077666239813
-0.010667364113
-0.0068185464479
-0.0154294008389
-0.0128987999633
-0.0212653949857
0.0222910810262
-0.00917626917362
0.0135171674192
0.0170384105295
-0.00998204667121
-0.00761287799105
-0.00515855057165
0.011232810095
-0.0246725268662
0.0191768333316
-0.0145123461261
0.0125040216371
-0.0280945021659
0.0009808128234
-0.0134990978986
-0.0155085325241
-0.00688910856843
-0.0220891628414
0.00175011332612
-0.00906760152429
0.00988963805139
-0.035240393132
0.0161890313029
-0.0154146580026
-0.0180028043687
-0.00388293107972
-0.0167939830571
0.0086898105219
-0.0180014297366
-0.0102159352973
9.11909010028e-05
-0.00723512284458
-0.0104943737388
0.0055312900804
-0.0294270217419
-0.00768699869514
0.00327080348507
-0.0073261144571
-0.0124308178201
-0.0128121888265
0.00183787941933
-0.0163117833436
-0.0104025509208
-0.0147498864681
-0.0101236952469
-0.00160762050655
-0.00423329183832
0.0152653101832
0.0139787020162
-0.00758809410036
-0.0160088427365
0.00317729986273
-0.00729736266658
-0.00534341111779
-0.00480741495267
-0.0231861602515
0.018630720675
0.0137264523655
0.0130680799484
0.00587159395218
0.00502981152385
0.000872660137247
0.00952212419361
0.00483191991225
0.0106360977516
0.0142619591206
0.00655066408217
0.00450622895733
-0.00138420972507
0.00806505698711
-0.0142408153042
0.00394965009764
-0.0595058277249
-0.00430754804984
0.0116957891732
0.000295537640341
0.0185359958559
0.0196981802583
0.0171427540481
0.00188798783347
0.0210587978363
-0.000633238058072
0.0187371838838
0.0148613071069
0.0135776884854
0.0143017880619
0.00216980394907
0.0123076010495
-0.0606629960239
-0.00241108937189
0.0227042157203
-0.0071000372991
0.00898509379476
0.0110737234354
0.147607564926
0.000784790259786
0.0102600287646
0.0187710095197
0.0128886736929
0.012406998314
0.00880242884159
0.0014016458299
0.0217357967049
0.0242973603308
-0.00339018832892
0.00893209967762
0.0160968005657
-0.00568377878517
0.0150885470212
0.013304470107
0.011848567985
0.0151175176725
0.00793393887579
-0.00371140660718
0.0228133890778
-0.0030482057482
-0.00252433703281
0.00143117143307
-0.00269176997244
0.00504933204502
-0.0105576151982
0.0269485544413
0.0265542604029
0.0144187659025
0.012301213108
-0.0073953717947
0.00499222334474
0.00346253672615
-0.00562663190067
0.014122851193
0.0190225411206
0.0169544685632
-0.00266005028971
0.00484518939629
0.0202382542193
0.0287053920329
0.0142936920747
0.0152425933629
0.000593935663346
0.0183349214494
-0.00310428743251
0.0173420235515
-0.00359008391388
0.00296163652092
0.00908055808395
0.00307090999559
0.0167134460062
0.000582373468205
0.0253742560744
0.0054633654654
0.00223798886873
0.0154171427712
-0.00948771927506
0.0107217915356
-0.00522367563099
0.0362095162272
-0.0028518254403
0.016658321023
0.0164936184883
0.013966913335
0.0163392052054
0.0192677080631
0.000533351034392
0.0130843669176
0.0189939755946
0.0205723587424
0.00370235741138
0.00980846397579
0.0110468817875
0.000386780535337
0.0076260282658
-0.00128949875943
-0.0109457131475
0.0103726340458
0.017306830734
0.0129095390439
0.0170932468027
0.00610732799396
-0.00516988895833
0.0142331449315
0.00676039932296
0.0103152077645
0.00476433616132
-0.00378604861908
0.00159302901011
0.00796627532691
0.00433069467545
0.00127308920491
0.00130782742053
0.0270567424595
0.0210920590907
-0.00144465919584
-0.00048519007396
-0.00135253393091
0.000493450090289
-0.0014842026867
0.0221321061254
0.0123533392325
0.0248992219567
0.0232940483838
0.0517165362835
0.0207882355899
-0.00576582923532
0.00179740111344
-0.0141726527363
-0.00372578226961
-0.0109226033092
0.0118255009875
-0.0148145789281
0.00453247642145
-0.0126530351117
0.00827553868294
-0.00720956875011
0.0051105027087
0.00284379837103
-0.00629507051781
0.0296464078128
0.0177343096584
-0.016019128263
0.0325360745192
-0.00536146899685
-0.00704747904092
-0.0042137959972
0.0137359676883
0.0131920715794
0.00797918532044
-0.00761740095913
-0.0072033405304
0.0068036140874
0.0304441265762
-0.00921338424087
-0.0024037186522
0.0192242227495
0.0205737706274
-0.0100780175999
0.0177925974131
-0.00708338804543
-0.00940779875964
-0.00739139784127
-0.00751463510096
-0.00415624864399
0.0275415536016
-0.00224457867444
0.0254086498171
0.0275704842061
0.00715024536476
0.0255276095122
0.00487157609314
0.0215405020863
0.000614182732534
-0.000200218462851
-0.00957030244172
0.00484819477424
0.00937570352107
-0.00155415304471
0.0264051463455
0.00276718381792
-0.00901139993221
0.00249081104994
0.0127652473748
0.0224832259119
0.00202091760002
-0.0128783388063
-0.00121020316146
0.0245404802263
0.0151504538953
-0.00201571336947
0.00653983233497
0.0297241546214
-0.00821391120553
0.0146388811991
0.0112668015063
-0.00414084084332
0.00608046352863
-0.00447726622224
0.0134697398171
0.000283843692159
0.0212341584265
-0.0149402003735
0.0171036794782
0.0172086898237
-0.00546777993441
0.000372208276531
-0.0055908607319
0.0231904033571
-0.0107169980183
-0.0103057259694
-0.00899459514767
-0.00938632991165
-0.00452125817537
0.000564744812436
-0.00683059543371
-0.0062535922043
-0.0153186433017
0.00153601786587
-0.00712899351493
0.0146934324875
0.00146930571645
0.00647367956117
0.00279474374838
0.0206620767713
-0.00365039752796
0.00947021041065
0.00811947975308
-0.000167771053384
-0.00218982668594
0.0170473083854
0.0101009327918
0.00900911726058
-0.00590304797515
0.00521875033155
0.0281879622489
0.0108567522839
0.00697061279789
0.0064166621305
0.00258706184104
0.00252680503763
0.00348152918741
0.00340030062944
0.00255288300104
0.00971809867769
0.00854694377631
0.00401198724285
0.00197382969782
-0.000454444147181
0.0044375853613
-0.00996248889714
0.000532002304681
-0.0452143661678
-0.00323375826702
0.00725193694234
-0.000171070394572
0.0116041004658
0.015651544556
0.011612907052
0.00267093279399
0.0129770189524
-0.00190558831673
0.0127729149535
0.0074142254889
0.00870399456471
0.00744309136644
-2.04714142455e-05
0.00676925713196
-0.0452773906291
-0.00141163391527
0.0150592112914
-0.00652088550851
0.00491511914879
0.00647608656436
0.124512076378
0.00168367207516
0.00378733291291
0.0113228755072
0.00865065772086
0.00688727712259
0.00484337005764
0.00565148796886
0.0147917959839
0.0189003124833
-0.00355547806248
0.0048755472526
0.0110369501635
-0.00391754461452
0.00766295334324
0.00844088755548
0.00612665526569
0.00876101944596
0.00291202752851
0.00103726540692
0.0174724590033
-0.00304984068498
-0.0014871301828
-0.00104710308369
-0.00291278585792
0.000576291349716
-0.00965563580394
0.0236422140151
0.0237206500024
0.00937360618263
0.00678556831554
-0.00716698355973
0.00187055114657
0.00303324335255
-0.00440644053742
0.00827910657972
0.0125054549426
0.00765442289412
-0.00276109972037
0.000966163701378
0.0127239348367
0.025837842375
0.0115228025243
0.00649820454419
-0.0036320774816
0.00946533121169
0.00126334186643
0.0122644752264
-0.00428837258369
0.000845378148369
0.00515975384042
0.000678795622662
0.0115586174652
-0.000546960975043
0.0231300294399
0.00980474893004
-0.00056993070757
0.0102039286867
-0.00679300585762
0.00663764076307
-0.0062210559845
0.0314228981733
-0.00127188628539
0.0102299740538
0.011603154242
0.00839560385793
0.00890981778502
0.0165258347988
-0.000401226279791
0.0080477623269
0.0132329463959
0.0138755440712
0.000308552582283
0.00571593176574
0.00369535363279
-0.000628607929684
0.0041761668399
-0.00303513836116
-0.00843433849514
0.00566915934905
0.0103478869423
0.00749061629176
0.010561295785
0.00162725977134
-0.00395861687139
0.00641856016591
0.00249722646549
0.00568915810436
0.00116787489969
-0.000372441048967
0.0072681796737
0.00536198215559
0.00589435920119
0.001725806389
-3.28069618263e-05
0.00423967791721
0.00321132573299
0.000916517630685
0.00931102782488
0.00558068277314
0.001637842739
0.00106704584323
0.00136999762617
0.00320289982483
-0.00630259839818
-0.00231032795273
-0.0386733300984
0.000389995228034
0.00274058571085
-0.00179252191447
0.00471856538206
0.0120255695656
0.00441470276564
0.00744144432247
0.00515931705013
-0.00181618705392
0.00530178332701
0.00494766747579
0.00498041324317
0.00526683218777
-0.000719486444723
0.00287083839066
-0.0416801385581
-0.000189737373148
0.00626485422254
-0.00447330949828
0.00120031193364
0.00339686521329
0.106476783752
0.00657966872677
0.000263632304268
0.00730875600129
0.00407909462228
0.00206670514308
0.00478489883244
0.00869061425328
0.00996090099216
0.0149898091331
-0.000844026217237
0.00642570806667
0.00299989501946
0.00148469337728
0.00602632714435
0.00342251034454
0.00289254868403
0.00592749239877
-0.000103864593257
0.00661112833768
0.0137254381552
-0.000411807995988
6.45617546979e-05
-0.00198053545319
0.000615508994088
0.000920883496292
-0.005323165562
0.0195114184171
0.0192862730473
0.00419755792245
0.00457623694092
-0.00577002251521
-0.000702900695615
0.00487195793539
-0.00685067987069
0.00376420514658
0.00982943642884
0.00778935523704
-0.00221314211376
-0.000101507765066
0.0049426718615
0.019888497889
0.0137637099251
0.00534618971869
-0.00496492674574
0.00673968391493
0.00639267498627
0.00782392546535
-0.003449853044
0.00192344409879
0.00176361214835
0.00283377664164
0.00698686717078
0.000312604184728
0.017554981634
0.0134598361328
-0.00353205460124
0.00961934681982
-0.00267986464314
0.00319305551238
-0.00796763133258
0.0233170166612
0.00134368997533
0.0038073186297
0.00574058946222
0.00418602488935
0.00382360699587
0.0118752839044
0.000760282215197
0.00265246420167
0.00967485178262
0.00621047243476
-0.000707303232048
0.000326097331708
0.00292764347978
-0.0014867457794
0.00218216050416
-0.00443660095334
-0.00515216914937
0.00189657090232
0.00940199475735
0.00427867565304
0.00863505899906
0.00130513496697
-0.000809377408586
0.00431026704609
0.0023442467209
0.00440490292385
0.000394018628867
0.00247656484134
0.00464851222932
0.00433185137808
-0.0142565909773
-0.0132534755394
-0.0143902078271
-0.0212642084807
0.00399493612349
-0.0138081051409
-0.0341188535094
-0.00828410685062
-0.0105792609975
-0.0142522715032
-0.0201791841537
-0.0123239709064
-0.016573837027
0.00742810685188
0.0634577646852
-0.0195037610829
-0.00984480697662
-0.0180917326361
-0.0168266650289
0.00102916068863
-0.0114556793123
-0.0303079094738
-0.0143434461206
-0.0232796631753
-0.0129118273035
0.00411959644407
-0.0093225762248
0.00699520250782
-0.0152172250673
-0.0139249162748
0.0711479261518
-0.0158246066421
-0.0140618011355
-0.00836357939988
-0.0175796970725
-0.0105842538178
0.0349297635257
-0.0283195581287
0.00463977083564
0.00935097131878
-0.0106197651476
-0.0144044393674
-0.0196267478168
-0.0252830404788
-0.00182424404193
0.00249063060619
-0.0143845947459
-0.0144324181601
-0.0179118737578
-0.0255285706371
-0.0104783335701
-0.0098038110882
-0.018235983327
-0.00868630595505
-0.0159020125866
-0.0240757651627
0.00501829851419
-0.0130590433255
-0.0133378002793
-0.0179128888994
-0.0127426721156
-0.0137776704505
-0.013788761571
0.00699803140014
0.00633486872539
-0.0163051765412
-0.0128770051524
-0.0187175795436
-0.0168047510087
-0.01980785653
0.014394659549
-0.0137751242146
0.00575031805784
0.0101534174755
-0.0118567282334
-0.0128422416747
-0.0110752331093
0.00904572382569
-0.0195774938911
0.0118871238083
-0.0171425137669
0.00735399033874
-0.0227470584214
-0.00600529136136
-0.0176742617041
-0.0204266887158
-0.0136366374791
-0.0263203009963
-0.00616634218022
-0.0140066677704
0.00761900516227
-0.0282935705036
0.00633896281943
-0.0148801077157
-0.0198433622718
-0.0110339224339
-0.018201911822
0.00833844952285
-0.0171065442264
-0.0154108842835
-0.00672650849447
-0.0126947863027
-0.0143483961001
-0.000467275327537
-0.0293147284538
-0.0145074818283
-0.00418348191306
-0.0139218196273
-0.0164260976017
-0.015653014183
-0.00167854386382
-0.018838359043
-0.0156155889854
-0.0181360654533
-0.0152127742767
-0.00729987444356
-0.00854716356844
0.0074399500154
0.00755860237405
-0.0120052574202
-0.0185658410192
-0.00277536688372
-0.0134163154289
-0.0115912770852
-0.0120810456574
-0.0193960778415
0.00580192869529
0.00343203009106
0.00337748671882
-0.00176656723488
-0.00321688968688
0.00779556855559
0.00927759613842
-0.00419196533039
0.0126191498712
-0.000412939523812
-0.0034878088627
-0.0035681554582
0.00400319974869
0.00351790920831
-0.00166876323055
-0.00681767240167
-0.00119057658594
0.00337452651002
-0.00357149704359
-0.00396669236943
-0.00399441178888
-0.00070602982305
-0.00541356718168
0.00802896451205
-0.00548495119438
-0.000234011051361
-0.00519231567159
0.00345750967972
-0.00314405444078
-0.00201826775447
-0.00283401785418
-0.00295598898083
-0.00587730156258
0.000135812268127
-0.00650554336607
0.00101150758564
-0.00342046399601
-0.00445832591504
0.102589860559
0.00839520990849
-0.00588157633319
0.00941680930555
-0.00424209283665
-0.00277678016573
0.00144085916691
0.014219394885
-0.00578002072871
0.00202473811805
0.000114415735879
0.00764234503731
-0.00308044278063
0.00511000026017
-0.00397005910054
-0.00356285064481
-0.00316543923691
-0.00356533983722
-0.00432627322152
0.0115362592041
0.00222540576942
0.00236825388856
0.0043613454327
-0.00160460930783
0.00291384756565
-0.00120105559472
-0.0050255083479
0.00681230938062
0.00530535681173
-0.00447652395815
0.00198770081624
-0.00434352876619
-0.0036815982312
0.00850724149495
-0.00545484665781
-0.0047823083587
0.0017846794799
0.0134724946693
-0.000487456884002
-0.000925089174416
-0.00627382379025
0.00730049749836
0.0191668663174
0.012356412597
-0.00438379961997
0.00587320560589
0.0106456903741
-0.00479822792113
-0.00298156193458
0.000408444990171
-0.0037291906774
0.00464625936002
-0.00319819082506
-0.00107769249007
0.00709309009835
0.0178062431514
-0.00992125552148
0.0123882535845
-0.000597309379373
-0.00382782891393
-0.00782094337046
0.00463075004518
0.00468902289867
-0.00412617344409
-0.00547140277922
-0.00483805919066
-0.00371825904585
0.000641851569526
0.00155672011897
-0.00363875017501
-0.0014652229147
-0.00540150143206
-0.0038229348138
-0.00355695723556
0.0050906855613
-0.00288379122503
-0.000236005434999
-0.00356920668855
-0.00390354730189
-0.00315677886829
0.0116941817105
-0.00303173647262
0.000261606619461
-0.00313792796806
0.00269109639339
0.00555992405862
0.000378818600439
-0.00222109118477
-0.0020869828295
0.00499718170613
-0.01386197377
-0.010938978754
-0.00431182049215
0.00178060308099
0.00658135674894
0.0325409136713
-0.00231262110174
0.00583430705592
0.0388168618083
-0.00990375503898
-0.00304843136109
0.00310295331292
0.0275958329439
0.00300092343241
0.0280737709254
-0.00429093185812
-0.0442594625056
0.025590127334
-0.00300083239563
0.0122531382367
0.000154659763211
-0.0056881881319
-0.00481973355636
0.0405254624784
-0.00491545675322
0.02173708193
-0.00395122542977
-0.0123682683334
-0.00522845517844
-0.00974550005049
0.00905762705952
-0.00345406471752
-0.0707299783826
0.0179919358343
-0.0049144551158
0.021848205477
0.0087962243706
-0.00378511939198
0.039914868772
0.0410408377647
-0.00733488518745
-0.0120615595952
-0.00507876090705
-0.00259303697385
0.00514260679483
0.0486129298806
-0.00631943484768
-0.000973700836767
0.0145806455985
0.0139007279649
0.00238478626125
0.0414517149329
-0.00430381949991
-0.00497137196362
0.00448492635041
-0.00610065553337
0.00380674866028
0.0469778105617
-0.00433113379404
0.0188480131328
0.0203954409808
0.0114537486807
0.0198611021042
0.00435987021774
0.0178904682398
0.000281485990854
0.000929825182538
-0.000481724215206
-0.00333971972577
0.0185090899467
0.00636847317219
0.0273961424828
-0.0211119931191
-0.00277864839882
-0.00563637213781
-0.00456558074802
0.0152964396402
0.00535743962973
-0.00851700082421
-0.000491622078698
0.0336786769331
-0.00452038832009
0.00673656538129
-0.0129522588104
0.0470131151378
-0.00697286566719
0.0160593111068
0.0109536359087
0.000378408993129
0.0223803967237
-0.00623992877081
0.00783067196608
-0.00161625212058
0.0566574409604
-0.0300757642835
0.0105557935312
0.0253821443766
-0.00339934788644
0.0127539783716
0.000575122947339
0.0244572144002
-0.00112690264359
-0.00755042629316
-0.00355060352013
-0.00101510924287
-0.00369910267182
0.0352524705231
-0.00116052560043
-0.00413938192651
-0.00682615814731
0.00857875775546
0.00455429730937
-0.00416123820469
0.0114709660411
0.000992292305455
0.0131046939641
0.0178808011115
-0.00539269344881
-0.00238334643655
-0.00996113196015
-0.0114625860006
0.00220893532969
0.0208521652967
-0.00520691694692
0.00270126038231
-0.00292390212417
0.00122643681243
0.0360552445054
0.00322656193748
0.00349703431129
0.00130354519933
-0.00205655489117
-0.00362420082092
0.00954831857234
0.0110974097624
-0.00365107948892
0.00696456851438
-0.00205498677678
-0.00412232801318
-0.00367274601012
0.0046678041108
0.00439709518105
0.00417750515044
-0.000818962813355
0.0123653449118
0.00380718102679
-0.00642265938222
-0.00451997993514
-0.00742897437885
-0.00287376297638
-0.0075608426705
0.00569554418325
-0.00943316146731
-0.000299604202155
-0.00876378640532
0.00373778585345
-0.00540232192725
-0.00233399472199
-0.00457549793646
-0.00435015093535
0.00418308610097
0.00180922262371
-0.00936375372112
0.00629673246294
-0.00515999691561
-0.00433467235416
0.0705956667662
0.00757693313062
-0.00318889832124
0.0100152399391
-0.00566789740697
-0.00613989355043
0.00147843966261
0.0153840593994
-0.00971189513803
-0.00210829824209
0.000790233723819
0.00998597219586
-0.00654477952048
0.00480236066505
-0.00622971495613
-0.00595953967422
-0.00588607834652
-0.00520021328703
-0.00674998247996
0.0128940213472
-0.000615057360847
0.00496244151145
0.0079746870324
-0.00189114874229
0.00595336174592
-0.00183206889778
-5.68003924855e-05
0.00389280240051
0.00243040220812
-0.00627779169008
-0.00090139178792
-0.00346722756512
-0.00545531092212
0.0101441266015
-0.00428414251655
-0.00730920629576
-0.000207459786907
0.0129898246378
0.00299263722263
-0.00217955582775
-0.00973993726075
0.00166576518677
0.0195467397571
0.0136804431677
-0.00533776404336
0.00550569081679
0.0126706659794
-0.00794829055667
-0.00137351162266
0.00015632029681
-0.00560419354588
0.00331849628128
-0.00588193163276
-0.00165649305563
0.00135262671392
0.0162078551948
-0.0135623821989
0.0138842146844
0.000867713533808
-0.00530996220186
-0.00562980817631
-0.00355642591603
0.00549804093316
-0.00681328307837
-0.00864876434207
-0.00676377722993
-0.00699038803577
-0.00283536780626
0.000311452866299
-0.00700789457187
-0.00515931937844
-0.0107931867242
-0.0040421038866
-0.00610448187217
0.00729705300182
-0.00263234996237
-0.000577307655476
-0.00225943047553
-0.00113860738929
-0.0049277828075
0.011892914772
-0.00260296789929
-0.00223506847396
-0.00437603332102
0.00249390583485
0.00545595120639
-0.00108211801853
-0.00464761303738
-0.00253163906746
0.00898290984333
0.0255866982043
0.0223591215909
0.0155512019992
0.00488573918119
-0.00186755822506
-0.00145537732169
0.0210917815566
-0.00386242964305
-0.0141393523663
0.0174554008991
0.00829829834402
-0.000608483329415
-0.00531300809234
0.0126486932859
-0.0129220010713
0.0111000752077
0.00110858841799
-0.00653354357928
0.00350496545434
-0.0106259724125
-0.000988132087514
0.0133927008137
0.0030286188703
-0.00926761049777
-0.000214814499486
-0.0142583204433
0.00108090508729
0.0220418963581
0.00308021856472
0.015634668991
-0.00643262034282
0.00155394396279
0.000641089049168
-0.00132550287526
0.00110220571514
-0.00205393438227
-0.00812396313995
0.00469374004751
0.0923226624727
-0.0105399983004
0.0134915085509
0.0299347862601
0.00442029163241
0.00208101398312
0.00664289342239
-0.00693734176457
0.00604885350913
0.0131647288799
-0.000593432108872
0.00883189868182
-0.00528313685209
-0.0137729784474
0.00512251351029
0.00349627481773
-0.00687947543338
0.00902679748833
-0.00651789223775
-0.0113791208714
0.0145099507645
0.00188142363913
0.0012479366269
-0.00365457264706
0.000395172624849
0.00306559773162
-0.00681614782661
0.0149621851742
0.0128428135067
-0.00182212947402
0.0145169096068
-0.0152672482654
-0.00723547907546
0.000380556914024
0.00872572790831
0.00022992742015
0.0167554784566
0.0285686906427
0.00183358439244
0.00201506353915
0.00408636778593
0.0154726076871
0.00766141200438
0.0285288877785
-0.0145435463637
0.0250836126506
-0.0118087623268
0.00639566686004
-0.00728657655418
0.00274197524413
-0.000156156209414
-0.00599948922172
0.00900154840201
0.00245451880619
0.0152691164985
-0.0105500025675
0.00990649498999
0.0147418165579
-0.0131841497496
0.00372408353724
-0.0215685684234
0.0129647227004
-0.00256031495519
-0.00172440975439
0.00602089939639
0.000492909166496
-0.00138739403337
0.012845620513
-0.0269450489432
0.000644142273813
0.00809868331999
0.00181385444012
-0.00532544916496
-0.00649257143959
0.0181267987937
-0.0106432149187
0.00793074443936
-0.0145419342443
-0.00840686354786
0.00725006032735
0.0195694863796
0.0148156424984
0.0158071238548
0.000869869079906
-0.00456511927769
0.0196352340281
0.00890809111297
0.00330610247329
0.00712107634172
-0.00722074043006
-0.0716116428375
-0.0624836683273
-0.0507526509464
-0.0351673066616
-0.0273977220058
-0.018468208611
-0.045535735786
-0.0211361832917
-0.0215564426035
-0.0647930204868
-0.0439338907599
-0.0250799879432
-0.0244322549552
-0.0440200604498
-0.0175941325724
-0.101232908666
-0.00642257044092
-0.0235719121993
-0.0339348502457
-0.0142912566662
-0.0170335061848
-0.0828772932291
-0.0302519071847
-0.0236709564924
-0.0209224689752
-0.0183811485767
-0.0230228099972
-0.0623278319836
-0.0366175659001
-0.0941459089518
-0.016136655584
-0.0268457755446
0.0143066775054
-0.0343323759735
-0.0229125544429
-0.0298522729427
-0.0112510863692
-0.0345728732646
0.0193822514266
-0.0183605793864
-0.0923599526286
-0.0615312866867
-0.0375362336636
-0.0245860461146
-0.0431568659842
-0.00643327925354
-0.0616576708853
-0.0845603123307
-0.034980237484
-0.0302345696837
-0.0140356887132
-0.0171969030052
-0.0386430621147
-0.0358785763383
-0.0149990646169
-0.0560387931764
-0.0160540882498
-0.0132653266191
-0.0981262922287
-0.0344638414681
-0.0310245510191
-0.0264736618847
-0.0307734124362
-0.0378351658583
-0.0270085353404
-0.0703013464808
-0.0734016150236
-0.0195240862668
-0.0526160001755
-0.0109925828874
-0.0139517001808
-0.019232230261
-0.0748532265425
-0.023578453809
-0.0995816290379
-0.0551512502134
-0.0372384227812
-0.0320466309786
-0.0334547236562
-0.0886767655611
-0.00393775710836
-0.0499334707856
-0.0111602293327
-0.0666087120771
-0.0121400645003
-0.0558238103986
-0.0238023195416
-0.0400680303574
-0.0250435620546
-0.0295364875346
-0.0627582371235
-0.0415888801217
-0.0901227816939
-0.00692270696163
-0.0731817260385
-0.026698788628
-0.0198310241103
-0.0324436426163
-0.0103921797127
-0.0677884966135
-0.0289736781269
-0.0188808795065
-0.0506651513278
-0.0243541561067
-0.0192867163569
-0.076858215034
-0.0149490125477
-0.025907902047
-0.0664882138371
-0.0241425354034
-0.016809893772
-0.014148957096
-0.052408143878
-0.0130151342601
-0.0471743233502
-0.0108333528042
-0.0265061706305
-0.0414389818907
-0.0465268269181
-0.095765799284
-0.0963741391897
-0.024700243026
-0.0282767079771
-0.0531045384705
-0.0458309985697
-0.0306336637586
-0.0404255799949
-0.0153807206079
0.0176278278232
0.0144800515845
0.0108191091567
0.000861583335791
-0.00314496736974
0.000766703218687
0.0153659312055
-0.0037003105972
-0.00371212000027
0.0103235207498
0.00384289515205
-0.00311861350201
-0.00205612159334
0.007498848252
-0.0107154799625
0.00505205662921
-0.00599796511233
-0.00497230375186
-0.000202008537599
-0.0101816086099
-0.00281153921969
0.0106366788968
-2.39655400947e-05
-0.00247306819074
-0.000846291484777
-0.0106280650944
-0.000284154783003
0.0152695523575
0.00105680641718
0.00990937836468
-0.00869289785624
0.000647005217616
-0.00625221151859
-0.00107693090104
-0.000663167447783
-0.000818130967673
-0.00920395366848
0.000771494000219
0.0931083634496
-0.00458543421701
0.00774127338082
0.0228784475476
0.00179946853314
-0.00127812393475
0.00476707983762
0.00092890043743
0.00449571013451
0.0108240628615
0.000207617442356
0.00832494068891
-0.00604843301699
-0.00738933915272
0.00238676019944
0.00111484958325
-0.00545337377116
0.00491930963472
-0.00680258311331
-0.00242849439383
0.0131564540789
0.00158574304078
0.00335138686933
-0.00560538424179
-0.000520483241417
-0.00047282743617
-0.00756176235154
0.0140451034531
0.0128394281492
-0.00406481465325
0.00975361373276
-0.0136260073632
-0.00829395372421
0.00340006733313
0.00335839157924
-0.00242900149897
0.0116847977042
0.0223692432046
0.000113022739242
-0.000120584867545
0.00185650901403
0.0152773270383
0.0115068461746
0.0227240025997
-0.0128602068871
0.0173836797476
-0.00326814455912
0.00477664032951
-0.00724455108866
0.000524771108758
-0.00208565522917
-0.00441044056788
0.00592198781669
8.33640078781e-05
0.0140004530549
0.00234845490195
0.00342372385785
0.0139356702566
-0.0103499162942
-0.000761730305385
-0.0174908079207
0.0135938972235
6.28262132523e-05
-0.00274799461477
0.00356219126843
-0.00178369041532
-0.00284142699093
0.00899532623589
-0.0174056813121
-0.00178725551814
0.00752942916006
-0.00049250444863
-0.00694209942594
-0.0068936040625
0.0136272711679
-0.00918113719672
0.00293461373076
-0.0125007284805
-0.00917440559715
0.00317455129698
0.0157769862562
0.00840962585062
0.0114362221211
-0.00338458642364
-0.0041035041213
0.0129596022889
0.00305975205265
-0.000813608698081
0.00171726767439
-0.00185987574514
-0.00838449317962
-0.00809763744473
-0.000210504920688
0.00312203890644
0.00686687463894
0.0244448445737
-0.00109951698687
0.00561646278948
0.0414030216634
-0.00530284270644
-0.00157278135885
0.0057118255645
0.0198911521584
0.00387523858808
0.0202518999577
-0.00906407367438
-0.0497600845993
0.0183154195547
-0.00174014433287
0.0133266467601
0.00497710611671
-0.000308663758915
-0.00167973793577
0.038210272789
0.00219460413791
0.0210214685649
0.000564518384635
-0.00851846672595
-0.00164597120602
-0.00835523102432
0.0102830911055
0.000707027269527
-0.06641484797
0.0115051306784
0.000703953322954
0.0111688505858
0.0116561399773
-0.000458174617961
0.0874819085002
0.0371416732669
-0.00913256686181
-0.00503575010225
-0.00185985933058
0.00183669896796
0.00641439016908
0.0371011607349
-0.0025915610604
0.00115290388931
0.00989483762532
0.0109183751047
0.00762281194329
0.0345524512231
-0.000902292435057
-0.00135957286693
0.00806675013155
-0.00210260716267
0.00742299761623
0.0365266799927
0.000355854106601
0.0109712155536
0.0116278138012
0.0089708128944
0.012613851577
0.00364214833826
0.00967167411
0.00417198054492
0.00371994590387
0.00374274118803
0.000339904043358
0.0159131400287
0.00830713193864
0.0207132752985
-0.0182537790388
0.0013584572589
-0.00234569259919
0.00064934900729
0.00911582075059
0.00598699552938
-0.00222674757242
0.00404802942649
0.0287209153175
-0.00128361105453
0.00950316060334
-0.00727008515969
0.0362054258585
-0.00446495693177
0.0105881066993
0.00801307056099
0.00389618403278
0.0248943772167
-0.00213981280103
0.00492013152689
0.0033908218611
0.0488517582417
-0.0196207240224
0.00979929231107
0.0197239760309
-0.000971890345681
0.0141295036301
0.00658769113943
0.0173498876393
0.00379226705991
-0.00272994907573
0.000423887977377
0.00345710688271
0.000918728648685
0.0340420864522
0.00072316150181
-0.00160984147806
0.000982542755082
0.00983466859907
0.00782448798418
-0.0031974632293
0.0132999699563
0.00222504441626
0.013970438391
0.0114009492099
-0.00228316080756
0.00161947298329
-0.00652437470853
-0.00688662845641
0.00426853261888
0.0159851778299
-0.00223370222375
0.00210188445635
0.000480346265249
-0.000154767825734
0.0276772603393
0.00709711154923
0.00373632740229
0.0102112209424
0.00727143324912
0.00840424187481
0.0126281380653
0.00233992980793
0.00852099619806
0.0229040496051
0.00864566583186
0.00627992069349
0.00856127683073
0.00800002925098
0.0076479492709
-0.00196681893431
-0.0049123656936
-0.0860173255205
0.00475942064077
0.0108425756916
0.00633781403303
0.0188675243407
0.0163555014879
0.0165830235928
0.0180721096694
0.0177468061447
0.00835391785949
0.0179921034724
0.0053017931059
0.0137553280219
0.00442541576922
0.00760948192328
0.012486464344
-0.0951810032129
0.00444814004004
0.0214163027704
0.000274426245596
0.0117593044415
0.011245790869
0.11297891289
0.0157777462155
-9.67860250967e-05
0.00355277443305
0.0113839870319
0.0123846651986
0.0105952974409
0.01902288571
0.0184986777604
0.0214351397008
0.00287809292786
0.010048978962
0.0163960978389
0.00991970207542
0.012686688453
0.0127333831042
0.0132351638749
0.0130255296826
0.0093106366694
0.0148252965882
0.0174038801342
0.0032945740968
0.0040773623623
0.00611609080806
0.00454182736576
0.00654599908739
-0.00418521463871
0.0252769142389
0.0260565523058
0.0144756101072
0.00908623449504
-0.000339023332344
0.00890811625868
0.0112282130867
-0.0181144308299
0.0135570783168
0.0121377212927
0.00399615149945
0.00241375016049
0.00563236651942
0.0193985775113
0.0261868089437
0.0232518557459
-0.000153926608618
0.00161421182565
0.00510237878188
0.0139305805787
0.0155069213361
0.000894897442777
0.00782136525959
0.010570935905
0.0131076341495
0.0134130427614
0.00271379179321
0.0243623722345
0.0262608714402
-0.0102958185598
0.0157024003565
0.00228892685845
0.00998308416456
0.000561449327506
0.0359401777387
0.00761601189151
0.0142275271937
0.0159176364541
0.0134416352957
0.014618339017
0.0175290331244
0.0130829298869
0.0139012457803
0.0160638261586
0.0199207831174
0.00647225044668
0.0110865011811
0.00472020357847
0.00650108978152
0.00898435059935
0.00328724156134
-0.00188154086936
0.0101932855323
0.0105082979426
0.0016159536317
0.00745053216815
0.00887702591717
0.00254151970148
0.00625319918618
0.00687642488629
0.00954604241997
0.00390343484469
0.0100531792268
0.00790504924953
0.00327459932305
0.00784792937338
0.00271075451747
0.00133128871676
0.00663298042491
0.00223830575123
0.00218609068543
0.0189250670373
0.00789561495185
0.0040586469695
0.00216426723637
0.00416281959042
0.00439957855269
-0.00461038714275
-0.00598778016865
-0.0666122734547
0.00111936719622
0.00523764640093
0.000511977239512
0.00934478826821
0.0132337883115
0.00797239877284
0.0128440540284
0.00882492493838
0.00374391046353
0.0101913064718
0.0042609591037
0.0085383951664
0.00243609840982
0.00103344395757
0.00559846078977
-0.0717717856169
0.0014439127408
0.0112362783402
-0.00392196001485
0.00575485220179
0.00555799063295
0.123697504401
0.0116808293387
-0.000681699253619
0.0059427479282
0.00596544565633
0.0058121168986
0.00814697984606
0.012565754354
0.0122753567994
0.0184958018363
0.000103776466858
0.00747835822403
0.00858626514673
0.00561496708542
0.00732146482915
0.00717992149293
0.00528260273859
0.00745318410918
0.00197206158191
0.00924986600876
0.0143328458071
0.000425246165833
0.00159378512762
0.00231239339337
0.00125297100749
0.00340083730407
-0.0044365413487
0.0222946088761
0.0226643104106
0.00711390236393
0.00698061939329
-0.00257000979036
0.00233868416399
0.00772931426764
-0.0135198766366
0.00658050039783
0.00946353096515
0.00729700597003
0.000495605403557
0.00281411292963
0.0102880289778
0.0231594853103
0.0174977555871
0.00172765238676
-0.000631889328361
0.00633134506643
0.00877695996314
0.0107453968376
-0.00273710000329
0.00441390881315
0.00444234861061
0.00903933681548
0.00949035771191
0.000838646781631
0.0200495328754
0.0201054885983
-0.00763370748609
0.0105631807819
-0.0021594746504
0.00502813886851
-0.00380332185887
0.0293673798442
0.00204910431057
0.00788723398
0.00844269432127
0.00772307813168
0.00729355867952
0.0143488505855
0.00742781534791
0.00700527988374
0.0123175494373
0.00971846748143
0.00218517659232
0.00400715367869
0.00368633051403
0.00162345916033
0.004992951639
0.000302269734675
-0.0050958734937
0.00477557536215
0.00995283480734
0.00111941492651
0.00840138271451
0.0030317644123
-0.000707846949808
0.00545399170369
0.00274069327861
0.00541746104136
0.00172622280661
0.0055556865409
0.0112615088001
0.00655409740284
0.00893568247557
0.00128263782244
-0.000535738887265
0.00339485751465
0.00571178738028
-0.000769338919781
0.00909950304776
0.00893560703844
0.00350858434103
0.000337885459885
1.59282917593e-05
0.00492629455402
-0.00823510158807
-0.00353948399425
-0.0480214245617
-0.00155685050413
0.0041600111872
-0.00410404475406
0.00446756090969
0.0131177017465
0.00495168892667
0.00654217321426
0.00441419146955
-0.0019003652269
0.00451423320919
0.00750805437565
0.00398341706023
0.00558959878981
-0.00331642176025
0.00243243412115
-0.0503930151463
-0.00165419047698
0.00620536552742
-0.00545452069491
-0.000755874905735
0.00439274776727
0.113781228662
0.00436184694991
0.000715020520147
0.0107153030112
0.00483726430684
0.00227466644719
0.00432153884321
0.00739823747426
0.0100841652602
0.0151140326634
-0.00175627216231
0.00563622731715
0.00159891729709
-4.21642180299e-05
0.00453110458329
0.00347538641654
0.000141409764183
0.0075502069667
-0.00148876977619
0.00492594204843
0.0133192483336
-0.000836543214973
-0.00111833831761
-0.00219622859731
-0.000757767818868
0.000507722143084
-0.00748758949339
0.0180128142238
0.0191132035106
0.00254569551907
0.00621180050075
-0.00739777181298
-0.00322413304821
0.00392943946645
-0.0065564266406
0.00277508655563
0.010810685344
0.0103986347094
-0.00185836781748
0.000973483198322
0.00593288242817
0.0199240911752
0.0157727729529
0.00935996510088
-0.00706309219822
0.00808209646493
0.00351859815419
0.00803398247808
-0.0040419776924
0.00257948669605
0.00112356664613
0.00259925285354
0.00789062492549
0.000941843783949
0.017568923533
0.0115700829774
-0.00154459755868
0.0104496218264
-0.00561928423122
0.00402302434668
-0.0099372882396
0.0239311214536
5.56143240829e-05
0.00268829567358
0.00758750876412
0.00251831044443
0.00332253938541
0.012556437403
-0.00326213706285
0.00228195684031
0.0114174773917
0.00719028804451
-0.00282321311533
-0.000799663655926
0.00576628977433
-0.00415043765679
0.00385405635461
-0.00515728164464
-0.00723715173081
0.00420061405748
0.0116627980024
0.00438187178224
0.00919027067721
0.000798715511337
-0.00201324047521
0.00695722550154
0.00431076390669
0.0043223798275
0.00206420058385
0.000578838342335
0.0116477515548
0.00769023783505
0.00783336907625
0.000850045122206
-0.00104567909148
0.00185351434629
0.00576201546937
-0.00132745574228
0.00480458233505
0.00867636222392
0.00273579754867
-0.00152009620797
-0.00336187775247
0.00356162013486
-0.0106579624116
-0.00401232810691
-0.0392128899693
-0.00346248433925
0.00330102676526
-0.00534360622987
0.00469627184793
0.0120399119332
0.00518128741533
0.00211887503974
0.00512480689213
-0.00328701967373
0.00442988937721
0.00799730978906
0.00423114793375
0.00494907097891
-0.00328251346946
0.0028488135431
-0.0411907434464
-0.00242253183387
0.00673879403621
-0.0063018114306
-0.00237831985578
0.00422218581662
0.110743835568
0.00129455584101
0.00187514000572
0.0120298266411
0.00513632595539
0.00186076725367
0.00442883465439
0.00252533424646
0.0101837981492
0.0144740659744
-0.00444667693228
0.00469513563439
0.00181317329407
-0.00441280379891
0.00409109797329
0.00414899550378
-0.000498874927871
0.00715404050425
-0.0009574793512
0.00209880038165
0.0139270219952
-0.00290700350888
-0.00270732538775
-0.00235414598137
-0.00199822778814
0.000816038285848
-0.00907307397574
0.0172971654683
0.0174120757729
0.00285558938049
0.00733784399927
-0.00884751323611
-0.00172303139698
0.00109075079672
-0.0061029647477
0.0034168199636
0.0105278613046
0.0124609516934
-0.00339892576449
6.19593120064e-05
0.00666424771771
0.0185069721192
0.011902846396
0.0109244659543
-0.00582178449258
0.009466746822
0.00164101331029
0.00754898134619
-0.00544127589092
0.00104361341801
4.0155260649e-05
0.00220983359031
0.00751878041774
-0.00229545426555
0.017103632912
0.00617323303595
-4.36902519141e-05
0.0101992823184
-0.00748133054003
0.00283945561387
-0.0113846231252
0.0224269572645
-0.000193957428564
0.00223122560419
0.00699586886913
0.00299096340314
0.00105058948975
0.0125707266852
-0.00694580934942
0.00256551639177
0.00949255656451
0.00640499312431
-0.00290655018762
-0.000590626557823
0.00537421554327
-0.00418045977131
0.00267840083688
-0.00674456451088
-0.00815179478377
0.0043466668576
0.0112106464803
0.00450107594952
0.00803131610155
-0.000856873230077
-0.00475636031479
0.00727759767324
0.00219329353422
0.00259875762276
-7.83265568316e-05
-0.00309568108059
0.00513108540326
0.00180912599899
0.00492956582457
0.00116057216655
0.000317858881317
0.00843176804483
0.00328534725122
0.000157552218297
0.0160172674805
0.00337282428518
0.00183980085421
0.000728856422938
0.00581094715744
0.00454367138445
-0.000804612645879
-0.00325792864896
-0.0366953276098
0.00346034183167
0.00172140018549
0.00108170951717
0.00164036790375
0.00816951971501
0.00120825623162
0.0120627908036
0.00115250586532
0.00114625529386
0.00088909646729
0.00325114838779
0.00213707168587
0.00164645770565
8.98295911611e-05
0.000707972445525
-0.0440552867949
0.00254632881843
0.00191699550487
-0.000640825659502
3.16694458888e-05
0.0018429501215
0.0988355576992
0.0131410053
-0.00189545471221
0.00670354580507
0.00158520217519
0.00035362545168
0.00368055701256
0.0155605925247
0.00601746700704
0.011747341603
0.00111788092181
0.00763028254732
0.00106386037078
0.00779640488327
0.00285613210872
0.00257272948511
0.000873064331245
0.00357396248728
-0.0010471950518
0.0130087006837
0.0107669299468
0.00318704289384
0.00290516577661
-0.000510810466949
0.00292775733396
0.000211561375181
-0.00240533798933
0.0154148861766
0.0150460144505
0.00083455996355
0.00383582478389
-0.0026082622353
-0.000525973271579
0.00922904349864
-0.00904006976634
0.000723385135643
0.0093623585999
0.00722328526899
0.000240306500928
0.00110168533865
0.0018082561437
0.0162430740893
0.0193336587399
0.00478357961401
-0.00378522113897
0.00407802918926
0.0128227863461
0.00378572754562
-0.00173801160417
0.00325527763925
-0.000660756544676
0.00596062559634
0.0051247193478
-3.79736520699e-05
0.0157742556185
0.0204189531505
-0.00857483129948
0.0105941183865
-8.82212043507e-05
0.000776844215579
-0.00485072378069
0.0178968682885
0.00592439156026
0.00132814515382
0.00234462716617
0.000422334764153
0.000817153370008
0.0104310959578
0.00505746994168
0.00104287895374
0.00728063844144
0.00119734520558
-0.000571754004341
0.000782008632086
0.0039812317118
-0.0010221946286
0.00203495589085
-0.00136726361234
-0.00219138944522
0.00165738852229
0.00872133579105
0.00151525856927
0.00524802738801
-0.000251100078458
0.00270308600739
0.00439984537661
0.0019771293737
0.000838697247673
9.88996325759e-05
0.00782348401845
0.0214396826923
0.019348975271
0.0109864976257
0.0042816712521
-0.000342544197338
-0.0035938876681
0.017917688936
-0.00113626278471
-0.0121908923611
0.013670200482
0.00766888447106
0.00141836050898
-0.00492540281266
0.0086417440325
-0.00908225495368
0.0152141219005
0.0189037080854
-0.00477052712813
0.00510252127424
-0.00555010186508
0.00222646770999
0.0133982840925
0.00459871906787
-0.00842311885208
0.00432248553261
-0.00980348419398
0.00345534645021
0.0186960734427
0.00669972132891
0.0175759382546
-0.00410538073629
0.00348979444243
0.0225550420582
-0.00122533692047
0.00422764196992
-0.00206881365739
-0.00453898264095
0.00530934380367
0.085260540247
-0.0108372895047
0.0154991522431
0.0274292659014
0.00560507783666
0.0039621097967
0.00509902043268
-0.00918025150895
0.00844840239733
0.0127857225016
-0.000208540805033
0.00566809810698
0.000524312839843
-0.0104814721271
0.00601848913357
0.00517863314599
-0.00252132536843
0.00934769865125
-0.00363888079301
-0.0121104875579
0.0175472013652
0.00113413040526
0.000598754908424
-0.00392150785774
-0.000373012153432
0.00246184319258
-0.00448678713292
0.0143037335947
0.0131986401975
0.00269568245858
0.01004274562
-0.0112828379497
-0.00534087652341
-0.00135797949042
0.0134238125756
0.00229406775907
0.0178241413087
0.0260843262076
0.000209143356187
0.00217912439257
0.00712833274156
0.0177150145173
0.00211721891537
0.0254333540797
-0.00954982917756
0.022153891623
-0.010924808681
0.00856927968562
-0.00509258685634
-5.90453710174e-05
0.00150167546235
-0.00687899859622
0.00984729919583
0.00330321420915
0.0163493826985
-0.0120561681688
0.012023604475
0.00944932270795
-0.00991613790393
0.00454965652898
-0.0148252276704
0.0140702081844
-0.00266078906134
0.0014460120583
0.00784020870924
0.00334556307644
0.00233896053396
0.0109677063301
-0.0208193939179
0.00337660778314
0.00988944154233
0.0045272889547
-0.00314216595143
-0.00278117740527
0.0148938931525
-0.00693263951689
0.00530787929893
-0.00900178868324
-0.00545181240886
0.00746613461524
0.0160197485238
0.016239637509
0.0183778367937
0.000557817984372
-0.00479454686865
0.0167178753763
0.00638087000698
0.0045751449652
0.00514485547319
-0.00702369445935
0.0253011398017
0.017330121249
0.0158673990518
0.0125192459673
0.00908086821437
-0.00354638090357
0.00747268088162
0.0108815431595
0.00536573398858
0.0202835649252
0.0154299391434
0.0114239053801
-0.00549875991419
0.00850963592529
-0.012789809145
0.0135216200724
-0.0380765646696
-0.00442388420925
0.0199741888791
0.00307416799478
0.0252171177417
0.0273022353649
0.0252573266625
0.000988483661786
0.0261622946709
0.00131387787405
0.0255833864212
0.0179785583168
0.0211035106331
0.0257352292538
0.00638361414894
0.0196106825024
-0.0335659831762
-0.00166344153695
0.029227392748
-0.00828595552593
0.0137357087806
0.0188947431743
0.119025357068
-0.00167900940869
0.0181619171053
0.0255474448204
0.0213747192174
0.0182287395
0.00960983056575
-0.00882801041007
0.0259344819933
0.0273755285889
-0.00176046101842
0.00397352129221
0.0214568264782
-0.00756263406947
0.0218264199793
0.0218537449837
0.0158884488046
0.0231223292649
0.0118082175031
-0.0126715777442
0.0299376025796
-0.00389902084135
-0.00396804511547
0.0046348143369
-0.00292712380178
0.0103153353557
-0.00654824031517
0.0238729678094
0.0239428225905
0.0218895729631
0.0155690284446
-0.00636060396209
0.00897555146366
-0.00211045052856
0.00959510076791
0.0203485284001
0.0263858679682
0.0237193778157
-0.00157037912868
0.0106875132769
0.0271864235401
0.0283723399043
0.00437805941328
0.0196122620255
0.00349118444137
0.0224221535027
-0.0143449017778
0.0266868192703
-0.00308354059234
0.0039715655148
0.0150661030784
0.00361990416422
0.0228778365999
0.00425469316542
0.026665398851
-0.00806503836066
0.0198940876871
0.00896467547864
-0.00718111451715
0.0188686717302
-0.00240060430951
0.0300124958158
-0.00179472088348
0.0204702038318
0.0253857634962
0.0217604637146
0.020197160542
0.0252719707787
-0.00327588338405
0.0189203564078
0.0246672444046
0.0279956832528
0.00800681486726
0.0128119690344
0.0109567586333
0.00370060512796
0.0110862860456
0.00139814242721
-0.0061306944117
0.0195180103183
0.0152014102787
0.022779636085
0.0278674699366
0.0134341809899
-0.00325369415805
0.0151221686974
0.00917993299663
0.0183413699269
0.0104023013264
-0.00669452128932
0.00966526381671
0.0152637502179
0.0218845382333
-0.00276071368717
0.00234188535251
0.0433765538037
0.0503695718944
0.00163382245228
0.0571049787104
-0.00284816185012
-0.0123876845464
0.00215517054312
0.021548544988
0.0253352075815
0.00314295920543
-0.0473211929202
-0.0417392961681
0.0149077670649
-0.00617175782099
0.00859809760004
0.0127479881048
-0.0485644638538
-0.00299484911375
0.0487497486174
0.00421027326956
0.0206328574568
0.00343777565286
0.0156414788216
-0.00840728729963
-0.0414721779525
0.00430156756192
-0.000354376272298
-0.0463171564043
0.00768692651764
0.00673956610262
0.0228711050004
0.00813305191696
-0.00723074004054
0.2435772717
0.0484164059162
-0.0439172536135
0.0437094084918
-0.00634063547477
0.00324640329927
0.0145917860791
0.0732748433948
-0.0433616787195
-0.0552156567574
0.00556240184233
0.0495627261698
0.0112981693819
0.0328728370368
-0.00849762372673
-0.00505605759099
0.0102216945961
-0.0210941899568
0.00444471882656
0.056882660836
-0.0553048327565
0.0204389318824
0.0256969947368
0.00125645415392
0.0213729757816
-0.002840684494
-0.00245687924325
-0.0512571707368
-0.0630123689771
0.00772990984842
0.0172442663461
0.00984461512417
0.00704537844285
0.0456883274019
-0.03006003052
0.00336988829076
-0.0510648600757
0.0619477517903
0.0121179958805
-0.00225580227561
-0.00240190699697
-0.0643254220486
0.10178758204
0.0642206668854
0.0117704337463
0.0184345543385
0.0555097498
-0.0232601780444
-0.00337775982916
0.00836609862745
0.0022869806271
0.025891540572
-0.0319528058171
-0.00218057003804
-0.0613019242883
0.0873058289289
-0.0328187122941
0.0781644880772
0.00593549991027
-0.00716466456652
0.011280009523
-0.0699364468455
0.020464906469
0.00556418672204
-0.0196467842907
0.000255394174019
0.00663985405117
-0.0453473366797
0.0283241719007
0.000434047251474
-0.042817633599
0.00458930199966
0.00460837129503
0.00851047690958
0.0406419970095
0.0109828999266
0.00283918320201
0.0132049592212
-0.00370505312458
-0.0128842936829
0.0680944547057
-0.0470504537225
-0.0470930896699
0.000719253497664
0.0115113221109
0.0446159653366
0.000617986021098
-0.00169261288829
-0.00490578869358
0.0361667349935
0.0133390864357
0.00688053574413
0.00931199267507
0.00295541388914
0.00413331529126
0.00236167595722
0.0051651801914
0.00350469443947
0.0136477872729
0.0101234372705
0.00475040776655
0.00395560218021
-0.000813688384369
0.00517339166254
-0.011960552074
-0.00130285008345
-0.0598856769502
-0.00312454556115
0.00904963631183
0.00105072488077
0.016682330519
0.0181008093059
0.0150264939293
0.00522061949596
0.0160369705409
-0.000146927166497
0.0167273040861
0.00778113678098
0.0110694151372
0.00851394608617
0.000647095323075
0.0102223157883
-0.0635166317225
-0.0017305505462
0.0192277766764
-0.00702135870233
0.00655189156532
0.00900397263467
0.138941988349
0.00447557447478
0.00438349554315
0.0126488199458
0.00981067307293
0.00942870415747
0.0078548733145
0.00609114626423
0.0181342661381
0.0217004828155
-0.00294846715406
0.00679938681424
0.0119305513799
-0.00259148259647
0.0124854519963
0.0106876278296
0.00952361244708
0.0120944241062
0.00583413708955
0.00122347276192
0.0193476881832
-0.00237145111896
-0.00196616211906
-2.77211020148e-05
-0.00208383006975
0.00251918914728
-0.00905792508274
0.0254911147058
0.0251976810396
0.0114733688533
0.00768379075453
-0.00672347797081
0.00284852669574
0.00391167216003
-0.00675452128053
0.0129428962246
0.014381563291
0.00998595636338
-0.00345278251916
0.00239597563632
0.0166186075658
0.0267082322389
0.0159078221768
0.00853857025504
-0.00247626751661
0.0114155029878
0.000488321529701
0.0142031544819
-0.0050928350538
0.00235589011572
0.00714361201972
0.00294012133963
0.0144824180752
-0.000500657653902
0.0236540790647
0.0112013183534
0.000837147876155
0.0123831955716
-0.00783575046808
0.00884457118809
-0.00534691801295
0.0332142226398
6.75854826113e-05
0.0135880718008
0.0141668636352
0.0119529813528
0.0128948166966
0.0188038852066
0.00174961530138
0.0100334342569
0.0157822445035
0.0184110011905
0.00218276819214
0.007853070274
0.00696335406974
0.000562310393434
0.00538643589243
-0.00169840944
-0.00871788151562
0.00809503346682
0.0140503803268
0.00719082262367
0.0129439458251
0.00359178334475
-0.00409886287525
0.00883938930929
0.00320048700087
0.0083771655336
0.00171212025452
-0.00117101997603
0.0244793239981
0.0189863704145
0.0167972967029
0.00721774017438
0.00401275232434
-0.00419856142253
0.015052489005
0.00280017289333
-0.00606918660924
0.018502227962
0.0118218930438
0.00423202570528
-0.00501132197678
0.00937272422016
-0.0131844207644
0.0129861198366
-0.0177004840225
-0.00605128705502
0.0108874393627
-0.00438202917576
0.0103643992916
0.0193209722638
0.0121926562861
-0.00471614440903
0.0126171465963
-0.00828207936138
0.0116681214422
0.0220459830016
0.0122520970181
0.0209052637219
-0.00238762772642
0.0105625595897
-0.0145022496581
-0.00183817045763
0.0146454246715
-0.0051238341257
0.000388745014789
0.010510969907
0.102275833488
-0.00770832598209
0.015889223665
0.029119104147
0.012638241984
0.00943038892001
0.00713605713099
-0.00978188589215
0.0150278592482
0.0185015182942
-0.000446938851383
0.00712004257366
0.00650230748579
-0.0116670951247
0.0126823969185
0.0117507819086
0.00314273079857
0.0156479738653
0.00105350569356
-0.0115275587887
0.0223265793175
-0.00134865345899
-0.00221166899428
-0.00192744762171
-0.00170382519718
0.00606231950223
-0.00696935458109
0.0195610094815
0.0178376603872
0.00862437486649
0.014377062209
-0.0123284300789
-0.00101966282818
-0.00134445773438
0.0100557496771
0.0100177479908
0.0199565328658
0.0276262424886
0.000635948206764
0.00500643346459
0.0151503244415
0.0212818998843
0.00558215146884
0.0251876227558
-0.00876187253743
0.024343341589
-0.0124883446842
0.0166130866855
-0.00563996098936
0.00198094011284
0.00646897405386
-0.00248694722541
0.0156942084432
0.00326170562766
0.0208999253809
-0.00988352112472
0.0177978295833
0.0125179886818
-0.0103334290907
0.0101870540529
-0.0143851488829
0.020778324455
-0.00355065753683
0.00746139977127
0.0153588829562
0.010169592686
0.00743095297366
0.0181344896555
-0.0152298267931
0.00897973030806
0.0161595772952
0.0133720077574
-0.000152673848788
0.00208833371289
0.0157230999321
-0.00463427742943
0.0097171748057
-0.00919508654624
-0.00836398266256
0.0126928519458
0.0190160349011
0.0188271831721
0.0219923052937
0.00536937592551
-0.00498300790787
0.0175564754754
0.00946892984211
0.010478803888
0.00847774930298
-0.00925159547478
0.0200494006276
0.0151384621859
0.0134729081765
0.00292264041491
-0.00181421148591
0.00109130551573
0.0166444517672
-0.00398857332766
-0.00434185797349
0.0130629315972
0.00439776666462
-0.00117494550068
-0.00230849697255
0.00948576349765
-0.0107089746743
0.00476256897673
-0.0136247258633
-0.00390713801607
0.00204717041925
-0.0107931327075
-0.000205686941626
0.0103181283921
0.00263624545187
-0.0042175585404
0.000693363486789
-0.0108230272308
0.00133408617694
0.0164180826396
0.00239126826636
0.0114081343636
-0.00744785973802
0.000542443944141
-0.0130545273423
-0.000913970638067
0.00136834091973
-0.00198650499806
-0.00772359967232
0.00216696411371
0.0978304445744
-0.00380861386657
0.00880700536072
0.0228476393968
0.00392756378278
0.00075128080789
0.00516244955361
0.000691437919158
0.0057681617327
0.0130246533081
-0.00160762039013
0.00884410832077
-0.00422859797254
-0.00843277480453
0.00334097887389
0.00191757408902
-0.00435000285506
0.00631036423147
-0.00679205590859
-0.00370376021601
0.0141082238406
0.00125171476975
0.00099844567012
-0.00435643922538
0.00107814441435
0.000669877568725
-0.00683423550799
0.0146823525429
0.0139425303787
-0.00193021644372
0.0120051251724
-0.0131386993453
-0.00749336043373
0.00319244503044
0.00291006360203
-2.51183769251e-06
0.0136856138706
0.0230951476842
0.00167447072454
-0.00107487116475
0.00391751667485
0.0157938953489
0.0127120930701
0.0214720685035
-0.0115997064859
0.0196551773697
-0.00307946791872
0.00699829636142
-0.00692857429385
0.00166448252276
-0.000345285923686
-0.00323103531264
0.00663234991953
0.00139962183312
0.0152357025072
0.000975574250333
0.00429107481614
0.0152700040489
-0.0109260398895
0.00154967384879
-0.0180757753551
0.0146596590057
-0.000510424608365
-0.00177713064477
0.00565006909892
-0.000284656882286
-0.000108078369522
0.0107048647478
-0.0181845556945
0.00052898703143
0.00811611488461
0.00186097389087
-0.00592306209728
-0.00512839108706
0.0134002827108
-0.00908358208835
0.00503513915464
-0.012354336679
-0.00862555485219
0.00497021852061
0.0172443948686
0.0094736199826
0.0128068337217
-0.00150005449541
-0.0037557373289
0.0158118382096
0.00682608038187
0.00338852778077
0.00398025708273
-0.00328262220137
0.0157700777054
0.0130888260901
0.0163558684289
0.0068065514788
0.00717424415052
0.0109079135582
0.0128051508218
0.00691529503092
0.020886445418
0.0140862781554
0.00820155441761
0.00765213789418
0.00499756494537
0.0111639434472
-0.0062788487412
-0.00150462961756
-0.0794547647238
0.00276202824898
0.0119537552819
0.00540731754154
0.0202188696712
0.0199305787683
0.0185788199306
0.0115596037358
0.0218982417136
0.0053667225875
0.0205640792847
0.0132971014827
0.0142400059849
0.00901301391423
0.00574727356434
0.0134981498122
-0.0856862068176
0.00241509522311
0.0235032979399
-0.000911824638024
0.0123523911461
0.0124537879601
0.161737158895
0.0116295255721
0.00396002596244
0.0141934379935
0.0134499846026
0.013374526985
0.0128293614835
0.015312067233
0.0228929296136
0.0253771543503
0.00143498321995
0.0147578604519
0.0177533905953
0.00420536333695
0.0148713206872
0.0145652052015
0.0138546247035
0.0146794514731
0.00951894652098
0.0102589167655
0.020577006042
0.00341883813962
0.00534268515185
0.00493828672916
0.00297109503299
0.00819668080658
-0.00807759724557
0.0306447558105
0.0320640392601
0.0162161253393
0.0147653138265
-0.000605725042988
0.0079504000023
0.0120974536985
-0.0134037118405
0.0162523556501
0.0159053839743
0.0147954262793
0.00231300061569
0.00454254448414
0.0212436784059
0.0332999564707
0.0259875580668
0.0107055902481
0.00182295206469
0.0135210826993
0.00953197944909
0.0178048685193
-0.00188654183876
0.0079956157133
0.00938917510211
0.0108859911561
0.0153548298404
0.00383942201734
0.0282338969409
0.0202019102871
-0.00547298556194
0.0222884025425
-0.00206657988019
0.0109470561147
-6.26076143817e-05
0.0408476740122
0.00594511302188
0.0166900400072
0.016772352159
0.0162135642022
0.0168762933463
0.0219003148377
0.0101594273001
0.014875292778
0.0199362840503
0.0234510283917
0.00631341617554
0.0109391482547
0.0138435792178
0.00414621690288
0.0100226206705
0.00323552195914
-0.00623520417139
0.0091217039153
0.0209250673652
0.0071675516665
0.0135341510177
0.00770240323618
0.000460690702312
0.0159330442548
0.00789882056415
0.0115158660337
0.00522856088355
0.00641116080806
-0.00288578099571
-0.00132288737223
0.00689152395353
0.00637213233858
0.00881951116025
0.031135821715
0.00766392424703
0.00899283587933
0.0398829579353
-0.000386375002563
0.00175108970143
0.00747822085395
0.0246596038342
0.0095750214532
0.0192414205521
-0.00793079007417
-0.0657749176025
0.0224127806723
0.00196833256632
0.0136655187234
0.00973146501929
-0.00402754312381
0.00322332233191
0.0384599938989
0.00510059436783
0.0193370878696
0.00583518808708
-0.00250061391853
0.00119251513388
-0.00802345201373
0.0109828710556
0.00377832818776
-0.0848854109645
0.0165764857084
0.00519637996331
0.0171341486275
0.0133128995076
0.00148050149437
0.0873626247048
0.0371793955564
-0.0077089201659
-0.000537190528121
0.00106605398469
0.00521219521761
0.0130152851343
0.0428924970329
-0.00434725824744
0.00123816728592
0.0133079346269
0.0186439193785
0.0113356439397
0.0348226763308
0.00221149926074
0.00190032960381
0.011384293437
-0.00185823102947
0.00865740515292
0.0401444584131
-0.00258048949763
0.0183611083776
0.0182521026582
0.0112683977932
0.0178923383355
0.00905215274543
0.011512927711
0.00319074373692
0.0021715501789
0.00920132827014
0.00664284778759
0.0150241106749
0.00983403995633
0.0270947106183
-0.0228885207325
0.0063019124791
-0.00312386802398
0.00489763030782
0.0144017739221
0.00753410672769
0.00218050507829
0.00183483120054
0.0389063209295
0.00351154454984
0.00802764110267
-0.00149822852109
0.0391657911241
-0.00178024114575
0.0124796731398
0.014014756307
0.00676665920764
0.024895362556
-0.00185458210763
0.0104593234137
0.00115427153651
0.0505214110017
-0.0254139788449
0.0194041058421
0.0213493611664
0.00165294040926
0.010296096094
0.00412149494514
0.022171324119
0.00745085580274
-0.000246598385274
0.00461722584441
0.00705884257331
-0.000549605523702
0.0287059731781
0.00479251146317
-0.00297920987941
0.00590431969613
0.0102354967967
0.00985033996403
0.00523939123377
0.0128363249823
0.00878066103905
0.0119323739782
0.0130225382745
-0.000295349775115
0.00936762895435
-0.00847733207047
-0.00909397006035
0.00686388695613
0.0183102805167
0.00470945937559
0.00762719940394
0.00402221595868
0.00376318162307
0.0310222730041
-0.00884094648063
-0.00917869340628
-0.00148283678573
0.00152435444761
0.00534353358671
0.0223843399435
-0.00137240451295
0.00430186605081
0.0429373793304
-0.00690012518317
-0.00402813544497
0.00390064134263
0.0193023849279
0.00234852405265
0.016940465197
-0.0145783899352
-0.0409817062318
0.0156210679561
-0.00249293609522
0.0131096309051
0.00636185659096
-0.00440375180915
-0.00399477733299
0.0390886031091
-0.000471615756396
0.0224221143872
-0.00139235111419
-0.00948861148208
-0.00240664323792
-0.0107568437234
0.00914695858955
-0.0015312412288
-0.0558754876256
0.0100700575858
-0.000598414510023
0.00922577828169
0.0104364249855
-0.00250987801701
0.099237754941
0.0370442420244
-0.0138068404049
-0.00346024031751
-0.00355357420631
0.000871650932822
0.00507307099178
0.0369024276733
-0.0085440305993
-0.00336678698659
0.00854435749352
0.010186846368
0.00638901581988
0.034027967602
-0.00349456211552
-0.00239061517641
0.00816589966416
-0.00608617905527
0.00614869501442
0.0350812263787
-0.00563528900966
0.00856032874435
0.0107751656324
0.00857135094702
0.0110291549936
0.00349899684079
0.00818936899304
-0.000616404693574
-0.00107103225309
0.00451230816543
-0.00121553696226
0.0156363099813
0.00755111640319
0.0184452980757
-0.0178145188838
0.00136259105057
-0.00651334179565
0.00248719938099
0.00648028217256
0.00433014752343
-0.00388032966293
-0.00141051062383
0.0312356073409
0.00125787022989
0.00963298976421
-0.00658650416881
0.0355332829058
-0.00601173797622
0.0105463620275
0.00722882151604
0.00241658464074
0.0246740113944
-0.00660433061421
0.00400551501662
-0.00193031749222
0.0490440800786
-0.0197382234037
0.012873923406
0.0176743082702
-0.00227808067575
0.0126066142693
-0.00110506964847
0.0169034823775
0.00340596586466
-0.00599721446633
-0.00144402030855
0.00210481020622
-0.0038831513375
0.0338669940829
-0.000154134671902
-0.00699004717171
-0.00187911081593
0.00685025379062
0.00676439050585
-0.00226735882461
0.0133255971596
0.00144756922964
0.0145219815895
0.00935718137771
-0.00329449167475
0.00358470273204
-0.0123228048906
-0.0108110215515
0.00325415702537
0.0139393378049
0.00163875508588
0.000874529301655
-0.0009313087794
-0.00146083964501
0.0251349825412
0.00304286647588
0.00168019067496
0.00460635172203
0.00252131791785
0.00292292027734
0.014666496776
0.00174825277645
0.00245573162101
0.0196349713951
0.0043805539608
0.00432763760909
0.00277567887679
0.0103154685348
0.00584041140974
0.00425484078005
6.15829121671e-05
-0.0500172749162
0.00940277799964
0.00184624316171
0.00257354043424
0.00409718463197
0.010458368808
0.00324180652387
0.018378874287
0.00241037015803
0.00448426650837
0.00309825013392
0.00206299917772
0.00285842828453
0.00351017923094
0.00328501081094
0.00294316885993
-0.061223205179
0.007032178808
0.00355843431316
0.00518262712285
0.00327767222188
0.00358427688479
0.0877885445952
0.0173629075289
0.000873813114595
0.00199289969169
0.00396985886618
0.00280877179466
0.0068300915882
0.0224530715495
0.00851870141923
0.0156211415306
0.00553047470748
0.00998731143773
0.00438274024054
0.0144848767668
0.00385092920624
0.00165066297632
0.0032309005037
0.00454312888905
0.0027443212457
0.0201680324972
0.0127977281809
0.00642071571201
0.00709922797978
0.00346786156297
0.00765049736947
0.00425402261317
0.00100901606493
0.0191141664982
0.0202122051269
0.00342303747311
0.00552206905559
0.00100965565071
0.00165302143432
0.0131372166798
-0.0120730353519
0.00224891770631
0.00986784510314
0.00320769497193
0.00505892140791
0.00321149942465
0.00200367625803
0.0201097913086
0.0209611374885
-0.000285583199002
-0.00152373977471
0.00367276789621
0.0199779607356
0.005092356354
0.00438697449863
0.00653657317162
0.00229445588775
0.0116000324488
0.00712995929644
0.00460823951289
0.0178131535649
0.0282713770866
-0.00988239701837
0.0112067647278
0.00534209655598
0.00269930716604
-0.00241812318563
0.024906527251
0.010782726109
0.00282635074109
0.00518985651433
0.00288810161874
0.00303753768094
0.0123418308794
0.00905794929713
0.00294954748824
0.00969491992146
0.00273354374804
0.00314775598235
0.0023452215828
0.00174987246282
0.00290502072312
0.00480711553246
0.00013799899898
0.00214347196743
0.00398645643145
0.00608347449452
0.00213404325768
0.00654535414651
0.00249598221853
0.00633509410545
0.00165803311393
0.00491913501173
0.00338756223209
0.00280171702616
0.0141166606918
0.0176734104753
0.0129356049001
0.0103508727625
0.00366140110418
0.00197161128744
-0.00525921955705
0.00579102849588
0.00365868909284
0.00208893953823
0.0123312147334
0.00763451494277
0.0044044512324
-0.00496429437771
0.00539237866178
-0.0178316477686
0.00493125058711
-0.0481426008046
-0.00796978827566
0.0100961215794
-0.00334878684953
0.0168041884899
0.0205242782831
0.016652148217
-0.00432906905189
0.0178336128592
-0.00620423443615
0.0184005759656
0.0129829021171
0.0121438456699
0.0148451570421
-0.00141030002851
0.0120830414817
-0.0455844402313
-0.00486713927239
0.0196716599166
-0.0103636309505
0.00679193390533
0.0103891044855
0.117635078728
-0.00431134924293
0.00879106484354
0.0180343165994
0.0121669676155
0.0114135937765
0.00518718361855
-0.00558234658092
0.0184126868844
0.0220917854458
-0.00550642609596
0.004232828971
0.0136563060805
-0.01181443315
0.0129772573709
0.0125645799562
0.00854200776666
0.0149905439466
0.00452172849327
-0.0087830927223
0.0225135665387
-0.00542458239943
-0.00567097263411
-0.000421803211793
-0.00600385479629
0.00389060145244
-0.0114242481068
0.0222082361579
0.0223885495216
0.0125363981351
0.00921193789691
-0.0114478077739
0.00258080288768
-0.00342311779968
-6.12206349615e-05
0.0124941142276
0.0188854411244
0.0155667448416
-0.00559772504494
0.0027063570451
0.0190861485898
0.0261347722262
0.00717295659706
0.0138999624178
-0.0049814702943
0.0155694168061
-0.010007057339
0.017484229058
-0.00803737249225
-0.00111217505764
0.00789318792522
-0.00169439625461
0.0147368889302
-0.00193325965665
0.0251128301024
-0.00189109169878
0.00775374146178
0.00841861777008
-0.0133185116574
0.0095843449235
-0.00908096134663
0.0289020519704
-0.00565143534914
0.0135805681348
0.017335401848
0.0135634578764
0.0132867339998
0.0194733086973
-0.0079859290272
0.0116889774799
0.0175457913429
0.0195153653622
0.00078749738168
0.00603933958337
0.00805246736854
-0.00414007902145
0.00475816149265
-0.00536200683564
-0.0129083385691
0.00995289906859
0.0127688543871
0.0138238137588
0.0191265363246
0.00533439544961
-0.00754640297964
0.0104576516896
0.00373489689082
0.0109851676971
0.0024947100319
-0.00838597118855
-0.0706453546882
-0.0740094184875
-0.0626654401422
-0.0237156655639
-0.0216212254018
-0.0526705943048
-0.0979010462761
-0.0162163060158
-0.0324042290449
-0.0481958128512
-0.025938089937
-0.0182680115104
-0.0331679619849
-0.0638354718685
-0.0131749361753
-0.0662579089403
-0.0663873255253
-0.0289766862988
-0.021380091086
-0.0114655680954
-0.0133229130879
-0.0169476959854
-0.0175590850413
-0.0467180982232
-0.015340344049
-0.0176052488387
-0.0156550593674
-0.0732597857714
-0.019765375182
-0.0553065128624
-0.0129637969658
-0.0177195593715
-0.0522157549858
-0.0349153019488
-0.0147920148447
-0.0572825334966
-0.0112624811009
-0.0197875127196
0.0165682174265
-0.0427270792425
-0.0549083612859
-0.101341672242
-0.0219130031765
-0.0202957801521
-0.0457786768675
-0.0691118836403
-0.00196947366931
0.00292912125587
-0.0341555774212
-0.076480999589
-0.0120724244043
-0.0332360751927
-0.0199664328247
-0.0230627413839
-0.0128330178559
-0.0284282118082
-0.0131805110723
-0.0572684295475
-0.0216383170336
-0.0508669055998
-0.0532568581402
-0.0187191348523
-0.0507004447281
-0.0261778924614
-0.0242361426353
0.0258664172143
0.0348931923509
-0.0160566102713
-0.0587868690491
-0.0120645957068
-0.0117926318198
-0.0593520253897
-0.0702537596226
-0.018026182428
-0.0329077765346
-0.11382202059
-0.0452848896384
-0.0222788564861
-0.0189515408128
0.018638914451
-0.102044157684
-0.116078265011
-0.0131668476388
-0.0801284611225
-0.0586079545319
-0.0238640494645
-0.0139608979225
-0.0362603552639
-0.0187434572726
-0.0271822400391
-0.0201281458139
-0.0321372970939
0.00973394606262
-0.0741774365306
-0.0627341419458
-0.0993651300669
-0.0128192491829
-0.0211808644235
-0.00977424066514
0.0636468231678
-0.0395886339247
-0.015492785722
-0.0199964642525
-0.0171447992325
-0.0146713536233
-0.00797916669399
-0.0149860344827
-0.0179646983743
-0.00686762109399
-0.0157999172807
-0.0139292925596
-0.0129052447155
-0.0919004231691
-0.0112442281097
-0.037247851491
-0.0124773569405
-0.0199722759426
-0.0248458851129
-0.108938612044
-0.0525865182281
-0.0402224101126
-0.0198187474161
-0.0288953986019
-0.0950379669666
-0.0379152856767
-0.0233021155
-0.0257509369403
-0.0434901826084
0.00939767993987
0.00614194618538
0.00636174669489
0.000687419786118
0.00020987316384
0.00140992377419
0.00358149851672
-0.000225488794968
0.0099473753944
0.0081933233887
0.00300324289128
2.1549882149e-05
-0.000474590895465
0.00452798232436
-0.0104799438268
-0.00390396011062
-0.0501781366765
-0.00216453592293
0.00371745368466
-0.00282810558565
0.00751795433462
0.0141910435632
0.00683669606224
0.00451035378501
0.00755191454664
-0.00284485891461
0.00733065977693
0.00571068702266
0.00556669477373
0.00395286083221
-0.00173768540844
0.00311616808176
-0.0545297116041
-0.00186506158207
0.00873791705817
-0.00593426544219
0.00192398473155
0.00483341887593
0.119831711054
0.00511335860938
0.000258623680566
0.00870414078236
0.00578332971781
0.00379771389998
0.00522026093677
0.00521539896727
0.0121250469238
0.0170109979808
-0.00364061561413
0.00587288290262
0.00536289112642
-0.00199380982667
0.00559018971398
0.00521139241755
0.00344769912772
0.00738051254302
0.000233941231272
0.0028927908279
0.0139625603333
-0.00146794994362
-0.0014763904037
-0.00209127226844
-0.00158774480224
0.000379283708753
-0.00791002530605
0.0194828938693
0.020631480962
0.0047766501084
0.0070135621354
-0.00677331723273
0.000320971797919
0.00253637367859
-0.00931846816093
0.0055397907272
0.00914836209267
0.00794331170619
-0.00252540479414
-0.00094890256878
0.00832732208073
0.0200260747224
0.0147807793692
0.00571759138256
-0.00479791266844
0.0076977792196
0.00174973986577
0.00928425788879
-0.00573151698336
0.00269472785294
0.00135067268275
0.000735901237931
0.00896977074444
-8.44364476507e-05
0.0197751820087
0.010156034492
-0.00349624501541
0.00968101806939
-0.00591625086963
0.00313822622411
-0.00802220869809
0.0275024659932
-0.000248562195338
0.00475231744349
0.00782067980617
0.00505627365783
0.00399702228606
0.0134975966066
-0.000464208016638
0.00480382842943
0.0124136414379
0.0094266301021
-0.000226035830565
0.00228409096599
0.00363540975377
-0.00244665960781
0.00317863654345
-0.00521205086261
-0.00919827260077
0.00462113087997
0.00935487356037
0.00191906385589
0.00822000671178
0.00010019147885
-0.00180354015902
0.00586453313008
0.00249530817382
0.00416066218168
-1.32240566018e-05
0.000588606286328
0.000220525776967
-5.82587454119e-05
0.00175299623515
0.00278832577169
0.00318322586827
0.0166722163558
2.21997397603e-05
0.00454174587503
0.0221609342843
0.00116012000944
0.00253514247015
0.00355675746687
0.0145661244169
0.00485441787168
0.0096645578742
0.00188170280308
-0.0388590693474
0.0112998122349
0.00286327232607
0.00579154817387
0.0050217891112
0.0119431000203
0.00397192919627
0.0210166219622
0.00419114530087
0.00944560952485
0.00415265141055
-0.0015440202551
0.00215057609603
0.00480381771922
0.00647980580106
0.00259016733617
-0.0505548343062
0.00820324849337
0.00273099308833
0.00700625125319
0.00735691096634
0.00181410904042
0.0783039331436
0.0204480495304
0.00200391211547
-0.000765287608374
0.00195808359422
0.00167522090487
0.0061960183084
0.0257895775139
0.00940221454948
0.0160156711936
0.00796009134501
0.00929810106754
0.00475477753207
0.0188703108579
0.00296646659262
0.00249342247844
0.00464416528121
0.00434947200119
0.00411412678659
0.0242304429412
0.0136281214654
0.00742285046726
0.0100179361179
0.00597920455039
0.0103298276663
0.00397682841867
0.00420039892197
0.0208705216646
0.020362040028
0.00236016022973
0.00227090343833
0.00497151864693
0.0047022998333
0.0158033147454
-0.00989646278322
0.00331688998267
0.011775592342
0.00156233820599
0.00588458590209
0.00515754008666
0.00285172159784
0.0210746955127
0.0217241458595
-0.00145009229891
0.00132197572384
0.000649585796054
0.0240505114198
0.0044478084892
0.0072903665714
0.00636707013473
0.00246678479016
0.012697679922
0.00700646266341
0.00438300706446
0.0189021136612
0.0311048291624
-0.0109743541107
0.00897451955825
0.0114813214168
0.00304856384173
0.00303894770332
0.0229564551264
0.0114853875712
0.00418003322557
0.00470020622015
0.00341908028349
0.00359929376282
0.0124707110226
0.0137216653675
0.00221017305739
0.0102652572095
0.00349596561864
0.00385870714672
0.00274141319096
-0.0007305246545
0.00596191175282
0.00355049106292
0.00457834685221
0.00495627662167
0.00218590931036
0.00199044682086
0.00393881509081
0.00729812914506
0.00210891058668
0.00911785382777
0.000806288211606
0.00372467283159
0.00222620856948
0.00172625342384
0.0176792666316
-0.00551718007773
-0.00567362783477
0.00426863413304
0.00784762669355
0.0124588217586
0.0344210937619
0.0020902461838
0.0137564428151
0.0559635721147
-0.00288310856558
0.00085405271966
0.01339659933
0.0286625679582
0.00887529179454
0.0279337279499
-0.00632828101516
-0.0650686770678
0.0277237351984
0.00635298760608
0.0225516688079
0.0157675519586
-0.00367475836538
0.0068080984056
0.0528704859316
0.00976509973407
0.0322174653411
0.0102547807619
-0.00539340591058
0.00418588100001
-0.00764449220151
0.0184323936701
0.00686859944835
-0.0827505663037
0.0196437761188
0.0113295279443
0.0194421317428
0.0211157184094
0.00451396638528
0.0598448961973
0.050289362669
-0.00609673094004
-0.00297321565449
0.00484461337328
0.00873893965036
0.0112141752616
0.0504387952387
-0.00194603495765
-0.000908297603019
0.0164883229882
0.0168091002852
0.018398495391
0.0481922514737
0.00472244573757
0.005990837235
0.0181648153812
0.000846735900268
0.0163194723427
0.0511121489108
-0.00465553300455
0.0179689154029
0.0192256662995
0.016952816397
0.0194653198123
0.00925596617162
0.017056312412
-0.00460425019264
-0.00166483793873
0.0131049193442
0.0042965230532
0.0266144424677
0.0178520157933
0.027011141181
-0.0211625378579
0.0102367522195
-0.00628546904773
0.0024745427072
0.0157288499177
0.0118450205773
0.00396997574717
-0.00210813968442
0.0377673357725
0.001863011159
0.0192274861038
-0.00643592793494
0.0493194572628
-0.000166177167557
0.0178732015193
0.0160783007741
0.0109826112166
0.0336385406554
-0.00176967587322
0.0116929411888
-0.00399362482131
0.0638888180256
-0.0243283249438
0.0150228478014
0.0297912489623
0.00560717657208
0.0252623651177
0.0032400386408
0.0258971620351
0.0125180669129
0.00181231147144
0.00848893169314
0.0123894903809
-0.00289634522051
0.0474480837584
0.00795224867761
-0.00197421316989
0.010758488439
0.0159511975944
0.016941851005
0.00142033200245
0.0231293532997
0.00786636862904
0.0233473386616
0.0198669619858
0.00253355829045
0.00611218251288
-0.00775848235935
-0.00983442366123
0.0112905008718
0.0244516432285
0.00100177770946
0.00820541474968
0.00697396788746
0.00627641845495
0.0367929115891
0.0256174057722
0.019345831126
0.013754230924
0.00653825234622
0.00442303298041
-0.00384247163311
0.0154954437166
0.00394990108907
-0.00786199141294
