0.02240530774
0.0384167134762
0.0129170352593
-0.0412923321128
-0.0677354559302
-0.0957810878754
-0.0787758231163
-0.0922029837966
-0.000644522893708
-0.148569062352
-0.0704246386886
-0.0696832165122
-0.306501358747
-0.0256926100701
0.091210514307
-0.0165151394904
0.00719092739746
-0.0400178991258
0.147028684616
0.0371425896883
-0.0660860762
-0.0994153097272
0.16519074142
-0.182787716389
-0.0442692823708
-0.115502335131
0.1205509305
-0.104647323489
0.0779030323029
-0.10060530901
-0.0239192694426
-0.0860855057836
0.00768324965611
-0.0400462448597
0.00977153796703
-0.0372515022755
0.0705589577556
-0.0151692302898
0.00900943297893
-0.040157340467
-0.0506501868367
-0.0755775049329
-0.0323419310153
0.00349521078169
-0.0484127141535
0.139169037342
0.212687045336
-0.122327879071
0.00897395052016
-0.038934905082
0.0100729605183
-0.0411785244942
0.15720205009
-0.115618430078
-0.0875402763486
-0.164738371968
0.0579081475735
-0.112895838916
0.0144224371761
-0.0302464794368
-0.189060300589
0.0929755344987
-0.0839371830225
-0.22800989449
-0.0576251409948
-0.0547684729099
0.129728332162
-0.062813654542
0.0877660289407
-0.150083035231
-0.242125332355
0.177109763026
0.037393823266
-0.211552336812
-0.207622855902
0.058877851814
0.0355821475387
-0.252760440111
0.0154366428033
-0.0366988219321
0.00983438547701
-0.0445296876132
0.0116289770231
-0.0438929535449
-0.00379169010557
-0.169572532177
0.126248076558
0.0551120787859
-0.330919235945
-0.324633866549
0.0146403480321
-0.0422589331865
-0.0704761818051
-0.13561578095
0.399005204439
-0.0506229251623
0.219163835049
0.421398848295
0.00862336531281
-0.0383445248008
0.00933489948511
-0.0412584245205
-0.0399921089411
-0.178626805544
-0.0832152068615
-0.0425654351711
0.00710054952651
-0.0411117374897
0.0645328462124
-0.019114209339
-0.0248808674514
-0.183786690235
0.00878138467669
-0.0457496270537
0.00957177020609
-0.040851354599
0.00640445947647
-0.0421041734517
0.360761463642
-0.130775764585
-0.0522284246981
-0.0932279527187
-0.0907621607184
-0.0341958329082
0.13119263947
-0.00449265958741
-0.069224640727
-0.104032278061
0.00713073369116
-0.0443202480674
0.0102988546714
-0.0421601459384
0.00868411362171
-0.0439117476344
-0.0330351889133
-0.0446223318577
-0.0444354191422
-0.0592720061541
0.00870049931109
-0.0404130667448
-0.0551675409079
-0.0707682967186
0.00905241724104
-0.0428680516779
0.0655546560884
-0.0633081942797
0.0133940307423
0.00623452151194
0.0083333151415
-0.0422350391746
-0.0678246542811
-0.0403299219906
0.0134619073942
-0.0437262691557
0.00230149924755
-0.101558089256
0.0820261761546
-0.0901140123606
0.00704140635207
-0.0390815548599
0.010256187059
-0.0420108772814
0.00994914956391
-0.0384415127337
0.100946828723
-0.0930835083127
0.0158528219908
-0.0348061658442
-0.126269966364
-0.0143015477806
0.0138607835397
-0.0292860772461
0.0148021886125
-0.0437726974487
0.00667876563966
-0.0420977845788
0.00865174643695
-0.0428464263678
0.00853052083403
-0.0416397228837
-0.0260495431721
-0.123696275055
-0.206652969122
0.269740283489
0.00936379190534
-0.041256133467
-0.0561751425266
-0.0594151206315
0.0120303174481
-0.0378863401711
0.0751741603017
-0.0961107462645
-0.136601045728
0.255069226027
-0.0296233799309
-0.322102278471
0.0100948596373
-0.0421516783535
0.00810548849404
-0.0402163900435
0.0910127982497
-0.0751031711698
-0.0520202815533
-0.074862845242
0.00878371950239
-0.0425510108471
0.00741708977148
-0.0399658642709
0.00812482181937
-0.0422629006207
0.190905734897
0.222923249006
-0.253560483456
0.0431743599474
0.0133160008118
-0.0331807695329
0.12693798542
0.10625743866
-0.00716100726277
-0.0911184176803
0.00795907247812
-0.0445106104016
0.0102118123323
-0.041725680232
0.0745250955224
-0.0498683862388
-0.0824491754174
-0.0782983675599
0.0901082977653
-0.0695224031806
-0.0615767911077
-0.0511684976518
0.00702782860026
-0.0420799814165
0.0118237119168
-0.0377725474536
0.0639920607209
0.00908922869712
-0.0427231043577
-0.0721660479903
-0.0573263689876
-0.0930187106133
-0.0940473750234
-0.0726081728935
-0.0423681661487
-0.0997336879373
0.00764896254987
-0.0441354550421
0.0604612119496
-0.372914493084
0.00920846220106
-0.0429695770144
0.0910296887159
-0.0597184151411
-0.054283503443
-0.0553643926978