0.00229094875976
-0.00751389889047
0.00282281124964
0.00168569991365
0.00328161008656
0.01072141435
-0.00370767363347
0.0170079730451
0.0075113340281
0.0228073969483
0.00789189618081
0.00112764316145
0.0179137494415
0.00717373471707
-0.000695546623319
-0.0127060534433
-0.0172313619405
0.00280445651151
0.006111681927
-0.00576470699161
0.000207543445867
0.00377594283782
0.000818073225673
0.00724446726963
-0.00197500293143
0.0007648676401
0.00157034513541
0.000700602307916
0.0164801366627
-0.00118795677554
0.000758833368309
-0.00613357778639
0.0153460213915
0.00368647812866
0.00359405134805
0.00419805152342
0.00361551693641
0.00384737970307
0.0183497387916
0.00315296463668
0.00487884366885
0.00562789244577
0.00403453409672
0.00465137744322
0.0189274679869
0.00521894264966
0.00224303989671
0.00940884836018
0.00675997650251
0.00159248837736
0.0191219858825
0.020210115239
0.013114368543
0.0116838635877
5.82661959925e-05
0.00179506652057
0.00371528207324
0.0055906875059
0.00266772136092
-0.00552660832182
-0.0041185230948
-0.0094809550792
0.00134965055622
-0.000531594268978
0.0187005996704
-0.0061580738984
0.000172017287696
-0.000567449606024
0.00254938704893
0.00451301503927
0.0049662408419
0.00315689877607
0.00361118442379
0.00880480371416
-0.00445393100381
0.00831315945834
-0.0405147187412
0.00621553324163
0.00609503313899
0.00214035692625
0.00328672258183
0.00186436518561
0.00423492444679
-0.00412729848176
0.00957485660911
0.0153561457992
0.00155622279271
0.0021857896354
-0.00633412739262
0.000797223299742
0.00543172424659
0.016451491043
0.00591238588095
0.00462952302769
0.000183257623576
0.0012875351822
0.00363572477363
0.0029774333816
-0.0200353134423
0.00170966959558
0.00788975600153
0.0064104469493
0.0207689888775
0.00312144123018
0.00552193727344
0.0178555045277
0.00296247238293
0.00570188369602
0.004043425899
0.00384714012034
0.00422814069316
0.00131256401073
0.00462916167453
0.00437656370923
0.00419837981462
0.000167920981767
0.00843190867454
0.000873231794685
0.0312171056867
0.00429822644219
0.00627781497315
-0.015383316204
0.00345377088524
0.00263531249948
0.00116849446204
0.00603297352791
0.00540042668581
0.000967145781033
-0.00583360623568
-0.00112513930071
0.0104809459299
-0.0107015436515
-0.00761301256716
0.0192898698151
-0.00727378763258
0.0387346036732
-5.90946074226e-05
0.0100724818185
0.0216891206801
-3.26319932356e-05
0.0404759682715
-0.00423701759428
-0.00273295398802
-0.0283086579293
0.0123713752255
0.0013705373276
-0.004306639079
-0.0185411591083
0.00266600446776
-0.00216372427531
-0.0027000491973
0.00133680796716
-0.000591327028815
-0.00189164059702
0.0109131988138
-0.00689913611859
0.0289366804063
-0.00465739239007
-0.00333602447063
-0.00533646484837
0.0360051691532
-0.0067956331186
-0.0176560338587
-0.0071159102954
-0.00796248950064
-0.0120162814856
0.0249823350459
-0.00598292751238
0.0140788545832
-0.00987384002656
-0.00560360122472
-0.010460190475
-0.000842487148475
-0.00606260308996
-0.00773743446916
-0.00876331049949
-0.00116378383245
-0.00533363642171
0.0302615556866
0.0255054365844
0.0314651578665
0.0220791697502
-0.00588003359735
-0.013208440505
-0.0077018821612
-0.00566914444789
-1.39022886287e-05
-0.0134096974507
-0.00327854626812
-0.00938665214926
0.0068770442158
-0.0111045297235
0.0286555793136
-0.0100936647505
-0.0141313821077
0.00630605127662
-0.00799974426627
0.00125599140301
-0.00997321028262
-0.00677749887109
-0.00123035022989
0.00108727929182
-0.00926188006997
0.000889635120984
0.00171241699718
0.00157510954887
-0.00652263499796
0.00904191657901
-0.0057288100943
-0.00588165782392
-0.0105331707746
0.00448632100597
-0.00446870969608
0.0177801884711
-0.011626557447
-0.00362850376405
-0.0142023600638
-0.0108284316957
-0.00438722176477
0.0343850776553
-0.0139964828268
-0.00910392217338
-0.0160863511264
-0.00590766919777
-0.00658095814288
-0.00147267268039
0.0108790844679
0.00791079830378
0.00103031098843
0.0182816553861
0.026616262272
0.00168987421785
-0.00532302260399
-0.00907856598496
-0.00625519361347
-0.00123837275896
-0.00655139191076
-0.00421131681651
-0.00723974918947
-0.00624385336414
-0.0026072061155
-0.00215250672773
-0.00679483963177
0.0101984599605
0.00750704016536
0.00183720572386
0.00315198721364
-0.00533043546602
0.0114181470126
-0.0347913354635
-0.0112223131582
-0.00735916895792
0.00226700725034
0.0044366735965
-0.00760030001402
0.00269851181656
0.00439938856289
-0.00690284185112
-0.00527702691033
0.00870499480516
0.00669675413519
-0.00960508547723
0.010301599279
-0.0246419608593
-0.00278804264963
0.00825969316065
-0.0116815641522
0.00238334666938
-0.0249323025346
0.000802725844551
0.0026597387623
0.0237843822688
0.0102482447401
0.000201173854293
0.000379000412067
0.0143438819796
-0.0160581786186
-0.000506333366502
0.00451142992824
-0.00335057848133
-0.0155209163204
-0.0133005995303
-0.00762993749231
0.00318958284333
-0.0148527631536
0.00504456227645
0.0047099981457
0.00871930737048
-0.0234279967844
0.00115844816901
0.00345403631218
-0.00119071674999
0.00703081348911
0.00495689269155
-0.015259321779
-0.00142709945794
0.00594976590946
0.00576455937698
0.00104028161149
0.00336713413708
0.013847252354
-0.00241150683723
-0.00749949039891
0.0160341504961
-0.00782475247979
6.53260940453e-05
-0.0160065870732
-0.00999071635306
-0.0237167142332
-0.0105463853106
0.00797199271619
0.00729456590489
-0.00113888829947
-0.0041364710778
0.00204445398413
0.0142874279991
0.00576369976625
0.0104630840942
-0.0107852537185
0.00502449134365
-0.0160040892661
0.00725585548207
-0.000213560648263
-0.0092063723132
-0.00144405884203
-0.00299691059627
0.00790761318058
-0.00480489199981
-0.000941411301028
-0.00279547413811
0.00994764920324
-0.00212601409294
0.00865846406668
-0.00473364256322
-0.000231059355428
-0.0186351295561
0.00160999863874
-0.00607242854312
0.00520799774677
-0.00935285259038
-0.00516660884023
-0.0038369493559
0.001257384778
0.00447104405612
0.013054927811
0.000620992097538
-0.000407219282351
-0.0229230355471
0.0189762506634
0.00659902440384
0.00261107925326
0.00627053482458
0.00709028495476
0.00293506262824
0.0109505634755
-0.0212346836925
0.000483166571939
-0.00779395038262
-0.00876274239272
-0.00258983788081
0.000981310731731
0.0205955691636
-0.00287077319808
-0.00112138164695
-0.00484321406111
-0.00835550669581
0.00684924982488
0.0111889382824
0.00717497617006
0.00475042453036
-0.00383072020486
-0.00827172398567
1.69525119418e-05
-0.0168162677437
0.0226895920932
-0.000305099529214
0.00544775556773
0.0341420508921
0.0060295839794
-0.00579082965851
-0.0025155111216
-0.00198323605582
0.000548345618881
-0.00321255996823
0.00508443685248
-0.0127912107855
-0.000301373162074
0.0099784610793
0.00956953875721
0.00112064927816
0.00171263981611
0.00660590967163
0.00648161582649
0.0339727699757
1.10276068881e-05
0.00134982482996
0.00531272077933
0.00767916068435
-0.002138906857
-0.00432658707723
-0.02003672719
0.00424865493551
0.00465188222006
0.00230283034034
-0.00629228632897
0.00310677383095
0.00533617381006
0.00520347803831
-0.0045918636024
-0.00178524816874
-0.00492433458567
0.00621679099277
0.00809740461409
0.00185126264114
0.00399814546108
-0.00265907403082
0.0070488890633
0.00444030668586
0.00402358407155
0.00520543241873
0.0103085432202
0.00354741932824
0.0130311120301
0.00317862210795
0.00389765272848
0.00961009040475
0.0049732667394
0.00477367406711
0.0353858619928
0.0047281649895
0.000432926230133
0.0204081982374
0.00458495784551
0.00368311838247
0.0159237720072
0.0125918937847
0.0073776524514
0.000610296498053
0.00578870624304
0.00553632667288
0.00116591970436
0.00384465418756
0.00662244204432
-0.00368498871103
-0.00172427541111
-0.0056379372254
-0.00317163881846
0.00457315566018
0.0108226696029
-0.00173323508352
0.0046179513447
-0.00163844018243
0.00163406110369
0.00254437373951
0.0117380842566
0.00252436101437
0.00361495860852
0.00882910285145
0.00323791545816
0.00482986075804
-0.0535444207489
0.00661765411496
0.0065794675611
-0.00247918814421
0.00281858770177
0.00124203821179
0.00822727568448
-0.00818386394531
0.00571130868047
0.0141571024433
0.00479342974722
0.00604000408202
-0.0010251023341
0.00355656608008
0.00540117733181
0.00782109610736
0.0145153002813
0.0079373177141
0.00232861167751
0.00771227665246
0.0072252349928
0.00581053737551
-0.0294988155365
-0.00376117834821
0.00710694026202
4.05037644668e-06
0.0163808055222
0.00124248221982
0.00497981579974
0.0399721711874
0.000738741189707
0.0061473059468
0.005661949981
0.00140591280069
0.00674597686157
0.00937347393483
0.00847837515175
0.00697030639276
0.00497796200216
-0.00380456959829
0.0109867164865
-0.00433423742652
0.0535574555397
0.00196422357112
0.00658027548343
-0.00487728230655
0.00618784828112
0.00162816711236
-0.00256624887697
0.00533993029967
0.00494816945866
-0.00160518055782
0.00588502548635
-0.0115464916453
-0.00596586894244
0.0113582639024
0.0070829722099
-0.0130075477064
0.00594185432419
-0.0224752072245
-0.00174280570354
0.0127899693325
-0.0145553704351
0.00279399869032
-0.0233659557998
0.000541550340131
0.00213669380173
0.027164362371
0.00253235083073
3.71968053514e-05
0.00214282260276
0.0157510284334
-0.0190456062555
0.000742282543797
0.00312739703804
-0.00251958938316
-0.0171376783401
-0.0157828163356
-0.0126955714077
0.00561199430376
-0.0150249423459
0.00502902036533
0.00349207711406
0.00455003604293
-0.0235285367817
0.00475851865485
0.00611145840958
-0.00102117157076
0.00864652637392
0.00767711130902
-0.00987621117383
-0.00258540641516
0.00304064690135
0.00648671900854
0.0008369210409
0.00697992369533
0.0200826190412
0.000969392072875
-0.00551722990349
0.0229351613671
-0.00911292806268
-0.000339338788763
-0.0127434739843
-0.0112158525735
-0.0221378635615
-0.0141887255013
0.00808109622449
0.00509880622849
-0.000694068963639
-0.0017076600343
0.000843815796543
0.0112767852843
0.00321674975567
0.00711817853153
-0.0145064936951
0.00513344584033
-0.0163944624364
0.00693200016394
0.00581018393859
-0.0116233741865
0.00216456851922
-0.00470508541912
0.00915371160954
-0.00607124296948
-0.0003766217269
-0.00120184954721
0.00984307471663
-0.00242784596048
-0.0121388342232
-0.00483175413683
0.000519895402249
-0.0194985382259
0.001283404883
-0.00555744953454
0.00842496566474
-0.0125094456598
-0.00123991223518
-0.00830953847617
0.00572894420475
0.00536334095523
0.0110565088689
0.00180818967056
0.00101771892514
-0.0206751506776
0.0234445109963
0.00712661026046
0.00530535075814
0.00611989153549
0.00656587118283
0.00384996528737
-0.00344407721423
-0.0220991391689
-0.000440978590632
-0.0112658375874
-0.00980358198285
-0.00231106602587
0.00246630469337
0.0309977959841
0.000507060671225
-0.00214799540117
-0.00145226996392
-0.0106619670987
0.00554952351376
0.0129392286763
0.00502123078331
0.00522321648896
-0.00178086687811
-0.0135863143951
-0.00435267342255
-0.0188856106251
0.0345245487988
-0.000901195569895
0.000729178951588
0.0368597246706
0.00660072267056
-0.00556988548487
-0.00471512693912
-0.00198240834288
0.00142187252641
-0.00630814256147
0.00711991172284
-0.00714033748955
-0.00139530422166
0.00981639977545
0.00743746152148
-0.000229236029554
0.00664334371686
0.00144500366878
0.000807389791589
0.00873993244022
-0.00294202216901
0.00675678486004
0.00104336487129
0.00432613492012
0.00449455110356
0.0112610962242
-0.00247220834717
-0.000213601859286
0.00369748729281
0.00863927602768
-0.0123070087284
0.00108096643817
0.00891500432044
0.00232982612215
-0.0104385036975
-0.00979954190552
-0.0027090953663
0.0064349276945
0.00517700705677
0.00294897984713
0.00637909956276
0.00437459442765
0.00334021239541
0.00409786356613
0.00392702966928
-0.000590333656874
0.00852210819721
0.00593716744334
0.00715964706615
-0.00029308302328
0.0038851769641
0.00800942070782
0.00299329916015
0.00646384619176
0.0116737550125
0.00193058466539
-0.00169901095796
0.0196808483452
-0.0016406562645
0.00134088355117
0.0023190388456
0.000896517129149
-9.65217550402e-05
4.7387482482e-05
0.00790801458061
0.00496588135138
0.00205663638189
0.00233300961554
0.00115387898404
0.00946402363479
0.00303643057123
0.00583882024512
-0.0107292672619
0.00605145609006
0.00436719646677
0.00532368384302
0.0018941166345
-0.00555329443887
0.00221848883666
0.000965701998211
0.00795897189528
-0.00155053497292
0.00110841973219
0.00398936495185
0.00887363869697
0.00130667025223
-0.0164638832211
-0.000467355712317
0.00370719283819
-0.0103813931346
0.00302677997388
-0.00191726209596
0.00611921120435
-0.00782558042556
0.000625064014457
-0.00162301410455
0.00296371500008
0.00764536997303
0.00953161157668
0.00344088906422
0.00422321911901
0.00340506434441
0.018323585391
0.0109779629856
0.000502744747791
0.00999125745147
0.00709614390507
0.00817198399454
-0.00562772480771
-0.0122576728463
0.00463828677312
-0.00127440248616
0.00276223034598
0.001707894844
0.00496719870716
0.0179303735495
0.00176921021193
0.00308799254708
0.00262063811533
-0.00547330966219
0.00833225715905
0.0105574047193
0.00931485556066
0.00899551063776
0.00155684142374
-0.00712276576087
-0.000483260228066
-0.0123789627105
0.0210247877985
0.00391650013626
0.00423840805888
0.0171927642077
0.00453106174245
-0.0012612020364
-0.00492556300014
0.00136102864053
0.00412476528436
-0.0042562931776
0.0101635158062
-0.0211535897106
-0.0122644146904
0.0124308755621
0.0133443055674
-0.0145751489326
-0.00139422342181
-0.00828123092651
0.00645498000085
0.0286197196692
-0.0143524399027
-0.00101696071215
-0.00855504721403
0.011726222001
-0.000547278963495
0.00440272735432
-0.036920633167
0.000384977465728
0.010467832908
0.0049394974485
-0.0129706999287
0.00455648684874
0.00322534097359
0.0045301290229
-0.0126057220623
-0.0110062779859
-0.0170535016805
0.00937213376164
-0.00706906476989
-0.00262426049449
0.00213905563578
-0.00647664861754
-0.00533757358789
0.00759122287855
0.0162733513862
0.0089797237888
0.0116374026984
0.0122274719179
0.00815657153726
0.00566235184669
-0.013466459699
0.014363960363
0.00862089917064
0.0120278000832
0.0371846593916
0.0118472408503
0.00306856795214
0.0240161474794
0.00127250654623
0.00460396520793
0.00600003311411
0.00145284133032
-0.0029923056718
-0.0148826986551
0.000941534352023
0.0149506209418
0.00823440495878
0.00788145698607
0.00103204511106
-0.000993067864329
-0.00620083138347
-0.00687219109386
-0.0128101240844
0.00851139705628
0.00265807355754
-0.0062523749657
0.0118930581957
-0.0103159388527
0.00871560443193
0.00410221656784
0.0179616790265
0.00387978483923
0.00753408484161
0.00747091090307
0.00313114887103
0.00598487537354
-0.0729017779231
0.00334505387582
0.0119192218408
-0.017445879057
0.00481570698321
0.00225415546447
0.016671763733
-0.0167292710394
0.00894175749272
0.00437999330461
0.0136152449995
0.00449332036078
0.000459122878965
0.00957105588168
0.00869613792747
-0.000469435413834
0.0237121395767
0.0163000468165
0.0134003683925
0.00874065700918
0.0117801772431
0.00481719570234
-0.0491258017719
-0.0161426533014
0.0066999536939
-0.012613770552
0.0014135481324
0.00159167358652
0.00834228098392
0.0473461449146
0.00635438784957
0.00965166743845
0.00864137895405
-0.0032716053538
0.00755231780931
0.00962674058974
0.0129468291998
0.00793857686222
0.00933316536248
-0.0184711366892
0.00351852783933
-0.013722631149
0.0564448311925
0.00534106045961
-0.00491433218122
0.0106634488329
0.0143855605274
-0.000215054256842
-0.00657297344878
0.00285055441782
0.0152495708317
-0.00783583894372
-0.0111168287694
-0.0249509178102
-0.0275682918727
-0.00777459610254
-0.0119382049888
-0.0377883203328
-0.0116700204089
-0.056359257549
-0.00205751881003
0.00388268521056
-0.0385511703789
-0.0214875061065
-0.0540082231164
0.00100578740239
-0.0170583706349
0.0234033297747
-0.0134557085112
-0.00819069705904
0.00137849932071
-0.00508829951286
-0.0215295478702
0.000774271262344
-0.0171134360135
-0.00198382837698
-0.0173984896392
-0.0141489971429
-0.0301371123642
-0.0151526806876
-0.0434731431305
-0.0105417454615
-0.0170901920646
-0.0123929269612
-0.052550598979
-0.00296919606626
0.00879390444607
0.00196211249568
-0.0111495032907
0.0117079904303
-0.0436027124524
-0.00122962438036
-0.0237708482891
0.00131247891113
-0.000754590553697
0.00261760689318
0.00715714693069
0.000191655999515
-0.00310931657441
-0.00559746380895
-0.00896441657096
-0.00245634536259
-0.0454218313098
-0.0347907617688
-0.0568980835378
-0.0433658845723
-0.0131667926908
0.00839403923601
0.00219841557555
0.00142412108835
-0.0150841027498
-0.00724973203614
-0.0132650472224
-0.010266260244
-0.0204084590077
-0.0109911542386
-0.0415085628629
-0.0118201915175
0.0109477629885
-0.0198634974658
0.00369947287254
-0.00607259012759
-0.00622252747416
-0.00490225898102
0.000924200459849
-0.00747307436541
-0.00762509740889
-0.00541617255658
-0.000987428007647
-0.00577738648281
0.0016464763321
-0.0274231303483
-0.0072104758583
-0.00392081867903
-0.00192156387493
-0.0224057286978
-0.00199631531723
-0.0285204462707
0.00439501740038
-0.0175832193345
-0.00773200206459
0.00385868595913
0.00111950084101
-0.0520867407322
-0.00350341200829
0.000857190578245
0.0104244109243
-0.0147762428969
-0.0122574316338
-0.0191744081676
-0.00721704540774
-0.0264275092632
-0.00570293702185
-0.0322778448462
-0.0342682003975
-0.00838810950518
0.00195382675156
0.0113708805293
0.00244219135493
-0.00103164254688
-0.00254090456292
-0.0111775137484
-0.0124371163547
-0.0119877588004
-0.0166673474014
-0.0203751716763
0.00031003516051
-0.0330684930086
-0.0204402524978
-0.0191489066929
0.0135667342693
-0.00219084252603
-0.0230018254369
0.0428034923971
0.00888846628368
-0.000535551458597
-0.0153251122683
-0.00811690557748
0.00272289966233
-0.018521334976
0.000814961618744
-0.00554190017283
0.00702803488821
-0.00154670199845
-0.00395421171561
0.00690938532352
0.00122512131929
0.00780266616493
-0.00664469366893
0.0124735292047
0.00589998764917
0.00145723426249
0.00770502025262
-0.00829989463091
-0.000971998902969
-0.00824637990445
0.000244184833718
-0.00440689036623
-0.00839497707784
-0.00432550208643
-0.0103150196373
-0.00701797055081
0.00215315516107
-0.00755940470845
-0.00810316205025
-0.00808130670339
0.00660018669441
-0.00505762314424
0.00718742283061
-0.000140345757245
0.000793150102254
0.00254294811748
0.00570563552901
-0.0058251679875
-0.0141297364607
-0.0108667975292
0.000109322267235
-0.0100702326745
0.00604524696246
-0.00944089237601
0.00873362459242
-0.00854009576142
-0.00629542768002
-0.00833126530051
0.00924099516124
-0.009959298186
-0.0120108630508
0.00275153364055
-0.00943636894226
-0.00695599243045
0.00662282062694
0.0104960408062
0.00291432836093
0.00583461392671
0.00297467596829
-0.0123832849786
-0.00873055588454
-0.0119226677343
0.00508764851838
-0.00237799249589
-0.000137980343425
0.000925407686736
-0.00249295146205
-0.00326242460869
0.0101498374715
0.00189540849533
-0.0139916632324
-0.00382103631273
-0.00931852031499
-0.00589999463409
-0.00189540046267
-0.011698695831
-0.00679560890421
-0.00589159550145
0.0012108895462
-0.00727762887254
-0.0116581413895
-0.00564205693081
-0.00850465334952
-0.00511903641745
-0.00744776194915
-0.0115754585713
-0.00702920369804
-0.00374980992638
-0.0106560159475
0.0130045050755
-0.0116556882858
0.000700660806615
-0.000586807029322
-0.0109786754474
-0.00691339373589
0.00486631086096
-1.63870427059e-05
-0.00722515536472
-0.0133654512465
0.000361920305295
-0.0018449149793
0.000518399174325
-0.00206503202207
-0.00757580343634
-0.00612484524027
0.00631920574233
0.0124397939071
-0.00366749218665
-0.00882024876773
0.00761629128829
-0.0112644284964
-0.00847427453846
-0.0110236378387
-0.00897632725537
-0.000787445635069
0.00342826312408
-0.00151821994223
0.00209723319858
-0.0126105835661
0.000610926479567
0.00806920975447
-0.00954161863774
0.0158148594201
-0.00473692314699
0.011507557705
-0.0124580236152
-0.0110542280599
-0.010842429474
-0.00351819791831
-0.00431655906141
-0.0108429118991
-0.00356312235817
0.0023107547313
-0.00711552565917
0.00432162312791
0.00364798353985
0.00318081886508
0.00964881945401
-0.00298668956384
0.0147732552141
0.0101386699826
0.0254952013493
0.00645542889833
-0.000238290755078
0.0159854572266
0.00827201828361
0.000303715874907
-0.013389182277
-0.0116916839033
0.00438752397895
0.00642953719944
-0.00318071153015
0.00192192697432
0.00417367648333
0.00257831369527
0.00715911854059
0.00127823767252
0.00391649734229
0.0012741999235
0.0052072997205
0.0159274563193
-0.00220409571193
0.000401171215344
-0.00837415270507
0.0163618754596
0.00553842680529
0.00496607413515
0.00525322649628
0.00549437850714
0.00342073198408
0.0164632797241
0.00440780818462
0.00431791692972
0.00778072280809
0.00450293300673
0.00543393194675
0.0193976871669
0.00254227872938
0.00392730440944
0.00829534884542
0.00516370683908
0.00420440500602
0.0199059695005
0.0169020425528
0.0154949650168
0.00898291449994
-0.00192659359891
0.00255327206105
0.00494570983574
0.00621818611398
0.00609841383994
-0.00514511624351
-0.00294912839308
-0.00750588299707
0.00333306426182
0.00161467154976
0.0187678281218
-0.00456677237526
0.00404936587438
0.000169168808497
0.00487284362316
0.00739239342511
0.00586719810963
0.00480135111138
0.0073154787533
0.00863856170326
-0.00245926878415
0.00807735789567
-0.0387452244759
0.00630442146212
0.00752218440175
0.00180151045788
0.00388887501322
0.00365745509043
0.00389870838262
-0.00126039877068
0.00584531761706
0.017938606441
0.00439081899822
0.0037383150775
-0.00446644471958
0.00465481635183
0.00760627258569
0.0176405757666
0.0054545653984
0.00628600548953
0.00112654233817
0.00263347732835
0.00417599780485
0.00315400958061
-0.0200011283159
0.00200509885326
0.00933111365885
0.00544039718807
0.018977580592
0.00412536831573
0.00632981071249
0.0229718871415
0.00503041082993
0.00755079695955
0.00358234159648
0.00383502012119
0.00235239928588
0.00353049417026
0.00814433768392
0.00438297633082
0.00509927421808
-0.00107585825026
0.0105526288971
0.00358627527021
0.0337396338582
0.00630882941186
0.00725378608331
-0.0165073629469
0.00409569311887
0.00397636555135
0.00019279155822
0.00815717782825
0.00607524905354
0.000867538969032
0.00522334920242
-0.00407434161752
0.00848424620926
0.00142363319173
0.00570282153785
0.0159544497728
-0.00270139961503
0.0248794816434
0.0122377639636
0.0325595997274
0.0150957461447
0.000121942430269
0.0238735824823
0.0085281226784
0.00243209721521
-0.0200709905475
-0.0179518982768
0.00948053598404
0.011137583293
-0.00914498604834
0.00809546094388
0.00822359602898
0.00493677752092
0.0110484240577
0.00788204744458
0.00499992119148
0.00563091877848
0.00594224408269
0.0236866548657
0.0013302299194
0.00264917802997
-0.00265604676679
0.0213294140995
0.00859850924462
0.00401615537703
0.00830009859055
0.00299121742137
0.00525024300441
0.0270119942725
0.00695093162358
0.00385062512942
0.00743998913094
0.00603818893433
0.00613940507174
0.0248406119645
0.00801039952785
0.00690178479999
0.0098348101601
0.0132617559284
0.00794192776084
0.0275816489011
0.0274494308978
0.0226955041289
0.0164134502411
-0.000720280513633
0.00584179908037
0.00569679262117
0.00775885069743
0.00517721986398
-0.00842737965286
-0.00327706849203
-0.00978759117424
0.0119286635891
0.00261841225438
0.0260882321745
-0.00854495167732
0.00324808014557
0.00708131957799
0.00701941084117
0.0125255975872
0.00335911777802
0.00637497985736
0.00820603407919
0.0148344142362
-0.00487414794043
0.0130129614845
-0.0465801805258
0.0107670649886
0.00999778322875
0.01300711371
0.00738798035309
0.00710485270247
0.00585736939684
0.00458528520539
0.00884038303047
0.0225166007876
0.00438156118616
0.00272587523796
-0.00917296856642
0.00666875066236
0.00935355108231
0.0209294613451
0.00295921368524
0.00409426726401
0.000893143063877
0.00458743376657
0.00346618983895
0.00443541491404
-0.0264200158417
0.00910921022296
0.0134428581223
0.013918926008
0.0290817786008
0.00922950543463
0.00756894750521
0.0266813598573
0.00832941383123
0.0114464592189
0.00938925053924
0.0122107090428
0.00294916564599
0.00230366038159
0.00797052774578
0.00496709765866
0.00692695425823
0.00751805258915
0.0137819582596
0.00966487266123
0.0395238511264
0.00783066917211
0.00884826015681
-0.0247744191438
0.00581362796947
0.00729011651129
0.00707510532811
0.0160580985248
0.00807092711329
0.00588362244889
0.00351025443524
-0.00883169099689
0.00196739216335
0.00576903810725
0.00504325004295
0.00218938360922
0.000643252918962
0.0073746368289
0.00423027342185
0.0163772068918
0.00222595501691
0.00308439601213
0.00805128738284
0.00595917413011
0.00110203120857
-0.00372733944096
-0.00960786174983
0.00202650227584
0.00469102151692
0.000527132302523
-0.00611830782145
0.00157947326079
0.00525375269353
0.0030802867841
-0.00453610159457
-0.00487549882382
-0.00062879541656
0.00393206439912
0.0102604655549
-0.00236081844196
0.00350943976082
0.000124972575577
0.00695160403848
0.00514666177332
0.001936093322
0.00236261682585
0.00521704740822
0.00282630580477
0.0103621408343
0.00302563980222
0.00297071854584
0.00797696039081
0.00290189753287
0.00497877551243
0.0111410580575
0.0032616998069
0.000577320635784
0.011726831086
0.00223515182734
0.00165511539672
0.00995931308717
0.00871499069035
0.00620694225654
0.00505829975009
0.00116964732297
0.00439110584557
0.000949870969635
0.0041613006033
0.00163422059268
0.00111849256791
0.00116530060768
0.000374518742319
-0.00411706930026
0.000967098050751
0.0105380788445
0.000353216921212
0.00264962855726
-0.00210158387199
0.00364307384007
0.00369529938325
0.00605373736471
0.00157191359904
0.00364767806605
0.00882722716779
0.00131790235173
0.00419909600168
-0.0283925943077
0.0025603142567
0.00668177148327
-0.00303900172003
0.00152496155351
-0.00126856088173
0.00593726104125
-0.00560587411746
0.00366149190813
0.00996186770499
0.00366810662672
0.00295148883015
0.00120622105896
0.00452486239374
0.00397829571739
0.00830851215869
0.0109632788226
0.00650969799608
0.00229964428581
0.00520173367113
0.00632367096841
0.00695827137679
-0.0149511480704
-0.00480437651277
0.00430370587856
0.00219807727262
0.0106551665813
0.000657457858324
0.00474972464144
0.0173552818596
0.000349474343238
0.00386621942744
0.00329187046736
-0.000818405649625
0.00490400660783
0.00669270986691
0.00664298655465
0.00684496387839
0.00397009728476
-0.00348440674134
0.00303865596652
-0.00471761776134
0.0252105481923
0.0055272243917
0.00580554222688
-0.00616711657494
0.00429147528484
0.00137138669379
-0.00197751726955
0.00515480805188
0.00732681760564
-0.00276490207762
0.00616144761443
-0.021191759035
-0.00978561863303
0.0118175689131
0.0104566812515
-0.00891790818423
-0.00422558281571
-0.00459419703111
0.00754714850336
0.0324595458806
-0.0112623618916
-0.000674372247886
-0.00247137271799
0.0102442437783
-0.00290619349107
-0.00528447981924
-0.0389627106488
0.00137490278576
0.00926131289452
0.000363459519576
-0.0107553312555
0.00302655156702
0.00370671087876
0.00386457657441
-0.00867219362408
-0.00765926670283
-0.0151829943061
0.0074053495191
-0.00403711386025
-0.00343050877564
0.0038626450114
-0.00964157748967
7.73720239522e-05
0.00683013256639
0.0145865725353
0.00773122161627
0.0110539970919
0.010811205022
0.0139725850895
0.00501877535135
-0.0123127661645
0.0118395863101
0.00530685903504
0.00851206667721
0.0411383993924
0.00964755937457
0.00345041276887
0.0214813482016
0.00465330947191
0.00304764835164
0.00903405807912
0.00707378005609
0.00411526393145
-0.00914201140404
-0.000842546345666
0.00946710258722
0.00541183259338
0.00914075318724
0.00256483722478
-0.00471104914322
-0.0077289477922
-0.0124339386821
-0.00988092739135
0.00502538634464
0.00696379318833
-0.011610634625
0.00932205934078
-0.00776413129643
0.00809575337917
0.0031958706677
0.0151606574655
0.00444655772299
0.00586758041754
0.00954091921449
-0.00171388988383
0.005126317963
-0.0765820592642
0.0030234020669
0.0106801306829
-0.0115809552372
0.0040663369
0.00383097166196
0.0146862380207
-0.0131612475961
0.00827842764556
0.00841034669429
0.0103994440287
0.00216779485345
-0.00339981680736
0.00707733584568
0.00965558551252
0.0057659605518
0.015343352221
0.0130874551833
0.00869729463011
0.00723061617464
0.0100063998252
0.0051999585703
-0.0528363212943
-0.0103855337948
0.00747624365613
-0.006385716144
0.00689656333998
0.00253889849409
0.0073325256817
0.0523092150688
0.00842375680804
0.00730470800772
0.00865872297436
0.00117665994912
0.00637572770938
0.00537992548198
0.0107286777347
0.00450021401048
0.00838683359325
-0.0169143062085
0.00695509696379
-0.00842036493123
0.0601706467569
0.00547259068117
-0.00546181714162
1.74838896783e-05
0.00940993521363
0.00334799056873
-0.00363971688785
0.00543369585648
0.0132674816996
-0.00446338858455
0.00613284716383
-0.00618869205937
0.000582907348871
0.00549141736701
0.00412463117391
0.00555029138923
0.000617734855041
0.0114629846066
0.00284595042467
0.0103093320504
0.0030714632012
0.00400164304301
0.00931300688535
0.00506472447887
0.00464356923476
-0.000820059038233
-0.00260679470375
0.00372635805979
0.00471029197797
0.00358310248703
-0.00724707078189
0.00173592928331
0.00747059145942
0.00420970283449
-0.00500109884888
-0.00603174977005
-0.000736341171432
0.00400848221034
0.0102214822546
-0.00112899311353
0.00507712876424
-0.000610065530054
0.00995772704482
0.00472493749112
0.00093709747307
0.0026780879125
0.00547025213018
0.00215278356336
0.0126082375646
0.00025635707425
0.00176849646959
0.00514999916777
0.00491445930675
0.00228098360822
0.00933429412544
0.00346361612901
-0.00148010137491
0.0124362483621
0.00188516709022
0.0022324542515
0.01086106617
0.00792615953833
0.00695962132886
0.00247458298691
0.00402539176866
0.00289094098844
0.00259119016118
0.00265893619508
2.31451376749e-05
0.00417659245431
0.00102232443169
0.000686515530106
-0.00165638281032
0.00378245511092
0.0115724708885
0.000861363718286
0.000105981154775
-0.00109162612353
0.00293162488379
0.0036036556121
0.00595730217174
-0.000406120670959
0.00290846708231
0.0060398997739
0.00415606657043
0.00392670184374
-0.0164474658668
0.00303800986148
0.00317908404395
-0.00280772615224
0.00201764539815
-0.00143260054756
0.00546009931713
-0.00179109547753
0.00220532878302
0.00390387815423
0.00155838113278
0.00456847343594
0.00302915158682
0.00198384094983
0.00484194746241
0.0119889983907
0.0113434446976
0.00447007548064
-0.00141305092257
0.00647460715845
0.00476820860058
0.0068480996415
-0.00443640956655
-0.0066495211795
0.00535621447489
0.00157261430286
0.00944995414466
0.0024447508622
0.00401427550241
0.0139655778185
0.000622319523245
0.00370676140301
0.00131302350201
-0.00213509658352
0.00439271423966
0.0056343479082
0.00951156392694
0.0051082088612
6.3808154664e-05
-0.00155505223665
0.000359849393135
-0.00682507455349
0.0164611488581
0.0029442848172
0.00352315302007
0.000964314618614
0.00396920042112
1.45059602801e-05
-0.000555220351089
0.00347464275546
0.00284145190381
-0.000811194302514
-0.00298373261467
-0.0110360151157
-0.00440191756934
0.00148043211084
-0.00720118544996
-0.0154841151088
0.00721286190674
-0.0245468653738
-0.0177620258182
0.00950180832297
-0.0161936543882
-0.00542991468683
-0.025435525924
-0.013220009394
-0.00705314567313
0.0214850567281
0.0050883484073
-0.0156930815428
-0.013846934773
0.00910282786936
-0.0231796149164
-0.0127413831651
-0.00319425109774
-0.0143775111064
-0.0218755416572
-0.0200211461633
-0.00546146323904
-0.00794133357704
-0.0191918835044
0.00185734848492
-0.00587112968788
0.00477034086362
-0.0244074910879
-0.0124100930989
-0.0136502897367
-0.0150134451687
-0.00231102178805
-0.0101899923757
-0.0169085226953
-0.0140914171934
0.00261257728562
-0.00851628836244
-0.0116248661652
-0.00744368322194
0.0132369063795
-0.0161038767546
-0.0173342656344
0.0070978901349
-0.0234981905669
-0.0121165476739
-0.0140740806237
-0.00321535230614
-0.0324818827212
-0.0180404428393
0.0025502871722
-0.00912539381534
-0.0147736724466
-0.0188716687262
0.00466164154932
0.0103869847953
0.00175029865932
0.00977752264589
-0.0203195810318
-0.00387917272747
-0.0153540465981
0.0101935639977
-0.0126571292058
-0.0188553575426
-0.015560911037
-0.0153486793861
-0.00176727527287
-0.02034368366
-0.0135443890467
-0.016216840595
0.00690210936591
-0.0161974411458
0.00962924212217
-0.0171331241727
-0.0181581526995
-0.0260802432895
-0.0106652155519
-0.0178775098175
-0.00898265931755
-0.0149732334539
-0.019229400903
0.00145235704258
-0.0110626202077
-0.00475372234359
0.00899988040328
-0.0118128694594
-0.0123414294794
-0.0277733337134
0.0116665046662
-0.0104743912816
-0.0102043580264
-0.00494475802407
-0.00677843252197
-0.00900079403073
0.00614283839241
-0.0282937157899
-0.0154285607859
-0.00793048273772
-0.00158257083967
-0.0114293899387
-0.0135095883161
0.016261683777
-0.0149659477174
-0.0147528005764
-0.0183659885079
-0.0203400012106
-0.00396724510938
0.00409016525373
-0.00782839953899
-0.00683740153909
-0.0156918466091
-0.0169636942446
0.00330519769341
-0.0263961553574
0.0160161685199
-0.0131174996495
0.00192286784295
0.0339989103377
-0.00909930467606
-0.0185079425573
-0.0109234135598
-0.0169727560133
-0.0133500639349
-0.0111640747637
0.00172702316195
0.00504905311391
0.00666964566335
-0.00195055780932
-0.00126746110618
0.00877221953124
0.00505237653852
0.0110206110403
-0.00440524239093
-0.000253493781202
0.0111329602078
0.00751651311293
0.0107992729172
-0.00491948565468
0.00270936195739
-0.00586704630405
0.011557799764
-0.00310648069717
-0.00524142105132
-0.00152415188495
-0.00365047436208
-0.00342092616484
0.00425793696195
-0.00271144276485
-0.00323984888382
-0.0010109313298
0.011806265451
-0.00127511669416
0.012212892063
0.000730106956325
0.00224986136891
0.00641849823296
0.00682046916336
-0.00202849553898
-0.0100677292794
-0.00611691875383
-2.91224605462e-05
-0.00614155037329
0.00288341729902
-0.00480261398479
0.00829807575792
-0.00469999341294
-0.00352136068977
-0.00658699730411
-0.00506505882367
-0.00787820387632
-0.00693031447008
-0.00264714797959
-0.00373783498071
-0.00515705207363
0.00815867632627
0.00680809281766
0.00446288660169
0.0129078486934
0.00359372491948
-0.00738805392757
-0.00661289365962
-0.00635269796476
0.00272905291058
-0.00222822558135
0.00606367038563
0.0042074448429
0.000391018285882
-0.00232576392591
0.00971106626093
0.00555126555264
-0.0085007539019
-0.000831626472063
-0.00613580923527
-0.00217932625674
-0.00322744855657
-0.00637900829315
-0.00551143987104
-0.00195629987866
0.0006572889979
-0.00327161466703
0.0143733695149
-0.00283780833706
-0.0052088946104
0.00201910175383
-0.00314741884358
-0.00538891833276
-0.00452065840364
0.00170974375214
-0.00554742990062
0.00792490784079
-0.00751191051677
0.00166239787359
0.00126554921735
-0.00542692793533
-0.00525078270584
0.00624050432816
-0.00203881622292
-0.00618652114645
-0.00774981081486
0.00329404091462
-0.00196117232554
0.00409095920622
0.0151784848422
4.93207844556e-05
-0.00260417792015
0.00956094637513
0.0109220966697
-0.00194477895275
-0.00419195275754
-0.0108309816569
-0.00686886394396
-0.00468967063352
-0.00768747972324
-0.00358042423613
0.00109754537698
0.00129020842724
0.00295403669588
0.00281401071697
-0.00634657312185
0.00565791968256
0.00257406430319
-0.0031374481041
-0.00654673762619
-0.00546519272029
0.0106725739315
-0.00870500598103
-0.00490677077323
-0.00715491641313
-0.000697696115822
-0.00149942038115
-0.00667514931411
0.00205236440524
0.00478276098147
-0.0104470867664
-0.000833492435049
0.0108345374465
0.00740094995126
-0.00146694108844
0.00503034610301
-0.00177381641697
0.00302359415218
0.0238626226783
-0.00312073691748
0.00383715005592
-0.00411941716447
0.00414776662365
0.00114488182589
0.00759218353778
-0.00985104031861
0.000202836148674
0.00344785861671
0.00745423650369
-0.0114532737061
0.00168960646261
0.00494751892984
0.00410233531147
-0.0114512275904
-0.0080672185868
-0.0056018079631
0.00555805629119
0.000155837202328
0.0031116087921
0.0037789484486
-0.000747942947783
-0.00161258666776
0.00622540526092
0.00387831637636
0.000669328437652
0.00960407033563
0.00426043057814
0.00560326129198
0.000984946149401
0.00562173174694
0.00552931334823
0.00407826434821
0.00399760669097
0.0251232516021
0.00209761993028
-0.00154652772471
0.0208553373814
-0.00298062898219
0.000595540797804
0.00285833748057
0.00863419566303
-0.00178163079545
-0.00121580273844
0.00498354434967
0.00435226177797
0.00080507574603
-0.000200529480935
0.00612292066216
0.0060649481602
0.00220771762542
0.00188025610987
-0.00869213230908
0.00460915081203
0.00272902636789
0.00264966371469
0.000933092145715
-0.00612084241584
0.00130698713474
0.00168497383129
0.0100799798965
-0.0028697643429
0.0016094542807
0.00401997193694
0.0085000442341
0.00163871864788
-0.0316142737865
-8.24715825729e-05
0.00260591576807
-0.00974855013192
0.00122615916189
-0.00466079963371
0.00656215753406
-0.00717222038656
0.00106383266393
0.00984071940184
0.00362760387361
0.00399521412328
0.00598240457475
0.00235252408311
0.00212569441646
-0.00280594429933
0.0198294818401
0.00771671766415
0.00117186259013
0.00458957720548
0.00786887016147
0.00499013252556
-0.0152652151883
-0.0128551796079
0.00307064899243
-0.00199735397473
0.00826037954539
0.000435669411672
0.00354349752888
0.0340481810272
-0.00100395921618
0.00274814595468
0.00121347606182
-0.00402843533084
0.00712141161785
0.0116376755759
0.00732328463346
0.00560587551445
0.00197089905851
-0.00740722985938
0.00569324335083
-0.0108411293477
0.0396805666387
0.00231425231323
0.00940886884928
0.00940704531968
0.0046959402971
-0.00255583855323
-0.00369584839791
0.00302193290554
0.00188299349975
-0.00457318220288
-0.0503280870616
-0.0413504950702
-0.0279650464654
-0.0544662326574
-0.0505151636899
-0.0280746091157
-0.0477911755443
-0.0100424410775
-0.0218355152756
0.0132453506812
-0.0275457426906
-0.0540644936264
-0.00594203500077
-0.0243516117334
-0.0517626740038
-0.0171674769372
0.00590736884624
-0.0328335799277
-0.0229398831725
-0.0492437109351
-0.0195205770433
-0.0257853996009
-0.0532341450453
-0.0214091408998
-0.0207983851433
-0.0178785100579
-0.0273270662874
-0.0547245889902
-0.0240149963647
-0.0404030792415
-0.05266206339
-0.0470467619598
-0.00753255281597
-0.037374291569
-0.018892955035
-0.017720380798
-0.0527495443821
-0.0206737741828
-0.0190258920193
-0.0177559033036
-0.0125846266747
-0.0295624081045
-0.0293279737234
-0.0268842019141
-0.00605972995982
-0.0198481436819
-0.0197079740465
-0.0486735701561
-0.0209736637771
-0.0358041785657
-0.012539464049
0.000522855087183
-0.0291802510619
-0.0274860747159
-0.0472921691835
-0.0224175974727
-0.0182636324316
-0.0162688530982
-0.0317017510533
-0.0437236875296
-0.0459947921336
-0.0441757775843
-0.026943763718
-0.0551867894828
-0.014956346713
-0.0445797294378
-0.0200851745903
-0.0281631480902
-0.0215699914843
-0.0234081540257
-0.0500480681658
-0.020613655448
-0.0239690691233
-0.0222231466323
-0.0417837053537
-0.0219287462533
0.0272181984037
-0.0235746875405
-0.0190783534199
-0.0217684637755
-0.0384486988187
-0.0183088704944
-0.033231023699
-0.0336898639798
-0.0183169357479
-0.000478078145534
-0.0278221182525
-0.0513781346381
-0.0458463020623
-0.0226934067905
-0.0214027371258
-0.00963397789747
-0.0436223000288
-0.0326573215425
-0.0210051145405
-0.050291094929
-0.0485522188246
-0.0538292378187
0.0208647418767
-0.0216639805585
-0.0248460266739
-0.0199471656233
0.00252539780922
-0.0296103600413
-0.025889351964
-0.0204982310534
-0.0184353925288
-0.0194127708673
-0.018577625975
-0.0202985033393
-0.0511432737112
-0.0485762879252
-0.050220515579
-0.0523874238133
-0.0173701550812
-0.0318982042372
-0.0140307080001
-0.0208964422345
0.00342397601344
-0.0284732598811
-0.0150681193918
0.000797125743702
-0.0209987293929
-0.0182617586106
-0.0311256032437
-0.019750578329
-0.0214833058417
-0.0328333824873
-0.00393735943362
0.0203805360943
0.0145798083395
-0.0160922966897
-0.0124159418046
0.0164936613292
0.00503107253462
0.0109648983926
-0.00733799440786
-0.0198534484953
0.019368942827
0.0089326063171
0.0114424601197
-0.0124693987891
0.00293118855916
-0.0217017699033
0.0335698351264
-0.00411964021623
-0.0113203059882
-0.00929875392467
0.00872000865638
-0.00796658825129
0.000281591259409
-0.00709501374513
0.00907698646188
0.00910121109337
0.0205156654119
-0.010235670954
0.0136876702309
0.000895309669431
0.0015302374959
0.0101511450484
0.00697722844779
-0.00989397522062
-0.023577099666
-0.0124863274395
-0.0111289937049
-0.0123524256051
-0.00641000038013
-0.00774401985109
0.016256371513
-0.0160551406443
-0.00805017631501
-0.0153647409752
-0.0289372242987
-0.0148088773713
-0.0114189246669
-0.0218560714275
-0.00831270776689
-0.00524932146072
-0.00127692183014
0.005689968355
0.00105908256955
0.0217423755676
0.000330859416863
-0.0147739835083
-0.0121264345944
-0.0146951153874
0.00156279583462
-0.00605744495988
0.00640931958333
0.00658070575446
0.0108058201149
-0.00862363912165
0.00573219964281
0.00896837282926
-0.0170380938798
0.00837906636298
-0.0131311435252
-0.0054454440251
-0.0167868435383
-0.00952136702836
-0.0106207346544
-0.0100599592552
-0.00275843893178
-0.00700997002423
0.0515650175512
-0.00383951491676
-0.0152917467058
0.0136731294915
-0.00679600378498
-0.00823481194675
-0.0177982319146
0.0152258276939
-0.0157665796578
0.00638750195503
-0.0162617769092
-0.000793061684817
-0.00459322147071
-0.0156901907176
-0.0127502167597
-0.00145751819946
-0.0235299114138
-0.0199884325266
-0.0172236841172
-0.0029272781685
-0.0112677933648
-0.000239787099417
0.0410473830998
0.0163533147424
-0.00755001138896
0.0157115925103
0.00753153255209
-0.00504748057574
-0.0110640823841
-0.0423615463078
-0.0110116954893
-0.0052433735691
-0.0143234385177
-0.00226123118773
-0.00200005457737
-0.00566005473956
-0.00845012441278
-0.00275354413316
-0.0146565027535
0.0142382644117
-0.00209228508174
0.00823304709047
-0.0445524901152
-0.00762777030468
0.0139348646626
-0.0305571313947
-0.0150061557069
-0.00865868385881
0.00639401981607
-0.00685309339315
-0.0170480404049
0.00418244302273
-0.00115317478776
-0.00439953291789
0.000321228813846
0.00189057248645
-0.00530587090179
-0.0100872851908
0.0120720043778
-0.0212920662016
-0.018809447065
-1.8697392079e-05
-0.00942793488503
0.00247425539419
-0.0215329863131
-0.0157782547176
0.00122773717158
0.0206508841366
0.018243027851
-0.0139858294278
-0.0166640430689
0.0127980485559
-0.0218860004097
-0.0114269359037
0.00247543375008
-0.0157936066389
-0.02039735578
-0.018612228334
-0.00224818801507
-0.00556849967688
-0.0142584294081
0.00382843520492
-8.10817728052e-05
0.0119321970269
-0.0220482125878
-0.0115583129227
-0.0199828259647
-0.0193923544139
0.00432282686234
-0.013885339722
-0.0176046621054
-0.0193049758673
0.00975323747844
-0.0122656328604
-0.011835694313
-0.012719755061
0.00291730556637
-0.0188910141587
-0.0231633298099
0.00577718345448
-0.0260897483677
-0.0110012348741
-0.0137999560684
-0.0050363088958
-0.0250659175217
-0.0109737236053
0.0097896726802
-0.0146925598383
-0.0190093349665
-0.0244019888341
0.00489459326491
0.014039311558
0.00711014028639
0.0180328972638
-0.015191776678
-0.00114160962403
-0.0136354006827
0.0160698611289
-0.0175973009318
-0.0140958810225
-0.017207916826
-0.0174950230867
-0.00295061082579
-0.0229784082621
-0.0161942970008
-0.0183506030589
0.0120982360095
-0.0189369823784
0.02828499116
-0.0178362615407
-0.0225339569151
-0.0213779248297
-0.0118867894635
-0.0212259106338
-0.0113021284342
-0.00690307747573
-0.0239739455283
-0.00222441856749
-0.0157915595919
-0.00140792282764
0.0139527916908
-0.0162443071604
-0.0172162801027
-0.023776171729
0.0110186263919
-0.0138408122584
-0.0177196320146
-0.000133452675072
-0.00455930223688
-0.00146618729923
0.0223960131407
-0.027394792065
-0.0175966452807
-0.00564045272768
-0.00429997034371
-0.0133831901476
-0.0147834680974
0.00467914016917
-0.0205889903009
-0.0179525725543
-0.0240520015359
-0.023391386494
0.00184956996236
0.0104173868895
-0.00527664413676
-0.00236841081642
-0.0226250570267
-0.00761444773525
-0.000941633421462
-0.0263104941696
0.00239964481443
-0.0129178101197
0.00822385493666
0.0279937162995
-0.0157725121826
-0.0231543499976
-0.00946361385286
-0.0172125138342
-0.0213144347072
-0.0074801966548
0.00623208843172
-0.0138486037031
-0.00207449123263
0.0140171591192
0.00736114475876
-0.0058890231885
0.00478420313448
-0.0102404681966
-0.00352170667611
0.0293480455875
-0.00847980752587
0.00324225472286
-0.012540018186
0.000331041053869
0.00144200294744
0.0117593351752
-0.0139986025169
-0.00209129462019
-0.000188823949429
0.00988363288343
-0.0177497826517
0.000954284216277
0.00550350407138
-0.00229031499475
-0.015338845551
-0.0133476387709
-0.00803022272885
0.00606763130054
-0.00258941575885
0.0066330707632
0.00363592314534
0.00401275930926
-0.00973420869559
0.00115697900765
0.00213650404476
-0.00111934670713
0.0102527756244
0.000126693063066
0.00273477775045
-0.00363292708062
0.00158364837989
0.00418144278228
0.00131412048358
0.00296253315173
0.0330369621515
-0.000430865999078
-0.00257832952775
0.0237824209034
-0.0060634193942
-0.00178296444938
-5.14233215654e-05
0.00442784372717
-0.00823374092579
-0.0085842423141
0.00950653664768
0.000510705227498
-0.00307665928267
-0.00245774886571
0.00980215705931
0.00834797602147
0.00178602861706
0.00290771527216
-0.0116061475128
0.00511931721121
-0.00164054892957
0.00478633167222
-0.00196227058768
-0.00897359102964
-0.00170461309608
-0.00250688893721
0.0127516919747
-0.00576145667583
-0.00231098919176
-0.00117152591702
0.00875724107027
-0.00210568844341
-0.0415285862982
-0.00184129667468
2.14581195905e-05
-0.0159981884062
-0.000652911607176
-0.00617795297876
0.00564345763996
-0.0114923072979
-0.00295233353972
0.00923396833241
-0.000229028359172
0.00390027975664
0.00797148328274
-0.00202884175815
0.0016441680491
-0.00888274796307
0.0240028165281
0.00713523197919
-0.000908638117835
0.00716095138341
0.00632639415562
0.00416561122984
-0.0222554672509
-0.0197320673615
0.000317384052323
-0.00260335509665
0.00403473852202
-0.00300661358051
-4.51615342172e-05
0.0445639230311
-0.00134003628045
-0.00158444640692
-0.00306607130915
-0.00772684812546
0.00718528823927
0.0135008003563
0.00758592318743
0.00466468557715
-0.0023960492108
-0.0100214676932
0.00911301746964
-0.0174746476114
0.0512071363628
-0.00159410561901
0.00597190391272
0.0189168602228
0.00198066909797
-0.006362227723
-0.00440070219338
-0.000891553645488
-0.000237748899963
-0.00388740841299
0.00208691204898
-0.00472816126421
-0.00168503506575
0.00541376741603
0.00060670892708
-0.00114689301699
0.00501431850716
-0.00578673742712
-0.00405245088041
0.0131399324164
-0.00329056591727
0.000823100504931
-0.00614179251716
-0.00163294153754
0.00301794917323
0.00861238595098
0.00383660104126
-0.00213863304816
-0.00334528647363
0.00734731461853
-0.0107555566356
-0.0034538670443
0.00466970261186
-0.00422540493309
-0.0103012761101
-0.0103577496484
-0.00137097854167
0.00250744190998
-0.00332517852075
0.00319415098056
0.00197086622939
0.00393780134618
-0.00625422038138
-0.000917550292797
-0.00731087289751
-0.00498275784776
0.00411370024085
-0.00390743464231
-0.00390586070716
-0.00477910460904
0.00642723450437
0.000670687644742
-0.00134603132028
-0.00307409255765
0.0115162786096
-0.00465580401942
-0.00984261371195
0.0113887218758
-0.00824380293489
-0.00174334319308
-0.00162581843324
0.000553800724447
-0.00754963699728
-0.00234772218391
0.00480888644233
-0.00112362578511
-0.00729235075414
-0.00600859848782
0.00456964271143
0.0047553521581
0.0020414898172
0.00496350834146
-0.00689444458112
-0.000815731124021
-0.00291965622455
0.0047045648098
-0.00574697647244
-0.00672986917198
-0.00496459426358
-0.00375964865088
0.00211207359098
-0.00687063392252
-0.0038460989017
-0.00381391518749
0.00695831375197
-0.00557137699798
-0.00608965242282
-0.00577180134133
-0.00597652420402
-0.0114860935137
-0.00290988828056
-0.00877988524735
-0.000788820849266
-0.00559426471591
-0.00663720350713
0.0025508175604
-0.00530032627285
0.00218371325172
0.00774325942621
-0.0050280499272
-0.00366132054478
-0.00750897265971
0.0116234561428
-4.81686620333e-05
-0.00510650221258
0.00320381345227
0.00291675841436
0.00300922803581
0.00312764663249
-0.0133612267673
-0.00440018903464
0.000324353342876
0.000874223420396
-0.00347481598146
-0.00304609374143
0.0165666900575
-0.00616789609194
-0.00229706661776
-0.00735932216048
-0.00933313369751
0.00432609720156
0.00726319942623
0.00340131716803
0.00390535662882
-0.00649246014655
-0.00719278817996
0.00390220643021
-0.0125829624012
0.0200440250337
-0.00454792380333
0.00749689340591
0.0128700509667
-0.00201458111405
-0.00816601887345
-0.004494253546
-0.00430641882122
-0.00475785322487
-0.0043989433907
0.00278552831151
0.00063370692078
0.00514134438708
-0.00153118220624
0.00187195360195
0.0124193551019
-0.000337552803103
0.0194989070296
0.00570618687198
0.00646208086982
0.0122318416834
0.00615674210712
0.0190934408456
0.00488513614982
0.00342024583369
-0.00693974411115
0.00528851151466
0.00317461439408
0.00497899577022
-0.00338263227604
0.0011654056143
0.0028278043028
0.00490483315662
0.00510936463252
0.00167323311325
0.00119738467038
0.00555825233459
0.00222857506014
0.0178553145379
-0.000915612094104
0.00206322455779
0.00202556257136
0.0164177324623
0.00240696570836
-0.00251607759856
0.00279468367808
0.00242942641489
0.00192495400552
0.0143325291574
0.00317714782432
0.00724738370627
0.00232670712285
0.00199750484899
0.00267884531058
0.00155213964172
0.00200447742827
0.00129118736368
0.00158649112564
0.00490609882399
0.00296553247608
0.0157378427684
0.0131765305996
0.0141843706369
0.0136355031282
0.00160895066801
0.00115160236601
0.00308312219568
0.00244377343915
-0.00093252415536
4.30032487202e-05
0.00142171466723
-0.000202822382562
0.00484519358724
0.000229995828704
0.0155800692737
0.00176207185723
-0.000478843750898
0.00365785392933
0.000149615429109
0.00523217581213
0.000335622404236
0.00283911568113
0.00429596658796
0.00630996748805
-0.00122601306066
0.00525989662856
-0.0061347540468
0.00437990948558
0.00407564127818
0.00333802192472
0.00237998506054
0.0007541438099
0.00049697898794
0.00196688645519
0.00206680619158
0.00857765227556
0.000351458613295
0.00378469773568
-0.00340247433633
0.000983548816293
0.00332386023365
0.0183781906962
0.00185760261957
0.000811392441392
-0.000200429276447
0.00394188100472
0.00377739383839
0.00411769095808
0.00360025698319
0.00484607648104
0.00696728937328
0.00978308729827
0.0133109204471
0.00204831035808
0.00279229134321
-0.00098081480246
0.00307299895212
0.00585714168847
0.00270668999292
0.00345495273359
0.00351826800033
0.00216645491309
0.00405292864889
0.00600280286744
0.00179263856262
0.00649036513641
0.00484678242356
0.00308598997071
0.00314317340963
0.00424020923674
0.00553516298532
-0.0108729638159
0.00059796590358
7.19646413927e-05
0.000960089208093
0.00709226541221
0.00476663187146
0.00342160463333
-0.00446704449132
0.0132883070037
0.00737427314743
-0.0128135578707
-0.0134101696312
0.000688854604959
0.00794439669698
-0.00954324100167
-0.0171812158078
-0.0222281273454
0.00330988480709
0.00568596087396
-0.00846307910979
-0.0191444680095
0.00224247132428
0.00424194894731
0.0371472761035
-0.0086397184059
-0.0180828440934
-0.0019826258067
-0.00636183656752
-0.0150653459132
0.000423316610977
-0.0147951385006
-0.00410151574761
-0.00920206587762
0.0109256086871
-0.0131113501266
-0.00572528596967
0.0013054322917
-0.00010935755563
0.0155143784359
-0.0110939601436
-0.014903889969
-0.0297852344811
-0.0202062018216
-0.0080411080271
-0.0167602207512
-0.0202556289732
-0.0168998390436
0.0105254556984
-0.019860278815
-0.0148388892412
-0.0165558122098
-0.0256559494883
-0.0218120086938
-0.0191658455878
-0.0142327807844
-0.0200030989945
-0.00897077936679
-0.0164356082678
-0.00775495404378
-0.0145055633038
0.00333522376604
0.00415703374892
-0.0180872101337
-0.0205580033362
-0.0257093179971
0.000960015691817
0.00578473042697
0.0113359801471
0.0138977114111
-0.00191400188487
-0.0100605133921
-0.00996304024011
0.0144260143861
-0.023689892143
-0.00525961676612
-0.0187916979194
-0.015584429726
-0.0162098519504
-0.0220584310591
-0.0173507872969
-0.017378333956
0.00297368271276
-0.0175161492079
0.0679493770003
-0.0151772145182
-0.0251287184656
-0.00256328983232
-0.011164329946
-0.0196746233851
-0.0177584886551
0.00585505040362
-0.0247074458748
-0.00548599148169
-0.02065330185
-0.00184471323155
0.00643103756011
-0.0192539710552
-0.0176617521793
-0.0173709318042
-0.0149571644142
-0.0217180158943
-0.0203506369144
-0.00526643497869
-0.0112227275968
-0.0023752246052
0.0478997789323
-0.00484443223104
-0.0162928793579
0.00268949312158
-0.00485698971897
-0.012599975802
-0.0174424052238
-0.0333850383759
-0.0195506848395
-0.0174976587296
-0.0247193425894
-0.0177299380302
-0.00259843235835
0.000264168251306
-0.0105902841315
-0.00375084928237
-0.0221385713667
0.00512605439872
-0.00562995811924
-0.0109887709841
-0.0399651154876
-0.0130729395896
0.010220346041
0.00709931598976
-0.0173735935241
-0.0207675658166
-0.0019659709651
-0.017675448209
-0.0264017861336
-0.00454834010452
0.0209731049836
-0.00993203371763
-0.00179225997999
0.0221487991512
0.0245953686535
-0.00176977075171
0.0074370810762
0.00421488657594
0.0232092663646
0.0246461909264
-0.00447638891637
0.0114741586149
0.00729969097301
0.025468615815
0.0145339583978
0.00185626361053
-0.0655257329345
0.0173046886921
0.0247859079391
0.0137658473104
-0.00378585234284
0.0178837552667
0.0159052200615
0.0201589558274
-0.00232964311726
-0.00196199025959
-0.00551936309785
0.0230658780783
0.00323032937013
0.00490278331563
0.0153761859983
0.00236256374046
0.00992535520345
0.0215206611902
0.0308246649802
0.025182723999
0.0234081428498
0.0246932208538
0.0213674101979
0.0193083658814
-0.0276868082583
0.027386251837
0.0209552478045
0.0247781891376
0.0334138758481
0.0264376904815
0.0173206180334
0.033974789083
0.0176821369678
0.0162905491889
0.0206882301718
0.0138750886545
0.0124012595043
-0.00319819268771
0.0114095462486
0.025182781741
0.0252032354474
0.0256673898548
0.00771898590028
0.00412364210933
0.00551752001047
-0.00238844705746
-0.00366481137462
0.0197322126478
0.0126710627228
-0.0018456238322
0.0287811681628
0.00225857109763
0.0233666375279
0.0184864588082
0.0270181261003
0.0178249590099
0.0207103285939
0.0249073002487
0.00852578133345
0.0220694206655
-0.106534302235
0.0133946901187
0.0272598322481
-0.00742395734414
0.0187893602997
0.0172153767198
0.0272249802947
-0.00496209319681
0.0253902152181
0.0109181217849
0.0291296485811
0.0161917172372
0.00734794978052
0.0240238718688
0.0231110248715
0.0164589267224
0.0262052714825
0.0253376178443
0.0273129045963
0.0195639561862
0.0211762152612
0.020175749436
-0.0839084386826
-0.00675907777622
0.0245943348855
-0.00282390229404
0.0130946282297
0.0134707018733
0.0236904863268
0.0468763187528
0.0241122525185
0.0216825623065
0.0254522208124
0.00822590943426
0.0185883454978
0.0176725517958
0.0248907562345
0.0189654063433
0.0258267149329
-0.00844814348966
0.0104696610942
-0.00338225369342
0.05053627491
0.0185770858079
-0.0148145118728
0.00141979614273
0.028832629323
0.0187899842858
0.00496055278927
0.0201595723629
0.0287745613605
0.00601581670344
-0.000895115954336
-0.00203742133453
-0.00134858372621
0.00129775342066
-0.00268432451412
-0.00212716357782
0.00317869661376
-0.00757073843852
-0.00374661269598
-0.000504861818627
-0.00614567007869
0.00204216875136
-0.00665504299104
-0.00317330355756
-0.000762244861107
0.0065238266252
0.0149638932198
-0.00296518602408
-0.00388477579691
0.00366630032659
-0.0121444761753
-0.00242864526808
0.000396320654545
-0.00534101482481
-0.0124058155343
-0.00962401181459
1.64848461282e-05
-0.00315121654421
-0.00547660235316
-0.00209053768776
9.66333464021e-05
0.00335860368796
-0.00781344249845
-0.00363502814434
-0.00684208562598
-0.00583633501083
0.000487750687171
-0.00286044832319
-0.00765193579718
-0.00571316713467
0.00941397435963
-0.00289377896115
-0.00426460755989
-0.00299083581194
-0.00260467338376
-0.00652169529349
-0.00693497527391
0.00289587606676
-0.00865627080202
-0.00353677989915
-0.00634016422555
-0.00212983135134
-0.0121072381735
-0.00142637849785
0.00297461962327
-0.0025968295522
-0.00365915056318
-0.00558841787279
0.000936110271141
0.00399882020429
0.00132230459712
0.00696095032617
-0.00901892967522
-0.00222160993144
-0.00444439612329
0.00599895045161
-0.00495155714452
-0.00779936509207
-0.00519849173725
-0.0047060707584
-0.00173763348721
-0.00926050171256
-0.00352140865289
-0.00425708480179
0.00448131654412
-0.00585899595171
0.0189141090959
-0.00732127111405
-0.00464104069397
-0.010469888337
-0.00475836824626
-0.0083993030712
-0.0023660089355
-0.00474011246115
-0.00708935689181
0.000140135904076
-0.00562700582668
0.00141539343167
0.00629651686177
-0.00437158159912
-0.00322712818161
-0.00834435317665
0.00316074281
-0.00314800255001
-0.00569941429421
0.00082016462693
-0.00289662322029
0.000962237361819
0.019571961835
-0.0121754799038
-0.00436152610928
-0.00183262315113
-0.000618851860054
-0.00590432388708
-0.00270958873443
-0.0029513372574
-0.00587181514129
-0.0040436591953
-0.0062060742639
-0.00984357763082
-0.000514450657647
0.00295127322897
-0.00081987446174
0.000843696703669
-0.00574013404548
-0.00571343069896
-0.00167075858917
-0.0132265435532
-0.000206075244932
-0.00413999799639
0.00516006816179
0.0129359662533
-0.00405200012028
-0.0103586381301
-0.0051243044436
-0.00455940887332
-0.0052294624038
-0.00542203057557
0.0053865192458
-0.0104261040688
-0.00214046402834
0.0120806908235
0.00938328448683
-3.13049313263e-05
0.00427180062979
0.00761730456725
0.00690364092588
0.00920871365815
-0.00125250616111
0.00541150150821
0.00513024907559
0.00733096338809
0.00471238512546
0.00778749445453
-0.0104992669076
0.00179604173172
0.0066964016296
0.00702774059027
-0.00936855375767
0.00247555784881
0.0058441599831
0.00424846680835
-0.0091673983261
-0.00764496810734
-0.00552527187392
0.00818843953311
0.00677459733561
0.00116524694022
0.00517427735031
0.000667109212372
0.00591901503503
0.00455837557092
0.00602951040491
0.0017930676695
0.00883890967816
0.00430094264448
0.0105896322057
0.00267617544159
0.000897211080883
0.0101457089186
0.00439060805365
0.00713121471927
0.0123063167557
0.00555705092847
0.000148549530422
0.0196211524308
0.00219134055078
0.00292050186545
0.00977388303727
0.00401947647333
0.00459517072886
0.0016991624143
0.00490652723238
0.00383566971868
0.00520289456472
0.00361881870776
-0.000570927746594
0.00715073663741
0.00129020039458
0.00495483214036
-0.00832699052989
0.00385679397732
0.0097926184535
0.00075331091648
0.00301185320131
-0.00265987077728
0.00223879748955
0.0042331055738
0.0115344310179
0.00134464877192
0.00416578352451
0.00847965478897
0.00644177664071
0.00457104900852
-0.0282624606043
0.00185624312144
0.00604833336547
-0.00859929248691
0.00278038508259
0.000503875606228
0.00900491327047
-0.0074559673667
0.0046199564822
0.000839349464513
0.00547476811334
0.0081930346787
0.00707182800397
0.00366524630226
0.00770274410024
0.0103234928101
0.0203443262726
0.00875267386436
0.00279420195147
0.00782174058259
0.00770777370781
0.00676178466529
-0.0155881084502
-0.00878768693656
0.00504613574594
-0.00110540259629
0.00549432355911
0.00244594411924
0.00642064353451
0.0200803484768
0.00284039764665
0.00569162517786
0.00516262184829
-0.00376131222583
0.00677460851148
0.00903303641826
0.0103454785421
0.00836369488388
0.00576684856787
-0.00501593016088
-0.00110784021672
-0.0081998007372
0.0239888317883
0.00331668765284
0.000987052568235
0.00986113026738
0.00786762218922
-0.00106739520561
-0.00388986920007
0.00366780138575
0.00619954895228
-0.00211704871617
-0.00556790595874
-0.00269061513245
0.00243175239302
-0.00275829061866
-0.00897696521133
-0.00309683592059
0.00527640618384
-0.0129754971713
-0.0156953092664
0.0144007876515
-0.00353994732723
-0.00249721552245
-0.0128252254799
-0.0151126785204
-0.00519621325657
0.00306521682069
0.00341273588128
-0.0111756334081
-0.0146029349416
0.000318736012559
-0.0147964274511
-0.0109592042863
-0.0016810412053
-0.0130643360317
-0.0132303824648
-0.0134613513947
0.00248071784154
-0.00920095015317
-0.004930307623
0.0032651622314
-0.00471988320351
0.00563396606594
-0.0124353803694
-0.0125823672861
-0.0192600786686
-0.0168789867312
-0.00344099570066
-0.0141875939444
-0.010746281594
-0.0130686853081
0.00975316297263
-0.0143660772592
-0.0125552732497
-0.0126227019355
0.00988181866705
-0.0145621215925
-0.0177110731602
0.00264157657512
-0.0179894044995
-0.0102056795731
-0.00923543795943
0.00247684936039
-0.0160242989659
-0.0036554960534
0.00250410079025
-0.0128204869106
-0.017203707248
-0.0189197286963
0.00806375406682
0.00348878279328
0.00249393563718
0.00585695449263
-0.00963464844972
-0.00675741583109
-0.00683357380331
0.00616112630814
-0.0177105944604
-0.00950396433473
-0.0162175279111
-0.0125642055646
-0.00501105003059
-0.0173824895173
-0.0120741203427
-0.0133192203939
0.00296187540516
-0.0142507050186
-0.000880842562765
-0.0118451751769
-0.0181557275355
-0.0128363063559
-0.010453148745
-0.0179194249213
-0.0114930272102
-0.0068032569252
-0.0179811287671
0.0128101203591
-0.0143153276294
-0.00447897380218
0.00297003937885
-0.0159588921815
-0.0139597440138
-0.0182995665818
0.00433948030695
-0.0125533640385
-0.0174011290073
-0.00394608685747
-0.0056447875686
-0.00582794565707
0.00241008214653
-0.0171691291034
-0.0132892038673
0.00243918085471
0.0071023972705
-0.0102683063596
-0.0143055105582
0.0101222293451
-0.0157642457634
-0.0124860489741
-0.0194325484335
-0.0155351730064
-0.00271144788712
0.00293771387078
-0.00740219699219
-0.00654411595315
-0.0199223775417
-0.00459193764254
0.00875762477517
-0.0184789653867
0.01638809219
-0.0110007766634
0.0143568245694
0.00530299497768
-0.0138010466471
-0.0177971627563
-0.00652370741591
-0.0122158089653
-0.0180092509836
-0.00721981702372
-0.00414910400286
-0.00104367255699
0.001800295664
-0.00132573349401
-0.0057068541646
-0.0051812925376
0.00836367160082
-0.00823087338358
-0.0135964518413
0.00179184437729
-0.0044616991654
0.00104156055022
-0.00772840576246
-0.0129975602031
0.000533117796294
0.00602191034704
0.0126828057691
-0.00965115055442
-0.0127526633441
0.00331800314598
-0.0130960373208
-0.0118398051709
0.000132602493977
-0.0130643146113
-0.0155896218494
-0.0140857277438
0.0014467057772
-0.00477113667876
-0.00690704397857
0.00189076398965
-0.000437915092334
0.00893501657993
-0.0104933353141
-0.0125089809299
-0.0161862559617
-0.013027029112
0.000562011147849
-0.0111517338082
-0.0114259589463
-0.0136822126806
0.00862100627273
-0.0106216529384
-0.010371863842
-0.0111814700067
-0.00160611665342
-0.0130722513422
-0.0162637270987
-0.00101183645893
-0.0172108393162
-0.0080244038254
-0.00924259889871
-4.54395230918e-05
-0.0151362093166
-0.00520602473989
0.00526242703199
-0.011855811812
-0.0162712223828
-0.0160106327385
0.00213942164555
0.00474327336997
0.00464489590377
0.00767141021788
-0.0119840167463
-0.00480839097872
-0.0077420710586
0.00958564784378
-0.0163427200168
-0.0101027470082
-0.0150871844962
-0.0114903319627
-0.00376032385975
-0.0170677173883
-0.0118849845603
-0.0120209529996
0.00577662652358
-0.0128716928884
0.0190295167267
-0.0129991285503
-0.0163088012487
-0.0124683352187
-0.00894051510841
-0.0153580531478
-0.0109842820093
-0.00553061394021
-0.0166372973472
0.00174949516077
-0.0128756705672
0.00124439643696
0.00624482380226
-0.0138469198719
-0.0115613890812
-0.0132584366947
0.000746911566239
-0.0123217022046
-0.0139659261331
-0.00171197124291
-0.00492209615186
-0.00261055747978
0.0160761829466
-0.0169423893094
-0.0106239365414
-0.00165496370755
0.000985103659332
-0.00993597134948
-0.0126992240548
-0.00164234044496
-0.0143436742947
-0.01333479397
-0.0165306758136
-0.0178093519062
-0.000629481044598
0.00444881431758
-0.00462670251727
5.8662291849e-05
-0.017592407763
-0.00504407752305
0.00115171354264
-0.0168709438294
-0.0012512197718
-0.00974099524319
0.00866371020675
0.0106008779258
-0.0114474520087
-0.0178739987314
-0.0074365856126
-0.0124770253897
-0.0188166070729
-0.00665926095098
-0.00552036100999
-0.00749498326331
0.00646498706192
-0.00714515289292
-0.00355054205284
0.0171365793794
-0.00604415591806
0.0304521359503
0.00340930907987
0.0303424764425
0.0157600045204
-0.00238356436603
0.0318688228726
0.000661638216116
-0.00373651413247
-0.0283961743116
-0.00528945354745
0.00379079743288
-0.000724755693227
-0.0156918168068
-0.000173657375854
-0.00104334228672
-0.00275744474493
0.000272770907031
0.00052845350001
-0.00141372496728
0.00838673487306
-0.00379605498165
0.0249742120504
-0.00382574996911
-0.0028155464679
-0.00910805817693
0.0287829302251
-0.00164048769511
-0.00714307930321
-0.00363349751569
-0.00331974984147
-0.00856634043157
0.0271684359759
-0.00175767217297
0.0147535083815
-0.00602700095624
-0.00213202065788
-0.00559440162033
0.0170373097062
-0.00325050391257
-0.0049161342904
-0.000595170888118
0.00195929966867
-0.00249711773358
0.0309926532209
0.0280204005539
0.0289635173976
0.0181121230125
-0.00475486554205
-0.00980651937425
-0.00227915169671
-0.000916876073461
0.0021164608188
-0.0148872267455
-0.00662558246404
-0.0124905733392
0.00299342721701
-0.00773438857868
0.0268808268011
-0.0110808508471
-0.00956614688039
0.00293229101226
-0.00366917368956
0.0037840611767
-0.00544985430315
-0.00311385001987
0.000230363322771
0.00676272483543
-0.00810340978205
0.00343113439158
-0.0349605791271
0.00264296703972
-0.0024112907704
0.00542675331235
-0.00274097407237
-0.004218170885
-0.00476184533909
0.00188780552708
-0.00134431640618
0.0257353596389
-0.00566735258326
-0.00271874899045
-0.0152858393267
-0.00654380023479
-0.00102295412216
0.0315453074872
-0.0033458750695
-0.00352150131948
-0.0117496689782
-0.00212110741995
-0.00319736776873
-0.000112971370982
-0.012161841616
0.000387283158489
0.00476664165035
0.01468104776
0.0308197289705
0.00119032489602
-0.000179140552063
0.0151325734332
-0.00172127049882
0.00154707406182
-0.000765836623032
-0.0015595901059
-0.0057252459228
-0.00455543166026
-0.000648723449558
-0.000685261853505
-0.00267022545449
0.00779904751107
0.0129900658503
-0.00220182351768
0.0337235219777
0.00178082042839
0.0138049349189
-0.0351387932897
-0.00736254779622
-0.00363423814997
0.00318598700687
0.00415342487395
-0.00301588885486
0.000800217618234
0.00492868665606
-0.0034058233723
-0.00113569782116
0.00815211981535
0.00656211609021
-0.00484390975907
0.00586870219558
-0.00533941620961
-0.00200827652588
0.00390985654667
-0.00220975652337
0.00782056152821
-0.00633085658774
0.000383998762118
0.00441455841064
0.014587206766
0.0138324443251
-0.00182741880417
-0.000861095555592
0.00924561452121
-0.0110903261229
-0.000424323952757
0.00993372872472
-0.0047021843493
-0.0118378754705
-0.00832462497056
-0.00218930514529
0.00270296516828
-0.00135335989762
0.00112670450471
0.00775280501693
0.00640072440729
-0.00826911814511
0.00323166302405
-0.00146049377508
-0.00410539889708
0.00495419232175
0.00427627051249
-0.00538172526285
-0.00449401745573
0.00963857490569
0.00508978171274
0.0023110571783
0.00266299792565
0.00545289227739
-0.00255743740126
-0.00543522555381
0.0127859394997
-0.00595765886828
-0.000483728392283
-0.00428878003731
-0.00365340826102
-0.0115574849769
-0.000782555434853
0.00764855369925
0.00103994994424
-0.00120047607925
-0.000501363596413
0.00269003026187
0.0113479942083
0.00552227906883
0.0108075253665
-0.0081187300384
0.00166324374732
-0.003351314459
0.00757992407307
-0.00207521603443
-0.00528411148116
-0.00150568922982
-0.000408642925322
0.00679549807683
-0.00660999491811
-0.00123895192519
-0.00109007034916
0.00943122152239
-0.000729429884814
0.0116975018755
-0.00372946728021
-0.00206672726199
-0.0116625186056
-0.000747085548937
-0.00453462079167
0.00450513511896
-0.00596284633502
-0.00281094550155
-0.00141468562651
-0.00193646457046
0.00578647386283
0.0103703895584
-0.00111752504017
-0.000946037238464
-0.00749354204163
0.0132072204724
0.00339816929772
-0.000522067013662
0.00634430488572
0.00501842284575
0.00773559464142
0.0145578552037
-0.0134931551293
-0.000540015113074
-0.00202439865097
-0.00258429837413
-0.00126021157485
0.000522501242813
0.00830473005772
-0.00217928434722
-0.000808105978649
-0.00289534637704
-0.00809082202613
0.00556569639593
0.0102727496997
0.00863845460117
0.00809712521732
-0.00427710451186
-0.00305709033273
-0.00234773592092
-0.0131060825661
0.0128628760576
-0.000788598204963
0.00691210338846
0.020490963012
0.00187705061398
-0.00671378243715
-0.00506241573021
-0.00274312170222
-0.00213022623211
-0.00331410183571
0.00257742917165
0.00422023097053
0.00776514178142
-0.00418221810833
-0.000376034207875
0.0115555804223
8.86173074832e-06
0.0212594922632
0.0017526447773
0.00819141138345
0.0124750360847
0.00515032606199
0.0211226418614
0.00129765283782
0.00381366722286
-0.0155377117917
0.00991469621658
0.00354953389615
3.5186050809e-05
-0.00575320422649
1.75219211087e-05
-0.000574966252316
0.00398675817996
0.00303082354367
0.00294768158346
-0.000906063592993
0.00767271500081
-0.000108072927105
0.018113296479
0.00118122156709
0.00306384125724
0.00277912802994
0.0173589400947
-0.000449977378594
-0.00519573735073
-0.000983602949418
-0.000273606565315
-0.00267014279962
0.013404937461
-5.2283754485e-05
0.0120049128309
-0.000690963293891
0.000210273341509
-0.00327449291945
0.00390460761264
-0.00211712298915
-0.00275106099434
-0.00159793684725
0.00273288181052
-0.000460962182842
0.0134259955958
0.0130035756156
0.0145828062668
0.0153233753517
0.000333540228894
-0.00566629180685
-0.00196906062774
-0.00158442358952
0.00174389150925
-0.00499528413638
0.001667332137
-0.000654883857351
0.0046257651411
-0.00251179561019
0.0161621365696
-0.000161997057148
-0.00554342009127
0.00366638391279
-0.00241508474573
0.003331202548
-0.00266214786097
-0.00117147131823
0.000761771865655
0.00481339404359
2.65906455752e-05
0.00324329524301
-0.000238314562012
0.0064470237121
-0.00143067643512
0.00654338905588
-0.000233974045841
-0.00136319978628
-0.00368118216284
0.00327122979797
-0.000270386837656
0.0113482074812
-0.00586743932217
0.00293964031152
-0.00385376485065
-0.00528153637424
-0.000429748819442
0.0158478096128
-0.00569061934948
-0.00194015691523
-0.00530399568379
0.000646478147246
0.00232800329104
0.00520604616031
0.00933977402747
0.00573412468657
0.00383979454637
0.0109436726198
0.016832774505
0.00299509917386
0.00084806320956
-0.00162997748703
-0.00277210492641
0.00242999638431
-0.00204280111939
0.00186265923548
0.00212433305569
-0.00099899340421
0.0026979513932
0.00368867116049
-0.00132527260575
0.00791632197797
0.00655199307948
0.00399147160351
0.00542794028297
0.00209670350887
0.0104810604826
-0.0181838721037
-0.00368526950479
-0.00128830852918
0.00331711699255
0.00349230924621
-0.00239065219648
0.00402076356113
0.00372941885144
-0.00421472080052
0.00504887429997
0.00153787620366
0.00348065025173
0.0128584206104
-0.00441404245794
0.0259096100926
0.0118792755529
0.0212177745998
0.0115443235263
0.00293363048695
0.0267872642726
0.0102511728182
0.00261801038869
-0.0229721684009
-0.0051156594418
0.00906019564718
0.00877634529024
-0.00863951817155
0.00633682496846
0.00567984115332
0.00441952515393
0.00913519691676
0.00636474275962
0.007628550753
0.0036340362858
0.0049533736892
0.0213188249618
-0.00374302919954
0.00391926802695
-0.00471550133079
0.0235289689153
0.00923892576247
0.00361083820462
0.00585639197379
0.00250389426947
0.00353634543717
0.0233158878982
0.00742152146995
0.00728766014799
0.00636624265462
0.00643510278314
0.00564021570608
0.0150324339047
0.00765074929222
0.0049239397049
0.00173361401539
0.0120733072981
0.00562762049958
0.026295652613
0.0224496740848
0.0225264951587
0.0138617418706
-0.00284624798223
0.0024427853059
0.00444926973432
0.00862915068865
0.0011414042674
-0.00926552992314
-0.00377909722738
-0.00844178441912
0.00895068980753
0.000580508029088
0.0241761282086
-0.00559440581128
0.00346777867526
0.00753983017057
0.00573007995263
0.0110858585685
0.00454274332151
0.00781428162009
0.0105922818184
0.0117432568222
-0.00506421737373
0.0125519204885
-0.0279108192772
0.0101379863918
0.00788267888129
0.0114953089505
0.00707895215601
0.00628664437681
0.00612789671868
0.00381195032969
0.0111491270363
0.0162849463522
0.00423791399226
0.0051199728623
-0.00854489579797
0.00374123058282
0.00983846746385
0.0242241099477
-0.0027483261656
0.00381050794385
0.000986912869848
0.00442010629922
0.00524713704363
0.00686060171574
-0.0109523963183
0.0107186902314
0.00974522158504
0.00899689644575
0.0230469387025
0.00748665211722
0.00768148805946
0.0119876908138
0.00400140043348
0.0108598731458
0.00763344857842
0.00805235560983
0.00363907474093
-0.000102945821709
0.00824509374797
0.00646347366273
0.00806245952845
0.00575199909508
0.00710964296013
0.00880714226514
0.0245220735669
0.00718931714073
0.00978452619165
-0.0308722574264
0.0026322142221
0.0060971993953
0.00634273746982
0.0120577123016
0.00531206233427
0.00350516033359
-0.000536499894224
-0.0074182623066
-0.000214340878301
0.00575250992551
0.000104503182229
-0.00512819457799
0.00498917233199
-0.0173141248524
-0.0116806682199
0.021870225668
-0.00857675261796
0.000625715823844
-0.0187807939947
-0.0107725858688
-0.0023905064445
0.00922439806163
-0.00153800600674
-0.0080736335367
-0.0103818383068
0.00684770056978
-0.0184685271233
-0.00738638779148
0.00179511809256
-0.0119557064027
-0.0156979355961
-0.0173494070768
-0.000644649669994
-0.00108156516217
-0.0101072397083
0.00529461493716
-0.00086384214228
0.00320670870133
-0.015124194324
-0.00818359199911
-0.0113983852789
-0.0140752345324
0.00330622470938
-0.00898353103548
-0.00736039411277
-0.011323031038
0.00775450281799
-0.0066652437672
-0.00763596734032
-0.00781178846955
0.0241269934922
-0.0133648887277
-0.0168728139251
0.0118306884542
-0.0163035336882
-0.00673040561378
-0.0073340954259
0.00187911489047
-0.017072705552
-0.00848942901939
0.00748364720494
-0.00891193468124
-0.0129488920793
-0.0170085188001
0.00817523989826
0.00424529192969
0.000950111658312
0.00298912124708
-0.0139568531886
-1.09912216431e-05
-0.00617910036817
0.0052606924437
-0.0127953924239
-0.0123500972986
-0.0115850418806
-0.0113034239039
0.00162843195722
-0.01725483872
-0.0131176188588
-0.0130299050361
0.00790430791676
-0.0127291800454
-0.0146208284423
-0.0125834867358
-0.0139466328546
-0.0200715102255
-0.00818289257586
-0.0186623055488
-0.00292767467909
-0.00994899868965
-0.015023981221
0.00880803540349
-0.0108909113333
0.00162100396119
0.00642990926281
-0.0128407711163
-0.0115242172033
-0.0177833028138
0.0128049366176
-0.00690115895122
-0.0114900628105
0.00134809082374
-0.00220773555338
-0.00309628224932
-0.00517183495685
-0.0236696824431
-0.0129778645933
-0.00180514424574
0.00282836309634
-0.00844616815448
-0.012973126024
0.0254381988198
-0.0121083864942
-0.011785235256
-0.0147346425802
-0.016118073836
0.00177251070272
0.00772593123838
-0.00160858628806
-0.00210025254637
-0.015633277595
-0.0096512651071
0.0100406287238
-0.0223572459072
0.0335982441902
-0.00984609965235
0.00824825838208
0.0153439762071
-0.0089879417792
-0.017636699602
-0.00900883600116
-0.0106817148626
-0.0123411118984
-0.00785621069372
-0.0312462281436
-0.0381247252226
-0.0259196087718
-0.0276394374669
-0.0301956757903
-0.0344314016402
-0.0318349190056
-0.0211434997618
-0.0149802342057
0.0168900955468
-0.0346854068339
-0.0386585146189
-0.0174446664751
-0.0156753174961
-0.0343205928802
-0.00521199032664
-0.00934355333447
-0.0252618137747
-0.0159951113164
-0.0277641788125
-0.0215014815331
-0.0185335781425
-0.0355444215238
-0.0157903432846
-0.0194504186511
-0.0180803537369
-0.0311241764575
-0.0361435487866
-0.0311416946352
-0.02954935655
-0.0338165685534
-0.0307696014643
-0.0197478421032
-0.0248260740191
-0.00841129664332
-0.00876471307129
-0.0311210863292
-0.00951964315027
-0.0223568882793
-0.0106939673424
-0.017823940143
-0.0159651245922
-0.0191382374614
-0.0150399208069
0.00455966498703
-0.0118929799646
-0.0142093393952
-0.0260763820261
-0.0163220595568
-0.0230342429131
-0.0172185394913
-0.00875263568014
-0.0374718345702
-0.036652199924
-0.0300996042788
-0.00859882310033
-0.012367404066
-0.010386094451
-0.0221365951002
-0.0278858523816
-0.0321846492589
-0.0296076275408
-0.027306701988
-0.0350507572293
-0.0171838756651
-0.0311145652086
-0.0080921696499
-0.0271105878055
-0.0116928014904
-0.0178588312119
-0.026173569262
-0.0137409167364
-0.0164334271103
-0.0168931465596
-0.0236754268408
-0.0175825785846
0.00360912736505
-0.018111243844
-0.00903339404613
-0.0214690472931
-0.0256504621357
-0.014043463394
-0.0183247849345
-0.0334266200662
-0.0107925226912
-0.00858574733138
-0.0156777519733
-0.0335061885417
-0.0265357717872
-0.0133687686175
-0.0147094195709
-0.0208753123879
-0.0263261534274
-0.0197320431471
-0.008185419254
-0.03072386235
-0.0306744705886
-0.0348101556301
0.00095169711858
-0.0251865796745
-0.0201998036355
-0.0287993308157
-0.0065392064862
-0.0256100986153
-0.0190802495927
0.000770302838646
-0.0110766114667
-0.0151497712359
-0.0113250128925
-0.0180422589183
-0.0308026149869
-0.0292683634907
-0.0302072223276
-0.0367753058672
-0.0101905874908
-0.0359256155789
-0.0123086404055
-0.0186034534127
0.0170049201697
-0.0187275931239
-0.0155998030677
0.00616674590856
-0.0128842582926
-0.0138948680833
-0.03100271523
-0.0185740310699
-0.0110122282058
-0.02872572653
-0.00468508899212
-0.00904504861683
0.0050526894629
-0.00747035304084
-0.00914954487234
0.00875610671937
-0.00477985991165
0.019463673234
-0.00537377176806
0.0204612538218
0.00823417678475
-0.00426299264655
0.0200291350484
-0.00807351991534
-0.00635381415486
-0.0157388020307
-0.00293399766088
-0.00807092804462
-0.00851884391159
-0.0145640242845
-0.010522515513
-0.00873904768378
-0.0041960212402
-0.00422541098669
-0.0117903500795
-0.0123143307865
0.00328663503751
-0.00762836355716
0.0117108523846
-0.00515075866133
-0.00461457855999
-0.00677069695666
0.0197489950806
-0.00869178771973
-0.0165346618742
-0.0121018197387
-0.00513746030629
-0.0145916966721
0.0141468439251
-0.0087375510484
0.00860032159835
-0.0116673167795
-0.0089690182358
-0.0120720136911
0.0131974807009
-0.00908684916794
-0.0122368130833
-0.000978179741651
-0.00775030720979
-0.00927058234811
0.0163347534835
0.0207052547485
0.0134114501998
0.00796813517809
-0.006360121537
-0.0146744037047
-0.0116578759626
-0.00977333635092
0.00139344669878
-0.00920717883855
-0.00524275796488
-0.0082480031997
-0.00501294666901
-0.0121048958972
0.0158977471292
-0.00708448654041
-0.0159456506371
-0.00553803239018
-0.0116325402632
-0.00616316730157
-0.0076961372979
-0.0122535387054
-0.00821538642049
-0.00402890844271
-0.00598882883787
-0.00509239686653
-0.0250589624047
-0.00474480912089
-0.0103805996478
-0.00638840021566
-0.00612766528502
-0.0116413794458
-0.0117295468226
-0.00609644455835
-0.0106883514673
0.0191692840308
-0.0156877096742
-0.00414454983547
-0.0098337540403
-0.0151771837845
-0.00714046508074
0.0166918803006
0.000200646187295
-0.00927055999637
-0.0175685733557
-0.00474545126781
-0.0073856418021
-0.00565782468766
-0.00662493798882
-0.00921618659049
-0.00490112137049
0.0070319082588
0.0207029674202
-0.00681433686987
-0.00976384617388
0.0105364434421
-0.0112385898829
-0.00696320505813
-0.00953961163759
-0.0111531158909
-0.0062120850198
-0.00253208959475
-0.0039473772049
-0.00516191218048
-0.0120726684108
-0.000313482421916
0.00972975511104
-0.00860649812967
0.0243643596768
-0.009371410124
0.0102914897725
-0.0155444834381
-0.0143895456567
-0.0106313014403
-0.00561337918043
-0.00496899336576
-0.0108937965706
-0.00390644976869
-0.00382049824111
-0.0200951136649
-0.0327128209174
-0.000727426726371
-0.00490298680961
-0.0390214547515
-0.00685320002958
-0.0569336637855
0.00639875885099
-0.017156066373
-0.0388970449567
-0.0125239063054
-0.0553941763937
0.0109042357653
-0.00658817123622
0.0305907651782
-0.0215077120811
0.00159646151587
0.0114767961204
0.0064370892942
-0.0212369933724
0.00842220056802
-0.0095753474161
0.00275851157494
-0.0150435995311
-0.0111729772761
-0.031939830631
-0.00641871523112
-0.0456513054669
-0.011647792533
-0.00824888423085
-0.00577305164188
-0.0554245226085
0.00780740845948
0.0190451554954
0.011388820596
-0.00205595232546
0.0211045350879
-0.0476178452373
0.00762036396191
-0.0328918769956
0.0121332909912
0.00841485429555
0.0132332900539
-0.0069703925401
0.0080086691305
0.00250469264574
0.0034727442544
-0.00356338289566
0.00298553216271
-0.0528331138194
-0.0461242310703
-0.0583453178406
-0.0408522710204
-0.00579257356003
0.0194231327623
0.00955780036747
0.00796174723655
-0.0219986382872
0.000946385203861
-0.00671329861507
-0.00460872193798
-0.019844872877
-0.0050992211327
-0.048704624176
-0.00586259784177
0.018888020888
-0.0162651054561
0.0122483344749
0.00409684237093
0.000468834507046
0.0040661371313
0.00899020861834
0.00178098410834
-0.00352997658774
0.00452052988112
-0.0103221349418
0.00177300453652
0.0112135149539
-0.0260110907257
0.000176062341779
0.00365545554087
0.0109015926719
-0.0179561916739
0.00533090392128
-0.0412792675197
0.0164306331426
-0.00717487605289
0.000234564664424
0.0142382085323
0.0116775929928
-0.0594988316298
0.0065514924936
0.0106214405969
0.0189873166382
-0.00461648637429
-0.00369300856255
-0.0111179370433
-0.0185661334544
-0.02737474069
0.00322913262062
-0.0348121747375
-0.0440894588828
-0.000660115387291
0.00932696275413
-0.000334844575264
0.0109094511718
0.00980871450156
0.00501396553591
-0.00802252907306
-0.00542353792116
-0.0056253974326
-0.00467369100079
-0.00682911975309
0.0104967495427
-0.029203068465
-0.0268388167024
-0.0216244459152
-0.0084749860689
0.00666692201048
-0.0330084934831
0.0508403927088
0.020740987733
0.00266534043476
-0.00962189398706
0.00122613552958
0.0122033562511
-0.0127823846415
0.00367770926096
-0.00197041453794
0.000899079546798
0.00173460878432
0.00380562618375
0.00465276557952
0.00240367930382
0.0112700415775
0.0020021207165
0.00295754987746
0.00383388879709
0.00620513316244
0.0109279947355
0.00223755999468
0.00433774478734
-0.00116437720135
0.00692271627486
0.000774100306444
0.00155860709492
0.00119648734108
-0.00950310193002
7.95885935077e-05
0.00445177638903
0.00241664797068
-0.00598772754893
-0.00674468791112
0.00247934577055
0.00308938533999
0.00923039391637
-0.00156914140098
0.00594917079434
0.0030592516996
0.00992640666664
0.0020650618244
-0.000564584857784
-0.000402258010581
0.00515853008255
0.000529421493411
0.00861551053822
-0.0034971027635
0.00255627790466
0.00114797439892
0.000183915675734
-0.000730622094125
-0.00157882808708
-0.00037205524859
-0.00242462079041
0.00280519272201
-0.00209786021151
0.000828736752737
0.00821313634515
0.00618050666526
0.00558023247868
0.00572560168803
0.00185477279592
0.00043601373909
-0.000139863419463
0.000483967625769
-0.00114674575161
0.00246679550037
0.00330514344387
0.0052479300648
-0.00536581408232
-0.000102919068013
0.0095937307924
-0.000169735212694
-0.000808848359156
-0.00415541464463
-0.0016830151435
-7.26519356249e-05
0.00143655191641
-0.00290665938519
0.0002323811932
0.00178762001451
0.00226324866526
0.00159824010916
0.000807305099443
0.00156489037909
-0.000549486721866
-0.00453931419179
0.00232492596842
-0.00426815217361
0.00231679226272
-0.00460502039641
-0.000219935274799
0.00377675076015
-0.000638418772724
0.00594347948208
0.00410663383082
0.00190533348359
0.00212744553573
0.00926326680928
0.00329899019562
0.00495130568743
-0.00135234976187
0.00485424045473
0.00364838028327
0.00608611665666
0.00436688261107
-0.0059445691295
0.000725344172679
0.00428492249921
0.00931247882545
-0.000917060417123
0.00106284383219
-0.00155360065401
-0.000407412211644
0.00235927593894
-0.00110205332749
-0.00303764152341
0.00245432252996
0.00483833719045
0.0050540342927
0.00719192670658
-0.000708952662535
-0.00126256712247
-0.00112501264084
-0.00522488215938
0.00228254124522
0.000407136569265
0.00326057104394
-0.00110418500844
0.00130567583255
-0.0038536733482
-0.00306166894734
0.00272408151068
0.00148744613398
-0.00235627032816
-0.0013408055529
-0.00284969783388
0.000490251171868
0.00381262833253
-0.00105440733023
-0.00978767778724
0.0092102214694
-0.0204077791423
-0.0145617043599
0.00157268659677
-0.00874030869454
0.00179208116606
-0.0202077459544
-0.0131074050441
-0.000672335620038
0.0170495416969
0.0122303897515
-0.0130249224603
-0.0128807974979
0.00654104910791
-0.0181095860898
-0.0104674790055
0.00327424122952
-0.0147614302114
-0.0180292408913
-0.0172891598195
0.000303875101963
-0.00426644925028
-0.0126354899257
0.00514575885609
0.000552764977328
0.00851088017225
-0.0207240935415
-0.00951099768281
-0.0153118381277
-0.0169362854213
-5.02434304508e-05
-0.0119066983461
-0.0150043964386
-0.0144644491374
0.00497403647751
-0.0102059561759
-0.0113041987643
-0.00981474854052
0.00419460609555
-0.0165271833539
-0.0178376231343
0.00613241596147
-0.0221347939223
-0.0109672620893
-0.0159743707627
-0.00601247837767
-0.0251459684223
-0.0103874094784
0.00847030524164
-0.0112658580765
-0.0175890829414
-0.0186225175858
0.00127810600679
0.0109603153542
0.00586166325957
0.0138555839658
-0.0149811059237
-0.00198128749616
-0.0129004875198
0.0120133524761
-0.0162576772273
-0.0118613680825
-0.0152773093432
-0.0119255939499
-0.00215941364877
-0.0192273128778
-0.0122042754665
-0.0156519394368
0.00858212914318
-0.0153949353844
0.0192421171814
-0.014467461966
-0.0176989939064
-0.0174130052328
-0.00949402526021
-0.0193873997778
-0.00926069077104
-0.00859049335122
-0.0208618175238
-0.0018604855286
-0.0137581871822
0.00107285601553
0.0111282737926
-0.0131091279909
-0.0136847821996
-0.0241586565971
0.00814950373024
-0.00931364577264
-0.0118865538388
-0.000307485082885
-0.00468866527081
0.00114628951997
0.0156469251961
-0.0229050200433
-0.0152314677835
-0.00329836155288
-0.00439817970619
-0.0122315632179
-0.0127730043605
0.00497872522101
-0.0154220303521
-0.0133063131943
-0.0203485358506
-0.018612422049
0.00125895324163
0.0079700332135
-0.00327198742889
-0.00219522905536
-0.0173485130072
-0.0071729212068
0.00197673006915
-0.0223322641104
0.00576101848856
-0.0114103127271
0.00417971238494
0.0258245933801
-0.0119685567915
-0.0200642645359
-0.00878020655364
-0.0152660179883
-0.0165817756206
-0.00787103362381
0.00174046994653
-0.00318821356632
0.000324059772538
0.0033382512629
-0.000228099801461
-0.00534780649468
0.00813492108136
-0.0109621062875
-0.00763688609004
0.00210275896825
-0.00615072855726
0.00308377435431
-0.0116204461083
-0.0066205272451
-0.000198499154067
0.0137453898787
0.009008445777
-0.00698749348521
-0.00602103210986
0.00665052887052
-0.0162630360574
-0.00758020067587
0.00129234814085
-0.00892590917647
-0.0146451592445
-0.0153253534809
0.00101869332138
-0.0031666776631
-0.00671442132443
0.0029407478869
0.00127038080245
0.00577859161422
-0.0154837854207
-0.00487523246557
-0.00917446799576
-0.0115422913805
0.00145863078069
-0.00792072992772
-0.0100573655218
-0.00914627872407
0.00754303717986
-0.00607301155105
-0.00479848124087
-0.00607158895582
0.00606165127829
-0.00951131340116
-0.0119171971455
0.00635232636705
-0.0154516482726
-0.00588287692517
-0.00772088067606
-0.000662472331896
-0.017916303128
-0.00596792763099
0.00541408127174
-0.00638666981831
-0.00717133004218
-0.0107152573764
0.00194894743618
0.0085839536041
0.0055294376798
0.00946561805904
-0.013170122169
-0.000585512374528
-0.00778078986332
0.0114675601944
-0.00873943325132
-0.00903359614313
-0.0081815989688
-0.00811355467886
-0.000933841569349
-0.0127603234723
-0.00657232105732
-0.00880946777761
0.00746531039476
-0.0106034521013
0.0134645579383
-0.0093899210915
-0.0102170677856
-0.0153748458251
-0.00599267426878
-0.0110540734604
-0.00464336248115
-0.00676718074828
-0.0126732997596
0.00220124633051
-0.00850196555257
0.00138052320108
0.00889864377677
-0.00903182663023
-0.00686948653311
-0.0138777634129
0.00792368594557
-0.0039101340808
-0.00819735974073
9.18995137908e-05
-0.000459563423647
0.000157357950229
0.0135021237656
-0.0171686317772
-0.00852104183286
-6.56855772831e-05
0.00124763557687
-0.00911098439246
-0.0061112283729
0.00616264110431
-0.00924844574183
-0.00908760353923
-0.011142632924
-0.0137180220336
0.000855918973684
0.00659503694624
0.00138819718268
0.00183935416862
-0.0106240045279
-0.0065827104263
0.00177171768155
-0.0189620032907
0.00873192492872
-0.00507979094982
0.00530217494816
0.0199787337333
-0.00677888747305
-0.0121411979198
-0.00558390049264
-0.0086186369881
-0.00908040907234
-0.00765705388039
0.00555890565738
-0.00326355057769
3.69634071831e-05
0.00471435021609
0.00435453653336
0.00246632727794
0.000909993483219
0.00382121372968
0.00298499292694
0.012572016567
0.00194720213767
0.00524829421192
0.00232674437575
0.00525606237352
0.00212958245538
-0.000403915415518
0.0008580283029
0.00221893354319
0.00247249659151
0.00134864018764
-0.00784520339221
0.00215260800906
0.00599645683542
0.00311950477771
-0.00387529144064
-0.00419456046075
-0.000308167975163
0.0048502581194
0.0065260338597
0.00186624831986
0.00368025433272
0.00338416080922
0.00494505185634
0.0035317169968
0.000676702882629
0.0028117171023
0.00382059649564
0.001131505589
0.00594112416729
-0.000493731815368
0.00458620069548
0.00351374223828
0.00320587959141
0.00298876338638
0.014429195784
0.00158341147471
-0.0021400032565
0.00968544557691
-0.000232037797105
0.00119397253729
0.00446939468384
0.00532125867903
0.00185943057295
0.00245371763594
0.00378843466751
0.00136525765993
8.14798768261e-05
0.000763976888265
0.00189167435747
0.00199260376394
0.000429735693615
0.00208871718496
-0.0027155042626
0.00255307485349
0.00539605971426
0.00117079750635
0.000137439652462
-0.00167561729904
0.00248144264333
0.00176136603113
0.00334045523778
-0.00106602185406
0.00313203642145
0.00516311172396
0.00200506998226
0.00284170522355
-0.0110931564122
0.00232002744451
0.00355352647603
-0.00408508768305
0.00396364042535
-0.0012324975105
0.00309556117281
-0.00362348160706
0.00159112759866
0.00558305578306
0.00067984405905
0.00538424216211
0.00227514794096
0.00114808767103
0.00386515422724
0.00350516382605
0.00924874283373
0.00435487926006
-0.000213481602259
0.00560061633587
0.00414196634665
0.00681206118315
0.000239183165831
-0.00630319071934
0.00584455439821
0.00120147969574
0.00756848044693
0.000963494880125
0.00361939962022
0.01408397872
0.000720418989658
0.00287208263762
0.00104613672011
-0.000825596507639
0.00193447666243
0.00476211914793
0.00654419697821
0.00679481681436
0.00158271985129
-0.00155769183766
0.0020502244588
-0.00420930562541
0.0214311033487
0.00330293225124
0.00424797134474
0.00289492541924
0.00109852105379
-0.000908162328415
-0.000977793708444
0.0027585173957
0.00287641002797
-0.00174691830762
-0.060429546982
-0.0454507917166
-0.019672844559
-0.0683782100677
-0.0607224181294
-0.0190845876932
-0.0614415295422
0.00845053792
-0.0277730673552
0.0442638359964
-0.0162434689701
-0.0639226362109
0.0132447872311
-0.0357742346823
-0.0592824481428
-0.0725063756108
0.00582389254123
-0.0395684540272
-0.0312922149897
-0.0795119330287
-0.018816396594
-0.0340095944703
-0.0624438524246
-0.0259406398982
-0.0210239738226
-0.0195444449782
-0.019145263359
-0.0646341592073
-0.0117515465245
-0.0525432340801
-0.062484074384
-0.0612590052187
0.0118385087699
-0.0430452078581
-0.0287668500096
-0.0243389494717
-0.0651766806841
-0.0298324935138
-0.0136806825176
-0.0226241983473
0.0082492865622
-0.0379201024771
-0.0370088852942
-0.0329655818641
0.00239499891177
-0.0286557115614
-0.0242752637714
-0.0706579089165
-0.0253069996834
-0.0406523011625
0.00342325679958
0.0229463651776
-0.0215172600001
-0.0180822368711
-0.063737668097
-0.0297337416559
-0.025132548064
-0.0246943831444
-0.0329944044352
-0.075903378427
-0.0601770430803
-0.0717828422785
-0.0250019598752
-0.0655461624265
-0.000160448165843
-0.0673863366246
-0.027069138363
-0.0291424524039
-0.0279957801104
-0.0315102674067
-0.0611707158387
-0.0238193981349
-0.0294262506068
-0.0315785892308
-0.064116217196
-0.026557572186
0.00805647484958
-0.0277064740658
-0.025854093954
-0.0184222925454
-0.0407482013106
-0.0250945258886
-0.0383611321449
-0.0371017567813
-0.0255022067577
0.0302600171417
-0.0351315848529
-0.0624444968998
-0.0786902755499
-0.0301276743412
-0.0327477753162
0.00586225045845
-0.0757653862238
-0.0398233681917
-0.0289360880852
-0.0624199099839
-0.0576303452253
-0.0610415115952
0.0196615178138
-0.0207609683275
-0.0330438837409
-0.0106191374362
0.024973358959
-0.0346575155854
-0.0345119275153
-0.0227776169777
-0.0257412716746
-0.0255545880646
-0.0229235049337
-0.0235738940537
-0.0633534267545
-0.0674336329103
-0.0564589202404
-0.0622302554548
-0.0237385611981
-0.0274882409722
-0.00270443316549
-0.0189783256501
0.0268988180906
-0.035045709461
0.0136283216998
-0.0655817240477
-0.0320027768612
-0.0240762606263
-0.0353802517056
-0.0280655808747
-0.0295505244285
-0.0341461412609
0.00688983360305
0.00384361622855
0.00603667739779
-2.67757950496e-05
0.00171183887869
0.00894760806113
0.00414540339261
0.0131017677486
-0.000443288910901
0.00125701643992
0.00969401933253
0.00758490851149
0.0141512891278
-0.00175781571306
0.00695821410045
-0.00787018146366
0.0120783792809
0.00167016685009
-0.00273048644885
-0.0013553785393
-0.000912655610591
-0.00142207066528
0.00598385278136
-0.000958821678068
0.000762740615755
-0.000945319014136
0.00819640792906
0.000708737934474
0.0117688635364
0.000186073011719
0.00435647042468
0.00567437708378
0.0113496463746
0.00013485517411
-0.00651233037934
-0.00282382685691
0.00348192779347
-0.00278856023215
0.00659627281129
-0.0019450011896
0.00973930209875
-0.00225603510626
-0.000988330692053
-0.00334270764142
-0.00337547319941
-0.0029571049381
-0.00297987903468
0.00195527705364
0.000954250630457
-0.000154494468006
0.00726414239034
0.00998921319842
0.00707842595875
0.0108245918527
0.00345046352595
-0.00378693034872
-0.00243506068364
-0.00364553579129
0.00141938799061
0.00137638591696
0.00458675157279
0.00451216241345
0.00170283869375
-0.00139682437293
0.0106247803196
0.00311275129206
-0.00706006400287
0.000254052371019
-0.00496248248965
-0.000145579382661
0.00103850278538
-0.00378820952028
-0.00155222427566
0.000762468436733
0.0027594929561
0.000256188825006
0.00776769360527
0.000887747737579
-0.00353024969809
0.00121947785374
-0.000217654334847
-0.00262568937615
-0.000758925511036
0.00181215198245
-0.00386162102222
0.00584027264267
-0.00551395257935
0.00548094836995
0.00102004630025
-0.00507043255493
-0.00156624161173
0.0120086828247
0.000353948795237
-0.000476570130559
-0.00621332693845
0.00561577128246
0.00282187829725
0.00731631135568
0.0117540294304
0.00316311279312
0.00331489276141
0.00583572685719
0.00721419043839
-0.00070229487028
-0.00107352645136
-0.00725926226005
-0.00392836797982
0.000953271752223
-0.00513533456251
-0.0030286051333
0.00429639406502
0.00267858686857
0.00525054475293
0.00825570244342
-0.00496297515929
0.00668324902654
0.00265775434673
-4.83689946122e-05
-0.00236790254712
-0.000183915326488
0.00989669281989
-0.0120428726077
-0.00357858091593
-0.00319558079354
0.00327291782014
6.42161248834e-05
-0.00241800537333
0.0017301151529
-0.000744888558984
0.00328608020209
0.00813055597246
-0.00583962304518
-4.80128510389e-05
0.013669764623
0.00238472409546
0.0220703389496
0.000499634246808
0.0175016727298
0.0145172029734
0.003454629099
0.020274290815
-0.00295497500338
0.00218883808702
-0.0198477879167
0.0041532618925
-0.00097059487598
-0.00261912774295
-0.00862564425915
0.001048476086
-0.00342093594372
0.00252059032209
-0.0010080327047
0.00272451946512
0.00189198879525
0.0123237073421
-0.00132261414547
0.0190149601549
0.00187937659211
0.00311981211416
-0.00177712237928
0.0179582685232
-0.00274056126364
-0.0107525130734
-0.0043063047342
-0.00115749170072
-0.00629859277979
0.0140208462253
-0.00315058906563
0.0125096514821
-0.00519144628197
-0.00278585916385
-0.00539658591151
0.00801926944405
-0.0063660889864
-0.00409612478688
-0.000104688340798
-0.000748027756345
-0.00386031786911
0.0163275226951
0.0190023630857
0.0131981847808
0.016475725919
0.00138135370798
-0.00777861149982
-0.00476286327466
-0.00487134000286
0.00462454743683
-0.00659758830443
0.000132822591695
-0.00476959999651
0.00521236658096
-0.0023351595737
0.0174124892801
0.000229605677305
-0.0094624357298
0.00290222489275
-0.00533741386607
0.00132720009424
-0.0013748180354
-0.00444236304611
-0.000265451497398
0.00240566767752
-0.00122545461636
3.34658179781e-05
-0.0136095415801
0.00229419954121
-0.00367299467325
0.00950915832072
-0.00152922968846
-0.0036455441732
-0.00812785793096
0.00379101932049
-0.00239390390925
0.0194981414825
-0.00866474304348
0.00156157976016
-0.0038589774631
-0.00806764420122
-0.00245753698982
0.0147899994627
-0.00169252057094
-0.00663118995726
-0.0105244070292
5.48594434804e-05
-0.000962368678302
0.00244800164364
0.00163838488515
0.00517870346084
0.000634245749097
0.0128240343183
0.0213146731257
0.00234731612727
-0.00323028885759
0.00357488752343
-0.00378260272555
-0.0019791580271
-0.00304507091641
-0.000912172719836
0.00126167968847
0.00136915314943
0.00024415703956
0.00313789048232
-0.00488115521148
0.0067501142621
0.010686295107
0.00268104253337
0.0142129762098
-0.00272280350327
0.0144315427169
-0.0268157292157
-0.00751386350021
-0.0048658773303
0.00298241735436
0.00261315423995
-0.00441217049956
0.00313981622458
0.00393651099876
-0.00468049990013
-0.00192416016944
0.00745066534728
0.0054362276569
-0.00687326537445
0.00847950484604
-0.0162264313549
-0.00628014607355
0.0058439783752
-0.00759167922661
0.00542023638263
-0.0148028796539
-0.00305465934798
0.00325153861195
0.0164836458862
0.00944955460727
-0.00422991625965
-0.00304587371647
0.0131755843759
-0.0171549972147
-0.00213590287603
0.00535893859342
-0.00480784196407
-0.0163260679692
-0.0140094431117
-0.00262679648586
0.00283781532198
-0.00968057196587
0.00386669137515
0.00643410440534
0.00875409971923
-0.0156114473939
-0.00154196331277
-0.00321749551222
-0.00502162612975
0.00578712578863
0.00034938371391
-0.00833966303617
-0.00690464954823
0.00781050696969
0.000951957015786
-0.000145570389577
0.000204436932108
0.00917677860707
-0.00564323412254
-0.00930081121624
0.0129405437037
-0.00954017229378
-0.00187683524564
-0.0110083045438
-0.00650416035205
-0.0177670512348
-0.00730333151296
0.00841952301562
0.000786355929449
-0.00476994784549
-0.00698674982414
0.00375630799681
0.013514216058
0.0065825372003
0.0124851558357
-0.0153792919591
0.0038326792419
-0.00807587523013
0.0103232664987
-0.00496424222365
-0.0106421364471
-0.00594343850389
-0.00590463820845
0.00567445112392
-0.0116109624505
-0.00449111778289
-0.00610249163583
0.00822762586176
-0.00649374350905
0.0107557410374
-0.00600236654282
-0.00585756031796
-0.0185978859663
-0.00342475180514
-0.0095880003646
0.00211194250733
-0.00897548254579
-0.00615818472579
-0.00197972985916
-0.000793882529251
0.00544809782878
0.0135465301573
0.000180639748578
-0.00248773233034
-0.0158877894282
0.0154352607206
0.00358838238753
-0.00101087195799
0.00505700567737
0.00303315650672
0.00476579228416
0.0115493023768
-0.0207483507693
-0.00453436654061
-0.00519382255152
-0.00390475080349
-0.00392997683957
-0.003540197853
0.0109279770404
-0.00384999485686
-0.0031181552913
-0.00752871762961
-0.0116078713909
0.00558082154021
0.00959110818803
0.00456501264125
0.00622736196965
-0.00643966533244
-0.00962346047163
-0.000873803393915
-0.0192889086902
0.0132479025051
-0.00274886540137
0.00696887169033
0.0256611034274
0.000763756397646
-0.00990785844624
-0.00713102286682
-0.00708389515057
-0.00357925216667
-0.00540071539581
0.00141936540604
-0.0138851460069
0.0135872941464
-0.00426462152973
0.00161086407024
0.016818203032
-0.0136994700879
0.0434147752821
0.0120813436806
0.0512352138758
0.0137353930622
-0.00580981606618
0.0442617423832
0.014278491959
-0.00518149649724
-0.0327098108828
-0.0118859400973
0.00368698779494
0.0119624752551
-0.0132486140355
-0.00986593775451
0.00525190588087
-0.00209317798726
0.00916790030897
-0.0103669827804
-0.00950518343598
0.00893639121205
0.00169235095382
0.0297334026545
-0.00137396901846
-0.00199800543487
-0.0167995039374
0.0496090911329
0.00507478229702
0.010344917886
0.00646746717393
0.000936576048844
0.0033737604972
0.0552155934274
0.00478664599359
0.00856444425881
0.00891624204814
0.00743116531521
0.00498560909182
0.0390713103116
0.0111599937081
0.00370801473036
-0.00120211404283
0.00584805710241
0.00400844262913
0.0565283671021
0.0517543852329
0.0507758110762
0.0152033213526
-0.00933553371578
0.00336748734117
0.00799905508757
0.00983723904938
0.0170251186937
-0.0132387746125
-0.00689290789887
-0.0134440436959
-0.00633474020287
-0.00344850053079
0.0473135262728
-0.0165720432997
0.00864498503506
-0.00430161925033
0.0090205874294
0.00693229725584
0.00415281718597
0.00448141386732
0.00671016704291
0.0124260196462
