0.005621
-0.000857
0.001568
0.003311
0.002567
0.002296
0.000034
0.004751
-0.008117
0.003467
0.002320
0.001280
0.003050
-0.003957
-0.001499
0.001374
-0.003045
0.000078
-0.000288
-0.003814
-0.009193
0.001144
0.003604
-0.003087
-0.001169
-0.000021
0.002201
-0.000178
0.004197
0.001383
-0.002121
0.000790
0.004448
0.006714
-0.000439
0.007110
-0.000251
-0.002191
-0.002501
-0.001224
0.005066
0.002518
-0.005955
0.005184
-0.003340
-0.001292
-0.003474
0.005285
0.000026
0.002389
0.004519
-0.006409
-0.004339
0.002524
0.003010
0.000438
0.001375
-0.002152
-0.002039
-0.005110
0.000903
-0.002680
-0.004599
-0.001638
-0.003691
-0.003703
0.000139
0.001004
-0.003558
-0.004171
0.001905
-0.002917
0.000220
0.006907
0.000313
0.002149
0.002123
-0.000532
-0.003641
-0.000136
-0.002997
-0.001119
0.000954
-0.000611
-0.002804
-0.000992
0.002212
-0.004236
0.001433
-0.002987
0.009625
0.002118
0.004453
0.000753
-0.004611
-0.008449
-0.002268
-0.002357
0.003009
0.001261
-0.000040
0.001740
0.000253
0.005992
0.003188
0.003468
-0.002256
0.000211
0.000643
-0.003475
-0.006534
0.008154
-0.005307
0.003102
-0.007706
0.001610
0.003700
-0.004544
0.000049
-0.000152
-0.003032
0.005523
-0.001871
-0.003760
-0.003891
-0.004812
-0.001880
0.001125
-0.007014
0.000261
0.002593
0.004430
0.003194
-0.000531
0.006645
-0.003687
0.002305
0.001993
0.001816
-0.002688
0.004983
-0.004920
0.006410
-0.003700
-0.002496
-0.002342
0.000815
0.000118
0.001122
-0.003111
-0.002945
-0.006510
0.008032
-0.008559
0.006620
0.000234
0.006880
0.001318
-0.001301
0.000996
0.005709
-0.000525
-0.003862
-0.001937
-0.004666
-0.003873
-0.008339
0.000519
-0.008062
0.005188
0.000288
0.005926
0.001199
0.003096
0.000428
-0.003163
-0.001626
0.002508
0.003007
-0.004000
-0.003482
0.000211
0.000759
0.000820
0.005467
-0.001553
0.002390
-0.000373
0.000645
0.001787
0.003185
0.001817
0.000668
-0.001707
0.000109
-0.004644
-0.005441
0.000016
-0.000391
-0.004830
0.002422
-0.001932
0.000970
-0.003432
0.005335
0.000392
-0.001552
-0.010151
-0.000085
0.002584
0.002557
-0.003150
-0.001390
-0.004004
-0.001966
0.007542
-0.003914
-0.001585
0.001147
0.003210
-0.000382
-0.001880
0.005301
-0.001707
0.001195
0.004954
-0.001265
-0.001870
-0.004111
0.003933
-0.000842
-0.000400
0.010499
0.001982
-0.007908
0.000457
-0.006919
0.000374
0.000785
-0.002564
-0.003760
-0.005141
-0.000799
0.001832
-0.001012
-0.000306
-0.001249
0.000196
0.000543
-0.002472
-0.001392
0.001784
-0.005906
0.000655
-0.002616
-0.000900
0.002355
0.001714
0.000359
-0.003990
-0.001486
0.002601
0.000137
-0.000215
-0.001325
-0.003197
0.003107
0.003989
0.004347
0.002587
0.001197
0.002232
0.002313
0.002827
0.001044
0.001201
-0.000089
-0.003992
0.001385
0.002309
-0.000989
0.000204
-0.001168
-0.002123
0.000973
-0.004622
0.000323
-0.001515
-0.006288
-0.011079
-0.000929
0.005287
0.000369
0.003204
-0.000509
-0.007436
0.001526
-0.003221
0.001265
0.006204
0.002649
-0.000648
-0.002997
0.002366
0.003907
0.004208
-0.003300
0.004222
0.009882
0.002561
0.005716
0.000436
-0.003244
-0.000472
-0.000825
-0.004043
-0.006221
-0.005978
0.001697
0.001884
0.001065
-0.002016
-0.007424
0.003690
-0.000445
-0.001033
-0.001744
0.000779
0.004994
0.005346
0.000162
0.001232
-0.001739
-0.001820
0.003033
-0.000376
-0.001788
-0.000334
-0.006275
-0.003140
0.005538
0.001631
0.001777
0.000599
-0.007626
-0.000435
-0.000084
0.004928
0.004847
-0.002343
0.003267
0.002733
0.001642
0.010803
-0.005795
-0.000663
0.000017
-0.007257
0.003312
-0.005482
0.000952
0.006700
0.003258
-0.003592
0.001179
-0.000185
-0.005398
-0.002056
0.000275
-0.001504
0.001682
-0.002554
0.002956
-0.004180
-0.001507
0.000035
-0.002537
0.006394
-0.008204
-0.000932
0.004463
0.001449
0.001753
-0.000684
0.004378
0.002500
-0.000743
-0.003688
-0.001665
0.001411
-0.005592
-0.005412
-0.005381
-0.004670
-0.001005
-0.005029
0.002968
0.003984
0.001923
-0.002511
0.001031
0.002973
0.002369
0.002094
0.003877
-0.003413
-0.003597
-0.001145
-0.001240
-0.003193
-0.002513
-0.001405
0.004836
0.000920
0.001717
-0.000474
-0.003417
-0.006390
-0.012460
0.001251
-0.002186
0.003311
0.007129
-0.002766
0.002525
-0.002237
0.003695
0.004954
-0.000006
-0.000459
0.000318
-0.005140
-0.002008
0.001861
-0.002497
-0.002273
0.003037
-0.000671
0.000867
-0.001669
0.005662
-0.000255
-0.000187
0.002119
0.006726
-0.004878
0.001868
0.007315
0.003375
-0.000809
-0.010115
-0.001421
0.003988
0.000951
0.005511
-0.000579
-0.001454
0.001503
0.003458
0.001540
0.000155
0.004982
-0.002646
0.005024
-0.000270
-0.002158
-0.006864
-0.006685
0.000610
0.005085
-0.003054
-0.003462
0.002495
-0.001502
-0.009484
0.000160
0.008667
-0.002322
-0.002737
0.002435
0.001913
-0.003835
0.003643
-0.003571
0.002483
0.004592
-0.000956
-0.008806
-0.002455
-0.001164
0.003118
-0.001566
0.004548
-0.000159
0.003650
-0.000336
0.000239
-0.002045
-0.002403
-0.000179
-0.001733
-0.001937
-0.003041
-0.001802
0.000683
0.004722
-0.006135
-0.001661
-0.002337
0.000760
-0.004876
0.000633
0.002003
0.003119
-0.000858
-0.000711
0.002053
-0.005938
0.009045
0.002294
0.003059
-0.004188
0.001976
0.000734
0.000498
0.001230
-0.000836
-0.001640
0.001224
-0.004302
0.005481
0.003932
-0.000975
-0.009021
-0.000541
0.000389
-0.004496
0.004930
-0.002299
0.000861
-0.002334
-0.001409
-0.003862
-0.002690
-0.004426
-0.002534
-0.001390
0.006188
-0.000318
0.002765
0.001290
-0.006364
-0.000414
0.001475
-0.002687
0.004313
0.004020
-0.001409
-0.004505
0.002555
-0.000437
0.002866
-0.004628
0.004655
0.003573
0.005994
-0.003781
0.006058
0.001489
-0.001867
0.004829
0.006637
-0.001196
-0.000835
0.001564
-0.000194
-0.008907
-0.005499
-0.004014
0.001358
-0.002928
0.000545
-0.000155
-0.004282
0.001847
0.001861
0.001708
-0.006930
0.000264
0.003367
0.000020
-0.002418
-0.000002
0.001053
-0.003099
-0.001982
-0.000956
0.003626
0.007399
0.001953
0.001486
-0.000932
-0.003462
-0.000288
0.003815
-0.002626
0.002908
0.005883
-0.003374
-0.001839
-0.009038
-0.005033
-0.003341
-0.000804
-0.005279
0.008911
0.002572
-0.002443
-0.000969
0.000961
0.002739
-0.005810
0.005281
0.000043
-0.006926
-0.004477
-0.002328
-0.002975
-0.000271
-0.000116
-0.004847
-0.008612
-0.000080
0.000656
0.005228
-0.001491
-0.005719
-0.000438
0.002201
0.002074
0.004890
0.003632
-0.000301
0.008298
0.000926
-0.002915
-0.005734
-0.001328
-0.004106
-0.004936
0.003274
-0.003445
0.003092
0.001360
-0.000969
-0.002042
0.001173
0.002987
0.006176
-0.001029
0.003583
0.001380
-0.005432
0.003263
0.001963
0.002591
-0.006216
-0.000699
-0.000152
0.001866
0.003869
-0.005808
0.005067
0.002481
0.001658
-0.000253
0.004199
0.001234
0.002979
0.004043
0.002732
0.002108
-0.004760
0.009661
-0.000003
-0.004945
-0.001548
0.005157
-0.002079
0.003130
0.004567
-0.000559
0.007610
-0.000565
0.003467
-0.004751
-0.000069
-0.007477
-0.000093
0.005290
-0.000573
-0.001002
-0.004982
-0.001260
-0.012363
-0.008472
0.001349
-0.000632
-0.001042
-0.000289
0.005979
0.003509
-0.009783
-0.001551
0.004087
-0.001896
0.001354
-0.001662
-0.001317
-0.005722
0.000258
0.000117
-0.000317
-0.004496
-0.001966
0.001788
0.003572
-0.001164
-0.000454
0.002710
-0.000578
0.000695
-0.003945
-0.006143
0.000619
0.005922
-0.000498
0.000160
0.007079
0.002751
0.011291
0.007851
-0.003372
-0.003941
0.000339
-0.001135
0.006092
-0.002798
0.004770
0.002449
0.001946
-0.005812
-0.001680
0.003344
-0.002271
-0.001743
-0.005952
-0.001281
0.000207
-0.001118
0.000983
0.002185
0.002473
0.002347
-0.003519
-0.001246
-0.003019
-0.006156
-0.001827
-0.005485
-0.002942
-0.002330
0.001033
-0.001502
0.001096
0.006191
-0.005987
-0.000539
0.002274
0.007161
0.001578
0.000073
-0.004560
0.007688
-0.000454
0.004085
-0.002348
-0.004868
0.002005
-0.002983
-0.001039
0.001540
0.001608
-0.000296
-0.001143
0.002459
-0.002508
-0.008659
0.004369
0.004517
-0.000647
-0.008104
-0.006463
0.006749
-0.001928
0.003307
-0.003120
0.006404
-0.004600
-0.000290
-0.000510
0.001789
0.000662
-0.002330
-0.001761
0.000687
-0.002393
0.002316
0.007941
0.003629
0.002539
0.002021
-0.004728
0.006588
-0.002820
0.001487
0.004369
0.005104
-0.005741
0.000163
-0.005985
0.002550
0.001216
-0.001567
0.000292
0.000283
0.005448
-0.005455
-0.003148
0.000004
-0.000865
0.002753
0.000402
-0.003139
-0.002400
0.001444
-0.003695
0.001965
-0.002176
0.005781
-0.003206
0.001298
-0.002732
-0.006687
0.001290
-0.000876
0.002181
-0.003395
0.004800
0.004697
-0.000678
-0.000141
-0.000211
0.006469
0.005282
0.001189
-0.004114
0.001589
-0.014786
-0.000765
-0.006487
0.001269
-0.001459
0.003947
0.004537
0.000422
0.000473
-0.002458
0.001746
-0.000069
-0.003252
0.001586
-0.000393
0.003390
0.000992
-0.005892
-0.002583
-0.006554
0.000639
-0.000413
-0.004402
0.002898
-0.001370
0.004576
-0.002987
-0.002819
0.004177
-0.001429
0.001556
-0.000288
0.003219
0.005182
0.004675
-0.002293
-0.002124
0.000803
-0.002058
0.001847
0.002616
0.003205
-0.004327
0.001624
-0.001017
-0.001820
0.002450
-0.005075
-0.000047
0.001898
0.001663
0.000582
-0.005378
0.002967
-0.007398
0.006406
0.002212
0.001243
0.001471
0.002217
0.001424
0.002105
-0.000039
-0.002644
-0.000016
0.003212
0.001255
-0.003454
-0.004608
-0.002364
0.001264
-0.007220
0.002019
-0.003884
0.000928
0.010386
-0.004193
-0.002398
-0.000971
0.003960
0.004839
-0.000978
0.003939
-0.004338
-0.000038
-0.001478
0.004036
0.000859
0.002342
-0.002682
-0.001927
0.006427
-0.003515
0.008639
-0.001637
0.004854
-0.012074
-0.002101
-0.007353
0.001655
0.005023
0.003311
-0.002785
0.003587
-0.001883
-0.000621
0.000059
0.003315
-0.003837
0.004036
-0.004428
-0.001307
-0.001126
0.001002
0.003714
0.008053
0.001347
-0.000472
-0.000367
0.001806
-0.001044
0.003135
0.004326
0.005122
-0.004031
-0.002445
-0.002778
0.007150
-0.001948
-0.006194
0.000254
0.002747
0.001521
0.001364
-0.000219
0.003110
0.005083
-0.004368
0.000906
-0.005844
-0.002024
0.003797
0.003476
0.002239
0.006771
0.001043
0.001858
-0.002162
-0.001247
-0.000570
-0.004200
0.000460
-0.000567
-0.000248
-0.000611
0.004670
0.004027
0.001865
-0.005669
0.006369
-0.004345
0.000338
0.004539
-0.000678
-0.000614
0.000247
-0.003339
-0.003625
0.003414
-0.000404
0.003498
-0.004057
0.002100
-0.000468
-0.001805
-0.002819
-0.001002
-0.001301
0.004414
0.004060
-0.004701
-0.002705
-0.003513
-0.001646
0.004087
-0.000795
0.004992
0.000729
-0.004010
0.004015
0.002550
0.003243
-0.001786
-0.002692
0.001851
0.001154
-0.002506
0.001572
-0.002267
0.002775
-0.002648
-0.001153
0.006981
-0.004138
0.003946
-0.005016
0.002667
0.002028
0.001991
0.001322
-0.000944
-0.001656
-0.005481
0.002963
-0.000766
-0.002727
0.002399
0.002256
-0.002248
-0.000950
-0.008731
-0.008975
0.001905
0.000678
-0.004655
0.002135
0.001702
0.003673
-0.000980
0.000589
0.008001
-0.006174
-0.003011
-0.003510
-0.001706
-0.002940
-0.004252
0.003171
-0.001117
0.001953
-0.006260
0.006929
-0.005571
0.000016
0.007332
-0.001156
-0.003794
-0.000615
0.007468
-0.003001
-0.000251
-0.001060
-0.001501
-0.001062
-0.000455
-0.002288
-0.000365
0.005392
-0.000496
-0.004811
-0.000273
0.002335
0.002734
-0.000726
0.003342
-0.003243
-0.002530
0.001072
-0.000737
0.000075
0.003342
-0.004044
-0.004464
0.001683
0.007305
0.004061
0.004138
-0.000749
-0.001573
-0.003803
-0.008201
-0.000401
-0.001404
0.002118
0.004661
0.006542
0.002983
0.000655
0.000475
0.000783
-0.002343
-0.000059
-0.005409
-0.003448
-0.000531
0.001048
-0.004951
-0.000802
-0.000570
-0.000945
0.001527
0.001057
0.001778
-0.001083
0.002955
0.006882
-0.002681
-0.002660
0.002617
0.001707
0.004206
0.006218
0.001512
0.001660
0.002738
0.000586
-0.005293
0.003609
-0.002886
-0.002673
-0.001115
-0.000272
-0.008021
-0.001317
0.007321
-0.001094
-0.008647
-0.002290
-0.004533
-0.006760
0.003569
-0.002229
-0.007061
0.000979
-0.002822
0.006802
-0.001558
0.003050
0.000977
0.000479
0.000833
-0.001498
-0.000895
0.007471
0.005193
-0.000098
0.001933
-0.001124
-0.007350
-0.003434
-0.002262
-0.001875
0.001656
-0.006905
-0.004558
0.003187
0.004312
-0.005145
-0.000945
-0.000892
0.001785
0.002982
0.001983
0.003080
-0.000414
0.009869
0.010169
0.004176
-0.006519
-0.001643
0.003818
-0.001122
-0.002919
-0.006965
-0.004039
0.002592
-0.006697
0.005729
0.001931
-0.004850
0.000139
-0.003159
0.002246
0.002145
-0.005104
0.003946
-0.003930
-0.000319
-0.004230
-0.003111
-0.001556
-0.004270
0.005133
-0.002262
-0.001846
0.004272
0.000309
0.002228
0.001873
0.001809
0.011121
0.001959
0.003568
-0.004885
0.007584
-0.007231
0.002275
0.003294
-0.002611
-0.004132
-0.004117
0.002068
-0.004369
0.001840
0.000539
-0.002684
-0.001653
-0.003650
0.004463
-0.003095
-0.003756
-0.008939
-0.002856
-0.004582
-0.002169
0.000834
-0.004562
0.000160
0.005806
0.009555
-0.002091
-0.007374
-0.005349
0.000762
0.000253
0.001148
0.006188
-0.004933
-0.001470
-0.001655
0.001257
0.002689
-0.003809
-0.010245
-0.000020
0.007844
-0.003192
-0.002839
-0.002629
-0.001151
0.001963
-0.006270
-0.005009
-0.003427
0.000460
-0.003304
-0.009394
0.001868
-0.003265
0.003698
-0.000296
0.003394
-0.001034
0.001233
0.006783
0.002435
0.005019
-0.003993
-0.000694
0.008106
0.001516
0.000863
-0.003297
-0.003725
0.002299
0.003239
0.003251
0.003258
-0.002881
-0.010857
-0.000609
-0.000804
0.005910
0.002778
-0.006143
-0.009453
0.003088
-0.005800
-0.000696
0.000340
-0.001208
-0.010484
0.006275
-0.003431
-0.004827
-0.003003
-0.005588
0.001912
0.002303
0.002445
-0.004117
0.000038
0.002475
0.002887
0.001457
-0.000734
0.001427
0.003052
0.000872
-0.006651
-0.002501
0.003605
-0.004112
-0.000074
-0.000766
0.004095
0.001474
-0.002254
-0.002416
-0.002630
0.005135
0.001974
-0.008003
-0.002885
-0.004054
0.000245
-0.002244
-0.000057
-0.012431
0.004131
0.006755
-0.003008
-0.003050
-0.000885
-0.003228
-0.001068
-0.000839
-0.007231
-0.002923
-0.001848
-0.003432
-0.000400
-0.002585
-0.003300
-0.004468
0.007559
-0.000358
-0.004760
0.002694
0.000006
0.001062
0.005103
0.002115
-0.000147
-0.003278
0.001847
0.004996
-0.004524
-0.009171
0.002108
-0.004663
0.004879
-0.004064
-0.002524
-0.002980
0.002402
-0.004664
-0.002267
-0.001767
-0.000085
0.000817
-0.005348
0.001035
-0.003372
0.001763
-0.009319
0.003784
-0.003992
0.002018
-0.002745
-0.001204
0.000360
-0.000888
0.001563
-0.005436
-0.000691
-0.003529
0.000782
0.001652
-0.001836
-0.000585
-0.005911
0.003402
0.000638
0.000164
0.000287
-0.003319
0.001886
-0.001961
0.001832
0.000692
0.001061
0.001994
0.000952
-0.007725
-0.001894
-0.004512
-0.005828
-0.001166
0.003258
0.000585
0.002750
0.005286
0.002809
-0.003100
0.002891
-0.001857
-0.002918
-0.005134
-0.000466
-0.002524
0.006435
-0.004575
-0.000947
-0.001084
-0.003725
-0.005172
-0.004800
-0.001277
-0.003632
0.002574
0.001959
-0.000255
-0.008450
0.002656
0.003548
0.003029
0.001248
0.002980
0.001415
-0.005019
0.004504
0.001236
-0.000112
0.006076
-0.003228
-0.002085
-0.002163
-0.001563
0.004299
0.001421
-0.004291
-0.002266
-0.004036
-0.001468
0.002014
-0.000566
0.003938
0.001008
-0.002627
0.002299
-0.001741
-0.000664
0.003806
0.002875
-0.005820
0.000133
-0.002300
-0.001461
-0.003439
0.000893
0.003344
-0.004231
0.005713
0.003990
0.000674
-0.002269
-0.001642
-0.003296
0.003088
0.002283
-0.000642
-0.006915
0.001131
0.004224
0.002483
-0.004429
0.001033
-0.005853
0.002291
-0.008579
0.005168
0.001387
-0.007249
0.001459
0.000985
-0.002880
-0.005560
-0.001735
0.000195
0.003200
0.000050
-0.000787
0.008452
0.000670
-0.003986
0.003539
0.002006
-0.002499
0.001885
0.003255
-0.003420
-0.004028
-0.002188
-0.003092
-0.005929
-0.001367
0.002357
0.004501
-0.004672
0.003667
-0.000848
0.001472
-0.001860
-0.001248
-0.001784
0.000004
0.000520
-0.007109
-0.001698
-0.000965
0.000332
0.002321
0.001869
0.000880
-0.000875
-0.000889
-0.002186
-0.005332
0.001405
-0.001775
0.004602
0.003698
-0.004371
0.004386
-0.002493
-0.002480
-0.000995
0.003116
-0.000515
0.000904
-0.004734
-0.001941
-0.004342
0.002315
-0.005032
-0.000221
0.008932
0.000636
-0.001831
-0.000133
-0.004925
-0.004279
0.001194
-0.000697
-0.005022
-0.000339
0.001962
0.007670
0.003078
0.000764
-0.007023
0.003718
-0.000877
-0.000007
-0.002180
0.004182
0.003258
0.004377
0.000832
0.011906
-0.003188
-0.002370
-0.003471
-0.000609
-0.000356
-0.004587
0.004070
0.003937
0.001078
-0.000306
-0.001140
-0.001542
0.000119
-0.004312
0.001185
-0.002533
0.006531
0.000054
0.001398
-0.001124
0.000387
-0.004937
0.011197
-0.004933
0.000374
0.002172
0.004290
0.001056
0.000673
-0.003904
-0.004466
0.001589
-0.002250
-0.009051
-0.000367
0.002215
0.001319
-0.008861
-0.006607
-0.000067
-0.001772
-0.003711
0.001517
0.001225
0.005890
-0.004418
0.002068
-0.001139
-0.005826
-0.001924
-0.004142
0.003375
-0.002778
-0.002456
-0.006473
0.001150
0.002823
0.001221
0.000806
0.002819
0.005360
0.002106
-0.000624
0.002226
-0.003303
-0.002055
-0.000530
-0.003430
-0.000237
-0.004191
-0.001773
0.003676
0.004036
0.003810
0.002301
-0.002231
0.002757
-0.009181
-0.003491
-0.001523
0.003265
0.004283
-0.006094
-0.003109
0.007051
-0.002275
0.002193
0.004041
0.000623
0.001568
0.003594
-0.000870
-0.005289
-0.005398
-0.000067
-0.003220
-0.005460
-0.008131
0.003468
0.007553
-0.002826
-0.000998
0.001439
0.002364
-0.001822
0.001885
-0.002963
0.000448
-0.003454
-0.001494
-0.008735
0.002798
0.000725
-0.007630
0.002770
0.000772
-0.002672
0.005554
0.006121
-0.000366
0.001347
0.003445
-0.005976
0.005704
-0.007111
-0.002350
0.000107
-0.003237
-0.005661
-0.005550
-0.008632
0.003109
-0.004972
-0.000804
-0.004166
-0.001928
-0.006733
0.001462
-0.004445
-0.005497
-0.007676
-0.001955
-0.000401
-0.005994
-0.004598
-0.006147
-0.006052
-0.002938
0.003013
-0.004771
-0.001098
0.005752
-0.001005
-0.000062
-0.007642
-0.002649
0.001859
-0.001788
0.000361
-0.007704
0.002875
-0.001085
-0.000878
0.002247
-0.007589
-0.005527
0.005673
-0.003241
-0.001348
-0.003584
0.006439
-0.000028
0.003974
-0.006354
0.000977
-0.004086
0.006241
-0.000393
-0.003154
0.004886
-0.006407
0.003698
-0.004698
0.001896
-0.000442
0.005930
-0.000585
0.002985
0.000148
0.006933
0.000954
0.001947
-0.002611
0.000533
-0.001180
0.013010
-0.004258
-0.001517
-0.000952
-0.003158
0.002153
0.002698
0.003322
-0.006722
0.006187
0.000511
0.005668
0.001014
-0.003230
-0.001743
-0.001068
0.001684
0.000295
0.000342
0.003792
0.005320
-0.000743
0.002874
-0.004657
-0.002016
-0.007610
0.004699
0.004822
0.008077
-0.000441
-0.001978
-0.000699
-0.006252
0.001216
0.000066
-0.002925
0.000179
-0.003779
-0.003876
-0.000936
0.004191
0.005287
-0.000653
0.004555
0.004043
0.004011
0.000984
0.001938
0.004822
0.002005
-0.002599
-0.001408
0.006805
0.002512
-0.000777
0.001684
0.002265
-0.006647
-0.003054
0.002469
0.002047
-0.012419
0.005454
-0.001444
0.002497
-0.004257
-0.004222
0.003315
-0.006596
0.003165
0.004791
-0.003589
0.001703
0.002888
-0.004105
0.002453
-0.003000
0.002687
0.002763
0.003656
-0.000201
0.006596
-0.007272
0.003721
0.000872
-0.001581
0.004773
-0.000166
-0.001771
-0.000812
-0.000760
0.000785
0.002459
-0.003311
0.000392
-0.000084
-0.010881
-0.002580
0.006177
-0.002841
-0.001710
-0.006772
0.003188
-0.002457
-0.006722
-0.003352
-0.005698
0.007473
-0.003660
-0.006609
0.000104
-0.001588
0.001587
0.004333
-0.008504
-0.008161
-0.000597
-0.004372
-0.002993
0.005214
-0.006540
-0.005273
-0.007462
-0.006544
0.000071
-0.002339
-0.004524
0.008240
-0.002038
-0.003746
0.000500
-0.003133
0.003615
0.002665
-0.004055
-0.005503
0.006616
0.000497
0.008372
0.003983
-0.003665
0.008631
-0.004870
-0.000516
0.004394
0.001327
-0.005388
-0.002099
0.006828
0.001593
-0.002068
0.002924
-0.002549
-0.003351
0.005495
-0.000995
-0.004355
-0.002126
-0.006720
-0.000549
0.006189
-0.005244
-0.001974
-0.003710
-0.001924
-0.001219
-0.002338
-0.001926
-0.003991
-0.002293
-0.001488
0.003327
-0.000951
-0.001251
-0.004277
-0.003559
-0.002309
-0.007230
0.001831
-0.004925
0.000772
0.000728
0.003012
0.002898
0.004309
-0.000836
-0.004746
-0.005543
-0.007271
-0.003387
-0.002047
-0.003275
-0.004259
0.002285
-0.001872
0.000602
-0.001439
-0.006601
0.004705
-0.001458
-0.004388
-0.009879
0.001452
0.000261
-0.005036
-0.004844
-0.011060
-0.003184
-0.002494
-0.006632
-0.001224
0.001347
-0.003698
-0.010596
-0.004646
-0.003034
-0.003548
0.006160
-0.007214
-0.005287
-0.003770
0.004288
-0.002011
0.003349
0.003331
-0.006826
-0.005638
-0.003263
-0.002199
0.000918
0.005150
0.003155
-0.000741
-0.003220
0.001434
0.002494
-0.005642
-0.003105
-0.006408
0.001766
0.007230
-0.002170
-0.000457
-0.002228
-0.004460
0.001972
0.000467
0.002076
-0.010825
-0.000665
-0.004162
0.001071
0.003848
-0.003445
-0.002379
-0.004202
0.006234
0.003447
-0.012591
-0.002800
-0.005510
-0.000671
-0.000707
0.003733
-0.006275
0.000848
-0.000231
-0.004016
0.002282
-0.006479
-0.009105
0.000908
-0.003591
-0.002940
-0.001896
-0.001110
-0.000996
-0.003723
-0.007445
0.000721
-0.001646
0.001300
0.004181
0.000135
0.000429
0.003850
0.004923
0.002555
-0.006848
-0.004494
-0.007057
-0.000636
0.009279
0.005017
-0.001502
-0.005632
0.001452
0.001563
-0.001629
0.005746
-0.001033
-0.001144
0.005399
0.002277
0.003890
-0.005672
-0.005052
-0.000890
0.000732
-0.001207
-0.007299
-0.000901
0.002621
-0.005792
0.005130
-0.004703
-0.001579
-0.006062
0.001137
-0.001999
0.000352
-0.000807
0.004931
0.002508
-0.004973
0.000849
-0.004672
0.004047
-0.005386
0.002596
-0.001417
-0.006505
-0.000379
0.000781
-0.009600
-0.002531
-0.002977
-0.004052
0.005688
0.005126
0.005887
0.007620
0.000226
0.000797
0.004904
-0.008878
-0.003578
-0.001386
0.008268
0.000305
-0.004377
0.010350
-0.007066
0.001555
0.006284
0.000143
0.000162
0.000559
-0.001326
0.003985
-0.004862
0.003954
0.000594
0.008681
-0.009382
-0.007101
-0.007351
0.001114
-0.005691
0.002632
-0.001812
-0.002071
-0.007123
-0.000493
0.000824
-0.006765
-0.002356
-0.002343
0.003000
-0.004765
-0.006423
0.002235
0.000286
0.002082
-0.000898
-0.002644
-0.003979
-0.004538
0.000890
-0.001380
-0.001113
-0.003406
-0.002172
-0.001267
-0.000588
-0.003933
-0.011126
0.003668
0.004501
-0.005989
-0.003336
0.001082
-0.005484
-0.002553
-0.005435
-0.001334
-0.003893
-0.001385
-0.003846
-0.002174
-0.004760
0.003205
-0.008630
0.001766
-0.000499
0.004475
0.002826
-0.005303
-0.000792
-0.004685
-0.004947
-0.001835
0.002853
-0.003177
-0.003151
-0.008100
-0.009582
0.004185
0.003768
0.002102
0.000867
-0.004237
-0.001139
0.004845
-0.006793
0.003117
-0.001495
0.005183
0.001665
-0.002224
0.003492
0.008053
-0.003774
-0.005017
-0.002802
-0.004078
-0.003649
-0.004143
0.002788
0.003747
-0.002464
-0.002036
0.002047
-0.005456
0.003487
-0.009941
-0.006881
-0.002642
0.003636
-0.001955
-0.004075
-0.002587
0.001697
-0.002131
0.004621
-0.007139
-0.001807
0.002608
-0.003848
-0.001481
-0.013607
-0.000710
-0.007213
-0.001071
0.004036
-0.007900
-0.002199
0.008824
-0.003473
0.005153
-0.004779
-0.021976
-0.006243
0.002241
-0.005925
-0.007553
0.002770
-0.008160
-0.008051
-0.004696
-0.007672
-0.000708
-0.007994
-0.004643
0.000418
0.000829
-0.006317
-0.003689
-0.004631
-0.008403
-0.006036
0.005717
0.001660
0.001229
0.002712
0.001524
-0.002478
0.000654
0.002406
-0.007812
0.003167
-0.008092
0.009288
0.000703
0.000284
0.004336
-0.008868
0.000778
-0.007232
0.006407
-0.002601
0.002890
0.005351
-0.003721
-0.001948
-0.008640
-0.000058
-0.000778
-0.001977
-0.011192
-0.002083
-0.003569
-0.000267
-0.003039
0.002602
0.003828
-0.000128
-0.001225
-0.006190
-0.006833
-0.004559
-0.002847
0.003749
-0.001082
0.008965
-0.005244
0.004534
0.004880
0.003163
0.002906
0.005288
-0.005317
-0.005946
0.003546
-0.006320
0.005341
0.001309
-0.000708
-0.000727
-0.002770
0.010152
-0.001672
0.000702
-0.003577
-0.001450
-0.000306
-0.003092
0.001302
0.004398
-0.008317
0.001591
-0.001113
0.001558
-0.007389
-0.003411
-0.002819
-0.004466
0.001982
-0.001919
-0.003582
-0.003134
-0.005630
-0.009611
-0.000768
-0.004506
-0.005916
-0.006741
-0.005283
-0.005112
0.002225
0.001954
-0.005893
-0.002907
-0.001083
-0.003367
-0.000544
0.004842
0.004023
-0.003831
0.007566
0.003873
-0.008997
-0.013870
-0.004408
0.004186
-0.005920
0.003282
-0.000068
0.002117
-0.008946
-0.003719
-0.011114
-0.000431
0.002466
0.002079
-0.000819
-0.006578
0.000387
0.002010
0.000848
-0.001443
-0.003916
-0.001737
0.005568
0.000192
0.002568
0.008679
-0.001644
-0.006222
-0.005997
-0.001312
-0.003254
-0.000512
-0.004369
-0.002741
-0.002945
-0.004986
0.000421
0.000419
-0.008095
-0.009358
-0.000494
-0.002950
-0.007265
0.003759
0.000834
-0.009610
-0.002253
0.005295
-0.002837
-0.002641
-0.009402
0.000358
0.000539
-0.001024
-0.008087
0.004042
-0.001629
0.003409
0.001882
0.000757
0.001873
-0.004767
0.001650
0.002804
0.002172
0.004905
0.009695
-0.000387
-0.004343
0.002395
-0.009885
-0.008129
-0.001184
-0.000762
0.004537
-0.004433
-0.007598
-0.000958
-0.005253
-0.003836
-0.004914
-0.000526
0.001975
0.005494
-0.000800
0.001091
0.000921
0.003195
0.006562
-0.001637
-0.003909
-0.005188
-0.002509
0.005255
-0.004278
0.007096
-0.002009
-0.007356
-0.008611
-0.004686
-0.005433
-0.002671
-0.005915
0.004548
0.004151
-0.001144
0.000396
-0.000283
-0.007037
-0.003221
-0.008255
-0.006888
-0.008687
0.006398
-0.003769
-0.003901
-0.010264
-0.003299
-0.004711
-0.002137
0.000807
0.007539
-0.005126
-0.002592
0.002238
0.000615
-0.005441
-0.005919
-0.000770
-0.004225
-0.006265
-0.002738
0.006794
-0.001242
0.003073
-0.002200
-0.007766
-0.006965
-0.005528
-0.011752
-0.000700
-0.000515
-0.002973
-0.007652
-0.001085
-0.002610
-0.002692
-0.003712
0.002577
-0.006984
-0.000916
-0.002148
-0.000034
0.000329
-0.010961
0.000012
0.002932
0.004005
0.001285
-0.000984
-0.007579
0.007134
-0.001040
-0.002421
-0.002272
0.007320
0.003709
0.003614
-0.007331
-0.003796
0.001336
-0.001717
-0.003298
-0.004280
0.009471
0.003844
0.003802
0.000977
-0.003583
-0.009472
-0.002801
-0.001033
-0.006038
-0.001719
-0.009834
0.009326
-0.002936
0.008528
-0.000520
-0.003540
-0.010866
-0.006581
-0.009134
-0.006359
-0.006097
-0.006290
0.005536
-0.000216
0.001052
-0.001342
-0.011217
0.004196
-0.001639
-0.006464
-0.005010
0.011828
-0.004911
-0.011220
0.007006
-0.002457
0.007646
0.005245
-0.002597
-0.004903
-0.000847
0.011577
0.000766
-0.000592
0.004870
-0.002666
0.000621
0.000371
0.005999
0.000317
-0.000369
0.000464
0.004146
0.002439
-0.000804
-0.001910
-0.003360
0.004290
-0.001725
-0.008892
0.001735
-0.006600
-0.000780
-0.003712
-0.005150
-0.007438
-0.004157
0.002912
-0.000338
-0.005232
-0.000664
-0.012842
-0.009535
-0.002192
-0.003572
-0.001105
0.004124
-0.005441
0.002302
0.002549
0.006123
-0.003448
-0.003908
-0.003551
-0.007611
0.007903
-0.001573
-0.000916
0.000608
-0.003383
-0.002611
-0.003871
-0.005064
0.003320
0.001964
-0.000542
-0.005113
-0.003548
-0.008929
0.003600
-0.005987
-0.005630
0.006229
0.004756
0.001952
-0.000329
0.003231
0.007098
-0.002004
-0.018292
0.001109
-0.002973
-0.004647
-0.002563
-0.010693
-0.004708
0.002537
0.005850
0.002488
-0.004553
-0.001179
-0.001634
-0.005963
-0.002750
-0.002272
-0.003797
0.003619
-0.006643
-0.007178
0.005234
-0.002132
0.000960
-0.002289
0.000201
0.005541
0.004589
-0.001650
-0.000904
-0.005068
0.008346
-0.000264
-0.000217
-0.001080
-0.003554
-0.002272
-0.003761
-0.000677
-0.003113
0.003811
-0.004020
-0.007525
-0.008428
-0.001086
-0.004137
-0.009898
-0.007996
0.001625
-0.001484
-0.006838
-0.002824
-0.006128
-0.002448
-0.001834
-0.002260
0.005356
0.002769
-0.002108
0.003517
-0.008274
-0.004130
0.010258
-0.008636
-0.002320
-0.000483
-0.002743
0.001604
-0.003965
0.001691
-0.004240
-0.003157
-0.000595
0.001177
-0.001263
-0.000344
-0.007226
0.006299
0.002564
-0.003553
0.003180
0.003330
-0.006211
0.002791
-0.008483
-0.005951
-0.011328
0.001392
-0.000752
0.011577
-0.002289
0.003379
-0.002442
-0.006826
-0.005973
-0.008940
-0.000387
0.004172
-0.002921
-0.007059
-0.004283
-0.008629
-0.001171
-0.008494
-0.009990
-0.003457
-0.000972
0.001394
-0.001426
-0.011838
-0.008927
0.000791
0.003075
-0.001396
0.007030
0.005625
0.005536
-0.001443
0.000560
-0.001831
-0.004317
-0.014430
-0.008005
-0.005078
-0.004824
0.003173
-0.005291
-0.001637
0.002517
-0.008498
0.006456
-0.002184
0.002835
-0.002406
0.001503
-0.003166
0.004705
-0.002707
-0.004610
0.008263
-0.005154
0.010093
-0.006554
-0.006200
-0.001602
0.005670
-0.006678
-0.003548
0.002331
-0.004324
-0.001492
-0.006341
-0.001784
-0.001596
-0.005655
-0.002866
-0.003802
0.009052
-0.005737
-0.002278
-0.004663
0.001270
0.003253
0.001015
-0.011619
-0.004708
0.001604
-0.008818
0.000710
0.000829
-0.005966
-0.007795
-0.005236
-0.007117
-0.007017
0.007625
0.002496
-0.002916
-0.005121
0.001954
-0.002779
0.000728
-0.000903
-0.012487
0.008690
-0.005269
0.001773
0.003889
0.000683
0.013906
-0.001631
-0.000133
0.000005
-0.005196
-0.000860
-0.005333
0.000177
-0.006285
-0.007128
0.008418
0.003514
-0.012171
-0.009227
-0.004660
-0.000760
-0.002837
0.001149
0.001545
-0.008172
-0.001487
-0.010616
0.000090
0.000144
-0.003209
-0.004709
-0.000843
0.001882
-0.005310
0.000560
-0.010366
0.002622
-0.005173
-0.001110
-0.010350
0.003788
-0.006595
-0.008576
0.001671
0.014514
0.002118
-0.002720
-0.002957
0.005958
0.007941
-0.001929
0.000561
0.004229
-0.004861
0.006159
0.001189
0.000593
-0.002804
-0.008956
-0.002438
-0.001778
-0.006523
0.001730
0.007246
-0.003200
-0.003699
-0.002179
-0.005139
0.006587
-0.005991
0.004803
0.003814
0.001523
-0.002015
0.001430
-0.001505
-0.006711
0.005707
-0.002547
-0.007926
-0.006176
-0.004539
0.004388
-0.011508
-0.002845
-0.001894
0.001672
-0.001175
-0.003519
0.006876
0.000656
0.001517
0.000477
0.001540
-0.003175
0.000577
-0.005203
0.010872
0.000399
0.008102
-0.002709
0.006887
-0.003362
0.002778
-0.002611
0.002186
0.001797
-0.005827
0.005045
0.002053
-0.004510
0.002605
0.008209
-0.005640
-0.006001
-0.010363
-0.000518
-0.007062
-0.002856
-0.008583
0.010143
-0.004011
-0.004548
0.009386
-0.001110
-0.005545
-0.005326
-0.000254
-0.003501
0.007873
0.002530
0.004940
-0.006251
0.000113
0.005905
-0.007474
-0.003732
-0.005176
0.003169
0.006337
-0.007489
-0.004190
0.011396
-0.004615
0.005375
-0.004304
0.000400
0.000608
-0.007583
0.000284
-0.000162
-0.000302
0.001329
0.000591
-0.004176
0.002200
-0.005719
-0.001101
-0.006941
-0.000915
-0.011074
0.002261
-0.002610
0.000920
-0.000829
-0.005971
-0.000372
-0.007207
-0.001173
0.001299
-0.007488
0.003145
-0.009897
0.002325
0.001767
-0.001806
-0.005873
-0.008077
-0.003006
0.000539
-0.005598
-0.009252
-0.005144
0.007218
-0.000483
-0.013329
-0.005323
0.002806
0.000928
-0.000533
0.005064
-0.005063
0.012951
-0.010015
-0.008525
0.002580
0.001362
-0.001632
0.000473
-0.005698
-0.006923
-0.000754
-0.003710
-0.005975
0.004788
0.002036
-0.004583
0.007349
-0.000200
0.003612
-0.007888
0.002417
-0.001319
0.001374
-0.003840
-0.006517
-0.013264
0.004329
-0.004640
-0.004100
0.010768
0.000350
-0.004017
-0.004294
0.000891
-0.001100
-0.010012
-0.002398
-0.006693
0.004094
0.001708
-0.002899
-0.006383
0.002358
-0.000191
0.002546
-0.006409
-0.008594
0.003511
-0.013131
-0.009392
-0.008326
0.002311
-0.003630
-0.002673
0.002013
-0.007378
0.005015
0.000049
-0.005456
-0.001860
-0.001788
-0.001955
-0.002506
-0.002213
-0.011296
0.002032
-0.001189
0.002409
0.001371
-0.000833
0.031020
-0.001288
0.000610
0.000851
-0.004788
-0.003329
-0.003273
0.004527
-0.009698
-0.007614
0.007046
0.000705
-0.001140
-0.017285
-0.007961
-0.001948
0.004090
0.002018
-0.010160
-0.007819
-0.005569
-0.011114
0.000474
0.004335
0.002050
0.001981
0.001432
0.005080
0.000209
0.001892
-0.005836
-0.008924
-0.005570
-0.007630
-0.001453
0.001679
-0.006045
-0.002550
0.005440
0.015683
0.003156
-0.010073
-0.006006
0.000182
0.005867
-0.011911
-0.007655
0.002843
-0.008126
0.002036
0.000431
-0.005657
0.002392
0.000900
0.005383
-0.002722
0.002676
0.006821
-0.002824
0.004085
-0.006572
-0.002082
-0.008984
0.001998
-0.000975
0.002819
0.006411
0.000726
-0.013550
-0.000074
0.003995
0.000063
0.005937
-0.003771
-0.001279
-0.002530
0.002762
0.008073
-0.009768
0.002522
-0.001500
0.006915
-0.002919
-0.002367
0.000652
-0.000247
0.001967
-0.001731
0.004028
0.000821
0.004406
-0.005496
0.005865
-0.003344
0.001453
0.004020
0.003761
-0.006282
0.001460
-0.003938
-0.004936
0.010508
-0.006458
0.000484
-0.009383
-0.001914
-0.000180
0.009480
-0.004275
-0.001488
-0.003239
0.000414
-0.012361
0.000032
-0.004656
0.002824
0.008274
-0.003613
0.004555
-0.003508
-0.001854
-0.008015
-0.002910
0.000434
0.010517
0.001117
0.005049
-0.002301
0.001421
0.001105
-0.004813
-0.004676
-0.005742
-0.003075
0.009409
-0.006372
-0.001683
-0.000427
-0.004272
-0.003573
-0.004441
-0.000196
0.001280
-0.010243
0.006419
0.005288
-0.002253
-0.001426
-0.001114
-0.004624
-0.000169
0.000828
-0.002063
-0.007135
0.004305
-0.001752
0.000443
-0.004323
0.000247
0.000934
-0.010380
-0.006430
-0.012965
0.000969
0.004877
-0.001628
0.001836
-0.008652
-0.009426
-0.001221
-0.000843
-0.001908
-0.002828
-0.006289
0.004372
0.005290
0.000395
-0.008479
-0.004203
-0.004536
-0.009330
-0.000718
0.003580
-0.005415
0.000936
-0.004514
-0.004080
-0.004387
-0.005095
-0.008918
-0.004888
-0.000855
-0.003299
0.000375
-0.003487
-0.006321
-0.005719
0.003155
0.005748
0.005748
-0.003379
-0.007952
-0.001679
0.002128
0.002228
0.003508
0.000950
-0.003732
0.002691
-0.009711
0.008045
-0.004770
0.000152
-0.004566
-0.012203
0.001677
-0.002362
0.007883
-0.004537
-0.005403
-0.006893
-0.016253
0.002598
0.006764
0.008691
0.003316
-0.002916
-0.002764
0.001418
0.005640
0.009608
-0.005957
-0.010204
0.000124
-0.009883
-0.004048
-0.001203
-0.001781
0.003983
-0.002826
0.002592
-0.009634
0.001635
0.000034
-0.004529
-0.002453
-0.002651
-0.006356
0.008172
-0.010255
-0.003001
0.002995
-0.000029
0.000672
0.003374
0.000058
0.022138
0.003924
-0.005522
0.009094
0.004710
0.003921
-0.003940
-0.005733
-0.001734
-0.007648
0.000122
0.003234
0.000826
-0.007905
-0.004608
-0.000565
0.000886
-0.001168
-0.000209
-0.002962
-0.000330
-0.010471
-0.004286
0.003054
0.000498
-0.011209
-0.002376
0.006454
-0.010574
-0.000736
-0.003229
-0.004723
-0.002817
-0.008549
0.001631
0.003661
-0.006596
0.002615
-0.000572
0.011144
0.002334
-0.006210
-0.002214
-0.001221
0.006670
0.000077
-0.004846
0.004930
0.000763
0.001111
-0.003943
0.001163
-0.000214
-0.005356
0.002565
-0.006852
0.010131
0.001966
0.003348
-0.000057
-0.000873
-0.002593
-0.010124
-0.001058
-0.000669
0.012073
0.002266
0.008272
-0.009011
-0.004783
-0.003711
-0.002959
0.005233
-0.002076
-0.007326
0.001630
-0.001372
-0.002213
-0.011737
-0.007791
-0.006636
0.009359
0.008092
-0.010370
-0.000486
0.001299
0.001388
-0.003691
0.005843
-0.002460
0.001627
0.000498
0.010561
-0.003042
-0.011166
-0.001368
0.004051
-0.000551
0.005718
-0.004386
-0.003490
-0.001628
0.001174
0.010328
-0.006158
-0.003509
-0.001067
0.004544
0.000860
0.001111
0.000878
-0.003513
-0.010679
-0.003400
-0.008784
0.007384
-0.007356
-0.000857
-0.001004
-0.008091
-0.001367
0.002532
0.001370
0.000352
0.004272
0.005314
0.006322
-0.001206
0.002257
-0.006514
-0.005509
-0.003654
0.001266
-0.002831
0.008534
0.004102
0.002959
-0.002939
0.001242
0.003408
-0.004218
0.004542
-0.002134
-0.010184
-0.002464
0.007864
0.000499
-0.006208
0.000313
-0.001371
-0.004373
0.000993
-0.009391
-0.006619
0.000807
0.001059
0.001061
0.000664
-0.003234
0.006966
-0.000858
0.003999
-0.004652
0.002356
0.005452
0.003497
-0.000883
-0.005939
-0.008241
0.000601
0.001203
-0.002195
-0.002806
-0.004048
-0.002337
0.002726
-0.001866
-0.004176
-0.000977
-0.000240
-0.007495
-0.000448
-0.000947
0.001662
-0.004435
-0.003776
0.001163
0.000512
-0.007843
-0.005015
0.004678
0.000427
-0.007609
-0.005528
-0.009452
-0.008285
-0.002208
0.008741
-0.001413
0.010823
-0.000354
-0.000885
-0.000602
-0.002055
0.001372
-0.003668
0.001594
-0.003857
-0.000033
-0.006252
-0.003938
-0.010257
0.001223
-0.004704
-0.007023
0.009081
0.003063
0.001829
-0.004878
-0.001386
-0.002848
-0.004983
-0.007640
-0.002626
0.000997
-0.004881
0.002620
-0.018696
0.007498
-0.010250
0.005226
0.001866
-0.004457
-0.002320
-0.001845
-0.001139
-0.001661
0.003457
-0.003044
0.004643
0.004427
-0.010374
0.004905
-0.001857
-0.007419
0.002588
0.005009
-0.007535
-0.000102
0.001342
-0.003772
0.006893
0.002996
-0.001101
0.003052
0.006533
0.021302
-0.003612
-0.008437
0.004263
0.003428
0.003334
0.002892
0.004697
-0.005219
-0.005244
0.009503
0.004333
0.007395
-0.006439
-0.005406
0.003779
0.001398
0.000828
-0.000264
-0.006403
-0.009868
-0.003234
-0.002172
-0.000979
0.001466
-0.003933
-0.004066
0.001157
-0.004651
-0.005588
-0.006380
0.004079
0.003802
0.000062
-0.012562
0.010423
0.001564
-0.002472
-0.000554
0.015186
0.005553
0.001731
-0.002078
-0.006992
0.006193
-0.003529
-0.004906
0.003879
-0.002765
-0.002073
-0.002816
-0.005113
-0.000607
-0.004163
-0.001120
0.000701
0.004050
0.004086
0.000723
-0.005944
-0.002124
0.001609
0.006281
0.001454
0.003246
0.011760
0.003368
-0.005683
-0.004920
0.000423
-0.003039
0.002188
0.002002
-0.003894
-0.000207
-0.003979
-0.002866
-0.000178
-0.009393
-0.004849
-0.001496
0.010250
-0.003355
-0.001236
0.004637
-0.005092
-0.001011
-0.007583
0.002210
-0.004204
0.002813
-0.011364
0.009616
-0.005827
-0.001617
0.002003
-0.001156
-0.002887
0.009468
-0.007353
-0.004589
0.006724
-0.005561
0.003095
-0.011692
-0.006578
-0.002539
0.010657
0.001936
-0.000412
-0.004875
0.005410
-0.001055
-0.002923
-0.001233
0.000376
-0.005055
-0.003081
-0.004810
-0.002351
-0.006650
-0.007788
0.004411
-0.003424
0.005718
0.008006
0.000302
-0.002597
-0.000217
0.000368
-0.002656
0.002317
-0.001077
-0.003879
0.006939
-0.005953
0.004211
0.001231
-0.003749
0.002394
-0.002499
-0.003173
-0.000444
-0.010819
0.001346
0.009342
-0.000455
-0.009568
-0.003891
-0.002089
0.001905
-0.002903
0.007018
-0.013370
0.001891
-0.004331
0.002243
-0.009693
0.003167
-0.003049
-0.001426
-0.008409
-0.005765
-0.000280
-0.002550
-0.003283
-0.000681
-0.004399
-0.003807
-0.002850
-0.005004
-0.005427
-0.001633
0.002356
-0.003984
-0.005596
-0.006326
-0.003152
-0.004064
0.000510
-0.000108
0.003437
0.005746
-0.001894
-0.000526
-0.001744
-0.000651
-0.005650
-0.000703
-0.005153
-0.004465
-0.005204
-0.002042
-0.003230
-0.006352
0.001297
-0.004661
0.006793
-0.002747
0.004949
-0.005968
-0.006592
-0.000115
0.004116
0.001576
0.000262
-0.000479
-0.010820
0.011127
-0.003061
-0.012028
-0.010690
0.001339
-0.001599
-0.005625
0.005006
0.006033
0.000881
-0.007092
-0.003898
0.001744
-0.004670
0.003482
-0.003095
-0.005141
-0.005069
-0.002465
-0.004261
0.005178
-0.001416
0.006744
-0.001821
-0.009382
0.003032
-0.004447
0.000326
-0.001200
0.007298
-0.003361
-0.005601
0.003772
-0.007511
-0.004860
-0.009384
-0.007963
-0.004654
-0.001221
-0.000875
-0.003661
-0.005735
-0.005763
0.011644
-0.005343
0.001937
-0.000119
-0.000571
0.021753
0.001981
-0.002648
0.003218
-0.005972
-0.003667
-0.005967
-0.000668
-0.001399
-0.003869
0.011469
0.006175
-0.000473
-0.009797
-0.008467
-0.009549
-0.005621
0.002577
0.000309
-0.006405
-0.003455
-0.009310
-0.003007
0.002923
-0.006630
-0.006308
-0.014032
-0.006070
-0.004103
-0.003855
-0.008898
-0.004956
0.005356
0.001673
-0.010267
0.000040
-0.003738
0.005011
-0.004054
0.012673
-0.002806
-0.001173
-0.005409
-0.003989
0.000533
-0.004949
-0.002556
-0.006460
-0.005051
0.000930
0.004255
-0.000853
-0.001926
-0.001288
0.010597
-0.003302
0.000352
0.002138
0.002956
0.003490
-0.004682
-0.005153
-0.001469
0.008775
-0.004304
0.004921
0.011380
0.003855
-0.000421
0.002401
-0.003642
0.000705
-0.003371
-0.002854
-0.000927
0.003360
-0.002947
0.003728
-0.002922
-0.005339
-0.005445
0.001033
-0.000505
-0.000091
0.007052
-0.002049
0.000314
0.007246
0.003706
0.001734
0.002585
-0.011338
0.003454
-0.000859
0.004469
0.005840
0.010379
0.002419
0.007213
-0.002550
-0.001687
0.002837
-0.003510
0.001951
-0.002827
-0.001793
0.001443
0.003036
-0.002600
0.006973
-0.000362
-0.005747
-0.003845
-0.003206
-0.006830
0.006910
-0.002873
-0.004821
0.000041
-0.005631
-0.003406
-0.012765
-0.000607
0.006699
0.010126
-0.002823
0.000062
-0.003840
0.000923
0.003990
-0.004080
-0.000149
-0.005080
-0.008876
0.007893
-0.006719
0.006780
0.001189
-0.006534
-0.004036
-0.001789
-0.000383
-0.008870
-0.004163
0.002911
0.000472
-0.005904
0.000479
-0.001497
-0.003254
-0.000622
-0.010688
-0.008102
-0.003863
-0.004920
-0.010000
0.004048
-0.003571
0.001506
-0.005627
0.000791
0.001229
-0.002961
-0.003904
0.001946
-0.001012
-0.000473
-0.009162
-0.003410
0.000459
-0.000222
-0.005590
0.001105
0.001657
0.002848
0.002574
-0.002141
0.000421
-0.006079
0.007449
-0.002592
-0.002010
-0.002543
0.000553
-0.005783
0.001208
-0.013230
-0.002222
-0.002780
-0.004849
0.002001
0.005968
-0.005332
-0.008373
-0.001194
-0.007694
-0.005117
-0.000219
-0.004212
0.000482
0.000896
-0.007477
0.000057
0.002657
-0.007452
-0.002197
-0.003854
-0.004611
0.001147
-0.006096
0.002791
0.003529
0.001782
-0.003802
0.001227
0.000079
0.000213
0.000532
-0.006876
-0.002751
0.001531
-0.001037
-0.005801
-0.006429
-0.000497
-0.001568
0.000370
-0.003702
0.001867
-0.000695
0.002122
-0.004449
-0.003295
0.000061
-0.004979
-0.002494
0.004437
-0.003009
-0.003299
-0.007928
-0.001612
-0.007630
0.001676
-0.003351
-0.009954
-0.001294
0.001655
-0.004349
-0.001265
0.003119
-0.010251
0.002229
-0.001631
0.005202
0.005143
0.009596
0.005945
0.005000
-0.006692
0.005982
0.000662
-0.006477
-0.001986
-0.001119
-0.006280
-0.003372
0.001006
-0.002416
-0.006576
-0.008280
-0.004464
-0.001124
-0.003772
0.002387
0.000131
-0.000491
-0.000596
-0.005649
-0.001900
0.000513
0.002811
-0.010761
-0.012031
0.000049
0.008088
0.002396
-0.011034
-0.001216
-0.002749
-0.003050
-0.004959
0.005708
-0.007428
-0.005564
-0.002849
-0.004039
0.001724
-0.001419
-0.004087
0.000055
-0.000772
-0.008465
-0.002697
-0.000708
-0.004705
0.010315
0.001512
-0.000530
-0.001237
-0.005964
0.006161
-0.007616
-0.007750
0.007209
-0.010923
0.007751
-0.001072
-0.007648
0.000869
-0.002034
-0.004889
0.006530
0.010048
0.001227
-0.008466
-0.004688
-0.003857
-0.009031
-0.001357
-0.004881
-0.004026
0.004493
-0.006143
-0.005115
-0.003704
-0.004842
-0.002715
-0.005586
0.005056
-0.006753
-0.000389
-0.001591
0.000640
-0.002931
0.004511
-0.003346
0.004640
-0.004080
0.006028
0.005604
0.003199
-0.002737
-0.001658
0.000603
0.004146
0.008003
0.000926
0.002648
-0.005618
0.007374
-0.002431
-0.010790
-0.000512
0.009624
-0.001566
0.002046
-0.013118
-0.003131
-0.005696
-0.008539
-0.008745
-0.000848
0.000568
-0.005790
0.004994
0.002543
-0.000954
-0.002786
0.003684
0.007089
-0.000476
-0.002619
-0.006202
-0.002991
0.006976
0.001101
-0.002253
-0.001719
-0.003716
-0.000363
0.007635
-0.001405
0.003895
0.001119
-0.008979
0.004647
-0.005674
0.003451
-0.005283
-0.005346
0.001528
0.000959
0.000783
-0.001385
0.004031
-0.003292
-0.005096
-0.001351
0.002770
-0.008724
0.001716
-0.007422
-0.001148
-0.001888
0.004690
-0.001270
-0.002078
-0.002488
-0.002482
0.002659
0.004964
-0.003970
0.001540
0.001377
0.000639
0.004919
-0.009853
-0.010014
-0.009369
0.007652
-0.004199
-0.001435
-0.000537
-0.004660
-0.008082
0.007542
-0.005262
0.002050
0.002076
-0.002047
-0.006861
-0.008631
-0.001758
-0.005701
-0.004918
-0.004943
0.002477
0.001870
0.000440
-0.001791
-0.010691
-0.001981
0.003128
0.009210
0.004954
-0.000495
-0.002231
-0.002210
-0.004101
-0.003928
0.009031
0.000156
0.000407
-0.004152
0.005573
-0.002125
-0.004257
0.001621
-0.002516
-0.002574
0.001360
0.001672
-0.001754
-0.004983
-0.004725
-0.004272
0.001362
-0.006407
-0.005413
-0.001749
-0.007181
-0.004651
-0.002396
-0.005911
0.001908
0.000391
0.001075
0.001815
0.002342
-0.006151
-0.006437
-0.000829
-0.007518
0.000647
-0.005990
0.002757
-0.004283
0.000611
-0.007007
0.001227
-0.002140
-0.000888
0.009789
-0.007682
-0.004441
0.008075
-0.002106
-0.003837
0.002859
-0.003693
0.004576
0.004946
0.014077
0.002221
-0.000686
-0.001538
0.003070
-0.001830
-0.005600
-0.005518
-0.000238
-0.003498
0.003201
0.004915
-0.004151
-0.001296
0.005498
0.003672
-0.002609
0.001567
-0.005311
-0.002483
-0.007528
-0.003220
-0.002145
0.004272
-0.004299
-0.001779
-0.002073
-0.004245
0.004258
0.003744
-0.008755
0.001324
0.002690
-0.008746
-0.000644
0.003091
-0.003116
-0.002842
-0.001620
0.000084
-0.003699
0.002890
-0.006264
-0.003203
0.005267
-0.003904
-0.002319
0.002649
-0.003384
0.005546
-0.001617
-0.001902
0.005345
-0.004278
0.006788
-0.002176
0.004938
0.003561
-0.001013
-0.003513
-0.010668
-0.002805
-0.008047
-0.001194
-0.000522
0.006461
0.003816
-0.005670
-0.008827
0.001790
-0.000623
-0.004867
0.000881
-0.002687
-0.010686
0.001337
-0.003346
0.002229
-0.008965
-0.003023
0.004324
0.003890
-0.004152
-0.005586
0.006860
-0.004161
0.001564
-0.000110
0.001055
0.001221
0.002141
-0.000612
0.002817
0.001839
-0.002602
0.002533
0.003661
-0.003672
-0.003513
0.000280
-0.002925
0.000334
-0.002992
-0.004726
-0.001255
0.001856
0.001448
0.000572
-0.003961
-0.004734
-0.007617
0.002988
-0.001398
-0.003218
-0.000185
0.005062
-0.001569
-0.002987
-0.002087
-0.007704
-0.002323
-0.000266
0.001766
-0.000375
-0.000700
-0.004953
0.004675
0.000027
-0.003449
0.010481
-0.005419
0.004499
-0.002091
-0.003882
0.002494
-0.007857
0.003103
-0.002275
-0.009233
-0.004282
-0.007709
-0.005351
0.001825
0.003907
0.005540
0.005704
0.000644
-0.002729
-0.005190
-0.002984
0.007703
-0.003389
-0.001864
-0.007566
0.002180
-0.004242
-0.008495
-0.000726
0.003784
-0.006656
-0.008952
-0.004797
0.002062
-0.002407
0.001972
-0.010466
-0.003847
-0.003096
0.000651
-0.000738
-0.000288
-0.000486
0.001829
0.003665
0.003508
-0.000603
-0.002856
-0.000651
-0.002129
-0.000255
-0.010631
0.003119
0.006895
0.004488
-0.000936
-0.007123
-0.000229
0.000321
-0.004218
-0.003121
0.005168
0.004209
-0.002965
-0.004299
-0.001236
-0.003596
0.006845
-0.000831
0.001938
0.004833
0.001734
-0.005170
-0.003024
-0.006445
-0.003963
0.000157
-0.003859
0.000435
0.003825
-0.004894
0.002054
0.000124
-0.005108
-0.007716
0.002971
0.005414
-0.003060
-0.000148
-0.003713
0.001195
-0.000319
0.003167
-0.001331
0.000908
-0.005184
-0.002828
-0.006379
0.003206
0.007530
-0.006172
-0.000160
-0.000898
-0.002692
0.000224
0.003673
0.003445
0.000551
-0.007113
0.007778
0.000171
0.005500
-0.004584
-0.002927
0.003557
0.000352
-0.000392
0.005191
0.009118
-0.005437
-0.002437
-0.000509
0.001146
0.006043
-0.001742
0.007139
-0.001152
0.006804
0.000413
-0.002384
-0.001239
-0.005646
0.001125
-0.002220
0.002633
0.001137
-0.000732
0.001289
0.005258
0.001456
-0.002677
0.007231
-0.001557
-0.001749
-0.001548
-0.004544
0.005851
-0.006602
0.001261
0.004225
-0.004893
-0.007470
-0.000548
-0.002737
-0.000652
0.002226
0.002834
-0.000476
-0.006586
0.001546
0.001287
-0.003546
0.001571
-0.003339
-0.004731
0.000120
-0.000048
0.008933
-0.005947
0.001769
-0.001326
0.012530
-0.003976
0.005402
0.004847
-0.001918
-0.000564
-0.003210
0.002482
-0.002027
-0.002677
0.007391
-0.004381
0.001905
-0.004849
0.001174
0.000948
-0.004526
-0.004251
-0.001163
0.004909
0.007726
0.003737
0.004936
-0.000766
0.005780
-0.003354
0.001398
-0.002856
0.003320
-0.001037
-0.001620
0.002862
-0.005417
0.004065
-0.006816
-0.007791
-0.003543
-0.004466
-0.009501
0.000820
0.002924
0.003133
-0.004220
-0.001947
0.001363
-0.001484
-0.000620
-0.001578
0.002431
0.001491
0.007052
-0.005054
-0.005528
-0.005051
-0.000709
-0.001123
-0.007007
0.003570
0.007539
0.008543
-0.006217
-0.006511
-0.000874
0.002558
-0.007311
0.000459
-0.002509
-0.004469
0.002235
0.000471
-0.005845
0.005958
0.000829
0.000703
-0.005805
-0.002641
-0.001888
-0.007289
-0.007646
-0.007031
0.003610
0.006605
-0.003215
0.002288
-0.001509
-0.000253
-0.000427
-0.005737
0.000866
-0.000484
0.005851
0.006670
0.004914
0.000357
-0.005649
0.000334
0.000490
0.003074
-0.001165
-0.006936
0.003509
0.004827
-0.000342
-0.004175
-0.000698
-0.007890
-0.004622
-0.001309
-0.004160
-0.002381
0.003609
0.000856
-0.003139
-0.000738
-0.001922
0.001113
0.001616
-0.001722
0.003135
0.002544
-0.002207
-0.002810
-0.007859
-0.009866
-0.012359
-0.000808
0.004308
0.000169
0.002053
0.000943
0.002116
0.002283
-0.004891
-0.002179
0.000023
-0.004138
-0.006450
-0.005956
0.001468
-0.003040
-0.004269
-0.002000
-0.003646
-0.000959
0.002982
-0.003604
-0.000956
0.006000
0.001080
0.003512
-0.002423
-0.007267
-0.001132
0.005377
0.003723
0.002357
-0.003029
-0.003164
0.002931
0.005917
-0.001119
0.000092
-0.001241
0.007780
0.001547
-0.001582
-0.001857
-0.003426
-0.002396
-0.000636
-0.004890
-0.001185
-0.005695
0.008569
-0.001227
0.003099
0.001748
0.000336
-0.001512
-0.007832
0.006515
-0.005226
-0.001666
-0.000131
-0.000853
-0.000263
0.006618
0.001517
0.000815
0.003489
-0.005854
0.001316
-0.009383
-0.005382
0.002704
0.000135
-0.004955
0.000154
-0.002026
-0.002482
-0.001696
0.002815
0.000608
-0.003383
-0.004149
0.006473
-0.008287
-0.004291
-0.004536
0.005708
0.001331
-0.000047
0.005094
0.000670
0.000260
-0.003103
0.010764
-0.002387
0.003299
0.003976
0.005829
-0.006448
0.002132
-0.003679
-0.001010
-0.002636
-0.003879
0.006653
0.005844
0.005348
-0.005228
-0.003153
-0.002491
-0.001969
0.000304
-0.000424
0.001094
0.000170
-0.000491
0.004145
-0.000502
-0.003418
-0.008394
0.000607
0.000818
-0.003652
0.002554
-0.001813
0.001962
-0.001882
0.005723
-0.001553
0.004745
-0.001538
-0.005955
-0.002203
0.007224
-0.001975
-0.004558
-0.004843
-0.007989
0.004094
0.005469
-0.001402
-0.006991
0.000253
-0.003700
0.000005
-0.005814
-0.000886
-0.000451
0.003815
-0.003223
-0.008027
-0.001407
0.001520
0.008486
0.002137
-0.002627
0.004262
-0.003379
-0.008601
-0.002844
-0.000151
0.004873
0.005449
-0.000948
0.002209
0.001939
0.000013
0.006872
0.000273
0.001706
-0.003937
-0.008056
0.000625
-0.001328
-0.002159
0.007290
0.003265
0.006116
-0.004654
0.004168
-0.002289
-0.004101
-0.001679
0.001460
-0.003593
-0.000213
0.001485
0.001828
-0.003785
-0.001173
0.004048
0.000253
-0.002658
0.001154
0.002261
0.003571
0.002755
0.001398
0.006253
0.005567
-0.009575
-0.004735
-0.002369
0.002249
0.001713
0.001986
0.000539
0.002852
-0.002214
0.003655
0.011213
0.006229
-0.000395
0.005021
0.005749
0.004503
-0.004039
0.005225
0.000066
-0.007767
0.001864
0.001420
0.000124
0.000339
-0.001809
0.008965
0.003480
0.008565
-0.005221
0.006402
0.002058
0.000684
-0.004457
0.003584
0.001286
-0.005340
0.001239
-0.002898
-0.001091
-0.000001
-0.000523
-0.003722
0.007499
0.000832
-0.005624
0.000856
0.004576
-0.000116
0.003907
-0.007983
-0.001031
-0.003385
-0.001631
-0.004138
-0.002277
-0.002517
0.000115
-0.001291
-0.000893
0.004810
0.001876
0.000289
-0.006699
0.000405
-0.002520
0.000502
-0.002031
0.001203
0.002412
-0.006683
-0.003795
0.005945
0.003344
0.004134
-0.001914
0.006448
-0.005141
0.005575
-0.001947
0.002707
0.004342
-0.008516
0.001847
0.002492
-0.001918
-0.005487
-0.000452
-0.004391
0.002386
-0.004386
0.003036
-0.002293
-0.004056
0.000656
0.000399
0.003334
-0.001388
0.007262
0.001560
-0.000129
0.001904
-0.000539
0.000415
0.004340
-0.006267
0.004982
0.000101
0.000800
-0.002608
0.006160
-0.000113
-0.000713
0.000626
0.012216
-0.002541
0.005302
0.003915
-0.002656
0.000092
0.000993
0.001123
0.000350
-0.005484
0.004183
0.002571
0.001114
-0.000785
0.000516
0.006270
0.000296
-0.004535
0.000379
-0.004025
-0.000356
0.006569
-0.001300
0.001578
0.004884
-0.001419
-0.001676
0.000758
0.004174
0.003476
0.005519
0.001093
0.010477
0.002422
-0.002521
0.002158
0.002787
0.002212
0.000712
0.013383
0.007275
-0.001574
-0.004176
-0.002612
0.000241
-0.001530
0.002128
0.000533
-0.001245
-0.000487
0.005011
0.005364
-0.000983
0.000104
0.004581
0.005996
-0.000833
-0.000098
-0.000219
0.002645
0.003943
0.003887
-0.002905
-0.004380
0.004384
-0.006503
-0.001922
0.004153
-0.000405
0.005911
-0.005459
0.008897
0.003118
0.002970
-0.003344
-0.001743
0.003482
-0.001785
0.002499
-0.002344
0.003139
-0.006299
0.002767
0.003552
0.002096
0.002194
0.000122
-0.002135
-0.004496
-0.004249
-0.003770
-0.001546
-0.006034
-0.000041
0.001754
-0.003809
0.005032
0.008497
-0.001842
0.004211
-0.000582
-0.004963
0.003085
-0.000829
-0.001706
-0.000115
0.005485
0.001577
-0.001811
0.000345
0.000206
0.000570
0.000938
0.003897
-0.002426
0.003763
-0.000841
-0.001255
-0.003891
-0.000120
-0.002142
-0.000304
-0.006908
0.004026
-0.005384
0.001967
0.001161
0.004420
-0.003910
-0.000372
-0.001760
-0.001325
-0.007790
0.000896
-0.004523
-0.001991
0.003334
-0.003479
0.002201
0.005574
-0.003132
-0.004208
-0.004781
-0.001867
-0.002224
0.001369
0.000679
-0.000527
0.004110
-0.002719
0.001792
-0.000682
0.002593
-0.001880
0.003671
-0.002306
0.002590
0.001536
-0.003589
-0.001855
0.003367
-0.000747
-0.000846
0.002348
0.002167
0.001457
-0.002908
-0.002270
0.003057
-0.000292
-0.001363
0.001650
-0.003353
0.003784
0.002142
-0.001221
-0.003033
0.001341
-0.000792
0.002347
0.003810
-0.010206
0.000202
-0.002948
0.003088
0.004704
0.005392
0.002781
-0.001266
0.000543
0.000578
-0.002215
0.003663
-0.005123
-0.002481
-0.002006
-0.002950
-0.000108
-0.003658
0.002625
0.001820
0.006653
-0.003971
-0.001165
0.002732
0.006842
0.000068
-0.002088
0.003583
-0.000147
0.002549
-0.002284
-0.001023
0.002306
-0.003010
0.003851
-0.002910
0.004051
-0.000381
0.002021
0.004199
0.001277
0.000870
0.005089
-0.000485
-0.004594
0.001111
0.000209
-0.007400
0.001188
0.000786
-0.002250
-0.005326
-0.004846
-0.002435
0.001805
0.004706
0.002357
0.002338
-0.001149
-0.002247
0.006100
0.004276
-0.001889
0.006761
-0.000582
0.000206
-0.007328
0.001180
-0.000625
0.008813
0.008137
-0.003419
0.002505
-0.007712
-0.000376
0.000621
0.004064
-0.003677
0.003418
0.004205
-0.001499
-0.001640
0.004677
-0.006570
-0.005241
0.002554
0.003880
0.006071
0.000519
-0.002961
-0.001202
-0.000209
0.001191
0.000370
0.004822
-0.002851
0.004200
0.005701
0.002526
0.004038
0.005391
0.001169
0.000828
0.001173
0.002187
0.002863
0.000089
0.004143
-0.002330
-0.001350
0.002738
0.001484
0.001788
0.000267
-0.002945
-0.002423
-0.005625
0.004873
-0.000805
-0.000499
-0.003340
0.006336
-0.005753
-0.002829
-0.000663
-0.002537
0.001837
-0.004302
-0.002662
0.003052
0.005231
-0.002091
-0.002439
0.001486
0.001602
0.000512
0.002131
0.001670
0.003968
0.001677
0.004325
-0.003604
0.003190
-0.001089
0.003156
0.002261
0.002050
0.001719
0.002675
0.000838
-0.000521
0.001996
0.005542
0.003068
0.002041
0.002172
-0.000755
0.004670
-0.002449
-0.004205
0.003666
0.000630
-0.003112
-0.004920
0.003690
-0.004745
0.000879
-0.003067
-0.009567
-0.003607
-0.000774
-0.004801
-0.000067
-0.006463
-0.001877
0.005830
0.004627
-0.003750
0.004504
-0.008293
0.001541
-0.000166
0.000329
0.001649
0.002311
0.004673
-0.001733
0.000239
0.005036
0.003122
-0.000617
0.000277
-0.002218
-0.002077
-0.001293
0.005690
0.002341
-0.004629
-0.006538
0.004280
0.006003
0.001046
-0.003779
-0.002450
-0.007541
0.000707
-0.000935
-0.001715
-0.006148
-0.000434
0.001137
-0.002341
0.002783
-0.001792
0.003157
0.002549
-0.001904
0.010218
0.000123
-0.003363
-0.000773
-0.004759
0.001807
-0.003016
-0.002076
0.005527
-0.003136
-0.001606
0.004184
-0.001554
-0.002803
-0.001644
0.004728
0.005975
0.003522
0.001645
-0.000391
-0.000140
-0.003860
-0.001442
-0.001813
-0.004302
0.005304
0.000832
-0.001939
0.001434
-0.004580
0.002826
0.003231
0.003673
-0.000756
-0.001094
0.000534
0.003077
-0.000471
-0.005623
0.003508
0.003023
0.005035
0.004366
0.002331
0.003830
-0.004481
0.002137
0.001575
0.001690
-0.002335
0.005839
-0.002835
-0.004256
0.002403
0.001045
0.006117
-0.008374
-0.000468
0.002705
-0.001153
0.000793
0.001526
-0.000901
0.005707
0.006498
-0.003715
-0.004263
-0.004355
-0.003621
-0.002821
-0.003490
0.000872
0.006084
0.001316
0.000720
-0.001349
0.001323
0.007247
0.006378
-0.004179
0.006064
0.002509
0.004656
-0.008399
0.000845
0.004353
-0.006837
-0.001162
0.003141
0.002939
0.002852
0.000021
0.001662
0.001999
0.001365
-0.005006
0.000627
0.003657
-0.003743
0.003757
0.000470
0.004331
-0.003869
0.002985
-0.004286
0.002739
0.003733
-0.004161
-0.005029
0.000954
-0.002224
0.001398
0.006040
-0.002018
0.003734
-0.000250
-0.002246
0.002184
-0.000039
0.002361
0.000876
-0.005189
-0.004510
0.002371
-0.004360
-0.005569
0.002445
0.000496
0.000094
-0.000125
0.002497
-0.003599
-0.000904
0.001282
0.002196
-0.000805
0.002059
-0.001796
-0.005642
0.010612
0.001000
0.002753
0.007203
0.004550
0.000437
0.003469
0.005163
-0.002069
0.000961
-0.004087
-0.001295
0.002517
-0.001270
-0.000845
0.004161
-0.001640
0.002305
-0.002960
-0.005093
0.007259
0.004459
0.002238
-0.006753
-0.004678
0.001181
0.006918
0.002612
0.005051
-0.000653
0.002115
0.002894
0.004293
0.001462
-0.003097
0.002884
-0.000837
0.003764
0.001935
-0.000408
0.006025
0.004070
-0.002130
-0.001175
-0.003032
-0.003024
-0.002247
-0.001146
-0.004711
0.000067
-0.004614
0.001170
-0.004744
-0.000093
0.008472
-0.003820
-0.005331
-0.005643
-0.003619
0.010591
-0.003464
-0.000146
-0.001083
0.000564
0.003873
-0.004811
0.001341
0.004244
0.002139
-0.002905
0.006745
-0.000988
-0.001170
-0.000349
-0.007180
-0.000231
0.010214
-0.001508
-0.004557
0.002503
0.003677
-0.007911
-0.003271
-0.002963
-0.002508
-0.001739
-0.000271
-0.006288
-0.000523
-0.002130
0.003920
0.000022
0.000351
0.001542
0.004023
0.005428
0.002950
-0.006789
-0.006571
-0.002174
-0.001199
0.002503
-0.001467
-0.001930
-0.003193
0.005058
-0.000395
-0.002592
0.003852
-0.000249
-0.000677
-0.006204
-0.009290
-0.004945
0.002777
-0.001871
-0.002667
-0.007079
0.007359
-0.005416
-0.004393
0.001722
0.004345
-0.002327
0.000018
0.000063
-0.001915
-0.000638
0.003449
0.000306
-0.000083
-0.004884
0.010894
0.004158
-0.011334
-0.004699
-0.002637
-0.004868
0.001774
0.003220
0.001362
0.000454
-0.002063
0.003361
-0.002809
0.005932
0.000679
0.000224
0.003248
0.002506
0.005034
0.002183
0.004800
0.002128
-0.005077
0.001567
-0.000077
0.002893
-0.002069
0.002927
0.001193
0.000178
-0.004130
-0.002421
-0.000365
0.003300
0.009327
0.000275
0.001538
0.008291
0.000253
-0.001668
0.000857
-0.002943
-0.001911
-0.002656
-0.000872
0.001034
0.004964
0.001752
0.001736
-0.003625
-0.001187
-0.003958
-0.003683
0.001556
-0.006663
-0.000905
-0.001990
0.000358
0.004448
0.001986
0.000762
-0.003807
0.001833
-0.005234
-0.006687
0.002646
-0.002803
0.005626
0.000148
0.006001
0.003883
0.001500
-0.002896
-0.005006
-0.000237
-0.005527
-0.002085
-0.001085
0.004535
0.003397
0.002604
-0.005113
0.005269
-0.006564
0.001768
-0.001382
0.004931
0.004449
0.001946
0.008469
-0.004622
-0.000388
0.001111
0.003718
-0.003012
-0.002786
0.005602
0.002181
-0.000019
-0.002195
0.005900
0.000731
0.001523
0.003559
0.004321
-0.002804
0.000313
0.000322
-0.000348
0.000549
-0.002308
0.004599
0.006473
0.000677
-0.000348
0.000785
-0.003732
0.001276
-0.005962
0.006430
-0.000940
0.006784
0.003660
0.002872
-0.003229
0.001293
-0.002171
-0.001670
-0.004542
0.005079
-0.004209
-0.007253
0.000861
0.000606
0.002642
0.001642
-0.000258
0.007179
0.005378
-0.004226
-0.001505
0.000088
-0.003502
-0.005603
-0.002044
-0.001167
0.002653
-0.000083
0.004831
-0.004126
0.000297
0.005508
0.000721
-0.000815
0.008571
0.000592
0.001191
0.000222
-0.001587
0.000043
0.002454
-0.002644
-0.000852
-0.003276
-0.000885
0.002610
0.001621
0.000260
0.002599
0.000271
-0.005970
0.001424
0.005148
-0.001528
-0.003956
0.002402
-0.003135
0.006480
-0.001248
-0.005866
-0.003578
0.001164
-0.006603
0.003824
0.004086
-0.002343
-0.003466
0.002103
0.001371
0.004145
-0.003986
0.004649
0.003241
0.003350
0.002008
0.005241
-0.003944
0.002872
0.003413
0.004971
0.004535
0.000210
-0.000689
-0.003485
-0.001452
-0.001039
-0.001181
0.001474
0.003304
0.003156
-0.004539
0.000308
-0.005718
0.003986
-0.004410
0.000133
0.006970
0.001682
0.004501
-0.001784
-0.004193
-0.004927
0.002063
-0.000608
0.001340
0.001164
-0.000361
0.002763
0.000270
0.006364
-0.000611
0.003182
-0.007408
-0.006196
0.007483
0.003297
-0.002276
0.001954
-0.004503
-0.001809
0.001959
-0.004913
-0.001897
0.000747
-0.004510
-0.000922
0.006077
0.001366
0.000168
0.002983
-0.003176
0.000942
0.001828
-0.006094
-0.002125
0.000912
-0.001463
0.003587
0.000805
-0.002133
-0.003662
-0.006932
-0.003883
-0.000681
-0.002450
0.001199
0.004657
-0.002790
-0.004243
0.005290
-0.003685
0.002187
0.003640
0.000425
0.000953
0.001384
-0.003490
0.000900
-0.006915
-0.003229
-0.003026
-0.000627
0.000656
0.002044
-0.002179
0.004203
-0.002978
0.000174
-0.001320
0.000823
0.008729
0.005205
0.001357
-0.002370
-0.001627
-0.003320
0.000557
0.004360
0.001376
-0.000089
-0.006302
0.003468
-0.004127
-0.003247
0.002553
-0.004024
-0.003460
-0.003234
0.001501
-0.006715
0.002167
-0.006089
-0.000545
0.001248
0.003966
0.001092
0.001845
-0.001624
0.005697
0.002426
0.003707
0.003629
0.006624
0.003747
-0.002254
-0.003423
-0.001006
0.002415
0.010487
0.001814
0.005969
0.004089
0.000331
-0.006044
-0.001957
0.008503
0.004712
-0.001930
-0.002458
0.003214
-0.002053
-0.001235
0.003890
0.002862
0.004076
-0.004988
-0.001228
-0.000166
0.002876
-0.008948
0.001025
-0.006633
-0.000053
0.004150
0.002864
0.004716
0.001738
0.001330
0.000738
-0.004315
0.001746
-0.001907
0.001593
-0.000766
0.001073
0.001785
-0.002120
0.002916
-0.002540
0.008267
0.004205
-0.002041
-0.004330
-0.000712
0.000891
-0.007432
-0.004657
-0.000269
0.000217
-0.000462
0.008061
-0.003862
-0.000607
-0.007443
-0.002797
0.003553
-0.001532
-0.008097
-0.003226
-0.001160
0.004757
-0.003647
0.000189
0.001027
0.000343
-0.006995
0.000739
-0.002840
-0.001389
-0.000810
0.005906
0.004645
0.003436
0.002188
-0.001971
-0.005781
0.006059
-0.004598
-0.006905
0.003215
0.003985
-0.005263
-0.002793
0.004664
0.001188
-0.004401
-0.005045
-0.005299
0.000091
-0.006260
0.000039
0.003754
-0.003470
0.002820
-0.000949
-0.003821
0.000062
0.005463
0.001942
-0.005079
-0.001361
0.000716
0.002915
-0.000035
-0.003194
0.002475
-0.004602
0.002206
-0.000666
-0.002194
0.003954
-0.001413
-0.000550
0.003915
0.001517
0.002602
0.002669
-0.005767
0.000198
-0.002193
0.009256
0.003052
0.003322
0.001894
0.002446
-0.000259
0.006613
0.000743
0.005592
0.004212
-0.000718
-0.004476
-0.000275
0.005524
-0.006937
-0.005137
-0.001738
0.000421
-0.000943
0.001295
0.000013
0.001104
-0.001188
0.004029
0.004237
-0.006426
0.002912
0.000241
-0.000956
-0.001490
-0.002429
-0.002672
-0.001033
-0.001182
-0.005702
-0.002349
-0.001375
0.004715
0.001349
0.002815
-0.001267
0.004507
-0.003891
0.000661
0.000863
0.000308
0.000702
0.003994
0.002279
0.000939
-0.000151
-0.000063
0.000255
0.006535
0.000182
-0.004795
0.000562
0.005589
-0.001598
0.003089
-0.001540
0.001137
-0.005702
0.004884
-0.000733
0.004475
-0.000950
-0.002710
-0.000678
-0.003197
0.003685
-0.001818
0.006461
0.006307
-0.003479
-0.001483
-0.002737
0.000387
0.001891
-0.004054
-0.004016
0.000582
-0.003863
-0.001545
-0.003229
-0.003212
-0.003098
-0.004007
-0.004532
0.005412
-0.000622
-0.003677
0.002157
-0.002930
0.004351
0.004346
0.001540
-0.000236
0.001394
0.002478
0.005307
-0.004813
-0.000656
0.000095
-0.009084
-0.004068
0.003976
-0.006346
-0.003461
-0.000325
0.004373
-0.007040
-0.000163
0.002659
0.002410
0.000326
-0.000662
-0.000861
0.001778
0.000191
0.002190
0.005142
0.000983
0.000232
0.003129
-0.001094
0.000252
-0.000406
0.005001
-0.001672
-0.000179
0.005423
-0.002590
-0.003687
-0.004342
-0.002250
0.005765
0.000235
0.002686
-0.000154
0.001314
-0.004593
-0.000885
0.001873
-0.000191
-0.001193
0.003966
-0.004198
0.000606
-0.002471
0.000518
-0.000018
-0.000345
-0.002002
0.003511
-0.002565
0.001399
0.000345
-0.001476
0.000566
-0.002145
0.004967
0.004649
-0.003431
0.001247
0.002592
0.004298
0.001762
0.003680
-0.001012
-0.004538
0.005005
0.001268
0.001666
0.001988
0.002894
0.006207
-0.000449
-0.001634
-0.004286
0.000728
-0.002901
-0.004946
0.005635
0.003157
0.001143
-0.002589
0.000850
0.001632
-0.002976
0.003687
0.006241
-0.001099
0.008287
0.004816
0.007680
-0.004542
0.002327
0.000103
0.001478
0.005536
0.002341
0.004112
-0.000478
-0.001300
0.003842
0.007688
-0.001053
-0.002630
0.001961
0.001258
-0.000427
-0.005996
-0.000518
0.002374
-0.002339
0.001070
-0.003785
-0.001164
-0.006034
-0.005449
-0.005910
0.006968
0.003877
-0.001114
-0.002935
-0.002725
0.004098
0.004802
-0.001875
0.001192
0.002897
0.006465
-0.003517
-0.001773
-0.006734
0.002909
-0.003123
0.000508
0.002647
0.003132
-0.003877
-0.006310
0.005330
-0.002339
-0.002038
-0.001395
-0.007721
0.002133
0.004971
0.000754
0.005754
0.004416
-0.002581
0.003218
-0.000443
0.001923
0.000492
0.000630
-0.002221
0.000568
-0.004441
0.000680
0.002412
0.003551
0.004616
-0.005472
-0.004915
0.002357
0.004558
-0.001270
-0.004131
0.001119
-0.000586
-0.004211
-0.002771
-0.007621
0.002506
0.000774
-0.000641
-0.000626
-0.001975
0.008271
0.002806
0.000492
0.001093
-0.001251
-0.003548
-0.006794
-0.003253
0.000924
-0.001412
0.007712
-0.000879
-0.008279
0.002521
-0.000434
-0.001786
-0.000818
-0.000814
-0.007014
0.001688
-0.004656
0.003101
-0.000734
0.001326
0.000158
0.000273
-0.002421
-0.001279
-0.001991
-0.005161
0.003879
-0.001013
-0.000291
-0.000907
0.000058
-0.003070
-0.001974
0.004998
0.001249
-0.000769
-0.001904
-0.003688
-0.006320
0.005740
-0.003067
0.005845
-0.001419
0.006849
-0.001445
-0.000413
0.001364
0.001772
-0.002632
-0.008925
0.000310
0.001349
0.006926
0.003734
-0.006720
-0.008917
-0.006599
0.000114
-0.006605
-0.003338
-0.002450
0.005118
0.003851
-0.001308
0.003568
0.007109
0.001095
-0.003299
0.001905
-0.005050
0.005102
-0.000050
0.003941
0.004631
-0.000227
0.003301
-0.005010
-0.001571
0.000822
-0.000862
0.006948
-0.001840
-0.006245
0.005013
-0.001300
0.002880
0.002013
-0.005732
-0.002308
-0.000862
0.002449
0.002919
0.010885
0.001862
0.001191
-0.000283
-0.000140
0.005824
-0.002503
-0.001924
0.002237
0.006232
0.005811
-0.001825
0.003549
0.001244
-0.001192
0.001072
-0.008230
0.000476
-0.006372
0.002627
0.001251
0.003684
-0.003321
-0.000500
0.007014
0.003952
-0.001903
-0.000747
-0.002440
-0.005894
-0.000263
-0.002487
-0.004098
-0.001428
-0.001332
-0.009113
0.003960
-0.001879
0.004010
0.003428
0.004394
0.002336
-0.002630
-0.004187
-0.003374
-0.004792
-0.006929
0.003707
-0.000200
0.001006
-0.002607
-0.001423
0.009479
-0.007035
-0.004241
-0.005502
-0.005276
0.003291
-0.007557
-0.000480
0.002095
-0.000112
0.003265
0.006125
0.004808
-0.004587
0.000960
-0.002000
0.000631
-0.001265
-0.002108
-0.005407
0.009079
-0.002370
-0.002451
-0.000435
-0.001014
0.000468
0.004199
-0.002851
-0.008475
-0.004398
0.001238
-0.001785
-0.003688
0.002691
0.003067
0.002453
-0.005369
-0.001464
-0.001443
-0.003536
-0.005529
-0.001687
0.006635
0.004964
0.000177
0.007022
-0.000753
-0.003134
0.003994
0.002052
-0.003093
-0.000377
-0.006558
-0.003136
0.002225
-0.000421
0.002925
0.000282
-0.003998
-0.002580
0.003090
-0.000645
-0.005910
0.002276
0.002262
0.003192
0.002279
-0.002300
-0.002331
-0.001327
-0.002030
-0.000845
0.002603
0.001549
0.003244
-0.001425
0.002985
-0.000847
-0.000539
0.002586
-0.005544
0.000514
-0.003428
0.005136
0.006364
0.006396
0.001096
-0.000392
0.005165
-0.002260
-0.001106
0.004867
0.000204
0.000583
-0.000218
-0.006019
-0.001754
-0.001230
0.003490
0.000880
0.003993
0.000076
-0.003702
0.000733
0.000959
-0.007248
0.006086
-0.004529
-0.005493
-0.001894
-0.001573
0.005621
-0.000790
-0.006171
-0.001223
0.005972
0.003177
-0.000609
-0.005280
-0.001330
0.000579
-0.002091
0.000265
0.000961
0.004295
0.000267
0.010031
0.001140
0.006104
0.001223
-0.004500
-0.009474
-0.002350
-0.003290
-0.004800
0.002776
0.001861
-0.001666
0.002571
0.003382
0.001448
0.005495
-0.000345
-0.000779
-0.000830
0.003057
0.002865
-0.001692
-0.001619
-0.002137
0.001203
0.005988
-0.001753
0.003980
0.000477
0.003392
-0.001470
0.008876
-0.003990
-0.006343
-0.003584
0.000743
0.004657
0.002706
-0.005227
-0.002646
0.004931
0.005615
-0.002741
0.002099
-0.007715
0.000607
0.001312
-0.010049
-0.001006
0.002768
-0.001818
-0.002177
-0.000204
-0.002250
0.002663
-0.010627
0.005278
0.002615
0.003132
-0.004438
0.001704
0.007021
0.004234
0.001670
0.004609
-0.002746
-0.004078
0.001147
0.003824
0.001098
0.002992
-0.005127
0.000760
0.001230
0.000901
0.003442
-0.000887
0.003071
-0.002926
0.002209
-0.004258
0.000768
0.000184
0.003138
0.005726
-0.004833
-0.004091
-0.002467
0.000319
-0.005796
0.001224
-0.001397
0.000368
-0.002203
-0.001048
0.006996
-0.002024
0.001356
0.001340
0.005568
-0.001503
-0.001544
-0.003684
-0.006127
-0.003798
0.001609
0.007142
0.000777
0.000118
0.005200
0.001502
0.002704
-0.001540
0.000215
0.006605
0.007646
0.005844
-0.001190
-0.004010
-0.007448
0.005298
0.001838
-0.000968
-0.000037
-0.008583
0.000865
-0.000498
0.000977
0.005464
-0.001034
-0.001204
-0.001552
0.006907
-0.004725
0.002177
0.002698
0.004816
-0.005992
-0.004541
0.000940
-0.000454
-0.003227
0.005762
0.004584
0.005299
-0.005142
-0.005672
0.004624
0.007364
0.001442
0.001222
-0.000365
-0.003495
0.002373
0.002363
0.006915
0.002941
-0.004932
0.001911
0.001460
0.001730
-0.005263
-0.002988
-0.000903
-0.001652
-0.002263
-0.001795
-0.000112
0.002530
-0.001732
-0.005194
0.003054
0.000265
-0.000533
0.007805
0.000496
-0.001768
-0.002748
0.005551
-0.002253
0.000918
0.000866
0.000038
0.003453
0.007398
-0.007277
-0.004475
-0.002699
0.006178
-0.005540
-0.003233
0.000596
-0.001200
0.007026
-0.001101
0.002837
-0.003762
0.005477
0.001024
0.000781
0.001217
0.000241
-0.004180
-0.006749
0.001252
0.007237
-0.000971
0.005640
0.000416
0.004184
-0.007439
0.001533
-0.000683
-0.005841
0.000125
0.006947
0.004340
0.002205
0.001042
0.005903
0.004672
-0.004188
0.003525
0.008483
-0.002778
-0.005323
0.003683
-0.001808
0.005075
0.000780
0.005892
-0.001396
-0.001099
0.002171
0.002202
-0.001002
0.004390
-0.002761
-0.001903
0.002529
0.003408
0.010340
-0.002397
-0.004754
0.004011
-0.005849
0.000551
0.004830
-0.000180
-0.009152
0.004508
0.003889
-0.000996
0.004796
-0.000679
0.003561
-0.001383
0.009772
-0.000578
0.002180
0.005345
-0.002053
0.001882
-0.005383
-0.004504
0.004906
0.001725
-0.002049
0.000048
-0.000986
0.002559
-0.000755
0.007004
0.005480
-0.003305
0.001617
0.004048
0.001815
-0.000872
-0.001044
-0.011405
-0.001791
-0.002182
-0.007297
-0.002346
-0.003011
0.008337
0.007098
0.001240
-0.007571
0.001404
-0.003182
0.002109
-0.001452
0.004519
-0.000798
0.002058
0.000949
-0.005906
-0.001897
-0.006649
0.000211
0.001250
0.002555
-0.000867
-0.000770
-0.001772
0.006432
-0.002308
0.004677
0.001827
0.005310
0.004267
0.005563
0.005247
0.000884
-0.001140
-0.002420
0.002554
-0.002071
0.009099
-0.006705
-0.001700
0.008648
0.004080
0.005239
0.002115
-0.001123
-0.000622
0.003164
0.005443
0.000318
-0.004706
0.004329
0.002447
-0.001183
0.007582
-0.005225
0.000144
0.002109
-0.004789
0.003747
-0.003959
-0.004228
0.003116
-0.004602
-0.003431
0.000563
-0.004481
0.004132
0.000682
0.002005
0.004226
-0.002931
0.004219
0.004750
-0.001071
0.004314
-0.001076
0.000067
-0.006060
0.003509
0.003542
0.000242
0.002079
-0.001868
-0.006559
0.001740
0.010580
-0.001649
0.003895
-0.009728
0.001409
-0.004742
-0.001242
-0.010414
0.009183
-0.001833
-0.003263
0.003956
-0.006498
-0.007267
-0.002496
0.004248
-0.001320
-0.005646
0.000929
0.002954
0.010685
0.002426
0.006077
-0.002360
0.000250
-0.001755
-0.004674
-0.000709
0.003972
0.002804
-0.008536
-0.003979
0.006534
0.001977
0.004456
-0.003337
0.004521
-0.008082
0.001963
0.005194
0.001661
0.002359
0.001380
0.000723
-0.003805
0.000878
0.003581
-0.000305
-0.002061
-0.011206
-0.003739
-0.001839
0.001019
-0.003502
0.002580
-0.000359
-0.003158
0.012197
0.005849
0.004114
0.001496
0.008832
0.003364
-0.003144
0.000903
-0.007729
0.007273
-0.000466
0.003159
-0.006780
0.003850
-0.002328
-0.001974
-0.010526
-0.002621
0.001191
-0.011547
-0.000838
0.002946
-0.004561
-0.001714
0.000808
0.001496
-0.003404
0.006254
-0.001197
0.001592
-0.007458
0.001323
0.001027
-0.000417
0.000130
0.001328
-0.003011
0.000936
-0.003026
0.003011
0.000218
0.004452
0.002322
0.003899
-0.000745
-0.000550
0.007424
0.001930
-0.008902
-0.002700
0.001404
0.000165
-0.005942
0.006731
0.003194
0.002267
0.010710
0.006933
-0.001475
-0.000144
0.001035
-0.000436
0.004235
-0.003186
-0.002517
-0.003594
0.001826
0.006281
0.004677
0.001787
-0.002412
0.001177
0.002951
-0.000967
-0.000987
-0.000532
-0.008629
-0.009813
0.000403
0.001056
-0.004692
0.000948
0.004047
-0.007739
-0.002366
0.001231
0.003008
-0.008543
0.000555
0.001473
-0.001555
-0.002512
0.004154
-0.000561
-0.000321
0.004585
-0.001966
0.004932
0.000944
0.001026
-0.001413
0.002454
0.002061
-0.002950
-0.002124
-0.003235
-0.001325
-0.001401
0.003903
-0.005060
0.005425
0.001855
-0.002251
0.004115
0.000199
0.001168
-0.001812
0.002294
0.003878
-0.003599
0.000808
-0.000876
-0.001156
0.004497
-0.003474
0.001383
-0.003141
-0.000525
-0.000817
-0.000100
0.001689
0.005205
-0.000253
-0.008638
0.001012
-0.005459
-0.000212
-0.001060
-0.001425
0.004111
-0.001508
-0.000378
-0.007908
0.005798
0.002352
0.007576
0.007509
-0.004891
0.005519
-0.000814
-0.001776
-0.001184
0.003318
0.000680
0.002139
0.005314
0.002434
0.004508
0.004487
0.002862
0.000871
0.000285
0.001775
0.001953
0.004828
0.001341
-0.000143
-0.004532
0.000561
-0.002583
-0.006111
0.001626
-0.000003
0.002427
0.002692
-0.002437
0.001283
-0.009364
-0.000560
0.004014
-0.003323
-0.005680
-0.005207
-0.004435
0.000607
-0.001871
0.001879
0.007133
-0.000950
-0.005025
-0.001215
0.006505
0.001888
-0.002191
0.000485
0.002465
0.006162
-0.000862
-0.003011
0.005639
0.006425
0.001482
0.004639
-0.005824
-0.001088
-0.003341
0.009203
-0.012954
0.004625
0.004017
0.011192
-0.011042
-0.001577
0.000591
0.003357
0.003905
-0.000769
-0.006442
-0.001108
0.009696
0.000949
0.003143
-0.003550
0.003944
-0.003874
0.002692
-0.005638
-0.002494
-0.002440
-0.000294
-0.004103
-0.001419
0.001673
-0.002336
-0.003847
-0.006512
-0.015561
0.000075
0.002402
0.000995
-0.001135
-0.005467
0.002105
0.001091
-0.007888
-0.002051
0.001817
-0.005682
-0.021585
-0.005741
-0.002015
-0.001448
-0.002067
-0.001338
-0.006154
-0.004693
-0.002772
0.000263
-0.000610
0.000472
-0.001329
0.004237
0.001541
-0.003293
0.002902
0.005177
0.002983
-0.000610
0.002396
0.002694
0.011984
-0.004937
-0.013804
-0.003772
-0.001837
-0.013895
-0.007255
-0.006787
0.008132
0.001056
-0.003445
-0.006468
0.004591
-0.002951
-0.002380
-0.002022
-0.003625
0.003057
-0.000581
0.001418
0.002985
-0.005551
0.001709
0.006351
0.000160
0.000682
0.003148
0.005436
-0.001609
0.001959
-0.005438
0.000573
0.001874
0.003475
-0.011827
-0.005338
0.003954
0.004269
-0.008237
-0.000613
0.005207
0.004879
-0.001854
-0.004159
-0.001810
-0.002256
-0.003140
-0.001359
0.009403
0.000255
0.000392
-0.003325
0.000419
0.007487
0.002436
0.004986
0.006065
-0.004917
0.003120
-0.000351
0.001082
0.005604
0.006831
-0.012834
0.001726
-0.003501
-0.008076
-0.003287
0.004085
-0.001756
-0.000653
0.000553
0.001766
0.000543
-0.002841
0.001830
-0.000821
-0.000682
0.001061
0.004350
-0.001048
0.000156
0.010729
0.004430
-0.002767
0.004205
0.002000
0.000003
-0.001576
0.002652
0.001009
-0.006311
0.001291
-0.002507
-0.000181
-0.000971
-0.001895
0.007497
0.000594
-0.002761
-0.003888
0.000749
0.002192
-0.000655
-0.001283
-0.004484
-0.004394
0.000033
0.002284
0.005052
-0.006328
0.001026
0.001988
-0.001274
-0.007156
0.003825
-0.002333
-0.003209
0.011071
-0.014622
0.008707
0.004231
0.002504
-0.000480
0.004229
0.003730
-0.000915
0.000937
0.007701
0.002337
-0.006085
0.001453
-0.003903
0.002232
-0.000053
0.000630
-0.002094
0.001062
-0.002072
-0.000982
-0.004099
0.001719
0.001265
0.000828
0.007451
0.002619
-0.003833
-0.004182
-0.006192
-0.011355
-0.002378
0.001052
0.002143
-0.011295
0.001000
-0.004269
-0.003344
0.000227
-0.000657
-0.004771
-0.007087
-0.002614
-0.004824
0.001902
-0.001543
-0.000875
-0.007756
0.001582
-0.003737
-0.004435
0.000497
0.002224
-0.000807
-0.006583
0.005247
0.000078
0.001044
0.002376
0.004312
0.004026
-0.008033
0.001686
-0.002875
-0.002185
-0.003460
0.001586
-0.002678
-0.006315
0.001406
-0.000727
-0.007463
0.005089
-0.004862
-0.012843
0.005307
0.004084
-0.000788
-0.009938
0.000741
-0.011130
-0.001790
-0.000861
-0.003947
-0.006401
0.002684
-0.002663
0.001992
-0.005721
-0.005684
-0.000064
-0.001423
-0.003051
-0.004307
-0.005287
0.001886
-0.000046
0.001546
-0.003396
-0.006689
-0.000445
0.001793
0.003614
-0.006888
-0.000011
0.006154
0.004205
-0.008684
-0.003525
-0.000679
-0.003805
-0.007648
-0.005796
-0.005154
0.001288
-0.004260
-0.005222
-0.010563
-0.001679
0.000602
-0.002284
-0.000955
-0.002819
0.004179
0.000233
-0.004417
-0.001705
0.001885
-0.004731
0.005661
-0.006893
-0.003950
-0.004697
0.003570
-0.003761
-0.003450
-0.003121
-0.001131
-0.005956
-0.020524
-0.006166
-0.005223
-0.011986
0.001813
-0.012504
-0.001198
-0.003163
-0.001776
-0.007287
0.002325
-0.006296
-0.002402
-0.005641
-0.004183
-0.004326
0.001232
-0.003176
-0.005493
-0.008783
-0.004021
-0.003457
-0.002629
-0.001444
0.000004
0.001839
-0.002386
-0.003067
-0.004907
0.001720
0.003682
0.002422
-0.013793
-0.001130
0.005719
0.001217
-0.003414
-0.000320
0.002154
0.006065
-0.001705
-0.005612
-0.001564
-0.002157
0.002353
0.001396
-0.004079
-0.001119
-0.000720
0.007128
-0.004261
0.001207
-0.003553
0.001344
0.000562
-0.004806
0.006799
-0.000176
0.003900
0.003216
0.002047
-0.011210
0.004528
-0.006186
0.000684
-0.003802
0.002776
0.007045
-0.001381
-0.003833
-0.003726
0.003890
0.003065
-0.002124
-0.005504
-0.000274
-0.005119
0.004723
-0.002988
0.003778
0.007394
-0.005349
-0.003635
-0.004672
-0.001070
-0.000579
-0.004693
-0.004884
-0.003863
-0.005023
0.006274
0.000679
-0.001448
0.006187
-0.000275
-0.004259
-0.010175
-0.006456
0.001412
-0.003216
-0.005597
-0.003214
-0.001052
-0.002912
0.002303
0.003782
0.003573
0.003868
0.000878
0.001950
-0.004542
-0.003331
-0.005360
0.000787
-0.006364
-0.005906
0.002721
-0.005507
0.006034
-0.001040
-0.005114
-0.008326
-0.001322
-0.012669
-0.003875
-0.001860
0.002047
-0.002223
-0.000610
-0.004320
0.008124
0.001602
-0.000580
0.000466
0.000109
-0.000010
-0.000442
0.004383
0.002033
0.003636
-0.002894
-0.009013
0.008656
-0.004215
-0.002961
-0.003204
-0.000949
-0.001905
-0.002879
0.003950
-0.005529
0.001019
0.000753
-0.006684
-0.002032
0.001889
0.003134
-0.000519
-0.006873
-0.002364
0.001613
-0.004458
-0.004451
0.001325
0.005271
-0.006027
-0.004743
-0.000689
-0.001514
-0.004053
-0.004435
0.005208
0.003341
-0.000323
0.004313
0.002131
0.000804
-0.001190
-0.004992
0.000427
-0.008028
-0.004578
-0.002540
-0.000888
-0.002680
-0.007722
-0.002341
0.001971
0.002150
-0.003768
-0.001531
-0.007842
0.007636
-0.007164
0.000620
-0.014669
0.000542
-0.005861
-0.002992
0.010484
-0.002411
-0.003233
-0.000666
-0.000924
-0.001391
0.001964
-0.001009
-0.000156
-0.001892
0.000330
0.002080
-0.006777
-0.006065
-0.006406
-0.009518
-0.000117
-0.003087
0.001817
0.004247
-0.000647
-0.000905
0.002910
0.004196
-0.006093
-0.003469
-0.001989
0.004426
-0.004600
-0.003666
-0.003401
-0.004120
-0.003305
-0.004472
0.000200
-0.000725
0.001007
0.001528
0.001461
-0.002474
-0.001447
0.003944
-0.004579
0.005397
-0.001240
0.000373
-0.004635
-0.009439
0.004029
-0.000115
0.003110
0.000240
-0.003308
-0.001455
-0.006416
0.001517
-0.002539
-0.009966
-0.000502
-0.001295
-0.000936
-0.001031
-0.009341
-0.006799
0.002369
0.002166
-0.000296
0.000459
-0.000549
0.001439
-0.001296
-0.005049
0.000497
-0.002134
-0.005267
-0.002303
0.004861
-0.004294
0.000909
0.002844
0.002966
-0.003749
-0.004326
-0.006465
-0.009369
0.004514
-0.002522
0.011637
0.000168
-0.016098
0.001611
-0.004244
-0.005128
-0.005336
-0.005175
-0.002945
0.000053
-0.001847
-0.005198
-0.010129
0.000665
-0.003388
-0.002614
-0.003117
0.000976
-0.003866
-0.006324
-0.005782
-0.002464
0.000968
-0.000481
-0.004171
-0.001393
0.004951
0.002597
0.001889
0.001737
0.000255
-0.006043
0.007114
-0.000440
0.004391
0.006526
-0.003446
0.002860
-0.000669
-0.000485
-0.005349
0.002904
0.001607
0.001613
-0.005624
0.006980
0.000067
0.005846
-0.004444
-0.004856
-0.007971
-0.006774
-0.003774
-0.002690
-0.001320
0.008287
-0.004895
-0.003052
0.003424
-0.006231
-0.003044
-0.010193
0.000393
0.003483
-0.002158
0.004348
-0.007160
0.002948
-0.007778
-0.005854
-0.004042
-0.007279
0.002677
0.000819
-0.000562
-0.004754
-0.000617
-0.001792
-0.000010
0.008974
0.001000
0.007574
-0.003735
-0.000934
-0.007158
0.000388
-0.001398
-0.005142
-0.001217
-0.003453
-0.004552
-0.002260
0.003032
-0.004801
-0.004869
-0.003995
-0.003357
-0.001451
-0.000495
0.007588
0.001478
-0.008366
-0.009868
-0.003086
0.003254
0.002623
-0.001830
-0.001814
-0.002463
-0.000189
0.002974
-0.004045
-0.005098
0.006279
-0.009303
0.003527
0.007194
-0.001636
-0.003461
-0.001411
-0.006099
-0.001189
-0.004007
-0.007221
0.008197
-0.006892
-0.014542
-0.003122
-0.003846
0.000084
0.000967
-0.005392
-0.000800
-0.000499
-0.001023
0.004314
-0.005862
-0.003757
-0.002001
-0.001308
-0.002160
-0.002691
0.005618
-0.006586
0.001524
-0.004700
-0.004639
-0.007164
-0.011012
0.002185
-0.005679
-0.001621
0.002611
-0.000701
0.005106
-0.002366
0.003200
-0.000929
-0.001448
-0.002320
0.000471
0.001487
0.003859
-0.001030
-0.000672
-0.007180
-0.002405
-0.007820
-0.002690
-0.001556
-0.010802
-0.007687
0.004096
0.000887
-0.002069
-0.009827
-0.003865
0.006101
-0.001325
0.000385
0.004977
-0.004890
-0.011296
-0.003149
-0.001021
0.003236
-0.003806
-0.005395
0.001631
-0.009695
-0.003099
-0.003946
0.001706
-0.008724
-0.004515
-0.008580
0.005247
-0.002925
0.002900
0.001700
-0.002623
0.005764
0.001412
-0.009761
-0.010060
0.004452
0.002995
-0.003609
-0.002670
-0.002828
-0.000126
-0.004688
0.001206
-0.004289
-0.003672
-0.002608
-0.001473
-0.004995
0.002082
0.003027
0.000370
-0.005318
0.001098
-0.008416
0.004886
-0.007239
-0.005377
-0.001794
0.001858
-0.010312
0.002242
-0.000546
-0.002760
0.005266
0.007385
-0.006209
-0.005325
0.003950
-0.005222
-0.002146
-0.004285
-0.010699
-0.002439
-0.009820
0.009441
0.001468
-0.004749
-0.001724
-0.004917
0.005623
-0.004686
-0.000678
-0.002880
-0.008516
-0.003437
-0.003181
0.004708
0.003122
-0.015913
-0.002717
-0.003910
-0.003134
0.001115
-0.006422
-0.005803
-0.002969
-0.001874
-0.005019
-0.005099
0.006477
-0.001146
-0.001739
0.000953
-0.006195
-0.004416
0.001504
0.000979
0.000696
-0.003042
0.001367
0.000047
-0.002187
0.003654
-0.008602
-0.008823
0.006303
-0.000173
-0.004832
-0.004870
-0.008213
-0.005269
-0.001345
-0.001629
0.004696
-0.003250
-0.010626
0.000055
0.006934
-0.001303
0.001423
0.000141
-0.003882
-0.003267
-0.005393
0.002617
-0.000803
-0.001257
-0.000816
-0.002075
0.000321
-0.001647
-0.002105
-0.004567
0.002952
0.001020
-0.000225
-0.001828
0.000665
0.002504
-0.002085
-0.001300
-0.000616
-0.008016
0.006031
-0.002788
-0.009268
-0.000828
0.004005
0.005378
-0.011489
0.001898
-0.000437
0.001906
-0.001087
-0.009073
0.001818
-0.008322
-0.003068
0.004678
-0.003097
0.000326
0.002583
0.002116
-0.019243
0.004701
-0.004604
-0.003486
0.000980
0.004983
-0.004329
-0.009021
-0.005397
-0.001811
-0.002216
0.001839
-0.006557
0.004538
-0.013088
-0.006077
-0.002183
-0.005623
-0.004934
-0.004268
-0.003558
-0.003357
0.000840
-0.000226
-0.006859
0.002680
0.007342
-0.006085
-0.002902
0.006396
-0.001673
-0.006009
-0.008637
-0.007104
-0.007363
-0.005926
-0.002172
-0.000197
-0.005233
-0.011292
-0.006513
-0.000522
-0.003505
-0.007706
0.000040
-0.000922
0.005549
0.004281
-0.003875
-0.004683
-0.001733
-0.000118
-0.006477
0.000859
-0.003494
0.002992
0.001506
0.001203
-0.005595
0.000377
-0.011250
-0.004990
0.002055
-0.008973
-0.000521
-0.004311
-0.005644
-0.004778
-0.002527
0.002024
-0.005907
0.000102
-0.004616
-0.007382
-0.009307
0.002036
0.003312
-0.000296
-0.007928
0.002606
-0.004789
-0.006440
0.001512
0.000064
-0.002802
-0.007571
0.002768
0.002373
0.003167
-0.001955
0.012521
-0.002265
0.002731
-0.005654
-0.003382
-0.006214
0.000832
-0.005656
0.007097
-0.006852
-0.006467
-0.000534
0.000374
-0.004001
-0.001522
-0.006933
-0.001198
-0.005590
-0.003768
-0.000463
0.004756
-0.002679
-0.003504
-0.002328
-0.005422
0.002818
-0.017638
-0.001521
0.002106
0.003234
-0.002205
-0.003135
-0.007905
-0.002429
-0.003204
-0.001372
-0.003816
-0.002851
0.000253
-0.006818
-0.002398
-0.002656
0.013006
0.001477
-0.003876
-0.006721
-0.003821
-0.012113
0.004048
-0.001765
-0.006975
-0.000709
-0.005378
0.003523
-0.011416
-0.004273
-0.008259
0.000379
0.001622
0.002334
0.004254
-0.001558
-0.003760
-0.002955
-0.000961
0.000853
-0.008235
0.008735
-0.007769
0.002883
0.003247
-0.002212
-0.005503
-0.002380
-0.006441
0.000330
-0.008297
0.001201
0.003124
0.005578
-0.002402
-0.017649
-0.007359
-0.007891
-0.008362
-0.000170
-0.002157
-0.008544
-0.006037
-0.002485
0.002398
-0.006023
-0.004369
-0.003487
-0.005894
-0.005912
0.000870
0.001787
0.001651
-0.003316
0.004098
-0.000174
-0.004425
0.000414
-0.008290
-0.007944
-0.001207
0.009540
0.001304
0.008757
-0.000867
0.004971
-0.005559
-0.004855
0.003163
-0.009429
0.008971
-0.002820
-0.010374
0.005539
0.008404
-0.005195
0.004363
-0.007699
-0.005143
-0.000230
-0.007550
-0.000044
0.001441
-0.005445
-0.005063
0.004728
-0.001768
-0.000861
-0.001553
-0.005329
0.007566
0.008321
0.001869
-0.000160
0.001431
0.001373
0.003264
-0.004180
-0.004253
-0.010130
0.001640
-0.001466
-0.010440
0.005483
0.005976
-0.001928
-0.006293
-0.007294
-0.002944
-0.008181
-0.005512
0.011645
0.007239
-0.009290
-0.008798
-0.002036
-0.006453
-0.001852
-0.007407
-0.002860
-0.015938
0.007949
0.001954
-0.005682
-0.010412
-0.000951
-0.005644
-0.010879
0.000469
0.000363
0.001394
-0.002077
-0.006403
-0.004395
-0.007003
-0.008480
-0.004594
-0.003019
-0.006867
-0.000559
0.005160
0.003653
-0.000587
-0.005378
-0.013513
-0.001152
0.000521
-0.009975
0.003695
-0.004146
-0.007250
-0.000608
-0.000410
-0.002530
-0.006673
-0.010987
-0.009648
-0.003252
-0.003186
-0.012313
-0.009138
-0.001116
-0.007174
-0.002127
-0.001834
-0.002696
0.006932
-0.007716
-0.008674
-0.007933
0.006472
0.005209
-0.005203
0.001352
-0.001787
0.008826
-0.001457
-0.007752
-0.006502
-0.005075
-0.009040
-0.003943
0.002768
0.003113
-0.000797
-0.009084
-0.007805
-0.002464
-0.009328
-0.006492
-0.001627
-0.001484
-0.006330
0.001041
-0.004584
0.004770
-0.000500
0.002995
-0.009300
-0.006329
-0.004497
-0.005390
-0.006070
-0.001264
-0.004624
-0.000896
-0.007614
0.001855
-0.009028
-0.001280
0.005177
0.001511
-0.000007
0.007647
-0.011374
-0.012504
0.000144
-0.011964
-0.000292
0.002502
0.005546
-0.003160
-0.001685
0.008953
-0.007772
-0.003746
-0.000679
-0.004043
-0.002452
-0.010262
-0.003422
-0.008974
-0.006131
0.001342
0.006706
0.004062
-0.016031
-0.014617
-0.004080
0.006607
0.004268
-0.006165
-0.007093
-0.002713
-0.013299
-0.002797
-0.000894
-0.007854
-0.009215
-0.005030
-0.008430
-0.003130
0.010688
-0.007151
-0.006652
-0.002163
-0.006499
-0.015351
0.003270
-0.008819
-0.010135
-0.003577
-0.006617
-0.000567
-0.010845
-0.005105
0.000194
0.004337
-0.005723
-0.008373
-0.005145
-0.005598
0.000293
-0.005091
-0.010436
-0.003907
-0.011684
-0.001561
-0.004536
0.005696
0.007058
-0.005860
0.001586
-0.003336
-0.004808
-0.008831
0.007126
-0.000443
0.000122
0.002870
0.003936
-0.022688
-0.002777
-0.001566
-0.008556
0.001172
-0.007351
-0.005756
0.003254
0.001412
0.002822
-0.008766
-0.003889
-0.002214
-0.005634
-0.002362
-0.005944
0.000660
-0.001329
0.000227
0.006632
-0.000840
-0.005855
-0.001993
-0.007616
-0.000298
-0.004892
0.002357
0.002686
0.009093
-0.015171
0.004098
-0.004970
-0.002252
0.003829
0.002733
0.005507
-0.005759
0.002818
0.007498
0.007902
-0.008934
0.002188
-0.011478
0.000885
-0.003880
-0.008440
-0.005256
-0.006509
0.001111
-0.006023
-0.002280
-0.005348
-0.003662
-0.008156
-0.007010
-0.000436
0.014459
0.004278
0.005642
-0.010320
0.000024
-0.002048
-0.004651
-0.004061
-0.007432
-0.002285
0.003217
-0.010646
0.001488
-0.000108
-0.006541
-0.002863
-0.009038
-0.000115
-0.007632
-0.009604
0.000332
-0.003807
-0.005246
-0.002522
-0.003447
-0.005143
-0.006568
-0.006702
-0.002049
-0.018088
0.003542
-0.007854
0.003537
-0.007240
-0.004844
-0.008563
-0.011586
0.001166
-0.007608
-0.000991
0.004582
-0.010157
0.001436
-0.009640
-0.015018
0.001061
-0.004178
-0.005778
-0.001445
-0.002544
-0.008213
0.000390
-0.004129
-0.010874
-0.004649
0.007748
-0.010424
-0.007634
0.006755
-0.002207
-0.001036
-0.007052
-0.009082
-0.005497
-0.014866
-0.008982
0.000205
-0.006636
-0.005082
-0.002209
-0.008112
-0.003280
-0.011022
0.005127
0.001827
0.003866
-0.010012
-0.005325
-0.010524
-0.006825
-0.005048
-0.000080
0.002142
-0.007864
0.001911
-0.005800
-0.010230
-0.010434
0.003382
-0.020536
-0.010229
0.003639
-0.008255
-0.001365
-0.009620
-0.005363
-0.003534
-0.016020
0.000346
-0.003321
-0.000062
-0.006668
0.002037
-0.009769
0.004286
0.002110
0.002001
-0.011953
-0.007265
-0.012322
-0.005570
0.000324
-0.009567
-0.006249
-0.003936
-0.004449
0.002509
-0.003548
0.004075
0.002547
-0.008441
0.002242
-0.002203
-0.010271
-0.006950
0.002733
-0.010973
0.003573
-0.001997
-0.004065
-0.000627
0.006019
0.022758
0.000144
-0.001355
0.002369
-0.001844
0.003682
-0.002096
0.003208
-0.006357
-0.004567
0.007159
0.001583
-0.001232
-0.018306
-0.003560
-0.007308
-0.000656
-0.001350
-0.013920
-0.005744
-0.001072
-0.017106
-0.000655
-0.002544
-0.003946
-0.004742
-0.010277
-0.005085
-0.011574
0.003886
-0.011304
-0.014608
-0.007730
-0.006070
-0.003314
0.011259
-0.006724
-0.001885
0.003780
0.010229
0.006891
-0.007013
-0.001928
-0.003654
0.007217
-0.012798
0.000454
0.009054
-0.006149
0.000608
0.002499
-0.001131
0.000161
-0.002808
0.008202
-0.011930
0.005415
-0.005585
-0.002700
-0.001143
-0.009349
0.000575
-0.010129
0.004006
-0.002480
0.005726
0.010718
0.000364
-0.022908
-0.007611
-0.004765
-0.009880
-0.004668
-0.006628
-0.008718
-0.006949
-0.000636
0.005933
-0.010820
-0.013669
0.001801
-0.006171
-0.001887
-0.013805
0.007041
0.002496
-0.003183
0.004309
-0.002385
0.002231
0.004376
-0.010314
0.007657
-0.001474
0.002906
-0.002890
0.001725
-0.003473
0.001970
-0.012797
-0.003620
0.001120
-0.005076
-0.003771
-0.013065
-0.013675
0.001570
0.013675
-0.004233
-0.003304
-0.006811
-0.002869
-0.006661
-0.004836
-0.013407
-0.001534
-0.004432
-0.009420
0.005799
-0.000416
0.010988
-0.009391
-0.001053
0.003305
0.010246
0.001400
0.011308
0.000582
0.001951
0.001846
-0.005094
-0.005258
-0.005292
-0.008102
0.004576
-0.005306
0.010463
0.003015
-0.013181
-0.002726
-0.010600
0.008477
-0.009911
-0.020051
0.007383
0.001580
-0.006113
-0.005057
-0.001251
-0.004875
-0.006930
-0.014089
-0.006454
-0.014316
-0.002392
-0.008757
0.009798
-0.013725
-0.004332
-0.007424
-0.008226
-0.001670
-0.007832
0.004160
0.003872
0.002979
-0.005621
-0.009862
-0.011263
-0.000594
0.001372
0.003776
-0.003628
-0.006816
-0.003451
0.001415
-0.010837
-0.015006
-0.002541
-0.002447
-0.014402
0.000770
0.011653
-0.003875
-0.006731
-0.008420
-0.001581
-0.002260
-0.011819
-0.011948
-0.002773
-0.005896
-0.008289
-0.000078
-0.006617
-0.010261
-0.008290
0.003448
0.000507
0.005537
-0.006183
-0.010000
-0.009966
0.003266
-0.000978
-0.000648
0.000152
-0.006432
0.003300
-0.011336
-0.010257
-0.008895
0.003890
-0.014841
-0.005151
0.011140
-0.002206
-0.004491
-0.011774
0.001328
-0.000222
-0.022607
-0.003051
0.004759
0.007612
-0.004564
-0.000655
-0.013383
0.018285
-0.003214
0.003157
-0.012726
-0.006840
-0.001163
-0.013733
0.001480
-0.011648
-0.007967
-0.008604
-0.002810
0.007221
-0.004578
-0.002796
0.009403
-0.009184
-0.002758
0.002469
-0.001870
-0.002152
0.000646
-0.012362
0.011163
-0.005554
0.005959
-0.002803
0.000416
0.036662
-0.003091
-0.001292
0.005749
-0.001052
0.000406
-0.001381
0.005155
-0.003909
-0.015134
0.005212
-0.001182
0.001818
-0.022646
-0.015891
-0.000295
-0.003964
0.004187
-0.009336
-0.013431
-0.007136
-0.014694
-0.003902
-0.001146
-0.002243
-0.001801
-0.011611
-0.000448
-0.009568
0.000236
-0.004437
-0.003444
0.004377
-0.002079
-0.009737
0.007630
-0.003860
-0.006007
0.002405
0.012661
0.006074
-0.007357
-0.004070
-0.009815
0.004437
-0.004636
-0.004655
0.002413
-0.003123
-0.000676
-0.002154
-0.011023
-0.002352
-0.006562
0.010770
-0.017981
0.012252
0.000626
0.001803
0.000278
-0.005803
-0.006521
-0.012423
0.002285
0.000473
-0.003089
0.018064
-0.001287
-0.014814
-0.003038
-0.006090
0.002865
-0.000319
-0.004593
-0.001625
-0.006947
0.001649
0.002787
-0.017130
-0.011891
-0.008223
-0.000855
-0.003544
-0.009762
-0.001048
-0.012291
-0.008586
-0.005684
0.004625
-0.006988
0.003468
-0.004269
0.018978
0.005017
-0.000121
0.008225
0.003502
-0.007990
0.003755
-0.011293
-0.001494
0.005593
-0.005352
0.004058
-0.005810
-0.011666
0.002773
0.012761
-0.008426
0.000632
-0.003118
0.007486
-0.014248
0.001857
-0.015352
0.009501
-0.002780
-0.008409
-0.001443
-0.006462
0.003312
-0.000774
0.002969
0.009533
0.013242
0.008519
0.006054
-0.005147
-0.003311
-0.006567
-0.009575
0.001975
-0.001723
-0.005708
0.011479
-0.007990
0.003438
0.001307
-0.015591
0.006589
-0.005564
0.002583
-0.005104
-0.013821
-0.003855
0.005273
-0.008341
-0.007124
-0.003081
-0.000431
-0.000468
-0.011500
-0.003370
-0.021995
0.010194
-0.008644
0.012401
-0.008270
-0.012092
-0.003922
-0.007957
-0.000344
-0.008492
-0.004410
0.004581
-0.004087
0.002700
-0.020671
-0.003213
0.005099
-0.003609
-0.002031
-0.006212
-0.004765
-0.000926
0.001141
-0.003804
-0.010972
-0.004292
0.001187
-0.012635
-0.001032
0.018198
-0.003585
-0.004645
0.002304
-0.003719
0.004978
-0.011242
-0.015232
-0.003944
-0.005281
-0.010704
-0.004473
-0.012504
-0.004095
-0.013776
0.006705
-0.004206
0.006363
-0.004216
-0.010413
-0.002852
0.005406
-0.000191
0.001518
0.003411
-0.000707
-0.003440
-0.015776
-0.008982
-0.007540
0.006772
-0.015175
-0.008493
0.007421
-0.006498
0.001341
-0.007002
-0.005823
0.001994
-0.011686
-0.005267
0.004703
0.011017
-0.004483
-0.001998
-0.018884
0.020700
0.004337
0.005800
-0.022734
-0.007689
0.005021
-0.010503
-0.000190
-0.009822
-0.007087
-0.006313
0.001853
0.009928
-0.008366
0.006045
-0.003326
-0.007732
-0.003009
0.001289
-0.009164
-0.001403
0.000578
-0.007611
0.014930
-0.009216
0.011667
0.001226
-0.001646
0.043872
0.003373
0.001739
0.002101
-0.007863
0.004271
-0.004535
0.006926
-0.009711
-0.015035
0.010297
0.007851
-0.004190
-0.024607
-0.016710
-0.001078
-0.002224
-0.005209
-0.005916
-0.009487
-0.004855
-0.015365
-0.002976
-0.001229
-0.003426
-0.007393
-0.005103
-0.002468
-0.011775
0.000918
-0.012097
-0.009911
-0.007252
-0.011567
-0.007380
0.002995
-0.012481
-0.007226
0.003821
0.015309
0.007395
-0.010053
-0.002650
0.001282
0.002679
-0.010966
-0.009746
0.009390
-0.003681
0.004733
0.001578
-0.010150
-0.004335
-0.008361
0.007295
-0.011015
0.013414
0.006819
-0.000262
0.002766
-0.003239
-0.007332
-0.001996
0.004378
0.000729
-0.002213
0.010832
0.001675
-0.019865
-0.004427
-0.009227
0.001899
0.004429
0.003918
-0.003005
-0.000161
0.001813
-0.003554
-0.019748
-0.005247
-0.005975
0.005849
-0.004490
-0.009880
0.003877
-0.008828
-0.007500
0.002887
0.001083
0.000875
0.002941
0.003455
0.028890
-0.004249
-0.006914
0.009119
0.005449
-0.012678
0.007745
-0.008939
-0.003745
0.001000
-0.006221
0.009672
-0.009169
-0.004346
0.002450
0.011409
-0.012583
-0.005791
-0.001368
0.001539
-0.015366
0.004246
-0.022007
-0.001032
-0.000286
0.000506
0.000626
0.005691
0.006378
-0.003783
-0.005708
0.007241
0.011913
0.015273
0.013069
-0.005759
0.002325
-0.004849
-0.013690
0.005079
-0.004106
0.000658
0.005909
-0.006637
0.007683
-0.008069
-0.011361
0.007234
-0.006019
-0.000052
-0.006324
-0.016340
-0.005336
0.001401
-0.005778
-0.006267
-0.003866
0.002285
-0.010418
-0.004431
-0.009428
-0.029889
0.004474
-0.014250
0.001958
-0.010162
-0.000168
-0.004352
-0.010193
-0.006609
-0.011539
-0.003979
-0.005321
-0.003052
0.004154
-0.014342
-0.007095
-0.002099
-0.001914
0.000471
0.004299
-0.005655
0.001509
0.001755
-0.011010
-0.014189
-0.004995
0.004390
-0.009171
-0.004571
0.005669
-0.006590
0.002686
-0.007399
0.001629
-0.005162
-0.013530
-0.019386
-0.009587
-0.002099
-0.004635
0.010232
-0.011415
-0.004112
-0.005288
-0.000702
-0.004790
0.005190
-0.005267
-0.011356
-0.010326
-0.002357
0.001481
-0.011353
0.005062
-0.006276
0.003352
-0.007622
-0.011470
-0.016990
0.009326
-0.017358
-0.017568
0.011745
-0.003390
-0.005027
-0.005493
-0.003318
-0.003971
-0.014385
-0.014494
0.003071
-0.000224
-0.000062
-0.006344
-0.014504
0.014263
0.003936
0.001743
-0.005614
-0.008648
-0.006963
-0.014210
-0.001117
-0.006702
-0.004363
-0.007402
0.000716
0.003534
-0.009323
-0.000743
0.005524
-0.006175
-0.009086
0.004143
-0.010837
0.002985
-0.004483
-0.013436
0.008537
0.000150
0.007083
-0.008414
-0.002089
0.043926
0.001979
-0.009549
0.005304
-0.006912
-0.007294
-0.005088
-0.005727
-0.006903
-0.009460
0.018894
0.005749
0.008016
-0.027376
-0.012789
-0.000894
-0.008009
0.001688
-0.008933
-0.008227
-0.002763
-0.007905
-0.002166
0.007987
-0.005454
-0.009970
-0.010553
0.001228
-0.009854
-0.000121
-0.017210
-0.006808
-0.005021
-0.006026
-0.003512
0.007980
-0.013652
-0.006354
-0.000887
0.020628
0.001863
-0.007588
-0.007984
-0.000345
0.015018
-0.012717
0.001346
-0.000627
-0.003816
0.008443
-0.003792
-0.010617
-0.009644
-0.010388
0.008603
-0.010764
0.006827
0.004580
-0.004234
0.006947
-0.000823
0.001066
-0.011089
0.008262
-0.001315
0.009113
0.010606
0.007188
-0.020890
-0.007791
-0.000457
-0.002167
-0.001708
-0.001826
-0.005533
0.007027
-0.000133
0.002096
-0.020427
-0.011408
-0.006025
0.006525
-0.000887
-0.008204
0.007874
-0.007960
-0.003267
-0.011138
0.001246
-0.007314
0.013333
-0.004075
0.032625
-0.000648
0.005856
0.016291
0.005473
-0.010626
-0.000635
-0.006723
-0.005432
0.017161
-0.011688
0.010254
-0.002460
-0.014745
0.001640
0.006088
-0.010536
-0.008569
-0.004805
0.003961
-0.016380
0.006185
-0.022113
0.007369
0.001037
-0.008045
0.004855
0.002136
0.007729
-0.003295
-0.003387
0.012653
0.009487
0.005681
0.018802
-0.004614
-0.002961
0.007305
-0.008070
0.003400
-0.005647
-0.009644
0.013570
-0.005493
0.008341
-0.002881
-0.008854
0.000802
-0.009419
0.004282
0.004006
-0.010688
0.000215
0.002374
-0.006590
-0.007822
-0.007580
-0.000305
0.001347
-0.007448
-0.006606
-0.018091
0.003400
-0.013900
0.007877
-0.004074
-0.002744
-0.007939
-0.011670
-0.009265
-0.015830
0.003315
-0.000811
-0.000389
-0.005669
-0.018054
-0.007582
0.002123
-0.001216
-0.002546
-0.003670
-0.002500
0.004307
0.003383
-0.009297
-0.012634
-0.004342
0.001160
-0.005940
0.005568
0.010372
-0.002196
-0.002001
-0.006304
-0.004680
-0.007150
-0.019709
-0.012022
-0.003892
-0.006604
-0.011282
-0.003993
-0.004377
-0.007311
-0.010947
0.002390
0.001767
0.010393
-0.001530
-0.008729
-0.009292
0.001402
0.000333
-0.005655
0.011563
-0.006124
0.000363
-0.006389
-0.014920
-0.008403
0.005519
-0.015324
-0.008477
0.002230
-0.010497
0.005676
-0.008686
-0.008499
-0.003825
-0.014983
-0.009445
0.000653
0.007357
-0.006332
-0.006680
-0.010349
0.011500
-0.003433
0.006978
-0.010509
-0.008438
-0.001210
-0.011134
-0.003203
-0.016514
-0.004232
-0.007800
-0.001122
0.009160
-0.006663
0.006865
0.009475
-0.006393
0.002520
0.004379
-0.006262
-0.008900
-0.006779
-0.011157
0.004797
-0.006302
-0.000959
-0.004497
0.002944
0.046042
0.001226
-0.000400
0.009104
-0.006271
0.001171
-0.001196
0.005818
-0.007914
-0.006697
0.017964
0.003683
0.010651
-0.018339
-0.013148
-0.003272
-0.003750
-0.003237
-0.007381
-0.002846
-0.011174
-0.012583
-0.001676
0.002510
0.007959
-0.007142
-0.007374
-0.003893
-0.012071
-0.002656
-0.015419
-0.009479
-0.003855
-0.015795
-0.011681
0.012260
-0.006981
-0.004979
-0.001988
0.021885
-0.002467
-0.001239
-0.004441
-0.002969
0.013352
-0.017400
0.000860
0.005753
-0.006087
0.004645
0.004383
-0.004987
-0.004442
-0.009196
0.007518
-0.013669
0.007323
0.008804
0.005716
0.001273
-0.005654
-0.009508
-0.019987
0.008395
-0.003132
-0.002092
0.010961
0.007219
-0.024482
-0.004400
-0.000771
-0.005008
-0.000676
-0.008520
-0.004660
0.001713
-0.003554
0.006479
-0.016583
-0.010188
-0.001236
0.004097
-0.002914
-0.011257
0.005367
-0.001970
-0.001790
0.005015
0.002789
-0.000889
0.006549
-0.004483
0.017852
0.002274
0.001538
0.007585
0.008236
0.002252
-0.004849
-0.013008
-0.002715
0.005070
-0.013443
0.014842
-0.010153
-0.013617
0.001184
0.012475
-0.012408
-0.001294
-0.000197
-0.004127
-0.015517
-0.003693
-0.018690
0.002718
-0.003596
-0.011446
0.000467
-0.002657
-0.000238
-0.003969
-0.004738
0.012632
0.016353
0.004446
0.011751
-0.003164
0.002438
0.007101
-0.013946
-0.004107
-0.000928
-0.005234
0.006209
-0.010526
0.006818
-0.010864
-0.006705
0.008460
-0.019196
0.005052
-0.015844
-0.013025
0.011458
0.010601
-0.009868
-0.000681
-0.008704
-0.003683
0.001420
-0.000970
-0.008533
-0.012841
0.007615
-0.013802
0.008237
-0.010185
-0.004346
-0.002480
-0.012562
-0.000922
-0.008470
-0.004278
0.004111
-0.006018
0.000738
-0.014440
-0.005522
0.002311
-0.004277
-0.008041
0.000148
0.000276
-0.003773
0.004590
-0.011156
-0.007703
-0.005432
0.006549
-0.007843
0.002062
0.006251
-0.002940
-0.009356
-0.007931
-0.008089
-0.003877
-0.016852
-0.004526
-0.007887
-0.008261
0.000254
-0.007077
0.000819
-0.009161
-0.010935
0.007194
-0.008323
0.009385
-0.008183
-0.012015
-0.015112
0.002918
0.000766
-0.005730
0.003495
-0.006655
0.008396
-0.008919
-0.015480
-0.009465
0.008678
-0.015131
-0.007276
0.009102
-0.002184
-0.001447
-0.014921
0.001355
0.003942
-0.015078
-0.008624
0.004376
0.001301
-0.007303
0.000057
-0.003092
0.011322
-0.006750
-0.001419
-0.006938
-0.010574
0.003849
-0.013116
-0.003225
-0.012327
-0.004451
-0.004808
-0.002574
-0.000179
-0.004614
0.002858
0.007115
-0.011616
-0.002224
0.007070
-0.006614
-0.004726
0.004824
-0.009060
0.018054
-0.005263
-0.005131
-0.001814
0.007392
0.040942
0.005060
-0.007330
0.005436
-0.005742
0.002030
-0.012342
0.001096
-0.006251
-0.007804
0.016086
0.001851
-0.000412
-0.010124
-0.005855
0.003150
-0.000957
-0.010013
-0.013401
-0.006357
-0.001261
-0.011115
-0.003768
-0.001631
-0.006814
-0.009465
-0.012200
-0.002540
-0.008535
0.005712
-0.013772
-0.004916
0.002603
-0.009265
-0.006824
0.011913
0.000733
-0.000880
0.003650
0.008835
0.003431
-0.004107
-0.002559
-0.007622
0.016321
-0.016458
-0.005563
0.001968
-0.004778
-0.001188
-0.002469
-0.008179
0.002433
-0.009154
0.011116
-0.015671
0.003926
0.011220
-0.005212
0.003666
-0.005067
-0.001676
-0.011377
0.012657
-0.001856
0.004839
0.009148
0.007289
-0.010392
-0.007934
-0.011213
-0.002097
0.001631
-0.002783
-0.009521
-0.004795
-0.002979
0.005027
-0.011941
-0.012946
-0.003048
-0.000307
-0.012450
-0.015762
0.004762
-0.008977
-0.005144
0.002212
0.003596
0.000570
-0.003220
0.000215
0.010984
0.009232
0.001060
0.007296
0.006486
0.001084
0.002320
-0.003630
-0.001428
0.007574
-0.004683
0.005431
-0.007268
-0.007353
